~o
<STREAMINFO> 1 39
<VECSIZE> 39<NULLD><MFCC_D_A_0><DIAGC>
~s "silst"
<MEAN> 39
 -1.141563e+01 -8.118882e-01 -3.251552e+00 -5.208059e-01 -8.441891e-02 5.693988e-01 -3.706620e-01 1.116325e+00 6.901015e-01 -4.838761e-01 4.897034e-01 3.669770e-01 4.092514e+01 -8.338356e-02 -1.885518e-01 1.335932e-03 -2.514184e-01 1.334544e-01 -1.604985e-01 -2.051165e-02 -5.361442e-02 -7.182603e-02 -1.254575e-02 -4.380912e-02 -2.672345e-02 4.802984e-01 -2.924493e-02 8.054657e-02 1.298087e-01 1.080467e-01 -6.682540e-02 -4.119626e-02 3.475197e-02 2.304936e-02 -5.948052e-03 8.675035e-02 -6.400751e-03 -8.140174e-03 -1.037910e-01
<VARIANCE> 39
 3.050261e+01 2.933212e+01 2.935968e+01 3.657442e+01 3.155127e+01 3.926726e+01 2.467785e+01 2.812440e+01 2.217550e+01 2.179662e+01 1.758914e+01 1.433762e+01 9.957293e+01 2.030278e+00 1.768262e+00 1.968254e+00 2.269605e+00 1.890622e+00 2.242932e+00 1.867919e+00 1.802375e+00 1.582115e+00 1.886557e+00 1.282414e+00 1.099067e+00 3.634023e+00 2.835772e-01 2.681778e-01 3.299752e-01 3.838432e-01 3.250121e-01 4.148093e-01 3.486386e-01 3.265461e-01 2.940908e-01 3.522626e-01 2.409145e-01 2.033659e-01 4.413384e-01
<GCONST> 1.086690e+02
~h "a"
<BEGINHMM>
<NUMSTATES> 5
<STATE> 2
<MEAN> 39
 -1.152966e+00 -8.921865e+00 -4.496163e+00 -1.104399e+01 -3.235105e+00 -3.959070e+00 -4.213740e+00 3.828593e+00 1.405741e+00 -1.514878e+00 -3.276942e+00 -6.907850e+00 6.292736e+01 2.605536e-01 -1.480255e+00 -4.310574e-01 -6.559277e-01 4.643160e-01 5.231860e-01 2.293946e-01 9.050468e-01 6.974193e-02 -5.015202e-01 -4.883439e-01 -5.405158e-01 1.121747e+00 -2.451738e-01 4.858244e-01 3.035446e-01 4.594926e-01 6.442155e-02 -4.211174e-02 -2.073393e-02 -4.190757e-01 -1.712137e-01 2.934767e-04 1.469055e-01 3.183680e-01 -5.861859e-01
<VARIANCE> 39
 1.838026e+01 4.327392e+01 5.368800e+01 5.393843e+01 6.321343e+01 5.932663e+01 5.163763e+01 5.603640e+01 5.370601e+01 4.502113e+01 3.947693e+01 3.758966e+01 3.808860e+01 1.324530e+00 2.239781e+00 2.141525e+00 2.856663e+00 3.145443e+00 2.886220e+00 2.898422e+00 3.219853e+00 2.544901e+00 2.632263e+00 2.327546e+00 2.168378e+00 1.596548e+00 2.676814e-01 3.824480e-01 3.223616e-01 4.522343e-01 5.545340e-01 4.790066e-01 4.841162e-01 6.074719e-01 4.811341e-01 4.556287e-01 4.362110e-01 3.905444e-01 2.789547e-01
<GCONST> 1.212680e+02
<STATE> 3
<MEAN> 39
 -2.142459e+00 -1.118800e+01 -3.859405e+00 -1.113236e+01 -1.631672e+00 -3.119477e+00 -2.649789e+00 3.459359e+00 -9.433169e-01 -3.339408e+00 -3.715668e+00 -5.496043e+00 6.375555e+01 7.716373e-02 1.510368e-01 1.259528e-01 2.568258e-01 5.477599e-02 -3.928778e-02 -3.364381e-02 -9.948390e-02 2.061236e-02 -1.572220e-02 6.362009e-03 1.262238e-01 -3.285576e-01 1.372156e-02 3.829570e-01 1.534217e-01 1.756416e-01 -1.218939e-01 -1.136563e-01 -1.134468e-01 -2.024617e-01 3.488213e-02 1.400474e-01 1.009217e-01 1.029916e-01 -3.123965e-01
<VARIANCE> 39
 1.732317e+01 4.074102e+01 4.788252e+01 5.202249e+01 6.225794e+01 4.310365e+01 4.487115e+01 4.738923e+01 4.551593e+01 4.358471e+01 2.878706e+01 2.923597e+01 3.425412e+01 3.077902e-01 7.906039e-01 8.541902e-01 1.034400e+00 1.505240e+00 1.500746e+00 1.417215e+00 1.476944e+00 1.255628e+00 1.280919e+00 1.123805e+00 1.025509e+00 4.449434e-01 7.487432e-02 1.699964e-01 1.427767e-01 2.161568e-01 2.369702e-01 2.201390e-01 2.675985e-01 3.362011e-01 2.582493e-01 2.495427e-01 2.235592e-01 1.950517e-01 1.119730e-01
<GCONST> 9.803194e+01
<STATE> 4
<MEAN> 39
 -7.061777e-01 -7.242061e+00 -2.818187e+00 -8.951927e+00 -3.578093e+00 -4.523039e+00 -4.477967e+00 3.237772e+00 1.100443e+00 -1.529718e+00 -2.867990e+00 -5.615257e+00 6.006438e+01 6.576463e-02 1.423933e+00 6.378862e-01 1.048903e+00 -3.914413e-04 -5.059907e-03 -3.194758e-01 -8.462760e-01 -6.626450e-02 2.407334e-01 1.538667e-01 3.808248e-01 -1.587368e+00 -1.404878e-01 1.634278e-01 3.814209e-02 1.522202e-01 7.588544e-02 1.522982e-01 7.891573e-02 -1.687898e-01 -1.135030e-01 -7.125412e-02 -2.245101e-03 1.633017e-02 -1.973212e-01
<VARIANCE> 39
 1.408647e+01 3.760343e+01 5.173406e+01 4.668789e+01 6.143713e+01 5.600702e+01 4.768467e+01 4.821941e+01 4.645057e+01 4.451765e+01 3.534887e+01 3.387612e+01 3.761541e+01 7.057979e-01 1.094193e+00 1.422926e+00 1.591101e+00 1.998067e+00 2.003047e+00 2.077681e+00 2.697389e+00 2.180888e+00 1.838784e+00 1.724590e+00 1.342813e+00 8.477800e-01 1.239544e-01 2.204337e-01 2.339648e-01 2.809935e-01 3.675785e-01 3.770436e-01 3.554417e-01 4.612125e-01 3.477793e-01 3.409946e-01 3.167478e-01 2.574790e-01 1.569638e-01
<GCONST> 1.091084e+02
<TRANSP> 5
 0.000000e+00 1.000000e+00 0.000000e+00 0.000000e+00 0.000000e+00
 0.000000e+00 4.996888e-01 5.003112e-01 0.000000e+00 0.000000e+00
 0.000000e+00 0.000000e+00 7.123314e-01 2.876686e-01 0.000000e+00
 0.000000e+00 0.000000e+00 0.000000e+00 4.986304e-01 5.013696e-01
 0.000000e+00 0.000000e+00 0.000000e+00 0.000000e+00 0.000000e+00
<ENDHMM>
~h "b"
<BEGINHMM>
<NUMSTATES> 5
<STATE> 2
<MEAN> 39
 2.233526e-01 5.130224e+00 3.385364e+00 -1.866346e+00 -2.420326e+00 -1.402300e+00 -4.624824e+00 -3.477877e+00 -2.954935e+00 -1.459522e+00 -1.733264e+00 -3.835096e+00 5.048539e+01 7.666113e-02 7.627730e-01 1.676918e-01 5.596640e-01 4.221858e-01 3.697128e-01 4.590773e-01 -1.233758e-01 -1.715567e-01 -2.871346e-01 -2.775640e-01 4.386642e-02 -6.242560e-01 -6.841427e-02 -3.814443e-01 -1.557294e-01 -3.839446e-01 -2.714646e-01 -2.816974e-01 -2.550043e-01 6.684539e-02 7.950937e-02 1.280295e-01 2.255563e-01 -2.919926e-02 4.907312e-01
<VARIANCE> 39
 1.798593e+01 3.234089e+01 3.192471e+01 3.573768e+01 3.230769e+01 2.663607e+01 2.810702e+01 2.423313e+01 2.763187e+01 2.343351e+01 2.092379e+01 1.719407e+01 3.018203e+01 6.395637e-01 9.837635e-01 1.171172e+00 1.565713e+00 1.339947e+00 1.379765e+00 1.630615e+00 1.597610e+00 1.549937e+00 1.534068e+00 1.433729e+00 9.584709e-01 8.766766e-01 1.264357e-01 2.051728e-01 2.582848e-01 3.436030e-01 2.801969e-01 3.304845e-01 3.583187e-01 3.992365e-01 3.725303e-01 3.619944e-01 3.402670e-01 2.254328e-01 1.297611e-01
<GCONST> 9.988602e+01
<STATE> 3
<MEAN> 39
 2.426288e-01 6.282427e+00 2.756702e+00 -1.277175e+00 -2.217773e+00 -7.376207e-01 -4.294626e+00 -4.171718e+00 -3.910199e+00 -1.944163e+00 -1.845564e+00 -3.380212e+00 4.892727e+01 2.684827e-01 -9.201032e-01 -7.467123e-01 -1.145058e+00 -3.443441e-01 -8.425531e-01 -9.403248e-01 -1.408167e-01 1.644311e-01 6.769821e-01 8.176777e-01 -2.748230e-01 1.679866e+00 -1.293521e-01 -7.019780e-01 -2.176816e-01 -6.943103e-01 -3.609000e-01 -3.644909e-01 -3.520716e-01 2.531728e-01 3.056514e-01 4.034719e-01 1.839513e-01 -1.644766e-01 7.279093e-01
<VARIANCE> 39
 3.571607e+01 3.806324e+01 3.488566e+01 3.948943e+01 3.602885e+01 3.208941e+01 3.203784e+01 3.031361e+01 3.077613e+01 3.091320e+01 2.743107e+01 2.115979e+01 5.018436e+01 2.388546e+00 3.037331e+00 3.167945e+00 4.193107e+00 2.731149e+00 3.434663e+00 3.100623e+00 3.230604e+00 3.523414e+00 3.224771e+00 3.276298e+00 2.241266e+00 2.021671e+00 3.139694e-01 4.730799e-01 4.736901e-01 5.283518e-01 4.768221e-01 4.900064e-01 5.256745e-01 6.633642e-01 6.516163e-01 5.404968e-01 5.515382e-01 4.154332e-01 2.697873e-01
<GCONST> 1.218013e+02
<STATE> 4
<MEAN> 39
 9.341362e-01 2.828416e-01 -4.982556e-01 -7.936470e+00 -3.772665e+00 -3.928476e+00 -8.627533e+00 -3.773234e+00 -1.764222e+00 2.524102e+00 1.880829e+00 -5.777344e+00 5.724055e+01 -3.684214e-01 -2.196614e+00 -8.121174e-01 -2.093142e+00 -9.939554e-01 -1.093029e+00 -8.802994e-01 1.287491e+00 1.154200e+00 1.086059e+00 3.069387e-01 -8.230594e-01 2.457842e+00 -1.745760e-01 9.528106e-02 3.927167e-01 2.374974e-01 -4.255646e-02 1.235092e-01 4.084060e-01 2.868014e-01 -4.497318e-02 -3.805220e-01 -4.666342e-01 1.326434e-01 -2.262226e-01
<VARIANCE> 39
 1.855156e+01 3.483216e+01 2.928573e+01 6.682706e+01 3.633434e+01 4.644984e+01 4.055816e+01 4.119712e+01 5.203098e+01 4.846274e+01 4.537086e+01 3.357922e+01 3.502612e+01 1.775635e+00 3.586002e+00 4.112735e+00 5.168907e+00 3.474277e+00 4.029470e+00 4.537977e+00 5.359324e+00 5.829591e+00 4.944298e+00 4.875319e+00 3.914462e+00 2.261050e+00 2.077864e-01 4.458820e-01 3.030460e-01 8.389809e-01 5.093828e-01 5.674793e-01 6.089347e-01 5.784521e-01 5.739182e-01 6.856385e-01 6.405821e-01 4.761673e-01 3.295328e-01
<GCONST> 1.278984e+02
<TRANSP> 5
 0.000000e+00 1.000000e+00 0.000000e+00 0.000000e+00 0.000000e+00
 0.000000e+00 6.569083e-01 3.430917e-01 0.000000e+00 0.000000e+00
 0.000000e+00 0.000000e+00 4.731174e-01 5.268826e-01 0.000000e+00
 0.000000e+00 0.000000e+00 0.000000e+00 3.663542e-01 6.336458e-01
 0.000000e+00 0.000000e+00 0.000000e+00 0.000000e+00 0.000000e+00
<ENDHMM>
~h "c"
<BEGINHMM>
<NUMSTATES> 5
<STATE> 2
<MEAN> 39
 -6.914195e+00 4.096423e+00 1.843798e+00 -2.264596e+00 -4.419629e+00 -6.122456e+00 -2.613633e+00 -1.256148e+00 -5.491523e-01 -1.642044e+00 -1.266061e+00 -1.753124e+00 4.931004e+01 -2.090831e+00 2.469938e-01 -8.068258e-01 -2.394516e-01 5.988677e-01 1.245500e-01 3.450074e-01 -2.750935e-01 1.955243e-01 -1.650888e-01 2.391449e-01 7.150009e-02 -2.119129e-01 -3.768107e-01 -6.836500e-02 -7.416588e-02 -3.363817e-01 -1.168960e-01 -1.900389e-01 2.733186e-02 2.499336e-02 3.937211e-02 -6.310701e-02 1.229504e-01 3.720748e-02 7.418019e-01
<VARIANCE> 39
 2.457501e+01 3.322110e+01 3.321582e+01 3.421829e+01 3.605489e+01 4.315428e+01 2.536512e+01 2.957369e+01 2.800629e+01 2.545178e+01 1.924328e+01 1.985742e+01 3.782942e+01 2.929502e+00 2.405056e+00 2.582402e+00 2.803596e+00 2.193466e+00 2.483196e+00 2.148350e+00 2.112414e+00 2.043822e+00 1.914325e+00 1.673765e+00 1.309101e+00 3.909932e+00 4.761750e-01 3.642642e-01 4.248703e-01 3.878523e-01 3.793283e-01 4.910952e-01 3.728485e-01 4.522392e-01 4.267647e-01 3.268039e-01 3.127128e-01 2.513100e-01 3.898857e-01
<GCONST> 1.137169e+02
<STATE> 3
<MEAN> 39
 -1.872830e+01 5.021319e+00 -2.155166e-01 -5.684452e+00 -2.530492e+00 -7.288526e+00 -4.604996e-01 -2.150609e+00 1.826278e-01 -2.472884e+00 7.768574e-01 -1.256773e+00 5.561363e+01 1.764234e-01 -5.295116e-01 1.415090e-01 -4.646260e-01 -1.024423e+00 -8.848283e-01 1.998765e-01 6.310242e-01 1.596423e-01 -3.113032e-01 1.422028e-01 1.703992e-01 1.771832e+00 1.849292e+00 -6.718376e-01 1.409229e-01 9.478939e-02 -4.843019e-01 -5.752028e-02 -3.208509e-01 3.814555e-01 -2.029781e-02 5.615244e-02 -3.372618e-01 -2.057579e-01 -7.889487e-02
<VARIANCE> 39
 2.141303e+01 1.869706e+01 3.664748e+01 2.986067e+01 3.357117e+01 3.594596e+01 3.486745e+01 2.588223e+01 3.157518e+01 3.270508e+01 1.923848e+01 2.123491e+01 2.484713e+01 1.090232e+01 2.816860e+00 2.914031e+00 2.925006e+00 3.409021e+00 2.618362e+00 2.693428e+00 3.058483e+00 2.538249e+00 2.237270e+00 2.161796e+00 1.777911e+00 2.135692e+00 5.100316e-01 6.432920e-01 7.045431e-01 6.487917e-01 6.649829e-01 5.437745e-01 4.930027e-01 6.080267e-01 5.087583e-01 5.474747e-01 4.020481e-01 3.900699e-01 3.637882e-01
<GCONST> 1.201792e+02
<STATE> 4
<MEAN> 39
 -6.243290e+00 -1.557327e-01 1.543885e-01 -6.099250e+00 -8.379833e+00 -1.111900e+01 -1.192295e+00 2.491366e+00 8.835410e-01 -3.477272e+00 -1.768711e+00 -1.937353e+00 6.038799e+01 3.861917e+00 -2.772671e+00 -8.291587e-01 -8.884794e-01 -8.211974e-01 8.284806e-02 -5.486433e-01 1.720823e+00 3.413106e-01 -1.533159e-02 -9.812083e-01 -9.603693e-01 1.729406e+00 -4.713440e-01 -1.270740e-01 -3.468868e-01 -1.495370e-01 7.653192e-01 6.426981e-01 -6.443390e-02 -2.139243e-01 -8.013702e-02 1.314656e-01 1.760308e-02 -2.209100e-01 -2.517729e-01
<VARIANCE> 39
 2.795077e+01 3.050911e+01 4.357505e+01 2.744206e+01 3.877668e+01 2.710536e+01 4.330267e+01 3.537313e+01 2.469687e+01 2.776829e+01 1.633528e+01 1.270016e+01 3.885176e+01 2.540499e+00 3.636508e+00 3.297491e+00 3.120154e+00 4.514826e+00 3.033022e+00 2.973587e+00 4.506393e+00 2.364717e+00 3.590266e+00 1.991790e+00 1.942560e+00 1.464287e+00 7.257806e-01 4.489282e-01 4.094649e-01 3.868750e-01 4.571360e-01 3.952028e-01 3.287318e-01 5.116704e-01 3.849216e-01 4.610515e-01 4.213466e-01 3.058537e-01 2.815806e-01
<GCONST> 1.174662e+02
<TRANSP> 5
 0.000000e+00 1.000000e+00 0.000000e+00 0.000000e+00 0.000000e+00
 0.000000e+00 7.532735e-01 2.467265e-01 0.000000e+00 0.000000e+00
 0.000000e+00 0.000000e+00 6.937500e-01 3.062501e-01 0.000000e+00
 0.000000e+00 0.000000e+00 0.000000e+00 5.409862e-01 4.590139e-01
 0.000000e+00 0.000000e+00 0.000000e+00 0.000000e+00 0.000000e+00
<ENDHMM>
~h "d"
<BEGINHMM>
<NUMSTATES> 5
<STATE> 2
<MEAN> 39
 -6.103843e+00 9.294034e-01 1.941225e+00 -4.693478e-01 -2.623765e+00 -2.748459e+00 -1.962977e+00 1.430780e-01 -5.622540e-01 -1.628951e+00 -1.054919e+00 -1.559569e+00 4.568738e+01 3.272020e-03 5.385599e-01 1.826918e-01 4.153015e-01 3.266189e-01 1.690814e-01 1.520604e-01 -5.146927e-02 -6.837392e-02 -1.116713e-01 -1.920342e-01 -4.145838e-02 -5.205827e-01 -5.482931e-02 -1.893251e-01 1.796812e-02 -2.141138e-01 -1.604632e-01 -1.553838e-01 -5.186201e-02 6.357057e-02 -2.070054e-02 1.940025e-03 1.084732e-01 3.078898e-02 3.204212e-01
<VARIANCE> 39
 5.371347e+01 4.470433e+01 4.153249e+01 3.867722e+01 5.404096e+01 4.515339e+01 4.491052e+01 3.708789e+01 3.079999e+01 2.905284e+01 2.640312e+01 2.319376e+01 8.228958e+01 7.523639e-01 1.395280e+00 1.128542e+00 1.476205e+00 1.673710e+00 1.732825e+00 1.663695e+00 1.905985e+00 1.603432e+00 1.538587e+00 1.446201e+00 1.104360e+00 9.775047e-01 1.592346e-01 2.890210e-01 2.177331e-01 3.114147e-01 3.393885e-01 3.608674e-01 3.309415e-01 4.069618e-01 3.249575e-01 3.241687e-01 3.100197e-01 2.241158e-01 2.045425e-01
<GCONST> 1.074322e+02
<STATE> 3
<MEAN> 39
 3.734707e-01 4.695514e+00 5.331108e+00 8.305350e-02 -4.441079e+00 -4.796502e+00 -4.856516e+00 -9.923128e-01 -1.030045e+00 -3.358206e+00 -3.917356e+00 -3.383182e+00 5.073531e+01 -2.013450e-01 -8.463277e-01 5.698223e-01 -7.247556e-01 -6.706592e-01 -1.134089e+00 -3.776158e-01 3.615696e-01 -3.337542e-02 -1.881576e-01 5.377752e-01 4.382244e-01 1.501729e+00 -2.661010e-01 -7.768704e-01 -1.082319e-01 -7.925322e-01 -6.439725e-01 -4.368942e-01 -2.076339e-01 2.623369e-01 1.338886e-01 2.155619e-01 4.339906e-01 1.001331e-01 8.768658e-01
<VARIANCE> 39
 2.168809e+01 5.116384e+01 3.238511e+01 3.662375e+01 4.516225e+01 3.059377e+01 3.182468e+01 3.140247e+01 2.758645e+01 2.784988e+01 2.533462e+01 1.924042e+01 4.102251e+01 2.707540e+00 4.508153e+00 2.557486e+00 3.336583e+00 4.198552e+00 3.587500e+00 3.216947e+00 4.552409e+00 2.773546e+00 2.740072e+00 2.702344e+00 2.005688e+00 2.636821e+00 3.280869e-01 5.712166e-01 4.470058e-01 5.052125e-01 6.483444e-01 5.444788e-01 5.798754e-01 8.020309e-01 5.311452e-01 4.886578e-01 4.704542e-01 3.778697e-01 2.713660e-01
<GCONST> 1.218334e+02
<STATE> 4
<MEAN> 39
 -1.629602e+00 -2.999567e+00 5.879021e+00 -5.922563e+00 -9.573036e+00 -1.128585e+01 -7.098544e+00 2.776865e+00 5.329750e-01 -2.854335e+00 1.843991e-01 -1.034765e+00 6.001825e+01 -5.355837e-01 -1.605801e+00 -4.932199e-01 -2.087373e+00 -1.642589e+00 -1.068831e+00 -9.632966e-02 1.418484e+00 5.488515e-01 5.812031e-01 8.351325e-01 -2.791836e-01 2.350594e+00 1.181040e-01 3.600765e-01 -2.763321e-01 4.961511e-02 3.412474e-01 6.527650e-01 2.594585e-01 -1.444458e-01 -8.251792e-02 8.176044e-02 -3.405822e-01 -4.464843e-01 -3.735687e-01
<VARIANCE> 39
 1.716768e+01 3.620605e+01 3.385664e+01 4.506403e+01 5.215955e+01 3.939803e+01 5.439845e+01 6.184149e+01 4.601111e+01 3.566237e+01 2.478882e+01 2.287557e+01 3.309622e+01 1.568002e+00 3.658077e+00 3.961284e+00 3.281583e+00 4.027980e+00 3.549746e+00 4.515448e+00 6.113385e+00 3.861141e+00 2.997248e+00 3.444489e+00 2.593649e+00 1.981895e+00 1.476097e-01 4.275969e-01 3.497656e-01 6.210862e-01 8.287944e-01 6.029797e-01 6.423521e-01 7.029404e-01 4.799393e-01 5.140970e-01 4.488371e-01 3.581323e-01 2.950454e-01
<GCONST> 1.238175e+02
<TRANSP> 5
 0.000000e+00 1.000000e+00 0.000000e+00 0.000000e+00 0.000000e+00
 0.000000e+00 7.125151e-01 2.874849e-01 0.000000e+00 0.000000e+00
 0.000000e+00 0.000000e+00 5.462276e-01 4.537724e-01 0.000000e+00
 0.000000e+00 0.000000e+00 0.000000e+00 4.737303e-01 5.262697e-01
 0.000000e+00 0.000000e+00 0.000000e+00 0.000000e+00 0.000000e+00
<ENDHMM>
~h "e"
<BEGINHMM>
<NUMSTATES> 5
<STATE> 2
<MEAN> 39
 -1.630154e+00 -1.895895e+00 -1.377146e+00 -8.432261e+00 -5.405540e+00 -6.578320e+00 -6.573282e+00 -5.384659e-01 5.290151e-01 4.576169e-01 -4.402642e-01 -3.946929e+00 5.899699e+01 1.409752e+00 -8.797879e-01 8.238181e-02 -1.313404e+00 -8.942257e-01 -2.535155e-01 -8.490459e-01 6.944542e-01 3.645737e-01 3.903868e-01 6.873027e-03 -5.222863e-01 1.625952e+00 -3.162434e-01 2.519535e-01 1.987184e-01 4.172413e-01 1.955472e-01 2.804249e-01 2.312088e-01 -1.248093e-01 -1.536770e-01 -1.322462e-01 -4.395584e-02 8.899609e-02 -6.046691e-01
<VARIANCE> 39
 3.415781e+01 4.281388e+01 5.257779e+01 6.030246e+01 6.190934e+01 7.123544e+01 4.871418e+01 5.337017e+01 5.065755e+01 4.778889e+01 3.915575e+01 2.580588e+01 4.906971e+01 3.896950e+00 3.329985e+00 3.339436e+00 4.212114e+00 4.543053e+00 4.459095e+00 4.691136e+00 4.792074e+00 4.535454e+00 3.581399e+00 3.226804e+00 2.438230e+00 2.025757e+00 4.860399e-01 4.974999e-01 5.409061e-01 6.819551e-01 6.114278e-01 6.485409e-01 6.601406e-01 6.633962e-01 6.330308e-01 5.738215e-01 5.250254e-01 3.816988e-01 4.556890e-01
<GCONST> 1.311957e+02
<STATE> 3
<MEAN> 39
 -7.940137e-01 -3.684227e+00 -1.343812e+00 -9.943572e+00 -6.085361e+00 -6.865401e+00 -7.341730e+00 1.177516e+00 1.162872e+00 8.307329e-01 -3.857404e-01 -4.584625e+00 6.109395e+01 4.973180e-01 -9.621821e-02 4.419252e-01 -1.117141e-02 -3.070861e-01 9.757874e-02 -1.409247e-01 1.734502e-01 -7.843228e-02 3.189637e-02 -5.734622e-02 -8.109459e-02 4.690470e-02 -4.424573e-01 5.329154e-01 2.098008e-01 7.250915e-01 3.462402e-01 2.527851e-01 3.674040e-01 -4.118155e-01 -2.419621e-01 -2.302839e-01 -5.015607e-02 2.109713e-01 -8.539729e-01
<VARIANCE> 39
 2.644842e+01 4.355760e+01 5.646508e+01 6.227050e+01 6.701979e+01 7.120271e+01 5.395750e+01 5.838792e+01 5.949235e+01 5.596790e+01 4.464040e+01 3.072198e+01 3.606509e+01 1.342110e+00 1.705507e+00 1.721719e+00 2.777324e+00 2.642300e+00 2.898786e+00 2.540865e+00 2.813628e+00 2.496795e+00 2.256319e+00 2.046021e+00 1.574497e+00 1.073393e+00 4.827498e-01 4.621413e-01 5.341529e-01 6.241315e-01 6.874709e-01 6.700934e-01 7.343708e-01 7.716725e-01 7.203840e-01 6.422860e-01 5.846992e-01 3.989395e-01 2.788527e-01
<GCONST> 1.242572e+02
<STATE> 4
<MEAN> 39
 -1.447344e+00 -3.480327e+00 1.211843e+00 -9.073404e+00 -7.813718e+00 -7.272170e+00 -5.322082e+00 6.461765e-01 -9.915749e-01 -1.007082e-01 -2.377958e-01 -3.768180e+00 6.003397e+01 3.274556e-02 6.682512e-01 3.767295e-01 8.658273e-01 3.358355e-01 3.191960e-01 1.434360e-01 -3.679821e-01 -1.574225e-01 -1.854331e-01 -1.834002e-01 1.329490e-01 -1.024412e+00 -2.076219e-01 2.348191e-01 -1.082773e-03 3.004755e-01 1.726173e-01 1.078373e-01 1.136110e-01 -1.759955e-01 -1.801335e-02 -7.194322e-02 -3.719856e-02 5.973447e-02 -3.618468e-01
<VARIANCE> 39
 2.220565e+01 4.189635e+01 5.945059e+01 6.068902e+01 8.598744e+01 6.169025e+01 5.129936e+01 5.087947e+01 5.024692e+01 4.782255e+01 4.942075e+01 2.523825e+01 3.521327e+01 8.341842e-01 1.485650e+00 1.520884e+00 2.048901e+00 1.905529e+00 1.994370e+00 2.127782e+00 2.390287e+00 2.052690e+00 1.786087e+00 1.682921e+00 1.197458e+00 1.242185e+00 2.399203e-01 2.452387e-01 2.927969e-01 3.854985e-01 4.260336e-01 4.239461e-01 4.423161e-01 4.651227e-01 4.114181e-01 3.680584e-01 3.576118e-01 2.503650e-01 1.462121e-01
<GCONST> 1.136207e+02
<TRANSP> 5
 0.000000e+00 1.000000e+00 0.000000e+00 0.000000e+00 0.000000e+00
 0.000000e+00 2.399494e-01 7.600506e-01 0.000000e+00 0.000000e+00
 0.000000e+00 0.000000e+00 1.523036e-01 8.476964e-01 0.000000e+00
 0.000000e+00 0.000000e+00 0.000000e+00 4.899988e-01 5.100012e-01
 0.000000e+00 0.000000e+00 0.000000e+00 0.000000e+00 0.000000e+00
<ENDHMM>
~h "f"
<BEGINHMM>
<NUMSTATES> 5
<STATE> 2
<MEAN> 39
 -6.931695e+00 1.371159e+00 3.054647e-01 -1.390129e+00 -3.247257e+00 -3.550668e+00 -4.481403e+00 -1.915088e+00 -7.172843e-01 -1.570395e+00 -3.253336e-01 -2.800543e+00 5.278223e+01 -2.287413e+00 -2.421757e-02 -1.194078e+00 1.356941e+00 4.664217e-01 -5.557759e-01 1.922512e-01 8.590396e-02 3.833477e-01 2.047389e-01 7.233193e-02 4.278186e-01 -5.780737e-01 1.050053e-02 -2.331342e-01 1.915970e-02 -2.581845e-01 -3.406743e-01 -1.674480e-01 -5.975953e-02 -3.213974e-02 -3.229849e-02 5.505333e-02 2.809895e-02 -9.449261e-02 1.688135e-01
<VARIANCE> 39
 2.555645e+01 2.440833e+01 5.668423e+01 3.989079e+01 5.904794e+01 6.586610e+01 4.050749e+01 2.963993e+01 3.080476e+01 2.428300e+01 2.472987e+01 2.007239e+01 2.721365e+01 1.300625e+00 2.073635e+00 2.926804e+00 2.171274e+00 4.505981e+00 2.740902e+00 2.902529e+00 2.613104e+00 2.040139e+00 2.295165e+00 1.371328e+00 1.458799e+00 7.475622e-01 3.345179e-01 2.485506e-01 3.402941e-01 3.514281e-01 4.741505e-01 4.005025e-01 3.037195e-01 3.761756e-01 3.491451e-01 3.444116e-01 1.988331e-01 2.826656e-01 9.822867e-02
<GCONST> 1.108903e+02
<STATE> 3
<MEAN> 39
 -1.225968e+01 -1.567793e+00 -3.354860e+00 1.175660e+00 -2.357642e+00 -1.810774e+00 -1.896852e+00 5.478722e-01 1.607266e-01 -8.131974e-01 5.575491e-01 -1.531135e+00 4.480982e+01 -4.280772e-01 -1.242225e-01 -9.896172e-02 1.218716e-01 -5.788733e-02 -1.025026e-01 1.151758e-01 7.084575e-03 3.269216e-02 1.112515e-01 5.156764e-02 1.259410e-01 -2.391627e-01 3.183037e-01 -1.397134e-02 1.239568e-01 -1.860109e-01 -3.599294e-02 9.974926e-02 -2.803511e-03 -3.808203e-02 -1.127048e-01 -3.129980e-02 -2.607761e-02 -3.659430e-02 4.400935e-02
<VARIANCE> 39
 1.559734e+01 2.362403e+01 2.647144e+01 3.860448e+01 2.871042e+01 3.548520e+01 3.719780e+01 3.831301e+01 2.275360e+01 2.142383e+01 1.957874e+01 1.398773e+01 9.191104e+01 7.509609e-01 7.150090e-01 1.056004e+00 1.063424e+00 1.112343e+00 1.253738e+00 1.578251e+00 1.437801e+00 1.332277e+00 1.129142e+00 9.215395e-01 8.901060e-01 5.353681e-01 2.548887e-01 1.634780e-01 2.559690e-01 2.562107e-01 2.790809e-01 2.857563e-01 3.555847e-01 3.266828e-01 3.016295e-01 2.469583e-01 1.926629e-01 1.835337e-01 9.328218e-02
<GCONST> 9.636319e+01
<STATE> 4
<MEAN> 39
 -1.240000e+01 -8.740392e-01 -1.775955e+00 3.870568e-01 -3.630074e+00 -4.420497e+00 -3.263401e+00 -2.397283e+00 1.692751e-02 -2.312393e-01 -5.031006e-01 -2.144404e+00 5.145836e+01 1.856639e+00 1.228210e-01 6.016915e-01 -1.440881e+00 -8.491129e-01 2.892018e-01 8.458553e-03 -6.325485e-01 -9.626910e-01 -9.349173e-02 7.217371e-02 -3.004477e-01 6.238011e-01 8.493390e-01 2.600177e-01 3.836487e-01 -8.540397e-01 -4.423304e-01 1.612248e-01 -1.499533e-01 -1.511521e-01 -3.423285e-01 2.247259e-02 1.354351e-01 -2.351373e-01 4.834341e-01
<VARIANCE> 39
 2.079739e+01 1.840185e+01 4.494576e+01 3.557187e+01 4.377345e+01 3.948429e+01 4.243807e+01 2.666975e+01 2.507854e+01 1.828916e+01 1.883324e+01 1.803230e+01 3.425548e+01 3.355458e+00 3.139195e+00 5.191587e+00 5.073660e+00 3.286215e+00 3.752369e+00 2.424175e+00 2.824158e+00 2.854077e+00 1.637335e+00 1.969134e+00 1.903437e+00 3.108535e+00 3.844183e-01 5.093994e-01 7.201420e-01 8.016215e-01 6.325929e-01 5.314555e-01 5.430659e-01 5.396423e-01 4.820265e-01 2.931282e-01 3.240704e-01 4.007046e-01 2.600065e-01
<GCONST> 1.191940e+02
<TRANSP> 5
 0.000000e+00 1.000000e+00 0.000000e+00 0.000000e+00 0.000000e+00
 0.000000e+00 6.265190e-01 3.734810e-01 0.000000e+00 0.000000e+00
 0.000000e+00 0.000000e+00 8.006534e-01 1.993466e-01 0.000000e+00
 0.000000e+00 0.000000e+00 0.000000e+00 6.035006e-01 3.964994e-01
 0.000000e+00 0.000000e+00 0.000000e+00 0.000000e+00 0.000000e+00
<ENDHMM>
~h "g"
<BEGINHMM>
<NUMSTATES> 5
<STATE> 2
<MEAN> 39
 -5.569963e-02 4.641468e+00 3.650956e+00 -2.583588e+00 -5.356951e+00 -4.698463e+00 -5.809996e+00 -2.566918e+00 -2.422189e+00 -7.975747e-01 -2.639523e+00 -3.309557e+00 5.122361e+01 -1.434956e-01 8.314507e-01 2.666695e-01 7.606723e-01 4.086048e-01 5.951049e-01 3.768719e-01 -1.587872e-01 -1.793027e-02 -3.143687e-01 -3.508832e-01 2.418788e-02 -1.056279e+00 -1.847462e-01 -3.668650e-01 -1.202138e-01 -3.369432e-01 -6.553267e-03 -2.189326e-01 -8.620301e-02 1.733150e-01 1.489016e-02 8.731051e-02 9.945501e-02 9.465029e-03 4.722584e-01
<VARIANCE> 39
 1.235715e+01 3.623495e+01 2.868315e+01 3.800002e+01 4.543837e+01 3.417725e+01 3.535595e+01 2.777627e+01 2.137756e+01 2.865197e+01 2.855838e+01 2.548659e+01 2.766725e+01 5.610340e-01 8.387512e-01 1.139971e+00 1.626306e+00 1.785269e+00 1.756323e+00 1.888418e+00 1.906727e+00 1.858433e+00 1.786334e+00 1.684440e+00 1.388862e+00 8.350250e-01 1.410727e-01 1.905054e-01 2.953911e-01 3.091568e-01 5.126234e-01 4.517133e-01 4.193546e-01 4.382390e-01 4.123807e-01 3.647314e-01 3.394913e-01 2.928278e-01 1.510142e-01
<GCONST> 1.042377e+02
<STATE> 3
<MEAN> 39
 -8.857665e-01 6.052005e+00 3.506835e+00 -1.272245e+00 -4.747614e+00 -3.868718e+00 -5.484654e+00 -2.572005e+00 -2.401337e+00 -1.085073e+00 -3.245916e+00 -3.340258e+00 4.917034e+01 -8.616555e-01 -8.579324e-01 -1.873140e-01 -4.596670e-01 7.471646e-01 -9.314543e-01 -9.669598e-02 2.657398e-01 -3.877832e-01 2.584702e-01 6.969851e-02 2.616171e-01 1.169049e+00 -1.008868e-01 -4.515076e-01 2.480310e-02 -6.187670e-01 -3.206754e-01 -4.635327e-01 -2.460869e-01 3.548931e-02 -5.065667e-02 1.683443e-01 2.215742e-01 9.196055e-02 7.757688e-01
<VARIANCE> 39
 2.130704e+01 3.892634e+01 3.638543e+01 4.358199e+01 4.704531e+01 3.741307e+01 3.711903e+01 3.050253e+01 2.442005e+01 3.043625e+01 2.603691e+01 2.080112e+01 3.816199e+01 1.908983e+00 3.186946e+00 3.500964e+00 3.548309e+00 5.521917e+00 4.183771e+00 3.768091e+00 3.735993e+00 2.826962e+00 2.773611e+00 2.598594e+00 1.901273e+00 1.560675e+00 2.779083e-01 4.114669e-01 4.378934e-01 4.872332e-01 7.929618e-01 5.196533e-01 5.063132e-01 6.677098e-01 4.580370e-01 4.876073e-01 4.940436e-01 3.286114e-01 2.151812e-01
<GCONST> 1.204931e+02
<STATE> 4
<MEAN> 39
 -3.095288e+00 7.227645e-01 2.823218e+00 -5.160642e+00 -4.550913e+00 -1.038561e+01 -7.306594e+00 -6.696069e-01 -3.408736e+00 1.069508e+00 -2.051527e+00 -2.293088e+00 5.702923e+01 -1.174218e-01 -9.884783e-01 2.007020e-01 -1.802003e+00 -1.674987e+00 -1.041288e+00 -2.383668e-01 8.599777e-01 1.899544e-01 3.630664e-01 6.053837e-01 -5.648893e-02 1.920979e+00 3.001908e-01 3.873887e-02 7.959800e-03 -1.333840e-01 -3.561614e-01 4.987019e-01 1.751014e-01 3.609702e-02 2.143975e-01 -2.263344e-01 2.411083e-02 -2.550208e-01 -1.642644e-01
<VARIANCE> 39
 2.402293e+01 3.252888e+01 5.481445e+01 5.446582e+01 6.943016e+01 5.235841e+01 5.306828e+01 3.832172e+01 3.494236e+01 4.163650e+01 5.064159e+01 3.317407e+01 3.382278e+01 1.626459e+00 2.946998e+00 3.315021e+00 3.598086e+00 5.432616e+00 3.891509e+00 3.389192e+00 4.306137e+00 3.875630e+00 3.337623e+00 3.382787e+00 2.486989e+00 1.316192e+00 2.303849e-01 4.946850e-01 5.007752e-01 6.679721e-01 1.370541e+00 7.169980e-01 7.489207e-01 5.903187e-01 5.387672e-01 6.325175e-01 5.265685e-01 4.147241e-01 2.215851e-01
<GCONST> 1.269230e+02
<TRANSP> 5
 0.000000e+00 1.000000e+00 0.000000e+00 0.000000e+00 0.000000e+00
 0.000000e+00 6.359433e-01 3.640567e-01 0.000000e+00 0.000000e+00
 0.000000e+00 0.000000e+00 4.927965e-01 5.072036e-01 0.000000e+00
 0.000000e+00 0.000000e+00 0.000000e+00 5.545962e-01 4.454038e-01
 0.000000e+00 0.000000e+00 0.000000e+00 0.000000e+00 0.000000e+00
<ENDHMM>
~h "h"
<BEGINHMM>
<NUMSTATES> 5
<STATE> 2
<MEAN> 39
 -3.552487e+00 -3.807524e+00 -1.540592e+00 -7.515346e+00 -2.346462e+00 -2.134849e+00 -2.620808e+00 -1.492937e+00 -1.857066e+00 -3.085927e+00 -3.302232e+00 -3.744198e+00 5.827764e+01 -4.584330e-01 1.128325e-01 -1.618606e-02 9.673674e-01 8.875999e-01 3.818950e-01 6.038498e-01 5.934834e-02 9.403811e-02 -1.845441e-01 -2.158352e-02 2.429286e-01 -6.859465e-01 -8.546284e-03 -7.618722e-02 -3.440510e-02 -1.068805e-01 -1.151740e-01 -5.879612e-02 -8.847648e-02 4.007493e-02 3.890987e-02 8.361716e-02 6.828062e-02 -4.201324e-02 1.158384e-02
<VARIANCE> 39
 1.903015e+01 4.733234e+01 5.685244e+01 4.961046e+01 7.181174e+01 5.317881e+01 5.061754e+01 5.906636e+01 6.220914e+01 5.338925e+01 3.533981e+01 2.592613e+01 3.546753e+01 1.077905e+00 1.974219e+00 2.172757e+00 1.902252e+00 2.525127e+00 2.235031e+00 2.528769e+00 2.765245e+00 2.229304e+00 2.055938e+00 1.817547e+00 1.384767e+00 1.070396e+00 1.112367e-01 1.791923e-01 1.998259e-01 2.696065e-01 3.394339e-01 3.664615e-01 3.877872e-01 3.789738e-01 3.607754e-01 3.331035e-01 2.761873e-01 2.287666e-01 9.130874e-02
<GCONST> 1.114234e+02
<STATE> 3
<MEAN> 39
 -4.755792e+00 -4.026976e+00 -1.022969e+00 -5.362259e+00 8.681495e-01 -1.253037e+00 -1.256111e+00 9.093062e-02 6.814664e-01 -1.686206e+00 -2.322063e+00 -3.204344e+00 5.724400e+01 -1.944762e-01 7.011584e-02 -1.505260e-01 5.404791e-01 3.700913e-01 2.574293e-01 2.065245e-01 -6.662319e-02 -2.153108e-02 -7.857408e-02 4.869591e-03 8.168602e-02 -5.562222e-01 2.129658e-01 -1.638049e-02 -8.342352e-02 -3.142910e-01 -3.618752e-01 -1.061475e-01 -1.914410e-01 -6.281983e-02 -1.166551e-01 3.827139e-02 1.524521e-02 -1.041559e-01 1.407935e-01
<VARIANCE> 39
 2.320068e+01 4.872123e+01 5.445399e+01 4.878313e+01 6.534636e+01 5.446603e+01 4.837571e+01 4.884270e+01 4.437900e+01 4.087441e+01 3.069619e+01 2.703159e+01 3.500674e+01 1.294777e+00 1.700775e+00 1.792124e+00 1.661492e+00 2.279677e+00 2.150653e+00 1.986302e+00 2.524521e+00 1.894829e+00 1.956403e+00 1.763495e+00 1.308166e+00 1.279900e+00 2.124235e-01 2.684917e-01 3.522843e-01 3.209999e-01 4.079072e-01 3.574831e-01 4.057350e-01 4.080611e-01 3.526637e-01 3.302552e-01 3.101660e-01 2.499628e-01 1.257804e-01
<GCONST> 1.122447e+02
<STATE> 4
<MEAN> 39
 -6.319203e+00 -5.411361e+00 -3.757505e+00 -3.131506e+00 2.167368e-01 8.830367e-01 5.565566e-01 2.166316e-01 -7.134700e-01 -2.753840e+00 -1.976132e+00 -1.864855e+00 5.293215e+01 1.576884e-01 6.692144e-02 -1.483634e-01 -4.922228e-02 -2.432091e-01 -2.875560e-02 -9.495714e-02 1.357333e-02 -6.557883e-02 5.343661e-02 2.936755e-02 -4.629460e-03 -2.110639e-01 6.454048e-02 -2.449939e-02 4.212908e-04 -1.206973e-01 -1.137409e-01 -6.440278e-02 -7.151569e-02 1.997216e-02 -2.618333e-02 9.808996e-03 9.833805e-04 -3.565400e-02 1.060898e-01
<VARIANCE> 39
 2.710974e+01 4.202662e+01 3.803067e+01 4.318208e+01 4.752990e+01 3.762984e+01 4.070951e+01 3.740642e+01 3.320384e+01 3.319688e+01 2.299681e+01 2.335346e+01 7.720129e+01 9.750673e-01 1.167038e+00 1.129983e+00 1.421553e+00 1.574130e+00 1.349097e+00 1.531802e+00 1.656436e+00 1.377469e+00 1.414254e+00 1.201077e+00 1.104761e+00 1.114020e+00 1.099123e-01 1.831930e-01 1.776939e-01 2.308791e-01 2.392584e-01 2.453931e-01 2.690049e-01 2.947294e-01 2.504016e-01 2.658110e-01 2.311198e-01 1.953233e-01 9.993881e-02
<GCONST> 1.013400e+02
<TRANSP> 5
 0.000000e+00 1.000000e+00 0.000000e+00 0.000000e+00 0.000000e+00
 0.000000e+00 2.588353e-01 7.411646e-01 0.000000e+00 0.000000e+00
 0.000000e+00 0.000000e+00 2.686410e-01 7.313590e-01 0.000000e+00
 0.000000e+00 0.000000e+00 0.000000e+00 7.258295e-01 2.741706e-01
 0.000000e+00 0.000000e+00 0.000000e+00 0.000000e+00 0.000000e+00
<ENDHMM>
~h "i"
<BEGINHMM>
<NUMSTATES> 5
<STATE> 2
<MEAN> 39
 -5.482188e+00 3.502031e+00 1.091915e+01 -7.559196e+00 -1.179500e+01 -8.697102e+00 -5.315191e+00 -6.519477e+00 -4.215021e+00 -1.373785e-01 -4.871509e-01 -3.140380e+00 5.746796e+01 2.218630e-01 3.247288e-01 2.230558e+00 -1.647162e+00 -1.918040e+00 -2.171007e-01 -8.092330e-01 -7.610928e-01 -6.819850e-01 4.720080e-01 2.995139e-01 -2.734987e-01 1.221982e+00 -5.396666e-02 -4.671022e-02 -5.100414e-01 1.105745e-01 3.785678e-01 2.781927e-01 9.016422e-02 2.829246e-01 2.253283e-01 -3.269776e-02 -4.811641e-02 5.586239e-03 -2.783838e-01
<VARIANCE> 39
 2.982739e+01 4.788493e+01 4.732010e+01 7.302390e+01 5.629825e+01 4.559818e+01 4.485776e+01 5.561731e+01 3.369761e+01 4.314835e+01 4.678292e+01 3.147679e+01 3.861971e+01 3.907050e+00 2.586254e+00 3.590240e+00 4.442757e+00 4.397518e+00 3.514318e+00 4.810816e+00 4.051048e+00 3.168141e+00 3.278573e+00 3.825500e+00 2.630836e+00 1.481466e+00 4.267667e-01 3.913192e-01 5.720292e-01 7.158884e-01 7.134132e-01 5.401549e-01 6.824503e-01 6.486689e-01 4.647653e-01 5.029274e-01 4.997687e-01 3.483172e-01 2.982060e-01
<GCONST> 1.279623e+02
<STATE> 3
<MEAN> 39
 -4.614806e+00 1.599012e+00 1.405314e+01 -7.685268e+00 -1.510998e+01 -7.246927e+00 -5.245954e+00 -4.100768e+00 -6.448410e+00 -5.135725e-01 3.530588e+00 -6.028883e+00 5.950535e+01 1.293289e-01 1.338637e-01 -2.365017e-01 7.265862e-02 1.869785e-01 4.408813e-02 1.924866e-02 1.710613e-01 1.913928e-01 3.519286e-02 -1.038383e-01 1.226305e-01 -2.265565e-01 -8.211869e-04 5.450977e-02 -6.731849e-01 4.228801e-01 7.319865e-01 4.994578e-02 1.716582e-01 1.220262e-01 3.262413e-01 -1.062729e-01 -2.964605e-01 2.040356e-01 -4.511166e-01
<VARIANCE> 39
 1.545401e+01 4.073788e+01 3.529478e+01 6.637532e+01 4.692136e+01 4.732242e+01 3.589616e+01 6.441350e+01 4.495142e+01 4.396617e+01 5.034139e+01 3.880964e+01 2.307343e+01 8.241607e-01 1.500227e+00 2.051952e+00 2.209431e+00 2.506742e+00 2.088631e+00 2.059184e+00 2.723168e+00 1.923641e+00 1.675945e+00 1.769783e+00 1.475459e+00 9.855115e-01 2.547441e-01 2.713900e-01 3.415774e-01 4.669314e-01 4.903387e-01 4.605245e-01 4.811911e-01 5.686480e-01 4.151746e-01 4.241443e-01 4.383947e-01 3.365479e-01 1.651112e-01
<GCONST> 1.141141e+02
<STATE> 4
<MEAN> 39
 -6.519642e+00 5.831939e+00 1.177524e+01 -1.113903e+01 -9.527581e+00 -5.931775e+00 -6.264596e+00 -7.808056e+00 -2.968683e+00 6.437870e-01 -2.453402e+00 -1.753982e+00 5.487988e+01 7.397188e-02 -2.879507e-02 -6.591653e-01 6.164441e-01 5.450350e-01 1.496059e-01 2.362912e-01 2.567317e-01 1.892650e-01 -1.238049e-01 -1.073066e-01 1.215357e-01 -7.547091e-01 -2.537426e-02 -6.300344e-02 -1.119294e-01 1.134742e-01 4.152424e-02 2.402535e-02 5.234738e-02 4.734953e-02 -2.185803e-02 -3.295508e-02 2.511476e-02 -3.378959e-02 -4.119356e-02
<VARIANCE> 39
 2.192074e+01 4.279698e+01 5.030030e+01 1.028602e+02 5.583029e+01 5.377877e+01 5.021935e+01 5.057119e+01 3.096709e+01 4.623613e+01 4.226599e+01 2.992753e+01 6.035504e+01 7.963417e-01 1.212708e+00 1.436397e+00 2.014012e+00 2.080521e+00 1.768398e+00 1.890560e+00 2.083380e+00 1.572490e+00 1.591737e+00 1.568206e+00 1.190198e+00 1.009268e+00 1.083250e-01 1.499446e-01 2.030279e-01 3.161938e-01 3.107791e-01 3.105782e-01 3.239250e-01 3.249717e-01 2.582239e-01 2.781890e-01 2.513644e-01 1.968856e-01 9.936164e-02
<GCONST> 1.072774e+02
<TRANSP> 5
 0.000000e+00 1.000000e+00 0.000000e+00 0.000000e+00 0.000000e+00
 0.000000e+00 5.283880e-01 4.716120e-01 0.000000e+00 0.000000e+00
 0.000000e+00 0.000000e+00 6.061538e-01 3.938462e-01 0.000000e+00
 0.000000e+00 0.000000e+00 0.000000e+00 7.756329e-01 2.243671e-01
 0.000000e+00 0.000000e+00 0.000000e+00 0.000000e+00 0.000000e+00
<ENDHMM>
~h "j"
<BEGINHMM>
<NUMSTATES> 5
<STATE> 2
<MEAN> 39
 -2.514271e+00 6.067493e+00 5.261113e+00 -1.108385e+00 -4.390023e+00 -4.725831e+00 -3.416164e+00 -1.100052e+00 -2.314457e+00 -2.787701e+00 -1.924312e+00 -2.522617e+00 5.000486e+01 -1.269155e+00 8.495006e-01 1.950706e-01 2.345915e-02 8.960233e-01 2.059346e-01 4.429493e-01 -2.052007e-01 2.232134e-01 -4.183690e-04 4.626260e-02 -9.840022e-02 1.800657e-02 -4.075685e-01 -2.087510e-01 1.520506e-01 -3.682530e-01 -3.059562e-01 -4.052806e-01 -7.992619e-02 -7.415731e-02 -6.575969e-02 3.861934e-02 2.619623e-01 8.943278e-02 5.823023e-01
<VARIANCE> 39
 2.150542e+01 4.356933e+01 2.822009e+01 3.572486e+01 4.092681e+01 3.025568e+01 2.758900e+01 2.346803e+01 2.503427e+01 2.130637e+01 2.084262e+01 1.492808e+01 3.617902e+01 3.496105e+00 2.081810e+00 1.803300e+00 2.555361e+00 3.199602e+00 2.768756e+00 1.972093e+00 2.128285e+00 1.826408e+00 1.933221e+00 1.918591e+00 1.380524e+00 2.228656e+00 4.442161e-01 3.050538e-01 3.216580e-01 3.970883e-01 5.240002e-01 4.581966e-01 3.870313e-01 4.326018e-01 3.931134e-01 4.228481e-01 3.125297e-01 2.266736e-01 2.229201e-01
<GCONST> 1.115906e+02
<STATE> 3
<MEAN> 39
 -1.141526e+01 7.976171e+00 7.580714e+00 -4.444860e+00 -2.868131e+00 -6.951529e+00 -2.726384e+00 -3.139299e+00 -2.665720e+00 -2.993847e+00 1.663234e-01 -2.594496e+00 5.549945e+01 -5.188372e-01 -5.592188e-01 1.212703e+00 -7.310956e-01 -2.101707e+00 -1.712462e+00 -5.451371e-01 -3.439105e-01 -5.673504e-01 2.948701e-02 9.055681e-01 4.174182e-01 1.713023e+00 1.229039e+00 -7.206738e-01 -1.422692e-01 -4.645645e-02 -7.528966e-01 -2.044274e-01 -4.290484e-01 3.162380e-01 -3.363482e-03 1.318524e-01 -7.826190e-02 1.657289e-02 -3.022006e-02
<VARIANCE> 39
 2.801958e+01 4.069373e+01 3.741426e+01 4.422911e+01 4.564537e+01 4.309814e+01 3.423108e+01 2.673232e+01 2.697610e+01 2.813915e+01 2.099593e+01 2.077890e+01 2.314093e+01 6.573366e+00 2.839601e+00 2.414294e+00 3.852035e+00 4.677948e+00 3.033619e+00 2.941453e+00 3.392979e+00 2.370074e+00 3.306924e+00 1.868999e+00 1.499294e+00 1.137852e+00 6.580803e-01 5.496718e-01 5.918974e-01 5.981253e-01 1.082748e+00 7.762984e-01 6.087046e-01 5.988982e-01 4.453093e-01 4.360472e-01 4.230977e-01 3.737282e-01 2.355438e-01
<GCONST> 1.215441e+02
<STATE> 4
<MEAN> 39
 -5.042980e+00 1.100121e+00 1.000085e+01 -7.629733e+00 -1.295194e+01 -1.300746e+01 -6.496347e+00 -1.185382e+00 -3.873785e+00 -9.926115e-01 1.650448e+00 -1.110606e+00 6.000286e+01 1.594777e+00 -2.055039e+00 -1.002355e+00 -8.425555e-01 -1.024837e+00 -5.191603e-01 -7.875817e-01 1.322057e+00 5.723249e-01 4.420535e-01 -2.000283e-01 -2.088242e-01 8.814862e-01 -7.279612e-02 1.635609e-01 -7.042666e-01 7.174303e-02 9.973781e-01 7.485594e-01 1.881310e-01 9.504384e-02 2.158299e-01 -3.696903e-02 -3.537878e-01 -2.691585e-01 -3.472563e-01
<VARIANCE> 39
 1.795852e+01 3.491743e+01 4.046955e+01 7.545972e+01 3.027215e+01 3.177462e+01 3.475946e+01 4.996044e+01 4.243446e+01 5.759744e+01 2.550143e+01 1.625406e+01 2.883764e+01 1.933151e+00 2.418915e+00 2.968319e+00 2.759724e+00 5.592274e+00 3.501865e+00 4.182556e+00 3.492064e+00 2.570865e+00 2.940683e+00 2.411803e+00 2.012632e+00 8.198271e-01 3.795101e-01 3.309438e-01 3.410861e-01 6.141682e-01 4.715503e-01 4.934008e-01 5.214115e-01 6.960887e-01 4.416961e-01 6.495396e-01 3.808293e-01 2.919871e-01 1.014814e-01
<GCONST> 1.185245e+02
<TRANSP> 5
 0.000000e+00 1.000000e+00 0.000000e+00 0.000000e+00 0.000000e+00
 0.000000e+00 7.095491e-01 2.904509e-01 0.000000e+00 0.000000e+00
 0.000000e+00 0.000000e+00 6.209088e-01 3.790912e-01 0.000000e+00
 0.000000e+00 0.000000e+00 0.000000e+00 6.234107e-01 3.765893e-01
 0.000000e+00 0.000000e+00 0.000000e+00 0.000000e+00 0.000000e+00
<ENDHMM>
~h "k"
<BEGINHMM>
<NUMSTATES> 5
<STATE> 2
<MEAN> 39
 -7.721047e+00 -3.871004e-01 -2.170287e+00 -1.860147e+00 -1.837879e+00 -3.674013e-01 -1.533635e+00 6.112952e-01 -7.360374e-01 -1.004596e+00 -1.916052e-01 -1.276357e+00 4.379544e+01 -3.913549e-01 1.043661e-01 -9.537430e-02 3.480611e-01 1.038312e-01 1.129937e-01 1.298153e-01 3.545962e-02 4.203515e-02 -2.164462e-03 2.474313e-02 1.559290e-01 -7.024644e-01 1.066373e-02 -9.491169e-02 -5.357299e-02 -9.713212e-02 1.434914e-02 -6.342054e-02 -2.517906e-02 1.070320e-02 -1.264523e-02 1.193603e-02 -9.730632e-03 -2.045401e-02 2.400698e-01
<VARIANCE> 39
 3.088056e+01 4.176144e+01 4.140061e+01 5.314414e+01 4.829600e+01 5.013060e+01 3.931376e+01 3.852460e+01 2.941604e+01 3.180386e+01 2.275985e+01 2.285584e+01 6.551638e+01 7.076941e-01 7.822859e-01 1.028981e+00 1.372609e+00 1.444189e+00 1.608338e+00 1.510612e+00 1.643317e+00 1.551746e+00 1.501677e+00 1.295611e+00 1.086959e+00 1.062165e+00 1.123564e-01 1.692767e-01 2.119473e-01 2.482672e-01 2.896984e-01 3.298498e-01 3.037934e-01 3.291413e-01 3.184282e-01 3.034476e-01 2.531624e-01 2.144747e-01 1.694153e-01
<GCONST> 1.030995e+02
<STATE> 3
<MEAN> 39
 -6.266932e+00 1.425987e+00 -1.124297e+00 -3.393104e+00 -2.968646e+00 -3.042827e+00 -3.894338e+00 -2.004789e+00 -1.471370e+00 -2.595215e-01 -1.081276e+00 -2.388228e+00 4.631878e+01 -7.739445e-01 -9.958057e-01 -1.136240e+00 -7.909264e-02 1.004035e+00 -6.796674e-01 3.079592e-02 2.412533e-01 2.005275e-01 1.863775e-01 -2.153502e-01 2.495565e-01 8.582439e-01 1.571544e-01 -3.746651e-01 -2.213860e-01 -3.956600e-01 7.923486e-02 -2.921869e-01 -4.788742e-02 9.731501e-02 8.966768e-02 1.373643e-01 -7.949246e-02 -1.174862e-01 1.019906e+00
<VARIANCE> 39
 2.381334e+01 3.639477e+01 5.273605e+01 5.142426e+01 5.137407e+01 4.873817e+01 3.058380e+01 3.445706e+01 2.827065e+01 2.809485e+01 2.408406e+01 2.241610e+01 4.916962e+01 2.100451e+00 3.248840e+00 4.087145e+00 3.417992e+00 4.247095e+00 4.334184e+00 3.279497e+00 3.171082e+00 2.862584e+00 2.585624e+00 2.387903e+00 1.721204e+00 3.731934e+00 3.655183e-01 4.480274e-01 5.747607e-01 5.227445e-01 7.259343e-01 6.490442e-01 5.486324e-01 5.427389e-01 5.334875e-01 4.702474e-01 4.196068e-01 3.429160e-01 3.615217e-01
<GCONST> 1.232263e+02
<STATE> 4
<MEAN> 39
 -7.868863e+00 -3.482671e+00 -6.026199e+00 -5.270121e+00 1.153969e+00 -6.159920e+00 -3.663807e+00 -5.172550e-01 4.738761e-01 1.026236e+00 -2.412640e+00 -2.388128e+00 5.395326e+01 9.740862e-01 -4.133816e-01 -7.726294e-02 -9.055273e-01 -5.862718e-01 -2.341117e-01 1.258177e-01 2.091384e-01 -8.603647e-02 3.528545e-02 -3.068721e-01 -6.588759e-01 2.123913e+00 5.618686e-01 1.761772e-01 5.014249e-01 -2.033847e-01 -6.596755e-01 3.377102e-01 -5.231633e-03 -3.957054e-02 -2.209363e-01 -1.937327e-01 9.417677e-02 -2.691134e-01 -1.025488e-02
<VARIANCE> 39
 3.166009e+01 3.639234e+01 5.723373e+01 4.491281e+01 5.447424e+01 5.918443e+01 4.965567e+01 3.670472e+01 4.475927e+01 3.945736e+01 3.313140e+01 2.509036e+01 4.324257e+01 4.093325e+00 4.119566e+00 4.902651e+00 4.669805e+00 6.200235e+00 4.954969e+00 4.040592e+00 4.417923e+00 4.056753e+00 3.671442e+00 3.062427e+00 2.825427e+00 3.837387e+00 5.287527e-01 7.020330e-01 7.012885e-01 7.727755e-01 9.576649e-01 8.668445e-01 7.837242e-01 6.304188e-01 6.751583e-01 6.501635e-01 5.902110e-01 4.655340e-01 5.602102e-01
<GCONST> 1.334084e+02
<TRANSP> 5
 0.000000e+00 1.000000e+00 0.000000e+00 0.000000e+00 0.000000e+00
 0.000000e+00 7.677163e-01 2.322837e-01 0.000000e+00 0.000000e+00
 0.000000e+00 0.000000e+00 5.172722e-01 4.827278e-01 0.000000e+00
 0.000000e+00 0.000000e+00 0.000000e+00 6.322873e-01 3.677128e-01
 0.000000e+00 0.000000e+00 0.000000e+00 0.000000e+00 0.000000e+00
<ENDHMM>
~h "l"
<BEGINHMM>
<NUMSTATES> 5
<STATE> 2
<MEAN> 39
 -9.459195e-02 -4.102464e+00 -9.681303e-01 -9.684827e+00 -5.813148e+00 -6.067594e+00 -9.372698e+00 -3.607512e+00 3.555420e+00 1.682399e+00 -2.117209e+00 -4.085397e+00 6.054054e+01 3.025835e-01 2.807531e-02 -6.216496e-02 -7.527636e-02 2.666847e-01 1.768154e-02 -7.296756e-01 -3.872877e-01 4.913864e-01 4.097575e-01 -7.903893e-02 -2.622101e-02 -2.018042e-01 -1.513547e-01 2.358302e-02 -2.768573e-02 -1.287065e-01 6.540716e-02 1.753832e-01 2.988627e-01 2.319622e-01 -2.864039e-01 -1.536514e-01 2.180530e-02 -8.705987e-02 3.499498e-02
<VARIANCE> 39
 1.533006e+01 4.763845e+01 6.830403e+01 6.426948e+01 4.316295e+01 6.806406e+01 4.902620e+01 6.139498e+01 5.937347e+01 5.415047e+01 3.314575e+01 3.435560e+01 3.361538e+01 4.040963e-01 1.198137e+00 2.008236e+00 2.138727e+00 2.283283e+00 2.409204e+00 2.522650e+00 3.004730e+00 2.524054e+00 2.222050e+00 2.017851e+00 1.640148e+00 5.575715e-01 8.131532e-02 1.986400e-01 2.602052e-01 4.286430e-01 3.619129e-01 4.374410e-01 4.712029e-01 5.543538e-01 4.084527e-01 4.416485e-01 3.868425e-01 2.853577e-01 8.640687e-02
<GCONST> 1.122109e+02
<STATE> 3
<MEAN> 39
 1.346012e+00 -2.426448e+00 -5.346708e+00 -1.045132e+01 -4.631593e+00 -2.513924e+00 -8.686046e+00 -2.748657e+00 2.740553e+00 1.108960e+00 -2.031620e+00 -5.401152e+00 5.853482e+01 -6.683549e-02 -9.933139e-02 -1.174451e-01 -1.406377e-01 1.776765e-01 1.659582e-01 1.582080e-01 3.261820e-01 -3.563657e-02 -1.281717e-01 -1.020482e-01 -9.864102e-02 1.664694e-02 -1.321076e-01 -1.075164e-01 -1.551842e-02 3.624807e-02 1.248457e-02 1.402108e-02 2.468352e-01 2.286937e-01 -1.178494e-01 -2.191277e-01 -5.370179e-02 1.176053e-02 8.596654e-02
<VARIANCE> 39
 1.042510e+01 3.973781e+01 8.781780e+01 5.455790e+01 4.194002e+01 5.658873e+01 4.630029e+01 6.637360e+01 4.704713e+01 6.184020e+01 3.724728e+01 2.670840e+01 2.412246e+01 2.233825e-01 9.429854e-01 1.007313e+00 1.601779e+00 1.182194e+00 1.617936e+00 1.431856e+00 1.817917e+00 1.409556e+00 1.389012e+00 1.248232e+00 1.169652e+00 4.907331e-01 5.295730e-02 1.420933e-01 1.725038e-01 2.595490e-01 2.642195e-01 2.770240e-01 3.499432e-01 3.780616e-01 3.242380e-01 3.178718e-01 2.808825e-01 2.124102e-01 5.969604e-02
<GCONST> 1.003637e+02
<STATE> 4
<MEAN> 39
 5.587868e-02 -4.190620e+00 -2.786455e+00 -9.920240e+00 -4.765392e+00 -4.083192e+00 -8.429605e+00 -1.831334e+00 3.231524e+00 5.629962e-01 -2.756200e+00 -4.990475e+00 5.989164e+01 -5.573117e-01 -4.458011e-01 -2.200532e-02 1.238298e-01 1.230335e-01 4.819066e-02 1.054328e+00 1.030264e+00 -5.779126e-01 -8.736654e-01 -1.887704e-01 -5.811629e-02 3.221320e-01 -1.179416e-01 5.125654e-02 9.882404e-02 1.090534e-02 -5.663596e-02 3.142777e-02 1.910635e-01 -2.656350e-05 -2.515437e-01 -6.130217e-02 1.292818e-01 3.947434e-02 -2.230228e-03
<VARIANCE> 39
 1.621203e+01 4.377687e+01 7.423773e+01 5.946903e+01 4.593196e+01 6.325844e+01 5.211596e+01 6.069957e+01 5.201643e+01 6.134827e+01 3.310989e+01 3.682076e+01 4.100754e+01 4.906461e-01 1.748832e+00 2.348978e+00 2.697999e+00 2.749020e+00 3.212267e+00 2.849865e+00 3.700664e+00 2.840121e+00 2.672470e+00 2.705693e+00 1.973353e+00 1.040841e+00 8.690337e-02 1.772079e-01 2.218449e-01 3.736250e-01 3.828467e-01 4.047592e-01 4.709480e-01 4.596969e-01 4.007437e-01 4.449240e-01 3.364680e-01 3.194471e-01 1.076407e-01
<GCONST> 1.152836e+02
<TRANSP> 5
 0.000000e+00 1.000000e+00 0.000000e+00 0.000000e+00 0.000000e+00
 0.000000e+00 3.518126e-01 6.481874e-01 0.000000e+00 0.000000e+00
 0.000000e+00 0.000000e+00 6.023888e-01 3.976112e-01 0.000000e+00
 0.000000e+00 0.000000e+00 0.000000e+00 2.779925e-01 7.220075e-01
 0.000000e+00 0.000000e+00 0.000000e+00 0.000000e+00 0.000000e+00
<ENDHMM>
~h "m"
<BEGINHMM>
<NUMSTATES> 5
<STATE> 2
<MEAN> 39
 2.387693e+00 -1.638052e-02 -1.090442e+00 -5.326534e+00 -3.767380e+00 1.364243e-01 -6.877092e+00 -5.552701e+00 -2.560869e+00 -1.613407e-02 5.284679e-01 -5.761277e+00 5.515858e+01 1.230429e-01 9.302031e-01 1.174788e+00 1.409345e+00 2.197382e-01 3.773137e-01 5.033002e-03 -1.517860e+00 -1.353749e+00 -1.192680e-01 -1.001811e-01 1.286561e-01 -9.855500e-01 -1.457274e-01 -2.123495e-01 -4.354693e-02 -1.849764e-01 -3.740666e-02 -8.292637e-02 9.964614e-02 2.179116e-01 1.026824e-01 -1.074601e-01 -1.253003e-01 -2.994699e-02 2.388663e-01
<VARIANCE> 39
 1.556969e+01 3.440622e+01 4.682338e+01 4.465087e+01 3.886531e+01 3.662819e+01 3.908963e+01 5.228419e+01 3.255351e+01 3.384769e+01 3.224348e+01 2.478246e+01 3.336044e+01 5.058272e-01 1.232379e+00 1.894778e+00 1.859797e+00 1.784761e+00 1.747428e+00 1.944941e+00 2.636368e+00 2.098299e+00 1.811208e+00 2.142149e+00 1.300826e+00 6.444142e-01 7.348935e-02 1.367484e-01 2.670920e-01 2.862526e-01 2.680309e-01 2.554176e-01 2.663862e-01 3.853720e-01 3.374685e-01 2.524084e-01 2.896726e-01 1.885804e-01 7.234335e-02
<GCONST> 1.030389e+02
<STATE> 3
<MEAN> 39
 1.216518e+00 9.138817e-02 2.083071e+00 -3.658682e+00 -2.358474e+00 1.328290e-01 -6.267414e+00 -5.262568e+00 -5.535348e+00 -1.819167e+00 -8.609448e-02 -4.716226e+00 5.411926e+01 7.032590e-02 1.619166e-01 1.459844e-01 9.420562e-02 -1.065103e-01 7.189465e-02 8.599435e-02 -1.218141e-01 -2.592652e-01 -1.144314e-01 -7.076251e-03 5.538997e-02 -1.627122e-01 -1.316178e-02 -1.507255e-01 -2.920490e-01 -3.955446e-01 -1.277193e-01 -9.376816e-02 3.027765e-02 3.178160e-01 3.071372e-01 8.572045e-02 8.231217e-02 1.557974e-02 2.115387e-01
<VARIANCE> 39
 1.533243e+01 4.151620e+01 3.373516e+01 4.573391e+01 4.452127e+01 3.042678e+01 4.471179e+01 7.287708e+01 3.359845e+01 3.986584e+01 3.048691e+01 2.107253e+01 3.048808e+01 2.361050e-01 5.198834e-01 8.271320e-01 1.011363e+00 1.125410e+00 1.086531e+00 1.054197e+00 1.342298e+00 1.314019e+00 1.107880e+00 1.186463e+00 8.483720e-01 2.970650e-01 6.596506e-02 1.332039e-01 2.066531e-01 2.504711e-01 2.409011e-01 2.426693e-01 2.770260e-01 3.601051e-01 3.241965e-01 2.588592e-01 2.869536e-01 1.924280e-01 6.508747e-02
<GCONST> 9.435156e+01
<STATE> 4
<MEAN> 39
 2.349977e+00 7.415516e-01 -2.460009e-01 -4.947829e+00 -4.540516e+00 2.613672e-01 -6.479936e+00 -6.562132e+00 -4.637781e+00 -7.941664e-01 7.535246e-01 -4.901375e+00 5.437891e+01 2.844495e-02 -7.003452e-01 -1.002294e+00 -1.261219e+00 -4.769874e-02 -5.694589e-02 -1.223878e-02 1.039906e+00 8.676825e-01 8.011881e-02 2.042723e-01 -7.560973e-02 8.287040e-01 -1.793344e-01 -2.739923e-01 -8.795093e-02 -2.445976e-01 1.170827e-01 -7.322375e-02 -1.319445e-02 3.607318e-01 2.884346e-01 -1.245112e-02 -1.108808e-01 -6.396702e-02 2.463792e-01
<VARIANCE> 39
 1.728082e+01 3.879467e+01 4.592561e+01 4.930499e+01 4.507242e+01 4.040585e+01 4.485239e+01 6.354892e+01 3.803228e+01 3.729408e+01 3.612260e+01 2.573077e+01 3.751950e+01 9.060730e-01 1.817717e+00 2.924920e+00 2.857597e+00 2.918578e+00 3.021667e+00 2.861401e+00 3.629755e+00 3.121547e+00 2.243344e+00 2.449162e+00 1.854052e+00 1.042191e+00 1.427147e-01 2.481132e-01 4.165460e-01 4.489847e-01 4.124075e-01 3.956544e-01 4.277397e-01 5.718724e-01 5.401472e-01 3.842405e-01 4.160003e-01 2.899893e-01 1.206687e-01
<GCONST> 1.156892e+02
<TRANSP> 5
 0.000000e+00 1.000000e+00 0.000000e+00 0.000000e+00 0.000000e+00
 0.000000e+00 4.425813e-01 5.574187e-01 0.000000e+00 0.000000e+00
 0.000000e+00 0.000000e+00 6.747907e-01 3.252093e-01 0.000000e+00
 0.000000e+00 0.000000e+00 0.000000e+00 5.024033e-01 4.975967e-01
 0.000000e+00 0.000000e+00 0.000000e+00 0.000000e+00 0.000000e+00
<ENDHMM>
~h "n"
<BEGINHMM>
<NUMSTATES> 5
<STATE> 2
<MEAN> 39
 1.092031e+00 -1.835062e+00 2.304143e+00 -3.948658e+00 -6.217707e+00 -5.876381e+00 -7.136539e+00 -6.810859e-01 -1.814087e-01 -1.010424e+00 -2.986193e+00 -4.188735e+00 5.656353e+01 4.603708e-01 1.571367e+00 7.661322e-01 1.321111e+00 -1.754323e-01 3.931240e-01 -3.939945e-01 -1.680403e+00 -1.252421e-01 8.293117e-02 -3.741899e-01 1.339559e-01 -1.503246e+00 -1.435749e-01 -1.154166e-01 -1.881571e-01 -3.094289e-01 4.705508e-02 1.756216e-01 1.900682e-01 8.859931e-02 -1.658383e-02 -5.644444e-02 8.325983e-02 -4.818672e-02 1.881412e-01
<VARIANCE> 39
 1.142762e+01 4.589694e+01 3.581813e+01 3.521937e+01 5.165154e+01 3.460278e+01 3.565945e+01 5.380089e+01 3.843786e+01 3.889921e+01 2.549074e+01 2.492084e+01 3.020895e+01 4.497143e-01 1.219225e+00 1.791506e+00 1.294981e+00 2.168981e+00 2.044969e+00 2.385055e+00 3.422477e+00 2.003827e+00 2.126357e+00 1.899831e+00 1.230296e+00 4.205630e-01 5.732185e-02 1.578667e-01 1.795094e-01 1.920612e-01 2.634249e-01 2.572341e-01 2.850387e-01 4.165386e-01 2.889309e-01 2.742059e-01 2.374147e-01 1.873505e-01 7.312284e-02
<GCONST> 1.014028e+02
<STATE> 3
<MEAN> 39
 3.343092e-01 -8.626202e-01 3.753067e+00 -3.280978e+00 -4.543476e+00 -4.143660e+00 -6.515233e+00 -1.603180e+00 -9.849117e-01 -2.614017e+00 -2.550796e+00 -3.030388e+00 5.372388e+01 1.801061e-02 6.178530e-01 8.950180e-02 3.522660e-01 5.931767e-02 2.465518e-01 8.072068e-02 -3.754507e-01 -1.154700e-01 -1.048260e-02 -3.039694e-02 1.085493e-01 -6.514992e-01 -1.377933e-01 -1.628072e-01 -9.613428e-02 -1.515211e-01 6.426418e-02 -3.477223e-02 8.969454e-02 2.124205e-01 -1.127830e-02 1.667926e-02 6.505375e-02 -1.519611e-02 1.361488e-01
<VARIANCE> 39
 1.414447e+01 4.928650e+01 3.242815e+01 3.598576e+01 5.471640e+01 3.126334e+01 3.187296e+01 4.381105e+01 3.208378e+01 3.617778e+01 2.566834e+01 2.208902e+01 3.050152e+01 2.719074e-01 5.538743e-01 6.805137e-01 7.511412e-01 1.001998e+00 1.053487e+00 1.083703e+00 1.300982e+00 1.109664e+00 1.068483e+00 1.069526e+00 7.992631e-01 2.514616e-01 6.219149e-02 1.249672e-01 1.575542e-01 1.798775e-01 2.264008e-01 2.185897e-01 2.381325e-01 3.169801e-01 2.357197e-01 2.272239e-01 2.345322e-01 1.594882e-01 6.205897e-02
<GCONST> 9.025079e+01
<STATE> 4
<MEAN> 39
 8.479661e-01 1.993627e+00 2.678633e+00 -1.617124e+00 -6.738275e+00 -4.188858e+00 -6.729120e+00 -4.216774e+00 -8.355005e-01 -7.175224e-01 -3.254458e+00 -3.607722e+00 5.214992e+01 -5.028592e-01 -7.946356e-02 -1.663726e-01 -1.706731e-01 5.057961e-01 4.318773e-02 3.074615e-01 4.362582e-01 -1.083521e-01 -8.156155e-02 1.925444e-01 9.197662e-02 -1.049357e-01 -2.860575e-01 -2.646101e-01 -8.712302e-02 -3.374133e-01 1.136496e-01 -4.450192e-02 1.219593e-01 2.944988e-01 -2.416204e-02 -6.775781e-02 1.537454e-01 8.378522e-03 3.140662e-01
<VARIANCE> 39
 1.560157e+01 4.309875e+01 3.679390e+01 3.872152e+01 5.491457e+01 3.366933e+01 3.873899e+01 5.532570e+01 3.964060e+01 4.609455e+01 3.194061e+01 2.500733e+01 3.807071e+01 7.992911e-01 1.812624e+00 1.622891e+00 1.939871e+00 2.346864e+00 2.035856e+00 2.080346e+00 2.977328e+00 2.089984e+00 1.912406e+00 1.902835e+00 1.301749e+00 1.336697e+00 2.065960e-01 3.377040e-01 3.734446e-01 3.862044e-01 5.272785e-01 4.039443e-01 4.280564e-01 5.971898e-01 4.109001e-01 4.010414e-01 3.907478e-01 2.534701e-01 1.891514e-01
<GCONST> 1.126732e+02
<TRANSP> 5
 0.000000e+00 1.000000e+00 0.000000e+00 0.000000e+00 0.000000e+00
 0.000000e+00 3.777126e-01 6.222874e-01 0.000000e+00 0.000000e+00
 0.000000e+00 0.000000e+00 7.305580e-01 2.694420e-01 0.000000e+00
 0.000000e+00 0.000000e+00 0.000000e+00 4.937049e-01 5.062951e-01
 0.000000e+00 0.000000e+00 0.000000e+00 0.000000e+00 0.000000e+00
<ENDHMM>
~h "o"
<BEGINHMM>
<NUMSTATES> 5
<STATE> 2
<MEAN> 39
 3.416016e-01 -1.294055e+00 -7.873568e+00 -1.425901e+01 -4.999721e+00 3.012519e+00 -4.328849e+00 -2.586007e+00 -1.501673e+00 4.315135e-01 1.541530e+00 -3.662840e+00 5.572914e+01 1.165612e+00 -6.132892e-01 -6.411684e-01 -2.024929e+00 -3.397675e-01 9.064168e-01 -2.594670e-01 -2.493259e-01 -2.137307e-01 2.069372e-01 4.522674e-01 -5.229470e-01 1.592434e+00 -2.933196e-01 -4.932133e-03 2.338664e-01 4.996347e-01 1.562444e-01 -1.670667e-01 -1.426809e-02 6.847297e-03 4.394579e-02 -8.364920e-02 -9.787015e-02 -1.650349e-03 -2.773154e-01
<VARIANCE> 39
 3.405687e+01 3.936848e+01 4.651057e+01 1.079784e+02 5.301515e+01 5.955497e+01 7.161103e+01 4.151677e+01 5.713672e+01 4.883199e+01 3.921122e+01 2.748016e+01 7.829625e+01 2.607351e+00 2.721633e+00 3.071215e+00 6.746017e+00 3.493530e+00 3.757213e+00 3.786201e+00 3.182495e+00 3.656615e+00 3.088718e+00 2.771892e+00 2.127981e+00 3.446911e+00 4.816827e-01 5.253145e-01 5.157018e-01 1.250739e+00 5.572591e-01 6.716390e-01 7.049360e-01 5.660072e-01 6.538339e-01 5.140120e-01 4.818756e-01 3.911796e-01 6.998409e-01
<GCONST> 1.313918e+02
<STATE> 3
<MEAN> 39
 1.407217e+00 -3.643197e+00 -6.863167e+00 -1.769074e+01 -3.595637e+00 2.333322e+00 -5.149580e+00 -1.749615e+00 -2.738487e+00 8.834292e-01 2.324527e+00 -4.907488e+00 6.046793e+01 6.586599e-03 -6.678230e-02 1.552639e-01 3.174374e-01 9.954160e-02 -1.541906e-01 -2.488497e-01 1.572596e-02 1.400458e-01 -5.338165e-02 -1.468365e-02 -9.127135e-02 -1.098495e-01 -1.294014e-01 1.893029e-01 2.129715e-01 5.791373e-01 6.514880e-02 -2.785892e-01 -5.237797e-02 -4.555001e-02 1.321977e-01 -1.126610e-01 -1.858453e-01 1.463313e-01 -3.207254e-01
<VARIANCE> 39
 1.434401e+01 3.403951e+01 4.579876e+01 6.268418e+01 5.886810e+01 3.851257e+01 5.146740e+01 4.317951e+01 5.097529e+01 4.990417e+01 5.083363e+01 2.469905e+01 2.363425e+01 3.081887e-01 9.406272e-01 8.817030e-01 2.465738e+00 1.305846e+00 1.835155e+00 1.822726e+00 1.567087e+00 2.005357e+00 1.514390e+00 1.440318e+00 1.219010e+00 5.630268e-01 1.174702e-01 1.816243e-01 1.970042e-01 3.660214e-01 3.069235e-01 2.954410e-01 2.952002e-01 3.213550e-01 3.575752e-01 3.110549e-01 3.177039e-01 2.511729e-01 1.427096e-01
<GCONST> 1.040595e+02
<STATE> 4
<MEAN> 39
 2.235473e+00 -2.556826e+00 -6.353702e+00 -1.178506e+01 -4.278329e+00 -1.517476e-01 -7.890497e+00 -3.280825e+00 -4.627939e-01 4.655074e-01 1.528641e+00 -4.174251e+00 5.712511e+01 -2.805681e-01 9.006557e-01 9.339287e-01 1.886504e+00 5.016817e-01 -5.145148e-01 -4.815364e-02 -1.150462e-01 2.219506e-01 -3.313537e-01 -7.447238e-01 3.402670e-01 -1.430674e+00 -1.811442e-01 1.725156e-01 8.066444e-02 3.198373e-02 4.379270e-02 1.559045e-01 2.654416e-01 -9.451483e-03 -1.373258e-01 -3.537691e-02 -4.206166e-02 2.733751e-03 -1.656611e-01
<VARIANCE> 39
 1.380348e+01 3.702190e+01 3.850695e+01 5.895502e+01 5.550694e+01 5.850505e+01 5.161280e+01 4.402390e+01 5.667678e+01 4.685818e+01 4.630238e+01 3.197587e+01 3.868744e+01 7.542752e-01 1.205817e+00 1.350760e+00 1.897616e+00 2.581096e+00 2.620718e+00 2.446335e+00 2.578453e+00 2.911547e+00 2.181414e+00 2.429063e+00 1.630247e+00 8.601393e-01 1.276326e-01 2.483411e-01 2.231316e-01 4.145239e-01 4.057469e-01 4.796734e-01 3.831235e-01 4.246947e-01 4.994265e-01 4.207720e-01 3.893384e-01 3.024912e-01 1.497267e-01
<GCONST> 1.130871e+02
<TRANSP> 5
 0.000000e+00 1.000000e+00 0.000000e+00 0.000000e+00 0.000000e+00
 0.000000e+00 6.054363e-01 3.945637e-01 0.000000e+00 0.000000e+00
 0.000000e+00 0.000000e+00 7.319152e-01 2.680849e-01 0.000000e+00
 0.000000e+00 0.000000e+00 0.000000e+00 5.734116e-01 4.265883e-01
 0.000000e+00 0.000000e+00 0.000000e+00 0.000000e+00 0.000000e+00
<ENDHMM>
~h "p"
<BEGINHMM>
<NUMSTATES> 5
<STATE> 2
<MEAN> 39
 -4.973553e+00 -3.131840e-01 -2.203931e+00 -4.456173e+00 -1.817447e+00 -8.679514e-01 -3.161532e+00 -1.018718e+00 -8.567957e-02 3.310822e-02 -5.677359e-01 -3.118429e+00 4.712626e+01 -6.544336e-01 1.451721e-01 -5.866190e-02 3.871502e-01 7.111970e-02 -4.362728e-02 2.206845e-01 -2.412728e-02 6.839289e-02 -5.730956e-02 -6.083160e-02 2.633406e-01 -8.941579e-01 5.815474e-02 -1.231752e-01 -4.116873e-02 -1.399936e-01 -6.331042e-02 -5.103550e-02 -3.192323e-02 2.447674e-02 -2.251988e-02 4.024932e-03 7.305013e-02 -4.001897e-02 3.736421e-01
<VARIANCE> 39
 2.173441e+01 3.040495e+01 3.567916e+01 4.171721e+01 3.447850e+01 3.357686e+01 2.431002e+01 2.777171e+01 2.510787e+01 2.333727e+01 1.972816e+01 2.071755e+01 4.064674e+01 5.859877e-01 5.669017e-01 8.444044e-01 1.049378e+00 1.070646e+00 1.284717e+00 1.333700e+00 1.525444e+00 1.313510e+00 1.281187e+00 1.251762e+00 9.650962e-01 8.827952e-01 1.059621e-01 1.400440e-01 1.882802e-01 2.445690e-01 2.316226e-01 2.611005e-01 2.892785e-01 3.122527e-01 2.908412e-01 2.782800e-01 2.628841e-01 1.978095e-01 1.599531e-01
<GCONST> 9.572557e+01
<STATE> 3
<MEAN> 39
 -5.943645e+00 1.108164e+00 -1.052651e+00 -3.326344e+00 -2.728575e+00 -1.886739e+00 -3.200386e+00 -1.543766e+00 -3.851353e-01 -3.888742e-01 -6.278675e-01 -2.294791e+00 4.647838e+01 5.436644e-02 -5.141062e-01 -6.795203e-01 -6.248790e-01 -4.058385e-02 -2.837487e-01 1.195662e-01 -8.593698e-02 2.220213e-02 1.242964e-01 2.809140e-01 -1.368535e-01 1.546955e+00 6.413353e-01 -3.855903e-01 -2.190801e-01 -7.082511e-01 -1.701114e-01 5.132998e-02 -2.675326e-01 4.465241e-03 -3.093365e-02 2.489463e-01 5.588881e-02 -3.554034e-01 1.096464e+00
<VARIANCE> 39
 2.377858e+01 3.566188e+01 3.867358e+01 4.292503e+01 3.715221e+01 3.652634e+01 2.545738e+01 2.897798e+01 2.479527e+01 2.395589e+01 2.026741e+01 1.981638e+01 3.975295e+01 2.683614e+00 2.308160e+00 2.893324e+00 3.251168e+00 2.693123e+00 3.309796e+00 2.649349e+00 2.831624e+00 2.532848e+00 2.350518e+00 2.162861e+00 1.601472e+00 2.893010e+00 3.289737e-01 4.377557e-01 5.496771e-01 5.311313e-01 5.343761e-01 6.080095e-01 4.891591e-01 5.375835e-01 4.766143e-01 4.562446e-01 4.149078e-01 3.196086e-01 3.177941e-01
<GCONST> 1.177513e+02
<STATE> 4
<MEAN> 39
 -3.292810e+00 -2.324635e+00 -4.401292e+00 -8.146756e+00 -2.852761e+00 -1.910933e+00 -3.539895e+00 -2.338558e+00 -5.440498e-01 8.794730e-01 4.330316e-01 -4.551497e+00 5.501356e+01 1.650702e+00 -1.636649e+00 -9.961498e-01 -2.302869e+00 -3.877305e-01 4.367165e-01 -6.401873e-01 3.177517e-01 -3.463895e-02 7.738789e-01 1.912880e-01 -1.256348e+00 3.509846e+00 1.123122e-01 -1.325902e-01 3.459982e-01 1.207455e-02 -5.827036e-02 7.198929e-04 -1.598993e-01 2.429648e-01 3.172146e-02 -6.152403e-02 -2.356101e-01 -4.010381e-02 -9.384751e-02
<VARIANCE> 39
 2.931156e+01 3.164674e+01 2.999733e+01 4.976686e+01 2.391458e+01 4.856733e+01 3.240100e+01 2.841487e+01 2.831989e+01 2.866193e+01 2.361984e+01 2.315430e+01 4.648354e+01 3.152936e+00 4.457087e+00 5.634905e+00 5.700183e+00 4.185291e+00 5.277093e+00 4.056627e+00 5.539237e+00 4.457980e+00 3.804002e+00 3.700921e+00 3.159770e+00 3.259949e+00 5.189232e-01 5.622885e-01 5.183505e-01 9.074821e-01 6.709254e-01 7.656476e-01 5.198166e-01 5.483664e-01 5.207852e-01 5.110593e-01 4.800181e-01 4.311109e-01 5.762356e-01
<GCONST> 1.279769e+02
<TRANSP> 5
 0.000000e+00 1.000000e+00 0.000000e+00 0.000000e+00 0.000000e+00
 0.000000e+00 7.888665e-01 2.111335e-01 0.000000e+00 0.000000e+00
 0.000000e+00 0.000000e+00 5.358418e-01 4.641582e-01 0.000000e+00
 0.000000e+00 0.000000e+00 0.000000e+00 4.052348e-01 5.947651e-01
 0.000000e+00 0.000000e+00 0.000000e+00 0.000000e+00 0.000000e+00
<ENDHMM>
~h "r"
<BEGINHMM>
<NUMSTATES> 5
<STATE> 2
<MEAN> 39
 -7.642356e-01 -4.415257e+00 -1.145019e+00 -5.359980e+00 -5.967182e+00 -7.030562e+00 -5.482063e+00 1.810993e+00 2.693556e+00 7.300342e-03 -1.615397e+00 -3.662601e+00 5.767562e+01 -5.826249e-01 4.983956e-01 5.490689e-01 9.937861e-01 4.299887e-01 -4.617078e-02 9.376358e-02 -1.616014e-01 -2.305696e-03 -3.129382e-01 1.967566e-01 4.509608e-01 -1.091486e+00 -9.860659e-02 -5.722328e-02 2.096007e-02 -3.166169e-01 1.826095e-02 1.239235e-01 8.442699e-02 -8.730984e-02 -2.833412e-01 -1.813960e-02 9.735008e-02 -2.357526e-02 2.329204e-01
<VARIANCE> 39
 1.800559e+01 3.519090e+01 3.908593e+01 4.401690e+01 6.535992e+01 5.103501e+01 4.599091e+01 4.050271e+01 3.806679e+01 3.626387e+01 2.890849e+01 2.241681e+01 3.395803e+01 1.427978e+00 2.066354e+00 2.117720e+00 2.325472e+00 3.100235e+00 2.808484e+00 2.568276e+00 2.615269e+00 2.379134e+00 2.232908e+00 2.078022e+00 1.708651e+00 9.393065e-01 1.739601e-01 2.210589e-01 2.549577e-01 3.352397e-01 4.075805e-01 3.819900e-01 3.536691e-01 4.235069e-01 3.437005e-01 3.216011e-01 3.457945e-01 2.552272e-01 1.535236e-01
<GCONST> 1.120900e+02
<STATE> 3
<MEAN> 39
 -3.444914e+00 -3.379165e+00 -1.786820e-01 -4.329942e+00 -3.750747e+00 -5.963927e+00 -4.329527e+00 1.358421e+00 2.011262e+00 -1.294971e+00 -8.009604e-01 -2.608484e+00 5.571331e+01 -1.686719e-01 8.434350e-02 4.981115e-01 1.580550e-01 -8.431303e-02 -2.609308e-02 1.148077e-01 -1.108073e-01 -4.806917e-01 -1.818340e-01 2.604347e-01 2.360209e-01 -9.946045e-02 2.899185e-01 -1.626180e-01 -7.108013e-02 -4.282679e-01 -3.363764e-01 4.295297e-02 -8.506753e-02 7.458203e-03 -1.885641e-01 1.702358e-01 8.688237e-04 -1.963403e-01 4.672575e-01
<VARIANCE> 39
 2.396064e+01 3.250616e+01 3.425115e+01 3.961129e+01 4.935848e+01 4.496206e+01 3.888807e+01 3.377327e+01 3.477194e+01 3.043651e+01 2.501818e+01 2.183422e+01 4.064106e+01 1.458271e+00 1.633453e+00 1.964911e+00 1.809563e+00 2.572868e+00 2.320667e+00 2.063670e+00 2.459406e+00 2.049472e+00 1.862741e+00 1.797242e+00 1.429036e+00 9.843829e-01 3.477414e-01 4.348060e-01 4.056613e-01 5.122929e-01 6.061376e-01 5.312346e-01 4.718868e-01 5.432339e-01 4.156113e-01 4.447827e-01 4.551072e-01 3.422064e-01 2.178990e-01
<GCONST> 1.141943e+02
<STATE> 4
<MEAN> 39
 -1.414212e+00 -3.078817e+00 8.397475e-01 -4.906456e+00 -6.700740e+00 -7.737497e+00 -5.230449e+00 4.741903e-02 9.896232e-01 2.155071e-01 -1.209398e+00 -2.727486e+00 5.841761e+01 2.191673e-01 1.509273e-01 2.477608e-01 -2.409412e-01 -4.102341e-01 1.394114e-01 -9.917641e-02 -1.843344e-01 -4.515460e-01 1.343563e-01 8.899263e-02 -1.248231e-01 1.084237e-01 -7.066319e-02 6.280066e-02 -7.641334e-02 -1.621475e-01 6.705615e-02 1.722686e-01 4.252300e-03 -9.469036e-03 3.439956e-03 6.601647e-03 -6.337469e-02 -1.012319e-01 -1.094316e-02
<VARIANCE> 39
 2.589970e+01 4.495737e+01 5.208321e+01 4.301554e+01 5.663112e+01 4.919972e+01 4.642663e+01 4.699780e+01 4.051010e+01 3.581979e+01 3.183695e+01 2.395152e+01 3.617872e+01 2.038346e+00 2.557701e+00 2.681290e+00 2.385634e+00 3.472794e+00 2.557424e+00 2.521451e+00 3.084546e+00 2.207747e+00 2.214151e+00 2.327963e+00 1.643117e+00 2.053631e+00 2.791668e-01 3.673233e-01 3.393209e-01 4.400986e-01 5.426620e-01 4.768523e-01 4.425384e-01 4.820360e-01 3.839091e-01 3.936942e-01 3.725313e-01 3.082930e-01 2.720812e-01
<GCONST> 1.185363e+02
<TRANSP> 5
 0.000000e+00 1.000000e+00 0.000000e+00 0.000000e+00 0.000000e+00
 0.000000e+00 2.199745e-01 7.800255e-01 0.000000e+00 0.000000e+00
 0.000000e+00 0.000000e+00 2.806152e-01 7.193848e-01 0.000000e+00
 0.000000e+00 0.000000e+00 0.000000e+00 4.254087e-01 5.745913e-01
 0.000000e+00 0.000000e+00 0.000000e+00 0.000000e+00 0.000000e+00
<ENDHMM>
~h "s"
<BEGINHMM>
<NUMSTATES> 5
<STATE> 2
<MEAN> 39
 -9.964819e+00 3.944232e+00 -1.677274e+00 -3.263114e+00 -1.174840e+00 -7.566422e+00 -8.935089e-01 -4.065161e-01 4.304190e-01 -2.101413e+00 -1.565221e+00 -2.403538e+00 5.691661e+01 -3.401426e+00 1.926414e+00 -1.047339e+00 9.461888e-01 9.260525e-01 -3.988617e-01 9.919358e-01 1.127958e-01 1.700534e-01 -4.700267e-01 5.362149e-01 1.942176e-01 -1.574093e-01 -1.102860e-01 -2.750155e-01 -9.288888e-02 -3.066797e-01 -1.470287e-01 1.015529e-01 -2.049572e-01 -2.643014e-02 -1.573009e-01 5.225258e-02 3.333108e-02 -6.012331e-02 3.833449e-02
<VARIANCE> 39
 4.638192e+01 4.458289e+01 4.906629e+01 3.663676e+01 5.829531e+01 4.413777e+01 4.718499e+01 4.461552e+01 4.322567e+01 3.881275e+01 3.050991e+01 2.161234e+01 4.008758e+01 1.841512e+00 2.772603e+00 2.801326e+00 3.501528e+00 3.425583e+00 3.181301e+00 2.790817e+00 2.971896e+00 2.351807e+00 2.568980e+00 2.113986e+00 1.802146e+00 9.225239e-01 6.577588e-01 4.261881e-01 3.763211e-01 3.926010e-01 4.891862e-01 4.566201e-01 4.232091e-01 4.414496e-01 3.969997e-01 3.970188e-01 3.499286e-01 2.787337e-01 1.064193e-01
<GCONST> 1.186156e+02
<STATE> 3
<MEAN> 39
 -1.899424e+01 5.541892e+00 -4.547688e+00 -1.976726e+00 -2.651687e-01 -6.802456e+00 1.103555e+00 -8.606922e-03 -1.967671e-01 -2.396019e+00 4.542472e-01 -1.092325e+00 5.324021e+01 -5.664577e-01 -2.312916e-01 -9.524350e-02 4.796992e-03 -3.699935e-02 2.051725e-02 1.813588e-01 5.103978e-03 -6.131351e-02 -1.628114e-03 1.043783e-01 1.498726e-01 -3.511259e-01 6.313910e-01 -2.927909e-01 2.276491e-01 -9.298200e-02 -1.465187e-01 -1.369306e-02 -7.355182e-02 -2.557797e-03 2.558756e-02 7.404511e-02 -8.343621e-02 -2.240621e-02 9.430512e-03
<VARIANCE> 39
 2.643141e+01 4.305958e+01 3.885431e+01 2.914671e+01 3.685495e+01 4.546881e+01 4.023598e+01 3.312458e+01 3.373422e+01 3.258979e+01 2.190191e+01 1.998858e+01 6.247810e+01 1.379071e+00 1.074363e+00 1.112227e+00 1.072763e+00 1.271420e+00 1.428078e+00 1.446353e+00 1.539749e+00 1.501195e+00 1.398705e+00 1.216451e+00 9.977008e-01 4.195287e-01 3.480623e-01 2.589673e-01 2.319531e-01 2.701849e-01 2.941093e-01 3.159426e-01 3.287394e-01 3.267401e-01 3.101026e-01 3.148950e-01 2.631907e-01 2.238328e-01 8.764335e-02
<GCONST> 1.022424e+02
<STATE> 4
<MEAN> 39
 -1.650993e+01 3.526181e+00 -3.759496e+00 -2.673435e+00 -1.195813e+00 -8.159703e+00 1.017766e+00 -6.755176e-02 6.715980e-01 -2.006567e+00 -3.455812e-01 -1.049703e+00 5.392362e+01 2.682822e+00 -8.221102e-01 5.185318e-01 -6.110097e-01 -9.633158e-01 -1.996097e-01 -7.912022e-01 -2.118164e-01 1.113516e-01 1.393963e-01 -5.248963e-01 -3.701470e-01 6.840425e-01 5.710124e-01 -4.484234e-02 9.402579e-02 -2.572474e-01 -1.966942e-01 6.628451e-02 -3.646790e-01 -7.384626e-02 -5.739706e-02 4.773046e-02 -5.680095e-02 -1.684087e-01 3.425573e-01
<VARIANCE> 39
 5.185452e+01 3.157887e+01 3.694567e+01 3.033928e+01 3.980320e+01 4.469924e+01 3.901646e+01 3.048751e+01 3.411147e+01 2.995247e+01 2.357655e+01 1.859355e+01 4.212211e+01 4.954849e+00 3.299026e+00 3.258612e+00 2.921256e+00 3.453843e+00 3.413888e+00 3.566233e+00 3.345565e+00 2.640224e+00 2.746625e+00 2.477039e+00 1.862237e+00 2.502644e+00 7.911346e-01 4.513049e-01 3.942864e-01 4.543087e-01 5.184640e-01 5.392554e-01 5.576333e-01 5.199682e-01 4.337361e-01 4.378778e-01 4.286143e-01 3.092617e-01 2.719419e-01
<GCONST> 1.215932e+02
<TRANSP> 5
 0.000000e+00 1.000000e+00 0.000000e+00 0.000000e+00 0.000000e+00
 0.000000e+00 6.773725e-01 3.226275e-01 0.000000e+00 0.000000e+00
 0.000000e+00 0.000000e+00 8.112842e-01 1.887158e-01 0.000000e+00
 0.000000e+00 0.000000e+00 0.000000e+00 7.098086e-01 2.901913e-01
 0.000000e+00 0.000000e+00 0.000000e+00 0.000000e+00 0.000000e+00
<ENDHMM>
~h "t"
<BEGINHMM>
<NUMSTATES> 5
<STATE> 2
<MEAN> 39
 -6.770166e+00 -3.459493e-01 -1.377325e+00 -3.119695e+00 -3.118429e+00 -3.557001e+00 -3.120056e+00 -9.903301e-02 7.064592e-02 -6.531889e-01 -1.387760e+00 -2.431644e+00 4.620739e+01 -5.032469e-01 5.189724e-02 -1.483023e-01 2.265204e-01 1.162784e-01 3.307180e-01 1.877129e-01 -3.642910e-02 -3.411723e-02 -1.993531e-02 1.051489e-01 1.999911e-01 -9.463833e-01 -3.709142e-02 -1.319513e-01 -2.955741e-02 -1.538011e-01 -2.744114e-02 -1.489805e-01 1.537421e-02 1.519972e-02 -1.082690e-02 -2.372166e-02 4.845269e-02 4.589606e-03 3.751406e-01
<VARIANCE> 39
 2.780853e+01 3.585049e+01 4.155289e+01 3.887054e+01 3.943864e+01 3.813378e+01 2.919529e+01 3.781668e+01 3.110356e+01 2.646905e+01 2.411948e+01 2.403619e+01 5.203539e+01 6.249583e-01 6.748326e-01 9.341764e-01 1.094729e+00 1.311832e+00 1.570409e+00 1.395584e+00 1.611799e+00 1.428680e+00 1.449600e+00 1.249909e+00 1.031505e+00 1.261198e+00 1.122726e-01 1.674826e-01 2.091380e-01 2.540138e-01 2.763522e-01 3.616339e-01 2.911986e-01 3.474888e-01 3.015881e-01 2.993292e-01 2.595771e-01 2.055020e-01 2.203465e-01
<GCONST> 1.008749e+02
<STATE> 3
<MEAN> 39
 -5.856117e+00 2.068500e+00 2.325057e-01 -2.669939e+00 -3.883495e+00 -4.301156e+00 -4.200770e+00 -2.118076e+00 -8.591439e-01 -5.409811e-01 -1.245303e+00 -2.562973e+00 4.643058e+01 -1.070136e+00 -7.980195e-01 -7.474366e-01 -6.158626e-01 3.790274e-01 -7.631895e-01 5.862086e-01 4.996715e-02 1.714567e-01 -2.820493e-01 2.865839e-01 2.493681e-01 1.260657e+00 2.605769e-01 -2.891006e-01 -8.870773e-02 -5.661691e-01 -9.581245e-02 -3.421197e-01 -1.456632e-01 8.439721e-02 1.834461e-01 2.963988e-02 -7.617777e-02 -1.699490e-01 1.154887e+00
<VARIANCE> 39
 2.194782e+01 3.476719e+01 4.820383e+01 4.440619e+01 4.526682e+01 4.082219e+01 2.813445e+01 3.480182e+01 2.880055e+01 2.564907e+01 2.499261e+01 2.218421e+01 4.314230e+01 1.678419e+00 2.283267e+00 3.171506e+00 3.014195e+00 3.491603e+00 3.774597e+00 2.853480e+00 3.123748e+00 2.542840e+00 2.507885e+00 2.372982e+00 1.641245e+00 3.451764e+00 3.287979e-01 3.942673e-01 6.046386e-01 5.430266e-01 6.016960e-01 5.887343e-01 5.333147e-01 6.644909e-01 4.873461e-01 4.894944e-01 4.655267e-01 3.398354e-01 3.825607e-01
<GCONST> 1.204278e+02
<STATE> 4
<MEAN> 39
 -8.607057e+00 -1.639050e+00 -2.637199e+00 -6.212617e+00 -2.568324e+00 -7.657753e+00 -1.989279e+00 -1.249390e+00 6.800690e-01 -1.352815e+00 -5.252277e-01 -2.388826e+00 5.393003e+01 8.713182e-01 -6.014557e-01 -2.285262e-01 -1.527807e+00 -2.358720e-01 -6.752751e-01 -5.691404e-01 2.633633e-01 4.343328e-01 8.504936e-02 -2.294602e-01 -5.647404e-01 2.933810e+00 6.810164e-01 9.789135e-02 3.335461e-01 -1.502824e-01 -2.409401e-01 4.360025e-01 -4.777627e-01 3.025641e-02 -1.260422e-01 1.713036e-01 -1.145631e-01 -2.196231e-01 -2.597434e-02
<VARIANCE> 39
 2.279791e+01 2.521972e+01 3.748983e+01 3.439024e+01 3.713413e+01 4.385682e+01 3.355667e+01 3.030745e+01 3.299583e+01 2.845984e+01 2.609199e+01 2.223333e+01 5.066573e+01 3.413166e+00 3.848584e+00 6.296826e+00 4.957467e+00 5.000787e+00 5.201508e+00 4.447899e+00 6.138634e+00 4.002428e+00 3.606071e+00 3.511430e+00 2.687843e+00 4.442370e+00 4.213144e-01 5.526590e-01 6.240373e-01 6.905541e-01 7.168237e-01 8.004484e-01 6.659990e-01 7.065726e-01 5.441847e-01 5.616441e-01 5.528387e-01 4.204547e-01 6.576992e-01
<GCONST> 1.289622e+02
<TRANSP> 5
 0.000000e+00 1.000000e+00 0.000000e+00 0.000000e+00 0.000000e+00
 0.000000e+00 7.586424e-01 2.413576e-01 0.000000e+00 0.000000e+00
 0.000000e+00 0.000000e+00 4.400746e-01 5.599254e-01 0.000000e+00
 0.000000e+00 0.000000e+00 0.000000e+00 4.977568e-01 5.022432e-01
 0.000000e+00 0.000000e+00 0.000000e+00 0.000000e+00 0.000000e+00
<ENDHMM>
~h "u"
<BEGINHMM>
<NUMSTATES> 5
<STATE> 2
<MEAN> 39
 4.058331e-01 3.839328e+00 -1.683171e+00 -9.994458e+00 -5.846327e+00 -4.943943e+00 -9.607211e+00 -4.448505e+00 -2.672791e+00 -3.677845e-01 2.077213e-01 -2.094138e+00 5.540253e+01 1.272522e+00 4.317576e-01 -4.884739e-01 -1.778942e+00 -5.816732e-01 7.590658e-01 -1.030786e+00 -7.575695e-01 -6.937876e-01 3.702978e-01 7.644392e-01 1.664582e-01 7.314346e-01 -3.011732e-01 -8.010501e-02 8.343114e-02 2.017081e-01 2.085221e-01 3.010232e-01 3.192150e-01 4.475655e-02 -1.889017e-02 3.382881e-02 1.550695e-03 -5.434845e-02 -2.706416e-01
<VARIANCE> 39
 2.379984e+01 4.494430e+01 4.340130e+01 6.695893e+01 5.090904e+01 5.221186e+01 5.591624e+01 5.328406e+01 5.147131e+01 4.755426e+01 3.402266e+01 2.466200e+01 4.077951e+01 2.642092e+00 2.291353e+00 3.090817e+00 4.471836e+00 4.076348e+00 4.197742e+00 4.148932e+00 4.013438e+00 3.520066e+00 3.170062e+00 3.105543e+00 2.210307e+00 1.703987e+00 3.636412e-01 4.368466e-01 3.783595e-01 7.353101e-01 5.843257e-01 6.412395e-01 7.882351e-01 6.542355e-01 6.516609e-01 5.424104e-01 4.624108e-01 3.948493e-01 3.442778e-01
<GCONST> 1.271360e+02
<STATE> 3
<MEAN> 39
 1.722290e+00 2.550003e+00 -2.891216e+00 -1.483549e+01 -5.553840e+00 -4.548170e-01 -1.141478e+01 -7.045285e+00 -4.042096e+00 1.273581e+00 3.616221e+00 -2.142668e+00 5.812888e+01 -3.198322e-03 -3.094028e-01 -6.913816e-03 -1.113891e-01 3.499547e-01 2.869391e-01 -2.105735e-01 -1.259063e-01 2.152393e-01 4.798309e-01 6.488789e-02 -3.867612e-01 1.188091e-01 -3.468170e-01 -4.059160e-02 2.788816e-01 8.485711e-01 1.708788e-01 -3.721743e-01 4.204364e-01 3.667294e-01 3.066676e-01 -2.438324e-01 -4.967432e-01 -1.028660e-01 -3.983679e-01
<VARIANCE> 39
 1.895955e+01 4.051139e+01 4.249574e+01 7.368976e+01 5.526930e+01 6.058198e+01 5.686560e+01 6.813280e+01 6.311982e+01 6.496024e+01 4.923268e+01 3.630913e+01 2.972379e+01 7.368892e-01 2.512941e+00 1.797233e+00 4.722405e+00 2.867892e+00 3.682692e+00 3.454679e+00 3.355202e+00 4.696336e+00 3.018684e+00 2.968813e+00 2.567112e+00 1.448546e+00 2.519599e-01 3.396954e-01 3.726836e-01 6.126859e-01 6.019331e-01 6.562183e-01 7.279668e-01 6.954645e-01 7.277172e-01 6.245450e-01 5.899033e-01 5.250198e-01 1.876228e-01
<GCONST> 1.253847e+02
<STATE> 4
<MEAN> 39
 7.804348e-01 3.111708e+00 -2.085772e+00 -1.375498e+01 -3.786342e+00 -2.903896e+00 -9.830906e+00 -4.823158e+00 -5.057874e+00 8.476444e-01 6.917952e-01 -1.916700e+00 5.565684e+01 -2.561702e-01 3.879614e-02 3.081849e-01 8.961953e-01 1.745148e-01 -1.432822e-01 4.084551e-01 2.747335e-01 3.407604e-01 -1.678584e-01 -4.223736e-01 -1.043294e-01 -6.866570e-01 -1.562201e-01 -3.133287e-03 7.005059e-02 2.365803e-01 1.196406e-03 -7.771279e-02 9.710059e-02 1.698207e-02 7.191204e-02 -6.729101e-02 -5.419783e-02 4.059152e-02 -9.965822e-02
<VARIANCE> 39
 1.471061e+01 3.813294e+01 4.676296e+01 7.338578e+01 4.700367e+01 4.449393e+01 4.524102e+01 4.668480e+01 5.744193e+01 5.882719e+01 4.297895e+01 3.250938e+01 3.391104e+01 6.544543e-01 1.282942e+00 1.294263e+00 2.625101e+00 1.770588e+00 2.131305e+00 2.050728e+00 2.164808e+00 2.211092e+00 1.839436e+00 2.011535e+00 1.453336e+00 1.083131e+00 1.231272e-01 1.893185e-01 2.176274e-01 3.735389e-01 3.362629e-01 3.650626e-01 3.677665e-01 3.832842e-01 4.383852e-01 3.561709e-01 3.465538e-01 2.823158e-01 1.087992e-01
<GCONST> 1.100374e+02
<TRANSP> 5
 0.000000e+00 1.000000e+00 0.000000e+00 0.000000e+00 0.000000e+00
 0.000000e+00 4.530843e-01 5.469157e-01 0.000000e+00 0.000000e+00
 0.000000e+00 0.000000e+00 4.758797e-01 5.241203e-01 0.000000e+00
 0.000000e+00 0.000000e+00 0.000000e+00 6.814034e-01 3.185967e-01
 0.000000e+00 0.000000e+00 0.000000e+00 0.000000e+00 0.000000e+00
<ENDHMM>
~h "v"
<BEGINHMM>
<NUMSTATES> 5
<STATE> 2
<MEAN> 39
 -4.566663e+00 -6.119897e-01 8.984835e-02 -1.815904e+00 -3.826708e+00 -1.762548e+00 -1.021405e+00 2.769801e+00 1.271598e+00 -1.192040e+00 -2.191579e+00 -3.517269e+00 5.391779e+01 -1.745067e+00 5.695068e-01 -8.780216e-01 7.928048e-01 1.025355e-01 -3.352368e-01 3.442871e-01 -5.044292e-02 2.042782e-01 -3.621445e-01 -4.833578e-02 4.564915e-01 -9.798162e-01 -1.630582e-01 -1.913811e-01 -7.419597e-02 -2.491373e-01 -1.900862e-01 -2.416838e-01 -2.358148e-01 -2.181259e-01 -1.326182e-01 -9.081209e-02 6.796083e-02 -1.147651e-01 2.550595e-01
<VARIANCE> 39
 1.342902e+01 2.552707e+01 5.090924e+01 2.681688e+01 3.793346e+01 2.825588e+01 1.636843e+01 4.844085e+01 3.477456e+01 2.500632e+01 2.414913e+01 2.338396e+01 2.165745e+01 1.403627e+00 9.166992e-01 2.023465e+00 1.287582e+00 2.377747e+00 2.212150e+00 2.136914e+00 2.064269e+00 2.843071e+00 1.707962e+00 1.576007e+00 1.487722e+00 6.820903e-01 2.403146e-01 1.420598e-01 2.496291e-01 2.123439e-01 3.333703e-01 3.627946e-01 2.711238e-01 3.130715e-01 4.104615e-01 2.414429e-01 2.590214e-01 2.055979e-01 7.105733e-02
<GCONST> 1.021875e+02
<STATE> 3
<MEAN> 39
 -1.189549e+01 -4.415053e-01 -2.393584e+00 -9.024890e-01 -2.952588e+00 -4.606261e+00 -2.244008e+00 -1.154455e+00 1.059846e-01 -3.116422e+00 -1.062653e+00 -1.756161e+00 5.200991e+01 -7.802817e-01 -1.982104e-01 -1.062533e-01 4.379584e-02 -8.810792e-02 -1.478790e-01 6.573157e-02 -1.445070e-01 -2.001790e-01 -1.158266e-01 1.064218e-01 8.227186e-02 -1.968998e-01 7.413970e-01 -3.400576e-02 4.711227e-01 -2.494544e-01 -1.691435e-01 2.286489e-01 2.987333e-02 -7.477508e-03 -1.546145e-01 3.262549e-01 1.722959e-01 -1.459080e-01 2.596646e-01
<VARIANCE> 39
 1.092001e+01 1.591143e+01 3.254558e+01 1.967864e+01 2.004148e+01 2.242137e+01 1.641109e+01 2.431388e+01 2.062024e+01 3.065145e+01 1.693588e+01 1.361016e+01 1.345283e+01 1.720827e+00 1.048659e+00 1.562051e+00 1.031679e+00 1.426073e+00 1.406948e+00 1.173748e+00 1.964561e+00 1.542100e+00 1.739704e+00 1.433013e+00 9.390200e-01 3.103111e-01 2.762643e-01 2.669495e-01 4.158650e-01 3.258263e-01 3.957018e-01 3.327745e-01 3.433085e-01 4.368324e-01 4.308633e-01 3.658661e-01 3.516816e-01 2.175123e-01 1.316355e-01
<GCONST> 9.761883e+01
<STATE> 4
<MEAN> 39
 -9.102777e+00 3.483586e-01 -1.686504e+00 -1.020485e+00 -4.092452e+00 -2.152804e+00 -9.446556e-01 -9.088410e-01 -4.608713e-01 -1.545670e+00 -2.795891e-01 -2.658881e+00 5.183201e+01 2.465316e+00 -7.591861e-02 1.147813e+00 -1.468132e+00 -1.308233e+00 2.388535e-01 -4.713168e-01 -9.923680e-01 -8.840047e-01 9.777432e-01 7.044935e-01 -7.782221e-01 1.645687e+00 5.079327e-01 -2.150185e-01 3.290994e-01 -6.195286e-01 -4.577328e-01 -1.544795e-01 -3.444845e-01 -1.427964e-01 -4.932492e-02 1.863384e-01 -3.971195e-02 -2.620864e-01 6.059746e-01
<VARIANCE> 39
 2.949108e+01 2.364886e+01 4.760018e+01 3.456576e+01 2.680615e+01 3.268100e+01 2.425996e+01 2.808373e+01 2.505590e+01 2.695930e+01 1.727001e+01 1.548651e+01 2.119571e+01 4.109159e+00 3.293889e+00 7.133081e+00 3.981598e+00 3.511637e+00 4.999695e+00 2.980442e+00 5.088768e+00 2.445552e+00 2.169117e+00 2.786141e+00 1.300210e+00 1.364783e+00 6.106426e-01 5.423378e-01 7.576524e-01 5.023322e-01 4.669851e-01 4.964961e-01 4.511291e-01 6.258013e-01 3.945904e-01 4.672156e-01 3.481610e-01 2.709354e-01 1.388012e-01
<GCONST> 1.180669e+02
<TRANSP> 5
 0.000000e+00 1.000000e+00 0.000000e+00 0.000000e+00 0.000000e+00
 0.000000e+00 7.070876e-01 2.929125e-01 0.000000e+00 0.000000e+00
 0.000000e+00 0.000000e+00 7.265140e-01 2.734860e-01 0.000000e+00
 0.000000e+00 0.000000e+00 0.000000e+00 5.673624e-01 4.326376e-01
 0.000000e+00 0.000000e+00 0.000000e+00 0.000000e+00 0.000000e+00
<ENDHMM>
~h "w"
<BEGINHMM>
<NUMSTATES> 5
<STATE> 2
<MEAN> 39
 2.684548e+00 -1.439404e-01 -4.974033e+00 -1.379670e+01 -4.745181e+00 2.198373e+00 -4.164245e+00 -2.703888e+00 -1.670039e+00 2.026086e+00 3.566835e+00 -4.256247e+00 5.773038e+01 6.252359e-01 1.008373e+00 5.042574e-02 -9.663740e-01 -7.864318e-01 1.736918e-01 -3.094904e-02 -2.381994e-01 -6.394210e-01 2.202655e-02 5.546939e-01 6.642702e-01 -3.909505e-01 -1.148938e-01 -2.537997e-01 -4.096789e-02 -1.300163e-02 7.806468e-04 -4.349038e-02 6.173953e-02 2.118585e-01 5.112571e-02 -6.701013e-02 -1.131534e-01 -8.926320e-02 1.794678e-01
<VARIANCE> 39
 1.510314e+01 4.206924e+01 3.811084e+01 7.303280e+01 4.447477e+01 3.681875e+01 4.162624e+01 3.070789e+01 3.331549e+01 2.719751e+01 2.648849e+01 2.182968e+01 2.579386e+01 6.233104e-01 9.983523e-01 9.276223e-01 1.626424e+00 1.702045e+00 2.479872e+00 1.484918e+00 1.671476e+00 1.358091e+00 1.413689e+00 1.573206e+00 1.105984e+00 5.870509e-01 7.697944e-02 1.809745e-01 2.015837e-01 3.503781e-01 2.946977e-01 4.070874e-01 2.874554e-01 3.449539e-01 2.727888e-01 2.834603e-01 3.263526e-01 2.621782e-01 8.899064e-02
<GCONST> 1.012028e+02
<STATE> 3
<MEAN> 39
 3.971763e+00 3.203767e+00 -5.803874e+00 -1.698942e+01 -8.335585e+00 3.668135e+00 -5.151267e+00 -2.636564e+00 -4.555454e+00 1.485793e+00 3.800555e+00 -2.075195e+00 5.578144e+01 3.362397e-01 -1.018796e+00 -1.053089e+00 -2.096480e+00 1.990079e-01 1.276908e+00 -1.181129e-01 -2.891014e-01 -3.369456e-01 6.084574e-01 4.474816e-01 -8.315353e-01 1.399193e+00 -3.536215e-01 -5.774831e-01 -7.203125e-02 2.778092e-01 5.774467e-01 4.005298e-02 1.621487e-02 9.676512e-02 4.631465e-01 1.197360e-01 -3.045116e-01 -5.490136e-01 2.157906e-01
<VARIANCE> 39
 2.139790e+01 4.652207e+01 4.057294e+01 9.771591e+01 5.179087e+01 4.315760e+01 4.025702e+01 3.557992e+01 3.967257e+01 3.532336e+01 3.402812e+01 2.261866e+01 5.213068e+01 1.890965e+00 2.013725e+00 1.408602e+00 3.931509e+00 3.682934e+00 3.817683e+00 2.765619e+00 2.688096e+00 3.258265e+00 2.507277e+00 2.624774e+00 2.252017e+00 1.435372e+00 2.265686e-01 2.029877e-01 2.737050e-01 7.594545e-01 4.470533e-01 5.692689e-01 3.947069e-01 4.304143e-01 4.519709e-01 4.685260e-01 4.359977e-01 3.639381e-01 1.745558e-01
<GCONST> 1.186965e+02
<STATE> 4
<MEAN> 39
 1.886810e+00 -3.989056e+00 -6.720386e+00 -2.074076e+01 -2.848620e+00 6.173736e+00 -4.235194e+00 -2.736761e+00 -2.209598e+00 4.858604e+00 4.205205e+00 -8.890647e+00 6.155667e+01 -6.025531e-01 -1.173244e+00 -2.358752e-01 7.557485e-01 1.083594e+00 -1.757549e-01 2.830016e-02 4.267715e-01 1.005181e+00 -2.176265e-01 -1.023218e+00 -1.226242e+00 4.348540e-01 -4.154036e-02 2.067425e-01 1.842428e-01 4.291143e-01 -1.392453e-01 -3.926654e-01 5.246355e-02 1.266575e-01 3.934165e-02 -3.583952e-01 -2.045085e-01 3.332896e-01 -2.487199e-01
<VARIANCE> 39
 1.301908e+01 4.987544e+01 3.954720e+01 6.150744e+01 4.428080e+01 5.183406e+01 5.440195e+01 3.935232e+01 6.717848e+01 4.615820e+01 4.327745e+01 3.629370e+01 2.199252e+01 3.813314e-01 1.570717e+00 8.275040e-01 1.866487e+00 1.892887e+00 1.903246e+00 1.446612e+00 1.585202e+00 2.267308e+00 1.939197e+00 1.741335e+00 2.269287e+00 1.468649e+00 8.058113e-02 2.299248e-01 1.719857e-01 4.249666e-01 3.373986e-01 4.038571e-01 2.604194e-01 2.906085e-01 3.798607e-01 3.338025e-01 2.872075e-01 3.969882e-01 1.342246e-01
<GCONST> 1.076961e+02
<TRANSP> 5
 0.000000e+00 1.000000e+00 0.000000e+00 0.000000e+00 0.000000e+00
 0.000000e+00 7.446138e-01 2.553861e-01 0.000000e+00 0.000000e+00
 0.000000e+00 0.000000e+00 6.089335e-01 3.910666e-01 0.000000e+00
 0.000000e+00 0.000000e+00 0.000000e+00 7.178810e-01 2.821191e-01
 0.000000e+00 0.000000e+00 0.000000e+00 0.000000e+00 0.000000e+00
<ENDHMM>
~h "y"
<BEGINHMM>
<NUMSTATES> 5
<STATE> 2
<MEAN> 39
 -5.069835e+00 2.585996e-01 8.872375e+00 -1.216932e+01 -1.047988e+01 -7.939846e+00 -5.173124e+00 -1.755314e+00 -4.019627e+00 -4.318753e-01 1.244758e-02 -1.921771e+00 5.971428e+01 -1.208913e-01 -3.502849e-01 8.923478e-01 -1.007359e+00 -1.106060e+00 -2.783850e-01 3.590685e-01 4.562739e-01 -3.244826e-01 3.598659e-01 5.347358e-01 1.087888e-02 9.859295e-01 8.329600e-02 -2.997319e-01 -4.791251e-01 1.844538e-01 1.951835e-01 1.300586e-01 1.783677e-01 2.170262e-01 1.560685e-01 -1.001258e-01 -1.192124e-01 -1.324906e-01 -3.255679e-02
<VARIANCE> 39
 2.448895e+01 7.288181e+01 6.185863e+01 8.626178e+01 6.168890e+01 5.133331e+01 4.457106e+01 7.254731e+01 4.107221e+01 5.146043e+01 5.413336e+01 2.348841e+01 5.165754e+01 1.315241e+00 3.237180e+00 4.043943e+00 3.721336e+00 2.860648e+00 3.036423e+00 3.212697e+00 4.605142e+00 2.744920e+00 2.520243e+00 2.160651e+00 1.674360e+00 2.036260e+00 1.588828e-01 3.320693e-01 5.158665e-01 6.242211e-01 6.580499e-01 4.602848e-01 5.210646e-01 5.392531e-01 4.293726e-01 4.430553e-01 4.201744e-01 2.927926e-01 2.131078e-01
<GCONST> 1.237443e+02
<STATE> 3
<MEAN> 39
 -5.198947e+00 -5.780354e+00 9.400171e+00 -1.321177e+01 -1.311879e+01 -9.645424e+00 -1.289949e+00 1.958696e+00 -3.993806e+00 2.376832e-01 2.635025e+00 -3.763221e+00 6.408371e+01 1.450104e-01 -6.791790e-01 -5.352528e-01 7.425067e-02 1.102048e-01 7.349014e-03 6.315636e-01 8.368444e-01 5.185032e-02 -2.629235e-01 -3.519684e-02 -2.102882e-01 2.448768e-01 8.972318e-02 -6.490177e-02 -3.632356e-01 1.753416e-01 4.633779e-01 9.498518e-02 -1.012391e-01 8.137348e-02 1.245863e-01 -1.935955e-01 -2.930202e-01 9.559697e-05 -8.453429e-02
<VARIANCE> 39
 2.547940e+01 3.956072e+01 3.682203e+01 6.864733e+01 3.870076e+01 3.508225e+01 3.952731e+01 6.873441e+01 3.445366e+01 3.938084e+01 4.063350e+01 1.752939e+01 3.163993e+01 2.625715e-01 1.628720e+00 2.085471e+00 1.025207e+00 1.569555e+00 1.128508e+00 1.933982e+00 2.821411e+00 1.531187e+00 1.826341e+00 1.316183e+00 1.008540e+00 3.029566e-01 4.111974e-02 1.484088e-01 1.338141e-01 1.519496e-01 2.561810e-01 2.106395e-01 3.398802e-01 3.889986e-01 2.538180e-01 2.618728e-01 2.099510e-01 1.914251e-01 5.776942e-02
<GCONST> 9.836708e+01
<STATE> 4
<MEAN> 39
 -1.045568e+00 -7.812168e+00 -1.352415e+00 -5.576906e+00 -1.259748e+01 -3.177798e+00 1.409171e+00 3.254956e+00 -2.606746e+00 -4.452577e+00 2.194519e-01 -3.575801e+00 6.094460e+01 2.179283e-01 -5.629778e-01 -1.057104e+00 6.104599e-01 1.171311e+00 2.304363e-01 -5.112712e-02 2.641338e-01 1.961949e-01 -4.891348e-01 -5.752981e-01 -6.142016e-02 -4.953206e-02 1.521892e-02 1.976678e-01 7.192131e-02 -1.434179e-02 1.771652e-01 6.209902e-02 -3.063156e-01 -3.013074e-01 4.511758e-02 1.498007e-01 -4.350293e-02 1.073154e-02 -1.594192e-01
<VARIANCE> 39
 1.479847e+01 3.086022e+01 6.379709e+01 8.085914e+01 4.016643e+01 9.529717e+01 3.135081e+01 5.641676e+01 4.451746e+01 2.682136e+01 3.462348e+01 1.417359e+01 2.630564e+01 2.870156e-01 8.610709e-01 1.641783e+00 1.718605e+00 1.725614e+00 1.386827e+00 1.660486e+00 1.843302e+00 1.467486e+00 1.433130e+00 1.671208e+00 9.530225e-01 2.345345e-01 3.514633e-02 1.258530e-01 1.385008e-01 1.757539e-01 2.247920e-01 2.352938e-01 2.747069e-01 3.833087e-01 2.161558e-01 2.217021e-01 2.049241e-01 1.612288e-01 4.856461e-02
<GCONST> 9.621793e+01
<TRANSP> 5
 0.000000e+00 1.000000e+00 0.000000e+00 0.000000e+00 0.000000e+00
 0.000000e+00 6.088681e-01 3.911319e-01 0.000000e+00 0.000000e+00
 0.000000e+00 0.000000e+00 6.957469e-01 3.042530e-01 0.000000e+00
 0.000000e+00 0.000000e+00 0.000000e+00 6.656629e-01 3.343371e-01
 0.000000e+00 0.000000e+00 0.000000e+00 0.000000e+00 0.000000e+00
<ENDHMM>
~h "z"
<BEGINHMM>
<NUMSTATES> 5
<STATE> 2
<MEAN> 39
 -5.840667e+00 2.024042e+00 -1.018978e+00 -2.770928e+00 -2.803977e+00 9.254046e-01 -3.754154e+00 -2.013007e+00 -1.545549e+00 5.800740e-01 -2.527175e-01 -1.725118e+00 4.457657e+01 -5.664255e-01 2.023377e-01 -2.333913e-01 -2.520624e-02 -1.375905e-01 1.414198e-01 4.467072e-01 1.221673e-01 6.172102e-02 5.842853e-02 -9.748810e-02 7.745493e-02 -6.005556e-01 -6.951271e-02 2.566607e-02 9.908341e-02 -2.002681e-02 -4.053382e-02 -2.770110e-02 2.742138e-02 -2.753613e-02 -3.490721e-02 -2.220655e-02 7.090706e-02 -2.611816e-02 7.106409e-02
<VARIANCE> 39
 4.659981e+01 3.690562e+01 1.944724e+01 1.811201e+01 2.386475e+01 4.379169e+01 2.266891e+01 2.367163e+01 1.883975e+01 2.364794e+01 1.389307e+01 1.034277e+01 4.575982e+01 3.926083e-01 4.113947e-01 3.894457e-01 6.693437e-01 8.702615e-01 9.425496e-01 1.204300e+00 1.323139e+00 1.081546e+00 1.006890e+00 8.796273e-01 6.644651e-01 3.174681e-01 1.077862e-01 6.940066e-02 6.788749e-02 1.539160e-01 2.223585e-01 1.837597e-01 2.735370e-01 2.630600e-01 2.050435e-01 1.494111e-01 1.676256e-01 1.651963e-01 3.256421e-02
<GCONST> 8.283711e+01
<STATE> 3
<MEAN> 39
 -1.219405e+01 3.783711e+00 3.197372e+00 -3.048630e+00 -7.871385e-01 -3.036613e+00 -2.056245e+00 -1.604841e+00 9.373170e-01 -4.378715e+00 1.763449e+00 -1.367169e+00 5.246146e+01 -7.234499e-01 -2.406743e-01 1.998442e-01 6.256125e-02 -3.810040e-01 -5.802071e-01 1.957312e-01 4.680776e-01 3.142130e-01 -9.878411e-02 3.353868e-02 -2.210452e-01 4.777511e-01 6.593506e-01 -3.285171e-01 1.109459e-01 -2.399374e-01 -2.784750e-01 -2.119265e-01 -2.156254e-01 2.490701e-01 -5.059974e-02 2.243587e-01 -1.176327e-02 -1.964660e-01 3.221392e-01
<VARIANCE> 39
 4.040535e+01 4.317147e+01 1.761747e+01 1.767592e+01 2.992658e+01 3.545600e+01 3.518352e+01 2.342537e+01 3.607484e+01 2.989942e+01 1.602458e+01 1.535717e+01 3.586788e+01 7.026329e+00 2.153322e+00 1.106752e+00 2.104624e+00 2.311964e+00 3.327670e+00 3.516670e+00 2.098405e+00 1.695011e+00 1.789261e+00 1.652723e+00 1.479904e+00 9.729121e-01 9.508857e-01 3.249917e-01 2.589719e-01 4.387271e-01 4.172650e-01 7.581218e-01 7.178559e-01 4.893784e-01 3.404792e-01 3.598942e-01 3.081594e-01 3.241185e-01 2.605383e-01
<GCONST> 1.129162e+02
<STATE> 4
<MEAN> 39
 -6.167812e+00 -8.380423e-01 4.767887e+00 -4.306665e+00 -1.522019e+00 -9.012310e+00 -1.654716e+00 6.964046e+00 -1.614936e+00 1.505726e-01 -4.624986e-01 -7.671146e+00 5.569491e+01 1.522742e+00 -8.795781e-01 3.501053e-01 -7.061844e-01 -1.333092e+00 -1.127531e+00 -5.472377e-01 6.915497e-01 -4.159501e-02 7.840416e-01 8.815168e-02 -7.858220e-01 1.252945e+00 -1.392839e-01 -6.373510e-02 -4.925583e-02 -1.169983e-01 2.022400e-02 5.435093e-02 -3.414609e-02 -1.046314e-01 -7.133758e-02 -1.750429e-02 -5.432278e-02 -1.222005e-01 5.463502e-02
<VARIANCE> 39
 2.112163e+01 4.990863e+01 1.194120e+01 2.020827e+01 4.561279e+01 2.896727e+01 1.248938e+01 4.592841e+01 3.864249e+01 3.853359e+01 8.638733e+00 3.756317e+01 4.353530e+01 4.512610e+00 3.340234e+00 1.385281e+00 2.472228e+00 2.676692e+00 3.162786e+00 1.380261e+00 3.694787e+00 2.008479e+00 3.642244e+00 1.224190e+00 3.026740e+00 2.695541e+00 4.357048e-01 2.947394e-01 1.046457e-01 2.382578e-01 3.006952e-01 4.076713e-01 2.166446e-01 2.815137e-01 3.338119e-01 3.356132e-01 1.295733e-01 4.145434e-01 3.195503e-01
<GCONST> 1.096304e+02
<TRANSP> 5
 0.000000e+00 1.000000e+00 0.000000e+00 0.000000e+00 0.000000e+00
 0.000000e+00 8.489656e-01 1.510344e-01 0.000000e+00 0.000000e+00
 0.000000e+00 0.000000e+00 8.108227e-01 1.891773e-01 0.000000e+00
 0.000000e+00 0.000000e+00 0.000000e+00 6.548277e-01 3.451722e-01
 0.000000e+00 0.000000e+00 0.000000e+00 0.000000e+00 0.000000e+00
<ENDHMM>
~h "ai"
<BEGINHMM>
<NUMSTATES> 5
<STATE> 2
<MEAN> 39
 -1.974401e+00 -1.114328e+01 -1.838398e+00 -1.081177e+01 -4.780441e+00 -5.370543e+00 -3.202799e+00 7.046540e+00 -1.140785e-01 -2.961879e+00 -3.040751e+00 -5.942250e+00 6.439617e+01 -3.622772e-01 -5.730506e-01 1.010715e+00 1.972326e-01 -1.075976e+00 -7.253381e-01 8.990861e-01 9.334401e-01 -5.918267e-01 -6.757449e-01 3.769955e-01 5.572315e-01 3.782344e-01 -9.140095e-02 5.676725e-01 2.555497e-01 8.147282e-02 -1.644325e-01 -4.014048e-03 -1.616803e-02 -4.786190e-01 -1.107003e-01 2.874919e-01 3.515947e-01 9.230524e-02 -3.702805e-01
<VARIANCE> 39
 1.484503e+01 3.867929e+01 4.417803e+01 4.680314e+01 5.085934e+01 4.081495e+01 3.684604e+01 4.559841e+01 5.239928e+01 3.673893e+01 3.105028e+01 2.871800e+01 3.349657e+01 2.785452e-01 1.241846e+00 1.346702e+00 1.343211e+00 2.002402e+00 2.158316e+00 1.824345e+00 1.882355e+00 1.550626e+00 1.631432e+00 1.920170e+00 1.191757e+00 3.378007e-01 1.262968e-01 1.953360e-01 1.886492e-01 2.660029e-01 3.227509e-01 3.153339e-01 3.258656e-01 4.340889e-01 3.002097e-01 3.784385e-01 3.380177e-01 3.133006e-01 1.333665e-01
<GCONST> 1.041257e+02
<STATE> 3
<MEAN> 39
 -3.316634e+00 -7.767935e+00 4.509617e+00 -1.032924e+01 -1.322021e+01 -7.352146e+00 -9.231091e-01 5.472799e+00 -3.669086e+00 -1.487234e+00 1.387155e+00 -4.802620e+00 6.292389e+01 -2.980985e-01 9.066331e-01 1.338565e+00 -3.110234e-01 -9.342606e-01 -1.611567e-01 -1.697196e-01 -1.016942e+00 -3.754601e-01 7.214289e-01 5.377174e-01 9.181195e-02 -2.999509e-01 6.345593e-02 1.605838e-01 -1.539439e-01 7.722046e-02 3.550077e-01 1.183422e-01 -2.438675e-01 -2.319663e-01 9.769628e-02 3.462371e-02 -2.459904e-01 1.066172e-02 -1.763624e-01
<VARIANCE> 39
 1.647672e+01 3.116578e+01 6.542832e+01 5.685018e+01 4.113548e+01 5.145296e+01 3.132634e+01 5.684155e+01 4.652729e+01 3.209455e+01 4.096856e+01 1.981402e+01 2.888603e+01 1.935464e-01 6.493704e-01 9.058443e-01 1.241881e+00 1.338723e+00 1.232013e+00 1.737333e+00 1.655055e+00 1.439257e+00 1.617989e+00 1.503695e+00 9.392852e-01 1.955897e-01 3.385927e-02 9.645081e-02 1.231210e-01 1.700910e-01 1.926552e-01 2.052037e-01 2.645458e-01 3.018473e-01 2.168699e-01 2.689854e-01 1.987914e-01 1.753933e-01 4.491625e-02
<GCONST> 9.316338e+01
<STATE> 4
<MEAN> 39
 -5.228663e+00 -2.299312e+00 1.006077e+01 -1.143646e+01 -1.219048e+01 -9.317059e+00 -2.652654e+00 -1.306113e+00 -4.365026e+00 1.094522e+00 1.177671e-01 -3.575495e+00 5.934993e+01 1.804766e-01 6.864702e-01 -3.239922e-01 7.860072e-01 7.654889e-01 2.910543e-01 -7.825496e-02 -5.144565e-01 1.513646e-01 -1.278501e-01 -3.898725e-01 1.181006e-01 -1.232309e+00 1.145714e-02 -5.622479e-02 -2.761654e-01 1.373935e-01 1.752016e-01 9.365160e-02 4.666190e-02 1.111143e-01 9.762516e-02 -1.028904e-01 -3.470343e-02 -2.526837e-02 -1.123476e-01
<VARIANCE> 39
 2.007608e+01 3.367004e+01 3.946426e+01 7.661934e+01 5.067099e+01 4.121358e+01 3.637004e+01 4.728028e+01 3.209208e+01 2.945688e+01 4.763802e+01 2.475058e+01 4.335816e+01 5.487900e-01 9.996955e-01 1.412092e+00 1.497303e+00 1.640958e+00 1.624239e+00 1.872525e+00 2.325018e+00 1.719936e+00 1.595376e+00 1.730870e+00 1.239999e+00 6.604525e-01 9.364227e-02 1.536039e-01 2.202476e-01 2.731293e-01 3.135858e-01 2.809042e-01 3.402280e-01 3.933854e-01 3.334189e-01 3.392198e-01 3.401832e-01 2.310050e-01 1.203894e-01
<GCONST> 1.046200e+02
<TRANSP> 5
 0.000000e+00 1.000000e+00 0.000000e+00 0.000000e+00 0.000000e+00
 0.000000e+00 7.011716e-01 2.988285e-01 0.000000e+00 0.000000e+00
 0.000000e+00 0.000000e+00 7.746383e-01 2.253617e-01 0.000000e+00
 0.000000e+00 0.000000e+00 0.000000e+00 7.998616e-01 2.001384e-01
 0.000000e+00 0.000000e+00 0.000000e+00 0.000000e+00 0.000000e+00
<ENDHMM>
~h "au"
<BEGINHMM>
<NUMSTATES> 5
<STATE> 2
<MEAN> 39
 8.761866e-01 -4.302248e+00 -9.518725e+00 -1.871765e+01 -2.675295e+00 8.647973e-01 -7.677131e+00 7.536866e-01 -3.900924e+00 -4.215812e-01 -3.523700e+00 -6.765341e+00 6.000061e+01 2.015606e-01 3.968903e-01 -1.530853e-01 -3.928668e-01 5.847228e-02 2.494591e-01 -1.359048e-01 -2.405060e-01 -1.753032e-01 1.788803e-01 3.268110e-01 1.658475e-01 -2.737142e-01 -2.156759e-02 1.232033e-01 1.165877e-01 1.602034e-01 -6.774680e-02 -9.106565e-02 -3.472852e-02 -1.166702e-01 2.529956e-03 1.242096e-02 4.711670e-02 8.465505e-02 -1.288055e-01
<VARIANCE> 39
 1.299925e+01 4.902018e+01 5.584940e+01 7.065550e+01 3.901238e+01 4.905619e+01 3.610840e+01 3.583690e+01 6.402759e+01 5.678279e+01 4.244592e+01 2.957564e+01 3.207158e+01 2.573378e-01 6.557728e-01 7.506760e-01 1.059435e+00 1.348823e+00 1.498718e+00 1.167502e+00 1.401651e+00 1.288825e+00 1.468034e+00 1.333651e+00 1.225631e+00 2.279493e-01 5.057734e-02 1.264704e-01 1.010591e-01 2.044187e-01 2.090207e-01 2.220739e-01 1.830312e-01 2.644969e-01 2.710323e-01 2.342174e-01 2.366319e-01 2.138006e-01 7.280367e-02
<GCONST> 9.538657e+01
<STATE> 3
<MEAN> 39
 2.089357e+00 -4.079235e-01 -6.644146e+00 -1.610861e+01 -4.106219e+00 4.417134e-02 -1.076979e+01 -4.192346e+00 -2.715259e+00 3.992888e+00 2.077578e+00 -3.940672e+00 5.811008e+01 -1.342625e-03 4.915696e-01 6.463218e-01 9.096031e-01 -6.345427e-02 -2.552943e-01 -4.431813e-01 -4.158917e-01 -9.734008e-02 -1.786216e-01 6.473209e-02 3.916715e-01 -6.875986e-01 -1.363098e-01 3.063730e-02 2.411862e-01 5.063154e-01 -1.726832e-03 -2.961449e-01 2.031038e-01 2.462755e-01 2.506367e-02 -1.643980e-01 -3.400416e-01 -7.138935e-02 -1.849174e-01
<VARIANCE> 39
 8.758127e+00 5.473640e+01 3.168911e+01 6.101510e+01 4.201646e+01 4.653226e+01 6.957004e+01 4.362814e+01 5.321452e+01 4.603669e+01 3.726712e+01 2.803913e+01 3.043034e+01 5.358930e-01 1.656922e+00 1.456610e+00 2.467633e+00 3.087273e+00 3.064749e+00 2.833541e+00 3.097950e+00 4.086573e+00 2.699914e+00 2.539169e+00 2.016616e+00 8.916638e-01 6.910526e-02 2.925514e-01 2.551889e-01 2.523593e-01 5.549076e-01 4.764839e-01 5.546269e-01 5.515108e-01 5.833566e-01 5.392807e-01 4.789981e-01 4.316601e-01 1.162758e-01
<GCONST> 1.146404e+02
<STATE> 4
<MEAN> 39
 -1.957686e+00 -1.300832e+00 -6.400078e+00 -9.508512e+00 -3.554042e-01 1.435320e+00 -4.334130e+00 6.426244e-01 -2.265417e+00 8.452881e-01 9.422212e-01 -4.766412e+00 4.906008e+01 -3.108792e-01 1.568992e-01 3.160135e-01 1.137124e+00 7.988443e-02 -2.245587e-01 2.716312e-01 1.213177e-01 4.023097e-02 -1.154398e-01 -3.098898e-01 -5.916967e-02 -8.229352e-01 -6.189783e-02 -4.545268e-02 -1.734948e-02 -2.312827e-02 9.393476e-03 -8.649184e-03 5.260489e-02 1.439977e-02 -6.606171e-02 -1.846758e-02 1.029122e-02 -1.911212e-03 6.059022e-02
<VARIANCE> 39
 2.229944e+01 3.917506e+01 4.406113e+01 9.790470e+01 6.643048e+01 3.706410e+01 5.075609e+01 4.894567e+01 2.922205e+01 3.733619e+01 2.274624e+01 3.185757e+01 5.318280e+01 3.916742e-01 1.300094e+00 1.281160e+00 1.639523e+00 1.495175e+00 2.055051e+00 1.613865e+00 1.928002e+00 1.837634e+00 1.452188e+00 1.529930e+00 1.269923e+00 9.232588e-01 4.777950e-02 1.746947e-01 1.711528e-01 1.732485e-01 2.934701e-01 3.115672e-01 3.231481e-01 3.294514e-01 3.016410e-01 2.678688e-01 2.583569e-01 2.247197e-01 8.665588e-02
<GCONST> 1.031469e+02
<TRANSP> 5
 0.000000e+00 1.000000e+00 0.000000e+00 0.000000e+00 0.000000e+00
 0.000000e+00 8.579392e-01 1.420607e-01 0.000000e+00 0.000000e+00
 0.000000e+00 0.000000e+00 7.052501e-01 2.947499e-01 0.000000e+00
 0.000000e+00 0.000000e+00 0.000000e+00 7.384268e-01 2.615732e-01
 0.000000e+00 0.000000e+00 0.000000e+00 0.000000e+00 0.000000e+00
<ENDHMM>
~h "ei"
<BEGINHMM>
<NUMSTATES> 5
<STATE> 2
<MEAN> 39
 -3.488616e+00 -1.329485e+01 3.871551e+00 -1.134866e+01 -5.287933e+00 -1.610681e+00 -7.315110e+00 1.008429e+01 -6.764083e+00 -1.326140e+00 -5.109660e+00 5.081229e-01 5.457732e+01 -2.778360e-01 -6.266955e-01 8.033036e-01 -1.495991e+00 -9.373596e-01 4.357896e-02 8.285955e-01 -9.640419e-02 1.142790e-01 1.210263e-01 -4.515473e-01 -2.931703e-01 6.850408e-01 8.324172e-02 2.220038e-01 -3.264942e-01 3.426430e-01 -2.208068e-01 -1.698397e-01 -9.182011e-02 -5.420800e-01 1.980799e-01 4.462371e-02 -4.421559e-03 -1.063641e-01 -1.650431e-01
<VARIANCE> 39
 1.665433e+00 3.164134e+01 1.084168e+01 2.883827e+01 2.772832e+01 3.125214e+01 1.138861e+01 1.997147e+01 1.146043e+01 6.248353e+00 1.479173e+01 5.068923e+00 7.444901e+00 1.873385e-01 4.978921e-01 1.553304e+00 8.227528e-01 8.017818e-01 5.709377e-01 5.593418e-01 2.473195e+00 9.184594e-01 7.186230e-01 5.849282e-01 5.125964e-01 2.684861e-01 1.129586e-01 1.328334e-01 1.181967e-01 2.769029e-01 3.002734e-01 1.474058e-01 2.783308e-01 2.561026e-01 2.500302e-01 2.098973e-01 1.604545e-01 1.221489e-01 7.793431e-02
<GCONST> 7.584641e+01
<STATE> 3
<MEAN> 39
 -2.352083e+00 -9.387156e+00 3.464666e+00 -1.040067e+01 -1.291450e+01 -4.150252e+00 -7.328769e+00 3.882024e+00 -4.951485e+00 3.478484e-01 -5.735575e+00 -2.236238e+00 5.340784e+01 1.970333e-01 1.110373e+00 -2.128671e-01 1.484494e+00 -4.013408e-01 7.848365e-01 -2.830949e-01 -5.948623e-01 1.266357e-01 -2.242016e-01 8.165578e-01 -3.459865e-01 -1.139434e+00 -9.587054e-02 8.180965e-02 1.300262e-01 2.242535e-01 2.638007e-01 1.671119e-01 5.601082e-02 1.858065e-01 -2.529372e-02 -2.003788e-01 2.090276e-02 3.812921e-02 -1.532077e-01
<VARIANCE> 39
 2.489935e+00 2.569809e+01 3.618592e+00 3.760773e+01 1.398246e+01 5.807865e+01 1.319420e+01 1.961217e+01 9.666727e+00 1.286970e+01 3.195730e+01 1.124737e+01 1.682797e+01 2.014834e-01 5.063339e-01 4.912111e-01 1.379621e+00 1.819278e+00 2.892881e+00 7.243901e-01 8.694314e-01 1.155891e+00 1.316514e+00 1.619723e+00 4.037829e-01 3.723740e-01 3.223575e-02 1.309420e-01 5.341929e-02 4.395494e-01 2.897036e-01 5.638342e-01 1.378616e-01 1.472854e-01 1.678921e-01 2.307635e-01 4.744150e-01 9.535735e-02 1.024931e-01
<GCONST> 8.051732e+01
<STATE> 4
<MEAN> 39
 -3.148556e+00 2.447052e+00 6.293878e+00 -1.506698e+01 -1.765980e+01 -8.811077e+00 -1.075403e+01 -4.517078e+00 -1.400708e+00 -9.974347e-01 -7.774496e+00 -1.539670e+00 5.497082e+01 -6.817096e-02 5.073608e-01 3.094305e-01 1.102450e+00 -2.780586e-02 1.496260e-01 -1.130160e-01 -3.941777e-02 -9.781073e-02 -2.573116e-01 2.446149e-01 3.420319e-02 -6.424888e-01 -2.089117e-01 1.160220e-01 -1.579751e-01 1.997914e-01 2.018140e-01 -2.496272e-01 3.059320e-01 1.168988e-01 -1.634849e-02 1.100350e-01 2.688625e-01 4.862438e-02 8.216373e-02
<VARIANCE> 39
 1.736626e+00 2.286940e+01 2.101397e+01 6.877624e+01 1.317095e+01 5.464347e+01 1.827058e+01 2.062098e+01 1.750658e+01 8.589975e+00 1.392434e+01 1.839886e+01 2.237993e+01 2.194824e-01 1.458989e-01 5.582181e-01 1.162789e+00 6.009911e-01 8.714724e-01 2.771412e+00 7.072356e-01 1.401529e+00 9.564477e-01 1.206471e+00 1.301381e+00 1.352618e-01 1.080139e-01 6.019744e-02 1.568682e-01 2.504055e-01 2.536093e-01 3.516500e-01 4.670882e-01 1.392125e-01 2.748290e-01 2.143545e-01 1.411304e-01 2.509045e-01 4.320262e-02
<GCONST> 8.097196e+01
<TRANSP> 5
 0.000000e+00 1.000000e+00 0.000000e+00 0.000000e+00 0.000000e+00
 0.000000e+00 7.391884e-01 2.608117e-01 0.000000e+00 0.000000e+00
