~o
<STREAMINFO> 1 39
<VECSIZE> 39<NULLD><MFCC_D_A_0><DIAGC>
~s "silst"
<MEAN> 39
 -1.137563e+01 -8.441147e-01 -3.279750e+00 -5.150173e-01 -7.108442e-02 5.938441e-01 -3.947412e-01 1.115067e+00 6.763730e-01 -4.886384e-01 4.629548e-01 3.708106e-01 4.094427e+01 -8.454224e-02 -1.839762e-01 4.394385e-03 -2.485275e-01 1.354623e-01 -1.590304e-01 -1.797529e-02 -4.919391e-02 -7.174324e-02 -8.800189e-03 -3.813734e-02 -2.595903e-02 4.750980e-01 -2.869052e-02 7.990340e-02 1.295490e-01 1.076317e-01 -6.599394e-02 -3.988550e-02 3.472961e-02 2.387575e-02 -5.640446e-03 8.592154e-02 -5.938444e-03 -7.133547e-03 -1.032092e-01
<VARIANCE> 39
 3.046010e+01 2.938701e+01 2.938966e+01 3.703721e+01 3.178942e+01 3.925546e+01 2.461060e+01 2.812072e+01 2.224813e+01 2.196877e+01 1.775207e+01 1.435118e+01 9.893617e+01 2.017650e+00 1.764199e+00 1.963603e+00 2.264957e+00 1.903135e+00 2.255065e+00 1.863534e+00 1.813279e+00 1.586918e+00 1.891119e+00 1.288964e+00 1.101382e+00 3.614071e+00 2.818911e-01 2.678071e-01 3.295784e-01 3.832123e-01 3.277558e-01 4.167342e-01 3.478163e-01 3.282835e-01 2.954027e-01 3.534242e-01 2.410407e-01 2.038921e-01 4.389551e-01
<GCONST> 1.087234e+02
~h "a"
<BEGINHMM>
<NUMSTATES> 5
<STATE> 2
<MEAN> 39
 -1.138067e+00 -8.940740e+00 -4.510037e+00 -1.103180e+01 -3.259457e+00 -3.968353e+00 -4.212255e+00 3.862239e+00 1.433703e+00 -1.524885e+00 -3.293585e+00 -6.919143e+00 6.293512e+01 2.532107e-01 -1.473319e+00 -4.247083e-01 -6.470815e-01 4.655306e-01 5.194201e-01 2.329493e-01 9.035739e-01 6.799423e-02 -5.038120e-01 -4.861259e-01 -5.328555e-01 1.109269e+00 -2.441657e-01 4.904245e-01 3.039170e-01 4.605170e-01 6.422299e-02 -4.159987e-02 -2.062533e-02 -4.233036e-01 -1.730408e-01 1.855868e-03 1.489032e-01 3.197638e-01 -5.880633e-01
<VARIANCE> 39
 1.819238e+01 4.332467e+01 5.356203e+01 5.366483e+01 6.317709e+01 5.895063e+01 5.158779e+01 5.593217e+01 5.352897e+01 4.490977e+01 3.953712e+01 3.754274e+01 3.809730e+01 1.303373e+00 2.222920e+00 2.134774e+00 2.841573e+00 3.123187e+00 2.880236e+00 2.889731e+00 3.208867e+00 2.534109e+00 2.623290e+00 2.322217e+00 2.159814e+00 1.583718e+00 2.659192e-01 3.797346e-01 3.199503e-01 4.478333e-01 5.524467e-01 4.756450e-01 4.838173e-01 6.056733e-01 4.801326e-01 4.544764e-01 4.350471e-01 3.892030e-01 2.769540e-01
<GCONST> 1.211034e+02
<STATE> 3
<MEAN> 39
 -2.170557e+00 -1.120317e+01 -3.808801e+00 -1.117567e+01 -1.585205e+00 -3.142463e+00 -2.664239e+00 3.469271e+00 -9.443223e-01 -3.332830e+00 -3.704287e+00 -5.505718e+00 6.375840e+01 7.828981e-02 1.574330e-01 1.283402e-01 2.596821e-01 5.260989e-02 -4.086944e-02 -3.528214e-02 -1.029104e-01 2.186810e-02 -1.429746e-02 7.737007e-03 1.287543e-01 -3.331625e-01 1.404189e-02 3.831167e-01 1.525785e-01 1.763368e-01 -1.215485e-01 -1.125461e-01 -1.141171e-01 -2.033969e-01 3.483563e-02 1.396737e-01 1.003988e-01 1.025645e-01 -3.124966e-01
<VARIANCE> 39
 1.740334e+01 4.075914e+01 4.766900e+01 5.162528e+01 6.226824e+01 4.309030e+01 4.505924e+01 4.743534e+01 4.546497e+01 4.362102e+01 2.877877e+01 2.922589e+01 3.455717e+01 3.096457e-01 7.927669e-01 8.551151e-01 1.036365e+00 1.508305e+00 1.503011e+00 1.420775e+00 1.481970e+00 1.258047e+00 1.284840e+00 1.125891e+00 1.027597e+00 4.456191e-01 7.511641e-02 1.699383e-01 1.432193e-01 2.162947e-01 2.376147e-01 2.204000e-01 2.682314e-01 3.365799e-01 2.586582e-01 2.502236e-01 2.237588e-01 1.949741e-01 1.118585e-01
<GCONST> 9.808710e+01
<STATE> 4
<MEAN> 39
 -7.283787e-01 -7.200969e+00 -2.863012e+00 -8.834043e+00 -3.596022e+00 -4.428405e+00 -4.459687e+00 3.208260e+00 1.069003e+00 -1.585235e+00 -2.884072e+00 -5.557531e+00 5.988979e+01 5.920330e-02 1.417792e+00 6.302272e-01 1.046381e+00 3.070652e-03 3.977845e-03 -3.120528e-01 -8.367404e-01 -6.562360e-02 2.385630e-01 1.513158e-01 3.754932e-01 -1.585692e+00 -1.398287e-01 1.581542e-01 3.583469e-02 1.468122e-01 7.563598e-02 1.489144e-01 7.926185e-02 -1.641915e-01 -1.117336e-01 -6.912516e-02 -1.490097e-03 1.578290e-02 -1.900640e-01
<VARIANCE> 39
 1.414600e+01 3.744969e+01 5.223086e+01 4.728265e+01 6.139742e+01 5.647734e+01 4.756345e+01 4.802105e+01 4.640045e+01 4.458511e+01 3.532510e+01 3.411414e+01 3.936906e+01 7.065448e-01 1.093630e+00 1.418650e+00 1.585866e+00 1.989904e+00 1.992805e+00 2.075995e+00 2.694874e+00 2.164450e+00 1.833183e+00 1.718926e+00 1.340754e+00 8.512861e-01 1.234654e-01 2.194507e-01 2.329631e-01 2.803265e-01 3.660830e-01 3.763737e-01 3.539897e-01 4.586351e-01 3.452160e-01 3.399700e-01 3.153779e-01 2.566049e-01 1.584896e-01
<GCONST> 1.091170e+02
<TRANSP> 5
 0.000000e+00 1.000000e+00 0.000000e+00 0.000000e+00 0.000000e+00
 0.000000e+00 4.977493e-01 5.022507e-01 0.000000e+00 0.000000e+00
 0.000000e+00 0.000000e+00 7.116310e-01 2.883690e-01 0.000000e+00
 0.000000e+00 0.000000e+00 0.000000e+00 5.029946e-01 4.970054e-01
 0.000000e+00 0.000000e+00 0.000000e+00 0.000000e+00 0.000000e+00
<ENDHMM>
~h "b"
<BEGINHMM>
<NUMSTATES> 5
<STATE> 2
<MEAN> 39
 2.102933e-01 5.169175e+00 3.366584e+00 -1.888140e+00 -2.399175e+00 -1.432607e+00 -4.606143e+00 -3.552977e+00 -2.991246e+00 -1.449129e+00 -1.720458e+00 -3.815422e+00 5.049154e+01 7.854223e-02 7.548988e-01 1.632791e-01 5.515192e-01 4.217513e-01 3.667025e-01 4.574293e-01 -1.212553e-01 -1.707885e-01 -2.878810e-01 -2.764940e-01 4.304206e-02 -6.151447e-01 -6.805494e-02 -3.857470e-01 -1.573309e-01 -3.880967e-01 -2.730988e-01 -2.844992e-01 -2.586336e-01 6.868989e-02 8.101775e-02 1.301457e-01 2.273569e-01 -3.025690e-02 4.951470e-01
<VARIANCE> 39
 1.793999e+01 3.230821e+01 3.162651e+01 3.546309e+01 3.233835e+01 2.622404e+01 2.799239e+01 2.313430e+01 2.744144e+01 2.341769e+01 2.088476e+01 1.701948e+01 3.002763e+01 6.385459e-01 9.888350e-01 1.178036e+00 1.570445e+00 1.343819e+00 1.384100e+00 1.629462e+00 1.588370e+00 1.552623e+00 1.534168e+00 1.430406e+00 9.561065e-01 8.783449e-01 1.276036e-01 2.067003e-01 2.602102e-01 3.446008e-01 2.817590e-01 3.322781e-01 3.592865e-01 4.006115e-01 3.742287e-01 3.648794e-01 3.426127e-01 2.259568e-01 1.295074e-01
<GCONST> 9.985001e+01
<STATE> 3
<MEAN> 39
 2.437074e-01 6.268076e+00 2.748421e+00 -1.288896e+00 -2.212693e+00 -7.448230e-01 -4.301527e+00 -4.174311e+00 -3.913148e+00 -1.934738e+00 -1.833309e+00 -3.384159e+00 4.893895e+01 2.665097e-01 -9.290287e-01 -7.481095e-01 -1.152861e+00 -3.478076e-01 -8.485390e-01 -9.459399e-01 -1.366224e-01 1.677231e-01 6.845320e-01 8.235480e-01 -2.752020e-01 1.689038e+00 -1.299883e-01 -7.005731e-01 -2.156135e-01 -6.937423e-01 -3.615097e-01 -3.630536e-01 -3.509779e-01 2.537314e-01 3.065847e-01 4.017274e-01 1.806063e-01 -1.644163e-01 7.266254e-01
<VARIANCE> 39
 3.581008e+01 3.800911e+01 3.492324e+01 3.952959e+01 3.599593e+01 3.213883e+01 3.211803e+01 3.044190e+01 3.087856e+01 3.095586e+01 2.747387e+01 2.121008e+01 5.023204e+01 2.394848e+00 3.045867e+00 3.184046e+00 4.213163e+00 2.743098e+00 3.446342e+00 3.112755e+00 3.238978e+00 3.538545e+00 3.232865e+00 3.273141e+00 2.250896e+00 2.024930e+00 3.150147e-01 4.736175e-01 4.740295e-01 5.292518e-01 4.768964e-01 4.901624e-01 5.263461e-01 6.647577e-01 6.526124e-01 5.405830e-01 5.509863e-01 4.161595e-01 2.707467e-01
<GCONST> 1.218794e+02
<STATE> 4
<MEAN> 39
 9.300457e-01 2.593858e-01 -5.053381e-01 -7.961985e+00 -3.780698e+00 -3.941473e+00 -8.638974e+00 -3.762453e+00 -1.757358e+00 2.536754e+00 1.886023e+00 -5.783504e+00 5.727256e+01 -3.703257e-01 -2.196325e+00 -8.087062e-01 -2.091317e+00 -9.943215e-01 -1.091504e+00 -8.767198e-01 1.290212e+00 1.154383e+00 1.083692e+00 3.022123e-01 -8.226851e-01 2.456325e+00 -1.738088e-01 9.937517e-02 3.942745e-01 2.416641e-01 -4.082626e-02 1.254488e-01 4.108020e-01 2.847774e-01 -4.678573e-02 -3.830917e-01 -4.674018e-01 1.340049e-01 -2.300330e-01
<VARIANCE> 39
 1.853222e+01 3.483493e+01 2.930962e+01 6.696243e+01 3.633930e+01 4.653514e+01 4.053205e+01 4.120301e+01 5.205356e+01 4.854629e+01 4.540778e+01 3.362480e+01 3.499665e+01 1.773407e+00 3.583059e+00 4.111781e+00 5.164892e+00 3.476203e+00 4.026565e+00 4.540032e+00 5.358375e+00 5.824101e+00 4.943047e+00 4.879823e+00 3.912472e+00 2.257537e+00 2.065184e-01 4.452080e-01 3.026150e-01 8.390772e-01 5.087986e-01 5.673403e-01 6.084848e-01 5.776485e-01 5.729366e-01 6.863472e-01 6.405166e-01 4.765466e-01 3.291122e-01
<GCONST> 1.278862e+02
<TRANSP> 5
 0.000000e+00 1.000000e+00 0.000000e+00 0.000000e+00 0.000000e+00
 0.000000e+00 6.550582e-01 3.449418e-01 0.000000e+00 0.000000e+00
 0.000000e+00 0.000000e+00 4.716445e-01 5.283555e-01 0.000000e+00
 0.000000e+00 0.000000e+00 0.000000e+00 3.665093e-01 6.334906e-01
 0.000000e+00 0.000000e+00 0.000000e+00 0.000000e+00 0.000000e+00
<ENDHMM>
~h "c"
<BEGINHMM>
<NUMSTATES> 5
<STATE> 2
<MEAN> 39
 -6.934583e+00 4.113206e+00 1.843098e+00 -2.258860e+00 -4.401108e+00 -6.114259e+00 -2.617531e+00 -1.271836e+00 -5.605423e-01 -1.650320e+00 -1.254177e+00 -1.743110e+00 4.928812e+01 -2.096298e+00 2.467544e-01 -8.036430e-01 -2.434594e-01 5.986388e-01 1.222926e-01 3.479283e-01 -2.785058e-01 1.954569e-01 -1.646178e-01 2.411838e-01 7.392913e-02 -2.051820e-01 -3.761346e-01 -6.876135e-02 -7.386564e-02 -3.368082e-01 -1.187805e-01 -1.913347e-01 2.783669e-02 2.639030e-02 4.033916e-02 -6.270453e-02 1.222745e-01 3.726178e-02 7.438845e-01
<VARIANCE> 39
 2.482623e+01 3.320812e+01 3.319976e+01 3.423075e+01 3.599776e+01 4.316502e+01 2.534827e+01 2.954959e+01 2.793001e+01 2.537138e+01 1.925331e+01 1.989827e+01 3.754413e+01 2.930060e+00 2.408360e+00 2.585056e+00 2.802492e+00 2.196623e+00 2.485034e+00 2.146825e+00 2.104196e+00 2.037405e+00 1.915921e+00 1.671070e+00 1.306957e+00 3.913530e+00 4.775470e-01 3.640340e-01 4.249781e-01 3.879225e-01 3.771151e-01 4.902424e-01 3.723369e-01 4.521263e-01 4.260587e-01 3.270822e-01 3.126462e-01 2.515507e-01 3.880456e-01
<GCONST> 1.136966e+02
<STATE> 3
<MEAN> 39
 -1.876965e+01 5.028504e+00 -1.981605e-01 -5.698302e+00 -2.509064e+00 -7.277237e+00 -4.803059e-01 -2.166512e+00 1.920561e-01 -2.455914e+00 7.757398e-01 -1.246295e+00 5.561915e+01 1.865501e-01 -5.324934e-01 1.482639e-01 -4.648884e-01 -1.032126e+00 -8.853125e-01 1.968401e-01 6.339009e-01 1.614467e-01 -3.092445e-01 1.417513e-01 1.708554e-01 1.773076e+00 1.851763e+00 -6.705948e-01 1.399589e-01 9.697814e-02 -4.875032e-01 -5.922618e-02 -3.188468e-01 3.826472e-01 -2.310707e-02 5.595735e-02 -3.363271e-01 -2.064510e-01 -7.772446e-02
<VARIANCE> 39
 2.131300e+01 1.858365e+01 3.669634e+01 2.977669e+01 3.335171e+01 3.586466e+01 3.504586e+01 2.575495e+01 3.162585e+01 3.273293e+01 1.921098e+01 2.113321e+01 2.464933e+01 1.089948e+01 2.812553e+00 2.904487e+00 2.919419e+00 3.399536e+00 2.611094e+00 2.689779e+00 3.051394e+00 2.550274e+00 2.234298e+00 2.154416e+00 1.772408e+00 2.128794e+00 5.053177e-01 6.433297e-01 7.035354e-01 6.475582e-01 6.610833e-01 5.440558e-01 4.944979e-01 6.053180e-01 5.139093e-01 5.460734e-01 4.023154e-01 3.893084e-01 3.634973e-01
<GCONST> 1.201100e+02
<STATE> 4
<MEAN> 39
 -6.256720e+00 -1.420156e-01 1.962358e-01 -6.104011e+00 -8.400040e+00 -1.112057e+01 -1.199512e+00 2.471754e+00 8.572661e-01 -3.445474e+00 -1.751171e+00 -1.935989e+00 6.040713e+01 3.863648e+00 -2.773852e+00 -8.279669e-01 -8.815315e-01 -8.350655e-01 7.453469e-02 -5.397445e-01 1.726195e+00 3.324611e-01 -1.476876e-02 -9.774044e-01 -9.627507e-01 1.733478e+00 -4.735569e-01 -1.279457e-01 -3.514317e-01 -1.476649e-01 7.676916e-01 6.437653e-01 -6.601778e-02 -2.104687e-01 -7.523510e-02 1.295419e-01 1.391329e-02 -2.221103e-01 -2.527328e-01
<VARIANCE> 39
 2.792804e+01 3.055636e+01 4.384732e+01 2.742170e+01 3.878529e+01 2.707852e+01 4.317666e+01 3.509222e+01 2.473568e+01 2.811634e+01 1.628074e+01 1.259392e+01 3.891264e+01 2.536938e+00 3.618670e+00 3.298442e+00 3.124236e+00 4.498429e+00 3.049006e+00 2.967160e+00 4.495270e+00 2.395576e+00 3.583505e+00 1.995030e+00 1.941723e+00 1.457786e+00 7.272233e-01 4.487851e-01 4.078618e-01 3.867216e-01 4.578232e-01 3.925459e-01 3.296747e-01 5.089822e-01 3.908043e-01 4.615393e-01 4.210968e-01 3.046708e-01 2.814572e-01
<GCONST> 1.174658e+02
<TRANSP> 5
 0.000000e+00 1.000000e+00 0.000000e+00 0.000000e+00 0.000000e+00
 0.000000e+00 7.529360e-01 2.470640e-01 0.000000e+00 0.000000e+00
 0.000000e+00 0.000000e+00 6.938050e-01 3.061950e-01 0.000000e+00
 0.000000e+00 0.000000e+00 0.000000e+00 5.428365e-01 4.571635e-01
 0.000000e+00 0.000000e+00 0.000000e+00 0.000000e+00 0.000000e+00
<ENDHMM>
~h "d"
<BEGINHMM>
<NUMSTATES> 5
<STATE> 2
<MEAN> 39
 -6.106385e+00 9.388368e-01 1.944403e+00 -4.629933e-01 -2.619487e+00 -2.747997e+00 -1.959799e+00 1.422759e-01 -5.596699e-01 -1.628240e+00 -1.054875e+00 -1.555861e+00 4.567987e+01 3.087571e-03 5.374045e-01 1.828190e-01 4.135856e-01 3.266380e-01 1.687180e-01 1.517035e-01 -5.082928e-02 -6.850459e-02 -1.107161e-01 -1.918070e-01 -4.186649e-02 -5.190961e-01 -5.496003e-02 -1.899079e-01 1.811364e-02 -2.143238e-01 -1.606709e-01 -1.557500e-01 -5.233056e-02 6.345657e-02 -2.072434e-02 2.049602e-03 1.087957e-01 3.089944e-02 3.207867e-01
<VARIANCE> 39
 5.375487e+01 4.466819e+01 4.152533e+01 3.867791e+01 5.400415e+01 4.515598e+01 4.491660e+01 3.708173e+01 3.078403e+01 2.904536e+01 2.641604e+01 2.318603e+01 8.228575e+01 7.522446e-01 1.393430e+00 1.128568e+00 1.477219e+00 1.669511e+00 1.734060e+00 1.663337e+00 1.904685e+00 1.604147e+00 1.537671e+00 1.445971e+00 1.105009e+00 9.767271e-01 1.595499e-01 2.895249e-01 2.178355e-01 3.112796e-01 3.399921e-01 3.608986e-01 3.311385e-01 4.073186e-01 3.249965e-01 3.243697e-01 3.102912e-01 2.241478e-01 2.048662e-01
<GCONST> 1.074372e+02
<STATE> 3
<MEAN> 39
 3.714659e-01 4.693122e+00 5.333022e+00 8.126938e-02 -4.441231e+00 -4.796662e+00 -4.856922e+00 -9.915749e-01 -1.033163e+00 -3.360754e+00 -3.916614e+00 -3.383493e+00 5.073657e+01 -2.032600e-01 -8.496593e-01 5.698270e-01 -7.260406e-01 -6.715416e-01 -1.136484e+00 -3.791212e-01 3.624911e-01 -3.294622e-02 -1.880099e-01 5.401983e-01 4.385955e-01 1.504590e+00 -2.658551e-01 -7.763951e-01 -1.082399e-01 -7.926081e-01 -6.449736e-01 -4.371410e-01 -2.072682e-01 2.628369e-01 1.341126e-01 2.154868e-01 4.339297e-01 1.001190e-01 8.767647e-01
<VARIANCE> 39
 2.167992e+01 5.117706e+01 3.240389e+01 3.661784e+01 4.517752e+01 3.060252e+01 3.183873e+01 3.139284e+01 2.757782e+01 2.784078e+01 2.533440e+01 1.925082e+01 4.104053e+01 2.705803e+00 4.505732e+00 2.558993e+00 3.336825e+00 4.203610e+00 3.585197e+00 3.216453e+00 4.555381e+00 2.774779e+00 2.741198e+00 2.702932e+00 2.007103e+00 2.633966e+00 3.280627e-01 5.719200e-01 4.472204e-01 5.058984e-01 6.469457e-01 5.440963e-01 5.800584e-01 8.016993e-01 5.313949e-01 4.886590e-01 4.709534e-01 3.780935e-01 2.716504e-01
<GCONST> 1.218393e+02
<STATE> 4
<MEAN> 39
 -1.630089e+00 -3.006418e+00 5.876142e+00 -5.930026e+00 -9.581495e+00 -1.129077e+01 -7.098119e+00 2.783235e+00 5.351440e-01 -2.852912e+00 1.862611e-01 -1.037111e+00 6.002732e+01 -5.350873e-01 -1.604379e+00 -4.946242e-01 -2.086976e+00 -1.640444e+00 -1.065609e+00 -9.446885e-02 1.418374e+00 5.482866e-01 5.810978e-01 8.330178e-01 -2.814917e-01 2.348538e+00 1.182645e-01 3.609243e-01 -2.759162e-01 5.082875e-02 3.425806e-01 6.535603e-01 2.593238e-01 -1.454144e-01 -8.284298e-02 8.130439e-02 -3.410624e-01 -4.460519e-01 -3.750539e-01
<VARIANCE> 39
 1.717757e+01 3.622448e+01 3.386734e+01 4.510902e+01 5.217048e+01 3.939153e+01 5.444601e+01 6.189156e+01 4.606128e+01 3.568258e+01 2.481253e+01 2.287649e+01 3.312214e+01 1.567047e+00 3.656783e+00 3.959331e+00 3.281949e+00 4.032811e+00 3.551906e+00 4.516382e+00 6.108217e+00 3.859683e+00 2.996848e+00 3.447028e+00 2.593637e+00 1.982991e+00 1.477550e-01 4.277750e-01 3.496585e-01 6.213230e-01 8.283473e-01 6.025790e-01 6.422903e-01 7.036489e-01 4.801417e-01 5.142358e-01 4.486711e-01 3.581159e-01 2.951157e-01
<GCONST> 1.238274e+02
<TRANSP> 5
 0.000000e+00 1.000000e+00 0.000000e+00 0.000000e+00 0.000000e+00
 0.000000e+00 7.121233e-01 2.878767e-01 0.000000e+00 0.000000e+00
 0.000000e+00 0.000000e+00 5.459434e-01 4.540566e-01 0.000000e+00
 0.000000e+00 0.000000e+00 0.000000e+00 4.744404e-01 5.255596e-01
 0.000000e+00 0.000000e+00 0.000000e+00 0.000000e+00 0.000000e+00
<ENDHMM>
~h "e"
<BEGINHMM>
<NUMSTATES> 5
<STATE> 2
<MEAN> 39
 -1.632737e+00 -1.894406e+00 -1.376333e+00 -8.441700e+00 -5.397616e+00 -6.568778e+00 -6.586308e+00 -5.434049e-01 5.193988e-01 4.549679e-01 -4.361843e-01 -3.941221e+00 5.898824e+01 1.409526e+00 -8.707737e-01 8.489968e-02 -1.309054e+00 -8.841715e-01 -2.512904e-01 -8.525389e-01 6.854397e-01 3.611957e-01 3.870891e-01 7.500545e-03 -5.187397e-01 1.620862e+00 -3.172213e-01 2.527968e-01 1.979554e-01 4.192520e-01 1.973452e-01 2.818043e-01 2.341736e-01 -1.262258e-01 -1.547118e-01 -1.330090e-01 -4.428082e-02 8.985345e-02 -6.064160e-01
<VARIANCE> 39
 3.423650e+01 4.283046e+01 5.263406e+01 6.045277e+01 6.221658e+01 7.150620e+01 4.878728e+01 5.344015e+01 5.118805e+01 4.784109e+01 3.922248e+01 2.604081e+01 4.971065e+01 3.888829e+00 3.319801e+00 3.337130e+00 4.213526e+00 4.544938e+00 4.462744e+00 4.692875e+00 4.791463e+00 4.532516e+00 3.573392e+00 3.217097e+00 2.431069e+00 2.040125e+00 4.889039e-01 5.023063e-01 5.428710e-01 6.862234e-01 6.131297e-01 6.494661e-01 6.646988e-01 6.666617e-01 6.383381e-01 5.760931e-01 5.262471e-01 3.836898e-01 4.626057e-01
<GCONST> 1.313192e+02
<STATE> 3
<MEAN> 39
 -7.971519e-01 -3.662031e+00 -1.341652e+00 -9.934087e+00 -6.073863e+00 -6.874262e+00 -7.333451e+00 1.164508e+00 1.147021e+00 8.260955e-01 -3.810400e-01 -4.563625e+00 6.108548e+01 4.966363e-01 -8.761800e-02 4.402789e-01 -4.131122e-03 -2.997126e-01 1.022980e-01 -1.378971e-01 1.642978e-01 -7.876903e-02 2.959549e-02 -5.740386e-02 -7.823130e-02 3.748416e-02 -4.436031e-01 5.306352e-01 2.081344e-01 7.242923e-01 3.456913e-01 2.532803e-01 3.680266e-01 -4.106963e-01 -2.399123e-01 -2.296858e-01 -5.094121e-02 2.093421e-01 -8.526586e-01
<VARIANCE> 39
 2.652084e+01 4.351602e+01 5.641296e+01 6.225676e+01 6.705065e+01 7.114405e+01 5.394258e+01 5.834060e+01 5.953178e+01 5.589157e+01 4.458277e+01 3.059102e+01 3.607960e+01 1.334097e+00 1.708222e+00 1.719322e+00 2.772448e+00 2.630007e+00 2.889174e+00 2.524141e+00 2.797848e+00 2.482281e+00 2.249425e+00 2.040026e+00 1.570418e+00 1.072586e+00 4.824389e-01 4.617067e-01 5.348647e-01 6.215935e-01 6.878210e-01 6.691248e-01 7.330190e-01 7.717105e-01 7.193691e-01 6.422272e-01 5.829742e-01 3.980858e-01 2.777839e-01
<GCONST> 1.241902e+02
<STATE> 4
<MEAN> 39
 -1.442113e+00 -3.475429e+00 1.156327e+00 -9.069757e+00 -7.770943e+00 -7.275175e+00 -5.330234e+00 6.230643e-01 -9.811009e-01 -1.201027e-01 -2.599123e-01 -3.767058e+00 6.003917e+01 3.215364e-02 6.665940e-01 3.768257e-01 8.685119e-01 3.331792e-01 3.184878e-01 1.459754e-01 -3.676327e-01 -1.554351e-01 -1.855919e-01 -1.830874e-01 1.328648e-01 -1.027047e+00 -2.089469e-01 2.323779e-01 2.035955e-03 2.979864e-01 1.688661e-01 1.067185e-01 1.138490e-01 -1.741999e-01 -1.929131e-02 -7.013106e-02 -3.541501e-02 5.916057e-02 -3.600089e-01
<VARIANCE> 39
 2.232907e+01 4.180831e+01 5.925939e+01 6.095785e+01 8.621097e+01 6.186319e+01 5.155575e+01 5.074346e+01 5.028413e+01 4.793114e+01 4.946762e+01 2.534614e+01 3.527832e+01 8.384287e-01 1.490292e+00 1.525540e+00 2.053971e+00 1.906925e+00 2.006702e+00 2.132581e+00 2.396761e+00 2.061270e+00 1.793999e+00 1.689514e+00 1.202124e+00 1.248631e+00 2.393491e-01 2.459347e-01 2.923326e-01 3.860779e-01 4.247408e-01 4.259637e-01 4.417538e-01 4.652060e-01 4.116165e-01 3.684147e-01 3.572347e-01 2.507086e-01 1.466191e-01
<GCONST> 1.136958e+02
<TRANSP> 5
 0.000000e+00 1.000000e+00 0.000000e+00 0.000000e+00 0.000000e+00
 0.000000e+00 2.408930e-01 7.591070e-01 0.000000e+00 0.000000e+00
 0.000000e+00 0.000000e+00 1.500932e-01 8.499068e-01 0.000000e+00
 0.000000e+00 0.000000e+00 0.000000e+00 4.886320e-01 5.113680e-01
 0.000000e+00 0.000000e+00 0.000000e+00 0.000000e+00 0.000000e+00
<ENDHMM>
~h "f"
<BEGINHMM>
<NUMSTATES> 5
<STATE> 2
<MEAN> 39
 -7.058919e+00 1.409596e+00 3.387633e-01 -1.372633e+00 -3.242407e+00 -3.683193e+00 -4.429065e+00 -1.982010e+00 -5.927272e-01 -1.469384e+00 -2.624676e-01 -2.822881e+00 5.299105e+01 -2.329554e+00 -3.932789e-02 -1.198485e+00 1.346973e+00 4.667720e-01 -5.772144e-01 1.789292e-01 7.751107e-02 3.883661e-01 2.189091e-01 7.214548e-02 4.193722e-01 -5.684986e-01 3.026702e-02 -2.291161e-01 2.750906e-02 -2.610858e-01 -3.484160e-01 -1.592575e-01 -7.833907e-02 -5.360412e-02 -4.805117e-02 4.231491e-02 1.118258e-02 -9.484839e-02 1.677869e-01
<VARIANCE> 39
 2.594808e+01 2.444545e+01 5.680589e+01 4.016398e+01 5.870889e+01 6.533939e+01 4.079906e+01 2.928821e+01 3.039888e+01 2.408578e+01 2.454999e+01 2.012020e+01 2.506348e+01 1.223233e+00 1.980726e+00 2.949461e+00 2.171436e+00 4.511831e+00 2.724498e+00 2.901569e+00 2.571763e+00 2.044436e+00 2.306209e+00 1.372721e+00 1.463574e+00 7.314473e-01 3.484313e-01 2.430527e-01 3.421055e-01 3.546740e-01 4.727572e-01 4.015837e-01 3.019118e-01 3.701625e-01 3.536837e-01 3.558051e-01 1.962399e-01 2.854903e-01 1.022944e-01
<GCONST> 1.107512e+02
<STATE> 3
<MEAN> 39
 -1.208402e+01 -1.668077e+00 -3.575579e+00 1.116167e+00 -2.226882e+00 -1.779588e+00 -2.009000e+00 7.120868e-01 7.261165e-02 -1.060596e+00 5.045947e-01 -1.461958e+00 4.470114e+01 -4.063047e-01 -1.254155e-01 -9.320705e-02 1.337892e-01 -4.146489e-02 -7.048740e-02 1.119208e-01 1.685640e-02 1.452910e-02 1.050231e-01 6.476884e-02 1.203777e-01 -2.470096e-01 3.078729e-01 -1.317230e-02 1.190819e-01 -1.812918e-01 -3.702093e-02 9.906822e-02 6.243042e-03 -3.196966e-02 -1.041897e-01 -2.790423e-02 -1.918472e-02 -3.846575e-02 4.748188e-02
<VARIANCE> 39
 1.621530e+01 2.373535e+01 2.778373e+01 3.792173e+01 2.881655e+01 3.526668e+01 3.658512e+01 3.884602e+01 2.278691e+01 2.271153e+01 1.957080e+01 1.381170e+01 8.928665e+01 7.269552e-01 7.996252e-01 1.046700e+00 1.117720e+00 1.134788e+00 1.324586e+00 1.551921e+00 1.493593e+00 1.359810e+00 1.155626e+00 9.736375e-01 8.791540e-01 5.993319e-01 2.560703e-01 1.795539e-01 2.572337e-01 2.656628e-01 2.853650e-01 2.976525e-01 3.504739e-01 3.404916e-01 3.086946e-01 2.557299e-01 2.006247e-01 1.776814e-01 1.060843e-01
<GCONST> 9.728973e+01
<STATE> 4
<MEAN> 39
 -1.238368e+01 -9.094234e-01 -1.769450e+00 4.236172e-01 -3.633198e+00 -4.393839e+00 -3.211738e+00 -2.383538e+00 2.044054e-02 -2.160740e-01 -4.811201e-01 -2.136713e+00 5.146798e+01 1.891039e+00 1.415240e-01 6.181767e-01 -1.466779e+00 -8.699573e-01 2.935415e-01 4.005988e-03 -6.425519e-01 -9.798614e-01 -9.414214e-02 7.530706e-02 -3.076877e-01 6.370590e-01 8.443758e-01 2.642013e-01 3.857085e-01 -8.600724e-01 -4.461200e-01 1.568066e-01 -1.548897e-01 -1.525525e-01 -3.433251e-01 2.302192e-02 1.353138e-01 -2.365259e-01 4.841073e-01
<VARIANCE> 39
 2.092020e+01 1.820259e+01 4.530433e+01 3.550368e+01 4.377156e+01 3.922609e+01 4.254090e+01 2.670873e+01 2.513303e+01 1.828189e+01 1.876084e+01 1.801309e+01 3.422702e+01 3.319816e+00 3.158953e+00 5.265763e+00 5.097997e+00 3.297244e+00 3.778257e+00 2.451925e+00 2.870940e+00 2.863717e+00 1.639157e+00 1.981405e+00 1.906026e+00 3.117390e+00 3.890274e-01 5.085452e-01 7.182600e-01 8.050413e-01 6.329505e-01 5.320401e-01 5.431218e-01 5.371138e-01 4.825907e-01 2.902026e-01 3.243817e-01 4.080034e-01 2.591726e-01
<GCONST> 1.192717e+02
<TRANSP> 5
 0.000000e+00 1.000000e+00 0.000000e+00 0.000000e+00 0.000000e+00
 0.000000e+00 6.228652e-01 3.771349e-01 0.000000e+00 0.000000e+00
 0.000000e+00 0.000000e+00 8.064939e-01 1.935061e-01 0.000000e+00
 0.000000e+00 0.000000e+00 0.000000e+00 5.982301e-01 4.017698e-01
 0.000000e+00 0.000000e+00 0.000000e+00 0.000000e+00 0.000000e+00
<ENDHMM>
~h "g"
<BEGINHMM>
<NUMSTATES> 5
<STATE> 2
<MEAN> 39
 -7.657099e-02 4.607244e+00 3.647164e+00 -2.540264e+00 -5.328597e+00 -4.697005e+00 -5.753490e+00 -2.519121e+00 -2.456895e+00 -8.138741e-01 -2.628503e+00 -3.291657e+00 5.121803e+01 -1.535289e-01 8.315965e-01 2.700983e-01 7.653326e-01 4.119219e-01 6.057825e-01 3.780055e-01 -1.633132e-01 -1.564652e-02 -3.138482e-01 -3.473139e-01 2.088700e-02 -1.061411e+00 -1.803429e-01 -3.669443e-01 -1.188653e-01 -3.437967e-01 -1.266544e-02 -2.183743e-01 -9.125271e-02 1.695895e-01 1.680837e-02 8.988400e-02 9.987632e-02 1.024570e-02 4.757325e-01
<VARIANCE> 39
 1.231976e+01 3.640108e+01 2.872894e+01 3.811348e+01 4.527819e+01 3.457351e+01 3.561860e+01 2.774214e+01 2.112935e+01 2.856232e+01 2.841780e+01 2.560709e+01 2.755692e+01 5.416992e-01 8.324137e-01 1.131203e+00 1.620787e+00 1.773535e+00 1.733062e+00 1.876560e+00 1.901340e+00 1.855468e+00 1.797275e+00 1.688853e+00 1.394488e+00 8.249822e-01 1.396111e-01 1.912099e-01 2.946526e-01 3.055542e-01 5.089433e-01 4.493999e-01 4.152044e-01 4.375207e-01 4.115317e-01 3.666087e-01 3.402204e-01 2.929710e-01 1.492960e-01
<GCONST> 1.041046e+02
<STATE> 3
<MEAN> 39
 -9.321997e-01 5.999433e+00 3.479563e+00 -1.240610e+00 -4.727053e+00 -3.834343e+00 -5.465029e+00 -2.573821e+00 -2.405273e+00 -1.106061e+00 -3.255166e+00 -3.306145e+00 4.915660e+01 -8.495005e-01 -8.397624e-01 -1.761189e-01 -4.644881e-01 7.275374e-01 -9.247071e-01 -1.030396e-01 2.537351e-01 -3.871937e-01 2.598349e-01 6.782474e-02 2.545572e-01 1.168838e+00 -9.622576e-02 -4.468421e-01 2.839693e-02 -6.216097e-01 -3.218453e-01 -4.669024e-01 -2.468139e-01 3.697224e-02 -5.411107e-02 1.687663e-01 2.226673e-01 8.830971e-02 7.738237e-01
<VARIANCE> 39
 2.138772e+01 3.910590e+01 3.672950e+01 4.369256e+01 4.704557e+01 3.783599e+01 3.723913e+01 3.047175e+01 2.430313e+01 3.033361e+01 2.591403e+01 2.093704e+01 3.837497e+01 1.960977e+00 3.252558e+00 3.506597e+00 3.540785e+00 5.559456e+00 4.174613e+00 3.758127e+00 3.744613e+00 2.823520e+00 2.772635e+00 2.603346e+00 1.895403e+00 1.560725e+00 2.813498e-01 4.139815e-01 4.374900e-01 4.854897e-01 7.998915e-01 5.169666e-01 5.056224e-01 6.665139e-01 4.584154e-01 4.854909e-01 4.927609e-01 3.263837e-01 2.149089e-01
<GCONST> 1.205743e+02
<STATE> 4
<MEAN> 39
 -3.096832e+00 7.033462e-01 2.880238e+00 -5.189159e+00 -4.604053e+00 -1.035977e+01 -7.321052e+00 -6.808045e-01 -3.452386e+00 1.081044e+00 -2.018273e+00 -2.345074e+00 5.704268e+01 -1.147843e-01 -9.919392e-01 2.164111e-01 -1.807165e+00 -1.673964e+00 -1.041078e+00 -2.467040e-01 8.594026e-01 1.859275e-01 3.641135e-01 6.194965e-01 -6.608087e-02 1.919739e+00 2.981564e-01 3.856707e-02 6.048094e-03 -1.294125e-01 -3.491362e-01 4.935962e-01 1.748563e-01 3.804475e-02 2.173861e-01 -2.280592e-01 2.318153e-02 -2.504579e-01 -1.658009e-01
<VARIANCE> 39
 2.397717e+01 3.252134e+01 5.518255e+01 5.439366e+01 6.995371e+01 5.272636e+01 5.315030e+01 3.824284e+01 3.494393e+01 4.176758e+01 5.116529e+01 3.284875e+01 3.395949e+01 1.617617e+00 2.935473e+00 3.318612e+00 3.591362e+00 5.425265e+00 3.869722e+00 3.392523e+00 4.300418e+00 3.892124e+00 3.332324e+00 3.379285e+00 2.478260e+00 1.316991e+00 2.307358e-01 4.933489e-01 5.011874e-01 6.626837e-01 1.369869e+00 7.177001e-01 7.504694e-01 5.909528e-01 5.393687e-01 6.331028e-01 5.277026e-01 4.152645e-01 2.214637e-01
<GCONST> 1.269294e+02
<TRANSP> 5
 0.000000e+00 1.000000e+00 0.000000e+00 0.000000e+00 0.000000e+00
 0.000000e+00 6.358276e-01 3.641724e-01 0.000000e+00 0.000000e+00
 0.000000e+00 0.000000e+00 4.961701e-01 5.038299e-01 0.000000e+00
 0.000000e+00 0.000000e+00 0.000000e+00 5.543386e-01 4.456614e-01
 0.000000e+00 0.000000e+00 0.000000e+00 0.000000e+00 0.000000e+00
<ENDHMM>
~h "h"
<BEGINHMM>
<NUMSTATES> 5
<STATE> 2
<MEAN> 39
 -3.571442e+00 -3.797814e+00 -1.630598e+00 -7.375276e+00 -2.155897e+00 -2.020750e+00 -2.498112e+00 -1.437229e+00 -1.777714e+00 -3.090755e+00 -3.279708e+00 -3.784984e+00 5.826459e+01 -4.760863e-01 9.819283e-02 -1.191977e-02 9.579187e-01 8.905697e-01 3.977655e-01 6.066588e-01 6.730051e-02 1.029671e-01 -1.821684e-01 2.886587e-03 2.441498e-01 -6.808153e-01 -8.384684e-03 -8.245931e-02 -3.729837e-02 -1.160322e-01 -1.198302e-01 -6.848834e-02 -9.281452e-02 4.214145e-02 4.080170e-02 8.826815e-02 6.993624e-02 -4.237416e-02 1.715850e-02
<VARIANCE> 39
 1.864938e+01 4.698747e+01 5.701131e+01 4.893681e+01 7.190096e+01 5.241991e+01 5.111560e+01 5.818230e+01 6.108890e+01 5.272898e+01 3.471788e+01 2.566027e+01 3.504864e+01 1.073305e+00 1.932189e+00 2.165983e+00 1.874764e+00 2.488681e+00 2.221697e+00 2.474315e+00 2.747308e+00 2.201598e+00 2.052012e+00 1.836127e+00 1.372082e+00 1.044851e+00 1.126560e-01 1.802701e-01 2.000654e-01 2.680887e-01 3.362248e-01 3.538232e-01 3.831623e-01 3.721364e-01 3.527261e-01 3.347065e-01 2.703495e-01 2.270878e-01 9.171827e-02
<GCONST> 1.110636e+02
<STATE> 3
<MEAN> 39
 -5.128662e+00 -4.337402e+00 -1.361443e+00 -4.940485e+00 1.084653e+00 -1.064895e+00 -8.897661e-01 1.444687e-01 8.350958e-01 -1.832991e+00 -2.185543e+00 -2.953939e+00 5.693190e+01 -1.133579e-01 1.450092e-02 -1.968483e-01 4.459695e-01 2.876946e-01 2.284613e-01 1.488579e-01 -8.262853e-02 -4.999175e-02 -7.341295e-02 -2.882368e-02 4.437009e-02 -4.299069e-01 2.416315e-01 1.036002e-02 -7.703652e-02 -3.105990e-01 -3.654948e-01 -1.080427e-01 -1.982514e-01 -6.955932e-02 -1.261287e-01 3.423556e-02 -4.424149e-03 -1.119041e-01 1.465156e-01
<VARIANCE> 39
 2.379292e+01 4.974746e+01 5.267638e+01 4.890252e+01 6.360654e+01 5.426562e+01 4.990017e+01 4.881723e+01 4.290652e+01 4.044951e+01 3.011072e+01 2.719294e+01 3.567994e+01 1.510873e+00 1.937806e+00 1.847722e+00 1.765975e+00 2.396747e+00 2.155385e+00 2.091400e+00 2.561661e+00 1.969452e+00 1.955942e+00 1.777728e+00 1.372496e+00 1.558687e+00 2.319788e-01 3.006302e-01 3.539992e-01 3.477507e-01 4.098684e-01 3.682853e-01 4.142239e-01 4.285004e-01 3.764936e-01 3.363919e-01 3.302331e-01 2.616481e-01 1.479398e-01
<GCONST> 1.137524e+02
<STATE> 4
<MEAN> 39
 -6.059485e+00 -5.379421e+00 -3.882467e+00 -3.166515e+00 -1.230963e-01 8.852978e-01 4.483701e-01 1.458708e-01 -8.592630e-01 -2.792058e+00 -2.052321e+00 -1.859630e+00 5.292265e+01 1.585303e-01 7.240715e-02 -1.418200e-01 -5.642393e-02 -2.527323e-01 -3.568730e-02 -9.167624e-02 2.744669e-02 -6.989117e-02 5.492439e-02 3.031617e-02 -3.213989e-03 -2.175591e-01 4.516683e-02 -3.023588e-02 7.030072e-03 -1.087647e-01 -9.709632e-02 -5.962959e-02 -6.337515e-02 2.294057e-02 -1.671776e-02 9.953285e-03 5.601843e-03 -3.044544e-02 9.607102e-02
<VARIANCE> 39
 2.858163e+01 4.166489e+01 3.933926e+01 4.430958e+01 4.884902e+01 3.784620e+01 3.977666e+01 3.717759e+01 3.327104e+01 3.288321e+01 2.320869e+01 2.355776e+01 7.804280e+01 9.304808e-01 1.146130e+00 1.114908e+00 1.440810e+00 1.561070e+00 1.337430e+00 1.503325e+00 1.629140e+00 1.351890e+00 1.394815e+00 1.204387e+00 1.088630e+00 1.093324e+00 9.711576e-02 1.739347e-01 1.727748e-01 2.205260e-01 2.333848e-01 2.434258e-01 2.611226e-01 2.883493e-01 2.414995e-01 2.594816e-01 2.265644e-01 1.917168e-01 9.265046e-02
<GCONST> 1.007796e+02
<TRANSP> 5
 0.000000e+00 1.000000e+00 0.000000e+00 0.000000e+00 0.000000e+00
 0.000000e+00 2.806092e-01 7.193908e-01 0.000000e+00 0.000000e+00
 0.000000e+00 0.000000e+00 3.401873e-01 6.598127e-01 0.000000e+00
 0.000000e+00 0.000000e+00 0.000000e+00 7.217124e-01 2.782876e-01
 0.000000e+00 0.000000e+00 0.000000e+00 0.000000e+00 0.000000e+00
<ENDHMM>
~h "i"
<BEGINHMM>
<NUMSTATES> 5
<STATE> 2
<MEAN> 39
 -5.485143e+00 3.537268e+00 1.097780e+01 -7.576206e+00 -1.181897e+01 -8.699797e+00 -5.335315e+00 -6.536739e+00 -4.229444e+00 -1.153314e-01 -4.848684e-01 -3.144857e+00 5.746984e+01 2.217547e-01 3.230858e-01 2.225100e+00 -1.647799e+00 -1.913688e+00 -2.131378e-01 -8.084009e-01 -7.575057e-01 -6.807022e-01 4.740626e-01 2.970918e-01 -2.742320e-01 1.218757e+00 -5.413858e-02 -4.758719e-02 -5.142999e-01 1.138560e-01 3.820156e-01 2.781551e-01 9.173013e-02 2.848972e-01 2.264293e-01 -3.412578e-02 -4.798973e-02 7.075662e-03 -2.802228e-01
<VARIANCE> 39
 2.976995e+01 4.729149e+01 4.656339e+01 7.314900e+01 5.629275e+01 4.561707e+01 4.462398e+01 5.570565e+01 3.366447e+01 4.311058e+01 4.691962e+01 3.155002e+01 3.844915e+01 3.901158e+00 2.574435e+00 3.591065e+00 4.438776e+00 4.393986e+00 3.514222e+00 4.803610e+00 4.044739e+00 3.166087e+00 3.271830e+00 3.823144e+00 2.629470e+00 1.468007e+00 4.271678e-01 3.896303e-01 5.697401e-01 7.161315e-01 7.121634e-01 5.404781e-01 6.812546e-01 6.489144e-01 4.644894e-01 5.023749e-01 5.005751e-01 3.481236e-01 2.959435e-01
<GCONST> 1.278877e+02
<STATE> 3
<MEAN> 39
 -4.611032e+00 1.591714e+00 1.405609e+01 -7.685801e+00 -1.510803e+01 -7.239406e+00 -5.243501e+00 -4.080233e+00 -6.447708e+00 -5.103321e-01 3.544082e+00 -6.032648e+00 5.950369e+01 1.297069e-01 1.334365e-01 -2.413087e-01 7.426652e-02 1.921986e-01 4.376856e-02 1.995770e-02 1.742013e-01 1.938047e-01 3.396605e-02 -1.061576e-01 1.249815e-01 -2.285125e-01 -7.701278e-04 5.551064e-02 -6.717898e-01 4.227792e-01 7.313859e-01 4.999418e-02 1.712164e-01 1.199761e-01 3.254719e-01 -1.058884e-01 -2.968050e-01 2.038959e-01 -4.507104e-01
<VARIANCE> 39
 1.544941e+01 4.070462e+01 3.525751e+01 6.637478e+01 4.693524e+01 4.739751e+01 3.587074e+01 6.434044e+01 4.498030e+01 4.393275e+01 5.023351e+01 3.882773e+01 2.304991e+01 8.216869e-01 1.500423e+00 2.047440e+00 2.200670e+00 2.503909e+00 2.085650e+00 2.056479e+00 2.719745e+00 1.921804e+00 1.674372e+00 1.768317e+00 1.471460e+00 9.849064e-01 2.542597e-01 2.706246e-01 3.410114e-01 4.660984e-01 4.900928e-01 4.606006e-01 4.804492e-01 5.670524e-01 4.150706e-01 4.236970e-01 4.375360e-01 3.361651e-01 1.650209e-01
<GCONST> 1.140711e+02
<STATE> 4
<MEAN> 39
 -6.516357e+00 5.835842e+00 1.177237e+01 -1.113412e+01 -9.524231e+00 -5.929196e+00 -6.262356e+00 -7.811373e+00 -2.963416e+00 6.470314e-01 -2.458230e+00 -1.757747e+00 5.487489e+01 7.439083e-02 -2.826461e-02 -6.593754e-01 6.185105e-01 5.452893e-01 1.505308e-01 2.369664e-01 2.570105e-01 1.884957e-01 -1.242346e-01 -1.073389e-01 1.213952e-01 -7.553052e-01 -2.555803e-02 -6.351452e-02 -1.117176e-01 1.133398e-01 4.110987e-02 2.390761e-02 5.227845e-02 4.695264e-02 -2.210252e-02 -3.301716e-02 2.556514e-02 -3.360869e-02 -4.049591e-02
<VARIANCE> 39
 2.192252e+01 4.277626e+01 5.024211e+01 1.028197e+02 5.580400e+01 5.376620e+01 5.022641e+01 5.063171e+01 3.100545e+01 4.621532e+01 4.222950e+01 2.991503e+01 6.033384e+01 7.968373e-01 1.213338e+00 1.436044e+00 2.012400e+00 2.080303e+00 1.770261e+00 1.890239e+00 2.083822e+00 1.573947e+00 1.593019e+00 1.570036e+00 1.190087e+00 1.009336e+00 1.083737e-01 1.501331e-01 2.032115e-01 3.155746e-01 3.104014e-01 3.109727e-01 3.237996e-01 3.250154e-01 2.584738e-01 2.785088e-01 2.519375e-01 1.968181e-01 9.953403e-02
<GCONST> 1.072854e+02
<TRANSP> 5
 0.000000e+00 1.000000e+00 0.000000e+00 0.000000e+00 0.000000e+00
 0.000000e+00 5.281916e-01 4.718085e-01 0.000000e+00 0.000000e+00
 0.000000e+00 0.000000e+00 6.059150e-01 3.940850e-01 0.000000e+00
 0.000000e+00 0.000000e+00 0.000000e+00 7.757400e-01 2.242600e-01
 0.000000e+00 0.000000e+00 0.000000e+00 0.000000e+00 0.000000e+00
<ENDHMM>
~h "j"
<BEGINHMM>
<NUMSTATES> 5
<STATE> 2
<MEAN> 39
 -2.535716e+00 6.092196e+00 5.262953e+00 -1.095461e+00 -4.378954e+00 -4.708997e+00 -3.403848e+00 -1.090276e+00 -2.306115e+00 -2.772850e+00 -1.919625e+00 -2.525656e+00 4.998318e+01 -1.271426e+00 8.442492e-01 1.963178e-01 1.652867e-02 8.938480e-01 2.008344e-01 4.437725e-01 -2.048978e-01 2.229566e-01 1.769010e-03 4.777060e-02 -9.983990e-02 2.825907e-02 -4.086034e-01 -2.094619e-01 1.541143e-01 -3.704765e-01 -3.067451e-01 -4.066767e-01 -8.023772e-02 -7.534429e-02 -6.645290e-02 3.759234e-02 2.620378e-01 9.014896e-02 5.845616e-01
<VARIANCE> 39
 2.159049e+01 4.338649e+01 2.828019e+01 3.601499e+01 4.073855e+01 3.043131e+01 2.741254e+01 2.345468e+01 2.500626e+01 2.123957e+01 2.079853e+01 1.489409e+01 3.678745e+01 3.499069e+00 2.092103e+00 1.802089e+00 2.579677e+00 3.213903e+00 2.764196e+00 1.973593e+00 2.125551e+00 1.823357e+00 1.927423e+00 1.917371e+00 1.379749e+00 2.243531e+00 4.468808e-01 3.054019e-01 3.209146e-01 3.988347e-01 5.303015e-01 4.558483e-01 3.868234e-01 4.325569e-01 3.937673e-01 4.228615e-01 3.119510e-01 2.268528e-01 2.222841e-01
<GCONST> 1.116336e+02
<STATE> 3
<MEAN> 39
 -1.142249e+01 7.966920e+00 7.594378e+00 -4.463475e+00 -2.886837e+00 -6.961515e+00 -2.715091e+00 -3.129211e+00 -2.668043e+00 -2.988732e+00 1.695026e-01 -2.593228e+00 5.552824e+01 -5.164299e-01 -5.577331e-01 1.212983e+00 -7.295217e-01 -2.108857e+00 -1.713530e+00 -5.476068e-01 -3.483381e-01 -5.692486e-01 3.212184e-02 9.056339e-01 4.193449e-01 1.713333e+00 1.228820e+00 -7.196325e-01 -1.426484e-01 -4.697575e-02 -7.499468e-01 -2.051446e-01 -4.313149e-01 3.138114e-01 -4.624130e-03 1.339510e-01 -7.890419e-02 1.661461e-02 -3.047846e-02
<VARIANCE> 39
 2.795209e+01 4.062060e+01 3.739591e+01 4.437614e+01 4.559364e+01 4.304806e+01 3.398933e+01 2.674102e+01 2.695738e+01 2.806516e+01 2.095985e+01 2.075825e+01 2.330685e+01 6.568102e+00 2.844727e+00 2.411296e+00 3.853678e+00 4.689381e+00 3.027524e+00 2.937303e+00 3.407095e+00 2.372983e+00 3.311410e+00 1.867310e+00 1.499512e+00 1.134955e+00 6.577168e-01 5.503585e-01 5.909905e-01 5.979430e-01 1.088842e+00 7.769579e-01 6.073904e-01 6.019677e-01 4.463766e-01 4.375365e-01 4.229924e-01 3.736418e-01 2.355371e-01
<GCONST> 1.215510e+02
<STATE> 4
<MEAN> 39
 -5.048420e+00 1.102224e+00 1.001383e+01 -7.639430e+00 -1.297164e+01 -1.301939e+01 -6.489285e+00 -1.184658e+00 -3.877729e+00 -9.756067e-01 1.656131e+00 -1.111531e+00 6.002352e+01 1.595330e+00 -2.053101e+00 -1.002971e+00 -8.430505e-01 -1.022259e+00 -5.205607e-01 -7.909437e-01 1.317104e+00 5.687163e-01 4.459080e-01 -2.014984e-01 -2.094544e-01 8.817895e-01 -7.247170e-02 1.637910e-01 -7.042662e-01 7.145116e-02 9.998747e-01 7.487891e-01 1.872822e-01 9.486865e-02 2.155096e-01 -3.724278e-02 -3.543551e-01 -2.687166e-01 -3.480714e-01
<VARIANCE> 39
 1.799316e+01 3.475133e+01 4.044598e+01 7.547480e+01 2.994833e+01 3.164608e+01 3.469823e+01 5.001250e+01 4.248680e+01 5.752039e+01 2.544462e+01 1.623235e+01 2.884987e+01 1.929619e+00 2.425010e+00 2.966202e+00 2.758558e+00 5.593675e+00 3.500505e+00 4.180906e+00 3.516617e+00 2.583612e+00 2.954215e+00 2.410606e+00 2.012993e+00 8.183209e-01 3.794243e-01 3.310354e-01 3.408807e-01 6.141000e-01 4.719982e-01 4.929520e-01 5.214536e-01 6.966869e-01 4.417027e-01 6.496425e-01 3.804266e-01 2.918973e-01 1.013831e-01
<GCONST> 1.185141e+02
<TRANSP> 5
 0.000000e+00 1.000000e+00 0.000000e+00 0.000000e+00 0.000000e+00
 0.000000e+00 7.093331e-01 2.906670e-01 0.000000e+00 0.000000e+00
 0.000000e+00 0.000000e+00 6.211298e-01 3.788703e-01 0.000000e+00
 0.000000e+00 0.000000e+00 0.000000e+00 6.236094e-01 3.763906e-01
 0.000000e+00 0.000000e+00 0.000000e+00 0.000000e+00 0.000000e+00
<ENDHMM>
~h "k"
<BEGINHMM>
<NUMSTATES> 5
<STATE> 2
<MEAN> 39
 -7.751418e+00 -1.745465e-01 -1.900586e+00 -1.946419e+00 -1.862811e+00 -5.874838e-01 -1.610329e+00 5.245376e-01 -7.109318e-01 -8.957394e-01 -9.510680e-02 -1.360337e+00 4.383986e+01 -4.002131e-01 8.812493e-02 -1.065418e-01 3.467843e-01 1.145994e-01 1.109776e-01 1.292231e-01 3.027861e-02 3.832136e-02 -1.408260e-02 1.415965e-02 1.633708e-01 -7.040122e-01 1.228128e-02 -9.875081e-02 -5.817883e-02 -9.905396e-02 1.490041e-02 -6.361343e-02 -2.548808e-02 1.240186e-02 -1.343362e-02 1.262348e-02 -1.199059e-02 -2.273646e-02 2.471482e-01
<VARIANCE> 39
 3.128316e+01 4.147740e+01 4.073853e+01 5.389555e+01 4.853164e+01 5.041898e+01 3.918196e+01 3.882801e+01 2.952031e+01 3.167958e+01 2.260188e+01 2.281590e+01 6.741794e+01 7.229108e-01 7.800462e-01 1.037831e+00 1.384489e+00 1.453026e+00 1.617200e+00 1.511819e+00 1.642937e+00 1.563803e+00 1.489127e+00 1.299134e+00 1.084527e+00 1.063848e+00 1.155034e-01 1.726786e-01 2.151515e-01 2.528140e-01 2.934387e-01 3.328756e-01 3.054985e-01 3.296916e-01 3.228880e-01 3.023410e-01 2.545002e-01 2.149165e-01 1.726039e-01
<GCONST> 1.033334e+02
<STATE> 3
<MEAN> 39
 -6.280729e+00 1.435367e+00 -1.092228e+00 -3.425802e+00 -2.927362e+00 -3.093298e+00 -3.924970e+00 -2.026296e+00 -1.484995e+00 -2.465090e-01 -1.089774e+00 -2.412227e+00 4.635671e+01 -7.740573e-01 -1.018400e+00 -1.161673e+00 -9.226496e-02 1.014499e+00 -6.857195e-01 2.911144e-02 2.484679e-01 2.090908e-01 1.907623e-01 -2.240873e-01 2.476375e-01 8.889679e-01 1.621394e-01 -3.752629e-01 -2.188875e-01 -3.984424e-01 7.184740e-02 -2.914657e-01 -4.892627e-02 9.874722e-02 9.117974e-02 1.391245e-01 -7.940339e-02 -1.192361e-01 1.024471e+00
<VARIANCE> 39
 2.396287e+01 3.636417e+01 5.254445e+01 5.135444e+01 5.149311e+01 4.876262e+01 3.070774e+01 3.427398e+01 2.845807e+01 2.810789e+01 2.413598e+01 2.237074e+01 4.916562e+01 2.132879e+00 3.249041e+00 4.084057e+00 3.456409e+00 4.287492e+00 4.368426e+00 3.304052e+00 3.193890e+00 2.891118e+00 2.605298e+00 2.394681e+00 1.744268e+00 3.749754e+00 3.656642e-01 4.491789e-01 5.746933e-01 5.252607e-01 7.288882e-01 6.508229e-01 5.483149e-01 5.439987e-01 5.326738e-01 4.713501e-01 4.195504e-01 3.455914e-01 3.609029e-01
<GCONST> 1.233544e+02
<STATE> 4
<MEAN> 39
 -7.830388e+00 -3.507899e+00 -6.063565e+00 -5.304893e+00 1.143587e+00 -6.194980e+00 -3.697265e+00 -5.136281e-01 4.648005e-01 1.062396e+00 -2.443145e+00 -2.437546e+00 5.404739e+01 9.838151e-01 -4.169901e-01 -7.753371e-02 -9.094974e-01 -6.020471e-01 -2.279845e-01 1.299872e-01 2.109699e-01 -8.663041e-02 3.409486e-02 -3.024279e-01 -6.683023e-01 2.127734e+00 5.602488e-01 1.772773e-01 5.043350e-01 -2.019397e-01 -6.594808e-01 3.378730e-01 -4.306413e-03 -3.942578e-02 -2.214132e-01 -1.954896e-01 9.796946e-02 -2.678232e-01 -1.420699e-02
<VARIANCE> 39
 3.202021e+01 3.649389e+01 5.767601e+01 4.462576e+01 5.401987e+01 5.880145e+01 4.968465e+01 3.662406e+01 4.492923e+01 3.936095e+01 3.300701e+01 2.515492e+01 4.259280e+01 4.076860e+00 4.111256e+00 4.897584e+00 4.670346e+00 6.181766e+00 4.929779e+00 4.021391e+00 4.400877e+00 4.062457e+00 3.677125e+00 3.046265e+00 2.835506e+00 3.820464e+00 5.298241e-01 7.009678e-01 7.003337e-01 7.744460e-01 9.601742e-01 8.630135e-01 7.835153e-01 6.279733e-01 6.773573e-01 6.523620e-01 5.863810e-01 4.672227e-01 5.584937e-01
<GCONST> 1.333615e+02
<TRANSP> 5
 0.000000e+00 1.000000e+00 0.000000e+00 0.000000e+00 0.000000e+00
 0.000000e+00 7.622089e-01 2.377912e-01 0.000000e+00 0.000000e+00
 0.000000e+00 0.000000e+00 5.160660e-01 4.839340e-01 0.000000e+00
 0.000000e+00 0.000000e+00 0.000000e+00 6.345131e-01 3.654868e-01
 0.000000e+00 0.000000e+00 0.000000e+00 0.000000e+00 0.000000e+00
<ENDHMM>
~h "l"
<BEGINHMM>
<NUMSTATES> 5
<STATE> 2
<MEAN> 39
 -9.619810e-02 -4.110631e+00 -9.571720e-01 -9.723226e+00 -5.798293e+00 -6.068809e+00 -9.392792e+00 -3.632979e+00 3.577737e+00 1.728435e+00 -2.111380e+00 -4.099978e+00 6.056548e+01 3.006240e-01 2.646067e-02 -6.000427e-02 -7.931501e-02 2.665789e-01 2.020865e-02 -7.262215e-01 -3.811667e-01 4.868304e-01 4.071634e-01 -7.670684e-02 -2.753110e-02 -2.002698e-01 -1.524047e-01 2.127701e-02 -2.902430e-02 -1.267278e-01 6.548700e-02 1.756103e-01 3.023910e-01 2.353408e-01 -2.865235e-01 -1.581852e-01 1.980172e-02 -8.680871e-02 3.684500e-02
<VARIANCE> 39
 1.531520e+01 4.772941e+01 6.808585e+01 6.423692e+01 4.302403e+01 6.801463e+01 4.905887e+01 6.124890e+01 5.940197e+01 5.406977e+01 3.314666e+01 3.433720e+01 3.352922e+01 4.028924e-01 1.197494e+00 2.005958e+00 2.131637e+00 2.275239e+00 2.412387e+00 2.530103e+00 3.006896e+00 2.520272e+00 2.214042e+00 2.010524e+00 1.643602e+00 5.557379e-01 8.085944e-02 1.989609e-01 2.602595e-01 4.281788e-01 3.626372e-01 4.384628e-01 4.720407e-01 5.556637e-01 4.099791e-01 4.423584e-01 3.903556e-01 2.854543e-01 8.635233e-02
<GCONST> 1.121996e+02
<STATE> 3
<MEAN> 39
 1.343744e+00 -2.487272e+00 -5.383016e+00 -1.041574e+01 -4.690558e+00 -2.477908e+00 -8.621811e+00 -2.614458e+00 2.708042e+00 1.050149e+00 -2.066823e+00 -5.415154e+00 5.856404e+01 -6.978998e-02 -1.068499e-01 -1.166469e-01 -1.321647e-01 1.738569e-01 1.635864e-01 1.688114e-01 3.309529e-01 -4.051902e-02 -1.355932e-01 -1.052595e-01 -9.798045e-02 2.022460e-02 -1.295850e-01 -1.047850e-01 -1.350852e-02 3.667397e-02 1.102908e-02 1.287113e-02 2.417166e-01 2.207907e-01 -1.167290e-01 -2.146050e-01 -5.089200e-02 1.329430e-02 8.368209e-02
<VARIANCE> 39
 1.033348e+01 3.971954e+01 8.769925e+01 5.460349e+01 4.212899e+01 5.636980e+01 4.653204e+01 6.776736e+01 4.698486e+01 6.190558e+01 3.722205e+01 2.656793e+01 2.427001e+01 2.246452e-01 9.388009e-01 1.003226e+00 1.591542e+00 1.184547e+00 1.610046e+00 1.436687e+00 1.828386e+00 1.405953e+00 1.387842e+00 1.261209e+00 1.163918e+00 4.867516e-01 5.277184e-02 1.405524e-01 1.705592e-01 2.561281e-01 2.618113e-01 2.740812e-01 3.477404e-01 3.764905e-01 3.215117e-01 3.163031e-01 2.798525e-01 2.104234e-01 5.912402e-02
<GCONST> 1.002656e+02
<STATE> 4
<MEAN> 39
 4.475879e-02 -4.196885e+00 -2.790310e+00 -9.900511e+00 -4.764719e+00 -4.076829e+00 -8.380408e+00 -1.818598e+00 3.212991e+00 5.316875e-01 -2.767303e+00 -4.983797e+00 5.989091e+01 -5.572143e-01 -4.410354e-01 -1.279034e-02 1.281399e-01 1.155756e-01 4.515624e-02 1.050717e+00 1.023415e+00 -5.819069e-01 -8.734473e-01 -1.782336e-01 -5.294699e-02 3.188954e-01 -1.162517e-01 5.461495e-02 9.907209e-02 1.147441e-02 -5.810682e-02 3.147443e-02 1.874692e-01 -4.767472e-03 -2.495342e-01 -5.662548e-02 1.318862e-01 3.847028e-02 -4.397549e-03
<VARIANCE> 39
 1.621158e+01 4.376185e+01 7.412637e+01 5.962563e+01 4.598618e+01 6.324124e+01 5.207444e+01 6.063345e+01 5.206392e+01 6.143585e+01 3.302547e+01 3.699638e+01 4.115558e+01 4.935304e-01 1.753136e+00 2.357454e+00 2.697066e+00 2.764891e+00 3.206172e+00 2.853784e+00 3.707588e+00 2.847450e+00 2.676404e+00 2.702327e+00 1.973830e+00 1.041027e+00 8.754931e-02 1.771284e-01 2.245399e-01 3.748551e-01 3.838482e-01 4.049650e-01 4.719446e-01 4.603147e-01 4.010082e-01 4.436259e-01 3.359808e-01 3.210276e-01 1.084993e-01
<GCONST> 1.153515e+02
<TRANSP> 5
 0.000000e+00 1.000000e+00 0.000000e+00 0.000000e+00 0.000000e+00
 0.000000e+00 3.545147e-01 6.454853e-01 0.000000e+00 0.000000e+00
 0.000000e+00 0.000000e+00 6.070229e-01 3.929770e-01 0.000000e+00
 0.000000e+00 0.000000e+00 0.000000e+00 2.767309e-01 7.232691e-01
 0.000000e+00 0.000000e+00 0.000000e+00 0.000000e+00 0.000000e+00
<ENDHMM>
~h "m"
<BEGINHMM>
<NUMSTATES> 5
<STATE> 2
<MEAN> 39
 2.388367e+00 -1.222332e-02 -1.094093e+00 -5.329183e+00 -3.767239e+00 1.448512e-01 -6.869822e+00 -5.558787e+00 -2.559558e+00 -1.091924e-02 5.366192e-01 -5.762337e+00 5.515252e+01 1.223982e-01 9.307567e-01 1.174827e+00 1.409141e+00 2.193386e-01 3.780739e-01 6.167512e-03 -1.518101e+00 -1.353380e+00 -1.172098e-01 -9.921941e-02 1.285336e-01 -9.868583e-01 -1.454846e-01 -2.121213e-01 -4.277726e-02 -1.850088e-01 -3.754996e-02 -8.350977e-02 9.922684e-02 2.186915e-01 1.022532e-01 -1.084518e-01 -1.261386e-01 -2.972306e-02 2.390365e-01
<VARIANCE> 39
 1.561417e+01 3.430959e+01 4.678335e+01 4.467145e+01 3.883979e+01 3.663670e+01 3.918322e+01 5.226363e+01 3.255495e+01 3.380019e+01 3.221641e+01 2.478612e+01 3.351234e+01 5.050160e-01 1.230583e+00 1.894192e+00 1.860076e+00 1.784196e+00 1.747954e+00 1.947711e+00 2.636098e+00 2.101085e+00 1.804881e+00 2.141683e+00 1.299790e+00 6.424808e-01 7.337005e-02 1.365652e-01 2.665515e-01 2.862264e-01 2.676304e-01 2.554495e-01 2.666444e-01 3.851444e-01 3.372385e-01 2.517634e-01 2.892140e-01 1.883456e-01 7.217829e-02
<GCONST> 1.030201e+02
<STATE> 3
<MEAN> 39
 1.212810e+00 1.113598e-01 2.100393e+00 -3.659317e+00 -2.356750e+00 1.343721e-01 -6.266719e+00 -5.266952e+00 -5.545368e+00 -1.811515e+00 -9.077332e-02 -4.703189e+00 5.410050e+01 6.999891e-02 1.622805e-01 1.455674e-01 9.325334e-02 -1.071823e-01 7.124597e-02 8.639935e-02 -1.209997e-01 -2.589080e-01 -1.146076e-01 -8.059077e-03 5.569686e-02 -1.625077e-01 -1.301981e-02 -1.513010e-01 -2.919806e-01 -3.962117e-01 -1.276477e-01 -9.438764e-02 2.964137e-02 3.185207e-01 3.072399e-01 8.508402e-02 8.211360e-02 1.553593e-02 2.123968e-01
<VARIANCE> 39
 1.535820e+01 4.139279e+01 3.349556e+01 4.572158e+01 4.454493e+01 3.043328e+01 4.475445e+01 7.298103e+01 3.350024e+01 3.983868e+01 3.040759e+01 2.102922e+01 3.048109e+01 2.365785e-01 5.211638e-01 8.283863e-01 1.012792e+00 1.126897e+00 1.088012e+00 1.054591e+00 1.344524e+00 1.316191e+00 1.107329e+00 1.187057e+00 8.501393e-01 2.976843e-01 6.613538e-02 1.333037e-01 2.068487e-01 2.506990e-01 2.413638e-01 2.431372e-01 2.781997e-01 3.610052e-01 3.246468e-01 2.583684e-01 2.868255e-01 1.924605e-01 6.523295e-02
<GCONST> 9.437264e+01
<STATE> 4
<MEAN> 39
 2.338119e+00 7.226053e-01 -2.437520e-01 -4.969192e+00 -4.519459e+00 2.686531e-01 -6.478032e+00 -6.538679e+00 -4.625293e+00 -7.965451e-01 7.532495e-01 -4.894313e+00 5.438134e+01 2.818078e-02 -7.037040e-01 -9.965332e-01 -1.261014e+00 -4.909625e-02 -5.982740e-02 -1.618130e-02 1.042941e+00 8.672752e-01 7.711012e-02 2.026260e-01 -7.522099e-02 8.326609e-01 -1.793047e-01 -2.731222e-01 -8.671947e-02 -2.432553e-01 1.165704e-01 -7.370285e-02 -1.334737e-02 3.593220e-01 2.865048e-01 -1.180787e-02 -1.104131e-01 -6.440130e-02 2.460900e-01
<VARIANCE> 39
 1.734930e+01 3.887206e+01 4.586524e+01 4.927976e+01 4.509513e+01 4.045240e+01 4.478128e+01 6.356850e+01 3.803971e+01 3.721871e+01 3.607779e+01 2.574215e+01 3.767080e+01 9.089087e-01 1.827006e+00 2.953890e+00 2.862597e+00 2.929666e+00 3.023828e+00 2.875273e+00 3.639138e+00 3.133253e+00 2.253120e+00 2.453242e+00 1.859283e+00 1.043596e+00 1.433721e-01 2.487696e-01 4.191652e-01 4.494858e-01 4.129074e-01 3.962193e-01 4.283778e-01 5.724956e-01 5.404567e-01 3.857596e-01 4.168541e-01 2.904266e-01 1.215367e-01
<GCONST> 1.157759e+02
<TRANSP> 5
 0.000000e+00 1.000000e+00 0.000000e+00 0.000000e+00 0.000000e+00
 0.000000e+00 4.423421e-01 5.576579e-01 0.000000e+00 0.000000e+00
 0.000000e+00 0.000000e+00 6.745704e-01 3.254296e-01 0.000000e+00
 0.000000e+00 0.000000e+00 0.000000e+00 5.033997e-01 4.966003e-01
 0.000000e+00 0.000000e+00 0.000000e+00 0.000000e+00 0.000000e+00
<ENDHMM>
~h "n"
<BEGINHMM>
<NUMSTATES> 5
<STATE> 2
<MEAN> 39
 1.087821e+00 -1.808155e+00 2.331966e+00 -3.968594e+00 -6.220679e+00 -5.862777e+00 -7.141278e+00 -7.115496e-01 -1.802212e-01 -9.965017e-01 -2.974600e+00 -4.197545e+00 5.656955e+01 4.609286e-01 1.563999e+00 7.610965e-01 1.317690e+00 -1.770239e-01 3.925866e-01 -3.913119e-01 -1.677238e+00 -1.254378e-01 8.315188e-02 -3.733326e-01 1.334201e-01 -1.497943e+00 -1.434780e-01 -1.166769e-01 -1.887985e-01 -3.093463e-01 4.682813e-02 1.735365e-01 1.912538e-01 9.029195e-02 -1.588045e-02 -5.683688e-02 8.289512e-02 -4.758739e-02 1.892249e-01
<VARIANCE> 39
 1.141001e+01 4.604219e+01 3.589568e+01 3.546891e+01 5.168237e+01 3.468422e+01 3.555642e+01 5.390547e+01 3.833332e+01 3.891258e+01 2.547097e+01 2.496356e+01 3.023142e+01 4.471891e-01 1.227147e+00 1.794686e+00 1.297976e+00 2.161292e+00 2.043432e+00 2.384841e+00 3.423977e+00 2.001915e+00 2.124848e+00 1.896576e+00 1.229115e+00 4.250074e-01 5.742189e-02 1.582379e-01 1.793026e-01 1.925653e-01 2.635024e-01 2.572671e-01 2.842830e-01 4.165139e-01 2.887875e-01 2.742340e-01 2.373380e-01 1.871132e-01 7.284677e-02
<GCONST> 1.014196e+02
<STATE> 3
<MEAN> 39
 3.363094e-01 -8.325424e-01 3.761051e+00 -3.285630e+00 -4.568662e+00 -4.135212e+00 -6.508514e+00 -1.625571e+00 -9.858202e-01 -2.598955e+00 -2.548850e+00 -3.038612e+00 5.372253e+01 1.743092e-02 6.144537e-01 8.742093e-02 3.514599e-01 5.912010e-02 2.450445e-01 8.253189e-02 -3.735954e-01 -1.147939e-01 -9.908347e-03 -3.027025e-02 1.088297e-01 -6.493793e-01 -1.378601e-01 -1.627811e-01 -9.572193e-02 -1.510308e-01 6.453595e-02 -3.543486e-02 8.964679e-02 2.128011e-01 -1.127543e-02 1.635317e-02 6.526515e-02 -1.463153e-02 1.360879e-01
<VARIANCE> 39
 1.410955e+01 4.935965e+01 3.245784e+01 3.605712e+01 5.490953e+01 3.124535e+01 3.183373e+01 4.399266e+01 3.207062e+01 3.628743e+01 2.566794e+01 2.211229e+01 3.046251e+01 2.720276e-01 5.558444e-01 6.809241e-01 7.517815e-01 1.000845e+00 1.053275e+00 1.083911e+00 1.298331e+00 1.108645e+00 1.066865e+00 1.067633e+00 7.989085e-01 2.520501e-01 6.247130e-02 1.253609e-01 1.576058e-01 1.800873e-01 2.267437e-01 2.187479e-01 2.382500e-01 3.174871e-01 2.356220e-01 2.272146e-01 2.345083e-01 1.596408e-01 6.219237e-02
<GCONST> 9.027686e+01
<STATE> 4
<MEAN> 39
 8.602969e-01 2.002352e+00 2.687151e+00 -1.668494e+00 -6.764553e+00 -4.177419e+00 -6.699469e+00 -4.235401e+00 -8.267909e-01 -6.837196e-01 -3.235932e+00 -3.600861e+00 5.220554e+01 -4.996622e-01 -9.144484e-02 -1.722056e-01 -1.699165e-01 5.066743e-01 2.892489e-02 3.069795e-01 4.557241e-01 -1.104937e-01 -8.916809e-02 1.938573e-01 9.526292e-02 -9.382913e-02 -2.868712e-01 -2.650078e-01 -8.777516e-02 -3.366327e-01 1.145065e-01 -4.517096e-02 1.205239e-01 2.965302e-01 -2.389212e-02 -6.999633e-02 1.525448e-01 6.088527e-03 3.157250e-01
<VARIANCE> 39
 1.551717e+01 4.330266e+01 3.687802e+01 3.902760e+01 5.497550e+01 3.377449e+01 3.886199e+01 5.568434e+01 3.943444e+01 4.608584e+01 3.193689e+01 2.503815e+01 3.811151e+01 8.071234e-01 1.836855e+00 1.632639e+00 1.947587e+00 2.350870e+00 2.077023e+00 2.084465e+00 3.033957e+00 2.089168e+00 1.922762e+00 1.904233e+00 1.307290e+00 1.350019e+00 2.066522e-01 3.382180e-01 3.722979e-01 3.864893e-01 5.259479e-01 4.057209e-01 4.293726e-01 5.985039e-01 4.105794e-01 4.007421e-01 3.901601e-01 2.548222e-01 1.888072e-01
<GCONST> 1.127958e+02
<TRANSP> 5
 0.000000e+00 1.000000e+00 0.000000e+00 0.000000e+00 0.000000e+00
 0.000000e+00 3.769844e-01 6.230155e-01 0.000000e+00 0.000000e+00
 0.000000e+00 0.000000e+00 7.301914e-01 2.698085e-01 0.000000e+00
 0.000000e+00 0.000000e+00 0.000000e+00 4.940198e-01 5.059803e-01
 0.000000e+00 0.000000e+00 0.000000e+00 0.000000e+00 0.000000e+00
<ENDHMM>
~h "o"
<BEGINHMM>
<NUMSTATES> 5
<STATE> 2
<MEAN> 39
 3.372717e-01 -1.304490e+00 -7.877873e+00 -1.425416e+01 -5.000865e+00 3.016059e+00 -4.329654e+00 -2.588656e+00 -1.488838e+00 4.358026e-01 1.543000e+00 -3.667171e+00 5.572605e+01 1.163813e+00 -6.133957e-01 -6.407471e-01 -2.022511e+00 -3.376765e-01 9.087916e-01 -2.587661e-01 -2.490864e-01 -2.118168e-01 2.043002e-01 4.522137e-01 -5.228888e-01 1.589711e+00 -2.925773e-01 -4.452583e-03 2.333962e-01 4.992051e-01 1.561085e-01 -1.672994e-01 -1.468096e-02 6.993694e-03 4.362449e-02 -8.433835e-02 -9.827417e-02 -1.483662e-03 -2.767869e-01
<VARIANCE> 39
 3.408299e+01 3.939698e+01 4.648887e+01 1.080498e+02 5.300241e+01 5.958442e+01 7.168049e+01 4.152400e+01 5.733976e+01 4.892406e+01 3.920139e+01 2.754476e+01 7.834247e+01 2.603736e+00 2.720867e+00 3.065641e+00 6.742910e+00 3.495382e+00 3.768317e+00 3.784654e+00 3.181605e+00 3.655352e+00 3.094514e+00 2.769614e+00 2.124441e+00 3.447041e+00 4.821574e-01 5.251892e-01 5.150584e-01 1.252256e+00 5.567956e-01 6.724945e-01 7.052782e-01 5.662420e-01 6.540001e-01 5.146303e-01 4.810936e-01 3.912691e-01 7.005994e-01
<GCONST> 1.314041e+02
<STATE> 3
<MEAN> 39
 1.406638e+00 -3.647812e+00 -6.861684e+00 -1.768954e+01 -3.598166e+00 2.336276e+00 -5.147581e+00 -1.753151e+00 -2.736152e+00 8.811013e-01 2.328347e+00 -4.908998e+00 6.047117e+01 6.670300e-03 -6.646519e-02 1.556733e-01 3.181038e-01 9.983098e-02 -1.547091e-01 -2.497226e-01 1.562764e-02 1.406144e-01 -5.343087e-02 -1.473369e-02 -9.133270e-02 -1.100421e-01 -1.293654e-01 1.895609e-01 2.130838e-01 5.793387e-01 6.526336e-02 -2.787528e-01 -5.225085e-02 -4.562466e-02 1.323523e-01 -1.124679e-01 -1.860455e-01 1.464361e-01 -3.209373e-01
<VARIANCE> 39
 1.434311e+01 3.404501e+01 4.576694e+01 6.268248e+01 5.890482e+01 3.851099e+01 5.144865e+01 4.317966e+01 5.099840e+01 4.991833e+01 5.084621e+01 2.469271e+01 2.363939e+01 3.081371e-01 9.405044e-01 8.825109e-01 2.468738e+00 1.307447e+00 1.837032e+00 1.823375e+00 1.567568e+00 2.005430e+00 1.516290e+00 1.440812e+00 1.218877e+00 5.627940e-01 1.174092e-01 1.816011e-01 1.970227e-01 3.662679e-01 3.066261e-01 2.955739e-01 2.952859e-01 3.215888e-01 3.576709e-01 3.112733e-01 3.178409e-01 2.512286e-01 1.426261e-01
<GCONST> 1.040676e+02
<STATE> 4
<MEAN> 39
 2.232890e+00 -2.549473e+00 -6.357326e+00 -1.178258e+01 -4.273283e+00 -1.426375e-01 -7.893055e+00 -3.278930e+00 -4.668316e-01 4.613667e-01 1.524146e+00 -4.173308e+00 5.710532e+01 -2.816360e-01 9.015856e-01 9.323087e-01 1.883974e+00 5.010189e-01 -5.111164e-01 -4.508327e-02 -1.145794e-01 2.216465e-01 -3.315149e-01 -7.436520e-01 3.395979e-01 -1.431362e+00 -1.811206e-01 1.713010e-01 8.020782e-02 3.105506e-02 4.336504e-02 1.551534e-01 2.651670e-01 -9.577340e-03 -1.373746e-01 -3.502722e-02 -4.192445e-02 2.409468e-03 -1.642943e-01
<VARIANCE> 39
 1.379576e+01 3.701902e+01 3.855190e+01 5.900168e+01 5.555886e+01 5.852874e+01 5.156086e+01 4.394992e+01 5.665598e+01 4.681988e+01 4.625184e+01 3.193015e+01 3.878746e+01 7.541889e-01 1.203717e+00 1.351680e+00 1.900691e+00 2.580127e+00 2.622592e+00 2.446230e+00 2.579145e+00 2.910868e+00 2.181730e+00 2.428197e+00 1.628941e+00 8.602341e-01 1.275550e-01 2.482919e-01 2.231146e-01 4.144675e-01 4.054003e-01 4.797291e-01 3.828061e-01 4.243460e-01 4.993035e-01 4.212832e-01 3.890193e-01 3.020375e-01 1.500045e-01
<GCONST> 1.130829e+02
<TRANSP> 5
 0.000000e+00 1.000000e+00 0.000000e+00 0.000000e+00 0.000000e+00
 0.000000e+00 6.052287e-01 3.947714e-01 0.000000e+00 0.000000e+00
 0.000000e+00 0.000000e+00 7.318010e-01 2.681990e-01 0.000000e+00
 0.000000e+00 0.000000e+00 0.000000e+00 5.740736e-01 4.259264e-01
 0.000000e+00 0.000000e+00 0.000000e+00 0.000000e+00 0.000000e+00
<ENDHMM>
~h "p"
<BEGINHMM>
<NUMSTATES> 5
<STATE> 2
<MEAN> 39
 -4.989569e+00 -2.975132e-01 -2.233315e+00 -4.416449e+00 -1.831691e+00 -8.535326e-01 -3.143486e+00 -9.856989e-01 -7.508153e-02 2.839714e-02 -5.735282e-01 -3.100504e+00 4.707119e+01 -6.537890e-01 1.433973e-01 -5.793096e-02 3.860782e-01 6.835993e-02 -4.335700e-02 2.213774e-01 -2.265012e-02 6.957563e-02 -5.360669e-02 -5.553255e-02 2.614526e-01 -8.871853e-01 6.006912e-02 -1.234479e-01 -4.116048e-02 -1.411812e-01 -6.267545e-02 -5.050866e-02 -3.189304e-02 2.343405e-02 -2.280165e-02 3.959800e-03 7.284812e-02 -4.080173e-02 3.755741e-01
<VARIANCE> 39
 2.164819e+01 3.030512e+01 3.571383e+01 4.181253e+01 3.441176e+01 3.359501e+01 2.445413e+01 2.805246e+01 2.511334e+01 2.335648e+01 1.974525e+01 2.062759e+01 4.075299e+01 5.854046e-01 5.651533e-01 8.431273e-01 1.045157e+00 1.069796e+00 1.286029e+00 1.338337e+00 1.529130e+00 1.319314e+00 1.281816e+00 1.251338e+00 9.638184e-01 8.767934e-01 1.062939e-01 1.402841e-01 1.887365e-01 2.451333e-01 2.320788e-01 2.620324e-01 2.909272e-01 3.143286e-01 2.927453e-01 2.785677e-01 2.631131e-01 1.980212e-01 1.618678e-01
<GCONST> 9.577795e+01
<STATE> 3
<MEAN> 39
 -5.984681e+00 1.056588e+00 -1.089057e+00 -3.343024e+00 -2.715868e+00 -1.922821e+00 -3.170152e+00 -1.549013e+00 -3.839618e-01 -4.146237e-01 -6.128742e-01 -2.291059e+00 4.657074e+01 9.819745e-02 -5.294666e-01 -6.915365e-01 -6.667856e-01 -5.056081e-02 -2.697749e-01 1.086291e-01 -8.203253e-02 1.590941e-02 1.387704e-01 2.884606e-01 -1.570222e-01 1.605375e+00 6.452438e-01 -3.856846e-01 -2.122098e-01 -7.112657e-01 -1.700790e-01 5.785221e-02 -2.715324e-01 9.284631e-03 -3.212633e-02 2.520985e-01 5.199034e-02 -3.578320e-01 1.086028e+00
<VARIANCE> 39
 2.362933e+01 3.546474e+01 3.839538e+01 4.252219e+01 3.675130e+01 3.657890e+01 2.541604e+01 2.882756e+01 2.469092e+01 2.393834e+01 2.026290e+01 1.969154e+01 4.016745e+01 2.758764e+00 2.349571e+00 2.966086e+00 3.359768e+00 2.727641e+00 3.373845e+00 2.680570e+00 2.887774e+00 2.565733e+00 2.393092e+00 2.206293e+00 1.639982e+00 2.938282e+00 3.273835e-01 4.441448e-01 5.529678e-01 5.352216e-01 5.386178e-01 6.115119e-01 4.893655e-01 5.372722e-01 4.782091e-01 4.566223e-01 4.150001e-01 3.210129e-01 3.250532e-01
<GCONST> 1.180299e+02
<STATE> 4
<MEAN> 39
 -3.085836e+00 -2.448911e+00 -4.499296e+00 -8.416095e+00 -2.865035e+00 -1.767562e+00 -3.617933e+00 -2.359663e+00 -5.593349e-01 9.947088e-01 4.582199e-01 -4.713259e+00 5.527790e+01 1.644570e+00 -1.673160e+00 -9.865879e-01 -2.307436e+00 -3.752858e-01 4.395921e-01 -6.529597e-01 3.341146e-01 -1.816073e-02 7.758344e-01 1.670539e-01 -1.275921e+00 3.510549e+00 8.125728e-02 -1.157539e-01 3.605922e-01 5.652791e-02 -5.513035e-02 -2.208093e-02 -1.470841e-01 2.458932e-01 3.637732e-02 -8.267302e-02 -2.426815e-01 -1.645779e-02 -1.332145e-01
<VARIANCE> 39
 2.931543e+01 3.269459e+01 3.048266e+01 5.137708e+01 2.408934e+01 4.951728e+01 3.293476e+01 2.875372e+01 2.884385e+01 2.901722e+01 2.392073e+01 2.391401e+01 4.649086e+01 3.144133e+00 4.477136e+00 5.600399e+00 5.685716e+00 4.228313e+00 5.259220e+00 4.059313e+00 5.548318e+00 4.496281e+00 3.808702e+00 3.696285e+00 3.161599e+00 3.256001e+00 5.210920e-01 5.612142e-01 5.170827e-01 9.157003e-01 6.669696e-01 7.761223e-01 5.208189e-01 5.498771e-01 5.214059e-01 5.134919e-01 4.838428e-01 4.373859e-01 5.739881e-01
<GCONST> 1.282438e+02
<TRANSP> 5
 0.000000e+00 1.000000e+00 0.000000e+00 0.000000e+00 0.000000e+00
 0.000000e+00 7.894396e-01 2.105604e-01 0.000000e+00 0.000000e+00
 0.000000e+00 0.000000e+00 5.429912e-01 4.570088e-01 0.000000e+00
 0.000000e+00 0.000000e+00 0.000000e+00 3.980614e-01 6.019386e-01
 0.000000e+00 0.000000e+00 0.000000e+00 0.000000e+00 0.000000e+00
<ENDHMM>
~h "r"
<BEGINHMM>
<NUMSTATES> 5
<STATE> 2
<MEAN> 39
 -7.637393e-01 -4.402427e+00 -1.141468e+00 -5.345584e+00 -5.976503e+00 -7.038737e+00 -5.465258e+00 1.807665e+00 2.696741e+00 3.118249e-04 -1.604069e+00 -3.650395e+00 5.766504e+01 -5.839118e-01 4.998447e-01 5.519501e-01 9.924384e-01 4.321536e-01 -4.725140e-02 9.310900e-02 -1.637470e-01 -1.830496e-03 -3.110193e-01 1.989574e-01 4.495416e-01 -1.091797e+00 -9.798343e-02 -5.855632e-02 2.113955e-02 -3.187453e-01 1.812544e-02 1.248811e-01 8.356739e-02 -8.710209e-02 -2.836227e-01 -1.680777e-02 9.601511e-02 -2.457585e-02 2.352077e-01
<VARIANCE> 39
 1.801762e+01 3.520119e+01 3.906707e+01 4.401573e+01 6.535350e+01 5.106126e+01 4.615954e+01 4.035049e+01 3.803392e+01 3.626396e+01 2.882151e+01 2.247100e+01 3.387510e+01 1.427156e+00 2.065986e+00 2.121353e+00 2.320999e+00 3.105645e+00 2.813116e+00 2.566929e+00 2.612574e+00 2.377737e+00 2.234900e+00 2.078035e+00 1.714206e+00 9.417386e-01 1.739497e-01 2.211180e-01 2.551476e-01 3.354816e-01 4.079523e-01 3.836736e-01 3.537701e-01 4.229845e-01 3.436353e-01 3.225058e-01 3.467994e-01 2.555993e-01 1.536794e-01
<GCONST> 1.121079e+02
<STATE> 3
<MEAN> 39
 -3.443895e+00 -3.362151e+00 -1.810111e-01 -4.324841e+00 -3.756084e+00 -5.968132e+00 -4.312009e+00 1.347449e+00 2.015943e+00 -1.284670e+00 -7.931151e-01 -2.605375e+00 5.570789e+01 -1.679555e-01 7.983475e-02 4.975034e-01 1.519832e-01 -8.291756e-02 -2.724103e-02 1.162355e-01 -1.094461e-01 -4.790173e-01 -1.762323e-01 2.572102e-01 2.324996e-01 -9.327355e-02 2.903542e-01 -1.645887e-01 -7.060619e-02 -4.291424e-01 -3.371659e-01 4.239897e-02 -8.573372e-02 9.351004e-03 -1.891564e-01 1.688471e-01 -2.484443e-04 -1.958385e-01 4.689597e-01
<VARIANCE> 39
 2.394135e+01 3.255014e+01 3.424689e+01 3.954357e+01 4.932510e+01 4.489794e+01 3.911887e+01 3.361224e+01 3.475560e+01 3.042210e+01 2.501568e+01 2.182939e+01 4.056702e+01 1.463007e+00 1.627480e+00 1.974493e+00 1.813753e+00 2.580984e+00 2.328089e+00 2.064353e+00 2.462876e+00 2.050321e+00 1.861568e+00 1.801727e+00 1.429527e+00 9.914821e-01 3.472907e-01 4.354174e-01 4.053592e-01 5.114395e-01 6.065993e-01 5.317555e-01 4.728774e-01 5.438800e-01 4.159522e-01 4.456320e-01 4.561946e-01 3.432119e-01 2.182910e-01
<GCONST> 1.142261e+02
<STATE> 4
<MEAN> 39
 -1.399477e+00 -3.093064e+00 8.390306e-01 -4.906935e+00 -6.724811e+00 -7.742990e+00 -5.199337e+00 6.100035e-02 9.913945e-01 2.361632e-01 -1.228348e+00 -2.736497e+00 5.843142e+01 2.180360e-01 1.531466e-01 2.521729e-01 -2.408626e-01 -4.078267e-01 1.375107e-01 -1.019447e-01 -1.832289e-01 -4.538047e-01 1.308380e-01 8.632358e-02 -1.228585e-01 1.063342e-01 -7.200392e-02 6.577796e-02 -7.549225e-02 -1.592609e-01 6.947828e-02 1.733007e-01 3.200710e-03 -1.008818e-02 3.098126e-03 3.750307e-03 -6.102452e-02 -9.935559e-02 -1.486638e-02
<VARIANCE> 39
 2.587764e+01 4.490725e+01 5.204146e+01 4.294123e+01 5.676968e+01 4.910713e+01 4.669021e+01 4.687321e+01 4.047475e+01 3.579515e+01 3.194036e+01 2.385880e+01 3.604580e+01 2.034007e+00 2.568047e+00 2.674861e+00 2.382310e+00 3.482280e+00 2.557442e+00 2.526255e+00 3.090046e+00 2.207278e+00 2.217222e+00 2.337229e+00 1.643507e+00 2.064342e+00 2.788312e-01 3.668323e-01 3.400240e-01 4.398986e-01 5.426431e-01 4.760629e-01 4.424581e-01 4.816074e-01 3.838341e-01 3.928132e-01 3.732508e-01 3.072538e-01 2.727962e-01
<GCONST> 1.185396e+02
<TRANSP> 5
 0.000000e+00 1.000000e+00 0.000000e+00 0.000000e+00 0.000000e+00
 0.000000e+00 2.185342e-01 7.814658e-01 0.000000e+00 0.000000e+00
 0.000000e+00 0.000000e+00 2.814513e-01 7.185487e-01 0.000000e+00
 0.000000e+00 0.000000e+00 0.000000e+00 4.275987e-01 5.724012e-01
 0.000000e+00 0.000000e+00 0.000000e+00 0.000000e+00 0.000000e+00
<ENDHMM>
~h "s"
<BEGINHMM>
<NUMSTATES> 5
<STATE> 2
<MEAN> 39
 -9.974984e+00 3.948056e+00 -1.692006e+00 -3.250482e+00 -1.181525e+00 -7.554728e+00 -8.851964e-01 -3.999841e-01 4.260634e-01 -2.105448e+00 -1.562546e+00 -2.397791e+00 5.689048e+01 -3.397225e+00 1.924518e+00 -1.046079e+00 9.432092e-01 9.267113e-01 -4.003906e-01 9.910323e-01 1.122961e-01 1.713493e-01 -4.690059e-01 5.364953e-01 1.942305e-01 -1.561070e-01 -1.095450e-01 -2.747153e-01 -9.179676e-02 -3.070628e-01 -1.465590e-01 1.005076e-01 -2.048167e-01 -2.722604e-02 -1.565683e-01 5.201301e-02 3.322482e-02 -5.996878e-02 3.858856e-02
<VARIANCE> 39
 4.640624e+01 4.457964e+01 4.918032e+01 3.666934e+01 5.833863e+01 4.432436e+01 4.718675e+01 4.467159e+01 4.321362e+01 3.882409e+01 3.048000e+01 2.163168e+01 4.056399e+01 1.849965e+00 2.774595e+00 2.796933e+00 3.499978e+00 3.423282e+00 3.193652e+00 2.789271e+00 2.976919e+00 2.356117e+00 2.568106e+00 2.112313e+00 1.801216e+00 9.238350e-01 6.596126e-01 4.274779e-01 3.767458e-01 3.926282e-01 4.898935e-01 4.595470e-01 4.233896e-01 4.426882e-01 3.974954e-01 3.971477e-01 3.498256e-01 2.790510e-01 1.067523e-01
<GCONST> 1.186701e+02
<STATE> 3
<MEAN> 39
 -1.896319e+01 5.489489e+00 -4.556358e+00 -1.980526e+00 -2.637157e-01 -6.783405e+00 1.122376e+00 1.442216e-02 -2.016260e-01 -2.400010e+00 4.630494e-01 -1.085866e+00 5.321519e+01 -5.629573e-01 -2.313218e-01 -9.461673e-02 4.604365e-03 -3.793415e-02 1.994294e-02 1.815476e-01 5.861952e-03 -6.105004e-02 -1.568271e-04 1.046471e-01 1.500344e-01 -3.514172e-01 6.290801e-01 -2.909639e-01 2.263990e-01 -9.220910e-02 -1.457489e-01 -1.363284e-02 -7.322828e-02 -2.723733e-03 2.533773e-02 7.399971e-02 -8.324897e-02 -2.275842e-02 9.309074e-03
<VARIANCE> 39
 2.657207e+01 4.352110e+01 3.877155e+01 2.907540e+01 3.676558e+01 4.553368e+01 4.025628e+01 3.316117e+01 3.367013e+01 3.251949e+01 2.188768e+01 1.997595e+01 6.248402e+01 1.375705e+00 1.070499e+00 1.110163e+00 1.070857e+00 1.269971e+00 1.429797e+00 1.446827e+00 1.537417e+00 1.498434e+00 1.396154e+00 1.217843e+00 9.972738e-01 4.191586e-01 3.482740e-01 2.582839e-01 2.322347e-01 2.694561e-01 2.931966e-01 3.160071e-01 3.287619e-01 3.265443e-01 3.094838e-01 3.141264e-01 2.631115e-01 2.235324e-01 8.744053e-02
<GCONST> 1.022191e+02
<STATE> 4
<MEAN> 39
 -1.649751e+01 3.536266e+00 -3.769363e+00 -2.668440e+00 -1.203992e+00 -8.149673e+00 1.019968e+00 -6.824258e-02 6.689218e-01 -2.002701e+00 -3.412562e-01 -1.050336e+00 5.391214e+01 2.676946e+00 -8.204522e-01 5.186009e-01 -6.106148e-01 -9.608527e-01 -1.994208e-01 -7.908378e-01 -2.129817e-01 1.113941e-01 1.385187e-01 -5.239012e-01 -3.709469e-01 6.860395e-01 5.680504e-01 -4.596491e-02 9.425685e-02 -2.571275e-01 -1.955593e-01 6.640165e-02 -3.635995e-01 -7.348631e-02 -5.701184e-02 4.740568e-02 -5.649118e-02 -1.673843e-01 3.417551e-01
<VARIANCE> 39
 5.205983e+01 3.163630e+01 3.699669e+01 3.034353e+01 3.982742e+01 4.472810e+01 3.891536e+01 3.048200e+01 3.407640e+01 2.989401e+01 2.360430e+01 1.859008e+01 4.238210e+01 4.975263e+00 3.306674e+00 3.274343e+00 2.922196e+00 3.459242e+00 3.409589e+00 3.560304e+00 3.342323e+00 2.635118e+00 2.745961e+00 2.475728e+00 1.861496e+00 2.503024e+00 7.934734e-01 4.512812e-01 3.977241e-01 4.537443e-01 5.193960e-01 5.385584e-01 5.567396e-01 5.189548e-01 4.326567e-01 4.374594e-01 4.282686e-01 3.093664e-01 2.722751e-01
<GCONST> 1.216140e+02
<TRANSP> 5
 0.000000e+00 1.000000e+00 0.000000e+00 0.000000e+00 0.000000e+00
 0.000000e+00 6.779773e-01 3.220227e-01 0.000000e+00 0.000000e+00
 0.000000e+00 0.000000e+00 8.116138e-01 1.883862e-01 0.000000e+00
 0.000000e+00 0.000000e+00 0.000000e+00 7.107163e-01 2.892837e-01
 0.000000e+00 0.000000e+00 0.000000e+00 0.000000e+00 0.000000e+00
<ENDHMM>
~h "t"
<BEGINHMM>
<NUMSTATES> 5
<STATE> 2
<MEAN> 39
 -6.825121e+00 -3.635165e-01 -1.459730e+00 -3.064447e+00 -3.139558e+00 -3.427803e+00 -3.036901e+00 -7.403021e-02 4.622088e-02 -6.755535e-01 -1.359460e+00 -2.371898e+00 4.611733e+01 -4.984425e-01 4.990345e-02 -1.458009e-01 2.225864e-01 1.172106e-01 3.239935e-01 1.844556e-01 -3.305812e-02 -3.208619e-02 -1.729761e-02 1.057234e-01 1.971837e-01 -9.319972e-01 -3.610510e-02 -1.300273e-01 -2.851625e-02 -1.519450e-01 -2.700074e-02 -1.480877e-01 1.488825e-02 1.434123e-02 -9.908715e-03 -2.294803e-02 4.743697e-02 3.782596e-03 3.708690e-01
<VARIANCE> 39
 2.778437e+01 3.561134e+01 4.165516e+01 3.870982e+01 3.925801e+01 3.883390e+01 2.926062e+01 3.755882e+01 3.111642e+01 2.645985e+01 2.390678e+01 2.381050e+01 5.193576e+01 6.238214e-01 6.780451e-01 9.369300e-01 1.100182e+00 1.307638e+00 1.569387e+00 1.395486e+00 1.608287e+00 1.427517e+00 1.453970e+00 1.248226e+00 1.029649e+00 1.265586e+00 1.118306e-01 1.667643e-01 2.089782e-01 2.546377e-01 2.757333e-01 3.611186e-01 2.911949e-01 3.458116e-01 3.005986e-01 2.994068e-01 2.594502e-01 2.050778e-01 2.219497e-01
<GCONST> 1.008484e+02
<STATE> 3
<MEAN> 39
 -5.853975e+00 2.069926e+00 2.351838e-01 -2.667078e+00 -3.875904e+00 -4.308549e+00 -4.203376e+00 -2.121860e+00 -8.577008e-01 -5.393501e-01 -1.244737e+00 -2.566087e+00 4.644004e+01 -1.070276e+00 -7.980558e-01 -7.452486e-01 -6.145811e-01 3.761538e-01 -7.675520e-01 5.880941e-01 4.883656e-02 1.704317e-01 -2.818876e-01 2.862858e-01 2.503653e-01 1.261259e+00 2.604505e-01 -2.886857e-01 -8.833580e-02 -5.664401e-01 -9.737577e-02 -3.420136e-01 -1.451219e-01 8.467104e-02 1.831537e-01 2.892376e-02 -7.583981e-02 -1.691215e-01 1.154430e+00
<VARIANCE> 39
 2.192055e+01 3.470790e+01 4.813747e+01 4.440968e+01 4.522452e+01 4.080269e+01 2.805983e+01 3.475101e+01 2.876614e+01 2.559159e+01 2.492339e+01 2.218326e+01 4.310707e+01 1.677488e+00 2.278491e+00 3.173472e+00 3.010181e+00 3.488991e+00 3.785552e+00 2.854982e+00 3.120712e+00 2.541134e+00 2.507074e+00 2.371621e+00 1.644102e+00 3.459945e+00 3.290107e-01 3.942223e-01 6.045709e-01 5.422952e-01 6.022918e-01 5.896649e-01 5.336162e-01 6.640496e-01 4.867758e-01 4.890687e-01 4.647674e-01 3.403383e-01 3.824894e-01
<GCONST> 1.204110e+02
<STATE> 4
<MEAN> 39
 -8.590931e+00 -1.645003e+00 -2.642065e+00 -6.220157e+00 -2.597396e+00 -7.686294e+00 -1.984657e+00 -1.252733e+00 6.826425e-01 -1.365208e+00 -5.440704e-01 -2.389143e+00 5.395386e+01 8.752816e-01 -6.038799e-01 -2.294713e-01 -1.534079e+00 -2.390939e-01 -6.726049e-01 -5.725487e-01 2.642083e-01 4.348949e-01 8.129107e-02 -2.333333e-01 -5.634096e-01 2.937569e+00 6.791600e-01 9.722889e-02 3.326081e-01 -1.490455e-01 -2.390674e-01 4.395283e-01 -4.780573e-01 3.034075e-02 -1.264422e-01 1.709742e-01 -1.132707e-01 -2.193903e-01 -2.874447e-02
<VARIANCE> 39
 2.285127e+01 2.535872e+01 3.757302e+01 3.453178e+01 3.735610e+01 4.391595e+01 3.359827e+01 3.032543e+01 3.301388e+01 2.853670e+01 2.618004e+01 2.236507e+01 5.066565e+01 3.412054e+00 3.858353e+00 6.305277e+00 4.960802e+00 5.021011e+00 5.226237e+00 4.454055e+00 6.148760e+00 4.003194e+00 3.612049e+00 3.519191e+00 2.695404e+00 4.426077e+00 4.222338e-01 5.525792e-01 6.245037e-01 6.924762e-01 7.185032e-01 8.030449e-01 6.654169e-01 7.052776e-01 5.444462e-01 5.624847e-01 5.546430e-01 4.208404e-01 6.572102e-01
<GCONST> 1.290310e+02
<TRANSP> 5
 0.000000e+00 1.000000e+00 0.000000e+00 0.000000e+00 0.000000e+00
 0.000000e+00 7.610648e-01 2.389352e-01 0.000000e+00 0.000000e+00
 0.000000e+00 0.000000e+00 4.411657e-01 5.588342e-01 0.000000e+00
 0.000000e+00 0.000000e+00 0.000000e+00 4.986260e-01 5.013741e-01
 0.000000e+00 0.000000e+00 0.000000e+00 0.000000e+00 0.000000e+00
<ENDHMM>
~h "u"
<BEGINHMM>
<NUMSTATES> 5
<STATE> 2
<MEAN> 39
 4.172122e-01 3.862108e+00 -1.691091e+00 -1.001543e+01 -5.865501e+00 -4.922345e+00 -9.583180e+00 -4.476182e+00 -2.697516e+00 -3.645799e-01 2.347770e-01 -2.079846e+00 5.542202e+01 1.273196e+00 4.316578e-01 -4.884371e-01 -1.779998e+00 -5.785556e-01 7.610590e-01 -1.034748e+00 -7.571011e-01 -6.966863e-01 3.735487e-01 7.669859e-01 1.652153e-01 7.308237e-01 -3.030500e-01 -8.171051e-02 8.537562e-02 2.040593e-01 2.101399e-01 2.986588e-01 3.190612e-01 4.614303e-02 -1.672598e-02 3.377275e-02 -6.101672e-04 -5.482397e-02 -2.711039e-01
<VARIANCE> 39
 2.387618e+01 4.493764e+01 4.350084e+01 6.695770e+01 5.095662e+01 5.228757e+01 5.580015e+01 5.324434e+01 5.152057e+01 4.764674e+01 3.399496e+01 2.463288e+01 4.073393e+01 2.638278e+00 2.289541e+00 3.089227e+00 4.463194e+00 4.082217e+00 4.201199e+00 4.144377e+00 4.015942e+00 3.513008e+00 3.170420e+00 3.105043e+00 2.207541e+00 1.699367e+00 3.634878e-01 4.350566e-01 3.786360e-01 7.336221e-01 5.841833e-01 6.411803e-01 7.887241e-01 6.557625e-01 6.511046e-01 5.416293e-01 4.629507e-01 3.946114e-01 3.428620e-01
<GCONST> 1.271224e+02
<STATE> 3
<MEAN> 39
 1.717059e+00 2.540925e+00 -2.882041e+00 -1.483890e+01 -5.549435e+00 -4.660559e-01 -1.142476e+01 -7.048323e+00 -4.033118e+00 1.291627e+00 3.613941e+00 -2.152460e+00 5.814108e+01 -5.166855e-03 -3.122418e-01 -2.728122e-03 -1.040222e-01 3.527486e-01 2.796078e-01 -2.124717e-01 -1.222526e-01 2.195814e-01 4.806766e-01 5.940138e-02 -3.889339e-01 1.178194e-01 -3.460878e-01 -3.917250e-02 2.786759e-01 8.483045e-01 1.690746e-01 -3.713401e-01 4.219849e-01 3.674716e-01 3.050478e-01 -2.463212e-01 -4.967415e-01 -1.013255e-01 -3.992776e-01
<VARIANCE> 39
 1.897567e+01 4.042313e+01 4.257053e+01 7.369594e+01 5.536317e+01 6.075462e+01 5.686935e+01 6.819761e+01 6.319165e+01 6.500544e+01 4.925190e+01 3.638779e+01 2.975151e+01 7.361442e-01 2.512106e+00 1.798295e+00 4.721986e+00 2.867653e+00 3.686974e+00 3.453386e+00 3.353583e+00 4.699385e+00 3.009687e+00 2.969052e+00 2.569910e+00 1.449035e+00 2.517390e-01 3.396966e-01 3.729630e-01 6.127240e-01 6.030830e-01 6.579910e-01 7.280555e-01 6.959895e-01 7.285473e-01 6.241753e-01 5.898902e-01 5.255784e-01 1.875753e-01
<GCONST> 1.254014e+02
<STATE> 4
<MEAN> 39
 7.820356e-01 3.111401e+00 -2.080354e+00 -1.374648e+01 -3.787795e+00 -2.908439e+00 -9.839132e+00 -4.818314e+00 -5.063414e+00 8.478450e-01 6.862591e-01 -1.920701e+00 5.565445e+01 -2.549677e-01 4.027721e-02 3.088520e-01 8.954616e-01 1.726170e-01 -1.424058e-01 4.098250e-01 2.756519e-01 3.395383e-01 -1.700114e-01 -4.232353e-01 -1.032638e-01 -6.885158e-01 -1.562469e-01 -3.073111e-03 6.949219e-02 2.356373e-01 8.112527e-04 -7.689299e-02 9.755083e-02 1.666590e-02 7.223808e-02 -6.753881e-02 -5.318123e-02 4.070871e-02 -9.930532e-02
<VARIANCE> 39
 1.469234e+01 3.808768e+01 4.667794e+01 7.344566e+01 4.692734e+01 4.457012e+01 4.523743e+01 4.674884e+01 5.743820e+01 5.880432e+01 4.302113e+01 3.252501e+01 3.390993e+01 6.532974e-01 1.281356e+00 1.292217e+00 2.625327e+00 1.770099e+00 2.128615e+00 2.046167e+00 2.166522e+00 2.209528e+00 1.842865e+00 2.008944e+00 1.452387e+00 1.082783e+00 1.229451e-01 1.891408e-01 2.171076e-01 3.734579e-01 3.359497e-01 3.649563e-01 3.674622e-01 3.830357e-01 4.384646e-01 3.553483e-01 3.467436e-01 2.824765e-01 1.087516e-01
<GCONST> 1.100185e+02
<TRANSP> 5
 0.000000e+00 1.000000e+00 0.000000e+00 0.000000e+00 0.000000e+00
 0.000000e+00 4.521401e-01 5.478599e-01 0.000000e+00 0.000000e+00
 0.000000e+00 0.000000e+00 4.755586e-01 5.244414e-01 0.000000e+00
 0.000000e+00 0.000000e+00 0.000000e+00 6.815701e-01 3.184299e-01
 0.000000e+00 0.000000e+00 0.000000e+00 0.000000e+00 0.000000e+00
<ENDHMM>
~h "v"
<BEGINHMM>
<NUMSTATES> 5
<STATE> 2
<MEAN> 39
 -4.582346e+00 -6.186340e-01 8.599731e-02 -1.817086e+00 -3.825222e+00 -1.773777e+00 -1.014326e+00 2.773880e+00 1.269817e+00 -1.192905e+00 -2.189086e+00 -3.509278e+00 5.391515e+01 -1.744440e+00 5.674530e-01 -8.793302e-01 7.908497e-01 1.015104e-01 -3.361522e-01 3.419514e-01 -5.137958e-02 2.041170e-01 -3.624314e-01 -4.955989e-02 4.552537e-01 -9.777257e-01 -1.612092e-01 -1.912093e-01 -7.376069e-02 -2.492977e-01 -1.903183e-01 -2.407262e-01 -2.365756e-01 -2.181695e-01 -1.325263e-01 -9.074312e-02 6.786896e-02 -1.154822e-01 2.553951e-01
<VARIANCE> 39
 1.335686e+01 2.550609e+01 5.082389e+01 2.678929e+01 3.790064e+01 2.819095e+01 1.629779e+01 4.839776e+01 3.470737e+01 2.497918e+01 2.412841e+01 2.336571e+01 2.168149e+01 1.405346e+00 9.143332e-01 2.019855e+00 1.287235e+00 2.376016e+00 2.207707e+00 2.133901e+00 2.062741e+00 2.840431e+00 1.706787e+00 1.575395e+00 1.486287e+00 6.809117e-01 2.397791e-01 1.421589e-01 2.491806e-01 2.124216e-01 3.327943e-01 3.623222e-01 2.702841e-01 3.133645e-01 4.104727e-01 2.415422e-01 2.592515e-01 2.055859e-01 7.098741e-02
<GCONST> 1.021457e+02
<STATE> 3
<MEAN> 39
 -1.189973e+01 -4.407507e-01 -2.395552e+00 -9.014192e-01 -2.953613e+00 -4.606807e+00 -2.245309e+00 -1.156516e+00 1.064828e-01 -3.117046e+00 -1.063567e+00 -1.756088e+00 5.200963e+01 -7.787167e-01 -1.981820e-01 -1.048455e-01 4.331969e-02 -8.810519e-02 -1.470760e-01 6.614262e-02 -1.443921e-01 -2.001545e-01 -1.148441e-01 1.068370e-01 8.208212e-02 -1.963888e-01 7.420067e-01 -3.395437e-02 4.717294e-01 -2.497016e-01 -1.692533e-01 2.287250e-01 3.010912e-02 -7.477650e-03 -1.548087e-01 3.265781e-01 1.724903e-01 -1.460883e-01 2.598559e-01
<VARIANCE> 39
 1.090963e+01 1.591631e+01 3.254922e+01 1.967816e+01 2.003110e+01 2.243212e+01 1.641758e+01 2.430916e+01 2.063082e+01 3.065424e+01 1.693277e+01 1.361332e+01 1.345721e+01 1.721781e+00 1.049299e+00 1.564066e+00 1.032369e+00 1.426859e+00 1.407132e+00 1.173881e+00 1.965664e+00 1.541002e+00 1.740233e+00 1.433901e+00 9.387537e-01 3.106485e-01 2.762201e-01 2.671739e-01 4.160062e-01 3.260251e-01 3.958586e-01 3.328937e-01 3.434100e-01 4.367387e-01 4.309019e-01 3.658231e-01 3.520116e-01 2.174665e-01 1.317556e-01
<GCONST> 9.762894e+01
<STATE> 4
<MEAN> 39
 -9.079785e+00 3.480377e-01 -1.693369e+00 -1.036853e+00 -4.092249e+00 -2.145188e+00 -9.533430e-01 -9.131197e-01 -4.594880e-01 -1.540122e+00 -2.704718e-01 -2.665616e+00 5.184615e+01 2.469172e+00 -7.789160e-02 1.145062e+00 -1.470703e+00 -1.307487e+00 2.399158e-01 -4.740029e-01 -9.905335e-01 -8.821154e-01 9.761405e-01 7.042894e-01 -7.806035e-01 1.648141e+00 5.048246e-01 -2.159992e-01 3.282106e-01 -6.170493e-01 -4.569523e-01 -1.551339e-01 -3.439749e-01 -1.413492e-01 -4.860527e-02 1.856106e-01 -4.062418e-02 -2.615858e-01 6.043785e-01
<VARIANCE> 39
 2.963017e+01 2.364024e+01 4.762016e+01 3.474385e+01 2.677657e+01 3.270460e+01 2.432975e+01 2.808556e+01 2.503362e+01 2.695213e+01 1.729520e+01 1.548850e+01 2.126389e+01 4.102720e+00 3.305874e+00 7.131868e+00 3.977576e+00 3.511054e+00 5.003625e+00 2.979012e+00 5.086316e+00 2.447303e+00 2.168902e+00 2.781626e+00 1.301194e+00 1.363451e+00 6.133976e-01 5.416926e-01 7.565293e-01 5.048535e-01 4.670567e-01 4.962413e-01 4.512056e-01 6.264673e-01 3.943394e-01 4.671300e-01 3.477781e-01 2.707343e-01 1.395968e-01
<GCONST> 1.180931e+02
<TRANSP> 5
 0.000000e+00 1.000000e+00 0.000000e+00 0.000000e+00 0.000000e+00
 0.000000e+00 7.070553e-01 2.929447e-01 0.000000e+00 0.000000e+00
 0.000000e+00 0.000000e+00 7.263666e-01 2.736334e-01 0.000000e+00
 0.000000e+00 0.000000e+00 0.000000e+00 5.680860e-01 4.319140e-01
 0.000000e+00 0.000000e+00 0.000000e+00 0.000000e+00 0.000000e+00
<ENDHMM>
~h "w"
<BEGINHMM>
<NUMSTATES> 5
<STATE> 2
<MEAN> 39
 2.704545e+00 -1.228147e-01 -4.968801e+00 -1.380896e+01 -4.782731e+00 2.186280e+00 -4.163951e+00 -2.702344e+00 -1.682001e+00 2.019239e+00 3.584529e+00 -4.245311e+00 5.771896e+01 6.210364e-01 1.002813e+00 4.929215e-02 -9.675294e-01 -7.834880e-01 1.765993e-01 -2.809296e-02 -2.348484e-01 -6.372268e-01 2.256729e-02 5.543633e-01 6.621976e-01 -3.870490e-01 -1.161442e-01 -2.564858e-01 -4.308927e-02 -1.245303e-02 4.034164e-03 -4.051922e-02 6.238784e-02 2.104812e-01 5.258598e-02 -6.529264e-02 -1.133436e-01 -9.128188e-02 1.800078e-01
<VARIANCE> 39
 1.501777e+01 4.209296e+01 3.810366e+01 7.299883e+01 4.418085e+01 3.671030e+01 4.169730e+01 3.073970e+01 3.332632e+01 2.720834e+01 2.632281e+01 2.177718e+01 2.579776e+01 6.194619e-01 9.985263e-01 9.288896e-01 1.630163e+00 1.700709e+00 2.480130e+00 1.484108e+00 1.670845e+00 1.353219e+00 1.414819e+00 1.575802e+00 1.107438e+00 5.902510e-01 7.700539e-02 1.812163e-01 2.014414e-01 3.508794e-01 2.946230e-01 4.075218e-01 2.872286e-01 3.450000e-01 2.729441e-01 2.830605e-01 3.246786e-01 2.626592e-01 8.910272e-02
<GCONST> 1.011837e+02
<STATE> 3
<MEAN> 39
 3.973931e+00 3.190144e+00 -5.817900e+00 -1.700694e+01 -8.342703e+00 3.693038e+00 -5.150058e+00 -2.635340e+00 -4.561717e+00 1.489556e+00 3.798984e+00 -2.083441e+00 5.578711e+01 3.331995e-01 -1.026638e+00 -1.053430e+00 -2.095026e+00 2.061018e-01 1.277449e+00 -1.180601e-01 -2.903433e-01 -3.332175e-01 6.096426e-01 4.431503e-01 -8.381705e-01 1.402726e+00 -3.538582e-01 -5.755816e-01 -7.006600e-02 2.810877e-01 5.784153e-01 3.667254e-02 1.572751e-02 9.666107e-02 4.643215e-01 1.186040e-01 -3.056847e-01 -5.476995e-01 2.138662e-01
<VARIANCE> 39
 2.141137e+01 4.664673e+01 4.066108e+01 9.780465e+01 5.193253e+01 4.328881e+01 4.027628e+01 3.560777e+01 3.969749e+01 3.536358e+01 3.415654e+01 2.267531e+01 5.224256e+01 1.893411e+00 2.017390e+00 1.409895e+00 3.941604e+00 3.689124e+00 3.822279e+00 2.770308e+00 2.690748e+00 3.264219e+00 2.506124e+00 2.627564e+00 2.252803e+00 1.436178e+00 2.270530e-01 2.040475e-01 2.743250e-01 7.621275e-01 4.476042e-01 5.718958e-01 3.955682e-01 4.308524e-01 4.517590e-01 4.690039e-01 4.366004e-01 3.652262e-01 1.756432e-01
<GCONST> 1.187694e+02
<STATE> 4
<MEAN> 39
 1.880294e+00 -3.992961e+00 -6.723320e+00 -2.072932e+01 -2.834431e+00 6.169502e+00 -4.235185e+00 -2.737130e+00 -2.194866e+00 4.859115e+00 4.196284e+00 -8.899339e+00 6.155980e+01 -6.024615e-01 -1.170870e+00 -2.350583e-01 7.586143e-01 1.082403e+00 -1.787061e-01 2.812400e-02 4.273343e-01 1.005136e+00 -2.201202e-01 -1.023466e+00 -1.223643e+00 4.331629e-01 -4.087066e-02 2.076052e-01 1.841394e-01 4.276176e-01 -1.407373e-01 -3.917815e-01 5.275916e-02 1.261392e-01 3.774380e-02 -3.581933e-01 -2.029861e-01 3.343301e-01 -2.489839e-01
<VARIANCE> 39
 1.301001e+01 4.983626e+01 3.955809e+01 6.155769e+01 4.413896e+01 5.177390e+01 5.445015e+01 3.937084e+01 6.720914e+01 4.612050e+01 4.329300e+01 3.628130e+01 2.199093e+01 3.807659e-01 1.567221e+00 8.276878e-01 1.861794e+00 1.891603e+00 1.900356e+00 1.442798e+00 1.585278e+00 2.265652e+00 1.938508e+00 1.739580e+00 2.268713e+00 1.466490e+00 8.023910e-02 2.298057e-01 1.716280e-01 4.244888e-01 3.358454e-01 4.028138e-01 2.600225e-01 2.902708e-01 3.795193e-01 3.337225e-01 2.869008e-01 3.965842e-01 1.341086e-01
<GCONST> 1.076557e+02
<TRANSP> 5
 0.000000e+00 1.000000e+00 0.000000e+00 0.000000e+00 0.000000e+00
 0.000000e+00 7.443452e-01 2.556548e-01 0.000000e+00 0.000000e+00
 0.000000e+00 0.000000e+00 6.081302e-01 3.918698e-01 0.000000e+00
 0.000000e+00 0.000000e+00 0.000000e+00 7.180310e-01 2.819690e-01
 0.000000e+00 0.000000e+00 0.000000e+00 0.000000e+00 0.000000e+00
<ENDHMM>
~h "y"
<BEGINHMM>
<NUMSTATES> 5
<STATE> 2
<MEAN> 39
 -5.080633e+00 2.589304e-01 8.889534e+00 -1.218523e+01 -1.048346e+01 -7.944170e+00 -5.175071e+00 -1.766339e+00 -4.021154e+00 -4.194667e-01 1.661180e-02 -1.917678e+00 5.972754e+01 -1.205164e-01 -3.529890e-01 8.879552e-01 -1.005415e+00 -1.104429e+00 -2.773579e-01 3.614358e-01 4.575153e-01 -3.238592e-01 3.593940e-01 5.340811e-01 9.731721e-03 9.854546e-01 8.396075e-02 -2.998923e-01 -4.801634e-01 1.855001e-01 1.961253e-01 1.294828e-01 1.788926e-01 2.176807e-01 1.558769e-01 -1.009996e-01 -1.194696e-01 -1.328830e-01 -3.296244e-02
<VARIANCE> 39
 2.450214e+01 7.280807e+01 6.179393e+01 8.631200e+01 6.165482e+01 5.129018e+01 4.454340e+01 7.263500e+01 4.104417e+01 5.149325e+01 5.411744e+01 2.347235e+01 5.165935e+01 1.309822e+00 3.237811e+00 4.046466e+00 3.719149e+00 2.856919e+00 3.031639e+00 3.212188e+00 4.602216e+00 2.742006e+00 2.517298e+00 2.156332e+00 1.673005e+00 2.032794e+00 1.581945e-01 3.313445e-01 5.151554e-01 6.233034e-01 6.577629e-01 4.597438e-01 5.204732e-01 5.393908e-01 4.291777e-01 4.432048e-01 4.196048e-01 2.925284e-01 2.127844e-01
<GCONST> 1.237115e+02
<STATE> 3
<MEAN> 39
 -5.189305e+00 -5.791087e+00 9.393321e+00 -1.320378e+01 -1.312471e+01 -9.643324e+00 -1.283450e+00 1.977675e+00 -3.991182e+00 2.314150e-01 2.639940e+00 -3.767970e+00 6.408050e+01 1.454591e-01 -6.800941e-01 -5.383978e-01 7.567842e-02 1.144008e-01 8.331022e-03 6.314759e-01 8.386390e-01 5.302584e-02 -2.655177e-01 -3.768557e-02 -2.106916e-01 2.444948e-01 8.967514e-02 -6.401120e-02 -3.628095e-01 1.752601e-01 4.638053e-01 9.503298e-02 -1.021974e-01 7.991693e-02 1.246442e-01 -1.929540e-01 -2.932518e-01 4.828628e-04 -8.483543e-02
<VARIANCE> 39
 2.544498e+01 3.945147e+01 3.677974e+01 6.858389e+01 3.866048e+01 3.508283e+01 3.949887e+01 6.866556e+01 3.448542e+01 3.934085e+01 4.063908e+01 1.751077e+01 3.162734e+01 2.619590e-01 1.624800e+00 2.085011e+00 1.024619e+00 1.570210e+00 1.128286e+00 1.932311e+00 2.817111e+00 1.532507e+00 1.827248e+00 1.317289e+00 1.008265e+00 3.017613e-01 4.091971e-02 1.485680e-01 1.337625e-01 1.518884e-01 2.557736e-01 2.105659e-01 3.399082e-01 3.890825e-01 2.536691e-01 2.616468e-01 2.097750e-01 1.912835e-01 5.781334e-02
<GCONST> 9.833851e+01
<STATE> 4
<MEAN> 39
 -1.039897e+00 -7.809981e+00 -1.363877e+00 -5.567474e+00 -1.259343e+01 -3.169711e+00 1.414981e+00 3.248784e+00 -2.597651e+00 -4.455996e+00 2.190421e-01 -3.579941e+00 6.095253e+01 2.181477e-01 -5.619541e-01 -1.056163e+00 6.093800e-01 1.171591e+00 2.304458e-01 -5.245491e-02 2.621017e-01 1.969519e-01 -4.864896e-01 -5.755024e-01 -6.287364e-02 -4.962012e-02 1.538841e-02 1.979851e-01 7.225390e-02 -1.474212e-02 1.761622e-01 6.168385e-02 -3.062225e-01 -3.016059e-01 4.467427e-02 1.502075e-01 -4.284230e-02 1.091490e-02 -1.595259e-01
<VARIANCE> 39
 1.478784e+01 3.085095e+01 6.378263e+01 8.086871e+01 4.016278e+01 9.536645e+01 3.131039e+01 5.652985e+01 4.451088e+01 2.682922e+01 3.456756e+01 1.415401e+01 2.619543e+01 2.864517e-01 8.595363e-01 1.642249e+00 1.716732e+00 1.723749e+00 1.385828e+00 1.659282e+00 1.841564e+00 1.466198e+00 1.430843e+00 1.667963e+00 9.488565e-01 2.333633e-01 3.510858e-02 1.261053e-01 1.382072e-01 1.755018e-01 2.241588e-01 2.353944e-01 2.745641e-01 3.837349e-01 2.160126e-01 2.217525e-01 2.046505e-01 1.608437e-01 4.856573e-02
<GCONST> 9.618067e+01
<TRANSP> 5
 0.000000e+00 1.000000e+00 0.000000e+00 0.000000e+00 0.000000e+00
 0.000000e+00 6.091096e-01 3.908903e-01 0.000000e+00 0.000000e+00
 0.000000e+00 0.000000e+00 6.954305e-01 3.045695e-01 0.000000e+00
 0.000000e+00 0.000000e+00 0.000000e+00 6.653210e-01 3.346790e-01
 0.000000e+00 0.000000e+00 0.000000e+00 0.000000e+00 0.000000e+00
<ENDHMM>
~h "z"
<BEGINHMM>
<NUMSTATES> 5
<STATE> 2
<MEAN> 39
 -5.842498e+00 2.024523e+00 -1.019281e+00 -2.771624e+00 -2.805133e+00 9.274682e-01 -3.752995e+00 -2.015072e+00 -1.543498e+00 5.811119e-01 -2.517364e-01 -1.725380e+00 4.457545e+01 -5.665075e-01 2.024149e-01 -2.332227e-01 -2.546257e-02 -1.376672e-01 1.415321e-01 4.471404e-01 1.221814e-01 6.167328e-02 5.851707e-02 -9.760918e-02 7.732069e-02 -6.004168e-01 -6.953718e-02 2.572546e-02 9.910110e-02 -2.007023e-02 -4.044760e-02 -2.790267e-02 2.731420e-02 -2.759955e-02 -3.505813e-02 -2.204813e-02 7.089557e-02 -2.594593e-02 7.111591e-02
<VARIANCE> 39
 4.658289e+01 3.690528e+01 1.944689e+01 1.811528e+01 2.386435e+01 4.379332e+01 2.267317e+01 2.366905e+01 1.883979e+01 2.363542e+01 1.389434e+01 1.034242e+01 4.577502e+01 3.927510e-01 4.114848e-01 3.892411e-01 6.691954e-01 8.699433e-01 9.428462e-01 1.204087e+00 1.323234e+00 1.081625e+00 1.007033e+00 8.799555e-01 6.646670e-01 3.174254e-01 1.078429e-01 6.940340e-02 6.789414e-02 1.538838e-01 2.224011e-01 1.837220e-01 2.734436e-01 2.631532e-01 2.050587e-01 1.492958e-01 1.676288e-01 1.651480e-01 3.255568e-02
<GCONST> 8.283653e+01
<STATE> 3
<MEAN> 39
 -1.219501e+01 3.783219e+00 3.197833e+00 -3.048238e+00 -7.867293e-01 -3.037205e+00 -2.055883e+00 -1.604045e+00 9.366300e-01 -4.378878e+00 1.762913e+00 -1.367172e+00 5.246107e+01 -7.229361e-01 -2.407801e-01 2.000052e-01 6.249123e-02 -3.811434e-01 -5.801030e-01 1.958238e-01 4.680231e-01 3.141660e-01 -9.842555e-02 3.364383e-02 -2.210223e-01 4.778969e-01 6.593911e-01 -3.285650e-01 1.109377e-01 -2.400110e-01 -2.785315e-01 -2.119582e-01 -2.155741e-01 2.490352e-01 -5.065202e-02 2.244131e-01 -1.178777e-02 -1.965178e-01 3.222548e-01
<VARIANCE> 39
 4.039001e+01 4.317979e+01 1.761844e+01 1.768193e+01 2.992977e+01 3.546264e+01 3.518282e+01 2.342508e+01 3.607406e+01 2.989928e+01 1.602756e+01 1.535534e+01 3.587012e+01 7.027130e+00 2.152895e+00 1.106776e+00 2.104434e+00 2.311725e+00 3.327535e+00 3.516406e+00 2.099512e+00 1.694825e+00 1.789851e+00 1.652604e+00 1.480528e+00 9.732580e-01 9.506488e-01 3.249771e-01 2.589669e-01 4.387330e-01 4.172241e-01 7.581570e-01 7.180148e-01 4.893927e-01 3.405018e-01 3.598929e-01 3.081563e-01 3.241166e-01 2.605216e-01
<GCONST> 1.129177e+02
<STATE> 4
<MEAN> 39
 -6.152383e+00 -8.461142e-01 4.762508e+00 -4.316408e+00 -1.540954e+00 -9.016181e+00 -1.657780e+00 6.966469e+00 -1.603623e+00 1.582081e-01 -4.624589e-01 -7.664067e+00 5.570522e+01 1.524469e+00 -8.817118e-01 3.494926e-01 -7.106931e-01 -1.333847e+00 -1.126739e+00 -5.479369e-01 6.931373e-01 -4.163367e-02 7.853761e-01 8.610087e-02 -7.888767e-01 1.254687e+00 -1.416241e-01 -6.240655e-02 -4.984426e-02 -1.156898e-01 2.184892e-02 5.509180e-02 -3.410865e-02 -1.061668e-01 -7.126616e-02 -1.911676e-02 -5.448280e-02 -1.217123e-01 5.281920e-02
<VARIANCE> 39
 2.116972e+01 4.986942e+01 1.196364e+01 2.019949e+01 4.566377e+01 2.892168e+01 1.246954e+01 4.587547e+01 3.865277e+01 3.848447e+01 8.624556e+00 3.753925e+01 4.346118e+01 4.505476e+00 3.336609e+00 1.383910e+00 2.475495e+00 2.672322e+00 3.158843e+00 1.377587e+00 3.693534e+00 2.005297e+00 3.637506e+00 1.223260e+00 3.023723e+00 2.690337e+00 4.369483e-01 2.947133e-01 1.047971e-01 2.386333e-01 3.010190e-01 4.069544e-01 2.162887e-01 2.833005e-01 3.330733e-01 3.358855e-01 1.294301e-01 4.142461e-01 3.196581e-01
<GCONST> 1.096180e+02
<TRANSP> 5
 0.000000e+00 1.000000e+00 0.000000e+00 0.000000e+00 0.000000e+00
 0.000000e+00 8.489095e-01 1.510905e-01 0.000000e+00 0.000000e+00
 0.000000e+00 0.000000e+00 8.108436e-01 1.891564e-01 0.000000e+00
 0.000000e+00 0.000000e+00 0.000000e+00 6.556553e-01 3.443447e-01
 0.000000e+00 0.000000e+00 0.000000e+00 0.000000e+00 0.000000e+00
<ENDHMM>
~h "ai"
<BEGINHMM>
<NUMSTATES> 5
<STATE> 2
<MEAN> 39
 -1.993312e+00 -1.115091e+01 -1.821863e+00 -1.081530e+01 -4.824912e+00 -5.394318e+00 -3.171544e+00 7.062828e+00 -1.314513e-01 -2.979271e+00 -3.041510e+00 -5.916227e+00 6.441160e+01 -3.613180e-01 -5.536314e-01 1.020574e+00 1.921618e-01 -1.083397e+00 -7.249616e-01 8.900414e-01 9.186206e-01 -5.947078e-01 -6.626302e-01 3.896893e-01 5.551950e-01 3.707066e-01 -9.053748e-02 5.656911e-01 2.539723e-01 8.042667e-02 -1.595857e-01 -1.468777e-03 -1.938190e-02 -4.804543e-01 -1.091531e-01 2.893966e-01 3.481763e-01 8.832017e-02 -3.680241e-01
<VARIANCE> 39
 1.486638e+01 3.864991e+01 4.403718e+01 4.677779e+01 5.092131e+01 4.075447e+01 3.679365e+01 4.557139e+01 5.225466e+01 3.666949e+01 3.116360e+01 2.858147e+01 3.347465e+01 2.790372e-01 1.288954e+00 1.358182e+00 1.337986e+00 2.003907e+00 2.146637e+00 1.852349e+00 1.883140e+00 1.546479e+00 1.644725e+00 1.920422e+00 1.191866e+00 3.425757e-01 1.260961e-01 1.954422e-01 1.865702e-01 2.658131e-01 3.255405e-01 3.147018e-01 3.247642e-01 4.328026e-01 2.998748e-01 3.776155e-01 3.380815e-01 3.102815e-01 1.322941e-01
<GCONST> 1.041547e+02
<STATE> 3
<MEAN> 39
 -3.330028e+00 -7.732028e+00 4.545784e+00 -1.035360e+01 -1.325442e+01 -7.363280e+00 -9.417455e-01 5.433824e+00 -3.677784e+00 -1.461443e+00 1.404338e+00 -4.797850e+00 6.291965e+01 -2.963312e-01 9.126725e-01 1.338375e+00 -3.092531e-01 -9.237285e-01 -1.573393e-01 -1.800645e-01 -1.025616e+00 -3.756605e-01 7.210433e-01 5.309868e-01 9.331080e-02 -3.040805e-01 6.395915e-02 1.573048e-01 -1.563698e-01 8.056588e-02 3.577304e-01 1.190694e-01 -2.405186e-01 -2.297895e-01 9.733627e-02 3.013802e-02 -2.485737e-01 1.079135e-02 -1.760611e-01
<VARIANCE> 39
 1.648545e+01 3.111468e+01 6.548866e+01 5.694075e+01 4.099690e+01 5.142457e+01 3.136329e+01 5.700226e+01 4.645179e+01 3.205209e+01 4.098008e+01 1.982864e+01 2.880646e+01 1.969689e-01 6.589764e-01 9.170938e-01 1.243570e+00 1.337845e+00 1.227432e+00 1.742720e+00 1.656763e+00 1.438471e+00 1.618735e+00 1.501302e+00 9.398420e-01 1.974332e-01 3.385594e-02 9.711429e-02 1.228032e-01 1.710470e-01 1.926091e-01 2.049888e-01 2.665533e-01 3.019358e-01 2.167565e-01 2.679108e-01 1.985895e-01 1.762197e-01 4.491967e-02
<GCONST> 9.322970e+01
<STATE> 4
<MEAN> 39
 -5.206331e+00 -2.237482e+00 1.002703e+01 -1.139485e+01 -1.222248e+01 -9.282743e+00 -2.674284e+00 -1.387344e+00 -4.339742e+00 1.048785e+00 1.092230e-01 -3.595474e+00 5.936044e+01 1.818864e-01 6.866461e-01 -3.244846e-01 7.987566e-01 7.655881e-01 2.907665e-01 -7.365052e-02 -5.174157e-01 1.520426e-01 -1.306621e-01 -3.899398e-01 1.125229e-01 -1.237620e+00 1.070865e-02 -6.128072e-02 -2.803560e-01 1.343849e-01 1.758528e-01 9.216613e-02 4.731835e-02 1.162036e-01 9.979295e-02 -1.024187e-01 -3.452895e-02 -2.224653e-02 -1.124054e-01
<VARIANCE> 39
 1.995125e+01 3.391318e+01 3.943385e+01 7.619002e+01 5.051522e+01 4.151442e+01 3.648605e+01 4.753372e+01 3.193849e+01 2.984717e+01 4.749935e+01 2.460185e+01 4.291592e+01 5.463426e-01 1.003284e+00 1.428006e+00 1.501872e+00 1.641553e+00 1.623202e+00 1.872891e+00 2.358716e+00 1.713270e+00 1.604382e+00 1.719897e+00 1.245914e+00 6.612395e-01 9.373367e-02 1.563049e-01 2.229317e-01 2.757533e-01 3.128224e-01 2.810154e-01 3.424394e-01 3.977454e-01 3.320200e-01 3.412178e-01 3.384764e-01 2.332222e-01 1.200878e-01
<GCONST> 1.047047e+02
<TRANSP> 5
 0.000000e+00 1.000000e+00 0.000000e+00 0.000000e+00 0.000000e+00
 0.000000e+00 7.010683e-01 2.989317e-01 0.000000e+00 0.000000e+00
 0.000000e+00 0.000000e+00 7.733409e-01 2.266591e-01 0.000000e+00
 0.000000e+00 0.000000e+00 0.000000e+00 7.997418e-01 2.002582e-01
 0.000000e+00 0.000000e+00 0.000000e+00 0.000000e+00 0.000000e+00
<ENDHMM>
~h "au"
<BEGINHMM>
<NUMSTATES> 5
<STATE> 2
<MEAN> 39
 8.756928e-01 -4.300841e+00 -9.519559e+00 -1.872375e+01 -2.668201e+00 8.617566e-01 -7.677023e+00 7.501670e-01 -3.904770e+00 -4.224826e-01 -3.516191e+00 -6.763748e+00 6.000134e+01 2.022589e-01 3.981207e-01 -1.527847e-01 -3.931106e-01 5.837525e-02 2.487795e-01 -1.361670e-01 -2.409071e-01 -1.756114e-01 1.804216e-01 3.267044e-01 1.656082e-01 -2.746630e-01 -2.154494e-02 1.228305e-01 1.163150e-01 1.603670e-01 -6.736563e-02 -9.112605e-02 -3.456512e-02 -1.164139e-01 3.052302e-03 1.222324e-02 4.649955e-02 8.424889e-02 -1.285359e-01
<VARIANCE> 39
 1.298917e+01 4.902947e+01 5.585021e+01 7.063310e+01 3.902648e+01 4.907206e+01 3.609506e+01 3.582543e+01 6.396840e+01 5.680622e+01 4.238088e+01 2.955770e+01 3.206127e+01 2.570647e-01 6.561742e-01 7.494530e-01 1.059524e+00 1.347893e+00 1.498699e+00 1.167870e+00 1.401212e+00 1.289413e+00 1.466741e+00 1.333545e+00 1.226336e+00 2.276575e-01 5.056112e-02 1.264085e-01 1.009860e-01 2.044988e-01 2.089495e-01 2.219712e-01 1.829524e-01 2.644317e-01 2.709941e-01 2.342853e-01 2.365715e-01 2.137503e-01 7.260207e-02
<GCONST> 9.537304e+01
<STATE> 3
<MEAN> 39
 2.089716e+00 -4.027102e-01 -6.640428e+00 -1.610572e+01 -4.107276e+00 3.162542e-02 -1.078340e+01 -4.197564e+00 -2.713638e+00 3.998399e+00 2.073762e+00 -3.952817e+00 5.810567e+01 -2.657383e-03 4.892614e-01 6.478948e-01 9.140976e-01 -6.548933e-02 -2.585509e-01 -4.422114e-01 -4.144776e-01 -9.439649e-02 -1.782379e-01 5.916077e-02 3.900307e-01 -6.882420e-01 -1.367072e-01 3.010478e-02 2.410550e-01 5.059152e-01 -2.719532e-03 -2.949440e-01 2.044409e-01 2.470720e-01 2.367403e-02 -1.654017e-01 -3.387251e-01 -7.018718e-02 -1.847337e-01
<VARIANCE> 39
 8.747747e+00 5.479561e+01 3.167827e+01 6.091985e+01 4.197842e+01 4.659270e+01 6.973250e+01 4.359062e+01 5.324422e+01 4.614536e+01 3.728471e+01 2.804128e+01 3.043382e+01 5.354449e-01 1.656148e+00 1.456639e+00 2.473328e+00 3.081006e+00 3.073589e+00 2.831446e+00 3.103296e+00 4.088372e+00 2.705190e+00 2.545527e+00 2.018533e+00 8.924000e-01 6.914456e-02 2.924315e-01 2.552800e-01 2.522449e-01 5.560216e-01 4.763570e-01 5.551058e-01 5.505477e-01 5.831773e-01 5.393032e-01 4.796474e-01 4.316337e-01 1.162608e-01
<GCONST> 1.146552e+02
<STATE> 4
<MEAN> 39
 -1.968106e+00 -1.304161e+00 -6.401350e+00 -9.486852e+00 -3.500099e-01 1.438063e+00 -4.323340e+00 6.510025e-01 -2.266017e+00 8.385344e-01 9.453679e-01 -4.761435e+00 4.904580e+01 -3.125828e-01 1.582622e-01 3.158147e-01 1.137687e+00 7.924682e-02 -2.217370e-01 2.741252e-01 1.208405e-01 3.794709e-02 -1.147006e-01 -3.079239e-01 -5.893644e-02 -8.242747e-01 -6.171894e-02 -4.500453e-02 -1.752194e-02 -2.512178e-02 8.922741e-03 -8.500481e-03 5.156086e-02 1.380251e-02 -6.619526e-02 -1.763158e-02 1.101299e-02 -2.253416e-03 6.131169e-02
<VARIANCE> 39
 2.228810e+01 3.923859e+01 4.416079e+01 9.798726e+01 6.642348e+01 3.718291e+01 5.050280e+01 4.888802e+01 2.914121e+01 3.729480e+01 2.266733e+01 3.199765e+01 5.325305e+01 3.933510e-01 1.305849e+00 1.281837e+00 1.642743e+00 1.495140e+00 2.045584e+00 1.610868e+00 1.931471e+00 1.837957e+00 1.450495e+00 1.527448e+00 1.271208e+00 9.259413e-01 4.778593e-02 1.749616e-01 1.713012e-01 1.735160e-01 2.937967e-01 3.128601e-01 3.228197e-01 3.293205e-01 3.019560e-01 2.681313e-01 2.582861e-01 2.248729e-01 8.697081e-02
<GCONST> 1.031682e+02
<TRANSP> 5
 0.000000e+00 1.000000e+00 0.000000e+00 0.000000e+00 0.000000e+00
 0.000000e+00 8.579767e-01 1.420233e-01 0.000000e+00 0.000000e+00
 0.000000e+00 0.000000e+00 7.055363e-01 2.944637e-01 0.000000e+00
 0.000000e+00 0.000000e+00 0.000000e+00 7.385204e-01 2.614796e-01
 0.000000e+00 0.000000e+00 0.000000e+00 0.000000e+00 0.000000e+00
<ENDHMM>
~h "ei"
<BEGINHMM>
<NUMSTATES> 5
<STATE> 2
<MEAN> 39
 -3.488625e+00 -1.329490e+01 3.871566e+00 -1.134869e+01 -5.287911e+00 -1.610649e+00 -7.315084e+00 1.008432e+01 -6.764105e+00 -1.326160e+00 -5.109651e+00 5.081027e-01 5.457730e+01 -2.778383e-01 -6.266932e-01 8.033136e-01 -1.495999e+00 -9.373615e-01 4.356912e-02 8.285882e-01 -9.640363e-02 1.142870e-01 1.210279e-01 -4.515512e-01 -2.931677e-01 6.850458e-01 8.324550e-02 2.220051e-01 -3.264951e-01 3.426442e-01 -2.208075e-01 -1.698412e-01 -9.182501e-02 -5.420814e-01 1.980783e-01 4.462563e-02 -4.424376e-03 -1.063649e-01 -1.650417e-01
<VARIANCE> 39
 1.665429e+00 3.164051e+01 1.084172e+01 2.883825e+01 2.772787e+01 3.125191e+01 1.138839e+01 1.997126e+01 1.146048e+01 6.248378e+00 1.479168e+01 5.068892e+00 7.444904e+00 1.873394e-01 4.978885e-01 1.553314e+00 8.227629e-01 8.017774e-01 5.709391e-01 5.593434e-01 2.473233e+00 9.184633e-01 7.186247e-01 5.849288e-01 5.125965e-01 2.684880e-01 1.129571e-01 1.328323e-01 1.181987e-01 2.769034e-01 3.002687e-01 1.474055e-01 2.783251e-01 2.561018e-01 2.500335e-01 2.098953e-01 1.604539e-01 1.221483e-01 7.793526e-02
<GCONST> 7.584631e+01
<STATE> 3
<MEAN> 39
 -2.352090e+00 -9.387200e+00 3.464687e+00 -1.040070e+01 -1.291449e+01 -4.150353e+00 -7.328740e+00 3.882055e+00 -4.951416e+00 3.479416e-01 -5.735614e+00 -2.236279e+00 5.340789e+01 1.970456e-01 1.110384e+00 -2.128770e-01 1.484491e+00 -4.013487e-01 7.848384e-01 -2.830965e-01 -5.948797e-01 1.266502e-01 -2.242052e-01 8.165508e-01 -3.459949e-01 -1.139435e+00 -9.586741e-02 8.181026e-02 1.300226e-01 2.242543e-01 2.638054e-01 1.671288e-01 5.600828e-02 1.857991e-01 -2.530727e-02 -2.003957e-01 2.089975e-02 3.813216e-02 -1.532111e-01
<VARIANCE> 39
 2.489933e+00 2.569795e+01 3.618637e+00 3.760785e+01 1.398255e+01 5.807805e+01 1.319411e+01 1.961212e+01 9.666059e+00 1.286855e+01 3.195738e+01 1.124746e+01 1.682782e+01 2.014793e-01 5.063289e-01 4.912112e-01 1.379622e+00 1.819293e+00 2.892931e+00 7.243896e-01 8.694204e-01 1.155868e+00 1.316540e+00 1.619736e+00 4.037811e-01 3.723743e-01 3.223488e-02 1.309424e-01 5.341914e-02 4.395515e-01 2.897030e-01 5.638225e-01 1.378625e-01 1.472765e-01 1.678796e-01 2.307345e-01 4.744177e-01 9.535850e-02 1.024925e-01
<GCONST> 8.051685e+01
<STATE> 4
<MEAN> 39
 -3.148310e+00 2.445633e+00 6.293771e+00 -1.506175e+01 -1.765883e+01 -8.812866e+00 -1.075489e+01 -4.514937e+00 -1.402426e+00 -9.984301e-01 -7.775225e+00 -1.542111e+00 5.496759e+01 -6.842821e-02 5.074825e-01 3.088589e-01 1.102254e+00 -2.719359e-02 1.502079e-01 -1.124884e-01 -3.894839e-02 -9.754123e-02 -2.577341e-01 2.454790e-01 3.497914e-02 -6.425570e-01 -2.088492e-01 1.160311e-01 -1.580406e-01 1.995852e-01 2.018253e-01 -2.494947e-01 3.061441e-01 1.166273e-01 -1.619933e-02 1.102126e-01 2.688999e-01 4.863759e-02 8.233032e-02
<VARIANCE> 39
 1.736253e+00 2.286717e+01 2.100691e+01 6.883329e+01 1.316941e+01 5.463426e+01 1.826690e+01 2.062733e+01 1.751003e+01 8.590539e+00 1.392139e+01 1.840928e+01 2.240263e+01 2.195986e-01 1.458968e-01 5.590010e-01 1.162535e+00 6.018440e-01 8.721209e-01 2.771332e+00 7.076200e-01 1.401358e+00 9.565120e-01 1.208308e+00 1.302706e+00 1.352310e-01 1.079890e-01 6.017804e-02 1.568347e-01 2.504478e-01 2.535216e-01 3.515929e-01 4.670674e-01 1.393925e-01 2.747951e-01 2.143868e-01 1.410878e-01 2.508203e-01 4.326838e-02
<GCONST> 8.098130e+01
<TRANSP> 5
 0.000000e+00 1.000000e+00 0.000000e+00 0.000000e+00 0.000000e+00
 0.000000e+00 7.391902e-01 2.608098e-01 0.000000e+00 0.000000e+00
