~o
<STREAMINFO> 1 39
<VECSIZE> 39<NULLD><MFCC_D_A_0><DIAGC>
~s "silst"
<MEAN> 39
 -1.138035e+01 -8.420990e-01 -3.277900e+00 -5.173377e-01 -7.043745e-02 5.921721e-01 -3.962245e-01 1.115062e+00 6.759732e-01 -4.876252e-01 4.630184e-01 3.729877e-01 4.093915e+01 -8.499239e-02 -1.839000e-01 4.906961e-03 -2.489047e-01 1.354599e-01 -1.593266e-01 -1.806815e-02 -4.892065e-02 -7.197317e-02 -8.517691e-03 -3.826570e-02 -2.562710e-02 4.751477e-01 -2.871205e-02 7.998206e-02 1.296441e-01 1.078568e-01 -6.600107e-02 -3.987290e-02 3.483489e-02 2.388075e-02 -5.620301e-03 8.593916e-02 -6.029633e-03 -7.166292e-03 -1.033157e-01
<VARIANCE> 39
 3.043575e+01 2.939618e+01 2.936475e+01 3.706058e+01 3.179826e+01 3.928009e+01 2.461653e+01 2.811924e+01 2.224867e+01 2.196549e+01 1.775793e+01 1.433013e+01 9.896066e+01 2.017399e+00 1.765037e+00 1.963421e+00 2.266263e+00 1.902444e+00 2.256364e+00 1.864113e+00 1.813547e+00 1.587660e+00 1.891631e+00 1.289522e+00 1.101354e+00 3.614656e+00 2.819725e-01 2.679654e-01 3.296383e-01 3.833917e-01 3.277966e-01 4.170008e-01 3.479283e-01 3.283946e-01 2.955289e-01 3.535231e-01 2.411673e-01 2.039071e-01 4.391368e-01
<GCONST> 1.087303e+02
~h "a"
<BEGINHMM>
<NUMSTATES> 5
<STATE> 2
<MEAN> 39
 -1.145037e+00 -8.957356e+00 -4.498966e+00 -1.102981e+01 -3.255615e+00 -3.986036e+00 -4.210502e+00 3.888128e+00 1.438630e+00 -1.542482e+00 -3.305478e+00 -6.913819e+00 6.294987e+01 2.478596e-01 -1.465364e+00 -4.209460e-01 -6.396196e-01 4.670382e-01 5.182567e-01 2.347150e-01 8.984063e-01 6.519657e-02 -5.041828e-01 -4.830701e-01 -5.259846e-01 1.098485e+00 -2.425605e-01 4.929138e-01 3.034513e-01 4.598966e-01 6.296509e-02 -4.090620e-02 -2.154632e-02 -4.264323e-01 -1.736767e-01 4.367202e-03 1.509195e-01 3.193514e-01 -5.882020e-01
<VARIANCE> 39
 1.816817e+01 4.328276e+01 5.348078e+01 5.352509e+01 6.327576e+01 5.874776e+01 5.158511e+01 5.588613e+01 5.352372e+01 4.484390e+01 3.947683e+01 3.753952e+01 3.809100e+01 1.287894e+00 2.214322e+00 2.129463e+00 2.827736e+00 3.110359e+00 2.874194e+00 2.881856e+00 3.199992e+00 2.523031e+00 2.614679e+00 2.316409e+00 2.152217e+00 1.572503e+00 2.648116e-01 3.784575e-01 3.185284e-01 4.452199e-01 5.525694e-01 4.728881e-01 4.833446e-01 6.039609e-01 4.794435e-01 4.531821e-01 4.336093e-01 3.884309e-01 2.755503e-01
<GCONST> 1.209932e+02
<STATE> 3
<MEAN> 39
 -2.171219e+00 -1.120397e+01 -3.807959e+00 -1.117387e+01 -1.580426e+00 -3.142562e+00 -2.666291e+00 3.465407e+00 -9.472508e-01 -3.334648e+00 -3.705814e+00 -5.502181e+00 6.375366e+01 7.927440e-02 1.616955e-01 1.301044e-01 2.606845e-01 5.041083e-02 -4.167880e-02 -3.635412e-02 -1.047637e-01 2.243575e-02 -1.195213e-02 9.387562e-03 1.291697e-01 -3.365833e-01 1.398536e-02 3.822863e-01 1.522322e-01 1.758576e-01 -1.214016e-01 -1.121447e-01 -1.138044e-01 -2.026151e-01 3.484858e-02 1.391886e-01 9.991910e-02 1.021159e-01 -3.117409e-01
<VARIANCE> 39
 1.741152e+01 4.074014e+01 4.772229e+01 5.163400e+01 6.226169e+01 4.311328e+01 4.504464e+01 4.740633e+01 4.544736e+01 4.362291e+01 2.876547e+01 2.921959e+01 3.456820e+01 3.098829e-01 7.933756e-01 8.542582e-01 1.036259e+00 1.506662e+00 1.501847e+00 1.420251e+00 1.482606e+00 1.258633e+00 1.284441e+00 1.125549e+00 1.027395e+00 4.469215e-01 7.498370e-02 1.696635e-01 1.431895e-01 2.160930e-01 2.375152e-01 2.205013e-01 2.681677e-01 3.361153e-01 2.584403e-01 2.500091e-01 2.236422e-01 1.948455e-01 1.117151e-01
<GCONST> 9.807808e+01
<STATE> 4
<MEAN> 39
 -7.203450e-01 -7.180209e+00 -2.861102e+00 -8.820559e+00 -3.604416e+00 -4.425263e+00 -4.462935e+00 3.200224e+00 1.073575e+00 -1.576515e+00 -2.876979e+00 -5.557558e+00 5.987201e+01 5.755834e-02 1.419661e+00 6.312726e-01 1.048009e+00 3.663135e-03 5.179097e-03 -3.114144e-01 -8.391254e-01 -6.761999e-02 2.380905e-01 1.509419e-01 3.762690e-01 -1.587597e+00 -1.404109e-01 1.564790e-01 3.497999e-02 1.459048e-01 7.578859e-02 1.489488e-01 7.978366e-02 -1.631273e-01 -1.117674e-01 -6.998591e-02 -2.050980e-03 1.551790e-02 -1.884825e-01
<VARIANCE> 39
 1.413085e+01 3.742802e+01 5.222273e+01 4.724566e+01 6.137392e+01 5.648986e+01 4.755853e+01 4.802635e+01 4.635483e+01 4.455591e+01 3.533976e+01 3.409970e+01 3.934114e+01 7.084025e-01 1.094898e+00 1.420472e+00 1.587666e+00 1.990246e+00 1.993379e+00 2.077094e+00 2.698636e+00 2.166888e+00 1.834169e+00 1.721039e+00 1.340710e+00 8.525109e-01 1.234127e-01 2.193593e-01 2.328663e-01 2.802441e-01 3.658991e-01 3.764451e-01 3.537281e-01 4.584931e-01 3.451453e-01 3.396977e-01 3.153137e-01 2.564702e-01 1.585302e-01
<GCONST> 1.091204e+02
<TRANSP> 5
 0.000000e+00 1.000000e+00 0.000000e+00 0.000000e+00 0.000000e+00
 0.000000e+00 4.966918e-01 5.033082e-01 0.000000e+00 0.000000e+00
 0.000000e+00 0.000000e+00 7.117149e-01 2.882852e-01 0.000000e+00
 0.000000e+00 0.000000e+00 0.000000e+00 5.025144e-01 4.974856e-01
 0.000000e+00 0.000000e+00 0.000000e+00 0.000000e+00 0.000000e+00
<ENDHMM>
~h "b"
<BEGINHMM>
<NUMSTATES> 5
<STATE> 2
<MEAN> 39
 2.089188e-01 5.172563e+00 3.363784e+00 -1.885027e+00 -2.398165e+00 -1.427153e+00 -4.601117e+00 -3.552636e+00 -2.991450e+00 -1.448660e+00 -1.717404e+00 -3.813750e+00 5.048761e+01 7.753433e-02 7.526654e-01 1.618230e-01 5.490551e-01 4.207019e-01 3.652859e-01 4.560010e-01 -1.208436e-01 -1.703428e-01 -2.879923e-01 -2.751710e-01 4.300461e-02 -6.130390e-01 -6.764019e-02 -3.861098e-01 -1.573336e-01 -3.889233e-01 -2.734081e-01 -2.848888e-01 -2.592215e-01 6.855831e-02 8.118500e-02 1.305571e-01 2.277144e-01 -3.047534e-02 4.958324e-01
<VARIANCE> 39
 1.794426e+01 3.230182e+01 3.163029e+01 3.543143e+01 3.233155e+01 2.617292e+01 2.796162e+01 2.311422e+01 2.743682e+01 2.342093e+01 2.086852e+01 1.700360e+01 3.000146e+01 6.389001e-01 9.898852e-01 1.178656e+00 1.571177e+00 1.343894e+00 1.384367e+00 1.628675e+00 1.586555e+00 1.551759e+00 1.533728e+00 1.430118e+00 9.553692e-01 8.782143e-01 1.279339e-01 2.072481e-01 2.606854e-01 3.450415e-01 2.818430e-01 3.324772e-01 3.594580e-01 4.008182e-01 3.744923e-01 3.651654e-01 3.427795e-01 2.261321e-01 1.295928e-01
<GCONST> 9.985545e+01
<STATE> 3
<MEAN> 39
 2.474426e-01 6.262376e+00 2.743422e+00 -1.295716e+00 -2.214141e+00 -7.483039e-01 -4.308040e+00 -4.180165e+00 -3.914643e+00 -1.931480e+00 -1.827384e+00 -3.387095e+00 4.894715e+01 2.653297e-01 -9.342184e-01 -7.488070e-01 -1.158132e+00 -3.504935e-01 -8.521274e-01 -9.496117e-01 -1.338435e-01 1.704653e-01 6.879576e-01 8.253446e-01 -2.771024e-01 1.693914e+00 -1.306285e-01 -6.998414e-01 -2.142103e-01 -6.926116e-01 -3.611076e-01 -3.625510e-01 -3.499182e-01 2.549287e-01 3.068915e-01 4.008952e-01 1.790535e-01 -1.641218e-01 7.254364e-01
<VARIANCE> 39
 3.580697e+01 3.798877e+01 3.490328e+01 3.953358e+01 3.598051e+01 3.215158e+01 3.213997e+01 3.046494e+01 3.092567e+01 3.098747e+01 2.752455e+01 2.120398e+01 5.022830e+01 2.395982e+00 3.051466e+00 3.191544e+00 4.225015e+00 2.749730e+00 3.450081e+00 3.118683e+00 3.247086e+00 3.550258e+00 3.241899e+00 3.279659e+00 2.257236e+00 2.026176e+00 3.157984e-01 4.738499e-01 4.739036e-01 5.297117e-01 4.775708e-01 4.904502e-01 5.267934e-01 6.652028e-01 6.529714e-01 5.408081e-01 5.518131e-01 4.163127e-01 2.711583e-01
<GCONST> 1.219221e+02
<STATE> 4
<MEAN> 39
 9.241760e-01 2.251341e-01 -5.172464e-01 -7.994824e+00 -3.789632e+00 -3.954432e+00 -8.654078e+00 -3.736878e+00 -1.737973e+00 2.556808e+00 1.891386e+00 -5.801606e+00 5.730886e+01 -3.727782e-01 -2.194975e+00 -8.039936e-01 -2.085956e+00 -9.936324e-01 -1.089886e+00 -8.708487e-01 1.295376e+00 1.154290e+00 1.077972e+00 2.947437e-01 -8.215184e-01 2.452453e+00 -1.726164e-01 1.043961e-01 3.960541e-01 2.468860e-01 -3.883336e-02 1.273663e-01 4.136719e-01 2.814165e-01 -5.045137e-02 -3.865018e-01 -4.679567e-01 1.367461e-01 -2.347937e-01
<VARIANCE> 39
 1.852155e+01 3.487800e+01 2.932637e+01 6.708076e+01 3.640036e+01 4.660970e+01 4.053493e+01 4.134478e+01 5.214986e+01 4.864687e+01 4.548210e+01 3.376065e+01 3.502465e+01 1.768682e+00 3.579114e+00 4.105699e+00 5.161039e+00 3.477519e+00 4.023932e+00 4.541182e+00 5.354406e+00 5.811326e+00 4.941595e+00 4.884189e+00 3.909416e+00 2.255548e+00 2.054861e-01 4.451299e-01 3.023711e-01 8.391016e-01 5.080450e-01 5.667174e-01 6.080210e-01 5.775977e-01 5.725839e-01 6.869623e-01 6.407022e-01 4.776089e-01 3.290216e-01
<GCONST> 1.278894e+02
<TRANSP> 5
 0.000000e+00 1.000000e+00 0.000000e+00 0.000000e+00 0.000000e+00
 0.000000e+00 6.550767e-01 3.449233e-01 0.000000e+00 0.000000e+00
 0.000000e+00 0.000000e+00 4.721156e-01 5.278844e-01 0.000000e+00
 0.000000e+00 0.000000e+00 0.000000e+00 3.680294e-01 6.319706e-01
 0.000000e+00 0.000000e+00 0.000000e+00 0.000000e+00 0.000000e+00
<ENDHMM>
~h "c"
<BEGINHMM>
<NUMSTATES> 5
<STATE> 2
<MEAN> 39
 -6.948390e+00 4.121811e+00 1.839376e+00 -2.256952e+00 -4.391840e+00 -6.111503e+00 -2.614831e+00 -1.279188e+00 -5.620309e-01 -1.654221e+00 -1.251446e+00 -1.740771e+00 4.927772e+01 -2.098704e+00 2.461327e-01 -8.027263e-01 -2.458766e-01 5.979362e-01 1.211659e-01 3.481522e-01 -2.795906e-01 1.949974e-01 -1.648100e-01 2.422540e-01 7.472371e-02 -2.023612e-01 -3.750225e-01 -6.914840e-02 -7.325919e-02 -3.367759e-01 -1.199433e-01 -1.917068e-01 2.782780e-02 2.699042e-02 4.055684e-02 -6.251652e-02 1.221956e-01 3.736113e-02 7.448896e-01
<VARIANCE> 39
 2.496572e+01 3.319602e+01 3.319458e+01 3.423551e+01 3.597446e+01 4.314820e+01 2.534906e+01 2.952913e+01 2.792359e+01 2.532094e+01 1.925042e+01 1.988427e+01 3.737557e+01 2.931057e+00 2.409394e+00 2.585502e+00 2.801727e+00 2.197536e+00 2.485456e+00 2.147886e+00 2.100304e+00 2.035983e+00 1.916423e+00 1.669852e+00 1.305309e+00 3.915485e+00 4.787453e-01 3.639365e-01 4.249671e-01 3.881077e-01 3.760159e-01 4.899405e-01 3.720863e-01 4.521317e-01 4.260153e-01 3.270108e-01 3.126075e-01 2.516319e-01 3.869900e-01
<GCONST> 1.136862e+02
<STATE> 3
<MEAN> 39
 -1.878899e+01 5.030499e+00 -1.882394e-01 -5.704410e+00 -2.499745e+00 -7.272529e+00 -4.907596e-01 -2.173330e+00 1.960997e-01 -2.449040e+00 7.753848e-01 -1.240883e+00 5.562236e+01 1.934685e-01 -5.345834e-01 1.516312e-01 -4.647479e-01 -1.036264e+00 -8.856480e-01 1.949501e-01 6.357030e-01 1.627267e-01 -3.081957e-01 1.408893e-01 1.708833e-01 1.773478e+00 1.852754e+00 -6.698759e-01 1.392568e-01 9.789386e-02 -4.887487e-01 -5.985944e-02 -3.178542e-01 3.830999e-01 -2.446213e-02 5.603924e-02 -3.358434e-01 -2.069271e-01 -7.720151e-02
<VARIANCE> 39
 2.126429e+01 1.853685e+01 3.672096e+01 2.973424e+01 3.324538e+01 3.582787e+01 3.513710e+01 2.569561e+01 3.164742e+01 3.276237e+01 1.919458e+01 2.108226e+01 2.454821e+01 1.090042e+01 2.810673e+00 2.899424e+00 2.916615e+00 3.395050e+00 2.607798e+00 2.688065e+00 3.048507e+00 2.556252e+00 2.232892e+00 2.151223e+00 1.769942e+00 2.125798e+00 5.031089e-01 6.433570e-01 7.030062e-01 6.469053e-01 6.592346e-01 5.442372e-01 4.952183e-01 6.039666e-01 5.163890e-01 5.455384e-01 4.023849e-01 3.889225e-01 3.632838e-01
<GCONST> 1.200778e+02
<STATE> 4
<MEAN> 39
 -6.255068e+00 -1.410447e-01 2.141974e-01 -6.110138e+00 -8.412476e+00 -1.112019e+01 -1.204380e+00 2.464571e+00 8.456792e-01 -3.428307e+00 -1.743665e+00 -1.938511e+00 6.042047e+01 3.862815e+00 -2.774700e+00 -8.277406e-01 -8.787068e-01 -8.412026e-01 7.201219e-02 -5.354080e-01 1.728403e+00 3.276416e-01 -1.416241e-02 -9.747953e-01 -9.642530e-01 1.735461e+00 -4.761107e-01 -1.275690e-01 -3.533798e-01 -1.462863e-01 7.691025e-01 6.441547e-01 -6.655198e-02 -2.092126e-01 -7.301922e-02 1.283880e-01 1.239025e-02 -2.221207e-01 -2.536349e-01
<VARIANCE> 39
 2.788066e+01 3.059666e+01 4.398120e+01 2.741718e+01 3.879812e+01 2.705798e+01 4.312553e+01 3.496039e+01 2.475329e+01 2.827383e+01 1.626207e+01 1.254073e+01 3.893391e+01 2.537045e+00 3.610071e+00 3.298651e+00 3.125318e+00 4.493411e+00 3.055427e+00 2.964128e+00 4.488986e+00 2.410427e+00 3.582215e+00 1.997402e+00 1.940994e+00 1.453292e+00 7.267793e-01 4.488914e-01 4.070049e-01 3.865868e-01 4.581760e-01 3.914633e-01 3.301863e-01 5.077361e-01 3.938478e-01 4.614600e-01 4.210415e-01 3.041963e-01 2.812676e-01
<GCONST> 1.174640e+02
<TRANSP> 5
 0.000000e+00 1.000000e+00 0.000000e+00 0.000000e+00 0.000000e+00
 0.000000e+00 7.528595e-01 2.471406e-01 0.000000e+00 0.000000e+00
 0.000000e+00 0.000000e+00 6.939180e-01 3.060820e-01 0.000000e+00
 0.000000e+00 0.000000e+00 0.000000e+00 5.439292e-01 4.560708e-01
 0.000000e+00 0.000000e+00 0.000000e+00 0.000000e+00 0.000000e+00
<ENDHMM>
~h "d"
<BEGINHMM>
<NUMSTATES> 5
<STATE> 2
<MEAN> 39
 -6.105998e+00 9.440777e-01 1.944395e+00 -4.584836e-01 -2.618848e+00 -2.746060e+00 -1.957883e+00 1.438202e-01 -5.588902e-01 -1.628997e+00 -1.056441e+00 -1.555068e+00 4.567569e+01 3.075680e-03 5.371404e-01 1.831180e-01 4.129464e-01 3.260787e-01 1.683013e-01 1.514908e-01 -5.097731e-02 -6.870688e-02 -1.107246e-01 -1.913238e-01 -4.172990e-02 -5.179253e-01 -5.498594e-02 -1.905184e-01 1.826384e-02 -2.149422e-01 -1.612394e-01 -1.563618e-01 -5.268538e-02 6.338321e-02 -2.068960e-02 2.086349e-03 1.091794e-01 3.113722e-02 3.215795e-01
<VARIANCE> 39
 5.377954e+01 4.468330e+01 4.151996e+01 3.867352e+01 5.399133e+01 4.513983e+01 4.492327e+01 3.707295e+01 3.078120e+01 2.904846e+01 2.642651e+01 2.318748e+01 8.227236e+01 7.534038e-01 1.393294e+00 1.129398e+00 1.477029e+00 1.669474e+00 1.734493e+00 1.663679e+00 1.904280e+00 1.603929e+00 1.537459e+00 1.445454e+00 1.105331e+00 9.765471e-01 1.599116e-01 2.902704e-01 2.180106e-01 3.118025e-01 3.404615e-01 3.613419e-01 3.314189e-01 4.076615e-01 3.251872e-01 3.246866e-01 3.105734e-01 2.243557e-01 2.055226e-01
<GCONST> 1.074573e+02
<STATE> 3
<MEAN> 39
 3.711199e-01 4.689405e+00 5.336511e+00 7.955606e-02 -4.441334e+00 -4.800509e+00 -4.858512e+00 -9.929498e-01 -1.034217e+00 -3.363288e+00 -3.915199e+00 -3.381059e+00 5.074284e+01 -2.044778e-01 -8.541812e-01 5.699050e-01 -7.297756e-01 -6.752791e-01 -1.139730e+00 -3.802953e-01 3.637387e-01 -3.266498e-02 -1.872694e-01 5.429208e-01 4.396688e-01 1.509431e+00 -2.657169e-01 -7.757010e-01 -1.087960e-01 -7.924718e-01 -6.448259e-01 -4.363276e-01 -2.069291e-01 2.632646e-01 1.342644e-01 2.158746e-01 4.336490e-01 9.947130e-02 8.758870e-01
<VARIANCE> 39
 2.165454e+01 5.119432e+01 3.241016e+01 3.661793e+01 4.516569e+01 3.060385e+01 3.184444e+01 3.138322e+01 2.758332e+01 2.784171e+01 2.533728e+01 1.925676e+01 4.102425e+01 2.707351e+00 4.505172e+00 2.561828e+00 3.337755e+00 4.206930e+00 3.585195e+00 3.219138e+00 4.562585e+00 2.778653e+00 2.744295e+00 2.705309e+00 2.008715e+00 2.629591e+00 3.279900e-01 5.724813e-01 4.474583e-01 5.061599e-01 6.472953e-01 5.444196e-01 5.804401e-01 8.015551e-01 5.314586e-01 4.886194e-01 4.710963e-01 3.783721e-01 2.720553e-01
<GCONST> 1.218521e+02
<STATE> 4
<MEAN> 39
 -1.630913e+00 -3.014242e+00 5.873705e+00 -5.939943e+00 -9.592380e+00 -1.129770e+01 -7.099098e+00 2.791394e+00 5.380071e-01 -2.849912e+00 1.901044e-01 -1.039662e+00 6.003896e+01 -5.347008e-01 -1.602685e+00 -4.962105e-01 -2.086624e+00 -1.638342e+00 -1.062110e+00 -9.253814e-02 1.418031e+00 5.479667e-01 5.813614e-01 8.311650e-01 -2.841344e-01 2.346660e+00 1.185960e-01 3.621423e-01 -2.755922e-01 5.259148e-02 3.443373e-01 6.547716e-01 2.593709e-01 -1.466638e-01 -8.325395e-02 8.066087e-02 -3.418960e-01 -4.457456e-01 -3.769592e-01
<VARIANCE> 39
 1.718563e+01 3.623335e+01 3.387906e+01 4.513850e+01 5.216507e+01 3.937326e+01 5.447834e+01 6.196681e+01 4.612315e+01 3.570343e+01 2.483978e+01 2.288899e+01 3.312395e+01 1.565787e+00 3.655704e+00 3.958325e+00 3.282889e+00 4.037392e+00 3.554822e+00 4.517074e+00 6.103086e+00 3.858560e+00 2.996534e+00 3.449130e+00 2.594306e+00 1.982873e+00 1.479039e-01 4.277057e-01 3.495193e-01 6.214061e-01 8.276795e-01 6.018251e-01 6.420987e-01 7.046952e-01 4.803816e-01 5.142897e-01 4.485879e-01 3.580427e-01 2.949100e-01
<GCONST> 1.238338e+02
<TRANSP> 5
 0.000000e+00 1.000000e+00 0.000000e+00 0.000000e+00 0.000000e+00
 0.000000e+00 7.120586e-01 2.879415e-01 0.000000e+00 0.000000e+00
 0.000000e+00 0.000000e+00 5.455802e-01 4.544198e-01 0.000000e+00
 0.000000e+00 0.000000e+00 0.000000e+00 4.749525e-01 5.250475e-01
 0.000000e+00 0.000000e+00 0.000000e+00 0.000000e+00 0.000000e+00
<ENDHMM>
~h "e"
<BEGINHMM>
<NUMSTATES> 5
<STATE> 2
<MEAN> 39
 -1.624790e+00 -1.929690e+00 -1.372060e+00 -8.464069e+00 -5.407618e+00 -6.587244e+00 -6.601478e+00 -5.113158e-01 5.327867e-01 4.541756e-01 -4.416910e-01 -3.955555e+00 5.902990e+01 1.398208e+00 -8.651274e-01 9.100170e-02 -1.295310e+00 -8.798422e-01 -2.502531e-01 -8.442301e-01 6.866753e-01 3.576432e-01 3.803808e-01 3.844643e-03 -5.140345e-01 1.604431e+00 -3.197753e-01 2.581098e-01 1.982457e-01 4.235147e-01 1.999321e-01 2.836117e-01 2.373322e-01 -1.313460e-01 -1.577700e-01 -1.339881e-01 -4.340236e-02 9.241944e-02 -6.116860e-01
<VARIANCE> 39
 3.417517e+01 4.296809e+01 5.276401e+01 6.051500e+01 6.252757e+01 7.148338e+01 4.899358e+01 5.362030e+01 5.160733e+01 4.799603e+01 3.935707e+01 2.620398e+01 4.967302e+01 3.874799e+00 3.294455e+00 3.319560e+00 4.189509e+00 4.537014e+00 4.452796e+00 4.677375e+00 4.778426e+00 4.498561e+00 3.556504e+00 3.204152e+00 2.418245e+00 2.015516e+00 4.905969e-01 5.051777e-01 5.441673e-01 6.891494e-01 6.151941e-01 6.484269e-01 6.682202e-01 6.691801e-01 6.434522e-01 5.781714e-01 5.277687e-01 3.853613e-01 4.639222e-01
<GCONST> 1.313390e+02
<STATE> 3
<MEAN> 39
 -8.053041e-01 -3.647959e+00 -1.323777e+00 -9.909918e+00 -6.076498e+00 -6.890207e+00 -7.313371e+00 1.170047e+00 1.131216e+00 8.169382e-01 -3.841414e-01 -4.539362e+00 6.107062e+01 4.910581e-01 -7.454438e-02 4.430781e-01 8.437563e-03 -2.929980e-01 1.092437e-01 -1.315514e-01 1.524084e-01 -8.496831e-02 2.639957e-02 -5.652711e-02 -7.284513e-02 2.063080e-02 -4.429766e-01 5.285659e-01 2.053509e-01 7.209113e-01 3.461613e-01 2.544374e-01 3.658444e-01 -4.113707e-01 -2.373970e-01 -2.283747e-01 -5.029408e-02 2.074097e-01 -8.491207e-01
<VARIANCE> 39
 2.655024e+01 4.351969e+01 5.636810e+01 6.211480e+01 6.708994e+01 7.099081e+01 5.386705e+01 5.835376e+01 5.926999e+01 5.575266e+01 4.450967e+01 3.036712e+01 3.605649e+01 1.323367e+00 1.698297e+00 1.713149e+00 2.764371e+00 2.612613e+00 2.861716e+00 2.508686e+00 2.776679e+00 2.467126e+00 2.238170e+00 2.031575e+00 1.563364e+00 1.065760e+00 4.816515e-01 4.596665e-01 5.334573e-01 6.173019e-01 6.871597e-01 6.677073e-01 7.314937e-01 7.700691e-01 7.144960e-01 6.396899e-01 5.809908e-01 3.960880e-01 2.754000e-01
<GCONST> 1.240418e+02
<STATE> 4
<MEAN> 39
 -1.442135e+00 -3.466215e+00 1.161344e+00 -9.057838e+00 -7.767021e+00 -7.272513e+00 -5.327605e+00 6.144776e-01 -9.808263e-01 -1.223842e-01 -2.650355e-01 -3.767463e+00 6.002388e+01 3.119571e-02 6.686696e-01 3.768843e-01 8.712772e-01 3.344360e-01 3.203595e-01 1.466072e-01 -3.702258e-01 -1.554670e-01 -1.865928e-01 -1.834370e-01 1.336073e-01 -1.030743e+00 -2.081269e-01 2.303259e-01 1.572416e-03 2.951447e-01 1.673626e-01 1.059093e-01 1.130653e-01 -1.726936e-01 -1.903039e-02 -6.920987e-02 -3.491598e-02 5.867529e-02 -3.569289e-01
<VARIANCE> 39
 2.234665e+01 4.182489e+01 5.922514e+01 6.095237e+01 8.614665e+01 6.187401e+01 5.151632e+01 5.071180e+01 5.020943e+01 4.789652e+01 4.944985e+01 2.535786e+01 3.528304e+01 8.397284e-01 1.490755e+00 1.524736e+00 2.053125e+00 1.906533e+00 2.006408e+00 2.135145e+00 2.398384e+00 2.063065e+00 1.795758e+00 1.692257e+00 1.202905e+00 1.247560e+00 2.381309e-01 2.449631e-01 2.908571e-01 3.846684e-01 4.231744e-01 4.249079e-01 4.400781e-01 4.638851e-01 4.105225e-01 3.671791e-01 3.561709e-01 2.502854e-01 1.460522e-01
<GCONST> 1.136529e+02
<TRANSP> 5
 0.000000e+00 1.000000e+00 0.000000e+00 0.000000e+00 0.000000e+00
 0.000000e+00 2.417988e-01 7.582012e-01 0.000000e+00 0.000000e+00
 0.000000e+00 0.000000e+00 1.462314e-01 8.537686e-01 0.000000e+00
 0.000000e+00 0.000000e+00 0.000000e+00 4.883051e-01 5.116949e-01
 0.000000e+00 0.000000e+00 0.000000e+00 0.000000e+00 0.000000e+00
<ENDHMM>
~h "f"
<BEGINHMM>
<NUMSTATES> 5
<STATE> 2
<MEAN> 39
 -7.118143e+00 1.407694e+00 3.152846e-01 -1.349691e+00 -3.233015e+00 -3.707666e+00 -4.434377e+00 -1.993163e+00 -5.814766e-01 -1.451371e+00 -2.536351e-01 -2.818288e+00 5.299667e+01 -2.328832e+00 -4.546314e-02 -1.196182e+00 1.341975e+00 4.626442e-01 -5.791764e-01 1.753773e-01 7.436934e-02 3.874307e-01 2.179434e-01 7.217933e-02 4.175590e-01 -5.642120e-01 3.835583e-02 -2.274520e-01 3.213248e-02 -2.625340e-01 -3.489746e-01 -1.546647e-01 -7.767612e-02 -5.461815e-02 -5.082444e-02 4.107045e-02 1.000020e-02 -9.547047e-02 1.661921e-01
<VARIANCE> 39
 2.610531e+01 2.441800e+01 5.662084e+01 4.005024e+01 5.824039e+01 6.501556e+01 4.076939e+01 2.922151e+01 3.037113e+01 2.399829e+01 2.458916e+01 2.017269e+01 2.500219e+01 1.222582e+00 1.974387e+00 2.947848e+00 2.171718e+00 4.494265e+00 2.712212e+00 2.892827e+00 2.556206e+00 2.037938e+00 2.298433e+00 1.375163e+00 1.464401e+00 7.309936e-01 3.525662e-01 2.441598e-01 3.444314e-01 3.552028e-01 4.719809e-01 4.028020e-01 3.050198e-01 3.722358e-01 3.563847e-01 3.572127e-01 1.971094e-01 2.861627e-01 1.032863e-01
<GCONST> 1.107746e+02
<STATE> 3
<MEAN> 39
 -1.209300e+01 -1.674445e+00 -3.571568e+00 1.124951e+00 -2.228623e+00 -1.784365e+00 -2.016025e+00 7.037600e-01 6.762869e-02 -1.056983e+00 5.055449e-01 -1.455010e+00 4.469043e+01 -3.985896e-01 -1.263175e-01 -9.149044e-02 1.303985e-01 -4.074137e-02 -6.616185e-02 1.137199e-01 1.465613e-02 1.069730e-02 1.033091e-01 6.566476e-02 1.214441e-01 -2.478514e-01 3.079661e-01 -1.193472e-02 1.202525e-01 -1.813553e-01 -3.712648e-02 9.933673e-02 7.420088e-03 -3.108475e-02 -1.036537e-01 -2.821810e-02 -1.937021e-02 -3.929701e-02 4.742471e-02
<VARIANCE> 39
 1.624178e+01 2.374669e+01 2.778354e+01 3.797610e+01 2.882531e+01 3.540012e+01 3.666717e+01 3.897249e+01 2.274410e+01 2.273629e+01 1.944854e+01 1.376737e+01 8.927690e+01 7.180181e-01 7.994671e-01 1.042899e+00 1.112481e+00 1.130834e+00 1.323764e+00 1.551156e+00 1.496506e+00 1.361479e+00 1.156183e+00 9.777154e-01 8.851228e-01 6.013225e-01 2.569816e-01 1.802242e-01 2.587753e-01 2.662166e-01 2.852845e-01 2.981379e-01 3.504628e-01 3.399041e-01 3.083640e-01 2.547731e-01 2.003689e-01 1.770620e-01 1.063495e-01
<GCONST> 9.729269e+01
<STATE> 4
<MEAN> 39
 -1.235666e+01 -9.151195e-01 -1.776129e+00 4.075610e-01 -3.634918e+00 -4.362316e+00 -3.179185e+00 -2.369401e+00 1.629616e-02 -2.256888e-01 -4.739005e-01 -2.138397e+00 5.145783e+01 1.905054e+00 1.489196e-01 6.265992e-01 -1.478470e+00 -8.775147e-01 2.944014e-01 7.782952e-05 -6.447198e-01 -9.833586e-01 -9.273303e-02 7.412460e-02 -3.144533e-01 6.463873e-01 8.411502e-01 2.638444e-01 3.822537e-01 -8.616755e-01 -4.457996e-01 1.541110e-01 -1.588433e-01 -1.524587e-01 -3.421156e-01 2.533693e-02 1.357457e-01 -2.362849e-01 4.869823e-01
<VARIANCE> 39
 2.094565e+01 1.815415e+01 4.539743e+01 3.549598e+01 4.372146e+01 3.893871e+01 4.250369e+01 2.667084e+01 2.517785e+01 1.827869e+01 1.872190e+01 1.797963e+01 3.425922e+01 3.312766e+00 3.174924e+00 5.294711e+00 5.116673e+00 3.310223e+00 3.794074e+00 2.461457e+00 2.890254e+00 2.872066e+00 1.644973e+00 1.983459e+00 1.892186e+00 3.127228e+00 3.907743e-01 5.088670e-01 7.167551e-01 8.061910e-01 6.347057e-01 5.326124e-01 5.408117e-01 5.355452e-01 4.823752e-01 2.899745e-01 3.233815e-01 4.104881e-01 2.577394e-01
<GCONST> 1.192913e+02
<TRANSP> 5
 0.000000e+00 1.000000e+00 0.000000e+00 0.000000e+00 0.000000e+00
 0.000000e+00 6.243476e-01 3.756525e-01 0.000000e+00 0.000000e+00
 0.000000e+00 0.000000e+00 8.062975e-01 1.937025e-01 0.000000e+00
 0.000000e+00 0.000000e+00 0.000000e+00 5.965013e-01 4.034988e-01
 0.000000e+00 0.000000e+00 0.000000e+00 0.000000e+00 0.000000e+00
<ENDHMM>
~h "g"
<BEGINHMM>
<NUMSTATES> 5
<STATE> 2
<MEAN> 39
 -7.623856e-02 4.618851e+00 3.651069e+00 -2.533236e+00 -5.327813e+00 -4.691116e+00 -5.746671e+00 -2.520039e+00 -2.454868e+00 -8.165071e-01 -2.630328e+00 -3.291271e+00 5.120730e+01 -1.545515e-01 8.285947e-01 2.696206e-01 7.625960e-01 4.114065e-01 6.040041e-01 3.770042e-01 -1.614000e-01 -1.558291e-02 -3.131998e-01 -3.458963e-01 2.078326e-02 -1.058062e+00 -1.806856e-01 -3.681237e-01 -1.187238e-01 -3.446857e-01 -1.306158e-02 -2.199210e-01 -9.237623e-02 1.692292e-01 1.613287e-02 9.062364e-02 1.006637e-01 1.045097e-02 4.776292e-01
<VARIANCE> 39
 1.230722e+01 3.640269e+01 2.870465e+01 3.808731e+01 4.524559e+01 3.453730e+01 3.556186e+01 2.771277e+01 2.109861e+01 2.853120e+01 2.838203e+01 2.557138e+01 2.753791e+01 5.418008e-01 8.330972e-01 1.131607e+00 1.620534e+00 1.775261e+00 1.734123e+00 1.875390e+00 1.900043e+00 1.853451e+00 1.796565e+00 1.689044e+00 1.394113e+00 8.253187e-01 1.398925e-01 1.916968e-01 2.949318e-01 3.060394e-01 5.098439e-01 4.490921e-01 4.153029e-01 4.381888e-01 4.115825e-01 3.669256e-01 3.402703e-01 2.929387e-01 1.495068e-01
<GCONST> 1.041044e+02
<STATE> 3
<MEAN> 39
 -9.451671e-01 5.983412e+00 3.473838e+00 -1.243388e+00 -4.711185e+00 -3.841384e+00 -5.463785e+00 -2.570761e+00 -2.411554e+00 -1.105251e+00 -3.254892e+00 -3.304597e+00 4.917103e+01 -8.516622e-01 -8.430777e-01 -1.762473e-01 -4.686296e-01 7.260098e-01 -9.301989e-01 -1.048341e-01 2.526557e-01 -3.893306e-01 2.621768e-01 6.942929e-02 2.558632e-01 1.176189e+00 -9.413712e-02 -4.446459e-01 2.988107e-02 -6.221173e-01 -3.248474e-01 -4.658849e-01 -2.468236e-01 3.703132e-02 -5.349800e-02 1.686086e-01 2.225211e-01 8.797007e-02 7.718508e-01
<VARIANCE> 39
 2.147050e+01 3.914190e+01 3.679423e+01 4.371180e+01 4.714746e+01 3.785791e+01 3.725359e+01 3.046008e+01 2.435029e+01 3.034593e+01 2.590508e+01 2.093578e+01 3.845261e+01 1.965174e+00 3.260719e+00 3.516568e+00 3.548938e+00 5.574191e+00 4.183592e+00 3.763708e+00 3.753232e+00 2.829741e+00 2.779916e+00 2.608205e+00 1.896968e+00 1.559995e+00 2.817962e-01 4.152376e-01 4.377595e-01 4.862152e-01 8.009175e-01 5.170540e-01 5.056080e-01 6.659527e-01 4.587020e-01 4.858268e-01 4.932319e-01 3.266100e-01 2.152892e-01
<GCONST> 1.206255e+02
<STATE> 4
<MEAN> 39
 -3.090349e+00 6.927685e-01 2.887627e+00 -5.210274e+00 -4.633664e+00 -1.037696e+01 -7.323239e+00 -6.681010e-01 -3.451277e+00 1.087455e+00 -1.999667e+00 -2.352672e+00 5.706630e+01 -1.113715e-01 -9.941441e-01 2.152194e-01 -1.808527e+00 -1.677722e+00 -1.035204e+00 -2.429098e-01 8.622692e-01 1.896813e-01 3.604697e-01 6.197228e-01 -6.950165e-02 1.918565e+00 2.969947e-01 3.875895e-02 4.531097e-03 -1.260134e-01 -3.439615e-01 4.957474e-01 1.761091e-01 3.665405e-02 2.175897e-01 -2.292989e-01 2.097425e-02 -2.501272e-01 -1.680796e-01
<VARIANCE> 39
 2.397038e+01 3.258427e+01 5.521220e+01 5.448329e+01 6.999734e+01 5.273759e+01 5.306996e+01 3.831697e+01 3.503939e+01 4.178263e+01 5.120359e+01 3.286399e+01 3.399887e+01 1.611041e+00 2.929739e+00 3.312886e+00 3.582942e+00 5.407967e+00 3.865014e+00 3.395380e+00 4.295145e+00 3.892964e+00 3.329968e+00 3.378338e+00 2.480780e+00 1.313632e+00 2.308938e-01 4.925131e-01 5.005856e-01 6.619610e-01 1.371576e+00 7.167786e-01 7.496393e-01 5.910560e-01 5.394135e-01 6.326890e-01 5.272326e-01 4.149124e-01 2.208129e-01
<GCONST> 1.269133e+02
<TRANSP> 5
 0.000000e+00 1.000000e+00 0.000000e+00 0.000000e+00 0.000000e+00
 0.000000e+00 6.358173e-01 3.641826e-01 0.000000e+00 0.000000e+00
 0.000000e+00 0.000000e+00 4.963277e-01 5.036723e-01 0.000000e+00
 0.000000e+00 0.000000e+00 0.000000e+00 5.545843e-01 4.454157e-01
 0.000000e+00 0.000000e+00 0.000000e+00 0.000000e+00 0.000000e+00
<ENDHMM>
~h "h"
<BEGINHMM>
<NUMSTATES> 5
<STATE> 2
<MEAN> 39
 -3.592185e+00 -3.802692e+00 -1.640746e+00 -7.342759e+00 -2.102575e+00 -1.994792e+00 -2.472652e+00 -1.420354e+00 -1.762390e+00 -3.094151e+00 -3.279254e+00 -3.785291e+00 5.825137e+01 -4.796041e-01 9.204786e-02 -1.141555e-02 9.553585e-01 8.907125e-01 3.983565e-01 6.081004e-01 6.792917e-02 1.047980e-01 -1.789337e-01 6.203159e-03 2.455667e-01 -6.787909e-01 -6.252010e-03 -8.297388e-02 -3.747221e-02 -1.187399e-01 -1.227912e-01 -6.991512e-02 -9.419020e-02 4.122743e-02 3.967861e-02 8.846641e-02 6.981969e-02 -4.242100e-02 1.865594e-02
<VARIANCE> 39
 1.861881e+01 4.694586e+01 5.688729e+01 4.885492e+01 7.188650e+01 5.226884e+01 5.106405e+01 5.800447e+01 6.098714e+01 5.264668e+01 3.462066e+01 2.559574e+01 3.499695e+01 1.073362e+00 1.927702e+00 2.164121e+00 1.866999e+00 2.481611e+00 2.217104e+00 2.471305e+00 2.745790e+00 2.196586e+00 2.050882e+00 1.834679e+00 1.371110e+00 1.042200e+00 1.125745e-01 1.803293e-01 2.007675e-01 2.681966e-01 3.364055e-01 3.524883e-01 3.830509e-01 3.717549e-01 3.534762e-01 3.350879e-01 2.701283e-01 2.270160e-01 9.142128e-02
<GCONST> 1.110170e+02
<STATE> 3
<MEAN> 39
 -5.203765e+00 -4.452756e+00 -1.373448e+00 -4.887714e+00 1.120528e+00 -9.953054e-01 -8.530138e-01 1.216987e-01 8.513774e-01 -1.833802e+00 -2.194997e+00 -2.913899e+00 5.691085e+01 -9.351554e-02 1.784322e-02 -1.988167e-01 4.319402e-01 2.617691e-01 2.241406e-01 1.348226e-01 -9.152503e-02 -6.192791e-02 -7.759868e-02 -3.464000e-02 3.609543e-02 -4.167998e-01 2.464874e-01 1.489902e-02 -7.779580e-02 -3.103025e-01 -3.674426e-01 -1.116195e-01 -2.003240e-01 -6.799968e-02 -1.277310e-01 3.029770e-02 -7.770884e-03 -1.158785e-01 1.476345e-01
<VARIANCE> 39
 2.425862e+01 5.155923e+01 5.261623e+01 4.871121e+01 6.327971e+01 5.430071e+01 4.958545e+01 4.860324e+01 4.261695e+01 4.019453e+01 3.003984e+01 2.729045e+01 3.555727e+01 1.534827e+00 1.935781e+00 1.838776e+00 1.761648e+00 2.406185e+00 2.147598e+00 2.083682e+00 2.546726e+00 1.966894e+00 1.954712e+00 1.775674e+00 1.380749e+00 1.576975e+00 2.340567e-01 3.012801e-01 3.535414e-01 3.492849e-01 4.076057e-01 3.689837e-01 4.128727e-01 4.283202e-01 3.745401e-01 3.369819e-01 3.299967e-01 2.623090e-01 1.487005e-01
<GCONST> 1.137950e+02
<STATE> 4
<MEAN> 39
 -6.024599e+00 -5.338981e+00 -3.901603e+00 -3.171269e+00 -1.672736e-01 8.746637e-01 4.313489e-01 1.405023e-01 -8.700861e-01 -2.792320e+00 -2.046439e+00 -1.877024e+00 5.290388e+01 1.606887e-01 7.318675e-02 -1.433612e-01 -5.940646e-02 -2.545115e-01 -3.976657e-02 -9.210019e-02 2.989524e-02 -6.902237e-02 5.442908e-02 2.957054e-02 -4.065298e-03 -2.162849e-01 4.203220e-02 -3.208599e-02 7.490260e-03 -1.072647e-01 -9.343986e-02 -5.847050e-02 -6.129191e-02 2.392789e-02 -1.485146e-02 1.090399e-02 7.187826e-03 -2.855365e-02 9.552207e-02
<VARIANCE> 39
 2.859396e+01 4.106401e+01 3.940511e+01 4.447570e+01 4.883593e+01 3.784067e+01 3.985500e+01 3.724374e+01 3.332378e+01 3.288237e+01 2.330074e+01 2.358331e+01 7.828895e+01 9.358407e-01 1.148434e+00 1.120648e+00 1.445823e+00 1.563947e+00 1.339273e+00 1.505880e+00 1.632132e+00 1.352980e+00 1.399310e+00 1.206294e+00 1.088817e+00 1.096292e+00 9.570242e-02 1.730549e-01 1.730365e-01 2.190217e-01 2.326276e-01 2.428407e-01 2.603534e-01 2.883074e-01 2.413510e-01 2.586832e-01 2.262163e-01 1.907616e-01 9.273677e-02
<GCONST> 1.007725e+02
<TRANSP> 5
 0.000000e+00 1.000000e+00 0.000000e+00 0.000000e+00 0.000000e+00
 0.000000e+00 2.854618e-01 7.145381e-01 0.000000e+00 0.000000e+00
 0.000000e+00 0.000000e+00 3.473359e-01 6.526641e-01 0.000000e+00
 0.000000e+00 0.000000e+00 0.000000e+00 7.205235e-01 2.794765e-01
 0.000000e+00 0.000000e+00 0.000000e+00 0.000000e+00 0.000000e+00
<ENDHMM>
~h "i"
<BEGINHMM>
<NUMSTATES> 5
<STATE> 2
<MEAN> 39
 -5.488475e+00 3.539809e+00 1.099368e+01 -7.597487e+00 -1.182931e+01 -8.697963e+00 -5.341852e+00 -6.544597e+00 -4.232241e+00 -1.093399e-01 -4.896701e-01 -3.146237e+00 5.747857e+01 2.205494e-01 3.228162e-01 2.220016e+00 -1.646245e+00 -1.909413e+00 -2.111472e-01 -8.065520e-01 -7.553944e-01 -6.787171e-01 4.740987e-01 2.964606e-01 -2.743098e-01 1.216409e+00 -5.388564e-02 -4.781001e-02 -5.163919e-01 1.165408e-01 3.838278e-01 2.775567e-01 9.288456e-02 2.857893e-01 2.267637e-01 -3.496524e-02 -4.800525e-02 7.493098e-03 -2.815155e-01
<VARIANCE> 39
 2.970943e+01 4.731041e+01 4.655850e+01 7.324312e+01 5.631211e+01 4.562668e+01 4.462988e+01 5.574302e+01 3.370255e+01 4.313078e+01 4.699381e+01 3.157660e+01 3.843583e+01 3.892138e+00 2.573104e+00 3.595552e+00 4.437068e+00 4.395236e+00 3.513006e+00 4.803115e+00 4.041464e+00 3.165130e+00 3.268719e+00 3.819110e+00 2.627089e+00 1.467254e+00 4.273003e-01 3.896155e-01 5.694277e-01 7.168093e-01 7.124145e-01 5.409583e-01 6.817499e-01 6.492904e-01 4.644604e-01 5.026462e-01 5.011072e-01 3.481493e-01 2.958086e-01
<GCONST> 1.278899e+02
<STATE> 3
<MEAN> 39
 -4.609098e+00 1.591273e+00 1.405264e+01 -7.684192e+00 -1.510728e+01 -7.238862e+00 -5.241570e+00 -4.077055e+00 -6.443834e+00 -5.115957e-01 3.545064e+00 -6.033373e+00 5.950268e+01 1.303888e-01 1.331890e-01 -2.454937e-01 7.800515e-02 1.961800e-01 4.335066e-02 2.136571e-02 1.755242e-01 1.953513e-01 3.267717e-02 -1.074092e-01 1.259027e-01 -2.310244e-01 -7.715278e-04 5.566032e-02 -6.705947e-01 4.222125e-01 7.306240e-01 5.004161e-02 1.706895e-01 1.193147e-01 3.248563e-01 -1.057416e-01 -2.967557e-01 2.037649e-01 -4.502839e-01
<VARIANCE> 39
 1.543688e+01 4.071907e+01 3.527008e+01 6.634772e+01 4.691658e+01 4.740783e+01 3.586867e+01 6.431435e+01 4.499606e+01 4.392376e+01 5.019273e+01 3.881277e+01 2.304651e+01 8.202155e-01 1.499681e+00 2.045527e+00 2.198259e+00 2.501295e+00 2.083528e+00 2.055078e+00 2.721351e+00 1.919931e+00 1.673044e+00 1.766941e+00 1.469398e+00 9.849235e-01 2.537915e-01 2.704261e-01 3.407693e-01 4.654852e-01 4.897806e-01 4.605934e-01 4.801228e-01 5.664120e-01 4.149109e-01 4.233103e-01 4.369175e-01 3.358731e-01 1.648461e-01
<GCONST> 1.140466e+02
<STATE> 4
<MEAN> 39
 -6.515524e+00 5.833914e+00 1.176707e+01 -1.112660e+01 -9.518214e+00 -5.928134e+00 -6.260724e+00 -7.808475e+00 -2.962080e+00 6.456272e-01 -2.457713e+00 -1.756959e+00 5.486751e+01 7.391635e-02 -2.839574e-02 -6.598986e-01 6.187426e-01 5.458152e-01 1.510060e-01 2.368855e-01 2.570143e-01 1.884137e-01 -1.245554e-01 -1.075161e-01 1.214503e-01 -7.558277e-01 -2.569719e-02 -6.354576e-02 -1.111969e-01 1.126212e-01 4.060967e-02 2.393659e-02 5.201177e-02 4.660030e-02 -2.231006e-02 -3.282822e-02 2.569868e-02 -3.363246e-02 -3.991465e-02
<VARIANCE> 39
 2.193117e+01 4.277996e+01 5.024784e+01 1.028449e+02 5.578246e+01 5.376375e+01 5.021790e+01 5.065239e+01 3.100453e+01 4.621571e+01 4.221085e+01 2.990752e+01 6.036710e+01 7.970434e-01 1.213481e+00 1.435842e+00 2.011664e+00 2.079833e+00 1.770772e+00 1.889727e+00 2.083383e+00 1.573977e+00 1.594091e+00 1.570364e+00 1.190263e+00 1.009444e+00 1.082339e-01 1.500117e-01 2.031110e-01 3.152150e-01 3.100607e-01 3.108316e-01 3.236198e-01 3.250596e-01 2.584662e-01 2.784678e-01 2.518503e-01 1.967852e-01 9.945053e-02
<GCONST> 1.072792e+02
<TRANSP> 5
 0.000000e+00 1.000000e+00 0.000000e+00 0.000000e+00 0.000000e+00
 0.000000e+00 5.286599e-01 4.713402e-01 0.000000e+00 0.000000e+00
 0.000000e+00 0.000000e+00 6.059572e-01 3.940429e-01 0.000000e+00
 0.000000e+00 0.000000e+00 0.000000e+00 7.756947e-01 2.243053e-01
 0.000000e+00 0.000000e+00 0.000000e+00 0.000000e+00 0.000000e+00
<ENDHMM>
~h "j"
<BEGINHMM>
<NUMSTATES> 5
<STATE> 2
<MEAN> 39
 -2.537647e+00 6.095169e+00 5.262260e+00 -1.094709e+00 -4.375539e+00 -4.706893e+00 -3.401419e+00 -1.090396e+00 -2.304506e+00 -2.772482e+00 -1.919936e+00 -2.525496e+00 4.998115e+01 -1.272787e+00 8.441588e-01 1.966760e-01 1.536338e-02 8.941311e-01 1.997181e-01 4.435683e-01 -2.051038e-01 2.230865e-01 1.733113e-03 4.871008e-02 -9.966043e-02 2.943054e-02 -4.084882e-01 -2.095425e-01 1.543996e-01 -3.705338e-01 -3.072785e-01 -4.070313e-01 -8.049425e-02 -7.549547e-02 -6.672417e-02 3.746941e-02 2.621862e-01 9.021293e-02 5.848356e-01
<VARIANCE> 39
 2.160195e+01 4.337871e+01 2.828927e+01 3.600994e+01 4.072454e+01 3.042715e+01 2.740364e+01 2.345052e+01 2.500667e+01 2.123306e+01 2.079457e+01 1.489425e+01 3.679096e+01 3.501027e+00 2.092356e+00 1.802252e+00 2.579010e+00 3.216250e+00 2.765289e+00 1.973750e+00 2.125712e+00 1.823367e+00 1.927228e+00 1.917745e+00 1.379799e+00 2.243880e+00 4.472382e-01 3.055176e-01 3.208691e-01 3.988748e-01 5.303951e-01 4.557625e-01 3.868868e-01 4.325224e-01 3.936912e-01 4.229632e-01 3.119317e-01 2.268702e-01 2.221915e-01
<GCONST> 1.116357e+02
<STATE> 3
<MEAN> 39
 -1.142266e+01 7.966276e+00 7.595343e+00 -4.464896e+00 -2.889168e+00 -6.964592e+00 -2.715688e+00 -3.129714e+00 -2.668666e+00 -2.989231e+00 1.710602e-01 -2.593014e+00 5.553003e+01 -5.149770e-01 -5.582895e-01 1.212792e+00 -7.292085e-01 -2.109310e+00 -1.713902e+00 -5.482098e-01 -3.480120e-01 -5.691523e-01 3.182747e-02 9.055887e-01 4.193950e-01 1.712885e+00 1.229000e+00 -7.196057e-01 -1.429953e-01 -4.672554e-02 -7.497023e-01 -2.045982e-01 -4.311215e-01 3.139827e-01 -4.581909e-03 1.340540e-01 -7.930568e-02 1.648602e-02 -3.073322e-02
<VARIANCE> 39
 2.794340e+01 4.061711e+01 3.740475e+01 4.438046e+01 4.558829e+01 4.305122e+01 3.398074e+01 2.674080e+01 2.695298e+01 2.807026e+01 2.095714e+01 2.075825e+01 2.330115e+01 6.568870e+00 2.844638e+00 2.411377e+00 3.854372e+00 4.689454e+00 3.026286e+00 2.937670e+00 3.407402e+00 2.373762e+00 3.312014e+00 1.867713e+00 1.499257e+00 1.135600e+00 6.573765e-01 5.503014e-01 5.909056e-01 5.978573e-01 1.089100e+00 7.774339e-01 6.074569e-01 6.018732e-01 4.464899e-01 4.374650e-01 4.231383e-01 3.736444e-01 2.354736e-01
<GCONST> 1.215516e+02
<STATE> 4
<MEAN> 39
 -5.044616e+00 1.098338e+00 1.000936e+01 -7.640110e+00 -1.297210e+01 -1.302024e+01 -6.491364e+00 -1.179484e+00 -3.874243e+00 -9.760573e-01 1.655776e+00 -1.112237e+00 6.002349e+01 1.594510e+00 -2.052507e+00 -1.003884e+00 -8.423943e-01 -1.020296e+00 -5.188208e-01 -7.900933e-01 1.317455e+00 5.689995e-01 4.456509e-01 -2.024257e-01 -2.102630e-01 8.810569e-01 -7.302212e-02 1.643849e-01 -7.035701e-01 7.175635e-02 9.997426e-01 7.487791e-01 1.875660e-01 9.398302e-02 2.149440e-01 -3.724140e-02 -3.541680e-01 -2.685944e-01 -3.481379e-01
<VARIANCE> 39
 1.798752e+01 3.475349e+01 4.046102e+01 7.547952e+01 2.994919e+01 3.165004e+01 3.469715e+01 5.004831e+01 4.248916e+01 5.753123e+01 2.545477e+01 1.622889e+01 2.884575e+01 1.928603e+00 2.425210e+00 2.964531e+00 2.758213e+00 5.591509e+00 3.499315e+00 4.180202e+00 3.515032e+00 2.582452e+00 2.952764e+00 2.409908e+00 2.012943e+00 8.184253e-01 3.790714e-01 3.309331e-01 3.412502e-01 6.140957e-01 4.720385e-01 4.928750e-01 5.212250e-01 6.970107e-01 4.419954e-01 6.496655e-01 3.805645e-01 2.918113e-01 1.013978e-01
<GCONST> 1.185125e+02
<TRANSP> 5
 0.000000e+00 1.000000e+00 0.000000e+00 0.000000e+00 0.000000e+00
 0.000000e+00 7.091424e-01 2.908576e-01 0.000000e+00 0.000000e+00
 0.000000e+00 0.000000e+00 6.211947e-01 3.788054e-01 0.000000e+00
 0.000000e+00 0.000000e+00 0.000000e+00 6.239106e-01 3.760894e-01
 0.000000e+00 0.000000e+00 0.000000e+00 0.000000e+00 0.000000e+00
<ENDHMM>
~h "k"
<BEGINHMM>
<NUMSTATES> 5
<STATE> 2
<MEAN> 39
 -7.754540e+00 -1.729133e-01 -1.901498e+00 -1.943463e+00 -1.860468e+00 -5.866581e-01 -1.608740e+00 5.248906e-01 -7.099666e-01 -8.954071e-01 -9.440525e-02 -1.359265e+00 4.383446e+01 -4.001541e-01 8.774363e-02 -1.065700e-01 3.463987e-01 1.145845e-01 1.107151e-01 1.292067e-01 3.021699e-02 3.815845e-02 -1.403248e-02 1.406450e-02 1.634280e-01 -7.030864e-01 1.250322e-02 -9.880772e-02 -5.820797e-02 -9.921350e-02 1.499813e-02 -6.373138e-02 -2.557214e-02 1.242249e-02 -1.341539e-02 1.269833e-02 -1.205242e-02 -2.275479e-02 2.476027e-01
<VARIANCE> 39
 3.127003e+01 4.147399e+01 4.072735e+01 5.388232e+01 4.851714e+01 5.040849e+01 3.916896e+01 3.882024e+01 2.951702e+01 3.167451e+01 2.258723e+01 2.281266e+01 6.738519e+01 7.230220e-01 7.800679e-01 1.037736e+00 1.384121e+00 1.452292e+00 1.618407e+00 1.511926e+00 1.642797e+00 1.563353e+00 1.489214e+00 1.298519e+00 1.084376e+00 1.062594e+00 1.156117e-01 1.728250e-01 2.153147e-01 2.529444e-01 2.937112e-01 3.329772e-01 3.056160e-01 3.297684e-01 3.230888e-01 3.023970e-01 2.545285e-01 2.149767e-01 1.728893e-01
<GCONST> 1.033356e+02
<STATE> 3
<MEAN> 39
 -6.285994e+00 1.431866e+00 -1.095491e+00 -3.424835e+00 -2.920943e+00 -3.094154e+00 -3.924107e+00 -2.025036e+00 -1.483954e+00 -2.466162e-01 -1.090162e+00 -2.411492e+00 4.635661e+01 -7.729686e-01 -1.019436e+00 -1.162230e+00 -9.372437e-02 1.014600e+00 -6.865209e-01 2.891027e-02 2.486420e-01 2.093163e-01 1.910795e-01 -2.247488e-01 2.470049e-01 8.928582e-01 1.630628e-01 -3.748152e-01 -2.181255e-01 -3.987659e-01 7.074550e-02 -2.912013e-01 -4.895240e-02 9.881674e-02 9.106468e-02 1.391075e-01 -7.928567e-02 -1.195141e-01 1.024515e+00
<VARIANCE> 39
 2.395956e+01 3.637129e+01 5.253460e+01 5.133718e+01 5.151794e+01 4.875185e+01 3.071425e+01 3.425800e+01 2.846766e+01 2.810093e+01 2.413359e+01 2.238504e+01 4.917503e+01 2.136570e+00 3.250947e+00 4.087840e+00 3.459668e+00 4.288900e+00 4.369609e+00 3.306669e+00 3.196076e+00 2.893367e+00 2.605761e+00 2.395882e+00 1.745759e+00 3.748969e+00 3.660454e-01 4.495657e-01 5.751274e-01 5.254765e-01 7.298151e-01 6.511403e-01 5.483833e-01 5.440977e-01 5.326847e-01 4.714739e-01 4.195478e-01 3.458502e-01 3.609109e-01
<GCONST> 1.233693e+02
<STATE> 4
<MEAN> 39
 -7.811602e+00 -3.512269e+00 -6.064188e+00 -5.311594e+00 1.129018e+00 -6.197651e+00 -3.693581e+00 -5.101661e-01 4.629564e-01 1.059894e+00 -2.446544e+00 -2.447616e+00 5.406500e+01 9.885595e-01 -4.188025e-01 -7.573510e-02 -9.121643e-01 -6.073657e-01 -2.247072e-01 1.302119e-01 2.115707e-01 -8.800663e-02 3.251640e-02 -3.009802e-01 -6.713013e-01 2.129499e+00 5.575687e-01 1.765900e-01 5.034568e-01 -2.009775e-01 -6.572176e-01 3.379662e-01 -4.727285e-03 -3.953061e-02 -2.207012e-01 -1.954446e-01 9.836046e-02 -2.665165e-01 -1.597955e-02
<VARIANCE> 39
 3.212535e+01 3.652762e+01 5.768882e+01 4.463066e+01 5.407849e+01 5.879243e+01 4.970728e+01 3.667711e+01 4.493966e+01 3.937709e+01 3.301364e+01 2.519744e+01 4.262358e+01 4.074382e+00 4.114078e+00 4.895647e+00 4.671342e+00 6.182663e+00 4.930528e+00 4.020929e+00 4.402956e+00 4.064248e+00 3.680096e+00 3.049236e+00 2.838837e+00 3.814443e+00 5.321771e-01 7.006308e-01 7.004465e-01 7.740112e-01 9.613586e-01 8.624899e-01 7.833568e-01 6.277528e-01 6.770892e-01 6.521595e-01 5.859942e-01 4.675044e-01 5.579140e-01
<GCONST> 1.333762e+02
<TRANSP> 5
 0.000000e+00 1.000000e+00 0.000000e+00 0.000000e+00 0.000000e+00
 0.000000e+00 7.620949e-01 2.379051e-01 0.000000e+00 0.000000e+00
 0.000000e+00 0.000000e+00 5.160912e-01 4.839088e-01 0.000000e+00
 0.000000e+00 0.000000e+00 0.000000e+00 6.350775e-01 3.649225e-01
 0.000000e+00 0.000000e+00 0.000000e+00 0.000000e+00 0.000000e+00
<ENDHMM>
~h "l"
<BEGINHMM>
<NUMSTATES> 5
<STATE> 2
<MEAN> 39
 -9.597690e-02 -4.111605e+00 -9.463660e-01 -9.725741e+00 -5.795695e+00 -6.077987e+00 -9.406965e+00 -3.648073e+00 3.586306e+00 1.740673e+00 -2.106600e+00 -4.096315e+00 6.056787e+01 2.986314e-01 2.587317e-02 -6.097202e-02 -8.159749e-02 2.674559e-01 2.135617e-02 -7.225109e-01 -3.779072e-01 4.850225e-01 4.052358e-01 -7.643075e-02 -2.883917e-02 -1.986154e-01 -1.532177e-01 1.945426e-02 -3.039030e-02 -1.271709e-01 6.560569e-02 1.769601e-01 3.048032e-01 2.385817e-01 -2.872420e-01 -1.605732e-01 1.838076e-02 -8.760306e-02 3.852364e-02
<VARIANCE> 39
 1.532980e+01 4.773540e+01 6.807610e+01 6.424471e+01 4.297094e+01 6.795335e+01 4.904969e+01 6.123112e+01 5.934694e+01 5.407660e+01 3.309399e+01 3.431407e+01 3.353933e+01 4.035907e-01 1.196346e+00 2.002733e+00 2.130818e+00 2.269886e+00 2.414032e+00 2.525977e+00 3.003325e+00 2.519626e+00 2.210959e+00 2.007871e+00 1.644058e+00 5.559786e-01 8.072922e-02 1.992324e-01 2.607640e-01 4.284401e-01 3.630186e-01 4.388135e-01 4.733242e-01 5.567428e-01 4.108702e-01 4.433152e-01 3.911366e-01 2.855023e-01 8.653180e-02
<GCONST> 1.122047e+02
<STATE> 3
<MEAN> 39
 1.340541e+00 -2.479318e+00 -5.363948e+00 -1.043568e+01 -4.678199e+00 -2.493375e+00 -8.640093e+00 -2.614165e+00 2.716804e+00 1.071554e+00 -2.058515e+00 -5.422807e+00 5.856615e+01 -7.234693e-02 -1.106369e-01 -1.194640e-01 -1.337536e-01 1.758909e-01 1.659726e-01 1.749209e-01 3.382162e-01 -4.156333e-02 -1.415994e-01 -1.100223e-01 -9.882396e-02 2.325332e-02 -1.298870e-01 -1.053729e-01 -1.332483e-02 3.751298e-02 1.070803e-02 1.324741e-02 2.423065e-01 2.208201e-01 -1.173548e-01 -2.153161e-01 -5.113873e-02 1.390137e-02 8.387723e-02
<VARIANCE> 39
 1.033619e+01 3.976117e+01 8.754920e+01 5.443316e+01 4.204532e+01 5.634995e+01 4.653992e+01 6.784072e+01 4.690750e+01 6.185803e+01 3.716191e+01 2.658037e+01 2.431014e+01 2.258062e-01 9.429277e-01 1.007125e+00 1.594881e+00 1.187498e+00 1.618096e+00 1.442191e+00 1.837328e+00 1.409388e+00 1.391896e+00 1.266798e+00 1.166314e+00 4.900656e-01 5.284974e-02 1.405877e-01 1.704908e-01 2.566131e-01 2.621920e-01 2.742103e-01 3.475887e-01 3.764324e-01 3.221718e-01 3.168068e-01 2.800322e-01 2.107053e-01 5.912285e-02
<GCONST> 1.003195e+02
<STATE> 4
<MEAN> 39
 3.292627e-02 -4.213680e+00 -2.799247e+00 -9.916724e+00 -4.759300e+00 -4.072736e+00 -8.358946e+00 -1.780172e+00 3.198360e+00 5.135772e-01 -2.785245e+00 -4.993200e+00 5.990563e+01 -5.586061e-01 -4.432566e-01 -1.233940e-02 1.268554e-01 1.167873e-01 4.760412e-02 1.053687e+00 1.025674e+00 -5.864058e-01 -8.756329e-01 -1.782846e-01 -5.218656e-02 3.204222e-01 -1.146730e-01 5.735482e-02 1.018219e-01 1.241645e-02 -5.856524e-02 3.028172e-02 1.831083e-01 -1.047013e-02 -2.484174e-01 -5.262071e-02 1.348181e-01 3.980369e-02 -6.768229e-03
<VARIANCE> 39
 1.622946e+01 4.380513e+01 7.399282e+01 5.947353e+01 4.601537e+01 6.318611e+01 5.197957e+01 6.059436e+01 5.206512e+01 6.126476e+01 3.309076e+01 3.700438e+01 4.127892e+01 4.944257e-01 1.757658e+00 2.357006e+00 2.694673e+00 2.766501e+00 3.198580e+00 2.861936e+00 3.718834e+00 2.851533e+00 2.683496e+00 2.705027e+00 1.975471e+00 1.040824e+00 8.765012e-02 1.765456e-01 2.243730e-01 3.743972e-01 3.832941e-01 4.040791e-01 4.706949e-01 4.585845e-01 3.997500e-01 4.414837e-01 3.345032e-01 3.207838e-01 1.087793e-01
<GCONST> 1.153374e+02
<TRANSP> 5
 0.000000e+00 1.000000e+00 0.000000e+00 0.000000e+00 0.000000e+00
 0.000000e+00 3.558003e-01 6.441998e-01 0.000000e+00 0.000000e+00
 0.000000e+00 0.000000e+00 6.060564e-01 3.939436e-01 0.000000e+00
 0.000000e+00 0.000000e+00 0.000000e+00 2.737123e-01 7.262877e-01
 0.000000e+00 0.000000e+00 0.000000e+00 0.000000e+00 0.000000e+00
<ENDHMM>
~h "m"
<BEGINHMM>
<NUMSTATES> 5
<STATE> 2
<MEAN> 39
 2.387583e+00 -5.521718e-03 -1.081501e+00 -5.316600e+00 -3.763135e+00 1.489101e-01 -6.872349e+00 -5.572355e+00 -2.573879e+00 -1.419490e-02 5.335776e-01 -5.762380e+00 5.514340e+01 1.213372e-01 9.289821e-01 1.173784e+00 1.407150e+00 2.194398e-01 3.775649e-01 7.116873e-03 -1.515747e+00 -1.352280e+00 -1.184180e-01 -1.004858e-01 1.280735e-01 -9.844191e-01 -1.448268e-01 -2.129294e-01 -4.476775e-02 -1.871430e-01 -3.857337e-02 -8.377503e-02 9.885164e-02 2.206537e-01 1.042416e-01 -1.079003e-01 -1.252764e-01 -2.980583e-02 2.400039e-01
<VARIANCE> 39
 1.561802e+01 3.429985e+01 4.673634e+01 4.463084e+01 3.885586e+01 3.658948e+01 3.920183e+01 5.227867e+01 3.252496e+01 3.381612e+01 3.222674e+01 2.480064e+01 3.349443e+01 5.043579e-01 1.227686e+00 1.890723e+00 1.858910e+00 1.781612e+00 1.745876e+00 1.946086e+00 2.633530e+00 2.097122e+00 1.801959e+00 2.139164e+00 1.299390e+00 6.420937e-01 7.353265e-02 1.366461e-01 2.662744e-01 2.857592e-01 2.674837e-01 2.551689e-01 2.666209e-01 3.851737e-01 3.368611e-01 2.520556e-01 2.892530e-01 1.883311e-01 7.211787e-02
<GCONST> 1.029995e+02
<STATE> 3
<MEAN> 39
 1.213756e+00 1.165681e-01 2.100090e+00 -3.654423e+00 -2.358485e+00 1.346089e-01 -6.266236e+00 -5.268172e+00 -5.545074e+00 -1.810911e+00 -9.338152e-02 -4.700899e+00 5.409431e+01 7.037238e-02 1.612945e-01 1.429096e-01 9.030145e-02 -1.087897e-01 6.995166e-02 8.655946e-02 -1.185522e-01 -2.559671e-01 -1.138339e-01 -7.691618e-03 5.567048e-02 -1.609531e-01 -1.300989e-02 -1.514120e-01 -2.921056e-01 -3.963252e-01 -1.276791e-01 -9.432380e-02 2.940041e-02 3.185666e-01 3.073699e-01 8.513170e-02 8.234303e-02 1.542606e-02 2.125089e-01
<VARIANCE> 39
 1.534886e+01 4.134872e+01 3.345481e+01 4.565718e+01 4.454166e+01 3.039620e+01 4.478617e+01 7.300406e+01 3.346855e+01 3.985362e+01 3.040214e+01 2.101636e+01 3.043040e+01 2.375133e-01 5.212132e-01 8.295708e-01 1.014086e+00 1.128016e+00 1.087419e+00 1.054216e+00 1.345009e+00 1.315691e+00 1.107625e+00 1.186782e+00 8.504031e-01 2.983933e-01 6.635559e-02 1.334103e-01 2.071546e-01 2.510419e-01 2.417080e-01 2.433863e-01 2.785186e-01 3.613137e-01 3.251436e-01 2.584648e-01 2.870897e-01 1.926391e-01 6.533457e-02
<GCONST> 9.439127e+01
<STATE> 4
<MEAN> 39
 2.340520e+00 7.150652e-01 -2.516552e-01 -4.988767e+00 -4.515997e+00 2.795580e-01 -6.466417e+00 -6.525187e+00 -4.618226e+00 -7.967436e-01 7.567558e-01 -4.894671e+00 5.439372e+01 2.766793e-02 -7.084626e-01 -9.989797e-01 -1.264365e+00 -4.821125e-02 -6.020363e-02 -1.758638e-02 1.047378e+00 8.708273e-01 7.685103e-02 2.018737e-01 -7.678729e-02 8.367285e-01 -1.802693e-01 -2.730517e-01 -8.443758e-02 -2.411733e-01 1.170157e-01 -7.408983e-02 -1.343758e-02 3.584394e-01 2.853136e-01 -1.204978e-02 -1.113441e-01 -6.430399e-02 2.454558e-01
<VARIANCE> 39
 1.738768e+01 3.889968e+01 4.597044e+01 4.941587e+01 4.507563e+01 4.057894e+01 4.466684e+01 6.355367e+01 3.806841e+01 3.719909e+01 3.608790e+01 2.575048e+01 3.769545e+01 9.144958e-01 1.838621e+00 2.962703e+00 2.869390e+00 2.937279e+00 3.031628e+00 2.886208e+00 3.647235e+00 3.150551e+00 2.258070e+00 2.460726e+00 1.865028e+00 1.046886e+00 1.434966e-01 2.491903e-01 4.202417e-01 4.511208e-01 4.131064e-01 3.971846e-01 4.287016e-01 5.724372e-01 5.412294e-01 3.858548e-01 4.171654e-01 2.908382e-01 1.217483e-01
<GCONST> 1.158491e+02
<TRANSP> 5
 0.000000e+00 1.000000e+00 0.000000e+00 0.000000e+00 0.000000e+00
 0.000000e+00 4.423129e-01 5.576871e-01 0.000000e+00 0.000000e+00
 0.000000e+00 0.000000e+00 6.745468e-01 3.254532e-01 0.000000e+00
 0.000000e+00 0.000000e+00 0.000000e+00 5.032703e-01 4.967297e-01
 0.000000e+00 0.000000e+00 0.000000e+00 0.000000e+00 0.000000e+00
<ENDHMM>
~h "n"
<BEGINHMM>
<NUMSTATES> 5
<STATE> 2
<MEAN> 39
 1.092365e+00 -1.796073e+00 2.336342e+00 -3.957938e+00 -6.220857e+00 -5.854645e+00 -7.144380e+00 -7.281864e-01 -1.783531e-01 -9.967253e-01 -2.977062e+00 -4.199793e+00 5.655883e+01 4.596308e-01 1.562710e+00 7.595516e-01 1.314278e+00 -1.769839e-01 3.934689e-01 -3.894342e-01 -1.675798e+00 -1.254680e-01 8.267230e-02 -3.722668e-01 1.329126e-01 -1.495605e+00 -1.437676e-01 -1.184663e-01 -1.894358e-01 -3.104251e-01 4.698547e-02 1.722981e-01 1.915724e-01 9.300820e-02 -1.582616e-02 -5.690373e-02 8.334900e-02 -4.721715e-02 1.905633e-01
<VARIANCE> 39
 1.139881e+01 4.601296e+01 3.586946e+01 3.546290e+01 5.166511e+01 3.466638e+01 3.550512e+01 5.387906e+01 3.829192e+01 3.891571e+01 2.547667e+01 2.496291e+01 3.020664e+01 4.467097e-01 1.224972e+00 1.790972e+00 1.297553e+00 2.157486e+00 2.041248e+00 2.381886e+00 3.419184e+00 1.999189e+00 2.121431e+00 1.894345e+00 1.227623e+00 4.248710e-01 5.734105e-02 1.580435e-01 1.792320e-01 1.922920e-01 2.634835e-01 2.571107e-01 2.840554e-01 4.163524e-01 2.886544e-01 2.743872e-01 2.373050e-01 1.870907e-01 7.261510e-02
<GCONST> 1.013866e+02
<STATE> 3
<MEAN> 39
 3.343755e-01 -8.250574e-01 3.759865e+00 -3.282546e+00 -4.568013e+00 -4.131272e+00 -6.506653e+00 -1.630117e+00 -9.877280e-01 -2.598794e+00 -2.549712e+00 -3.039122e+00 5.371357e+01 1.647697e-02 6.128879e-01 8.672658e-02 3.503985e-01 5.955368e-02 2.444972e-01 8.309913e-02 -3.717007e-01 -1.148628e-01 -9.668741e-03 -2.987611e-02 1.088852e-01 -6.483989e-01 -1.378864e-01 -1.626929e-01 -9.546573e-02 -1.507351e-01 6.447825e-02 -3.564726e-02 8.939163e-02 2.126713e-01 -1.131372e-02 1.638238e-02 6.527336e-02 -1.457883e-02 1.359680e-01
<VARIANCE> 39
 1.412073e+01 4.934665e+01 3.246565e+01 3.606132e+01 5.494715e+01 3.123162e+01 3.183941e+01 4.400469e+01 3.209822e+01 3.629234e+01 2.567389e+01 2.210195e+01 3.046083e+01 2.721493e-01 5.549868e-01 6.800715e-01 7.516491e-01 1.000011e+00 1.052865e+00 1.083753e+00 1.297015e+00 1.108547e+00 1.066464e+00 1.066981e+00 7.988592e-01 2.519488e-01 6.259820e-02 1.254704e-01 1.576905e-01 1.801654e-01 2.269909e-01 2.187540e-01 2.383696e-01 3.176444e-01 2.357380e-01 2.273278e-01 2.346209e-01 1.596455e-01 6.225441e-02
<GCONST> 9.028117e+01
<STATE> 4
<MEAN> 39
 8.619268e-01 1.996643e+00 2.683813e+00 -1.673159e+00 -6.762488e+00 -4.177962e+00 -6.702158e+00 -4.228248e+00 -8.256496e-01 -6.840990e-01 -3.232500e+00 -3.599516e+00 5.221151e+01 -5.011321e-01 -9.342635e-02 -1.717082e-01 -1.729458e-01 5.065929e-01 2.786191e-02 3.073336e-01 4.583420e-01 -1.110794e-01 -8.994061e-02 1.949430e-01 9.529667e-02 -9.067524e-02 -2.870553e-01 -2.647844e-01 -8.747626e-02 -3.370992e-01 1.140401e-01 -4.467756e-02 1.205804e-01 2.957898e-01 -2.392857e-02 -6.988230e-02 1.524065e-01 5.931530e-03 3.160127e-01
<VARIANCE> 39
 1.551055e+01 4.335366e+01 3.692249e+01 3.906726e+01 5.495171e+01 3.379753e+01 3.888357e+01 5.567765e+01 3.944007e+01 4.604801e+01 3.194105e+01 2.503536e+01 3.811744e+01 8.087629e-01 1.843118e+00 1.639131e+00 1.956104e+00 2.356680e+00 2.081377e+00 2.088743e+00 3.040761e+00 2.092314e+00 1.928322e+00 1.907974e+00 1.308761e+00 1.355833e+00 2.066548e-01 3.384683e-01 3.725413e-01 3.870098e-01 5.259835e-01 4.061171e-01 4.296692e-01 5.984848e-01 4.107293e-01 4.005161e-01 3.902480e-01 2.549799e-01 1.888359e-01
<GCONST> 1.128386e+02
<TRANSP> 5
 0.000000e+00 1.000000e+00 0.000000e+00 0.000000e+00 0.000000e+00
 0.000000e+00 3.771265e-01 6.228735e-01 0.000000e+00 0.000000e+00
 0.000000e+00 0.000000e+00 7.301882e-01 2.698117e-01 0.000000e+00
 0.000000e+00 0.000000e+00 0.000000e+00 4.939480e-01 5.060520e-01
 0.000000e+00 0.000000e+00 0.000000e+00 0.000000e+00 0.000000e+00
<ENDHMM>
~h "o"
<BEGINHMM>
<NUMSTATES> 5
<STATE> 2
<MEAN> 39
 3.383345e-01 -1.320298e+00 -7.886928e+00 -1.426283e+01 -4.996547e+00 3.024732e+00 -4.337266e+00 -2.591376e+00 -1.482076e+00 4.475285e-01 1.550788e+00 -3.674728e+00 5.573621e+01 1.158182e+00 -6.149670e-01 -6.395143e-01 -2.016034e+00 -3.319614e-01 9.094523e-01 -2.580442e-01 -2.500371e-01 -2.098496e-01 2.021616e-01 4.510914e-01 -5.228299e-01 1.585374e+00 -2.921225e-01 -3.049389e-03 2.338078e-01 5.006472e-01 1.561998e-01 -1.682697e-01 -1.496989e-02 7.034771e-03 4.380563e-02 -8.587267e-02 -9.961409e-02 -1.082048e-03 -2.774829e-01
<VARIANCE> 39
 3.408704e+01 3.939847e+01 4.648784e+01 1.081743e+02 5.297520e+01 5.961257e+01 7.169221e+01 4.152779e+01 5.749952e+01 4.897856e+01 3.920459e+01 2.762539e+01 7.840583e+01 2.591876e+00 2.716137e+00 3.060474e+00 6.736489e+00 3.490872e+00 3.776589e+00 3.781030e+00 3.178320e+00 3.652893e+00 3.098441e+00 2.763144e+00 2.119253e+00 3.446444e+00 4.814678e-01 5.243897e-01 5.151035e-01 1.253156e+00 5.559058e-01 6.730631e-01 7.053049e-01 5.663921e-01 6.542960e-01 5.145345e-01 4.790534e-01 3.916013e-01 7.009630e-01
<GCONST> 1.313938e+02
<STATE> 3
<MEAN> 39
 1.407033e+00 -3.646813e+00 -6.863564e+00 -1.768968e+01 -3.596254e+00 2.339355e+00 -5.149489e+00 -1.753719e+00 -2.735320e+00 8.778500e-01 2.328040e+00 -4.910306e+00 6.046900e+01 6.590088e-03 -6.532323e-02 1.566731e-01 3.202477e-01 9.994721e-02 -1.560834e-01 -2.503688e-01 1.575509e-02 1.411644e-01 -5.409236e-02 -1.556377e-02 -9.037203e-02 -1.113585e-01 -1.290555e-01 1.895768e-01 2.129952e-01 5.788841e-01 6.498240e-02 -2.787150e-01 -5.199691e-02 -4.570222e-02 1.321119e-01 -1.121826e-01 -1.861508e-01 1.464876e-01 -3.207111e-01
<VARIANCE> 39
 1.434139e+01 3.405978e+01 4.577290e+01 6.265517e+01 5.888488e+01 3.848206e+01 5.145335e+01 4.319360e+01 5.100948e+01 4.989312e+01 5.086487e+01 2.468848e+01 2.364018e+01 3.079884e-01 9.401111e-01 8.818390e-01 2.469885e+00 1.307446e+00 1.837206e+00 1.823094e+00 1.567064e+00 2.005276e+00 1.517129e+00 1.440753e+00 1.219412e+00 5.631280e-01 1.171657e-01 1.814508e-01 1.969105e-01 3.657576e-01 3.063205e-01 2.955983e-01 2.953252e-01 3.215262e-01 3.575905e-01 3.111703e-01 3.177364e-01 2.510696e-01 1.424165e-01
<GCONST> 1.040579e+02
<STATE> 4
<MEAN> 39
 2.233213e+00 -2.543699e+00 -6.350564e+00 -1.177120e+01 -4.269287e+00 -1.388470e-01 -7.894104e+00 -3.276889e+00 -4.635958e-01 4.564025e-01 1.520231e+00 -4.172239e+00 5.709555e+01 -2.831334e-01 9.021990e-01 9.323804e-01 1.882789e+00 5.009097e-01 -5.100502e-01 -4.272958e-02 -1.147623e-01 2.205095e-01 -3.317388e-01 -7.438955e-01 3.397274e-01 -1.431621e+00 -1.812748e-01 1.703058e-01 7.934178e-02 2.980250e-02 4.270584e-02 1.548325e-01 2.652421e-01 -9.658668e-03 -1.377374e-01 -3.480479e-02 -4.118228e-02 2.060530e-03 -1.629116e-01
<VARIANCE> 39
 1.378985e+01 3.702877e+01 3.858153e+01 5.902333e+01 5.558342e+01 5.852145e+01 5.152354e+01 4.393304e+01 5.663702e+01 4.677425e+01 4.622821e+01 3.190067e+01 3.877818e+01 7.562647e-01 1.203493e+00 1.353335e+00 1.902024e+00 2.580188e+00 2.622894e+00 2.447337e+00 2.580030e+00 2.910611e+00 2.181165e+00 2.427241e+00 1.629866e+00 8.599211e-01 1.276179e-01 2.482757e-01 2.231394e-01 4.141267e-01 4.052565e-01 4.798441e-01 3.827314e-01 4.241802e-01 4.989051e-01 4.212742e-01 3.887929e-01 3.017175e-01 1.501082e-01
<GCONST> 1.130822e+02
<TRANSP> 5
 0.000000e+00 1.000000e+00 0.000000e+00 0.000000e+00 0.000000e+00
 0.000000e+00 6.048189e-01 3.951810e-01 0.000000e+00 0.000000e+00
 0.000000e+00 0.000000e+00 7.318024e-01 2.681976e-01 0.000000e+00
 0.000000e+00 0.000000e+00 0.000000e+00 5.743821e-01 4.256179e-01
 0.000000e+00 0.000000e+00 0.000000e+00 0.000000e+00 0.000000e+00
<ENDHMM>
~h "p"
<BEGINHMM>
<NUMSTATES> 5
<STATE> 2
<MEAN> 39
 -4.999949e+00 -2.786105e-01 -2.240925e+00 -4.394272e+00 -1.842960e+00 -8.573760e-01 -3.143145e+00 -9.906260e-01 -7.410210e-02 3.144977e-02 -5.717152e-01 -3.087959e+00 4.704363e+01 -6.548158e-01 1.415352e-01 -5.854385e-02 3.843287e-01 6.719006e-02 -4.480160e-02 2.212753e-01 -2.205617e-02 6.915674e-02 -5.411252e-02 -5.245059e-02 2.615860e-01 -8.809607e-01 6.272242e-02 -1.248608e-01 -4.176999e-02 -1.436305e-01 -6.240184e-02 -5.029461e-02 -3.223095e-02 2.271574e-02 -2.263431e-02 4.541036e-03 7.279346e-02 -4.233922e-02 3.801269e-01
<VARIANCE> 39
 2.163633e+01 3.027960e+01 3.561012e+01 4.179639e+01 3.439437e+01 3.358910e+01 2.444099e+01 2.802392e+01 2.510063e+01 2.332989e+01 1.972813e+01 2.058107e+01 4.064880e+01 5.882970e-01 5.684100e-01 8.449346e-01 1.044595e+00 1.071408e+00 1.290411e+00 1.342548e+00 1.531596e+00 1.320867e+00 1.283069e+00 1.250701e+00 9.641626e-01 8.805234e-01 1.080674e-01 1.416407e-01 1.903094e-01 2.471225e-01 2.336521e-01 2.641697e-01 2.922494e-01 3.166164e-01 2.935344e-01 2.796372e-01 2.637787e-01 1.989593e-01 1.654710e-01
<GCONST> 9.589695e+01
<STATE> 3
<MEAN> 39
 -6.044093e+00 9.703141e-01 -1.148830e+00 -3.386930e+00 -2.703053e+00 -1.988074e+00 -3.120430e+00 -1.556140e+00 -3.890235e-01 -4.595377e-01 -5.892759e-01 -2.291192e+00 4.673846e+01 1.717772e-01 -5.582235e-01 -7.168266e-01 -7.415043e-01 -6.610645e-02 -2.419927e-01 8.921883e-02 -7.477276e-02 4.398903e-03 1.676670e-01 3.035326e-01 -1.929999e-01 1.702197e+00 6.512595e-01 -3.877405e-01 -2.022070e-01 -7.165641e-01 -1.683745e-01 6.985030e-02 -2.793500e-01 1.625928e-02 -3.352118e-02 2.573482e-01 4.602666e-02 -3.627813e-01 1.068790e+00
<VARIANCE> 39
 2.343568e+01 3.516978e+01 3.791154e+01 4.182268e+01 3.623508e+01 3.678284e+01 2.545053e+01 2.859898e+01 2.455774e+01 2.399469e+01 2.032348e+01 1.951648e+01 4.099871e+01 2.885422e+00 2.422778e+00 3.089079e+00 3.542674e+00 2.786229e+00 3.484762e+00 2.729549e+00 2.996335e+00 2.618299e+00 2.467103e+00 2.284202e+00 1.715783e+00 2.999522e+00 3.241823e-01 4.531817e-01 5.576481e-01 5.415247e-01 5.470929e-01 6.177434e-01 4.909277e-01 5.369709e-01 4.805114e-01 4.583995e-01 4.160826e-01 3.238862e-01 3.372402e-01
<GCONST> 1.185253e+02
<STATE> 4
<MEAN> 39
 -2.755051e+00 -2.610306e+00 -4.644170e+00 -8.816963e+00 -2.885254e+00 -1.564502e+00 -3.763458e+00 -2.381204e+00 -5.758379e-01 1.183717e+00 5.019324e-01 -4.949483e+00 5.567284e+01 1.632749e+00 -1.716673e+00 -9.632330e-01 -2.304925e+00 -3.593494e-01 4.348741e-01 -6.772377e-01 3.592609e-01 8.043537e-03 7.725995e-01 1.268186e-01 -1.299696e+00 3.500962e+00 3.244310e-02 -8.879508e-02 3.835473e-01 1.263257e-01 -5.079675e-02 -5.771076e-02 -1.242651e-01 2.495369e-01 4.403656e-02 -1.152157e-01 -2.531461e-01 2.120775e-02 -1.946742e-01
<VARIANCE> 39
 2.905315e+01 3.411522e+01 3.119705e+01 5.359751e+01 2.426118e+01 5.022644e+01 3.376542e+01 2.940043e+01 2.971144e+01 2.951835e+01 2.432524e+01 2.480379e+01 4.632374e+01 3.125074e+00 4.488055e+00 5.537929e+00 5.680086e+00 4.274428e+00 5.242931e+00 4.071045e+00 5.536225e+00 4.556372e+00 3.806689e+00 3.665759e+00 3.145325e+00 3.264628e+00 5.190911e-01 5.551914e-01 5.114723e-01 9.130723e-01 6.579344e-01 7.792376e-01 5.197808e-01 5.516582e-01 5.230260e-01 5.130184e-01 4.894136e-01 4.396306e-01 5.646483e-01
<GCONST> 1.284678e+02
<TRANSP> 5
 0.000000e+00 1.000000e+00 0.000000e+00 0.000000e+00 0.000000e+00
 0.000000e+00 7.901925e-01 2.098075e-01 0.000000e+00 0.000000e+00
 0.000000e+00 0.000000e+00 5.531765e-01 4.468235e-01 0.000000e+00
 0.000000e+00 0.000000e+00 0.000000e+00 3.845773e-01 6.154227e-01
 0.000000e+00 0.000000e+00 0.000000e+00 0.000000e+00 0.000000e+00
<ENDHMM>
~h "r"
<BEGINHMM>
<NUMSTATES> 5
<STATE> 2
<MEAN> 39
 -7.764076e-01 -4.393553e+00 -1.132630e+00 -5.340718e+00 -5.958695e+00 -7.041294e+00 -5.463583e+00 1.806512e+00 2.695747e+00 -2.907305e-03 -1.601858e+00 -3.647317e+00 5.764974e+01 -5.841718e-01 4.979917e-01 5.509388e-01 9.897672e-01 4.305537e-01 -4.602408e-02 9.314343e-02 -1.646764e-01 -3.784436e-03 -3.114190e-01 1.996371e-01 4.492704e-01 -1.088716e+00 -9.587310e-02 -6.026866e-02 2.040481e-02 -3.204386e-01 1.574479e-02 1.246997e-01 8.255025e-02 -8.627190e-02 -2.834287e-01 -1.592988e-02 9.563991e-02 -2.538077e-02 2.378261e-01
<VARIANCE> 39
 1.802770e+01 3.520464e+01 3.901662e+01 4.395034e+01 6.522752e+01 5.100467e+01 4.609573e+01 4.035445e+01 3.797836e+01 3.623450e+01 2.877379e+01 2.246619e+01 3.387945e+01 1.425095e+00 2.065714e+00 2.120337e+00 2.316829e+00 3.101891e+00 2.810556e+00 2.565208e+00 2.611283e+00 2.376618e+00 2.234505e+00 2.076386e+00 1.713639e+00 9.421714e-01 1.742303e-01 2.212119e-01 2.555182e-01 3.358272e-01 4.072729e-01 3.837665e-01 3.542523e-01 4.232007e-01 3.435519e-01 3.228445e-01 3.471082e-01 2.558104e-01 1.538750e-01
<GCONST> 1.120977e+02
<STATE> 3
<MEAN> 39
 -3.445431e+00 -3.364865e+00 -1.793468e-01 -4.323319e+00 -3.760016e+00 -5.968709e+00 -4.311219e+00 1.344626e+00 2.011282e+00 -1.285942e+00 -7.898191e-01 -2.599289e+00 5.571155e+01 -1.635819e-01 7.629000e-02 4.968701e-01 1.481938e-01 -8.817242e-02 -2.751542e-02 1.141514e-01 -1.075201e-01 -4.803640e-01 -1.747466e-01 2.570329e-01 2.302961e-01 -8.783984e-02 2.906679e-01 -1.641329e-01 -7.069164e-02 -4.294530e-01 -3.372125e-01 4.247558e-02 -8.627267e-02 9.581964e-03 -1.884465e-01 1.691801e-01 -5.603145e-04 -1.965810e-01 4.687500e-01
<VARIANCE> 39
 2.395874e+01 3.257220e+01 3.428286e+01 3.952519e+01 4.935067e+01 4.488581e+01 3.914898e+01 3.362222e+01 3.475657e+01 3.039740e+01 2.502884e+01 2.185686e+01 4.059764e+01 1.464000e+00 1.627093e+00 1.977831e+00 1.813443e+00 2.580220e+00 2.327784e+00 2.064274e+00 2.466884e+00 2.051291e+00 1.861534e+00 1.803762e+00 1.428757e+00 9.942039e-01 3.471355e-01 4.366888e-01 4.056024e-01 5.114258e-01 6.072666e-01 5.320801e-01 4.739520e-01 5.439454e-01 4.160096e-01 4.462285e-01 4.563381e-01 3.437838e-01 2.183249e-01
<GCONST> 1.142488e+02
<STATE> 4
<MEAN> 39
 -1.390966e+00 -3.101091e+00 8.396440e-01 -4.910811e+00 -6.741013e+00 -7.743124e+00 -5.201888e+00 6.595293e-02 9.864237e-01 2.347361e-01 -1.228819e+00 -2.740594e+00 5.843717e+01 2.180298e-01 1.531155e-01 2.524235e-01 -2.426476e-01 -4.078715e-01 1.379575e-01 -1.025965e-01 -1.829927e-01 -4.538854e-01 1.313123e-01 8.594708e-02 -1.240837e-01 1.071343e-01 -7.337926e-02 6.667343e-02 -7.529938e-02 -1.585285e-01 7.158688e-02 1.733401e-01 3.799896e-03 -1.066075e-02 3.545502e-03 3.307210e-03 -6.123509e-02 -9.863163e-02 -1.597140e-02
<VARIANCE> 39
 2.587691e+01 4.499619e+01 5.211689e+01 4.296726e+01 5.685398e+01 4.913908e+01 4.667833e+01 4.691931e+01 4.051637e+01 3.581161e+01 3.199362e+01 2.384030e+01 3.605438e+01 2.034568e+00 2.571974e+00 2.678257e+00 2.385102e+00 3.489146e+00 2.558359e+00 2.528428e+00 3.093747e+00 2.207783e+00 2.218556e+00 2.338083e+00 1.644597e+00 2.066922e+00 2.780949e-01 3.656560e-01 3.396234e-01 4.388890e-01 5.415788e-01 4.757121e-01 4.414502e-01 4.812688e-01 3.839718e-01 3.920432e-01 3.731947e-01 3.066684e-01 2.719707e-01
<GCONST> 1.185392e+02
<TRANSP> 5
 0.000000e+00 1.000000e+00 0.000000e+00 0.000000e+00 0.000000e+00
 0.000000e+00 2.177594e-01 7.822406e-01 0.000000e+00 0.000000e+00
 0.000000e+00 0.000000e+00 2.813376e-01 7.186624e-01 0.000000e+00
 0.000000e+00 0.000000e+00 0.000000e+00 4.277900e-01 5.722100e-01
 0.000000e+00 0.000000e+00 0.000000e+00 0.000000e+00 0.000000e+00
<ENDHMM>
~h "s"
<BEGINHMM>
<NUMSTATES> 5
<STATE> 2
<MEAN> 39
 -9.982718e+00 3.952832e+00 -1.694978e+00 -3.248512e+00 -1.180351e+00 -7.555794e+00 -8.841134e-01 -4.005487e-01 4.277707e-01 -2.107710e+00 -1.562515e+00 -2.398083e+00 5.689315e+01 -3.397437e+00 1.923769e+00 -1.046335e+00 9.428031e-01 9.261242e-01 -3.998553e-01 9.905180e-01 1.126709e-01 1.706716e-01 -4.688354e-01 5.365704e-01 1.941421e-01 -1.564067e-01 -1.084278e-01 -2.754861e-01 -9.133902e-02 -3.074994e-01 -1.467476e-01 1.004496e-01 -2.050319e-01 -2.731194e-02 -1.567034e-01 5.224951e-02 3.305979e-02 -5.985452e-02 3.850178e-02
<VARIANCE> 39
 4.639986e+01 4.455424e+01 4.917524e+01 3.664165e+01 5.832130e+01 4.429972e+01 4.715786e+01 4.464583e+01 4.320903e+01 3.882071e+01 3.046922e+01 2.162507e+01 4.050319e+01 1.849292e+00 2.774945e+00 2.795261e+00 3.497612e+00 3.420922e+00 3.190865e+00 2.788021e+00 2.974994e+00 2.355128e+00 2.567980e+00 2.111655e+00 1.800952e+00 9.223373e-01 6.598755e-01 4.272729e-01 3.767416e-01 3.922511e-01 4.895650e-01 4.589486e-01 4.231492e-01 4.423829e-01 3.972973e-01 3.969913e-01 3.497297e-01 2.790229e-01 1.066942e-01
<GCONST> 1.186513e+02
<STATE> 3
<MEAN> 39
 -1.896323e+01 5.486229e+00 -4.556873e+00 -1.981111e+00 -2.638265e-01 -6.783183e+00 1.123718e+00 1.564803e-02 -2.013487e-01 -2.400378e+00 4.641359e-01 -1.085031e+00 5.321441e+01 -5.608469e-01 -2.324317e-01 -9.388588e-02 4.391840e-03 -3.814786e-02 1.995316e-02 1.815146e-01 6.125962e-03 -6.091211e-02 2.754509e-05 1.047347e-01 1.500506e-01 -3.515176e-01 6.292595e-01 -2.904858e-01 2.263374e-01 -9.208824e-02 -1.457921e-01 -1.367453e-02 -7.338891e-02 -2.825639e-03 2.533982e-02 7.399042e-02 -8.334492e-02 -2.286251e-02 9.526473e-03
<VARIANCE> 39
 2.656682e+01 4.352374e+01 3.875305e+01 2.907525e+01 3.676292e+01 4.553468e+01 4.024877e+01 3.315973e+01 3.366739e+01 3.251191e+01 2.188686e+01 1.997667e+01 6.247198e+01 1.375733e+00 1.070428e+00 1.110127e+00 1.070939e+00 1.270611e+00 1.430530e+00 1.447352e+00 1.537671e+00 1.498416e+00 1.395996e+00 1.218164e+00 9.974744e-01 4.192109e-01 3.485638e-01 2.582705e-01 2.322684e-01 2.694242e-01 2.932080e-01 3.160955e-01 3.288700e-01 3.266768e-01 3.095036e-01 3.141897e-01 2.631740e-01 2.236053e-01 8.754163e-02
<GCONST> 1.022236e+02
<STATE> 4
<MEAN> 39
 -1.646831e+01 3.533109e+00 -3.771156e+00 -2.671400e+00 -1.215734e+00 -8.150619e+00 1.015421e+00 -7.175091e-02 6.685947e-01 -2.002303e+00 -3.447750e-01 -1.054685e+00 5.391797e+01 2.679918e+00 -8.212810e-01 5.182028e-01 -6.130444e-01 -9.624040e-01 -1.988285e-01 -7.928488e-01 -2.136056e-01 1.114837e-01 1.385981e-01 -5.237123e-01 -3.721124e-01 6.903880e-01 5.641865e-01 -4.631936e-02 9.397003e-02 -2.569726e-01 -1.943997e-01 6.701589e-02 -3.625990e-01 -7.290538e-02 -5.700433e-02 4.732824e-02 -5.572584e-02 -1.668522e-01 3.409661e-01
<VARIANCE> 39
 5.232346e+01 3.165421e+01 3.704287e+01 3.037480e+01 3.993092e+01 4.477464e+01 3.892281e+01 3.049451e+01 3.407388e+01 2.989253e+01 2.363167e+01 1.858789e+01 4.244036e+01 4.974881e+00 3.314427e+00 3.279468e+00 2.928995e+00 3.463367e+00 3.415878e+00 3.561201e+00 3.347458e+00 2.636813e+00 2.749395e+00 2.480596e+00 1.862905e+00 2.508922e+00 7.968559e-01 4.518182e-01 3.980098e-01 4.539427e-01 5.203620e-01 5.389971e-01 5.569584e-01 5.190637e-01 4.324038e-01 4.373966e-01 4.285318e-01 3.093723e-01 2.726454e-01
<GCONST> 1.216575e+02
<TRANSP> 5
 0.000000e+00 1.000000e+00 0.000000e+00 0.000000e+00 0.000000e+00
 0.000000e+00 6.778867e-01 3.221133e-01 0.000000e+00 0.000000e+00
 0.000000e+00 0.000000e+00 8.116860e-01 1.883140e-01 0.000000e+00
 0.000000e+00 0.000000e+00 0.000000e+00 7.110882e-01 2.889118e-01
 0.000000e+00 0.000000e+00 0.000000e+00 0.000000e+00 0.000000e+00
<ENDHMM>
~h "t"
<BEGINHMM>
<NUMSTATES> 5
<STATE> 2
<MEAN> 39
 -6.827048e+00 -3.640660e-01 -1.460939e+00 -3.063011e+00 -3.140435e+00 -3.426629e+00 -3.037380e+00 -7.427903e-02 4.687643e-02 -6.757336e-01 -1.359137e+00 -2.370960e+00 4.611256e+01 -4.986764e-01 4.960380e-02 -1.458043e-01 2.219774e-01 1.169180e-01 3.232812e-01 1.843779e-01 -3.315024e-02 -3.220280e-02 -1.729692e-02 1.059785e-01 1.973503e-01 -9.304861e-01 -3.594154e-02 -1.299710e-01 -2.846553e-02 -1.521350e-01 -2.681655e-02 -1.485116e-01 1.484476e-02 1.423230e-02 -9.805966e-03 -2.283280e-02 4.730319e-02 3.691252e-03 3.714650e-01
<VARIANCE> 39
 2.777358e+01 3.559003e+01 4.164159e+01 3.869237e+01 3.926096e+01 3.880756e+01 2.926488e+01 3.755930e+01 3.111539e+01 2.645939e+01 2.390114e+01 2.380142e+01 5.188686e+01 6.239763e-01 6.776094e-01 9.363643e-01 1.099614e+00 1.307389e+00 1.569168e+00 1.395405e+00 1.607339e+00 1.427040e+00 1.453694e+00 1.248170e+00 1.029961e+00 1.264207e+00 1.118982e-01 1.667921e-01 2.091369e-01 2.548595e-01 2.759834e-01 3.613004e-01 2.914509e-01 3.460297e-01 3.006733e-01 2.995041e-01 2.596036e-01 2.051475e-01 2.223988e-01
<GCONST> 1.008496e+02
<STATE> 3
<MEAN> 39
 -5.861707e+00 2.067428e+00 2.325614e-01 -2.664676e+00 -3.873661e+00 -4.310485e+00 -4.199389e+00 -2.124328e+00 -8.589367e-01 -5.408769e-01 -1.243079e+00 -2.564204e+00 4.643995e+01 -1.068981e+00 -7.989200e-01 -7.454142e-01 -6.177781e-01 3.764249e-01 -7.698176e-01 5.873447e-01 4.895070e-02 1.713512e-01 -2.813459e-01 2.851116e-01 2.494607e-01 1.267045e+00 2.619053e-01 -2.882843e-01 -8.774073e-02 -5.666281e-01 -9.776355e-02 -3.412490e-01 -1.457627e-01 8.502768e-02 1.832721e-01 2.919613e-02 -7.618392e-02 -1.694468e-01 1.153941e+00
<VARIANCE> 39
 2.194161e+01 3.468819e+01 4.814182e+01 4.441833e+01 4.522692e+01 4.080169e+01 2.805307e+01 3.472334e+01 2.876634e+01 2.557251e+01 2.490663e+01 2.217604e+01 4.312753e+01 1.681628e+00 2.280833e+00 3.179328e+00 3.015326e+00 3.494946e+00 3.791082e+00 2.860193e+00 3.125249e+00 2.544075e+00 2.509275e+00 2.374840e+00 1.645849e+00 3.460392e+00 3.294182e-01 3.945237e-01 6.050821e-01 5.425217e-01 6.030720e-01 5.897431e-01 5.338680e-01 6.639256e-01 4.869328e-01 4.890757e-01 4.649532e-01 3.406172e-01 3.829980e-01
<GCONST> 1.204353e+02
<STATE> 4
<MEAN> 39
 -8.578066e+00 -1.646040e+00 -2.645076e+00 -6.231588e+00 -2.599601e+00 -7.694136e+00 -1.990778e+00 -1.249089e+00 6.890326e-01 -1.365210e+00 -5.509073e-01 -2.395952e+00 5.397446e+01 8.800892e-01 -6.056868e-01 -2.291426e-01 -1.537032e+00 -2.394887e-01 -6.688150e-01 -5.748335e-01 2.667302e-01 4.356728e-01 8.152053e-02 -2.337609e-01 -5.652035e-01 2.939907e+00 6.775892e-01 9.706552e-02 3.327419e-01 -1.472298e-01 -2.388226e-01 4.409222e-01 -4.772748e-01 3.037052e-02 -1.272765e-01 1.706100e-01 -1.120891e-01 -2.187214e-01 -3.177870e-02
<VARIANCE> 39
 2.290818e+01 2.538287e+01 3.761198e+01 3.454407e+01 3.736548e+01 4.389587e+01 3.362313e+01 3.033632e+01 3.304291e+01 2.857472e+01 2.621794e+01 2.239665e+01 5.061448e+01 3.414385e+00 3.866074e+00 6.306325e+00 4.965738e+00 5.025357e+00 5.228883e+00 4.457755e+00 6.155608e+00 4.006839e+00 3.616533e+00 3.524157e+00 2.699658e+00 4.418750e+00 4.232815e-01 5.522001e-01 6.239795e-01 6.924617e-01 7.184507e-01 8.022053e-01 6.649904e-01 7.049723e-01 5.447068e-01 5.624625e-01 5.551933e-01 4.208753e-01 6.566426e-01
<GCONST> 1.290508e+02
<TRANSP> 5
 0.000000e+00 1.000000e+00 0.000000e+00 0.000000e+00 0.000000e+00
 0.000000e+00 7.610279e-01 2.389721e-01 0.000000e+00 0.000000e+00
 0.000000e+00 0.000000e+00 4.414237e-01 5.585763e-01 0.000000e+00
 0.000000e+00 0.000000e+00 0.000000e+00 4.989334e-01 5.010666e-01
 0.000000e+00 0.000000e+00 0.000000e+00 0.000000e+00 0.000000e+00
<ENDHMM>
~h "u"
<BEGINHMM>
<NUMSTATES> 5
<STATE> 2
<MEAN> 39
 4.249646e-01 3.863903e+00 -1.695403e+00 -1.002797e+01 -5.869513e+00 -4.911186e+00 -9.588822e+00 -4.481468e+00 -2.703986e+00 -3.627141e-01 2.422558e-01 -2.078560e+00 5.542829e+01 1.270061e+00 4.306630e-01 -4.888205e-01 -1.778233e+00 -5.761827e-01 7.635388e-01 -1.032494e+00 -7.573256e-01 -6.967039e-01 3.740687e-01 7.677680e-01 1.651767e-01 7.284683e-01 -3.040130e-01 -8.197932e-02 8.616381e-02 2.062721e-01 2.108590e-01 2.971080e-01 3.200037e-01 4.680071e-02 -1.570980e-02 3.345553e-02 -1.796931e-03 -5.512030e-02 -2.717359e-01
<VARIANCE> 39
 2.387604e+01 4.492790e+01 4.350517e+01 6.701480e+01 5.097066e+01 5.230547e+01 5.581586e+01 5.327417e+01 5.155307e+01 4.771102e+01 3.404654e+01 2.465213e+01 4.069432e+01 2.632239e+00 2.289791e+00 3.085685e+00 4.459983e+00 4.076700e+00 4.198257e+00 4.141293e+00 4.015985e+00 3.513768e+00 3.171084e+00 3.104457e+00 2.207510e+00 1.696801e+00 3.633486e-01 4.345883e-01 3.787751e-01 7.344130e-01 5.842238e-01 6.414306e-01 7.886954e-01 6.562858e-01 6.512418e-01 5.419654e-01 4.635777e-01 3.948970e-01 3.426048e-01
<GCONST> 1.271231e+02
<STATE> 3
<MEAN> 39
 1.713577e+00 2.535074e+00 -2.881335e+00 -1.484156e+01 -5.542999e+00 -4.678844e-01 -1.142817e+01 -7.047387e+00 -4.028948e+00 1.298327e+00 3.614450e+00 -2.157393e+00 5.814522e+01 -7.015437e-03 -3.132597e-01 -5.054919e-04 -9.784970e-02 3.541056e-01 2.758830e-01 -2.106912e-01 -1.200612e-01 2.225034e-01 4.797098e-01 5.563935e-02 -3.905845e-01 1.160739e-01 -3.456415e-01 -3.861147e-02 2.786284e-01 8.480910e-01 1.683017e-01 -3.714575e-01 4.221869e-01 3.676412e-01 3.044664e-01 -2.472328e-01 -4.969312e-01 -1.005717e-01 -3.993410e-01
<VARIANCE> 39
 1.897096e+01 4.043000e+01 4.257925e+01 7.369366e+01 5.536515e+01 6.078955e+01 5.685757e+01 6.819714e+01 6.320858e+01 6.497966e+01 4.926131e+01 3.640691e+01 2.975992e+01 7.348502e-01 2.511758e+00 1.796831e+00 4.717662e+00 2.865054e+00 3.685513e+00 3.452775e+00 3.350816e+00 4.698474e+00 3.006578e+00 2.966684e+00 2.569939e+00 1.449032e+00 2.515831e-01 3.394205e-01 3.728792e-01 6.124417e-01 6.030463e-01 6.581845e-01 7.277475e-01 6.955410e-01 7.288689e-01 6.236796e-01 5.896628e-01 5.256453e-01 1.873200e-01
<GCONST> 1.253899e+02
<STATE> 4
<MEAN> 39
 7.813454e-01 3.111026e+00 -2.078853e+00 -1.373948e+01 -3.788624e+00 -2.910017e+00 -9.836492e+00 -4.816742e+00 -5.061438e+00 8.453912e-01 6.831957e-01 -1.921387e+00 5.565003e+01 -2.554543e-01 4.065567e-02 3.091861e-01 8.963859e-01 1.725391e-01 -1.424413e-01 4.104945e-01 2.754970e-01 3.394116e-01 -1.703082e-01 -4.235142e-01 -1.026239e-01 -6.894034e-01 -1.561191e-01 -3.100367e-03 6.918404e-02 2.346221e-01 7.303875e-04 -7.660979e-02 9.716356e-02 1.647096e-02 7.185658e-02 -6.727764e-02 -5.261431e-02 4.081909e-02 -9.887996e-02
<VARIANCE> 39
 1.468492e+01 3.809484e+01 4.665992e+01 7.345147e+01 4.693341e+01 4.455967e+01 4.523398e+01 4.674394e+01 5.744228e+01 5.878595e+01 4.301379e+01 3.252409e+01 3.391648e+01 6.540837e-01 1.281005e+00 1.292610e+00 2.624944e+00 1.770991e+00 2.128496e+00 2.046229e+00 2.166183e+00 2.208272e+00 1.843611e+00 2.009098e+00 1.451753e+00 1.082716e+00 1.228613e-01 1.891355e-01 2.169275e-01 3.732264e-01 3.357662e-01 3.647511e-01 3.672254e-01 3.829038e-01 4.384083e-01 3.551326e-01 3.465860e-01 2.824136e-01 1.086998e-01
<GCONST> 1.100120e+02
<TRANSP> 5
 0.000000e+00 1.000000e+00 0.000000e+00 0.000000e+00 0.000000e+00
 0.000000e+00 4.521705e-01 5.478296e-01 0.000000e+00 0.000000e+00
 0.000000e+00 0.000000e+00 4.753051e-01 5.246949e-01 0.000000e+00
 0.000000e+00 0.000000e+00 0.000000e+00 6.815931e-01 3.184069e-01
 0.000000e+00 0.000000e+00 0.000000e+00 0.000000e+00 0.000000e+00
<ENDHMM>
~h "v"
<BEGINHMM>
<NUMSTATES> 5
<STATE> 2
<MEAN> 39
 -4.687957e+00 -5.178176e-01 2.454209e-02 -1.657885e+00 -3.793183e+00 -1.792304e+00 -9.560676e-01 2.705739e+00 1.138656e+00 -1.304693e+00 -2.200816e+00 -3.399505e+00 5.380940e+01 -1.729636e+00 5.481251e-01 -8.852031e-01 7.763864e-01 1.163962e-01 -3.185078e-01 3.292196e-01 -3.386115e-02 1.939180e-01 -3.732505e-01 -5.837367e-02 4.484174e-01 -9.635922e-01 -1.435090e-01 -1.870014e-01 -6.386633e-02 -2.539351e-01 -1.969932e-01 -2.300496e-01 -2.516690e-01 -2.132086e-01 -1.149233e-01 -7.606306e-02 6.453986e-02 -1.243508e-01 2.495798e-01
<VARIANCE> 39
 1.294047e+01 2.584194e+01 5.061335e+01 2.707320e+01 3.726207e+01 2.803053e+01 1.568045e+01 4.769650e+01 3.447623e+01 2.498938e+01 2.353808e+01 2.315111e+01 2.195298e+01 1.403363e+00 8.992228e-01 1.982344e+00 1.273184e+00 2.343390e+00 2.193712e+00 2.107269e+00 2.060248e+00 2.812329e+00 1.714154e+00 1.557622e+00 1.461359e+00 6.706163e-01 2.414513e-01 1.413871e-01 2.514593e-01 2.112678e-01 3.292832e-01 3.585290e-01 2.762451e-01 3.185165e-01 4.223223e-01 2.507886e-01 2.588113e-01 2.073106e-01 7.345916e-02
<GCONST> 1.020280e+02
<STATE> 3
<MEAN> 39
 -1.202759e+01 -5.346725e-01 -2.382682e+00 -1.011372e+00 -2.975168e+00 -4.706887e+00 -2.291123e+00 -1.175988e+00 2.024938e-01 -3.053733e+00 -1.034238e+00 -1.791680e+00 5.207925e+01 -7.598478e-01 -1.995368e-01 -8.039136e-02 3.050798e-02 -1.058701e-01 -1.553445e-01 6.504581e-02 -1.662142e-01 -2.008998e-01 -9.398911e-02 1.168354e-01 7.267419e-02 -1.841457e-01 7.527347e-01 -3.359729e-02 4.764386e-01 -2.481863e-01 -1.629466e-01 2.327354e-01 4.751705e-02 -1.029763e-02 -1.721428e-01 3.227302e-01 1.783551e-01 -1.400156e-01 2.666020e-01
<VARIANCE> 39
 1.047961e+01 1.529229e+01 3.255539e+01 1.928222e+01 2.011217e+01 2.184129e+01 1.662750e+01 2.455730e+01 2.070556e+01 3.100638e+01 1.710968e+01 1.373612e+01 1.339748e+01 1.753961e+00 1.073823e+00 1.580471e+00 1.043189e+00 1.424332e+00 1.405433e+00 1.161440e+00 1.975642e+00 1.531605e+00 1.723723e+00 1.445466e+00 9.359990e-01 3.113700e-01 2.780007e-01 2.734568e-01 4.198417e-01 3.308652e-01 3.997044e-01 3.347771e-01 3.293539e-01 4.371859e-01 4.202825e-01 3.682676e-01 3.549071e-01 2.162153e-01 1.316921e-01
<GCONST> 9.761626e+01
<STATE> 4
<MEAN> 39
 -9.026711e+00 3.404911e-01 -1.701087e+00 -1.056988e+00 -4.094596e+00 -2.136310e+00 -9.529729e-01 -9.132321e-01 -4.857501e-01 -1.539880e+00 -2.572795e-01 -2.673118e+00 5.184731e+01 2.483402e+00 -8.480905e-02 1.143332e+00 -1.479414e+00 -1.311826e+00 2.450587e-01 -4.802759e-01 -9.861353e-01 -8.827214e-01 9.799877e-01 7.072158e-01 -7.852186e-01 1.658460e+00 4.973655e-01 -2.182031e-01 3.262917e-01 -6.142302e-01 -4.574989e-01 -1.567122e-01 -3.458037e-01 -1.378900e-01 -4.583564e-02 1.851289e-01 -4.130365e-02 -2.618717e-01 6.024749e-01
<VARIANCE> 39
 2.979788e+01 2.361412e+01 4.769217e+01 3.497052e+01 2.682079e+01 3.279025e+01 2.435858e+01 2.810066e+01 2.486927e+01 2.698194e+01 1.733393e+01 1.547317e+01 2.133316e+01 4.086549e+00 3.332198e+00 7.152974e+00 3.973670e+00 3.518078e+00 5.026451e+00 2.985486e+00 5.100376e+00 2.452575e+00 2.170768e+00 2.788209e+00 1.306522e+00 1.361051e+00 6.156001e-01 5.401494e-01 7.550985e-01 5.080653e-01 4.677640e-01 4.968374e-01 4.516391e-01 6.299098e-01 3.937365e-01 4.662658e-01 3.483782e-01 2.708465e-01 1.409667e-01
<GCONST> 1.181587e+02
<TRANSP> 5
 0.000000e+00 1.000000e+00 0.000000e+00 0.000000e+00 0.000000e+00
 0.000000e+00 7.134245e-01 2.865755e-01 0.000000e+00 0.000000e+00
 0.000000e+00 0.000000e+00 7.209337e-01 2.790663e-01 0.000000e+00
 0.000000e+00 0.000000e+00 0.000000e+00 5.663325e-01 4.336676e-01
 0.000000e+00 0.000000e+00 0.000000e+00 0.000000e+00 0.000000e+00
<ENDHMM>
~h "w"
<BEGINHMM>
<NUMSTATES> 5
<STATE> 2
<MEAN> 39
 2.812885e+00 1.207679e-01 -4.896205e+00 -1.387873e+01 -4.984765e+00 2.068408e+00 -4.271006e+00 -2.734208e+00 -1.816252e+00 1.987711e+00 3.652385e+00 -4.114043e+00 5.761179e+01 6.052297e-01 9.562715e-01 2.468396e-02 -9.870819e-01 -7.733809e-01 1.943836e-01 -1.964587e-02 -1.997595e-01 -6.315266e-01 1.889834e-02 5.442807e-01 6.444960e-01 -3.511640e-01 -1.245986e-01 -2.848006e-01 -5.920529e-02 -1.611087e-02 2.597184e-02 -1.495874e-02 7.134564e-02 2.061520e-01 6.284047e-02 -5.359040e-02 -1.197659e-01 -1.188070e-01 1.957421e-01
<VARIANCE> 39
 1.486438e+01 4.253591e+01 3.783780e+01 7.339238e+01 4.370905e+01 3.663672e+01 4.174953e+01 3.079002e+01 3.324771e+01 2.714273e+01 2.577830e+01 2.165437e+01 2.563091e+01 6.130428e-01 1.021371e+00 9.454967e-01 1.654747e+00 1.744247e+00 2.488869e+00 1.524221e+00 1.676975e+00 1.343182e+00 1.423945e+00 1.578694e+00 1.116639e+00 6.056039e-01 7.844847e-02 1.817862e-01 2.070226e-01 3.532766e-01 3.045900e-01 4.244578e-01 2.866957e-01 3.474149e-01 2.821355e-01 2.888668e-01 3.289419e-01 2.711373e-01 8.972881e-02
<GCONST> 1.015136e+02
<STATE> 3
<MEAN> 39
 3.979331e+00 2.751441e+00 -5.956800e+00 -1.753829e+01 -8.310151e+00 4.160519e+00 -5.052635e+00 -2.598675e+00 -4.735997e+00 1.698268e+00 3.807705e+00 -2.272453e+00 5.607331e+01 2.831166e-01 -1.175080e+00 -1.038374e+00 -2.052408e+00 3.446547e-01 1.298312e+00 -1.092668e-01 -2.982397e-01 -2.785861e-01 6.299451e-01 3.726525e-01 -9.569824e-01 1.456253e+00 -3.605480e-01 -5.225084e-01 -3.231992e-02 3.581311e-01 5.848192e-01 -3.261721e-02 1.053935e-02 9.686539e-02 4.844576e-01 8.696613e-02 -3.172701e-01 -5.125556e-01 1.686285e-01
<VARIANCE> 39
 2.111374e+01 4.930813e+01 4.171761e+01 9.817484e+01 5.368354e+01 4.557296e+01 4.066940e+01 3.566843e+01 4.070793e+01 3.639891e+01 3.632449e+01 2.393584e+01 5.246172e+01 1.903727e+00 2.059193e+00 1.421493e+00 4.005636e+00 3.785512e+00 3.779323e+00 2.783610e+00 2.692599e+00 3.415438e+00 2.465270e+00 2.724448e+00 2.310958e+00 1.417983e+00 2.264874e-01 2.424237e-01 2.810452e-01 7.881600e-01 4.495436e-01 5.916761e-01 4.036556e-01 4.368333e-01 4.518342e-01 4.776866e-01 4.407826e-01 3.926819e-01 1.931655e-01
<GCONST> 1.197537e+02
<STATE> 4
<MEAN> 39
 1.747701e+00 -4.094372e+00 -6.804947e+00 -2.048652e+01 -2.586616e+00 6.053250e+00 -4.243436e+00 -2.760831e+00 -1.883707e+00 4.803898e+00 4.015301e+00 -9.116249e+00 6.162959e+01 -6.082932e-01 -1.111630e+00 -2.117650e-01 8.288434e-01 1.039744e+00 -2.535749e-01 3.575308e-02 4.344329e-01 1.018913e+00 -2.777336e-01 -1.036138e+00 -1.156208e+00 3.948727e-01 -2.544396e-02 2.207400e-01 1.820753e-01 3.943733e-01 -1.698894e-01 -3.732413e-01 5.261597e-02 1.189706e-01 2.372036e-03 -3.484487e-01 -1.736785e-01 3.569156e-01 -2.516677e-01
<VARIANCE> 39
 1.286461e+01 4.914764e+01 3.947081e+01 6.096681e+01 4.228326e+01 5.022049e+01 5.570301e+01 3.951195e+01 6.713298e+01 4.631083e+01 4.395069e+01 3.535889e+01 2.213227e+01 3.553951e-01 1.495292e+00 8.240981e-01 1.718967e+00 1.834617e+00 1.808360e+00 1.363222e+00 1.572230e+00 2.179974e+00 1.930540e+00 1.687510e+00 2.257210e+00 1.421415e+00 7.362249e-02 2.306071e-01 1.623130e-01 4.078214e-01 3.101119e-01 3.906195e-01 2.521294e-01 2.839978e-01 3.623860e-01 3.362532e-01 2.814130e-01 3.790052e-01 1.336513e-01
<GCONST> 1.066673e+02
<TRANSP> 5
 0.000000e+00 1.000000e+00 0.000000e+00 0.000000e+00 0.000000e+00
 0.000000e+00 7.473490e-01 2.526511e-01 0.000000e+00 0.000000e+00
 0.000000e+00 0.000000e+00 6.092864e-01 3.907137e-01 0.000000e+00
 0.000000e+00 0.000000e+00 0.000000e+00 7.148347e-01 2.851653e-01
 0.000000e+00 0.000000e+00 0.000000e+00 0.000000e+00 0.000000e+00
<ENDHMM>
~h "y"
<BEGINHMM>
<NUMSTATES> 5
<STATE> 2
<MEAN> 39
 -5.277817e+00 2.217091e-01 9.118645e+00 -1.251287e+01 -1.042421e+01 -8.090320e+00 -5.195673e+00 -1.958678e+00 -4.118382e+00 -1.902352e-01 -6.564816e-02 -1.891572e+00 5.996798e+01 -1.147352e-01 -3.654179e-01 8.436843e-01 -9.710696e-01 -1.085712e+00 -2.765094e-01 3.828638e-01 4.642683e-01 -3.251137e-01 3.551081e-01 5.254186e-01 -6.076156e-04 9.647633e-01 8.802457e-02 -3.027539e-01 -4.857086e-01 1.922700e-01 1.977408e-01 1.249403e-01 1.839819e-01 2.290172e-01 1.556194e-01 -1.111865e-01 -1.165581e-01 -1.343728e-01 -3.254879e-02
<VARIANCE> 39
 2.533880e+01 7.136084e+01 6.206665e+01 8.767365e+01 6.139552e+01 5.157472e+01 4.402112e+01 7.240309e+01 4.087453e+01 5.287270e+01 5.356736e+01 2.313287e+01 5.203888e+01 1.262172e+00 3.230298e+00 4.018630e+00 3.655793e+00 2.819028e+00 2.960844e+00 3.211288e+00 4.540395e+00 2.700212e+00 2.474626e+00 2.110406e+00 1.668252e+00 1.978624e+00 1.517970e-01 3.206743e-01 5.029125e-01 6.059889e-01 6.493351e-01 4.495330e-01 5.160539e-01 5.343577e-01 4.252926e-01 4.410965e-01 4.138173e-01 2.904640e-01 2.074848e-01
<GCONST> 1.232986e+02
<STATE> 3
<MEAN> 39
 -4.960753e+00 -5.933432e+00 9.173100e+00 -1.291226e+01 -1.330201e+01 -9.532776e+00 -1.140487e+00 2.351059e+00 -3.862072e+00 4.084423e-02 2.808482e+00 -3.835404e+00 6.398160e+01 1.503143e-01 -6.912946e-01 -5.743549e-01 8.645990e-02 1.598977e-01 2.130056e-02 6.263413e-01 8.570817e-01 7.775539e-02 -2.907908e-01 -6.671000e-02 -2.130502e-01 2.406226e-01 8.790344e-02 -5.151806e-02 -3.538987e-01 1.726221e-01 4.713440e-01 9.730480e-02 -1.161518e-01 5.819461e-02 1.234341e-01 -1.845613e-01 -2.998634e-01 4.764305e-03 -8.976809e-02
<VARIANCE> 39
 2.451413e+01 3.875885e+01 3.580704e+01 6.705875e+01 3.737088e+01 3.471224e+01 3.910810e+01 6.733768e+01 3.456060e+01 3.785817e+01 4.023240e+01 1.733087e+01 3.145823e+01 2.566473e-01 1.561360e+00 2.066003e+00 1.019423e+00 1.562711e+00 1.117933e+00 1.888193e+00 2.776214e+00 1.526243e+00 1.823961e+00 1.321247e+00 9.829491e-01 2.899932e-01 4.026641e-02 1.475735e-01 1.317149e-01 1.502351e-01 2.477418e-01 2.099300e-01 3.330484e-01 3.871242e-01 2.504010e-01 2.575793e-01 2.055296e-01 1.872014e-01 5.770355e-02
<GCONST> 9.772176e+01
<STATE> 4
<MEAN> 39
 -1.044250e+00 -7.855546e+00 -1.506329e+00 -5.509326e+00 -1.249961e+01 -3.071707e+00 1.440075e+00 3.200907e+00 -2.630771e+00 -4.527274e+00 1.278780e-01 -3.567224e+00 6.092777e+01 2.178302e-01 -5.535437e-01 -1.048633e+00 6.157355e-01 1.181771e+00 2.342006e-01 -7.541671e-02 2.411727e-01 1.913769e-01 -4.810439e-01 -5.733274e-01 -5.590526e-02 -5.905259e-02 1.492843e-02 2.023480e-01 7.937579e-02 -1.872145e-02 1.670434e-01 5.993766e-02 -3.063463e-01 -3.034795e-01 4.452584e-02 1.568984e-01 -3.597303e-02 9.265883e-03 -1.606489e-01
<VARIANCE> 39
 1.498794e+01 3.088404e+01 6.355272e+01 8.115337e+01 4.045683e+01 9.560408e+01 3.139455e+01 5.612067e+01 4.464951e+01 2.677769e+01 3.405631e+01 1.425011e+01 2.657885e+01 2.908590e-01 8.518019e-01 1.648536e+00 1.726953e+00 1.744244e+00 1.393552e+00 1.658981e+00 1.825556e+00 1.462604e+00 1.428591e+00 1.674659e+00 9.569572e-01 2.332683e-01 3.518559e-02 1.278795e-01 1.379174e-01 1.759502e-01 2.235411e-01 2.365289e-01 2.760609e-01 3.865547e-01 2.167665e-01 2.244197e-01 2.065223e-01 1.621833e-01 4.908109e-02
<GCONST> 9.631519e+01
<TRANSP> 5
 0.000000e+00 1.000000e+00 0.000000e+00 0.000000e+00 0.000000e+00
 0.000000e+00 6.205887e-01 3.794113e-01 0.000000e+00 0.000000e+00
 0.000000e+00 0.000000e+00 6.920707e-01 3.079293e-01 0.000000e+00
 0.000000e+00 0.000000e+00 0.000000e+00 6.609174e-01 3.390825e-01
 0.000000e+00 0.000000e+00 0.000000e+00 0.000000e+00 0.000000e+00
<ENDHMM>
~h "z"
<BEGINHMM>
<NUMSTATES> 5
<STATE> 2
<MEAN> 39
 -5.842166e+00 2.025538e+00 -1.019452e+00 -2.771555e+00 -2.805634e+00 9.275195e-01 -3.752724e+00 -2.015162e+00 -1.543136e+00 5.817612e-01 -2.518740e-01 -1.725268e+00 4.457545e+01 -5.668064e-01 2.026694e-01 -2.331080e-01 -2.532156e-02 -1.375622e-01 1.414464e-01 4.472518e-01 1.222452e-01 6.160508e-02 5.845464e-02 -9.760792e-02 7.728169e-02 -6.004652e-01 -6.964607e-02 2.568504e-02 9.911335e-02 -1.999968e-02 -4.038410e-02 -2.789015e-02 2.727617e-02 -2.765793e-02 -3.508949e-02 -2.206967e-02 7.089902e-02 -2.591897e-02 7.111864e-02
<VARIANCE> 39
 4.658062e+01 3.690671e+01 1.944651e+01 1.811238e+01 2.386349e+01 4.379141e+01 2.267270e+01 2.366729e+01 1.884031e+01 2.362877e+01 1.389376e+01 1.034220e+01 4.577756e+01 3.929572e-01 4.118547e-01 3.891304e-01 6.695383e-01 8.699695e-01 9.430545e-01 1.204077e+00 1.323199e+00 1.081605e+00 1.007144e+00 8.798568e-01 6.650252e-01 3.173547e-01 1.079478e-01 6.942552e-02 6.789270e-02 1.538464e-01 2.223842e-01 1.836901e-01 2.733473e-01 2.631364e-01 2.050436e-01 1.492710e-01 1.676136e-01 1.651222e-01 3.256818e-02
<GCONST> 8.283832e+01
<STATE> 3
<MEAN> 39
 -1.219816e+01 3.782088e+00 3.199178e+00 -3.047217e+00 -7.858038e-01 -3.038246e+00 -2.054643e+00 -1.602470e+00 9.351218e-01 -4.380064e+00 1.762077e+00 -1.367635e+00 5.246078e+01 -7.221944e-01 -2.411762e-01 2.002973e-01 6.227094e-02 -3.813848e-01 -5.798549e-01 1.958799e-01 4.678195e-01 3.141000e-01 -9.791707e-02 3.383520e-02 -2.210650e-01 4.781631e-01 6.596032e-01 -3.286805e-01 1.109287e-01 -2.401716e-01 -2.786739e-01 -2.120286e-01 -2.155571e-01 2.489807e-01 -5.074969e-02 2.245180e-01 -1.182827e-02 -1.965481e-01 3.224563e-01
<VARIANCE> 39
 4.035325e+01 4.319552e+01 1.762081e+01 1.769213e+01 2.993520e+01 3.547765e+01 3.518108e+01 2.342507e+01 3.607605e+01 2.989652e+01 1.603362e+01 1.535343e+01 3.587501e+01 7.028786e+00 2.152031e+00 1.106920e+00 2.103972e+00 2.311522e+00 3.327526e+00 3.516363e+00 2.101081e+00 1.694693e+00 1.790754e+00 1.652618e+00 1.481024e+00 9.736719e-01 9.501980e-01 3.249142e-01 2.589791e-01 4.387318e-01 4.171776e-01 7.582659e-01 7.182876e-01 4.894548e-01 3.405760e-01 3.599385e-01 3.082068e-01 3.241121e-01 2.604902e-01
<GCONST> 1.129207e+02
<STATE> 4
<MEAN> 39
 -6.131264e+00 -8.531405e-01 4.753864e+00 -4.329072e+00 -1.566802e+00 -9.020107e+00 -1.660654e+00 6.967866e+00 -1.586965e+00 1.694785e-01 -4.615902e-01 -7.655245e+00 5.571740e+01 1.527194e+00 -8.846635e-01 3.489198e-01 -7.166698e-01 -1.335108e+00 -1.125239e+00 -5.486029e-01 6.957024e-01 -4.173911e-02 7.863101e-01 8.335450e-02 -7.933537e-01 1.257214e+00 -1.445600e-01 -6.079067e-02 -5.070565e-02 -1.138984e-01 2.384706e-02 5.604917e-02 -3.386109e-02 -1.078852e-01 -7.127909e-02 -2.115629e-02 -5.452403e-02 -1.208665e-01 5.058138e-02
<VARIANCE> 39
 2.125217e+01 4.979361e+01 1.200627e+01 2.019328e+01 4.575493e+01 2.886992e+01 1.244578e+01 4.580304e+01 3.868850e+01 3.843320e+01 8.607284e+00 3.751221e+01 4.336459e+01 4.496842e+00 3.332382e+00 1.382602e+00 2.480672e+00 2.667179e+00 3.154347e+00 1.374651e+00 3.693577e+00 2.001591e+00 3.630182e+00 1.222463e+00 3.021166e+00 2.684104e+00 4.386214e-01 2.946288e-01 1.050726e-01 2.392425e-01 3.013182e-01 4.061216e-01 2.157927e-01 2.855155e-01 3.321309e-01 3.362356e-01 1.292114e-01 4.139875e-01 3.196985e-01
<GCONST> 1.096089e+02
<TRANSP> 5
 0.000000e+00 1.000000e+00 0.000000e+00 0.000000e+00 0.000000e+00
 0.000000e+00 8.488994e-01 1.511007e-01 0.000000e+00 0.000000e+00
 0.000000e+00 0.000000e+00 8.108529e-01 1.891470e-01 0.000000e+00
 0.000000e+00 0.000000e+00 0.000000e+00 6.566840e-01 3.433160e-01
 0.000000e+00 0.000000e+00 0.000000e+00 0.000000e+00 0.000000e+00
<ENDHMM>
~h "ai"
<BEGINHMM>
<NUMSTATES> 5
<STATE> 2
<MEAN> 39
 -1.889929e+00 -1.101991e+01 -2.121850e+00 -1.024924e+01 -5.103724e+00 -5.066464e+00 -2.971389e+00 6.694730e+00 -1.174863e-01 -3.126989e+00 -2.993052e+00 -5.731033e+00 6.421007e+01 -3.631515e-01 -5.167875e-01 1.028833e+00 1.616894e-01 -1.085867e+00 -6.875828e-01 8.579783e-01 8.765787e-01 -5.806234e-01 -6.417254e-01 4.014112e-01 5.302087e-01 3.562302e-01 -8.670162e-02 5.529208e-01 2.504447e-01 5.909964e-02 -1.581150e-01 1.140523e-04 -2.408911e-02 -4.578688e-01 -1.061682e-01 2.895187e-01 3.314442e-01 7.447649e-02 -3.539709e-01
<VARIANCE> 39
 1.471879e+01 3.821859e+01 4.617014e+01 5.530288e+01 5.159381e+01 4.424546e+01 3.648483e+01 4.941035e+01 5.178419e+01 3.616389e+01 3.044873e+01 2.862560e+01 3.354238e+01 2.701479e-01 1.233232e+00 1.317465e+00 1.378682e+00 1.945831e+00 2.121666e+00 1.844892e+00 1.867367e+00 1.521758e+00 1.606445e+00 1.861352e+00 1.180171e+00 3.191777e-01 1.200348e-01 1.927132e-01 1.788043e-01 2.638495e-01 3.164218e-01 3.096245e-01 3.157606e-01 4.379545e-01 2.936605e-01 3.680537e-01 3.367918e-01 3.011719e-01 1.296036e-01
<GCONST> 1.039164e+02
<STATE> 3
<MEAN> 39
 -3.485578e+00 -7.751653e+00 5.046081e+00 -1.079780e+01 -1.327978e+01 -7.726517e+00 -1.011935e+00 5.673068e+00 -3.798037e+00 -1.280061e+00 1.534095e+00 -4.898774e+00 6.307933e+01 -2.934870e-01 9.443504e-01 1.346060e+00 -2.910006e-01 -9.151728e-01 -1.721659e-01 -1.945794e-01 -1.069392e+00 -3.831906e-01 7.499607e-01 5.246054e-01 1.081187e-01 -3.257386e-01 6.859065e-02 1.535024e-01 -1.697221e-01 9.684806e-02 3.744032e-01 1.231583e-01 -2.421903e-01 -2.351127e-01 1.026290e-01 2.041895e-02 -2.549039e-01 1.623338e-02 -1.808311e-01
<VARIANCE> 39
 1.656653e+01 3.126564e+01 6.034021e+01 5.025126e+01 4.155148e+01 4.757943e+01 3.175475e+01 5.474097e+01 4.629274e+01 3.201796e+01 4.113781e+01 1.994003e+01 2.901201e+01 1.992163e-01 6.484582e-01 9.136206e-01 1.223049e+00 1.354511e+00 1.229259e+00 1.762609e+00 1.617626e+00 1.447124e+00 1.614486e+00 1.527333e+00 9.541517e-01 1.914895e-01 3.432224e-02 9.854957e-02 1.215881e-01 1.668920e-01 1.884984e-01 2.051671e-01 2.710957e-01 3.009357e-01 2.192073e-01 2.725104e-01 2.011917e-01 1.791806e-01 4.553825e-02
<GCONST> 9.299184e+01
<STATE> 4
<MEAN> 39
 -5.182242e+00 -2.172536e+00 9.975364e+00 -1.135858e+01 -1.222908e+01 -9.241913e+00 -2.690488e+00 -1.447310e+00 -4.332826e+00 1.015503e+00 6.718278e-02 -3.579618e+00 5.926828e+01 1.826122e-01 6.804486e-01 -3.339832e-01 8.021393e-01 7.700130e-01 2.937596e-01 -6.865776e-02 -5.051476e-01 1.577009e-01 -1.361492e-01 -3.866912e-01 1.077310e-01 -1.240629e+00 8.810680e-03 -6.220585e-02 -2.782557e-01 1.317594e-01 1.716231e-01 9.016800e-02 4.788921e-02 1.157197e-01 9.811974e-02 -9.863408e-02 -3.067103e-02 -2.267424e-02 -1.091914e-01
<VARIANCE> 39
 1.986806e+01 3.388641e+01 3.980706e+01 7.653185e+01 5.059144e+01 4.168615e+01 3.659482e+01 4.735293e+01 3.187301e+01 2.996391e+01 4.770558e+01 2.451356e+01 4.270652e+01 5.477167e-01 1.003763e+00 1.422953e+00 1.506684e+00 1.641615e+00 1.624347e+00 1.867933e+00 2.351467e+00 1.709105e+00 1.601164e+00 1.723650e+00 1.245218e+00 6.664210e-01 9.367680e-02 1.563657e-01 2.239361e-01 2.765857e-01 3.121687e-01 2.818993e-01 3.428855e-01 3.973974e-01 3.316853e-01 3.399672e-01 3.377017e-01 2.329842e-01 1.204747e-01
<GCONST> 1.047228e+02
<TRANSP> 5
 0.000000e+00 1.000000e+00 0.000000e+00 0.000000e+00 0.000000e+00
 0.000000e+00 7.110178e-01 2.889822e-01 0.000000e+00 0.000000e+00
 0.000000e+00 0.000000e+00 7.676840e-01 2.323159e-01 0.000000e+00
 0.000000e+00 0.000000e+00 0.000000e+00 7.993951e-01 2.006048e-01
 0.000000e+00 0.000000e+00 0.000000e+00 0.000000e+00 0.000000e+00
<ENDHMM>
~h "au"
<BEGINHMM>
<NUMSTATES> 5
<STATE> 2
<MEAN> 39
 8.772236e-01 -4.299157e+00 -9.521970e+00 -1.872475e+01 -2.667402e+00 8.616586e-01 -7.679262e+00 7.505484e-01 -3.905213e+00 -4.228012e-01 -3.516197e+00 -6.762111e+00 5.999953e+01 2.025034e-01 3.986611e-01 -1.519917e-01 -3.926202e-01 5.768013e-02 2.483777e-01 -1.363264e-01 -2.415078e-01 -1.755884e-01 1.805955e-01 3.271092e-01 1.658584e-01 -2.752262e-01 -2.155053e-02 1.226476e-01 1.162453e-01 1.603453e-01 -6.745470e-02 -9.106383e-02 -3.430429e-02 -1.162182e-01 3.242558e-03 1.217620e-02 4.641578e-02 8.397666e-02 -1.282724e-01
<VARIANCE> 39
 1.298610e+01 4.903286e+01 5.586423e+01 7.062820e+01 3.902427e+01 4.906441e+01 3.609042e+01 3.580102e+01 6.395724e+01 5.681540e+01 4.239820e+01 2.953975e+01 3.205274e+01 2.568565e-01 6.558602e-01 7.485193e-01 1.059201e+00 1.347076e+00 1.498489e+00 1.167610e+00 1.400962e+00 1.289223e+00 1.465906e+00 1.332948e+00 1.226115e+00 2.271434e-01 5.054879e-02 1.263351e-01 1.009592e-01 2.045280e-01 2.088635e-01 2.218654e-01 1.829113e-01 2.641689e-01 2.710064e-01 2.343600e-01 2.365814e-01 2.136855e-01 7.241060e-02
<GCONST> 9.535841e+01
<STATE> 3
<MEAN> 39
 2.088916e+00 -3.989277e-01 -6.638132e+00 -1.610568e+01 -4.106143e+00 2.962234e-02 -1.078617e+01 -4.197891e+00 -2.713669e+00 3.997698e+00 2.072667e+00 -3.952252e+00 5.810444e+01 -3.619831e-03 4.880913e-01 6.489073e-01 9.164474e-01 -6.566399e-02 -2.602244e-01 -4.403533e-01 -4.135238e-01 -9.365693e-02 -1.782062e-01 5.794763e-02 3.894845e-01 -6.885802e-01 -1.367597e-01 2.988899e-02 2.407860e-01 5.053435e-01 -2.994626e-03 -2.945489e-01 2.048818e-01 2.474830e-01 2.330926e-02 -1.655639e-01 -3.384872e-01 -7.019082e-02 -1.846419e-01
<VARIANCE> 39
 8.747633e+00 5.478954e+01 3.168762e+01 6.091154e+01 4.199538e+01 4.664103e+01 6.975212e+01 4.357852e+01 5.322889e+01 4.616328e+01 3.728722e+01 2.808482e+01 3.043558e+01 5.357521e-01 1.658544e+00 1.456210e+00 2.475833e+00 3.081798e+00 3.078112e+00 2.833279e+00 3.103352e+00 4.089339e+00 2.705785e+00 2.546813e+00 2.019392e+00 8.931060e-01 6.913923e-02 2.923729e-01 2.553194e-01 2.523482e-01 5.561008e-01 4.767368e-01 5.550917e-01 5.503565e-01 5.827519e-01 5.392604e-01 4.795294e-01 4.316355e-01 1.162599e-01
<GCONST> 1.146655e+02
<STATE> 4
<MEAN> 39
 -1.971736e+00 -1.303973e+00 -6.392444e+00 -9.483036e+00 -3.465980e-01 1.435350e+00 -4.319075e+00 6.459081e-01 -2.266532e+00 8.348189e-01 9.404435e-01 -4.767008e+00 4.904493e+01 -3.128427e-01 1.574277e-01 3.148459e-01 1.136999e+00 7.925159e-02 -2.207791e-01 2.747515e-01 1.215038e-01 3.786794e-02 -1.150039e-01 -3.077900e-01 -5.886494e-02 -8.239077e-01 -6.165418e-02 -4.483400e-02 -1.774156e-02 -2.632523e-02 8.361369e-03 -8.129547e-03 5.089255e-02 1.377077e-02 -6.607628e-02 -1.729370e-02 1.162112e-02 -1.614254e-03 6.179428e-02
<VARIANCE> 39
 2.226787e+01 3.920649e+01 4.419544e+01 9.789860e+01 6.636745e+01 3.716234e+01 5.039723e+01 4.885659e+01 2.910879e+01 3.725093e+01 2.266193e+01 3.199509e+01 5.323479e+01 3.936042e-01 1.305216e+00 1.282018e+00 1.642400e+00 1.493411e+00 2.044175e+00 1.609351e+00 1.932129e+00 1.836231e+00 1.451101e+00 1.526923e+00 1.270295e+00 9.262306e-01 4.778892e-02 1.750764e-01 1.713555e-01 1.740232e-01 2.938274e-01 3.124763e-01 3.226985e-01 3.291288e-01 3.019610e-01 2.680936e-01 2.584727e-01 2.249568e-01 8.710708e-02
<GCONST> 1.031600e+02
<TRANSP> 5
 0.000000e+00 1.000000e+00 0.000000e+00 0.000000e+00 0.000000e+00
 0.000000e+00 8.579697e-01 1.420303e-01 0.000000e+00 0.000000e+00
 0.000000e+00 0.000000e+00 7.057180e-01 2.942820e-01 0.000000e+00
 0.000000e+00 0.000000e+00 0.000000e+00 7.387831e-01 2.612169e-01
 0.000000e+00 0.000000e+00 0.000000e+00 0.000000e+00 0.000000e+00
<ENDHMM>
~h "ei"
<BEGINHMM>
<NUMSTATES> 5
<STATE> 2
<MEAN> 39
 -3.488625e+00 -1.329486e+01 3.871539e+00 -1.134867e+01 -5.287951e+00 -1.610666e+00 -7.315127e+00 1.008426e+01 -6.764054e+00 -1.326116e+00 -5.109631e+00 5.081263e-01 5.457730e+01 -2.778372e-01 -6.266869e-01 8.033046e-01 -1.495992e+00 -9.373830e-01 4.358311e-02 8.286121e-01 -9.643691e-02 1.142747e-01 1.210315e-01 -4.515341e-01 -2.931622e-01 6.850358e-01 8.323981e-02 2.220008e-01 -3.264950e-01 3.426430e-01 -2.207957e-01 -1.698409e-01 -9.181599e-02 -5.420678e-01 1.980778e-01 4.462530e-02 -4.421553e-03 -1.063615e-01 -1.650426e-01
<VARIANCE> 39
 1.665406e+00 3.164161e+01 1.084160e+01 2.883840e+01 2.772867e+01 3.125166e+01 1.138861e+01 1.997185e+01 1.146057e+01 6.248384e+00 1.479135e+01 5.068920e+00 7.444838e+00 1.873388e-01 4.978913e-01 1.553303e+00 8.227516e-01 8.017787e-01 5.709383e-01 5.593334e-01 2.473196e+00 9.184545e-01 7.186228e-01 5.849327e-01 5.125889e-01 2.684877e-01 1.129601e-01 1.328331e-01 1.181958e-01 2.769049e-01 3.002672e-01 1.474088e-01 2.783295e-01 2.560952e-01 2.500298e-01 2.098982e-01 1.604545e-01 1.221494e-01 7.793366e-02
<GCONST> 7.584637e+01
<STATE> 3
<MEAN> 39
 -2.352044e+00 -9.387062e+00 3.464673e+00 -1.040059e+01 -1.291454e+01 -4.150110e+00 -7.328837e+00 3.881891e+00 -4.951669e+00 3.476405e-01 -5.735523e+00 -2.236230e+00 5.340772e+01 1.970123e-01 1.110359e+00 -2.128436e-01 1.484508e+00 -4.013225e-01 7.848280e-01 -2.831019e-01 -5.948251e-01 1.265948e-01 -2.241929e-01 8.165722e-01 -3.459650e-01 -1.139436e+00 -9.587877e-02 8.180387e-02 1.300338e-01 2.242479e-01 2.637872e-01 1.670787e-01 5.601354e-02 1.858309e-01 -2.526382e-02 -2.003383e-01 2.090840e-02 3.812633e-02 -1.531997e-01
<VARIANCE> 39
 2.489951e+00 2.569748e+01 3.618472e+00 3.760701e+01 1.398217e+01 5.807973e+01 1.319436e+01 1.961201e+01 9.668283e+00 1.287248e+01 3.195651e+01 1.124710e+01 1.682813e+01 2.014937e-01 5.063326e-01 4.912163e-01 1.379604e+00 1.819246e+00 2.892810e+00 7.243806e-01 8.694512e-01 1.155955e+00 1.316477e+00 1.619690e+00 4.037924e-01 3.723651e-01 3.223794e-02 1.309397e-01 5.342023e-02 4.395426e-01 2.897054e-01 5.638637e-01 1.378607e-01 1.473026e-01 1.679229e-01 2.308320e-01 4.744049e-01 9.535445e-02 1.024929e-01
<GCONST> 8.051823e+01
<STATE> 4
<MEAN> 39
 -3.148009e+00 2.443823e+00 6.293474e+00 -1.505486e+01 -1.765731e+01 -8.814725e+00 -1.075615e+01 -4.512146e+00 -1.404690e+00 -9.997617e-01 -7.776066e+00 -1.545275e+00 5.496339e+01 -6.879673e-02 5.076507e-01 3.081454e-01 1.101978e+00 -2.648954e-02 1.508553e-01 -1.118041e-01 -3.827387e-02 -9.708631e-02 -2.580732e-01 2.466943e-01 3.599574e-02 -6.426384e-01 -2.087611e-01 1.160363e-01 -1.581369e-01 1.992932e-01 2.018336e-01 -2.493194e-01 3.064405e-01 1.162958e-01 -1.596738e-02 1.104287e-01 2.689282e-01 4.865579e-02 8.253695e-02
<VARIANCE> 39
 1.735616e+00 2.286412e+01 2.099778e+01 6.890698e+01 1.316938e+01 5.462428e+01 1.826198e+01 2.063531e+01 1.751286e+01 8.590063e+00 1.391723e+01 1.842268e+01 2.243189e+01 2.198029e-01 1.458909e-01 5.599653e-01 1.162146e+00 6.029356e-01 8.729150e-01 2.771175e+00 7.083035e-01 1.400926e+00 9.569629e-01 1.210949e+00 1.304390e+00 1.351822e-01 1.079537e-01 6.015321e-02 1.567706e-01 2.505180e-01 2.534085e-01 3.514863e-01 4.670398e-01 1.396101e-01 2.748334e-01 2.143679e-01 1.410256e-01 2.507078e-01 4.334909e-02
<GCONST> 8.099332e+01
<TRANSP> 5
 0.000000e+00 1.000000e+00 0.000000e+00 0.000000e+00 0.000000e+00
 0.000000e+00 7.391837e-01 2.608163e-01 0.000000e+00 0.000000e+00
