~o
<STREAMINFO> 1 52
<VECSIZE> 52<NULLD><MFCC_D_A_T_0><DIAGC>
~h "proto"
<BEGINHMM>
<NUMSTATES> 5
<STATE> 2
<MEAN> 52
 -4.704510e+00 -1.103709e+00 -2.616500e-01 -5.726226e+00 -3.931308e+00 -3.382174e+00 -3.784538e+00 -5.278155e-01 -8.719915e-01 -8.440589e-01 -9.029119e-01 -2.999709e+00 5.348138e+01 3.453658e-03 -1.211672e-03 2.478141e-03 -2.587918e-03 1.180722e-03 -1.437788e-03 7.582301e-05 -8.767679e-04 -1.277914e-03 -1.967736e-03 -1.859193e-03 -1.121002e-03 1.006024e-02 -8.298113e-05 7.079283e-05 9.746225e-05 4.793386e-04 5.620109e-05 1.483774e-04 4.900038e-05 2.586535e-04 3.670288e-04 6.784983e-05 -9.429256e-05 1.335610e-04 -1.105432e-03 7.442473e-06 4.072430e-05 1.169141e-05 6.206592e-05 -2.168598e-05 3.746375e-05 3.009964e-05 4.098417e-05 3.150817e-05 2.579642e-05 2.224639e-05 6.189732e-05 -1.930433e-04
<VARIANCE> 52
 4.941478e+01 6.272833e+01 6.567508e+01 7.338443e+01 5.950158e+01 5.494858e+01 4.670061e+01 5.320079e+01 4.095282e+01 3.838787e+01 3.347381e+01 2.877404e+01 1.055464e+02 1.772591e+00 2.066407e+00 2.069771e+00 2.640792e+00 2.514299e+00 2.312440e+00 2.279269e+00 2.658525e+00 2.100943e+00 1.965783e+00 1.854149e+00 1.488415e+00 2.114969e+00 2.682002e-01 3.123998e-01 3.212786e-01 4.373820e-01 4.393006e-01 4.108190e-01 4.097324e-01 4.592709e-01 3.804689e-01 3.634385e-01 3.417788e-01 2.740677e-01 3.020167e-01 5.632630e-02 6.590945e-02 6.982628e-02 9.547433e-02 9.956963e-02 9.421957e-02 9.403229e-02 1.027753e-01 8.747452e-02 8.421621e-02 7.874727e-02 6.347421e-02 6.010159e-02
<GCONST> 1.103257e+02
<STATE> 3
<MEAN> 52
 -4.704510e+00 -1.103709e+00 -2.616500e-01 -5.726226e+00 -3.931308e+00 -3.382174e+00 -3.784538e+00 -5.278155e-01 -8.719915e-01 -8.440589e-01 -9.029119e-01 -2.999709e+00 5.348138e+01 3.453658e-03 -1.211672e-03 2.478141e-03 -2.587918e-03 1.180722e-03 -1.437788e-03 7.582301e-05 -8.767679e-04 -1.277914e-03 -1.967736e-03 -1.859193e-03 -1.121002e-03 1.006024e-02 -8.298113e-05 7.079283e-05 9.746225e-05 4.793386e-04 5.620109e-05 1.483774e-04 4.900038e-05 2.586535e-04 3.670288e-04 6.784983e-05 -9.429256e-05 1.335610e-04 -1.105432e-03 7.442473e-06 4.072430e-05 1.169141e-05 6.206592e-05 -2.168598e-05 3.746375e-05 3.009964e-05 4.098417e-05 3.150817e-05 2.579642e-05 2.224639e-05 6.189732e-05 -1.930433e-04
<VARIANCE> 52
 4.941478e+01 6.272833e+01 6.567508e+01 7.338443e+01 5.950158e+01 5.494858e+01 4.670061e+01 5.320079e+01 4.095282e+01 3.838787e+01 3.347381e+01 2.877404e+01 1.055464e+02 1.772591e+00 2.066407e+00 2.069771e+00 2.640792e+00 2.514299e+00 2.312440e+00 2.279269e+00 2.658525e+00 2.100943e+00 1.965783e+00 1.854149e+00 1.488415e+00 2.114969e+00 2.682002e-01 3.123998e-01 3.212786e-01 4.373820e-01 4.393006e-01 4.108190e-01 4.097324e-01 4.592709e-01 3.804689e-01 3.634385e-01 3.417788e-01 2.740677e-01 3.020167e-01 5.632630e-02 6.590945e-02 6.982628e-02 9.547433e-02 9.956963e-02 9.421957e-02 9.403229e-02 1.027753e-01 8.747452e-02 8.421621e-02 7.874727e-02 6.347421e-02 6.010159e-02
<GCONST> 1.103257e+02
<STATE> 4
<MEAN> 52
 -4.704510e+00 -1.103709e+00 -2.616500e-01 -5.726226e+00 -3.931308e+00 -3.382174e+00 -3.784538e+00 -5.278155e-01 -8.719915e-01 -8.440589e-01 -9.029119e-01 -2.999709e+00 5.348138e+01 3.453658e-03 -1.211672e-03 2.478141e-03 -2.587918e-03 1.180722e-03 -1.437788e-03 7.582301e-05 -8.767679e-04 -1.277914e-03 -1.967736e-03 -1.859193e-03 -1.121002e-03 1.006024e-02 -8.298113e-05 7.079283e-05 9.746225e-05 4.793386e-04 5.620109e-05 1.483774e-04 4.900038e-05 2.586535e-04 3.670288e-04 6.784983e-05 -9.429256e-05 1.335610e-04 -1.105432e-03 7.442473e-06 4.072430e-05 1.169141e-05 6.206592e-05 -2.168598e-05 3.746375e-05 3.009964e-05 4.098417e-05 3.150817e-05 2.579642e-05 2.224639e-05 6.189732e-05 -1.930433e-04
<VARIANCE> 52
 4.941478e+01 6.272833e+01 6.567508e+01 7.338443e+01 5.950158e+01 5.494858e+01 4.670061e+01 5.320079e+01 4.095282e+01 3.838787e+01 3.347381e+01 2.877404e+01 1.055464e+02 1.772591e+00 2.066407e+00 2.069771e+00 2.640792e+00 2.514299e+00 2.312440e+00 2.279269e+00 2.658525e+00 2.100943e+00 1.965783e+00 1.854149e+00 1.488415e+00 2.114969e+00 2.682002e-01 3.123998e-01 3.212786e-01 4.373820e-01 4.393006e-01 4.108190e-01 4.097324e-01 4.592709e-01 3.804689e-01 3.634385e-01 3.417788e-01 2.740677e-01 3.020167e-01 5.632630e-02 6.590945e-02 6.982628e-02 9.547433e-02 9.956963e-02 9.421957e-02 9.403229e-02 1.027753e-01 8.747452e-02 8.421621e-02 7.874727e-02 6.347421e-02 6.010159e-02
<GCONST> 1.103257e+02
<TRANSP> 5
 0.000000e+00 1.000000e+00 0.000000e+00 0.000000e+00 0.000000e+00
 0.000000e+00 6.000000e-01 4.000000e-01 0.000000e+00 0.000000e+00
 0.000000e+00 0.000000e+00 6.000000e-01 4.000000e-01 0.000000e+00
 0.000000e+00 0.000000e+00 0.000000e+00 7.000000e-01 3.000000e-01
 0.000000e+00 0.000000e+00 0.000000e+00 0.000000e+00 0.000000e+00
<ENDHMM>
