~o
<STREAMINFO> 1 39
<VECSIZE> 39<NULLD><MFCC_D_A_0><DIAGC>
~s "silst"
<MEAN> 39
 -1.137568e+01 -8.440790e-01 -3.279749e+00 -5.150399e-01 -7.107989e-02 5.938469e-01 -3.947365e-01 1.115038e+00 6.763895e-01 -4.886007e-01 4.629758e-01 3.708115e-01 4.094423e+01 -8.453964e-02 -1.839803e-01 4.395431e-03 -2.485323e-01 1.354546e-01 -1.590316e-01 -1.797986e-02 -4.919264e-02 -7.174663e-02 -8.799981e-03 -3.813903e-02 -2.595547e-02 4.751041e-01 -2.869062e-02 7.990344e-02 1.295500e-01 1.076338e-01 -6.599261e-02 -3.988560e-02 3.473000e-02 2.387627e-02 -5.640405e-03 8.592079e-02 -5.940191e-03 -7.133467e-03 -1.032095e-01
<VARIANCE> 39
 3.045991e+01 2.938681e+01 2.938949e+01 3.703726e+01 3.178941e+01 3.925558e+01 2.461057e+01 2.812064e+01 2.224805e+01 2.196855e+01 1.775206e+01 1.435109e+01 9.893624e+01 2.017650e+00 1.764201e+00 1.963605e+00 2.264960e+00 1.903106e+00 2.255071e+00 1.863530e+00 1.813282e+00 1.586922e+00 1.891125e+00 1.288965e+00 1.101383e+00 3.614076e+00 2.818918e-01 2.678080e-01 3.295791e-01 3.832121e-01 3.277534e-01 4.167356e-01 3.478159e-01 3.282844e-01 2.954034e-01 3.534240e-01 2.410413e-01 2.038918e-01 4.389567e-01
<GCONST> 1.087234e+02
~h "a"
<BEGINHMM>
<NUMSTATES> 5
<STATE> 2
<MEAN> 39
 -1.138175e+00 -8.940928e+00 -4.509837e+00 -1.103173e+01 -3.259462e+00 -3.968646e+00 -4.212280e+00 3.862607e+00 1.433768e+00 -1.525118e+00 -3.293761e+00 -6.919033e+00 6.293530e+01 2.531323e-01 -1.473212e+00 -4.246686e-01 -6.469761e-01 4.655566e-01 5.194033e-01 2.329742e-01 9.035197e-01 6.796250e-02 -5.038304e-01 -4.860993e-01 -5.327690e-01 1.109120e+00 -2.441413e-01 4.904549e-01 3.039063e-01 4.605027e-01 6.421214e-02 -4.158416e-02 -2.063537e-02 -4.233486e-01 -1.730524e-01 1.889752e-03 1.489320e-01 3.197547e-01 -5.880588e-01
<VARIANCE> 39
 1.819226e+01 4.332433e+01 5.356123e+01 5.366297e+01 6.317856e+01 5.894781e+01 5.158790e+01 5.593165e+01 5.352888e+01 4.490882e+01 3.953646e+01 3.754271e+01 3.809737e+01 1.303178e+00 2.222787e+00 2.134703e+00 2.841384e+00 3.123006e+00 2.880143e+00 2.889650e+00 3.208759e+00 2.533990e+00 2.623173e+00 2.322139e+00 2.159692e+00 1.583525e+00 2.659049e-01 3.797163e-01 3.199300e-01 4.478006e-01 5.524505e-01 4.756025e-01 4.838110e-01 6.056458e-01 4.801224e-01 4.544559e-01 4.350263e-01 3.891945e-01 2.769370e-01
<GCONST> 1.211019e+02
<STATE> 3
<MEAN> 39
 -2.170568e+00 -1.120319e+01 -3.808770e+00 -1.117568e+01 -1.585106e+00 -3.142452e+00 -2.664274e+00 3.469223e+00 -9.443500e-01 -3.332823e+00 -3.704299e+00 -5.505695e+00 6.375835e+01 7.829949e-02 1.574779e-01 1.283576e-01 2.596975e-01 5.258940e-02 -4.088021e-02 -3.529294e-02 -1.029295e-01 2.187665e-02 -1.427507e-02 7.750630e-03 1.287574e-01 -3.332002e-01 1.404159e-02 3.831079e-01 1.525744e-01 1.763318e-01 -1.215479e-01 -1.125419e-01 -1.141124e-01 -2.033882e-01 3.483520e-02 1.396676e-01 1.003944e-01 1.025605e-01 -3.124882e-01
<VARIANCE> 39
 1.740328e+01 4.075889e+01 4.766935e+01 5.162503e+01 6.226809e+01 4.309044e+01 4.505915e+01 4.743498e+01 4.546472e+01 4.362096e+01 2.877857e+01 2.922586e+01 3.455720e+01 3.096476e-01 7.927680e-01 8.550955e-01 1.036363e+00 1.508281e+00 1.502991e+00 1.420769e+00 1.481977e+00 1.258047e+00 1.284836e+00 1.125882e+00 1.027592e+00 4.456332e-01 7.511511e-02 1.699347e-01 1.432189e-01 2.162920e-01 2.376133e-01 2.204005e-01 2.682312e-01 3.365753e-01 2.586563e-01 2.502208e-01 2.237580e-01 1.949729e-01 1.118574e-01
<GCONST> 9.808694e+01
<STATE> 4
<MEAN> 39
 -7.282914e-01 -7.200742e+00 -2.863036e+00 -8.833877e+00 -3.596108e+00 -4.428362e+00 -4.459719e+00 3.208174e+00 1.069063e+00 -1.585159e+00 -2.884023e+00 -5.557540e+00 5.988959e+01 5.918340e-02 1.417809e+00 6.302370e-01 1.046396e+00 3.075737e-03 3.989753e-03 -3.120412e-01 -8.367618e-01 -6.564292e-02 2.385581e-01 1.513137e-01 3.755009e-01 -1.585711e+00 -1.398349e-01 1.581385e-01 3.582780e-02 1.468020e-01 7.563653e-02 1.489140e-01 7.926659e-02 -1.641815e-01 -1.117349e-01 -6.913163e-02 -1.493105e-03 1.578197e-02 -1.900490e-01
<VARIANCE> 39
 1.414582e+01 3.744946e+01 5.223056e+01 4.728203e+01 6.139708e+01 5.647723e+01 4.756352e+01 4.802113e+01 4.639996e+01 4.458480e+01 3.532507e+01 3.411398e+01 3.936887e+01 7.065622e-01 1.093645e+00 1.418670e+00 1.585884e+00 1.989904e+00 1.992813e+00 2.076007e+00 2.694913e+00 2.164469e+00 1.833193e+00 1.718945e+00 1.340755e+00 8.513030e-01 1.234657e-01 2.194506e-01 2.329630e-01 2.803266e-01 3.660803e-01 3.763746e-01 3.539881e-01 4.586328e-01 3.452156e-01 3.399680e-01 3.153761e-01 2.566030e-01 1.584915e-01
<GCONST> 1.091170e+02
<TRANSP> 5
 0.000000e+00 1.000000e+00 0.000000e+00 0.000000e+00 0.000000e+00
 0.000000e+00 4.977343e-01 5.022658e-01 0.000000e+00 0.000000e+00
 0.000000e+00 0.000000e+00 7.116293e-01 2.883707e-01 0.000000e+00
 0.000000e+00 0.000000e+00 0.000000e+00 5.029866e-01 4.970135e-01
 0.000000e+00 0.000000e+00 0.000000e+00 0.000000e+00 0.000000e+00
<ENDHMM>
~h "b"
<BEGINHMM>
<NUMSTATES> 5
<STATE> 2
<MEAN> 39
 2.103008e-01 5.169207e+00 3.366592e+00 -1.888096e+00 -2.399153e+00 -1.432554e+00 -4.606091e+00 -3.552976e+00 -2.991280e+00 -1.449146e+00 -1.720440e+00 -3.815411e+00 5.049151e+01 7.853589e-02 7.548822e-01 1.632685e-01 5.514981e-01 4.217414e-01 3.666915e-01 4.574233e-01 -1.212524e-01 -1.707858e-01 -2.878829e-01 -2.764820e-01 4.304520e-02 -6.151223e-01 -6.805216e-02 -3.857529e-01 -1.573334e-01 -3.881049e-01 -2.731026e-01 -2.845043e-01 -2.586427e-01 6.868990e-02 8.102015e-02 1.301506e-01 2.273608e-01 -3.025814e-02 4.951544e-01
<VARIANCE> 39
 1.793995e+01 3.230816e+01 3.162626e+01 3.546282e+01 3.233831e+01 2.622357e+01 2.799216e+01 2.313419e+01 2.744130e+01 2.341765e+01 2.088459e+01 1.701934e+01 3.002747e+01 6.385298e-01 9.888375e-01 1.178041e+00 1.570452e+00 1.343816e+00 1.384102e+00 1.629441e+00 1.588356e+00 1.552615e+00 1.534162e+00 1.430400e+00 9.561018e-01 8.783358e-01 1.276051e-01 2.067036e-01 2.602127e-01 3.446035e-01 2.817592e-01 3.322805e-01 3.592862e-01 4.006143e-01 3.742318e-01 3.648835e-01 3.426142e-01 2.259579e-01 1.295079e-01
<GCONST> 9.984996e+01
<STATE> 3
<MEAN> 39
 2.437292e-01 6.268025e+00 2.748373e+00 -1.288952e+00 -2.212696e+00 -7.448567e-01 -4.301578e+00 -4.174354e+00 -3.913149e+00 -1.934705e+00 -1.833242e+00 -3.384167e+00 4.893903e+01 2.665044e-01 -9.290751e-01 -7.481163e-01 -1.152909e+00 -3.478321e-01 -8.485679e-01 -9.459728e-01 -1.366001e-01 1.677493e-01 6.845635e-01 8.235627e-01 -2.752159e-01 1.689083e+00 -1.299927e-01 -7.005656e-01 -2.156014e-01 -6.937321e-01 -3.615072e-01 -3.630475e-01 -3.509682e-01 2.537413e-01 3.065868e-01 4.017189e-01 1.805917e-01 -1.644156e-01 7.266130e-01
<VARIANCE> 39
 3.581002e+01 3.800874e+01 3.492289e+01 3.952946e+01 3.599569e+01 3.213894e+01 3.211812e+01 3.044204e+01 3.087885e+01 3.095600e+01 2.747426e+01 2.121002e+01 5.023193e+01 2.394856e+00 3.045914e+00 3.184101e+00 4.213268e+00 2.743151e+00 3.446377e+00 3.112809e+00 3.239044e+00 3.538647e+00 3.232938e+00 3.273199e+00 2.250947e+00 2.024933e+00 3.150200e-01 4.736186e-01 4.740282e-01 5.292554e-01 4.769010e-01 4.901656e-01 5.263485e-01 6.647586e-01 6.526139e-01 5.405828e-01 5.509922e-01 4.161607e-01 2.707505e-01
<GCONST> 1.218797e+02
<STATE> 4
<MEAN> 39
 9.300112e-01 2.590585e-01 -5.054556e-01 -7.962340e+00 -3.780776e+00 -3.941577e+00 -8.639150e+00 -3.762265e+00 -1.757172e+00 2.536993e+00 1.886105e+00 -5.783679e+00 5.727293e+01 -3.703500e-01 -2.196321e+00 -8.086663e-01 -2.091270e+00 -9.943106e-01 -1.091490e+00 -8.766719e-01 1.290261e+00 1.154391e+00 1.083644e+00 3.021398e-01 -8.226788e-01 2.456294e+00 -1.738011e-01 9.942321e-02 3.942929e-01 2.417195e-01 -4.080381e-02 1.254649e-01 4.108332e-01 2.847503e-01 -4.681945e-02 -3.831308e-01 -4.674122e-01 1.340313e-01 -2.300824e-01
<VARIANCE> 39
 1.853203e+01 3.483517e+01 2.930962e+01 6.696354e+01 3.633973e+01 4.653601e+01 4.053210e+01 4.120405e+01 5.205487e+01 4.854749e+01 4.540848e+01 3.362606e+01 3.499699e+01 1.773359e+00 3.582992e+00 4.111700e+00 5.164827e+00 3.476222e+00 4.026541e+00 4.540027e+00 5.358320e+00 5.823964e+00 4.943004e+00 4.879854e+00 3.912435e+00 2.257502e+00 2.065083e-01 4.452073e-01 3.026127e-01 8.390754e-01 5.087916e-01 5.673358e-01 6.084806e-01 5.776464e-01 5.729406e-01 6.863523e-01 6.405196e-01 4.765537e-01 3.291117e-01
<GCONST> 1.278861e+02
<TRANSP> 5
 0.000000e+00 1.000000e+00 0.000000e+00 0.000000e+00 0.000000e+00
 0.000000e+00 6.550568e-01 3.449432e-01 0.000000e+00 0.000000e+00
 0.000000e+00 0.000000e+00 4.716511e-01 5.283489e-01 0.000000e+00
 0.000000e+00 0.000000e+00 0.000000e+00 3.665273e-01 6.334727e-01
 0.000000e+00 0.000000e+00 0.000000e+00 0.000000e+00 0.000000e+00
<ENDHMM>
~h "c"
<BEGINHMM>
<NUMSTATES> 5
<STATE> 2
<MEAN> 39
 -6.935246e+00 4.113590e+00 1.842925e+00 -2.258798e+00 -4.400659e+00 -6.114133e+00 -2.617414e+00 -1.272239e+00 -5.605631e-01 -1.650534e+00 -1.254057e+00 -1.742964e+00 4.928771e+01 -2.096405e+00 2.467380e-01 -8.035749e-01 -2.435582e-01 5.986069e-01 1.222534e-01 3.479393e-01 -2.785656e-01 1.954280e-01 -1.646139e-01 2.412342e-01 7.397056e-02 -2.050775e-01 -3.760733e-01 -6.879079e-02 -7.383925e-02 -3.368010e-01 -1.188424e-01 -1.913476e-01 2.784003e-02 2.642225e-02 4.034475e-02 -6.269850e-02 1.222736e-01 3.726285e-02 7.439204e-01
<VARIANCE> 39
 2.483434e+01 3.320748e+01 3.319944e+01 3.423030e+01 3.599691e+01 4.316384e+01 2.534836e+01 2.954805e+01 2.792982e+01 2.536847e+01 1.925321e+01 1.989731e+01 3.753496e+01 2.930062e+00 2.408410e+00 2.585074e+00 2.802459e+00 2.196679e+00 2.485056e+00 2.146874e+00 2.103969e+00 2.037331e+00 1.915943e+00 1.671004e+00 1.306861e+00 3.913609e+00 4.776083e-01 3.640276e-01 4.249763e-01 3.879282e-01 3.770505e-01 4.902243e-01 3.723198e-01 4.521314e-01 4.260595e-01 3.270806e-01 3.126433e-01 2.515516e-01 3.879913e-01
<GCONST> 1.136960e+02
<STATE> 3
<MEAN> 39
 -1.877082e+01 5.028706e+00 -1.976621e-01 -5.698713e+00 -2.508459e+00 -7.276907e+00 -4.808817e-01 -2.166969e+00 1.922869e-01 -2.455416e+00 7.757244e-01 -1.246011e+00 5.561931e+01 1.868379e-01 -5.325792e-01 1.484594e-01 -4.648976e-01 -1.032351e+00 -8.853263e-01 1.967532e-01 6.339817e-01 1.615014e-01 -3.091878e-01 1.417371e-01 1.708698e-01 1.773118e+00 1.851834e+00 -6.705601e-01 1.399316e-01 9.704160e-02 -4.875934e-01 -5.927584e-02 -3.187899e-01 3.826816e-01 -2.318375e-02 5.595036e-02 -3.363025e-01 -2.064696e-01 -7.769293e-02
<VARIANCE> 39
 2.131005e+01 1.858047e+01 3.669772e+01 2.977418e+01 3.334539e+01 3.586248e+01 3.505107e+01 2.575131e+01 3.162722e+01 3.273372e+01 1.921015e+01 2.113038e+01 2.464379e+01 1.089942e+01 2.812426e+00 2.904221e+00 2.919259e+00 3.399256e+00 2.610893e+00 2.689682e+00 3.051197e+00 2.550617e+00 2.234216e+00 2.154205e+00 1.772254e+00 2.128592e+00 5.051848e-01 6.433313e-01 7.035059e-01 6.475199e-01 6.609706e-01 5.440644e-01 4.945408e-01 6.052390e-01 5.140550e-01 5.460323e-01 4.023218e-01 3.892880e-01 3.634876e-01
<GCONST> 1.201080e+02
<STATE> 4
<MEAN> 39
 -6.257121e+00 -1.414549e-01 1.974816e-01 -6.104064e+00 -8.400618e+00 -1.112065e+01 -1.199821e+00 2.471115e+00 8.565584e-01 -3.444560e+00 -1.750651e+00 -1.935909e+00 6.040756e+01 3.863749e+00 -2.773868e+00 -8.279238e-01 -8.813224e-01 -8.355037e-01 7.425838e-02 -5.394987e-01 1.726363e+00 3.322298e-01 -1.474558e-02 -9.773048e-01 -9.628142e-01 1.733593e+00 -4.736072e-01 -1.279884e-01 -3.515677e-01 -1.476218e-01 7.677583e-01 6.438028e-01 -6.606025e-02 -2.103568e-01 -7.509485e-02 1.294917e-01 1.380492e-02 -2.221527e-01 -2.527531e-01
<VARIANCE> 39
 2.792757e+01 3.055655e+01 4.385487e+01 2.741991e+01 3.878559e+01 2.707759e+01 4.317307e+01 3.508445e+01 2.473635e+01 2.812665e+01 1.627905e+01 1.259091e+01 3.891376e+01 2.536750e+00 3.618157e+00 3.298452e+00 3.124352e+00 4.497883e+00 3.049423e+00 2.967016e+00 4.495000e+00 2.396470e+00 3.583304e+00 1.995121e+00 1.941727e+00 1.457623e+00 7.272739e-01 4.487697e-01 4.078179e-01 3.867050e-01 4.578342e-01 3.924607e-01 3.297029e-01 5.089090e-01 3.909688e-01 4.615452e-01 4.210847e-01 3.046368e-01 2.814561e-01
<GCONST> 1.174655e+02
<TRANSP> 5
 0.000000e+00 1.000000e+00 0.000000e+00 0.000000e+00 0.000000e+00
 0.000000e+00 7.529389e-01 2.470611e-01 0.000000e+00 0.000000e+00
 0.000000e+00 0.000000e+00 6.938061e-01 3.061939e-01 0.000000e+00
 0.000000e+00 0.000000e+00 0.000000e+00 5.428776e-01 4.571225e-01
 0.000000e+00 0.000000e+00 0.000000e+00 0.000000e+00 0.000000e+00
<ENDHMM>
~h "d"
<BEGINHMM>
<NUMSTATES> 5
<STATE> 2
<MEAN> 39
 -6.106396e+00 9.388469e-01 1.944398e+00 -4.629790e-01 -2.619467e+00 -2.747999e+00 -1.959782e+00 1.422858e-01 -5.596660e-01 -1.628235e+00 -1.054878e+00 -1.555849e+00 4.567985e+01 3.086318e-03 5.373995e-01 1.828196e-01 4.135810e-01 3.266363e-01 1.687178e-01 1.517022e-01 -5.083017e-02 -6.850526e-02 -1.107155e-01 -1.918040e-01 -4.186561e-02 -5.190908e-01 -5.496029e-02 -1.899097e-01 1.811391e-02 -2.143245e-01 -1.606730e-01 -1.557521e-01 -5.233140e-02 6.345684e-02 -2.072457e-02 2.048925e-03 1.087971e-01 3.090004e-02 3.207887e-01
<VARIANCE> 39
 5.375504e+01 4.466830e+01 4.152533e+01 3.867791e+01 5.400391e+01 4.515590e+01 4.491676e+01 3.708167e+01 3.078397e+01 2.904533e+01 2.641609e+01 2.318603e+01 8.228571e+01 7.522445e-01 1.393422e+00 1.128569e+00 1.477220e+00 1.669498e+00 1.734061e+00 1.663334e+00 1.904681e+00 1.604142e+00 1.537671e+00 1.445967e+00 1.105012e+00 9.767265e-01 1.595509e-01 2.895273e-01 2.178355e-01 3.112805e-01 3.399948e-01 3.609002e-01 3.311394e-01 4.073198e-01 3.249967e-01 3.243710e-01 3.102926e-01 2.241490e-01 2.048682e-01
<GCONST> 1.074372e+02
<STATE> 3
<MEAN> 39
 3.714456e-01 4.693091e+00 5.333028e+00 8.125855e-02 -4.441234e+00 -4.796677e+00 -4.856922e+00 -9.915841e-01 -1.033175e+00 -3.360764e+00 -3.916595e+00 -3.383474e+00 5.073660e+01 -2.032639e-01 -8.496760e-01 5.698266e-01 -7.260550e-01 -6.715583e-01 -1.136497e+00 -3.791251e-01 3.624950e-01 -3.294591e-02 -1.880057e-01 5.402117e-01 4.385974e-01 1.504610e+00 -2.658528e-01 -7.763885e-01 -1.082421e-01 -7.926075e-01 -6.449717e-01 -4.371368e-01 -2.072656e-01 2.628384e-01 1.341130e-01 2.154883e-01 4.339269e-01 1.001156e-01 8.767594e-01
<VARIANCE> 39
 2.167990e+01 5.117719e+01 3.240402e+01 3.661782e+01 4.517750e+01 3.060257e+01 3.183877e+01 3.139267e+01 2.757784e+01 2.784076e+01 2.533437e+01 1.925085e+01 4.104071e+01 2.705811e+00 4.505735e+00 2.559007e+00 3.336836e+00 4.203637e+00 3.585202e+00 3.216457e+00 4.555414e+00 2.774794e+00 2.741208e+00 2.702947e+00 2.007107e+00 2.633953e+00 3.280640e-01 5.719239e-01 4.472221e-01 5.059000e-01 6.469466e-01 5.440976e-01 5.800614e-01 8.016984e-01 5.313948e-01 4.886591e-01 4.709544e-01 3.780954e-01 2.716531e-01
<GCONST> 1.218394e+02
<STATE> 4
<MEAN> 39
 -1.630095e+00 -3.006486e+00 5.876125e+00 -5.930107e+00 -9.581584e+00 -1.129083e+01 -7.098130e+00 2.783300e+00 5.351617e-01 -2.852892e+00 1.862940e-01 -1.037134e+00 6.002742e+01 -5.350847e-01 -1.604367e+00 -4.946368e-01 -2.086974e+00 -1.640431e+00 -1.065583e+00 -9.445383e-02 1.418373e+00 5.482846e-01 5.811015e-01 8.330052e-01 -2.815130e-01 2.348526e+00 1.182670e-01 3.609349e-01 -2.759137e-01 5.084383e-02 3.425941e-01 6.535705e-01 2.593244e-01 -1.454248e-01 -8.284567e-02 8.129883e-02 -3.410694e-01 -4.460490e-01 -3.750706e-01
<VARIANCE> 39
 1.717764e+01 3.622464e+01 3.386741e+01 4.510936e+01 5.217040e+01 3.939140e+01 5.444630e+01 6.189206e+01 4.606189e+01 3.568284e+01 2.481283e+01 2.287659e+01 3.312224e+01 1.567039e+00 3.656776e+00 3.959317e+00 3.281960e+00 4.032853e+00 3.551937e+00 4.516387e+00 6.108169e+00 3.859674e+00 2.996844e+00 3.447038e+00 2.593648e+00 1.982988e+00 1.477575e-01 4.277762e-01 3.496580e-01 6.213261e-01 8.283425e-01 6.025735e-01 6.422877e-01 7.036576e-01 4.801438e-01 5.142371e-01 4.486718e-01 3.581144e-01 2.951158e-01
<GCONST> 1.238274e+02
<TRANSP> 5
 0.000000e+00 1.000000e+00 0.000000e+00 0.000000e+00 0.000000e+00
 0.000000e+00 7.121223e-01 2.878777e-01 0.000000e+00 0.000000e+00
 0.000000e+00 0.000000e+00 5.459445e-01 4.540555e-01 0.000000e+00
 0.000000e+00 0.000000e+00 0.000000e+00 4.744457e-01 5.255544e-01
 0.000000e+00 0.000000e+00 0.000000e+00 0.000000e+00 0.000000e+00
<ENDHMM>
~h "e"
<BEGINHMM>
<NUMSTATES> 5
<STATE> 2
<MEAN> 39
 -1.632651e+00 -1.894896e+00 -1.376293e+00 -8.442030e+00 -5.397709e+00 -6.568980e+00 -6.586505e+00 -5.429657e-01 5.195225e-01 4.549395e-01 -4.362414e-01 -3.941405e+00 5.898877e+01 1.409334e+00 -8.706918e-01 8.497665e-02 -1.308857e+00 -8.840838e-01 -2.512650e-01 -8.524148e-01 6.854531e-01 3.611513e-01 3.869870e-01 7.446470e-03 -5.186647e-01 1.620618e+00 -3.172517e-01 2.528702e-01 1.979629e-01 4.193083e-01 1.973795e-01 2.818254e-01 2.342155e-01 -1.262966e-01 -1.547502e-01 -1.330220e-01 -4.427145e-02 8.988769e-02 -6.064866e-01
<VARIANCE> 39
 3.423652e+01 4.283290e+01 5.263614e+01 6.045513e+01 6.222203e+01 7.150602e+01 4.879081e+01 5.344274e+01 5.119525e+01 4.784378e+01 3.922460e+01 2.604341e+01 4.971071e+01 3.888615e+00 3.319438e+00 3.336897e+00 4.213234e+00 4.544837e+00 4.462612e+00 4.692713e+00 4.791309e+00 4.532034e+00 3.573133e+00 3.216926e+00 2.430910e+00 2.039751e+00 4.889328e-01 5.023589e-01 5.428910e-01 6.862807e-01 6.131715e-01 6.494494e-01 6.647555e-01 6.666973e-01 6.384212e-01 5.761298e-01 5.262741e-01 3.837145e-01 4.626323e-01
<GCONST> 1.313198e+02
<STATE> 3
<MEAN> 39
 -7.973400e-01 -3.661790e+00 -1.341432e+00 -9.933742e+00 -6.073819e+00 -6.874478e+00 -7.333109e+00 1.164570e+00 1.146801e+00 8.259609e-01 -3.810790e-01 -4.563267e+00 6.108525e+01 4.965475e-01 -8.743483e-02 4.403244e-01 -3.964453e-03 -2.996067e-01 1.023951e-01 -1.378171e-01 1.641316e-01 -7.884108e-02 2.955018e-02 -5.739543e-02 -7.815119e-02 3.724211e-02 -4.435878e-01 5.306015e-01 2.081015e-01 7.242420e-01 3.456914e-01 2.532967e-01 3.679932e-01 -4.107029e-01 -2.398794e-01 -2.296668e-01 -5.093088e-02 2.093140e-01 -8.526060e-01
<VARIANCE> 39
 2.652247e+01 4.351669e+01 5.641205e+01 6.225496e+01 6.705093e+01 7.114119e+01 5.394111e+01 5.834095e+01 5.952730e+01 5.588905e+01 4.458175e+01 3.058790e+01 3.607935e+01 1.333918e+00 1.708041e+00 1.719225e+00 2.772323e+00 2.629721e+00 2.888765e+00 2.523918e+00 2.797513e+00 2.482019e+00 2.249241e+00 2.039905e+00 1.570282e+00 1.072436e+00 4.824260e-01 4.616746e-01 5.348364e-01 6.215289e-01 6.878075e-01 6.691011e-01 7.329968e-01 7.716839e-01 7.192885e-01 6.421912e-01 5.829464e-01 3.980618e-01 2.777543e-01
<GCONST> 1.241878e+02
<STATE> 4
<MEAN> 39
 -1.442158e+00 -3.475331e+00 1.156360e+00 -9.069566e+00 -7.770874e+00 -7.275171e+00 -5.330219e+00 6.229529e-01 -9.810719e-01 -1.201491e-01 -2.599475e-01 -3.767087e+00 6.003900e+01 3.214108e-02 6.666257e-01 3.768349e-01 8.685487e-01 3.331990e-01 3.185129e-01 1.459822e-01 -3.676715e-01 -1.554371e-01 -1.856053e-01 -1.830902e-01 1.328791e-01 -1.027106e+00 -2.089353e-01 2.323546e-01 2.031812e-03 2.979529e-01 1.688439e-01 1.067066e-01 1.138447e-01 -1.741831e-01 -1.929154e-02 -7.011956e-02 -3.540888e-02 5.915533e-02 -3.599715e-01
<VARIANCE> 39
 2.233037e+01 4.180879e+01 5.925928e+01 6.095794e+01 8.621022e+01 6.186281e+01 5.155565e+01 5.074336e+01 5.028297e+01 4.793099e+01 4.946757e+01 2.534609e+01 3.527822e+01 8.384465e-01 1.490280e+00 1.525505e+00 2.053964e+00 1.906920e+00 2.006705e+00 2.132626e+00 2.396770e+00 2.061301e+00 1.794042e+00 1.689556e+00 1.202127e+00 1.248598e+00 2.393330e-01 2.459257e-01 2.923126e-01 3.860619e-01 4.247178e-01 4.259547e-01 4.417352e-01 4.651965e-01 4.116032e-01 3.684020e-01 3.572224e-01 2.507040e-01 1.466141e-01
<GCONST> 1.136953e+02
<TRANSP> 5
 0.000000e+00 1.000000e+00 0.000000e+00 0.000000e+00 0.000000e+00
 0.000000e+00 2.409104e-01 7.590895e-01 0.000000e+00 0.000000e+00
 0.000000e+00 0.000000e+00 1.500298e-01 8.499702e-01 0.000000e+00
 0.000000e+00 0.000000e+00 0.000000e+00 4.886235e-01 5.113765e-01
 0.000000e+00 0.000000e+00 0.000000e+00 0.000000e+00 0.000000e+00
<ENDHMM>
~h "f"
<BEGINHMM>
<NUMSTATES> 5
<STATE> 2
<MEAN> 39
 -7.059090e+00 1.409610e+00 3.387262e-01 -1.372555e+00 -3.242331e+00 -3.683306e+00 -4.429070e+00 -1.982077e+00 -5.927398e-01 -1.469333e+00 -2.624077e-01 -2.822890e+00 5.299107e+01 -2.329563e+00 -3.935434e-02 -1.198483e+00 1.346962e+00 4.667737e-01 -5.772185e-01 1.789200e-01 7.749929e-02 3.883685e-01 2.189084e-01 7.215659e-02 4.193584e-01 -5.684796e-01 3.028611e-02 -2.291127e-01 2.751777e-02 -2.610900e-01 -3.484236e-01 -1.592470e-01 -7.834082e-02 -5.360417e-02 -4.805508e-02 4.230918e-02 1.117756e-02 -9.485023e-02 1.677850e-01
<VARIANCE> 39
 2.594821e+01 2.444542e+01 5.680559e+01 4.016372e+01 5.870739e+01 6.533829e+01 4.079918e+01 2.928783e+01 3.039852e+01 2.408564e+01 2.454971e+01 2.012028e+01 2.506341e+01 1.223230e+00 1.980694e+00 2.949480e+00 2.171439e+00 4.511763e+00 2.724478e+00 2.901547e+00 2.571731e+00 2.044427e+00 2.306210e+00 1.372721e+00 1.463572e+00 7.314389e-01 3.484384e-01 2.430570e-01 3.421089e-01 3.546764e-01 4.727522e-01 4.015888e-01 3.019176e-01 3.701683e-01 3.536904e-01 3.558074e-01 1.962394e-01 2.854891e-01 1.022971e-01
<GCONST> 1.107512e+02
<STATE> 3
<MEAN> 39
 -1.208404e+01 -1.668087e+00 -3.575576e+00 1.116175e+00 -2.226878e+00 -1.779594e+00 -2.009007e+00 7.120790e-01 7.260769e-02 -1.060590e+00 5.046049e-01 -1.461951e+00 4.470112e+01 -4.062907e-01 -1.254175e-01 -9.320387e-02 1.337824e-01 -4.146432e-02 -7.047981e-02 1.119233e-01 1.685227e-02 1.452208e-02 1.050199e-01 6.477126e-02 1.203820e-01 -2.470106e-01 3.078731e-01 -1.317025e-02 1.190836e-01 -1.812917e-01 -3.702125e-02 9.906899e-02 6.245426e-03 -3.196853e-02 -1.041890e-01 -2.790452e-02 -1.918561e-02 -3.846660e-02 4.748192e-02
<VARIANCE> 39
 1.621531e+01 2.373539e+01 2.778369e+01 3.792187e+01 2.881645e+01 3.526691e+01 3.658524e+01 3.884616e+01 2.278681e+01 2.271159e+01 1.957047e+01 1.381159e+01 8.928667e+01 7.269393e-01 7.996262e-01 1.046692e+00 1.117711e+00 1.134784e+00 1.324586e+00 1.551919e+00 1.493598e+00 1.359812e+00 1.155625e+00 9.736484e-01 8.791683e-01 5.993353e-01 2.560723e-01 1.795544e-01 2.572360e-01 2.656640e-01 2.853651e-01 2.976530e-01 3.504734e-01 3.404902e-01 3.086940e-01 2.557283e-01 2.006235e-01 1.776803e-01 1.060847e-01
<GCONST> 9.728972e+01
<STATE> 4
<MEAN> 39
 -1.238362e+01 -9.094256e-01 -1.769448e+00 4.235725e-01 -3.633231e+00 -4.393783e+00 -3.211653e+00 -2.383523e+00 2.041968e-02 -2.161041e-01 -4.811011e-01 -2.136693e+00 5.146798e+01 1.891074e+00 1.415318e-01 6.181973e-01 -1.466809e+00 -8.699784e-01 2.935382e-01 3.994971e-03 -6.425593e-01 -9.798714e-01 -9.414068e-02 7.530470e-02 -3.077036e-01 6.370897e-01 8.443649e-01 2.641993e-01 3.857036e-01 -8.600709e-01 -4.461155e-01 1.568007e-01 -1.548976e-01 -1.525504e-01 -3.433192e-01 2.302826e-02 1.353150e-01 -2.365284e-01 4.841085e-01
<VARIANCE> 39
 2.092048e+01 1.820249e+01 4.530460e+01 3.550376e+01 4.377167e+01 3.922552e+01 4.254135e+01 2.670870e+01 2.513303e+01 1.828192e+01 1.876074e+01 1.801321e+01 3.422701e+01 3.319797e+00 3.159020e+00 5.265831e+00 5.098042e+00 3.297278e+00 3.778311e+00 2.451944e+00 2.870985e+00 2.863724e+00 1.639168e+00 1.981409e+00 1.905999e+00 3.117499e+00 3.890339e-01 5.085450e-01 7.182569e-01 8.050446e-01 6.329554e-01 5.320397e-01 5.431194e-01 5.371073e-01 4.825897e-01 2.902024e-01 3.243801e-01 4.080116e-01 2.591749e-01
<GCONST> 1.192719e+02
<TRANSP> 5
 0.000000e+00 1.000000e+00 0.000000e+00 0.000000e+00 0.000000e+00
 0.000000e+00 6.228638e-01 3.771361e-01 0.000000e+00 0.000000e+00
 0.000000e+00 0.000000e+00 8.064936e-01 1.935064e-01 0.000000e+00
 0.000000e+00 0.000000e+00 0.000000e+00 5.982296e-01 4.017704e-01
 0.000000e+00 0.000000e+00 0.000000e+00 0.000000e+00 0.000000e+00
<ENDHMM>
~h "g"
<BEGINHMM>
<NUMSTATES> 5
<STATE> 2
<MEAN> 39
 -7.657639e-02 4.607321e+00 3.647185e+00 -2.540218e+00 -5.328588e+00 -4.696942e+00 -5.753445e+00 -2.519134e+00 -2.456887e+00 -8.138886e-01 -2.628538e+00 -3.291645e+00 5.121793e+01 -1.535368e-01 8.315741e-01 2.700893e-01 7.653118e-01 4.119244e-01 6.057708e-01 3.779945e-01 -1.633017e-01 -1.563898e-02 -3.138430e-01 -3.473060e-01 2.088960e-02 -1.061385e+00 -1.803454e-01 -3.669531e-01 -1.188630e-01 -3.438035e-01 -1.266631e-02 -2.183883e-01 -9.126424e-02 1.695883e-01 1.680252e-02 8.988845e-02 9.988207e-02 1.024721e-02 4.757470e-01
<VARIANCE> 39
 1.231967e+01 3.640127e+01 2.872878e+01 3.811347e+01 4.527804e+01 3.457304e+01 3.561829e+01 2.774190e+01 2.112913e+01 2.856213e+01 2.841760e+01 2.560692e+01 2.755668e+01 5.417002e-01 8.324183e-01 1.131200e+00 1.620780e+00 1.773536e+00 1.733068e+00 1.876551e+00 1.901332e+00 1.855447e+00 1.797263e+00 1.688850e+00 1.394489e+00 8.249811e-01 1.396133e-01 1.912138e-01 2.946566e-01 3.055589e-01 5.089511e-01 4.493973e-01 4.152052e-01 4.375259e-01 4.115330e-01 3.666102e-01 3.402213e-01 2.929707e-01 1.492975e-01
<GCONST> 1.041045e+02
<STATE> 3
<MEAN> 39
 -9.322989e-01 5.999310e+00 3.479517e+00 -1.240637e+00 -4.726924e+00 -3.834391e+00 -5.465025e+00 -2.573792e+00 -2.405308e+00 -1.106058e+00 -3.255173e+00 -3.306129e+00 4.915671e+01 -8.495158e-01 -8.397832e-01 -1.761160e-01 -4.645207e-01 7.275274e-01 -9.247448e-01 -1.030565e-01 2.537266e-01 -3.872105e-01 2.598473e-01 6.783698e-02 2.545670e-01 1.168890e+00 -9.621032e-02 -4.468255e-01 2.840840e-02 -6.216138e-01 -3.218684e-01 -4.668938e-01 -2.468125e-01 3.697287e-02 -5.410748e-02 1.687662e-01 2.226673e-01 8.830592e-02 7.738093e-01
<VARIANCE> 39
 2.138831e+01 3.910622e+01 3.672991e+01 4.369280e+01 4.704624e+01 3.783616e+01 3.723919e+01 3.047161e+01 2.430344e+01 3.033369e+01 2.591399e+01 2.093707e+01 3.837553e+01 1.961009e+00 3.252616e+00 3.506676e+00 3.540843e+00 5.559548e+00 4.174675e+00 3.758171e+00 3.744674e+00 2.823565e+00 2.772697e+00 2.603382e+00 1.895413e+00 1.560723e+00 2.813533e-01 4.139908e-01 4.374919e-01 4.854950e-01 7.998989e-01 5.169669e-01 5.056223e-01 6.665106e-01 4.584172e-01 4.854929e-01 4.927641e-01 3.263853e-01 2.149113e-01
<GCONST> 1.205747e+02
<STATE> 4
<MEAN> 39
 -3.096762e+00 7.032514e-01 2.880301e+00 -5.189359e+00 -4.604292e+00 -1.035991e+01 -7.321127e+00 -6.806868e-01 -3.452342e+00 1.081110e+00 -2.018172e+00 -2.345117e+00 5.704285e+01 -1.147536e-01 -9.919594e-01 2.164004e-01 -1.807181e+00 -1.673986e+00 -1.041027e+00 -2.466728e-01 8.594321e-01 1.859652e-01 3.640847e-01 6.194929e-01 -6.611802e-02 1.919726e+00 2.981449e-01 3.856714e-02 6.031122e-03 -1.293807e-01 -3.490927e-01 4.936148e-01 1.748707e-01 3.803459e-02 2.173847e-01 -2.280705e-01 2.316680e-02 -2.504563e-01 -1.658181e-01
<VARIANCE> 39
 2.397704e+01 3.252174e+01 5.518262e+01 5.439437e+01 6.995369e+01 5.272635e+01 5.315021e+01 3.824345e+01 3.494465e+01 4.176780e+01 5.116643e+01 3.284923e+01 3.395977e+01 1.617564e+00 2.935439e+00 3.318579e+00 3.591290e+00 5.425123e+00 3.869691e+00 3.392543e+00 4.300362e+00 3.892137e+00 3.332308e+00 3.379275e+00 2.478296e+00 1.316975e+00 2.307368e-01 4.933420e-01 5.011865e-01 6.626796e-01 1.369883e+00 7.176917e-01 7.504597e-01 5.909550e-01 5.393673e-01 6.331010e-01 5.277052e-01 4.152628e-01 2.214588e-01
<GCONST> 1.269294e+02
<TRANSP> 5
 0.000000e+00 1.000000e+00 0.000000e+00 0.000000e+00 0.000000e+00
 0.000000e+00 6.358259e-01 3.641741e-01 0.000000e+00 0.000000e+00
 0.000000e+00 0.000000e+00 4.961719e-01 5.038281e-01 0.000000e+00
 0.000000e+00 0.000000e+00 0.000000e+00 5.543433e-01 4.456567e-01
 0.000000e+00 0.000000e+00 0.000000e+00 0.000000e+00 0.000000e+00
<ENDHMM>
~h "h"
<BEGINHMM>
<NUMSTATES> 5
<STATE> 2
<MEAN> 39
 -3.571800e+00 -3.797993e+00 -1.631037e+00 -7.374624e+00 -2.154769e+00 -2.020202e+00 -2.497599e+00 -1.436910e+00 -1.777425e+00 -3.090937e+00 -3.279784e+00 -3.785074e+00 5.826451e+01 -4.761675e-01 9.807009e-02 -1.189748e-02 9.578771e-01 8.905842e-01 3.977740e-01 6.066998e-01 6.732402e-02 1.030054e-01 -1.820956e-01 2.967897e-03 2.441892e-01 -6.807774e-01 -8.346138e-03 -8.246677e-02 -3.728893e-02 -1.160859e-01 -1.198834e-01 -6.851732e-02 -9.284416e-02 4.212204e-02 4.078656e-02 8.828273e-02 6.994091e-02 -4.237487e-02 1.717989e-02
<VARIANCE> 39
 1.864840e+01 4.698655e+01 5.700970e+01 4.893465e+01 7.190033e+01 5.241616e+01 5.111379e+01 5.817767e+01 6.108673e+01 5.272747e+01 3.471572e+01 2.565928e+01 3.504645e+01 1.073258e+00 1.932077e+00 2.165905e+00 1.874552e+00 2.488490e+00 2.221575e+00 2.474223e+00 2.747234e+00 2.201482e+00 2.051993e+00 1.836083e+00 1.372030e+00 1.044753e+00 1.126499e-01 1.802687e-01 2.000768e-01 2.680927e-01 3.362235e-01 3.537920e-01 3.831583e-01 3.721246e-01 3.527367e-01 3.347140e-01 2.703413e-01 2.270846e-01 9.171151e-02
<GCONST> 1.110621e+02
<STATE> 3
<MEAN> 39
 -5.129750e+00 -4.338764e+00 -1.362038e+00 -4.939656e+00 1.085824e+00 -1.063863e+00 -8.888475e-01 1.445589e-01 8.354383e-01 -1.832884e+00 -2.185348e+00 -2.953348e+00 5.693164e+01 -1.130231e-01 1.459101e-02 -1.968428e-01 4.456518e-01 2.872431e-01 2.283567e-01 1.485678e-01 -8.280178e-02 -5.016378e-02 -7.340756e-02 -2.887117e-02 4.422855e-02 -4.296960e-01 2.417372e-01 1.044787e-02 -7.704978e-02 -3.106028e-01 -3.655406e-01 -1.080996e-01 -1.982925e-01 -6.954057e-02 -1.261685e-01 3.418192e-02 -4.478001e-03 -1.119589e-01 1.465409e-01
<VARIANCE> 39
 2.379580e+01 4.975795e+01 5.267210e+01 4.889816e+01 6.360255e+01 5.426188e+01 4.989615e+01 4.881374e+01 4.290083e+01 4.044678e+01 3.010813e+01 2.719370e+01 3.567618e+01 1.511132e+00 1.937701e+00 1.847480e+00 1.765853e+00 2.396737e+00 2.155142e+00 2.091178e+00 2.561308e+00 1.969376e+00 1.955810e+00 1.777545e+00 1.372527e+00 1.558828e+00 2.319828e-01 3.006507e-01 3.539789e-01 3.477827e-01 4.098216e-01 3.682850e-01 4.141948e-01 4.285021e-01 3.764694e-01 3.363878e-01 3.302215e-01 2.616419e-01 1.479432e-01
<GCONST> 1.137512e+02
<STATE> 4
<MEAN> 39
 -6.058950e+00 -5.378788e+00 -3.882575e+00 -3.166688e+00 -1.242167e-01 8.851301e-01 4.479637e-01 1.456751e-01 -8.594748e-01 -2.792040e+00 -2.052307e+00 -1.859730e+00 5.292209e+01 1.585513e-01 7.241667e-02 -1.418458e-01 -5.646635e-02 -2.527727e-01 -3.574490e-02 -9.166799e-02 2.750270e-02 -6.988149e-02 5.491989e-02 3.030339e-02 -3.209379e-03 -2.175634e-01 4.509473e-02 -3.027499e-02 7.042980e-03 -1.087181e-01 -9.702148e-02 -5.959953e-02 -6.333034e-02 2.296063e-02 -1.668476e-02 9.955769e-03 5.619223e-03 -3.041775e-02 9.605258e-02
<VARIANCE> 39
 2.858356e+01 4.166162e+01 3.934129e+01 4.431382e+01 4.884835e+01 3.784771e+01 3.977781e+01 3.717823e+01 3.327216e+01 3.288239e+01 2.320952e+01 2.355825e+01 7.804822e+01 9.304326e-01 1.146115e+00 1.114967e+00 1.440905e+00 1.561121e+00 1.337451e+00 1.503323e+00 1.629157e+00 1.351878e+00 1.394819e+00 1.204401e+00 1.088621e+00 1.093362e+00 9.708469e-02 1.739089e-01 1.727663e-01 2.204910e-01 2.333679e-01 2.434171e-01 2.611072e-01 2.883386e-01 2.414856e-01 2.594665e-01 2.265546e-01 1.917052e-01 9.264722e-02
<GCONST> 1.007790e+02
<TRANSP> 5
 0.000000e+00 1.000000e+00 0.000000e+00 0.000000e+00 0.000000e+00
 0.000000e+00 2.807275e-01 7.192724e-01 0.000000e+00 0.000000e+00
 0.000000e+00 0.000000e+00 3.403397e-01 6.596603e-01 0.000000e+00
 0.000000e+00 0.000000e+00 0.000000e+00 7.216822e-01 2.783178e-01
 0.000000e+00 0.000000e+00 0.000000e+00 0.000000e+00 0.000000e+00
<ENDHMM>
~h "i"
<BEGINHMM>
<NUMSTATES> 5
<STATE> 2
<MEAN> 39
 -5.485166e+00 3.537273e+00 1.097792e+01 -7.576358e+00 -1.181906e+01 -8.699785e+00 -5.335359e+00 -6.536788e+00 -4.229470e+00 -1.152866e-01 -4.849003e-01 -3.144873e+00 5.746991e+01 2.217442e-01 3.230837e-01 2.225059e+00 -1.647785e+00 -1.913652e+00 -2.131208e-01 -8.083885e-01 -7.574880e-01 -6.806868e-01 4.740599e-01 2.970861e-01 -2.742316e-01 1.218739e+00 -5.413813e-02 -4.758747e-02 -5.143154e-01 1.138759e-01 3.820301e-01 2.781516e-01 9.173822e-02 2.849028e-01 2.264320e-01 -3.413241e-02 -4.798992e-02 7.079304e-03 -2.802339e-01
<VARIANCE> 39
 2.976930e+01 4.729163e+01 4.656315e+01 7.314951e+01 5.629282e+01 4.561729e+01 4.462392e+01 5.570589e+01 3.366483e+01 4.311057e+01 4.692022e+01 3.155024e+01 3.844899e+01 3.901078e+00 2.574430e+00 3.591114e+00 4.438769e+00 4.393999e+00 3.514212e+00 4.803602e+00 4.044719e+00 3.166079e+00 3.271806e+00 3.823106e+00 2.629450e+00 1.468000e+00 4.271688e-01 3.896302e-01 5.697371e-01 7.161325e-01 7.121636e-01 5.404814e-01 6.812560e-01 6.489153e-01 4.644885e-01 5.023753e-01 5.005787e-01 3.481235e-01 2.959417e-01
<GCONST> 1.278877e+02
<STATE> 3
<MEAN> 39
 -4.611012e+00 1.591718e+00 1.405605e+01 -7.685782e+00 -1.510801e+01 -7.239422e+00 -5.243489e+00 -4.080222e+00 -6.447663e+00 -5.103536e-01 3.544069e+00 -6.032647e+00 5.950368e+01 1.297123e-01 1.334341e-01 -2.413492e-01 7.430076e-02 1.922378e-01 4.376372e-02 1.996854e-02 1.742134e-01 1.938205e-01 3.395372e-02 -1.061688e-01 1.249938e-01 -2.285381e-01 -7.702117e-04 5.551221e-02 -6.717786e-01 4.227740e-01 7.313780e-01 4.999575e-02 1.712121e-01 1.199703e-01 3.254656e-01 -1.058867e-01 -2.968028e-01 2.038935e-01 -4.507071e-01
<VARIANCE> 39
 1.544927e+01 4.070481e+01 3.525768e+01 6.637453e+01 4.693492e+01 4.739774e+01 3.587083e+01 6.434023e+01 4.498048e+01 4.393272e+01 5.023318e+01 3.882760e+01 2.304982e+01 8.216659e-01 1.500414e+00 2.047425e+00 2.200641e+00 2.503887e+00 2.085633e+00 2.056467e+00 2.719755e+00 1.921792e+00 1.674354e+00 1.768309e+00 1.471440e+00 9.849091e-01 2.542553e-01 2.706240e-01 3.410109e-01 4.660931e-01 4.900896e-01 4.606022e-01 4.804465e-01 5.670475e-01 4.150699e-01 4.236937e-01 4.375325e-01 3.361630e-01 1.650194e-01
<GCONST> 1.140709e+02
<STATE> 4
<MEAN> 39
 -6.516356e+00 5.835829e+00 1.177232e+01 -1.113407e+01 -9.524165e+00 -5.929187e+00 -6.262357e+00 -7.811354e+00 -2.963398e+00 6.470301e-01 -2.458230e+00 -1.757727e+00 5.487483e+01 7.438551e-02 -2.826537e-02 -6.593785e-01 6.185107e-01 5.452922e-01 1.505369e-01 2.369674e-01 2.570090e-01 1.884952e-01 -1.242340e-01 -1.073383e-01 1.213946e-01 -7.553092e-01 -2.555879e-02 -6.351560e-02 -1.117133e-01 1.133339e-01 4.110461e-02 2.390785e-02 5.227772e-02 4.695074e-02 -2.210454e-02 -3.301555e-02 2.556642e-02 -3.360981e-02 -4.048994e-02
<VARIANCE> 39
 2.192260e+01 4.277622e+01 5.024215e+01 1.028198e+02 5.580369e+01 5.376592e+01 5.022635e+01 5.063170e+01 3.100537e+01 4.621514e+01 4.222926e+01 2.991489e+01 6.033416e+01 7.968324e-01 1.213335e+00 1.436040e+00 2.012391e+00 2.080294e+00 1.770260e+00 1.890234e+00 2.083817e+00 1.573938e+00 1.593021e+00 1.570038e+00 1.190087e+00 1.009337e+00 1.083719e-01 1.501316e-01 2.032105e-01 3.155722e-01 3.103984e-01 3.109712e-01 3.237983e-01 3.250151e-01 2.584727e-01 2.785078e-01 2.519359e-01 1.968178e-01 9.953330e-02
<GCONST> 1.072852e+02
<TRANSP> 5
 0.000000e+00 1.000000e+00 0.000000e+00 0.000000e+00 0.000000e+00
 0.000000e+00 5.281965e-01 4.718036e-01 0.000000e+00 0.000000e+00
 0.000000e+00 0.000000e+00 6.059167e-01 3.940833e-01 0.000000e+00
 0.000000e+00 0.000000e+00 0.000000e+00 7.757397e-01 2.242602e-01
 0.000000e+00 0.000000e+00 0.000000e+00 0.000000e+00 0.000000e+00
<ENDHMM>
~h "j"
<BEGINHMM>
<NUMSTATES> 5
<STATE> 2
<MEAN> 39
 -2.535727e+00 6.092228e+00 5.262940e+00 -1.095449e+00 -4.378927e+00 -4.708971e+00 -3.403825e+00 -1.090275e+00 -2.306094e+00 -2.772841e+00 -1.919628e+00 -2.525651e+00 4.998315e+01 -1.271442e+00 8.442496e-01 1.963209e-01 1.651620e-02 8.938557e-01 2.008205e-01 4.437702e-01 -2.048997e-01 2.229596e-01 1.767056e-03 4.778209e-02 -9.983812e-02 2.827005e-02 -4.086028e-01 -2.094625e-01 1.541171e-01 -3.704772e-01 -3.067502e-01 -4.066805e-01 -8.023967e-02 -7.534593e-02 -6.645566e-02 3.759053e-02 2.620389e-01 9.014907e-02 5.845649e-01
<VARIANCE> 39
 2.159061e+01 4.338628e+01 2.828034e+01 3.601486e+01 4.073846e+01 3.043126e+01 2.741235e+01 2.345463e+01 2.500630e+01 2.123947e+01 2.079845e+01 1.489407e+01 3.678745e+01 3.499089e+00 2.092103e+00 1.802089e+00 2.579668e+00 3.213938e+00 2.764213e+00 1.973591e+00 2.125555e+00 1.823359e+00 1.927423e+00 1.917378e+00 1.379747e+00 2.243538e+00 4.468842e-01 3.054022e-01 3.209139e-01 3.988343e-01 5.303015e-01 4.558467e-01 3.868240e-01 4.325567e-01 3.937663e-01 4.228622e-01 3.119509e-01 2.268526e-01 2.222828e-01
<GCONST> 1.116336e+02
<STATE> 3
<MEAN> 39
 -1.142249e+01 7.966910e+00 7.594381e+00 -4.463493e+00 -2.886861e+00 -6.961553e+00 -2.715096e+00 -3.129210e+00 -2.668045e+00 -2.988743e+00 1.695192e-01 -2.593228e+00 5.552826e+01 -5.164157e-01 -5.577369e-01 1.212980e+00 -7.295170e-01 -2.108859e+00 -1.713534e+00 -5.476117e-01 -3.483347e-01 -5.692479e-01 3.211669e-02 9.056326e-01 4.193452e-01 1.713326e+00 1.228822e+00 -7.196316e-01 -1.426521e-01 -4.697230e-02 -7.499452e-01 -2.051378e-01 -4.313120e-01 3.138130e-01 -4.624903e-03 1.339522e-01 -7.890931e-02 1.661343e-02 -3.048087e-02
<VARIANCE> 39
 2.795196e+01 4.062053e+01 3.739606e+01 4.437619e+01 4.559356e+01 4.304810e+01 3.398917e+01 2.674104e+01 2.695734e+01 2.806523e+01 2.095980e+01 2.075824e+01 2.330677e+01 6.568115e+00 2.844724e+00 2.411296e+00 3.853682e+00 4.689393e+00 3.027507e+00 2.937304e+00 3.407097e+00 2.372990e+00 3.311416e+00 1.867315e+00 1.499508e+00 1.134966e+00 6.577120e-01 5.503577e-01 5.909898e-01 5.979427e-01 1.088845e+00 7.769645e-01 6.073915e-01 6.019659e-01 4.463784e-01 4.375356e-01 4.229945e-01 3.736413e-01 2.355364e-01
<GCONST> 1.215510e+02
<STATE> 4
<MEAN> 39
 -5.048373e+00 1.102188e+00 1.001378e+01 -7.639427e+00 -1.297164e+01 -1.301940e+01 -6.489312e+00 -1.184596e+00 -3.877687e+00 -9.756188e-01 1.656129e+00 -1.111534e+00 6.002351e+01 1.595323e+00 -2.053095e+00 -1.002980e+00 -8.430451e-01 -1.022241e+00 -5.205423e-01 -7.909365e-01 1.317108e+00 5.687202e-01 4.459071e-01 -2.015085e-01 -2.094644e-01 8.817825e-01 -7.247754e-02 1.637975e-01 -7.042593e-01 7.145425e-02 9.998732e-01 7.487898e-01 1.872862e-01 9.485931e-02 2.155038e-01 -3.724155e-02 -3.543532e-01 -2.687160e-01 -3.480722e-01
<VARIANCE> 39
 1.799310e+01 3.475129e+01 4.044616e+01 7.547466e+01 2.994832e+01 3.164612e+01 3.469816e+01 5.001291e+01 4.248693e+01 5.752052e+01 2.544470e+01 1.623229e+01 2.884975e+01 1.929607e+00 2.425019e+00 2.966186e+00 2.758561e+00 5.593642e+00 3.500496e+00 4.180899e+00 3.516604e+00 2.583602e+00 2.954191e+00 2.410596e+00 2.012994e+00 8.183239e-01 3.794204e-01 3.310351e-01 3.408842e-01 6.141001e-01 4.719986e-01 4.929507e-01 5.214506e-01 6.966916e-01 4.417057e-01 6.496426e-01 3.804277e-01 2.918958e-01 1.013833e-01
<GCONST> 1.185141e+02
<TRANSP> 5
 0.000000e+00 1.000000e+00 0.000000e+00 0.000000e+00 0.000000e+00
 0.000000e+00 7.093307e-01 2.906693e-01 0.000000e+00 0.000000e+00
 0.000000e+00 0.000000e+00 6.211309e-01 3.788691e-01 0.000000e+00
 0.000000e+00 0.000000e+00 0.000000e+00 6.236119e-01 3.763881e-01
 0.000000e+00 0.000000e+00 0.000000e+00 0.000000e+00 0.000000e+00
<ENDHMM>
~h "k"
<BEGINHMM>
<NUMSTATES> 5
<STATE> 2
<MEAN> 39
 -7.751444e+00 -1.745090e-01 -1.900574e+00 -1.946385e+00 -1.862809e+00 -5.874797e-01 -1.610331e+00 5.245337e-01 -7.109216e-01 -8.957274e-01 -9.509722e-02 -1.360325e+00 4.383980e+01 -4.002124e-01 8.812158e-02 -1.065433e-01 3.467820e-01 1.146006e-01 1.109762e-01 1.292235e-01 3.027744e-02 3.832044e-02 -1.408337e-02 1.415841e-02 1.633726e-01 -7.040040e-01 1.228302e-02 -9.875187e-02 -5.817953e-02 -9.905618e-02 1.490185e-02 -6.361557e-02 -2.548875e-02 1.240193e-02 -1.343349e-02 1.262478e-02 -1.199197e-02 -2.273715e-02 2.471533e-01
<VARIANCE> 39
 3.128320e+01 4.147742e+01 4.073854e+01 5.389558e+01 4.853176e+01 5.041909e+01 3.918200e+01 3.882803e+01 2.952039e+01 3.167957e+01 2.260185e+01 2.281594e+01 6.741798e+01 7.229123e-01 7.800466e-01 1.037833e+00 1.384487e+00 1.453024e+00 1.617207e+00 1.511824e+00 1.642941e+00 1.563804e+00 1.489130e+00 1.299132e+00 1.084526e+00 1.063835e+00 1.155051e-01 1.726808e-01 2.151540e-01 2.528166e-01 2.934422e-01 3.328781e-01 3.055011e-01 3.296931e-01 3.228913e-01 3.023427e-01 2.545008e-01 2.149177e-01 1.726078e-01
<GCONST> 1.033335e+02
<STATE> 3
<MEAN> 39
 -6.280784e+00 1.435323e+00 -1.092267e+00 -3.425792e+00 -2.927289e+00 -3.093290e+00 -3.924958e+00 -2.026280e+00 -1.484982e+00 -2.465148e-01 -1.089772e+00 -2.412208e+00 4.635672e+01 -7.740451e-01 -1.018411e+00 -1.161680e+00 -9.228493e-02 1.014501e+00 -6.857305e-01 2.910782e-02 2.484709e-01 2.090941e-01 1.907688e-01 -2.240942e-01 2.476297e-01 8.890127e-01 1.621497e-01 -3.752578e-01 -2.188790e-01 -3.984464e-01 7.183471e-02 -2.914630e-01 -4.892674e-02 9.874787e-02 9.117818e-02 1.391245e-01 -7.940330e-02 -1.192417e-01 1.024470e+00
<VARIANCE> 39
 2.396287e+01 3.636422e+01 5.254424e+01 5.135410e+01 5.149329e+01 4.876248e+01 3.070786e+01 3.427383e+01 2.845811e+01 2.810785e+01 2.413596e+01 2.237073e+01 4.916563e+01 2.132932e+00 3.249060e+00 4.084095e+00 3.456445e+00 4.287509e+00 4.368444e+00 3.304075e+00 3.193913e+00 2.891141e+00 2.605307e+00 2.394688e+00 1.744284e+00 3.749755e+00 3.656673e-01 4.491837e-01 5.746967e-01 5.252625e-01 7.288949e-01 6.508247e-01 5.483159e-01 5.440007e-01 5.326720e-01 4.713509e-01 4.195506e-01 3.455921e-01 3.609035e-01
<GCONST> 1.233546e+02
<STATE> 4
<MEAN> 39
 -7.830125e+00 -3.507955e+00 -6.063601e+00 -5.304996e+00 1.143406e+00 -6.195009e+00 -3.697232e+00 -5.135955e-01 4.647628e-01 1.062364e+00 -2.443210e+00 -2.437702e+00 5.404763e+01 9.838756e-01 -4.170121e-01 -7.751364e-02 -9.095314e-01 -6.021138e-01 -2.279429e-01 1.299926e-01 2.109741e-01 -8.664814e-02 3.407481e-02 -3.024132e-01 -6.683446e-01 2.127751e+00 5.602129e-01 1.772677e-01 5.043244e-01 -2.019257e-01 -6.594509e-01 3.378764e-01 -4.310507e-03 -3.942540e-02 -2.214022e-01 -1.954884e-01 9.797585e-02 -2.678038e-01 -1.423100e-02
<VARIANCE> 39
 3.202167e+01 3.649430e+01 5.767614e+01 4.462597e+01 5.402055e+01 5.880121e+01 4.968503e+01 3.662465e+01 4.492949e+01 3.936123e+01 3.300724e+01 2.515562e+01 4.259309e+01 4.076849e+00 4.111291e+00 4.897550e+00 4.670367e+00 6.181794e+00 4.929800e+00 4.021389e+00 4.400899e+00 4.062478e+00 3.677169e+00 3.046299e+00 2.835555e+00 3.820406e+00 5.298558e-01 7.009627e-01 7.003328e-01 7.744421e-01 9.601898e-01 8.630013e-01 7.835118e-01 6.279705e-01 6.773551e-01 6.523627e-01 5.863761e-01 4.672262e-01 5.584848e-01
<GCONST> 1.333617e+02
<TRANSP> 5
 0.000000e+00 1.000000e+00 0.000000e+00 0.000000e+00 0.000000e+00
 0.000000e+00 7.622075e-01 2.377925e-01 0.000000e+00 0.000000e+00
 0.000000e+00 0.000000e+00 5.160681e-01 4.839319e-01 0.000000e+00
 0.000000e+00 0.000000e+00 0.000000e+00 6.345217e-01 3.654783e-01
 0.000000e+00 0.000000e+00 0.000000e+00 0.000000e+00 0.000000e+00
<ENDHMM>
~h "l"
<BEGINHMM>
<NUMSTATES> 5
<STATE> 2
<MEAN> 39
 -9.620608e-02 -4.110684e+00 -9.571038e-01 -9.723335e+00 -5.798219e+00 -6.068845e+00 -9.392919e+00 -3.633098e+00 3.577840e+00 1.728590e+00 -2.111343e+00 -4.100018e+00 6.056554e+01 3.006056e-01 2.646470e-02 -6.000115e-02 -7.932539e-02 2.665784e-01 2.021371e-02 -7.261842e-01 -3.811434e-01 4.868051e-01 4.071473e-01 -7.670132e-02 -2.753557e-02 -2.002635e-01 -1.524101e-01 2.126201e-02 -2.903537e-02 -1.267288e-01 6.548694e-02 1.756183e-01 3.024123e-01 2.353669e-01 -2.865283e-01 -1.582091e-01 1.978735e-02 -8.681016e-02 3.686009e-02
<VARIANCE> 39
 1.531532e+01 4.772971e+01 6.808572e+01 6.423684e+01 4.302341e+01 6.801424e+01 4.905840e+01 6.124846e+01 5.940172e+01 5.406968e+01 3.314622e+01 3.433694e+01 3.352941e+01 4.028955e-01 1.197479e+00 2.005907e+00 2.131617e+00 2.275171e+00 2.412400e+00 2.530092e+00 3.006856e+00 2.520265e+00 2.214003e+00 2.010494e+00 1.643610e+00 5.557320e-01 8.085618e-02 1.989617e-01 2.602624e-01 4.281780e-01 3.626404e-01 4.384641e-01 4.720423e-01 5.556682e-01 4.099866e-01 4.423638e-01 3.903610e-01 2.854539e-01 8.635233e-02
<GCONST> 1.121994e+02
<STATE> 3
<MEAN> 39
 1.343737e+00 -2.487232e+00 -5.382961e+00 -1.041584e+01 -4.690493e+00 -2.477952e+00 -8.621898e+00 -2.614377e+00 2.708082e+00 1.050220e+00 -2.066798e+00 -5.415198e+00 5.856405e+01 -6.981074e-02 -1.068844e-01 -1.166629e-01 -1.321682e-01 1.738658e-01 1.636031e-01 1.688609e-01 3.310070e-01 -4.052927e-02 -1.356483e-01 -1.052977e-01 -9.797948e-02 2.024985e-02 -1.295849e-01 -1.047879e-01 -1.350490e-02 3.667852e-02 1.102515e-02 1.287365e-02 2.417161e-01 2.207864e-01 -1.167335e-01 -2.146057e-01 -5.088954e-02 1.329841e-02 8.368185e-02
<VARIANCE> 39
 1.033348e+01 3.971943e+01 8.769810e+01 5.460265e+01 4.212831e+01 5.637004e+01 4.653202e+01 6.776781e+01 4.698425e+01 6.190534e+01 3.722167e+01 2.656816e+01 2.427024e+01 2.246528e-01 9.388294e-01 1.003251e+00 1.591554e+00 1.184577e+00 1.610095e+00 1.436718e+00 1.828432e+00 1.405972e+00 1.387857e+00 1.261246e+00 1.163930e+00 4.867715e-01 5.277182e-02 1.405517e-01 1.705564e-01 2.561308e-01 2.618125e-01 2.740812e-01 3.477375e-01 3.764898e-01 3.215140e-01 3.163055e-01 2.798521e-01 2.104240e-01 5.912346e-02
<GCONST> 1.002658e+02
<STATE> 4
<MEAN> 39
 4.471141e-02 -4.197002e+00 -2.790469e+00 -9.900474e+00 -4.764748e+00 -4.076753e+00 -8.380217e+00 -1.818334e+00 3.212915e+00 5.314219e-01 -2.767440e+00 -4.983799e+00 5.989095e+01 -5.572206e-01 -4.410390e-01 -1.275889e-02 1.281381e-01 1.155445e-01 4.516451e-02 1.050716e+00 1.023423e+00 -5.819397e-01 -8.734568e-01 -1.782042e-01 -5.293324e-02 3.188980e-01 -1.162393e-01 5.463970e-02 9.909099e-02 1.147657e-02 -5.811250e-02 3.146673e-02 1.874394e-01 -4.808049e-03 -2.495297e-01 -5.658764e-02 1.319100e-01 3.847235e-02 -4.416269e-03
<VARIANCE> 39
 1.621152e+01 4.376155e+01 7.412646e+01 5.962508e+01 4.598642e+01 6.324139e+01 5.207394e+01 6.063322e+01 5.206398e+01 6.143604e+01 3.302554e+01 3.699666e+01 4.115593e+01 4.935357e-01 1.753155e+00 2.357451e+00 2.697049e+00 2.764946e+00 3.206107e+00 2.853803e+00 3.707669e+00 2.847466e+00 2.676444e+00 2.702341e+00 1.973834e+00 1.041021e+00 8.755021e-02 1.771237e-01 2.245390e-01 3.748537e-01 3.838441e-01 4.049595e-01 4.719381e-01 4.603010e-01 4.009984e-01 4.436129e-01 3.359679e-01 3.210281e-01 1.085019e-01
<GCONST> 1.153514e+02
<TRANSP> 5
 0.000000e+00 1.000000e+00 0.000000e+00 0.000000e+00 0.000000e+00
 0.000000e+00 3.545238e-01 6.454762e-01 0.000000e+00 0.000000e+00
 0.000000e+00 0.000000e+00 6.070163e-01 3.929837e-01 0.000000e+00
 0.000000e+00 0.000000e+00 0.000000e+00 2.767156e-01 7.232844e-01
 0.000000e+00 0.000000e+00 0.000000e+00 0.000000e+00 0.000000e+00
<ENDHMM>
~h "m"
<BEGINHMM>
<NUMSTATES> 5
<STATE> 2
<MEAN> 39
 2.388367e+00 -1.218245e-02 -1.093994e+00 -5.329075e+00 -3.767199e+00 1.448912e-01 -6.869851e+00 -5.558911e+00 -2.559673e+00 -1.095353e-02 5.365891e-01 -5.762351e+00 5.515245e+01 1.223870e-01 9.307396e-01 1.174816e+00 1.409122e+00 2.193412e-01 3.780673e-01 6.173907e-03 -1.518076e+00 -1.353363e+00 -1.172167e-01 -9.922852e-02 1.285293e-01 -9.868379e-01 -1.454797e-01 -2.121273e-01 -4.279378e-02 -1.850271e-01 -3.755853e-02 -8.351260e-02 9.922375e-02 2.187095e-01 1.022694e-01 -1.084477e-01 -1.261312e-01 -2.972372e-02 2.390439e-01
<VARIANCE> 39
 1.561413e+01 3.430946e+01 4.678295e+01 4.467102e+01 3.883984e+01 3.663622e+01 3.918335e+01 5.226376e+01 3.255479e+01 3.380039e+01 3.221655e+01 2.478627e+01 3.351221e+01 5.050096e-01 1.230560e+00 1.894165e+00 1.860064e+00 1.784175e+00 1.747934e+00 1.947698e+00 2.636083e+00 2.101068e+00 1.804848e+00 2.141662e+00 1.299787e+00 6.424807e-01 7.337012e-02 1.365664e-01 2.665489e-01 2.862224e-01 2.676284e-01 2.554469e-01 2.666441e-01 3.851429e-01 3.372353e-01 2.517668e-01 2.892154e-01 1.883451e-01 7.217778e-02
<GCONST> 1.030199e+02
<STATE> 3
<MEAN> 39
 1.212791e+00 1.114116e-01 2.100458e+00 -3.659308e+00 -2.356724e+00 1.343595e-01 -6.266738e+00 -5.266941e+00 -5.545376e+00 -1.811504e+00 -9.080004e-02 -4.703142e+00 5.410043e+01 6.999932e-02 1.622739e-01 1.455443e-01 9.323019e-02 -1.071947e-01 7.123420e-02 8.640191e-02 -1.209786e-01 -2.588817e-01 -1.146006e-01 -8.059992e-03 5.569791e-02 -1.624986e-01 -1.302005e-02 -1.513013e-01 -2.919812e-01 -3.962118e-01 -1.276485e-01 -9.438761e-02 2.963943e-02 3.185202e-01 3.072393e-01 8.508340e-02 8.211531e-02 1.553497e-02 2.123974e-01
<VARIANCE> 39
 1.535816e+01 4.139239e+01 3.349474e+01 4.572115e+01 4.454493e+01 3.043292e+01 4.475470e+01 7.298132e+01 3.349975e+01 3.983879e+01 3.040742e+01 2.102893e+01 3.048053e+01 2.365820e-01 5.211642e-01 8.283923e-01 1.012803e+00 1.126905e+00 1.088009e+00 1.054588e+00 1.344529e+00 1.316191e+00 1.107331e+00 1.187055e+00 8.501424e-01 2.976931e-01 6.613725e-02 1.333048e-01 2.068508e-01 2.507014e-01 2.413671e-01 2.431390e-01 2.782030e-01 3.610079e-01 3.246517e-01 2.583677e-01 2.868280e-01 1.924622e-01 6.523369e-02
<GCONST> 9.437275e+01
<STATE> 4
<MEAN> 39
 2.338159e+00 7.225114e-01 -2.438950e-01 -4.969390e+00 -4.519437e+00 2.687792e-01 -6.477912e+00 -6.538534e+00 -4.625193e+00 -7.965649e-01 7.532732e-01 -4.894330e+00 5.438146e+01 2.817374e-02 -7.037523e-01 -9.965628e-01 -1.261045e+00 -4.908018e-02 -5.983421e-02 -1.619650e-02 1.042993e+00 8.673109e-01 7.710458e-02 2.026171e-01 -7.523680e-02 8.326964e-01 -1.793122e-01 -2.731189e-01 -8.669402e-02 -2.432317e-01 1.165738e-01 -7.370767e-02 -1.334828e-02 3.593118e-01 2.864883e-01 -1.181086e-02 -1.104211e-01 -6.439964e-02 2.460825e-01
<VARIANCE> 39
 1.734974e+01 3.887239e+01 4.586683e+01 4.928137e+01 4.509520e+01 4.045372e+01 4.478029e+01 6.356849e+01 3.804009e+01 3.721873e+01 3.607793e+01 2.574226e+01 3.767108e+01 9.089468e-01 1.827133e+00 2.953966e+00 2.862672e+00 2.929743e+00 3.023902e+00 2.875391e+00 3.639214e+00 3.133435e+00 2.253178e+00 2.453315e+00 1.859345e+00 1.043627e+00 1.433726e-01 2.487743e-01 4.191781e-01 4.495044e-01 4.129095e-01 3.962301e-01 4.283816e-01 5.724960e-01 5.404639e-01 3.857612e-01 4.168566e-01 2.904311e-01 1.215395e-01
<GCONST> 1.157766e+02
<TRANSP> 5
 0.000000e+00 1.000000e+00 0.000000e+00 0.000000e+00 0.000000e+00
 0.000000e+00 4.423426e-01 5.576574e-01 0.000000e+00 0.000000e+00
 0.000000e+00 0.000000e+00 6.745704e-01 3.254296e-01 0.000000e+00
 0.000000e+00 0.000000e+00 0.000000e+00 5.034016e-01 4.965984e-01
 0.000000e+00 0.000000e+00 0.000000e+00 0.000000e+00 0.000000e+00
<ENDHMM>
~h "n"
<BEGINHMM>
<NUMSTATES> 5
<STATE> 2
<MEAN> 39
 1.087850e+00 -1.808071e+00 2.331993e+00 -3.968542e+00 -6.220669e+00 -5.862703e+00 -7.141300e+00 -7.116676e-01 -1.802144e-01 -9.965127e-01 -2.974612e+00 -4.197544e+00 5.656948e+01 4.609204e-01 1.563988e+00 7.610853e-01 1.317666e+00 -1.770260e-01 3.925908e-01 -3.912997e-01 -1.677227e+00 -1.254371e-01 8.314873e-02 -3.733240e-01 1.334150e-01 -1.497925e+00 -1.434794e-01 -1.166896e-01 -1.888019e-01 -3.093539e-01 4.682742e-02 1.735260e-01 1.912558e-01 9.031094e-02 -1.588037e-02 -5.683602e-02 8.289774e-02 -4.758542e-02 1.892351e-01
<VARIANCE> 39
 1.140990e+01 4.604201e+01 3.589567e+01 3.546912e+01 5.168236e+01 3.468417e+01 3.555601e+01 5.390517e+01 3.833311e+01 3.891249e+01 2.547109e+01 2.496345e+01 3.023134e+01 4.471854e-01 1.227132e+00 1.794660e+00 1.297981e+00 2.161250e+00 2.043417e+00 2.384819e+00 3.423943e+00 2.001896e+00 2.124819e+00 1.896560e+00 1.229104e+00 4.250086e-01 5.742097e-02 1.582361e-01 1.793023e-01 1.925636e-01 2.635023e-01 2.572649e-01 2.842822e-01 4.165133e-01 2.887864e-01 2.742366e-01 2.373378e-01 1.871129e-01 7.284505e-02
<GCONST> 1.014194e+02
<STATE> 3
<MEAN> 39
 3.363143e-01 -8.324819e-01 3.761034e+00 -3.285596e+00 -4.568658e+00 -4.135173e+00 -6.508501e+00 -1.625593e+00 -9.858149e-01 -2.598948e+00 -2.548856e+00 -3.038624e+00 5.372247e+01 1.742444e-02 6.144447e-01 8.741670e-02 3.514534e-01 5.912193e-02 2.450396e-01 8.253763e-02 -3.735832e-01 -1.147946e-01 -9.905705e-03 -3.026899e-02 1.088304e-01 -6.493729e-01 -1.378609e-01 -1.627810e-01 -9.572028e-02 -1.510291e-01 6.453550e-02 -3.543656e-02 8.964483e-02 2.128009e-01 -1.127605e-02 1.635337e-02 6.526560e-02 -1.463081e-02 1.360876e-01
<VARIANCE> 39
 1.410954e+01 4.935952e+01 3.245795e+01 3.605717e+01 5.490989e+01 3.124526e+01 3.183378e+01 4.399273e+01 3.207076e+01 3.628740e+01 2.566796e+01 2.211229e+01 3.046242e+01 2.720274e-01 5.558376e-01 6.809145e-01 7.517813e-01 1.000835e+00 1.053272e+00 1.083908e+00 1.298322e+00 1.108640e+00 1.066860e+00 1.067625e+00 7.989066e-01 2.520488e-01 6.247235e-02 1.253618e-01 1.576068e-01 1.800878e-01 2.267459e-01 2.187473e-01 2.382513e-01 3.174883e-01 2.356226e-01 2.272154e-01 2.345088e-01 1.596406e-01 6.219304e-02
<GCONST> 9.027686e+01
<STATE> 4
<MEAN> 39
 8.603193e-01 2.002302e+00 2.687116e+00 -1.668545e+00 -6.764537e+00 -4.177427e+00 -6.699497e+00 -4.235343e+00 -8.267995e-01 -6.837392e-01 -3.235907e+00 -3.600853e+00 5.220559e+01 -4.996754e-01 -9.146183e-02 -1.721978e-01 -1.699445e-01 5.066748e-01 2.891438e-02 3.069809e-01 4.557460e-01 -1.105021e-01 -8.917422e-02 1.938697e-01 9.526419e-02 -9.380212e-02 -2.868732e-01 -2.650065e-01 -8.777256e-02 -3.366368e-01 1.145031e-01 -4.516600e-02 1.205245e-01 2.965229e-01 -2.389213e-02 -6.999428e-02 1.525440e-01 6.086929e-03 3.157272e-01
<VARIANCE> 39
 1.551701e+01 4.330310e+01 3.687861e+01 3.902827e+01 5.497537e+01 3.377470e+01 3.886207e+01 5.568424e+01 3.943470e+01 4.608569e+01 3.193701e+01 2.503819e+01 3.811151e+01 8.071350e-01 1.836911e+00 1.632691e+00 1.947667e+00 2.350923e+00 2.077052e+00 2.084501e+00 3.034014e+00 2.089198e+00 1.922816e+00 1.904270e+00 1.307307e+00 1.350078e+00 2.066504e-01 3.382199e-01 3.722991e-01 3.864937e-01 5.259464e-01 4.057239e-01 4.293756e-01 5.985016e-01 4.105828e-01 4.007398e-01 3.901611e-01 2.548245e-01 1.888068e-01
<GCONST> 1.127962e+02
<TRANSP> 5
 0.000000e+00 1.000000e+00 0.000000e+00 0.000000e+00 0.000000e+00
 0.000000e+00 3.769844e-01 6.230157e-01 0.000000e+00 0.000000e+00
 0.000000e+00 0.000000e+00 7.301913e-01 2.698086e-01 0.000000e+00
 0.000000e+00 0.000000e+00 0.000000e+00 4.940206e-01 5.059794e-01
 0.000000e+00 0.000000e+00 0.000000e+00 0.000000e+00 0.000000e+00
<ENDHMM>
~h "o"
<BEGINHMM>
<NUMSTATES> 5
<STATE> 2
<MEAN> 39
 3.372639e-01 -1.304660e+00 -7.878000e+00 -1.425418e+01 -5.000811e+00 3.016134e+00 -4.329741e+00 -2.588713e+00 -1.488708e+00 4.358893e-01 1.543047e+00 -3.667257e+00 5.572611e+01 1.163764e+00 -6.134194e-01 -6.407333e-01 -2.022458e+00 -3.376115e-01 9.088271e-01 -2.587627e-01 -2.490859e-01 -2.117856e-01 2.042668e-01 4.522098e-01 -5.228931e-01 1.589672e+00 -2.925731e-01 -4.443026e-03 2.334016e-01 4.992074e-01 1.561046e-01 -1.673061e-01 -1.468402e-02 6.997547e-03 4.362487e-02 -8.435290e-02 -9.828095e-02 -1.478698e-03 -2.767893e-01
<VARIANCE> 39
 3.408311e+01 3.939749e+01 4.648882e+01 1.080514e+02 5.300181e+01 5.958490e+01 7.168143e+01 4.152418e+01 5.734270e+01 4.892561e+01 3.920166e+01 2.754590e+01 7.834318e+01 2.603666e+00 2.720846e+00 3.065586e+00 6.742834e+00 3.495386e+00 3.768492e+00 3.784629e+00 3.181585e+00 3.655344e+00 3.094620e+00 2.769590e+00 2.124394e+00 3.447048e+00 4.821568e-01 5.251930e-01 5.150626e-01 1.252283e+00 5.567930e-01 6.725092e-01 7.052825e-01 5.662446e-01 6.540077e-01 5.146381e-01 4.810845e-01 3.912722e-01 7.006071e-01
<GCONST> 1.314044e+02
<STATE> 3
<MEAN> 39
 1.406639e+00 -3.647815e+00 -6.861696e+00 -1.768957e+01 -3.598135e+00 2.336318e+00 -5.147585e+00 -1.753153e+00 -2.736150e+00 8.810691e-01 2.328351e+00 -4.908998e+00 6.047115e+01 6.669130e-03 -6.645855e-02 1.556787e-01 3.181108e-01 9.983435e-02 -1.547137e-01 -2.497265e-01 1.563177e-02 1.406155e-01 -5.343613e-02 -1.473596e-02 -9.132823e-02 -1.100482e-01 -1.293633e-01 1.895607e-01 2.130830e-01 5.793372e-01 6.526004e-02 -2.787551e-01 -5.224952e-02 -4.562653e-02 1.323515e-01 -1.124642e-01 -1.860469e-01 1.464352e-01 -3.209352e-01
<VARIANCE> 39
 1.434309e+01 3.404521e+01 4.576702e+01 6.268227e+01 5.890464e+01 3.851069e+01 5.144863e+01 4.317978e+01 5.099859e+01 4.991812e+01 5.084629e+01 2.469271e+01 2.363941e+01 3.081365e-01 9.405022e-01 8.825074e-01 2.468759e+00 1.307451e+00 1.837035e+00 1.823371e+00 1.567565e+00 2.005427e+00 1.516308e+00 1.440812e+00 1.218878e+00 5.627980e-01 1.174071e-01 1.815995e-01 1.970224e-01 3.662654e-01 3.066212e-01 2.955749e-01 2.952866e-01 3.215888e-01 3.576701e-01 3.112729e-01 3.178400e-01 2.512280e-01 1.426245e-01
<GCONST> 1.040676e+02
<STATE> 4
<MEAN> 39
 2.232893e+00 -2.549462e+00 -6.357315e+00 -1.178255e+01 -4.273245e+00 -1.425921e-01 -7.893045e+00 -3.278902e+00 -4.668230e-01 4.613186e-01 1.524130e+00 -4.173298e+00 5.710525e+01 -2.816419e-01 9.015891e-01 9.323104e-01 1.883960e+00 5.010139e-01 -5.111063e-01 -4.506991e-02 -1.145814e-01 2.216396e-01 -3.315180e-01 -7.436536e-01 3.395963e-01 -1.431360e+00 -1.811199e-01 1.712961e-01 8.020499e-02 3.104901e-02 4.335925e-02 1.551499e-01 2.651663e-01 -9.579409e-03 -1.373764e-01 -3.502449e-02 -4.192164e-02 2.407043e-03 -1.642864e-01
<VARIANCE> 39
 1.379571e+01 3.701910e+01 3.855212e+01 5.900191e+01 5.555912e+01 5.852865e+01 5.156047e+01 4.394967e+01 5.665595e+01 4.681947e+01 4.625162e+01 3.192993e+01 3.878743e+01 7.541910e-01 1.203712e+00 1.351691e+00 1.900724e+00 2.580128e+00 2.622591e+00 2.446230e+00 2.579152e+00 2.910860e+00 2.181726e+00 2.428181e+00 1.628940e+00 8.602380e-01 1.275549e-01 2.482906e-01 2.231135e-01 4.144659e-01 4.053978e-01 4.797300e-01 3.828036e-01 4.243452e-01 4.993016e-01 4.212853e-01 3.890179e-01 3.020355e-01 1.500050e-01
<GCONST> 1.130829e+02
<TRANSP> 5
 0.000000e+00 1.000000e+00 0.000000e+00 0.000000e+00 0.000000e+00
 0.000000e+00 6.052228e-01 3.947772e-01 0.000000e+00 0.000000e+00
 0.000000e+00 0.000000e+00 7.318013e-01 2.681987e-01 0.000000e+00
 0.000000e+00 0.000000e+00 0.000000e+00 5.740763e-01 4.259237e-01
 0.000000e+00 0.000000e+00 0.000000e+00 0.000000e+00 0.000000e+00
<ENDHMM>
~h "p"
<BEGINHMM>
<NUMSTATES> 5
<STATE> 2
<MEAN> 39
 -4.989690e+00 -2.972456e-01 -2.233423e+00 -4.416171e+00 -1.831867e+00 -8.536019e-01 -3.143486e+00 -9.857453e-01 -7.504916e-02 2.845832e-02 -5.735024e-01 -3.100345e+00 4.707083e+01 -6.538085e-01 1.433676e-01 -5.794438e-02 3.860528e-01 6.834201e-02 -4.337870e-02 2.213775e-01 -2.264010e-02 6.957070e-02 -5.361526e-02 -5.548878e-02 2.614514e-01 -8.870996e-01 6.010721e-02 -1.234695e-01 -4.116980e-02 -1.412176e-01 -6.267062e-02 -5.050639e-02 -3.189844e-02 2.342088e-02 -2.280005e-02 3.967447e-03 7.284707e-02 -4.082338e-02 3.756433e-01
<VARIANCE> 39
 2.164795e+01 3.030486e+01 3.571246e+01 4.181213e+01 3.441151e+01 3.359491e+01 2.445389e+01 2.805196e+01 2.511317e+01 2.335625e+01 1.974504e+01 2.062686e+01 4.075158e+01 5.854369e-01 5.651895e-01 8.431513e-01 1.045152e+00 1.069824e+00 1.286085e+00 1.338381e+00 1.529154e+00 1.319333e+00 1.281830e+00 1.251334e+00 9.638192e-01 8.768514e-01 1.063170e-01 1.403024e-01 1.887600e-01 2.451628e-01 2.321028e-01 2.620612e-01 2.909442e-01 3.143609e-01 2.927568e-01 2.785833e-01 2.631243e-01 1.980338e-01 1.619204e-01
<GCONST> 9.577963e+01
<STATE> 3
<MEAN> 39
 -5.985644e+00 1.055283e+00 -1.089949e+00 -3.343500e+00 -2.715594e+00 -1.923705e+00 -3.169405e+00 -1.549129e+00 -3.840055e-01 -4.153354e-01 -6.125669e-01 -2.291028e+00 4.657308e+01 9.929528e-02 -5.298761e-01 -6.918867e-01 -6.678786e-01 -5.081196e-02 -2.693968e-01 1.083422e-01 -8.193401e-02 1.576299e-02 1.391774e-01 2.886817e-01 -1.575355e-01 1.606841e+00 6.453388e-01 -3.857054e-01 -2.120530e-01 -7.113540e-01 -1.700655e-01 5.802415e-02 -2.716446e-01 9.395855e-03 -3.214594e-02 2.521845e-01 5.190054e-02 -3.579029e-01 1.085774e+00
<VARIANCE> 39
 2.362623e+01 3.546060e+01 3.838841e+01 4.251255e+01 3.674285e+01 3.658174e+01 2.541601e+01 2.882443e+01 2.468901e+01 2.393886e+01 2.026356e+01 1.968892e+01 4.017885e+01 2.760699e+00 2.350678e+00 2.967993e+00 3.362584e+00 2.728556e+00 3.375558e+00 2.681367e+00 2.889300e+00 2.566572e+00 2.394178e+00 2.207457e+00 1.641036e+00 2.939351e+00 3.273422e-01 4.442974e-01 5.530415e-01 5.353292e-01 5.387338e-01 6.116096e-01 4.893827e-01 5.372730e-01 4.782534e-01 4.566416e-01 4.150099e-01 3.210584e-01 3.252391e-01
<GCONST> 1.180377e+02
<STATE> 4
<MEAN> 39
 -3.080943e+00 -2.451440e+00 -4.501507e+00 -8.422191e+00 -2.865433e+00 -1.764533e+00 -3.619928e+00 -2.360088e+00 -5.596164e-01 9.975485e-01 4.588955e-01 -4.716807e+00 5.528398e+01 1.644448e+00 -1.673912e+00 -9.863256e-01 -2.307497e+00 -3.750238e-01 4.396034e-01 -6.533064e-01 3.344918e-01 -1.780481e-02 7.758613e-01 1.664601e-01 -1.276345e+00 3.510500e+00 8.053196e-02 -1.153620e-01 3.609332e-01 5.757793e-02 -5.505114e-02 -2.260171e-02 -1.467647e-01 2.459581e-01 3.648406e-02 -8.316761e-02 -2.428492e-01 -1.590579e-02 -1.341449e-01
<VARIANCE> 39
 2.931356e+01 3.271568e+01 3.049251e+01 5.140863e+01 2.409238e+01 4.953146e+01 3.294661e+01 2.876184e+01 2.885575e+01 2.902386e+01 2.392625e+01 2.392782e+01 4.648730e+01 3.143810e+00 4.477471e+00 5.599447e+00 5.685403e+00 4.229044e+00 5.258790e+00 4.059444e+00 5.548327e+00 4.497135e+00 3.808745e+00 3.695939e+00 3.161485e+00 3.256066e+00 5.210981e-01 5.611315e-01 5.170152e-01 9.157125e-01 6.668484e-01 7.762449e-01 5.208186e-01 5.498961e-01 5.214139e-01 5.134990e-01 4.839154e-01 4.374450e-01 5.738497e-01
<GCONST> 1.282475e+02
<TRANSP> 5
 0.000000e+00 1.000000e+00 0.000000e+00 0.000000e+00 0.000000e+00
 0.000000e+00 7.894515e-01 2.105486e-01 0.000000e+00 0.000000e+00
 0.000000e+00 0.000000e+00 5.431545e-01 4.568455e-01 0.000000e+00
 0.000000e+00 0.000000e+00 0.000000e+00 3.978491e-01 6.021509e-01
 0.000000e+00 0.000000e+00 0.000000e+00 0.000000e+00 0.000000e+00
<ENDHMM>
~h "r"
<BEGINHMM>
<NUMSTATES> 5
<STATE> 2
<MEAN> 39
 -7.638841e-01 -4.402328e+00 -1.141366e+00 -5.345556e+00 -5.976283e+00 -7.038781e+00 -5.465240e+00 1.807664e+00 2.696719e+00 2.813420e-04 -1.604018e+00 -3.650358e+00 5.766488e+01 -5.839140e-01 4.998241e-01 5.519399e-01 9.924170e-01 4.321296e-01 -4.723231e-02 9.310886e-02 -1.637575e-01 -1.854377e-03 -3.110249e-01 1.989571e-01 4.495372e-01 -1.091764e+00 -9.795771e-02 -5.857628e-02 2.113033e-02 -3.187633e-01 1.809637e-02 1.248811e-01 8.355426e-02 -8.709379e-02 -2.836195e-01 -1.679834e-02 9.600724e-02 -2.458577e-02 2.352386e-01
<VARIANCE> 39
 1.801774e+01 3.520131e+01 3.906664e+01 4.401505e+01 6.535217e+01 5.106040e+01 4.615882e+01 4.035054e+01 3.803339e+01 3.626368e+01 2.882104e+01 2.247105e+01 3.387507e+01 1.427121e+00 2.065995e+00 2.121352e+00 2.320933e+00 3.105583e+00 2.813099e+00 2.566920e+00 2.612562e+00 2.377730e+00 2.234901e+00 2.078022e+00 1.714213e+00 9.417520e-01 1.739519e-01 2.211177e-01 2.551508e-01 3.354892e-01 4.079409e-01 3.836740e-01 3.537768e-01 4.229877e-01 3.436344e-01 3.225096e-01 3.468048e-01 2.556010e-01 1.536807e-01
<GCONST> 1.121077e+02
<STATE> 3
<MEAN> 39
 -3.443910e+00 -3.362176e+00 -1.809971e-01 -4.324813e+00 -3.756124e+00 -5.968114e+00 -4.312001e+00 1.347417e+00 2.015896e+00 -1.284677e+00 -7.930911e-01 -2.605329e+00 5.570793e+01 -1.679026e-01 7.979260e-02 4.974970e-01 1.519442e-01 -8.297519e-02 -2.724020e-02 1.162116e-01 -1.094243e-01 -4.790287e-01 -1.762154e-01 2.572002e-01 2.324734e-01 -9.321421e-02 2.903556e-01 -1.645862e-01 -7.060455e-02 -4.291484e-01 -3.371624e-01 4.239669e-02 -8.573792e-02 9.355280e-03 -1.891484e-01 1.688506e-01 -2.476278e-04 -1.958438e-01 4.689595e-01
<VARIANCE> 39
 2.394156e+01 3.255039e+01 3.424716e+01 3.954345e+01 4.932574e+01 4.489790e+01 3.911918e+01 3.361244e+01 3.475569e+01 3.042192e+01 2.501598e+01 2.182971e+01 4.056752e+01 1.463016e+00 1.627469e+00 1.974537e+00 1.813754e+00 2.580948e+00 2.328090e+00 2.064361e+00 2.462929e+00 2.050328e+00 1.861567e+00 1.801753e+00 1.429520e+00 9.915191e-01 3.472871e-01 4.354317e-01 4.053627e-01 5.114321e-01 6.066046e-01 5.317588e-01 4.728866e-01 5.438808e-01 4.159532e-01 4.456404e-01 4.561952e-01 3.432185e-01 2.182901e-01
<GCONST> 1.142264e+02
<STATE> 4
<MEAN> 39
 -1.399377e+00 -3.093164e+00 8.390372e-01 -4.906980e+00 -6.724980e+00 -7.742992e+00 -5.199363e+00 6.107381e-02 9.913415e-01 2.361493e-01 -1.228365e+00 -2.736544e+00 5.843150e+01 2.180324e-01 1.531444e-01 2.521780e-01 -2.408837e-01 -4.078190e-01 1.375140e-01 -1.019520e-01 -1.832256e-01 -4.538033e-01 1.308416e-01 8.632150e-02 -1.228691e-01 1.063423e-01 -7.202087e-02 6.578936e-02 -7.549056e-02 -1.592535e-01 6.950217e-02 1.732997e-01 3.207463e-03 -1.009541e-02 3.102520e-03 3.744865e-03 -6.102415e-02 -9.934633e-02 -1.487976e-02
<VARIANCE> 39
 2.587763e+01 4.490824e+01 5.204240e+01 4.294158e+01 5.677082e+01 4.910774e+01 4.669021e+01 4.687384e+01 4.047509e+01 3.579535e+01 3.194090e+01 2.385863e+01 3.604594e+01 2.034009e+00 2.568094e+00 2.674898e+00 2.382339e+00 3.482350e+00 2.557456e+00 2.526275e+00 3.090090e+00 2.207291e+00 2.217236e+00 2.337235e+00 1.643517e+00 2.064371e+00 2.788226e-01 3.668190e-01 3.400218e-01 4.398874e-01 5.426329e-01 4.760597e-01 4.424497e-01 4.816056e-01 3.838369e-01 3.928039e-01 3.732508e-01 3.072475e-01 2.727871e-01
<GCONST> 1.185397e+02
<TRANSP> 5
 0.000000e+00 1.000000e+00 0.000000e+00 0.000000e+00 0.000000e+00
 0.000000e+00 2.185200e-01 7.814800e-01 0.000000e+00 0.000000e+00
 0.000000e+00 0.000000e+00 2.814511e-01 7.185488e-01 0.000000e+00
 0.000000e+00 0.000000e+00 0.000000e+00 4.276030e-01 5.723970e-01
 0.000000e+00 0.000000e+00 0.000000e+00 0.000000e+00 0.000000e+00
<ENDHMM>
~h "s"
<BEGINHMM>
<NUMSTATES> 5
<STATE> 2
<MEAN> 39
 -9.974998e+00 3.948072e+00 -1.692019e+00 -3.250472e+00 -1.181538e+00 -7.554730e+00 -8.851950e-01 -4.000021e-01 4.260700e-01 -2.105476e+00 -1.562563e+00 -2.397795e+00 5.689050e+01 -3.397223e+00 1.924514e+00 -1.046080e+00 9.432136e-01 9.267097e-01 -4.003877e-01 9.910345e-01 1.123043e-01 1.713448e-01 -4.690047e-01 5.364946e-01 1.942292e-01 -1.561085e-01 -1.095429e-01 -2.747191e-01 -9.179535e-02 -3.070675e-01 -1.465578e-01 1.005056e-01 -2.048170e-01 -2.722526e-02 -1.565694e-01 5.201409e-02 3.322623e-02 -5.996715e-02 3.858946e-02
<VARIANCE> 39
 4.640589e+01 4.457949e+01 4.918038e+01 3.666925e+01 5.833878e+01 4.432426e+01 4.718647e+01 4.467160e+01 4.321363e+01 3.882410e+01 3.047995e+01 2.163162e+01 4.056355e+01 1.849965e+00 2.774606e+00 2.796924e+00 3.499973e+00 3.423265e+00 3.193639e+00 2.789260e+00 2.976914e+00 2.356113e+00 2.568113e+00 2.112308e+00 1.801219e+00 9.238201e-01 6.596094e-01 4.274774e-01 3.767441e-01 3.926244e-01 4.898908e-01 4.595419e-01 4.233884e-01 4.426854e-01 3.974939e-01 3.971465e-01 3.498233e-01 2.790506e-01 1.067518e-01
<GCONST> 1.186700e+02
<STATE> 3
<MEAN> 39
 -1.896315e+01 5.489399e+00 -4.556394e+00 -1.980531e+00 -2.637035e-01 -6.783404e+00 1.122415e+00 1.449292e-02 -2.016109e-01 -2.400056e+00 4.630522e-01 -1.085865e+00 5.321517e+01 -5.629408e-01 -2.313269e-01 -9.461574e-02 4.604963e-03 -3.793934e-02 1.993969e-02 1.815466e-01 5.866259e-03 -6.104883e-02 -1.540849e-04 1.046520e-01 1.500362e-01 -3.514163e-01 6.290841e-01 -2.909569e-01 2.263985e-01 -9.220667e-02 -1.457510e-01 -1.363222e-02 -7.323059e-02 -2.728510e-03 2.533527e-02 7.400081e-02 -8.324939e-02 -2.275955e-02 9.308196e-03
<VARIANCE> 39
 2.657211e+01 4.352130e+01 3.877148e+01 2.907551e+01 3.676567e+01 4.553392e+01 4.025633e+01 3.316110e+01 3.367017e+01 3.251948e+01 2.188777e+01 1.997610e+01 6.248402e+01 1.375743e+00 1.070502e+00 1.110171e+00 1.070858e+00 1.269986e+00 1.429813e+00 1.446841e+00 1.537426e+00 1.498438e+00 1.396166e+00 1.217856e+00 9.972829e-01 4.191588e-01 3.482774e-01 2.582847e-01 2.322369e-01 2.694573e-01 2.931997e-01 3.160109e-01 3.287645e-01 3.265474e-01 3.094836e-01 3.141299e-01 2.631135e-01 2.235343e-01 8.744057e-02
<GCONST> 1.022193e+02
<STATE> 4
<MEAN> 39
 -1.649710e+01 3.536234e+00 -3.769442e+00 -2.668462e+00 -1.204162e+00 -8.149732e+00 1.019955e+00 -6.827567e-02 6.689118e-01 -2.002705e+00 -3.412862e-01 -1.050382e+00 5.391220e+01 2.676975e+00 -8.204637e-01 5.185893e-01 -6.106408e-01 -9.608567e-01 -1.994069e-01 -7.908579e-01 -2.129939e-01 1.113915e-01 1.385158e-01 -5.239019e-01 -3.709657e-01 6.860867e-01 5.679954e-01 -4.597171e-02 9.425625e-02 -2.571276e-01 -1.955379e-01 6.641618e-02 -3.635875e-01 -7.348149e-02 -5.700656e-02 4.740330e-02 -5.648421e-02 -1.673777e-01 3.417418e-01
<VARIANCE> 39
 5.206332e+01 3.163677e+01 3.699682e+01 3.034384e+01 3.982875e+01 4.472877e+01 3.891499e+01 3.048218e+01 3.407631e+01 2.989390e+01 2.360476e+01 1.859009e+01 4.238304e+01 4.975294e+00 3.306807e+00 3.274417e+00 2.922294e+00 3.459294e+00 3.409691e+00 3.560324e+00 3.342387e+00 2.635108e+00 2.746009e+00 2.475784e+00 1.861518e+00 2.503121e+00 7.935189e-01 4.512878e-01 3.977303e-01 4.537441e-01 5.194094e-01 5.385612e-01 5.567405e-01 5.189569e-01 4.326450e-01 4.374595e-01 4.282734e-01 3.093677e-01 2.722831e-01
<GCONST> 1.216146e+02
<TRANSP> 5
 0.000000e+00 1.000000e+00 0.000000e+00 0.000000e+00 0.000000e+00
 0.000000e+00 6.779752e-01 3.220248e-01 0.000000e+00 0.000000e+00
 0.000000e+00 0.000000e+00 8.116145e-01 1.883855e-01 0.000000e+00
 0.000000e+00 0.000000e+00 0.000000e+00 7.107208e-01 2.892793e-01
 0.000000e+00 0.000000e+00 0.000000e+00 0.000000e+00 0.000000e+00
<ENDHMM>
~h "t"
<BEGINHMM>
<NUMSTATES> 5
<STATE> 2
<MEAN> 39
 -6.825144e+00 -3.635218e-01 -1.459746e+00 -3.064438e+00 -3.139573e+00 -3.427792e+00 -3.036903e+00 -7.403829e-02 4.622512e-02 -6.755486e-01 -1.359450e+00 -2.371886e+00 4.611728e+01 -4.984454e-01 4.990029e-02 -1.458020e-01 2.225795e-01 1.172086e-01 3.239866e-01 1.844561e-01 -3.305888e-02 -3.208668e-02 -1.729777e-02 1.057271e-01 1.971847e-01 -9.319811e-01 -3.610359e-02 -1.300264e-01 -2.851545e-02 -1.519465e-01 -2.699861e-02 -1.480918e-01 1.488795e-02 1.434029e-02 -9.908101e-03 -2.294715e-02 4.743581e-02 3.781500e-03 3.708746e-01
<VARIANCE> 39
 2.778420e+01 3.561107e+01 4.165504e+01 3.870976e+01 3.925799e+01 3.883361e+01 2.926061e+01 3.755873e+01 3.111634e+01 2.645987e+01 2.390668e+01 2.381041e+01 5.193504e+01 6.238220e-01 6.780396e-01 9.369229e-01 1.100173e+00 1.307632e+00 1.569381e+00 1.395482e+00 1.608274e+00 1.427513e+00 1.453965e+00 1.248226e+00 1.029649e+00 1.265568e+00 1.118311e-01 1.667644e-01 2.089796e-01 2.546397e-01 2.757358e-01 3.611195e-01 2.911963e-01 3.458134e-01 3.005989e-01 2.994077e-01 2.594517e-01 2.050779e-01 2.219541e-01
<GCONST> 1.008483e+02
<STATE> 3
<MEAN> 39
 -5.854068e+00 2.069904e+00 2.351497e-01 -2.667040e+00 -3.875877e+00 -4.308568e+00 -4.203321e+00 -2.121894e+00 -8.577164e-01 -5.393758e-01 -1.244720e+00 -2.566059e+00 4.644004e+01 -1.070262e+00 -7.980641e-01 -7.452481e-01 -6.146140e-01 3.761582e-01 -7.675695e-01 5.880886e-01 4.883875e-02 1.704393e-01 -2.818846e-01 2.862723e-01 2.503533e-01 1.261317e+00 2.604664e-01 -2.886817e-01 -8.832889e-02 -5.664417e-01 -9.738095e-02 -3.420053e-01 -1.451296e-01 8.467549e-02 1.831547e-01 2.892697e-02 -7.584329e-02 -1.691250e-01 1.154424e+00
<VARIANCE> 39
 2.192073e+01 3.470767e+01 4.813750e+01 4.440980e+01 4.522458e+01 4.080264e+01 2.805991e+01 3.475071e+01 2.876629e+01 2.559134e+01 2.492314e+01 2.218304e+01 4.310722e+01 1.677537e+00 2.278507e+00 3.173525e+00 3.010235e+00 3.489045e+00 3.785597e+00 2.855007e+00 3.120754e+00 2.541168e+00 2.507093e+00 2.371655e+00 1.644119e+00 3.459949e+00 3.290159e-01 3.942247e-01 6.045765e-01 5.422962e-01 6.023011e-01 5.896679e-01 5.336186e-01 6.640472e-01 4.867786e-01 4.890671e-01 4.647687e-01 3.403412e-01 3.824949e-01
<GCONST> 1.204112e+02
<STATE> 4
<MEAN> 39
 -8.590758e+00 -1.645012e+00 -2.642118e+00 -6.220308e+00 -2.597423e+00 -7.686357e+00 -1.984734e+00 -1.252684e+00 6.827329e-01 -1.365204e+00 -5.441687e-01 -2.389240e+00 5.395411e+01 8.753401e-01 -6.039106e-01 -2.294785e-01 -1.534110e+00 -2.390994e-01 -6.725602e-01 -5.725792e-01 2.642442e-01 4.349100e-01 8.129434e-02 -2.333418e-01 -5.634307e-01 2.937602e+00 6.791387e-01 9.722573e-02 3.326099e-01 -1.490221e-01 -2.390631e-01 4.395408e-01 -4.780476e-01 3.033975e-02 -1.264523e-01 1.709705e-01 -1.132568e-01 -2.193808e-01 -2.878136e-02
<VARIANCE> 39
 2.285213e+01 2.535891e+01 3.757342e+01 3.453212e+01 3.735625e+01 4.391592e+01 3.359851e+01 3.032546e+01 3.301428e+01 2.853716e+01 2.618050e+01 2.236560e+01 5.066517e+01 3.412084e+00 3.858432e+00 6.305270e+00 4.960857e+00 5.021062e+00 5.226273e+00 4.454118e+00 6.148841e+00 4.003239e+00 3.612095e+00 3.519247e+00 2.695473e+00 4.425985e+00 4.222488e-01 5.525734e-01 6.244971e-01 6.924757e-01 7.185013e-01 8.030376e-01 6.654132e-01 7.052740e-01 5.444500e-01 5.624844e-01 5.546482e-01 4.208410e-01 6.572052e-01
<GCONST> 1.290313e+02
<TRANSP> 5
 0.000000e+00 1.000000e+00 0.000000e+00 0.000000e+00 0.000000e+00
 0.000000e+00 7.610642e-01 2.389358e-01 0.000000e+00 0.000000e+00
 0.000000e+00 0.000000e+00 4.411704e-01 5.588296e-01 0.000000e+00
 0.000000e+00 0.000000e+00 0.000000e+00 4.986311e-01 5.013689e-01
 0.000000e+00 0.000000e+00 0.000000e+00 0.000000e+00 0.000000e+00
<ENDHMM>
~h "u"
<BEGINHMM>
<NUMSTATES> 5
<STATE> 2
<MEAN> 39
 4.172769e-01 3.862107e+00 -1.691115e+00 -1.001552e+01 -5.865527e+00 -4.922247e+00 -9.583247e+00 -4.476238e+00 -2.697557e+00 -3.645500e-01 2.348581e-01 -2.079846e+00 5.542208e+01 1.273163e+00 4.316499e-01 -4.884411e-01 -1.779975e+00 -5.785260e-01 7.610838e-01 -1.034727e+00 -7.570995e-01 -6.966868e-01 3.735574e-01 7.669990e-01 1.652125e-01 7.307944e-01 -3.030598e-01 -8.171049e-02 8.538385e-02 2.040798e-01 2.101468e-01 2.986432e-01 3.190727e-01 4.615022e-02 -1.671910e-02 3.376853e-02 -6.230640e-04 -5.482556e-02 -2.711118e-01
<VARIANCE> 39
 2.387627e+01 4.493765e+01 4.350102e+01 6.695831e+01 5.095664e+01 5.228779e+01 5.580037e+01 5.324493e+01 5.152088e+01 4.764725e+01 3.399547e+01 2.463302e+01 4.073352e+01 2.638221e+00 2.289542e+00 3.089211e+00 4.463182e+00 4.082158e+00 4.201163e+00 4.144348e+00 4.015958e+00 3.513023e+00 3.170415e+00 3.105044e+00 2.207540e+00 1.699335e+00 3.634877e-01 4.350522e-01 3.786385e-01 7.336305e-01 5.841858e-01 6.411860e-01 7.887267e-01 6.557685e-01 6.511058e-01 5.416333e-01 4.629560e-01 3.946154e-01 3.428604e-01
<GCONST> 1.271224e+02
<STATE> 3
<MEAN> 39
 1.717033e+00 2.540876e+00 -2.882035e+00 -1.483892e+01 -5.549383e+00 -4.660691e-01 -1.142479e+01 -7.048315e+00 -4.033087e+00 1.291688e+00 3.613934e+00 -2.152498e+00 5.814111e+01 -5.185743e-03 -3.122517e-01 -2.708137e-03 -1.039678e-01 3.527624e-01 2.795734e-01 -2.124534e-01 -1.222301e-01 2.196095e-01 4.806658e-01 5.936422e-02 -3.889495e-01 1.178034e-01 -3.460834e-01 -3.916885e-02 2.786753e-01 8.483015e-01 1.690677e-01 -3.713401e-01 4.219859e-01 3.674725e-01 3.050428e-01 -2.463284e-01 -4.967424e-01 -1.013190e-01 -3.992772e-01
<VARIANCE> 39
 1.897565e+01 4.042322e+01 4.257055e+01 7.369606e+01 5.536315e+01 6.075479e+01 5.686915e+01 6.819771e+01 6.319186e+01 6.500539e+01 4.925200e+01 3.638789e+01 2.975158e+01 7.361326e-01 2.512108e+00 1.798284e+00 4.721959e+00 2.867629e+00 3.686978e+00 3.453389e+00 3.353563e+00 4.699374e+00 3.009665e+00 2.969031e+00 2.569923e+00 1.449033e+00 2.517363e-01 3.396932e-01 3.729618e-01 6.127207e-01 6.030833e-01 6.579916e-01 7.280514e-01 6.959882e-01 7.285526e-01 6.241726e-01 5.898889e-01 5.255785e-01 1.875725e-01
<GCONST> 1.254013e+02
<STATE> 4
<MEAN> 39
 7.820238e-01 3.111398e+00 -2.080329e+00 -1.374642e+01 -3.787797e+00 -2.908451e+00 -9.839099e+00 -4.818292e+00 -5.063396e+00 8.478261e-01 6.862376e-01 -1.920714e+00 5.565440e+01 -2.549737e-01 4.028046e-02 3.088540e-01 8.954689e-01 1.726166e-01 -1.424042e-01 4.098329e-01 2.756499e-01 3.395365e-01 -1.700129e-01 -4.232371e-01 -1.032563e-01 -6.885258e-01 -1.562455e-01 -3.073818e-03 6.948850e-02 2.356276e-01 8.103277e-04 -7.689043e-02 9.754634e-02 1.666315e-02 7.223509e-02 -6.753586e-02 -5.317596e-02 4.071008e-02 -9.930106e-02
<VARIANCE> 39
 1.469228e+01 3.808776e+01 4.667778e+01 7.344567e+01 4.692736e+01 4.456997e+01 4.523742e+01 4.674876e+01 5.743820e+01 5.880421e+01 4.302097e+01 3.252499e+01 3.390998e+01 6.533055e-01 1.281351e+00 1.292223e+00 2.625329e+00 1.770100e+00 2.128613e+00 2.046168e+00 2.166517e+00 2.209515e+00 1.842870e+00 2.008942e+00 1.452377e+00 1.082784e+00 1.229442e-01 1.891407e-01 2.171065e-01 3.734561e-01 3.359474e-01 3.649538e-01 3.674596e-01 3.830335e-01 4.384639e-01 3.553456e-01 3.467424e-01 2.824762e-01 1.087514e-01
<GCONST> 1.100184e+02
<TRANSP> 5
 0.000000e+00 1.000000e+00 0.000000e+00 0.000000e+00 0.000000e+00
 0.000000e+00 4.521366e-01 5.478634e-01 0.000000e+00 0.000000e+00
 0.000000e+00 0.000000e+00 4.755575e-01 5.244425e-01 0.000000e+00
 0.000000e+00 0.000000e+00 0.000000e+00 6.815701e-01 3.184299e-01
 0.000000e+00 0.000000e+00 0.000000e+00 0.000000e+00 0.000000e+00
<ENDHMM>
~h "v"
<BEGINHMM>
<NUMSTATES> 5
<STATE> 2
<MEAN> 39
 -4.582423e+00 -6.186321e-01 8.597548e-02 -1.817089e+00 -3.825197e+00 -1.773794e+00 -1.014305e+00 2.773910e+00 1.269815e+00 -1.192896e+00 -2.189072e+00 -3.509248e+00 5.391511e+01 -1.744447e+00 5.674444e-01 -8.793371e-01 7.908404e-01 1.014966e-01 -3.361652e-01 3.419374e-01 -5.138340e-02 2.041122e-01 -3.624382e-01 -4.955649e-02 4.552428e-01 -9.777179e-01 -1.612006e-01 -1.912087e-01 -7.375743e-02 -2.492990e-01 -1.903203e-01 -2.407215e-01 -2.365783e-01 -2.181718e-01 -1.325292e-01 -9.074274e-02 6.786848e-02 -1.154840e-01 2.553976e-01
<VARIANCE> 39
 1.335667e+01 2.550591e+01 5.082356e+01 2.678921e+01 3.790041e+01 2.819070e+01 1.629752e+01 4.839783e+01 3.470705e+01 2.497920e+01 2.412837e+01 2.336570e+01 2.168131e+01 1.405350e+00 9.143203e-01 2.019838e+00 1.287225e+00 2.376002e+00 2.207681e+00 2.133899e+00 2.062737e+00 2.840434e+00 1.706781e+00 1.575385e+00 1.486266e+00 6.809050e-01 2.397769e-01 1.421590e-01 2.491793e-01 2.124223e-01 3.327918e-01 3.623216e-01 2.702798e-01 3.133652e-01 4.104728e-01 2.415433e-01 2.592511e-01 2.055844e-01 7.098642e-02
<GCONST> 1.021455e+02
<STATE> 3
<MEAN> 39
 -1.189975e+01 -4.407488e-01 -2.395561e+00 -9.014111e-01 -2.953625e+00 -4.606809e+00 -2.245317e+00 -1.156533e+00 1.064804e-01 -3.117053e+00 -1.063572e+00 -1.756086e+00 5.200963e+01 -7.787018e-01 -1.981795e-01 -1.048296e-01 4.331739e-02 -8.810515e-02 -1.470685e-01 6.614782e-02 -1.443954e-01 -2.001552e-01 -1.148349e-01 1.068412e-01 8.207978e-02 -1.963838e-01 7.420104e-01 -3.395380e-02 4.717342e-01 -2.497049e-01 -1.692550e-01 2.287250e-01 3.010993e-02 -7.477676e-03 -1.548101e-01 3.265800e-01 1.724906e-01 -1.460902e-01 2.598586e-01
<VARIANCE> 39
 1.090960e+01 1.591638e+01 3.254927e+01 1.967815e+01 2.003112e+01 2.243220e+01 1.641762e+01 2.430912e+01 2.063095e+01 3.065422e+01 1.693271e+01 1.361339e+01 1.345732e+01 1.721797e+00 1.049303e+00 1.564091e+00 1.032384e+00 1.426867e+00 1.407136e+00 1.173882e+00 1.965676e+00 1.540991e+00 1.740241e+00 1.433910e+00 9.387518e-01 3.106515e-01 2.762206e-01 2.671756e-01 4.160088e-01 3.260268e-01 3.958595e-01 3.328945e-01 3.434111e-01 4.367386e-01 4.309023e-01 3.658230e-01 3.520151e-01 2.174665e-01 1.317568e-01
<GCONST> 9.762909e+01
<STATE> 4
<MEAN> 39
 -9.079448e+00 3.480334e-01 -1.693482e+00 -1.037043e+00 -4.092260e+00 -2.145120e+00 -9.534276e-01 -9.131570e-01 -4.594551e-01 -1.540026e+00 -2.703621e-01 -2.665713e+00 5.184634e+01 2.469230e+00 -7.793409e-02 1.145029e+00 -1.470738e+00 -1.307483e+00 2.399170e-01 -4.740417e-01 -9.904950e-01 -8.820862e-01 9.761257e-01 7.042847e-01 -7.806367e-01 1.648183e+00 5.047801e-01 -2.160137e-01 3.282007e-01 -6.170171e-01 -4.569416e-01 -1.551394e-01 -3.439721e-01 -1.413277e-01 -4.859524e-02 1.855990e-01 -4.063350e-02 -2.615778e-01 6.043569e-01
<VARIANCE> 39
 2.963233e+01 2.364004e+01 4.762054e+01 3.474598e+01 2.677616e+01 3.270494e+01 2.433039e+01 2.808549e+01 2.503330e+01 2.695206e+01 1.729543e+01 1.548859e+01 2.126467e+01 4.102624e+00 3.306055e+00 7.131822e+00 3.977513e+00 3.511022e+00 5.003670e+00 2.978985e+00 5.086324e+00 2.447332e+00 2.168892e+00 2.781570e+00 1.301203e+00 1.363452e+00 6.134409e-01 5.416836e-01 7.565147e-01 5.048817e-01 4.670617e-01 4.962374e-01 4.512053e-01 6.264812e-01 3.943367e-01 4.671313e-01 3.477718e-01 2.707326e-01 1.396071e-01
<GCONST> 1.180934e+02
<TRANSP> 5
 0.000000e+00 1.000000e+00 0.000000e+00 0.000000e+00 0.000000e+00
 0.000000e+00 7.070525e-01 2.929475e-01 0.000000e+00 0.000000e+00
 0.000000e+00 0.000000e+00 7.263667e-01 2.736332e-01 0.000000e+00
 0.000000e+00 0.000000e+00 0.000000e+00 5.680960e-01 4.319040e-01
 0.000000e+00 0.000000e+00 0.000000e+00 0.000000e+00 0.000000e+00
<ENDHMM>
~h "w"
<BEGINHMM>
<NUMSTATES> 5
<STATE> 2
<MEAN> 39
 2.704887e+00 -1.221301e-01 -4.968625e+00 -1.380926e+01 -4.783381e+00 2.186039e+00 -4.164083e+00 -2.702460e+00 -1.682335e+00 2.019162e+00 3.584812e+00 -4.244920e+00 5.771866e+01 6.209743e-01 1.002674e+00 4.924085e-02 -9.675550e-01 -7.834515e-01 1.766235e-01 -2.808158e-02 -2.347379e-01 -6.372100e-01 2.256181e-02 5.543375e-01 6.621548e-01 -3.869542e-01 -1.161743e-01 -2.565629e-01 -4.313361e-02 -1.244188e-02 4.107716e-03 -4.045782e-02 6.239700e-02 2.104684e-01 5.261662e-02 -6.525654e-02 -1.133667e-01 -9.136018e-02 1.800411e-01
<VARIANCE> 39
 1.501665e+01 4.209278e+01 3.810191e+01 7.299817e+01 4.417819e+01 3.670866e+01 4.169718e+01 3.073948e+01 3.332621e+01 2.720864e+01 2.632114e+01 2.177663e+01 2.579713e+01 6.194355e-01 9.985987e-01 9.289096e-01 1.630229e+00 1.700786e+00 2.480081e+00 1.484174e+00 1.670844e+00 1.353179e+00 1.414831e+00 1.575806e+00 1.107459e+00 5.903133e-01 7.700787e-02 1.812188e-01 2.014477e-01 3.508734e-01 2.946377e-01 4.075452e-01 2.872239e-01 3.450096e-01 2.729672e-01 2.830702e-01 3.246794e-01 2.626746e-01 8.910367e-02
<GCONST> 1.011840e+02
<STATE> 3
<MEAN> 39
 3.974026e+00 3.189503e+00 -5.818433e+00 -1.700772e+01 -8.342976e+00 3.693958e+00 -5.149943e+00 -2.635274e+00 -4.561962e+00 1.489683e+00 3.798954e+00 -2.083811e+00 5.578744e+01 3.330886e-01 -1.026958e+00 -1.053426e+00 -2.094970e+00 2.063656e-01 1.277483e+00 -1.180296e-01 -2.903738e-01 -3.330962e-01 6.096849e-01 4.429868e-01 -8.384260e-01 1.402863e+00 -3.538712e-01 -5.754972e-01 -6.998006e-02 2.812302e-01 5.784583e-01 3.654164e-02 1.570983e-02 9.665711e-02 4.643586e-01 1.185600e-01 -3.057234e-01 -5.476283e-01 2.137785e-01
<VARIANCE> 39
 2.141149e+01 4.665165e+01 4.066417e+01 9.780637e+01 5.193770e+01 4.329417e+01 4.027698e+01 3.560876e+01 3.969842e+01 3.536535e+01 3.416151e+01 2.267762e+01 5.224543e+01 1.893495e+00 2.017580e+00 1.409945e+00 3.941928e+00 3.689368e+00 3.822376e+00 2.770517e+00 2.690814e+00 3.264448e+00 2.506081e+00 2.627695e+00 2.252848e+00 1.436203e+00 2.270692e-01 2.040993e-01 2.743566e-01 7.622377e-01 4.476246e-01 5.720053e-01 3.956024e-01 4.308726e-01 4.517512e-01 4.690191e-01 4.366214e-01 3.652900e-01 1.756929e-01
<GCONST> 1.187723e+02
<STATE> 4
<MEAN> 39
 1.880061e+00 -3.993181e+00 -6.723371e+00 -2.072904e+01 -2.833900e+00 6.169297e+00 -4.235188e+00 -2.737088e+00 -2.194429e+00 4.859184e+00 4.195927e+00 -8.899665e+00 6.155990e+01 -6.024678e-01 -1.170770e+00 -2.350343e-01 7.587295e-01 1.082346e+00 -1.788130e-01 2.812013e-02 4.273340e-01 1.005174e+00 -2.202243e-01 -1.023489e+00 -1.223540e+00 4.330977e-01 -4.084611e-02 2.076349e-01 1.841265e-01 4.275652e-01 -1.408015e-01 -3.917444e-01 5.276932e-02 1.261187e-01 3.769183e-02 -3.581934e-01 -2.029295e-01 3.343629e-01 -2.489863e-01
<VARIANCE> 39
 1.300973e+01 4.983498e+01 3.955859e+01 6.155814e+01 4.413359e+01 5.177211e+01 5.445245e+01 3.937085e+01 6.721016e+01 4.611906e+01 4.329377e+01 3.628069e+01 2.199109e+01 3.807367e-01 1.567080e+00 8.276928e-01 1.861574e+00 1.891547e+00 1.900236e+00 1.442604e+00 1.585292e+00 2.265550e+00 1.938522e+00 1.739541e+00 2.268715e+00 1.466413e+00 8.022440e-02 2.298082e-01 1.716104e-01 4.244557e-01 3.357760e-01 4.027714e-01 2.600057e-01 2.902587e-01 3.795048e-01 3.337229e-01 2.868835e-01 3.965712e-01 1.341039e-01
<GCONST> 1.076540e+02
<TRANSP> 5
 0.000000e+00 1.000000e+00 0.000000e+00 0.000000e+00 0.000000e+00
 0.000000e+00 7.443509e-01 2.556491e-01 0.000000e+00 0.000000e+00
 0.000000e+00 0.000000e+00 6.081088e-01 3.918912e-01 0.000000e+00
 0.000000e+00 0.000000e+00 0.000000e+00 7.180284e-01 2.819716e-01
 0.000000e+00 0.000000e+00 0.000000e+00 0.000000e+00 0.000000e+00
<ENDHMM>
~h "y"
<BEGINHMM>
<NUMSTATES> 5
<STATE> 2
<MEAN> 39
 -5.081587e+00 2.591559e-01 8.890929e+00 -1.218732e+01 -1.048395e+01 -7.944557e+00 -5.175219e+00 -1.767780e+00 -4.021273e+00 -4.180762e-01 1.637522e-02 -1.917323e+00 5.972898e+01 -1.204480e-01 -3.533168e-01 8.873869e-01 -1.005116e+00 -1.104286e+00 -2.773279e-01 3.617266e-01 4.577814e-01 -3.237599e-01 3.593249e-01 5.340270e-01 9.585238e-03 9.853449e-01 8.400302e-02 -2.998921e-01 -4.802272e-01 1.855891e-01 1.962087e-01 1.294482e-01 1.789192e-01 2.177655e-01 1.558482e-01 -1.011190e-01 -1.194859e-01 -1.328996e-01 -3.299460e-02
<VARIANCE> 39
 2.450436e+01 7.279884e+01 6.179399e+01 8.631741e+01 6.165141e+01 5.128912e+01 4.454189e+01 7.263888e+01 4.103965e+01 5.149865e+01 5.411331e+01 2.347010e+01 5.165667e+01 1.309369e+00 3.237860e+00 4.046652e+00 3.718731e+00 2.856562e+00 3.031144e+00 3.212312e+00 4.601944e+00 2.741611e+00 2.517007e+00 2.155946e+00 1.672924e+00 2.032239e+00 1.581401e-01 3.312600e-01 5.150403e-01 6.231545e-01 6.577270e-01 4.596587e-01 5.204293e-01 5.393850e-01 4.291487e-01 4.432286e-01 4.195550e-01 2.925029e-01 2.127445e-01
<GCONST> 1.237080e+02
<STATE> 3
<MEAN> 39
 -5.187869e+00 -5.793406e+00 9.391566e+00 -1.320195e+01 -1.312511e+01 -9.643106e+00 -1.281939e+00 1.981399e+00 -3.990575e+00 2.301019e-01 2.640837e+00 -3.768667e+00 6.408043e+01 1.454860e-01 -6.799800e-01 -5.386034e-01 7.581475e-02 1.149310e-01 8.462314e-03 6.312737e-01 8.385786e-01 5.318237e-02 -2.657564e-01 -3.803622e-02 -2.106505e-01 2.443506e-01 8.965814e-02 -6.388424e-02 -3.626900e-01 1.752108e-01 4.638018e-01 9.505185e-02 -1.023392e-01 7.967726e-02 1.246498e-01 -1.928247e-01 -2.932562e-01 5.253869e-04 -8.486178e-02
<VARIANCE> 39
 2.544130e+01 3.943629e+01 3.677053e+01 6.857248e+01 3.865656e+01 3.507831e+01 3.949235e+01 6.865733e+01 3.448914e+01 3.933257e+01 4.063643e+01 1.750799e+01 3.162499e+01 2.618833e-01 1.624237e+00 2.084873e+00 1.024419e+00 1.570243e+00 1.128130e+00 1.931838e+00 2.816560e+00 1.532472e+00 1.827156e+00 1.317322e+00 1.008111e+00 3.016047e-01 4.090375e-02 1.485663e-01 1.337520e-01 1.518642e-01 2.556923e-01 2.105442e-01 3.398573e-01 3.890611e-01 2.536260e-01 2.615823e-01 2.097373e-01 1.912475e-01 5.780971e-02
<GCONST> 9.833238e+01
<STATE> 4
<MEAN> 39
 -1.039816e+00 -7.810410e+00 -1.366051e+00 -5.566386e+00 -1.259238e+01 -3.168097e+00 1.415214e+00 3.247903e+00 -2.598005e+00 -4.457116e+00 2.177317e-01 -3.579722e+00 6.095184e+01 2.181338e-01 -5.618401e-01 -1.056066e+00 6.094886e-01 1.171724e+00 2.304874e-01 -5.274449e-02 2.618352e-01 1.968942e-01 -4.864215e-01 -5.754495e-01 -6.276373e-02 -4.975411e-02 1.537769e-02 1.980389e-01 7.235219e-02 -1.479438e-02 1.760400e-01 6.165176e-02 -3.062153e-01 -3.016132e-01 4.466280e-02 1.502928e-01 -4.274897e-02 1.089391e-02 -1.595360e-01
<VARIANCE> 39
 1.478897e+01 3.085214e+01 6.377690e+01 8.087000e+01 4.016683e+01 9.536787e+01 3.131107e+01 5.652174e+01 4.451245e+01 2.682758e+01 3.456208e+01 1.415580e+01 2.620084e+01 2.865236e-01 8.593894e-01 1.642372e+00 1.716918e+00 1.724053e+00 1.385950e+00 1.659357e+00 1.841384e+00 1.466169e+00 1.430810e+00 1.668070e+00 9.490396e-01 2.333682e-01 3.510775e-02 1.261322e-01 1.382033e-01 1.755115e-01 2.241616e-01 2.354147e-01 2.745840e-01 3.837695e-01 2.160225e-01 2.217931e-01 2.046797e-01 1.608695e-01 4.857178e-02
<GCONST> 9.618269e+01
<TRANSP> 5
 0.000000e+00 1.000000e+00 0.000000e+00 0.000000e+00 0.000000e+00
 0.000000e+00 6.092089e-01 3.907911e-01 0.000000e+00 0.000000e+00
 0.000000e+00 0.000000e+00 6.954470e-01 3.045529e-01 0.000000e+00
 0.000000e+00 0.000000e+00 0.000000e+00 6.652651e-01 3.347349e-01
 0.000000e+00 0.000000e+00 0.000000e+00 0.000000e+00 0.000000e+00
<ENDHMM>
~h "z"
<BEGINHMM>
<NUMSTATES> 5
<STATE> 2
<MEAN> 39
 -5.842496e+00 2.024528e+00 -1.019280e+00 -2.771623e+00 -2.805140e+00 9.274659e-01 -3.752994e+00 -2.015070e+00 -1.543501e+00 5.811146e-01 -2.517392e-01 -1.725379e+00 4.457545e+01 -5.665103e-01 2.024169e-01 -2.332221e-01 -2.546062e-02 -1.376644e-01 1.415312e-01 4.471407e-01 1.221823e-01 6.167199e-02 5.851643e-02 -9.760793e-02 7.732099e-02 -6.004177e-01 -6.953809e-02 2.572510e-02 9.910136e-02 -2.006946e-02 -4.044734e-02 -2.790200e-02 2.731422e-02 -2.760033e-02 -3.505769e-02 -2.204831e-02 7.089512e-02 -2.594556e-02 7.111593e-02
<VARIANCE> 39
 4.658292e+01 3.690531e+01 1.944690e+01 1.811527e+01 2.386436e+01 4.379335e+01 2.267317e+01 2.366902e+01 1.883979e+01 2.363536e+01 1.389431e+01 1.034242e+01 4.577501e+01 3.927526e-01 4.114888e-01 3.892411e-01 6.691987e-01 8.699466e-01 9.428481e-01 1.204087e+00 1.323234e+00 1.081626e+00 1.007034e+00 8.799527e-01 6.646705e-01 3.174250e-01 1.078439e-01 6.940358e-02 6.789407e-02 1.538837e-01 2.224008e-01 1.837218e-01 2.734429e-01 2.631527e-01 2.050585e-01 1.492957e-01 1.676287e-01 1.651479e-01 3.255583e-02
<GCONST> 8.283657e+01
<STATE> 3
<MEAN> 39
 -1.219504e+01 3.783208e+00 3.197847e+00 -3.048227e+00 -7.867201e-01 -3.037215e+00 -2.055871e+00 -1.604029e+00 9.366156e-01 -4.378889e+00 1.762903e+00 -1.367177e+00 5.246107e+01 -7.229281e-01 -2.407837e-01 2.000079e-01 6.248920e-02 -3.811457e-01 -5.801007e-01 1.958250e-01 4.680221e-01 3.141654e-01 -9.842004e-02 3.364592e-02 -2.210228e-01 4.778996e-01 6.593929e-01 -3.285662e-01 1.109376e-01 -2.400128e-01 -2.785329e-01 -2.119590e-01 -2.155740e-01 2.490346e-01 -5.065311e-02 2.244141e-01 -1.178810e-02 -1.965182e-01 3.222569e-01
<VARIANCE> 39
 4.038966e+01 4.317993e+01 1.761846e+01 1.768202e+01 2.992984e+01 3.546279e+01 3.518281e+01 2.342508e+01 3.607407e+01 2.989926e+01 1.602763e+01 1.535532e+01 3.587016e+01 7.027146e+00 2.152887e+00 1.106777e+00 2.104429e+00 2.311722e+00 3.327534e+00 3.516405e+00 2.099528e+00 1.694823e+00 1.789861e+00 1.652604e+00 1.480535e+00 9.732634e-01 9.506444e-01 3.249767e-01 2.589670e-01 4.387330e-01 4.172236e-01 7.581581e-01 7.180172e-01 4.893932e-01 3.405024e-01 3.598933e-01 3.081566e-01 3.241166e-01 2.605214e-01
<GCONST> 1.129177e+02
<STATE> 4
<MEAN> 39
 -6.152104e+00 -8.462059e-01 4.762395e+00 -4.316575e+00 -1.541292e+00 -9.016233e+00 -1.657821e+00 6.966493e+00 -1.603403e+00 1.583545e-01 -4.624436e-01 -7.663941e+00 5.570538e+01 1.524506e+00 -8.817508e-01 3.494860e-01 -7.107716e-01 -1.333864e+00 -1.126721e+00 -5.479447e-01 6.931755e-01 -4.163509e-02 7.853870e-01 8.606596e-02 -7.889357e-01 1.254720e+00 -1.416627e-01 -6.238521e-02 -4.985582e-02 -1.156658e-01 2.187469e-02 5.510359e-02 -3.410465e-02 -1.061910e-01 -7.126683e-02 -1.914234e-02 -5.448315e-02 -1.217018e-01 5.279070e-02
<VARIANCE> 39
 2.117080e+01 4.986837e+01 1.196412e+01 2.019938e+01 4.566498e+01 2.892097e+01 1.246921e+01 4.587449e+01 3.865319e+01 3.848373e+01 8.624332e+00 3.753889e+01 4.345988e+01 4.505368e+00 3.336555e+00 1.383889e+00 2.475562e+00 2.672254e+00 3.158779e+00 1.377549e+00 3.693540e+00 2.005244e+00 3.637406e+00 1.223246e+00 3.023691e+00 2.690254e+00 4.369699e-01 2.947127e-01 1.048009e-01 2.386418e-01 3.010230e-01 4.069433e-01 2.162829e-01 2.833302e-01 3.330611e-01 3.358893e-01 1.294272e-01 4.142414e-01 3.196586e-01
<GCONST> 1.096178e+02
<TRANSP> 5
 0.000000e+00 1.000000e+00 0.000000e+00 0.000000e+00 0.000000e+00
 0.000000e+00 8.489094e-01 1.510905e-01 0.000000e+00 0.000000e+00
 0.000000e+00 0.000000e+00 8.108438e-01 1.891563e-01 0.000000e+00
 0.000000e+00 0.000000e+00 0.000000e+00 6.556691e-01 3.443309e-01
 0.000000e+00 0.000000e+00 0.000000e+00 0.000000e+00 0.000000e+00
<ENDHMM>
~h "ai"
<BEGINHMM>
<NUMSTATES> 5
<STATE> 2
<MEAN> 39
 -1.993406e+00 -1.115101e+01 -1.821568e+00 -1.081527e+01 -4.825203e+00 -5.394568e+00 -3.171101e+00 7.062880e+00 -1.315474e-01 -2.979576e+00 -3.041324e+00 -5.916015e+00 6.441166e+01 -3.613323e-01 -5.534995e-01 1.020637e+00 1.921702e-01 -1.083458e+00 -7.249734e-01 8.900564e-01 9.185018e-01 -5.947345e-01 -6.625607e-01 3.898045e-01 5.552092e-01 3.706231e-01 -9.051643e-02 5.656797e-01 2.539462e-01 8.039460e-02 -1.595680e-01 -1.451246e-03 -1.941633e-02 -4.804545e-01 -1.091335e-01 2.894361e-01 3.481617e-01 8.827478e-02 -3.679959e-01
<VARIANCE> 39
 1.486665e+01 3.865001e+01 4.403688e+01 4.677821e+01 5.092102e+01 4.075424e+01 3.679248e+01 4.557198e+01 5.225481e+01 3.666867e+01 3.116180e+01 2.858096e+01 3.347483e+01 2.790039e-01 1.288829e+00 1.358106e+00 1.337883e+00 2.003798e+00 2.146470e+00 1.852269e+00 1.883007e+00 1.546355e+00 1.644703e+00 1.920301e+00 1.191802e+00 3.424930e-01 1.260765e-01 1.954327e-01 1.865390e-01 2.657811e-01 3.255163e-01 3.146939e-01 3.247521e-01 4.327888e-01 2.998633e-01 3.775973e-01 3.380765e-01 3.102443e-01 1.322736e-01
<GCONST> 1.041525e+02
<STATE> 3
<MEAN> 39
 -3.330103e+00 -7.731732e+00 4.546137e+00 -1.035369e+01 -1.325473e+01 -7.363314e+00 -9.418302e-01 5.433515e+00 -3.677891e+00 -1.461238e+00 1.404536e+00 -4.797868e+00 6.291955e+01 -2.963206e-01 9.126935e-01 1.338350e+00 -3.092493e-01 -9.236565e-01 -1.573058e-01 -1.801218e-01 -1.025671e+00 -3.756477e-01 7.210473e-01 5.309261e-01 9.331151e-02 -3.041035e-01 6.396402e-02 1.572873e-01 -1.563893e-01 8.058279e-02 3.577482e-01 1.190678e-01 -2.405051e-01 -2.297612e-01 9.733579e-02 3.010936e-02 -2.485898e-01 1.079999e-02 -1.760612e-01
<VARIANCE> 39
 1.648550e+01 3.111452e+01 6.548914e+01 5.694168e+01 4.099586e+01 5.142467e+01 3.136333e+01 5.700337e+01 4.645123e+01 3.205196e+01 4.098060e+01 1.982867e+01 2.880603e+01 1.969721e-01 6.589763e-01 9.171065e-01 1.243588e+00 1.337840e+00 1.227412e+00 1.742709e+00 1.656745e+00 1.438470e+00 1.618736e+00 1.501285e+00 9.398422e-01 1.974369e-01 3.385593e-02 9.711388e-02 1.228014e-01 1.710467e-01 1.926042e-01 2.049882e-01 2.665563e-01 3.019353e-01 2.167576e-01 2.679036e-01 1.985860e-01 1.762216e-01 4.492056e-02
<GCONST> 9.322968e+01
<STATE> 4
<MEAN> 39
 -5.206320e+00 -2.237407e+00 1.002698e+01 -1.139473e+01 -1.222238e+01 -9.282759e+00 -2.674290e+00 -1.387376e+00 -4.339750e+00 1.048771e+00 1.091411e-01 -3.595438e+00 5.936028e+01 1.818906e-01 6.866360e-01 -3.245216e-01 7.987811e-01 7.656090e-01 2.907754e-01 -7.363752e-02 -5.173916e-01 1.520594e-01 -1.306745e-01 -3.899432e-01 1.125140e-01 -1.237644e+00 1.070301e-02 -6.128196e-02 -2.803494e-01 1.343741e-01 1.758417e-01 9.216635e-02 4.731758e-02 1.162005e-01 9.979243e-02 -1.024129e-01 -3.452063e-02 -2.224676e-02 -1.123981e-01
<VARIANCE> 39
 1.995123e+01 3.391347e+01 3.943403e+01 7.619020e+01 5.051525e+01 4.151440e+01 3.648634e+01 4.753350e+01 3.193840e+01 2.984723e+01 4.749888e+01 2.460198e+01 4.291634e+01 5.463544e-01 1.003292e+00 1.427988e+00 1.501888e+00 1.641575e+00 1.623217e+00 1.872892e+00 2.358722e+00 1.713277e+00 1.604397e+00 1.719924e+00 1.245923e+00 6.612502e-01 9.373560e-02 1.563067e-01 2.229359e-01 2.757574e-01 3.128230e-01 2.810192e-01 3.424424e-01 3.977497e-01 3.320239e-01 3.412198e-01 3.384774e-01 2.332228e-01 1.200906e-01
<GCONST> 1.047050e+02
<TRANSP> 5
 0.000000e+00 1.000000e+00 0.000000e+00 0.000000e+00 0.000000e+00
 0.000000e+00 7.010685e-01 2.989316e-01 0.000000e+00 0.000000e+00
 0.000000e+00 0.000000e+00 7.733373e-01 2.266627e-01 0.000000e+00
 0.000000e+00 0.000000e+00 0.000000e+00 7.997392e-01 2.002609e-01
 0.000000e+00 0.000000e+00 0.000000e+00 0.000000e+00 0.000000e+00
<ENDHMM>
~h "au"
<BEGINHMM>
<NUMSTATES> 5
<STATE> 2
<MEAN> 39
 8.757061e-01 -4.300828e+00 -9.519568e+00 -1.872378e+01 -2.668187e+00 8.617440e-01 -7.677070e+00 7.501835e-01 -3.904805e+00 -4.224876e-01 -3.516197e+00 -6.763708e+00 6.000131e+01 2.022634e-01 3.981276e-01 -1.527766e-01 -3.931069e-01 5.836829e-02 2.487760e-01 -1.361684e-01 -2.409158e-01 -1.756128e-01 1.804263e-01 3.267087e-01 1.656090e-01 -2.746711e-01 -2.154472e-02 1.228281e-01 1.163130e-01 1.603662e-01 -6.736623e-02 -9.112443e-02 -3.456175e-02 -1.164121e-01 3.055030e-03 1.222301e-02 4.649905e-02 8.424507e-02 -1.285319e-01
<VARIANCE> 39
 1.298918e+01 4.902972e+01 5.585040e+01 7.063309e+01 3.902657e+01 4.907209e+01 3.609496e+01 3.582520e+01 6.396822e+01 5.680658e+01 4.238090e+01 2.955742e+01 3.206120e+01 2.570615e-01 6.561705e-01 7.494416e-01 1.059524e+00 1.347882e+00 1.498701e+00 1.167868e+00 1.401211e+00 1.289414e+00 1.466731e+00 1.333543e+00 1.226334e+00 2.276489e-01 5.056107e-02 1.264075e-01 1.009855e-01 2.044991e-01 2.089486e-01 2.219699e-01 1.829519e-01 2.644294e-01 2.709943e-01 2.342868e-01 2.365718e-01 2.137490e-01 7.259900e-02
<GCONST> 9.537290e+01
<STATE> 3
<MEAN> 39
 2.089709e+00 -4.026931e-01 -6.640408e+00 -1.610572e+01 -4.107268e+00 3.159738e-02 -1.078343e+01 -4.197564e+00 -2.713643e+00 3.998391e+00 2.073744e+00 -3.952815e+00 5.810567e+01 -2.667741e-03 4.892468e-01 6.479037e-01 9.141213e-01 -6.549220e-02 -2.585648e-01 -4.421891e-01 -4.144664e-01 -9.438966e-02 -1.782385e-01 5.915023e-02 3.900293e-01 -6.882440e-01 -1.367076e-01 3.010277e-02 2.410521e-01 5.059110e-01 -2.721388e-03 -2.949403e-01 2.044449e-01 2.470763e-01 2.367162e-02 -1.654037e-01 -3.387220e-01 -7.018709e-02 -1.847330e-01
<VARIANCE> 39
 8.747757e+00 5.479558e+01 3.167846e+01 6.091975e+01 4.197853e+01 4.659322e+01 6.973284e+01 4.359048e+01 5.324409e+01 4.614554e+01 3.728481e+01 2.804178e+01 3.043385e+01 5.354480e-01 1.656168e+00 1.456631e+00 2.473363e+00 3.081018e+00 3.073625e+00 2.831473e+00 3.103295e+00 4.088377e+00 2.705196e+00 2.545537e+00 2.018535e+00 8.924066e-01 6.914438e-02 2.924304e-01 2.552809e-01 2.522460e-01 5.560226e-01 4.763595e-01 5.551054e-01 5.505439e-01 5.831714e-01 5.393014e-01 4.796476e-01 4.316338e-01 1.162609e-01
<GCONST> 1.146553e+02
<STATE> 4
<MEAN> 39
 -1.968136e+00 -1.304172e+00 -6.401281e+00 -9.486822e+00 -3.499639e-01 1.438039e+00 -4.323269e+00 6.509687e-01 -2.266028e+00 8.385088e-01 9.453524e-01 -4.761491e+00 4.904580e+01 -3.125854e-01 1.582554e-01 3.158066e-01 1.137684e+00 7.925083e-02 -2.217257e-01 2.741323e-01 1.208475e-01 3.794936e-02 -1.146967e-01 -3.079201e-01 -5.893936e-02 -8.242738e-01 -6.171825e-02 -4.500140e-02 -1.752315e-02 -2.513517e-02 8.916105e-03 -8.497600e-03 5.155206e-02 1.380196e-02 -6.619401e-02 -1.762841e-02 1.101680e-02 -2.248975e-03 6.131722e-02
<VARIANCE> 39
 2.228782e+01 3.923824e+01 4.416116e+01 9.798683e+01 6.642333e+01 3.718293e+01 5.050117e+01 4.888768e+01 2.914093e+01 3.729436e+01 2.266702e+01 3.199774e+01 5.325304e+01 3.933524e-01 1.305847e+00 1.281837e+00 1.642748e+00 1.495110e+00 2.045566e+00 1.610847e+00 1.931478e+00 1.837945e+00 1.450507e+00 1.527447e+00 1.271204e+00 9.259473e-01 4.778619e-02 1.749623e-01 1.713022e-01 1.735210e-01 2.937988e-01 3.128573e-01 3.228189e-01 3.293199e-01 3.019570e-01 2.681312e-01 2.582865e-01 2.248728e-01 8.697246e-02
<GCONST> 1.031681e+02
<TRANSP> 5
 0.000000e+00 1.000000e+00 0.000000e+00 0.000000e+00 0.000000e+00
 0.000000e+00 8.579760e-01 1.420240e-01 0.000000e+00 0.000000e+00
 0.000000e+00 0.000000e+00 7.055390e-01 2.944611e-01 0.000000e+00
 0.000000e+00 0.000000e+00 0.000000e+00 7.385222e-01 2.614778e-01
 0.000000e+00 0.000000e+00 0.000000e+00 0.000000e+00 0.000000e+00
<ENDHMM>
~h "ei"
<BEGINHMM>
<NUMSTATES> 5
<STATE> 2
<MEAN> 39
 -3.488626e+00 -1.329490e+01 3.871565e+00 -1.134869e+01 -5.287911e+00 -1.610647e+00 -7.315084e+00 1.008432e+01 -6.764105e+00 -1.326160e+00 -5.109650e+00 5.081030e-01 5.457730e+01 -2.778382e-01 -6.266931e-01 8.033137e-01 -1.495999e+00 -9.373617e-01 4.356906e-02 8.285883e-01 -9.640385e-02 1.142870e-01 1.210280e-01 -4.515511e-01 -2.931677e-01 6.850459e-01 8.324550e-02 2.220050e-01 -3.264951e-01 3.426442e-01 -2.208074e-01 -1.698412e-01 -9.182493e-02 -5.420813e-01 1.980782e-01 4.462563e-02 -4.424427e-03 -1.063649e-01 -1.650417e-01
<VARIANCE> 39
 1.665429e+00 3.164052e+01 1.084172e+01 2.883826e+01 2.772787e+01 3.125190e+01 1.138839e+01 1.997127e+01 1.146048e+01 6.248380e+00 1.479167e+01 5.068891e+00 7.444903e+00 1.873394e-01 4.978884e-01 1.553314e+00 8.227629e-01 8.017774e-01 5.709392e-01 5.593433e-01 2.473234e+00 9.184633e-01 7.186247e-01 5.849288e-01 5.125965e-01 2.684880e-01 1.129572e-01 1.328323e-01 1.181987e-01 2.769034e-01 3.002686e-01 1.474055e-01 2.783252e-01 2.561016e-01 2.500335e-01 2.098953e-01 1.604539e-01 1.221483e-01 7.793526e-02
<GCONST> 7.584631e+01
<STATE> 3
<MEAN> 39
 -2.352089e+00 -9.387199e+00 3.464688e+00 -1.040070e+01 -1.291449e+01 -4.150348e+00 -7.328742e+00 3.882053e+00 -4.951421e+00 3.479358e-01 -5.735613e+00 -2.236279e+00 5.340788e+01 1.970451e-01 1.110384e+00 -2.128766e-01 1.484492e+00 -4.013484e-01 7.848384e-01 -2.830966e-01 -5.948790e-01 1.266492e-01 -2.242052e-01 8.165512e-01 -3.459944e-01 -1.139435e+00 -9.586760e-02 8.181017e-02 1.300227e-01 2.242542e-01 2.638051e-01 1.671281e-01 5.600837e-02 1.857996e-01 -2.530664e-02 -2.003948e-01 2.090000e-02 3.813212e-02 -1.532109e-01
<VARIANCE> 39
 2.489933e+00 2.569794e+01 3.618635e+00 3.760784e+01 1.398255e+01 5.807806e+01 1.319411e+01 1.961211e+01 9.666090e+00 1.286861e+01 3.195737e+01 1.124745e+01 1.682782e+01 2.014797e-01 5.063288e-01 4.912112e-01 1.379622e+00 1.819292e+00 2.892929e+00 7.243893e-01 8.694208e-01 1.155870e+00 1.316540e+00 1.619735e+00 4.037815e-01 3.723741e-01 3.223492e-02 1.309424e-01 5.341918e-02 4.395513e-01 2.897030e-01 5.638233e-01 1.378624e-01 1.472769e-01 1.678803e-01 2.307361e-01 4.744175e-01 9.535846e-02 1.024925e-01
<GCONST> 8.051685e+01
<STATE> 4
<MEAN> 39
 -3.148305e+00 2.445601e+00 6.293766e+00 -1.506163e+01 -1.765880e+01 -8.812898e+00 -1.075491e+01 -4.514888e+00 -1.402467e+00 -9.984541e-01 -7.775239e+00 -1.542166e+00 5.496752e+01 -6.843460e-02 5.074854e-01 3.088464e-01 1.102249e+00 -2.718116e-02 1.502193e-01 -1.124765e-01 -3.893667e-02 -9.753353e-02 -2.577403e-01 2.455002e-01 3.499683e-02 -6.425584e-01 -2.088477e-01 1.160312e-01 -1.580422e-01 1.995801e-01 2.018254e-01 -2.494917e-01 3.061493e-01 1.166216e-01 -1.619525e-02 1.102165e-01 2.689005e-01 4.863790e-02 8.233396e-02
<VARIANCE> 39
 1.736242e+00 2.286712e+01 2.100674e+01 6.883456e+01 1.316941e+01 5.463409e+01 1.826681e+01 2.062748e+01 1.751009e+01 8.590535e+00 1.392132e+01 1.840951e+01 2.240314e+01 2.196020e-01 1.458967e-01 5.590178e-01 1.162528e+00 6.018630e-01 8.721344e-01 2.771329e+00 7.076316e-01 1.401350e+00 9.565191e-01 1.208354e+00 1.302735e+00 1.352301e-01 1.079884e-01 6.017760e-02 1.568336e-01 2.504490e-01 2.535196e-01 3.515911e-01 4.670669e-01 1.393963e-01 2.747957e-01 2.143866e-01 1.410867e-01 2.508182e-01 4.326979e-02
<GCONST> 8.098149e+01
<TRANSP> 5
 0.000000e+00 1.000000e+00 0.000000e+00 0.000000e+00 0.000000e+00
 0.000000e+00 7.391902e-01 2.608098e-01 0.000000e+00 0.000000e+00
