~o
<STREAMINFO> 1 39
<VECSIZE> 39<NULLD><MFCC_D_A_0><DIAGC>
~h "a"
<BEGINHMM>
<NUMSTATES> 5
<STATE> 2
<MEAN> 39
 -1.155259e+00 -9.000232e+00 -4.493950e+00 -1.103619e+01 -3.229204e+00 -3.991422e+00 -4.208096e+00 3.932750e+00 1.439622e+00 -1.566754e+00 -3.329636e+00 -6.909235e+00 6.297384e+01 2.390938e-01 -1.450639e+00 -4.115791e-01 -6.257918e-01 4.711570e-01 5.150478e-01 2.338295e-01 8.843123e-01 6.027521e-02 -4.998189e-01 -4.779297e-01 -5.135936e-01 1.079005e+00 -2.402647e-01 4.990904e-01 3.032024e-01 4.603850e-01 5.904822e-02 -4.263841e-02 -2.220180e-02 -4.318334e-01 -1.738521e-01 8.282490e-03 1.548183e-01 3.194684e-01 -5.896021e-01
<VARIANCE> 39
 1.815139e+01 4.311452e+01 5.331318e+01 5.342275e+01 6.332953e+01 5.839743e+01 5.158528e+01 5.586830e+01 5.353422e+01 4.473750e+01 3.941384e+01 3.758081e+01 3.804972e+01 1.257537e+00 2.199967e+00 2.115712e+00 2.803499e+00 3.071601e+00 2.856947e+00 2.867511e+00 3.185332e+00 2.502839e+00 2.602093e+00 2.300991e+00 2.138031e+00 1.555387e+00 2.627597e-01 3.756015e-01 3.166496e-01 4.414124e-01 5.515714e-01 4.678189e-01 4.819188e-01 6.015303e-01 4.785701e-01 4.515431e-01 4.308444e-01 3.872807e-01 2.725154e-01
<GCONST> 1.207881e+02
<STATE> 3
<MEAN> 39
 -2.168239e+00 -1.118068e+01 -3.807900e+00 -1.114355e+01 -1.566432e+00 -3.132757e+00 -2.670915e+00 3.447320e+00 -9.423402e-01 -3.332227e+00 -3.699547e+00 -5.489882e+00 6.370365e+01 8.057816e-02 1.725123e-01 1.338982e-01 2.626624e-01 4.510868e-02 -4.312611e-02 -3.644764e-02 -1.096336e-01 2.321403e-02 -7.953825e-03 1.328145e-02 1.301279e-01 -3.445585e-01 1.367827e-02 3.788722e-01 1.508424e-01 1.738588e-01 -1.210234e-01 -1.110191e-01 -1.124453e-01 -1.994832e-01 3.437399e-02 1.372935e-01 9.877302e-02 1.006470e-01 -3.088115e-01
<VARIANCE> 39
 1.737750e+01 4.065892e+01 4.775408e+01 5.178715e+01 6.212783e+01 4.308831e+01 4.498264e+01 4.746051e+01 4.546367e+01 4.363202e+01 2.878955e+01 2.923405e+01 3.477976e+01 3.103128e-01 7.936285e-01 8.500001e-01 1.036381e+00 1.498817e+00 1.497112e+00 1.415603e+00 1.484587e+00 1.259098e+00 1.281942e+00 1.124169e+00 1.026198e+00 4.493538e-01 7.450423e-02 1.688106e-01 1.427861e-01 2.151957e-01 2.367743e-01 2.202649e-01 2.676622e-01 3.347994e-01 2.578635e-01 2.492423e-01 2.229937e-01 1.945277e-01 1.113309e-01
<GCONST> 9.802904e+01
<STATE> 4
<MEAN> 39
 -7.201939e-01 -7.119426e+00 -2.848725e+00 -8.784641e+00 -3.602572e+00 -4.421834e+00 -4.463067e+00 3.158036e+00 1.097178e+00 -1.546671e+00 -2.857646e+00 -5.564312e+00 5.982598e+01 5.019251e-02 1.423423e+00 6.333005e-01 1.046059e+00 6.126194e-04 7.229720e-03 -3.139651e-01 -8.420934e-01 -7.274228e-02 2.383822e-01 1.523646e-01 3.777685e-01 -1.592353e+00 -1.417611e-01 1.520402e-01 3.240332e-02 1.431724e-01 7.489075e-02 1.495973e-01 8.106900e-02 -1.587510e-01 -1.117968e-01 -7.144123e-02 -2.832121e-03 1.565355e-02 -1.849725e-01
<VARIANCE> 39
 1.443134e+01 3.755672e+01 5.213949e+01 4.754348e+01 6.131343e+01 5.647980e+01 4.750257e+01 4.806636e+01 4.614394e+01 4.438872e+01 3.538742e+01 3.401388e+01 3.996533e+01 7.220683e-01 1.098642e+00 1.433409e+00 1.597696e+00 1.994189e+00 1.993842e+00 2.079662e+00 2.710216e+00 2.170067e+00 1.838465e+00 1.722580e+00 1.338831e+00 8.589669e-01 1.240600e-01 2.195394e-01 2.334315e-01 2.808875e-01 3.664903e-01 3.760847e-01 3.525715e-01 4.581679e-01 3.446412e-01 3.390647e-01 3.151782e-01 2.549739e-01 1.594819e-01
<GCONST> 1.092146e+02
<TRANSP> 5
 0.000000e+00 1.000000e+00 0.000000e+00 0.000000e+00 0.000000e+00
 0.000000e+00 4.953195e-01 5.046806e-01 0.000000e+00 0.000000e+00
 0.000000e+00 0.000000e+00 7.129219e-01 2.870781e-01 0.000000e+00
 0.000000e+00 0.000000e+00 0.000000e+00 5.018256e-01 4.981744e-01
 0.000000e+00 0.000000e+00 0.000000e+00 0.000000e+00 0.000000e+00
<ENDHMM>
~h "b"
<BEGINHMM>
<NUMSTATES> 5
<STATE> 2
<MEAN> 39
 2.079301e-01 5.181848e+00 3.298080e+00 -1.927395e+00 -2.421801e+00 -1.372403e+00 -4.593998e+00 -3.520171e+00 -3.001493e+00 -1.407498e+00 -1.680436e+00 -3.794995e+00 5.046122e+01 7.807176e-02 7.437599e-01 1.594210e-01 5.426672e-01 4.114519e-01 3.547824e-01 4.447105e-01 -1.149159e-01 -1.654597e-01 -2.850347e-01 -2.683226e-01 3.558388e-02 -5.996403e-01 -6.795660e-02 -3.876450e-01 -1.564973e-01 -3.881452e-01 -2.734239e-01 -2.870027e-01 -2.571328e-01 6.684914e-02 8.097553e-02 1.299774e-01 2.234301e-01 -3.145324e-02 4.943408e-01
<VARIANCE> 39
 1.788964e+01 3.243652e+01 3.237054e+01 3.559319e+01 3.220085e+01 2.613542e+01 2.767178e+01 2.332426e+01 2.744382e+01 2.392595e+01 2.106451e+01 1.696532e+01 2.961975e+01 6.662315e-01 9.958889e-01 1.173944e+00 1.589311e+00 1.343583e+00 1.410810e+00 1.651554e+00 1.589579e+00 1.555244e+00 1.538525e+00 1.450759e+00 9.714028e-01 9.026071e-01 1.346553e-01 2.150331e-01 2.647054e-01 3.458487e-01 2.832078e-01 3.341879e-01 3.637495e-01 4.062594e-01 3.790994e-01 3.676272e-01 3.451358e-01 2.260869e-01 1.355770e-01
<GCONST> 1.002587e+02
<STATE> 3
<MEAN> 39
 4.138712e-01 6.276207e+00 2.800759e+00 -1.348672e+00 -2.239413e+00 -8.133947e-01 -4.393313e+00 -4.231055e+00 -3.960114e+00 -1.938352e+00 -1.858627e+00 -3.459299e+00 4.914583e+01 2.197692e-01 -9.921202e-01 -7.721188e-01 -1.182818e+00 -3.809872e-01 -8.932464e-01 -9.675451e-01 -1.116094e-01 2.058834e-01 7.075990e-01 8.481042e-01 -2.747033e-01 1.707616e+00 -1.414241e-01 -7.074832e-01 -2.118362e-01 -6.954046e-01 -3.676699e-01 -3.614719e-01 -3.464032e-01 2.625532e-01 3.170886e-01 3.998386e-01 1.830620e-01 -1.579046e-01 7.268153e-01
<VARIANCE> 39
 3.356561e+01 3.768698e+01 3.500123e+01 3.981002e+01 3.544550e+01 3.226854e+01 3.242393e+01 2.989794e+01 3.095266e+01 3.130168e+01 2.766598e+01 2.113630e+01 4.827057e+01 2.326317e+00 3.042895e+00 3.195443e+00 4.278637e+00 2.760044e+00 3.499564e+00 3.129317e+00 3.269675e+00 3.630320e+00 3.247768e+00 3.310803e+00 2.292597e+00 1.966566e+00 2.967550e-01 4.587204e-01 4.689963e-01 5.319862e-01 4.743549e-01 4.954281e-01 5.302684e-01 6.578393e-01 6.590313e-01 5.419346e-01 5.559309e-01 4.202881e-01 2.588334e-01
<GCONST> 1.217199e+02
<STATE> 4
<MEAN> 39
 8.816816e-01 1.266290e-01 -4.973268e-01 -8.011330e+00 -3.855732e+00 -4.044768e+00 -8.698543e+00 -3.662234e+00 -1.645231e+00 2.542154e+00 1.921143e+00 -5.817052e+00 5.740636e+01 -3.806203e-01 -2.183173e+00 -7.827493e-01 -2.067919e+00 -1.012646e+00 -1.086340e+00 -8.518467e-01 1.295771e+00 1.154939e+00 1.045939e+00 2.994834e-01 -8.090272e-01 2.442156e+00 -1.666013e-01 1.219070e-01 3.966763e-01 2.557372e-01 -3.183205e-02 1.416098e-01 4.207486e-01 2.707264e-01 -6.583684e-02 -3.881677e-01 -4.682004e-01 1.389626e-01 -2.507083e-01
<VARIANCE> 39
 1.867880e+01 3.457925e+01 3.049260e+01 6.802355e+01 3.728996e+01 4.767329e+01 4.062240e+01 4.141473e+01 5.253658e+01 4.951280e+01 4.614668e+01 3.429404e+01 3.491604e+01 1.754423e+00 3.573545e+00 4.133589e+00 5.133335e+00 3.502940e+00 4.047897e+00 4.542135e+00 5.359200e+00 5.795095e+00 4.983012e+00 4.942126e+00 3.911466e+00 2.218219e+00 2.038249e-01 4.464513e-01 3.015972e-01 8.366053e-01 5.104896e-01 5.728966e-01 6.088222e-01 5.760776e-01 5.747688e-01 6.916578e-01 6.479006e-01 4.818044e-01 3.252528e-01
<GCONST> 1.280748e+02
<TRANSP> 5
 0.000000e+00 1.000000e+00 0.000000e+00 0.000000e+00 0.000000e+00
 0.000000e+00 6.586851e-01 3.413149e-01 0.000000e+00 0.000000e+00
 0.000000e+00 0.000000e+00 4.642976e-01 5.357023e-01 0.000000e+00
 0.000000e+00 0.000000e+00 0.000000e+00 3.692150e-01 6.307850e-01
 0.000000e+00 0.000000e+00 0.000000e+00 0.000000e+00 0.000000e+00
<ENDHMM>
~h "c"
<BEGINHMM>
<NUMSTATES> 5
<STATE> 2
<MEAN> 39
 -6.954263e+00 4.126878e+00 1.848143e+00 -2.275543e+00 -4.385632e+00 -6.119244e+00 -2.619412e+00 -1.305557e+00 -5.783789e-01 -1.671162e+00 -1.258105e+00 -1.744791e+00 4.929896e+01 -2.101075e+00 2.465861e-01 -8.048429e-01 -2.467606e-01 5.973343e-01 1.237328e-01 3.434000e-01 -2.800833e-01 1.989483e-01 -1.660854e-01 2.446090e-01 7.658128e-02 -2.021513e-01 -3.720562e-01 -6.898645e-02 -7.487632e-02 -3.383944e-01 -1.205616e-01 -1.914450e-01 2.679582e-02 2.885535e-02 4.188862e-02 -6.135293e-02 1.211494e-01 3.834622e-02 7.444376e-01
<VARIANCE> 39
 2.497714e+01 3.318479e+01 3.310533e+01 3.412248e+01 3.597920e+01 4.303039e+01 2.545826e+01 2.955379e+01 2.784870e+01 2.528374e+01 1.921249e+01 1.992110e+01 3.681471e+01 2.935993e+00 2.407587e+00 2.579918e+00 2.806055e+00 2.203551e+00 2.487970e+00 2.130828e+00 2.101886e+00 2.034003e+00 1.916839e+00 1.670118e+00 1.305917e+00 3.924135e+00 4.784853e-01 3.636774e-01 4.241965e-01 3.885585e-01 3.774712e-01 4.897282e-01 3.716460e-01 4.510755e-01 4.251128e-01 3.270292e-01 3.133428e-01 2.520285e-01 3.875245e-01
<GCONST> 1.136636e+02
<STATE> 3
<MEAN> 39
 -1.879486e+01 5.028286e+00 -1.833120e-01 -5.703837e+00 -2.499588e+00 -7.273608e+00 -4.945980e-01 -2.172605e+00 1.995917e-01 -2.449895e+00 7.754591e-01 -1.236691e+00 5.562456e+01 2.004915e-01 -5.365494e-01 1.525710e-01 -4.639687e-01 -1.038061e+00 -8.862540e-01 1.937041e-01 6.373233e-01 1.636920e-01 -3.074618e-01 1.391591e-01 1.703135e-01 1.772768e+00 1.852840e+00 -6.693855e-01 1.386870e-01 9.780227e-02 -4.885237e-01 -5.956686e-02 -3.175129e-01 3.828346e-01 -2.530802e-02 5.651573e-02 -3.355875e-01 -2.075533e-01 -7.704565e-02
<VARIANCE> 39
 2.124913e+01 1.853661e+01 3.674186e+01 2.973009e+01 3.320914e+01 3.581886e+01 3.517515e+01 2.568046e+01 3.166045e+01 3.280935e+01 1.918255e+01 2.105645e+01 2.450654e+01 1.090260e+01 2.811299e+00 2.897136e+00 2.915525e+00 3.394458e+00 2.607094e+00 2.689041e+00 3.048152e+00 2.559323e+00 2.232172e+00 2.151168e+00 1.769637e+00 2.125999e+00 5.022392e-01 6.434623e-01 7.029253e-01 6.468360e-01 6.586756e-01 5.444410e-01 4.954799e-01 6.036470e-01 5.174783e-01 5.458269e-01 4.022757e-01 3.886386e-01 3.631760e-01
<GCONST> 1.200738e+02
<STATE> 4
<MEAN> 39
 -6.237160e+00 -1.562571e-01 2.133291e-01 -6.122199e+00 -8.422018e+00 -1.111640e+01 -1.200861e+00 2.470291e+00 8.414683e-01 -3.417541e+00 -1.743632e+00 -1.946963e+00 6.043869e+01 3.856790e+00 -2.775726e+00 -8.287283e-01 -8.794034e-01 -8.403296e-01 7.562723e-02 -5.335356e-01 1.727520e+00 3.239159e-01 -1.385763e-02 -9.723015e-01 -9.656412e-01 1.736126e+00 -4.805338e-01 -1.252913e-01 -3.532937e-01 -1.444924e-01 7.700511e-01 6.434416e-01 -6.665081e-02 -2.099933e-01 -7.232528e-02 1.271457e-01 1.245130e-02 -2.205224e-01 -2.550426e-01
<VARIANCE> 39
 2.777435e+01 3.066333e+01 4.405402e+01 2.745156e+01 3.883307e+01 2.704054e+01 4.307796e+01 3.492488e+01 2.477609e+01 2.828764e+01 1.626634e+01 1.251471e+01 3.895714e+01 2.545618e+00 3.608244e+00 3.298421e+00 3.122902e+00 4.498409e+00 3.055652e+00 2.962181e+00 4.484049e+00 2.414999e+00 3.584505e+00 1.999431e+00 1.939660e+00 1.447723e+00 7.236187e-01 4.492885e-01 4.065177e-01 3.869485e-01 4.588956e-01 3.913057e-01 3.303372e-01 5.074528e-01 3.953612e-01 4.608921e-01 4.212805e-01 3.043247e-01 2.808320e-01
<GCONST> 1.174634e+02
<TRANSP> 5
 0.000000e+00 1.000000e+00 0.000000e+00 0.000000e+00 0.000000e+00
 0.000000e+00 7.524271e-01 2.475729e-01 0.000000e+00 0.000000e+00
 0.000000e+00 0.000000e+00 6.941215e-01 3.058785e-01 0.000000e+00
 0.000000e+00 0.000000e+00 0.000000e+00 5.451747e-01 4.548254e-01
 0.000000e+00 0.000000e+00 0.000000e+00 0.000000e+00 0.000000e+00
<ENDHMM>
~h "d"
<BEGINHMM>
<NUMSTATES> 5
<STATE> 2
<MEAN> 39
 -6.206429e+00 1.040478e+00 1.992453e+00 -4.140641e-01 -2.619612e+00 -2.708553e+00 -1.948441e+00 1.569877e-01 -5.566474e-01 -1.626566e+00 -1.049416e+00 -1.523555e+00 4.560430e+01 9.302590e-03 5.369828e-01 1.884152e-01 4.114654e-01 3.205691e-01 1.594148e-01 1.466617e-01 -4.699557e-02 -6.863312e-02 -1.113044e-01 -1.917889e-01 -4.182664e-02 -5.043151e-01 -5.312977e-02 -1.912217e-01 1.815728e-02 -2.160255e-01 -1.632702e-01 -1.573991e-01 -5.319151e-02 6.302495e-02 -1.989469e-02 2.679531e-03 1.089849e-01 3.131972e-02 3.222142e-01
<VARIANCE> 39
 5.494482e+01 4.443934e+01 4.159098e+01 3.870004e+01 5.389044e+01 4.510263e+01 4.499924e+01 3.689099e+01 3.068290e+01 2.912495e+01 2.632880e+01 2.314096e+01 8.237774e+01 7.976520e-01 1.430896e+00 1.162285e+00 1.492287e+00 1.683733e+00 1.788535e+00 1.686848e+00 1.908901e+00 1.606869e+00 1.559217e+00 1.443512e+00 1.111407e+00 1.013381e+00 1.650008e-01 2.958353e-01 2.226276e-01 3.157377e-01 3.428085e-01 3.679382e-01 3.361747e-01 4.098811e-01 3.263825e-01 3.293190e-01 3.100879e-01 2.265445e-01 2.108045e-01
<GCONST> 1.078797e+02
<STATE> 3
<MEAN> 39
 4.155264e-01 4.674510e+00 5.363762e+00 5.622384e-02 -4.459549e+00 -4.843294e+00 -4.883222e+00 -9.926146e-01 -1.030138e+00 -3.381896e+00 -3.929018e+00 -3.389781e+00 5.082325e+01 -2.177208e-01 -8.756211e-01 5.639765e-01 -7.396859e-01 -6.831508e-01 -1.142641e+00 -3.791045e-01 3.700095e-01 -2.957497e-02 -1.828964e-01 5.524841e-01 4.443980e-01 1.514494e+00 -2.696987e-01 -7.760122e-01 -1.106861e-01 -7.930019e-01 -6.436961e-01 -4.316182e-01 -2.059209e-01 2.640591e-01 1.343414e-01 2.186214e-01 4.354336e-01 9.857822e-02 8.724301e-01
<VARIANCE> 39
 2.108737e+01 5.141677e+01 3.233353e+01 3.667367e+01 4.499893e+01 3.054885e+01 3.177209e+01 3.145098e+01 2.763673e+01 2.782743e+01 2.535289e+01 1.924304e+01 4.038720e+01 2.677198e+00 4.456897e+00 2.557022e+00 3.324049e+00 4.217746e+00 3.571166e+00 3.223631e+00 4.583039e+00 2.791846e+00 2.748492e+00 2.714582e+00 2.010583e+00 2.614493e+00 3.230227e-01 5.720994e-01 4.480173e-01 5.080043e-01 6.481795e-01 5.441871e-01 5.803657e-01 8.016264e-01 5.323848e-01 4.881316e-01 4.712563e-01 3.792142e-01 2.733150e-01
<GCONST> 1.217883e+02
<STATE> 4
<MEAN> 39
 -1.633352e+00 -3.039127e+00 5.867862e+00 -5.964331e+00 -9.622545e+00 -1.131226e+01 -7.100309e+00 2.820203e+00 5.459502e-01 -2.844882e+00 1.965900e-01 -1.053365e+00 6.006640e+01 -5.340115e-01 -1.594481e+00 -4.996641e-01 -2.082798e+00 -1.631380e+00 -1.048490e+00 -8.682881e-02 1.417722e+00 5.459956e-01 5.835527e-01 8.249900e-01 -2.899339e-01 2.338984e+00 1.191955e-01 3.652729e-01 -2.749505e-01 5.639852e-02 3.481678e-01 6.572950e-01 2.585344e-01 -1.504305e-01 -8.461390e-02 7.933825e-02 -3.437063e-01 -4.437996e-01 -3.805678e-01
<VARIANCE> 39
 1.720840e+01 3.631335e+01 3.392132e+01 4.526788e+01 5.216333e+01 3.931516e+01 5.454324e+01 6.212899e+01 4.632862e+01 3.575616e+01 2.491664e+01 2.289198e+01 3.314407e+01 1.562384e+00 3.640350e+00 3.954818e+00 3.281617e+00 4.048357e+00 3.549959e+00 4.520994e+00 6.089228e+00 3.855754e+00 2.993808e+00 3.453727e+00 2.594202e+00 1.979512e+00 1.481296e-01 4.273386e-01 3.490267e-01 6.206750e-01 8.262753e-01 6.001070e-01 6.419508e-01 7.072517e-01 4.809116e-01 5.144058e-01 4.482609e-01 3.576316e-01 2.932950e-01
<GCONST> 1.238345e+02
<TRANSP> 5
 0.000000e+00 1.000000e+00 0.000000e+00 0.000000e+00 0.000000e+00
 0.000000e+00 7.118610e-01 2.881389e-01 0.000000e+00 0.000000e+00
 0.000000e+00 0.000000e+00 5.433946e-01 4.566054e-01 0.000000e+00
 0.000000e+00 0.000000e+00 0.000000e+00 4.759296e-01 5.240704e-01
 0.000000e+00 0.000000e+00 0.000000e+00 0.000000e+00 0.000000e+00
<ENDHMM>
~h "e"
<BEGINHMM>
<NUMSTATES> 5
<STATE> 2
<MEAN> 39
 -1.623864e+00 -1.989509e+00 -1.421722e+00 -8.501444e+00 -5.440953e+00 -6.651114e+00 -6.637922e+00 -4.565715e-01 6.448112e-01 4.529918e-01 -4.493486e-01 -3.988183e+00 5.911080e+01 1.388177e+00 -8.495148e-01 1.084220e-01 -1.274839e+00 -8.873968e-01 -2.501775e-01 -8.344207e-01 6.855257e-01 3.448739e-01 3.754513e-01 -3.505843e-03 -5.104603e-01 1.566992e+00 -3.233636e-01 2.701504e-01 2.031453e-01 4.359915e-01 2.055635e-01 2.889667e-01 2.463931e-01 -1.426497e-01 -1.686524e-01 -1.367204e-01 -4.165586e-02 9.835179e-02 -6.255427e-01
<VARIANCE> 39
 3.408971e+01 4.290076e+01 5.199645e+01 5.992033e+01 6.285538e+01 7.122343e+01 4.861469e+01 5.398654e+01 5.050967e+01 4.819934e+01 3.963727e+01 2.635226e+01 4.950738e+01 3.822504e+00 3.256893e+00 3.274354e+00 4.149624e+00 4.498932e+00 4.427610e+00 4.652357e+00 4.761045e+00 4.401090e+00 3.535019e+00 3.168745e+00 2.398508e+00 1.984264e+00 4.916970e-01 5.047894e-01 5.438136e-01 6.887447e-01 6.193315e-01 6.481243e-01 6.726732e-01 6.735610e-01 6.453822e-01 5.796669e-01 5.300491e-01 3.872208e-01 4.568889e-01
<GCONST> 1.311879e+02
<STATE> 3
<MEAN> 39
 -8.013581e-01 -3.631201e+00 -1.284228e+00 -9.887191e+00 -6.091025e+00 -6.912986e+00 -7.309007e+00 1.176252e+00 1.089748e+00 8.120213e-01 -3.851997e-01 -4.509445e+00 6.104197e+01 4.805536e-01 -5.033377e-02 4.499445e-01 3.499378e-02 -2.798777e-01 1.196947e-01 -1.172590e-01 1.278777e-01 -9.879725e-02 1.801631e-02 -5.760682e-02 -6.335118e-02 -1.274544e-02 -4.427187e-01 5.255290e-01 1.988116e-01 7.170969e-01 3.487929e-01 2.546350e-01 3.636594e-01 -4.119553e-01 -2.296337e-01 -2.277488e-01 -5.022399e-02 2.057153e-01 -8.428398e-01
<VARIANCE> 39
 2.641519e+01 4.333247e+01 5.632703e+01 6.217485e+01 6.722845e+01 7.054185e+01 5.378429e+01 5.834928e+01 5.926992e+01 5.564116e+01 4.439213e+01 2.994511e+01 3.593035e+01 1.302027e+00 1.694500e+00 1.711116e+00 2.743768e+00 2.587175e+00 2.818144e+00 2.480304e+00 2.752294e+00 2.445879e+00 2.223073e+00 2.017732e+00 1.557820e+00 1.068622e+00 4.773270e-01 4.571622e-01 5.312176e-01 6.152160e-01 6.888478e-01 6.640802e-01 7.305468e-01 7.676196e-01 7.120486e-01 6.353363e-01 5.770952e-01 3.914901e-01 2.700036e-01
<GCONST> 1.238309e+02
<STATE> 4
<MEAN> 39
 -1.434404e+00 -3.453537e+00 1.149437e+00 -9.071455e+00 -7.773661e+00 -7.226286e+00 -5.328291e+00 5.926989e-01 -1.014224e+00 -1.344696e-01 -3.108191e-01 -3.760168e+00 5.999007e+01 2.781031e-02 6.710980e-01 3.745305e-01 8.730819e-01 3.366355e-01 3.248723e-01 1.479120e-01 -3.711484e-01 -1.496745e-01 -1.888735e-01 -1.830992e-01 1.347400e-01 -1.034412e+00 -2.056240e-01 2.240931e-01 1.468961e-05 2.865453e-01 1.636966e-01 1.054695e-01 1.093083e-01 -1.671106e-01 -1.663759e-02 -6.592506e-02 -3.252943e-02 5.649715e-02 -3.471835e-01
<VARIANCE> 39
 2.219567e+01 4.126624e+01 5.873323e+01 6.098090e+01 8.655656e+01 6.240367e+01 5.112193e+01 5.027924e+01 5.009630e+01 4.769016e+01 4.954445e+01 2.528565e+01 3.519261e+01 8.425485e-01 1.492291e+00 1.526281e+00 2.053654e+00 1.914905e+00 1.999203e+00 2.139117e+00 2.401047e+00 2.067948e+00 1.794477e+00 1.698189e+00 1.202299e+00 1.245023e+00 2.340858e-01 2.421974e-01 2.876361e-01 3.801810e-01 4.176193e-01 4.196186e-01 4.361472e-01 4.587093e-01 4.067920e-01 3.646785e-01 3.531187e-01 2.487732e-01 1.449625e-01
<GCONST> 1.134884e+02
<TRANSP> 5
 0.000000e+00 1.000000e+00 0.000000e+00 0.000000e+00 0.000000e+00
 0.000000e+00 2.374192e-01 7.625808e-01 0.000000e+00 0.000000e+00
 0.000000e+00 0.000000e+00 1.446793e-01 8.553208e-01 0.000000e+00
 0.000000e+00 0.000000e+00 0.000000e+00 4.903210e-01 5.096791e-01
 0.000000e+00 0.000000e+00 0.000000e+00 0.000000e+00 0.000000e+00
<ENDHMM>
~h "f"
<BEGINHMM>
<NUMSTATES> 5
<STATE> 2
<MEAN> 39
 -7.187912e+00 1.386051e+00 2.861394e-01 -1.333131e+00 -3.219310e+00 -3.748238e+00 -4.434829e+00 -2.016571e+00 -5.597156e-01 -1.424689e+00 -2.517918e-01 -2.805375e+00 5.301285e+01 -2.327734e+00 -5.057845e-02 -1.188780e+00 1.336213e+00 4.665891e-01 -5.811323e-01 1.709403e-01 6.930838e-02 3.804682e-01 2.155468e-01 7.413961e-02 4.137457e-01 -5.610696e-01 4.597022e-02 -2.227753e-01 3.697696e-02 -2.627818e-01 -3.493473e-01 -1.464743e-01 -7.703101e-02 -5.500006e-02 -5.374495e-02 4.069714e-02 1.092971e-02 -9.636835e-02 1.627114e-01
<VARIANCE> 39
 2.638338e+01 2.438627e+01 5.639881e+01 3.992485e+01 5.762483e+01 6.454356e+01 4.074744e+01 2.905713e+01 3.041570e+01 2.386728e+01 2.459992e+01 2.023533e+01 2.506256e+01 1.221543e+00 1.965944e+00 2.958455e+00 2.165355e+00 4.452487e+00 2.704852e+00 2.884135e+00 2.536771e+00 2.028774e+00 2.286661e+00 1.380692e+00 1.468340e+00 7.314474e-01 3.557857e-01 2.446549e-01 3.462897e-01 3.559272e-01 4.710923e-01 4.037650e-01 3.092675e-01 3.740669e-01 3.596361e-01 3.567431e-01 1.971689e-01 2.870472e-01 1.040626e-01
<GCONST> 1.107816e+02
<STATE> 3
<MEAN> 39
 -1.217877e+01 -1.513903e+00 -3.539643e+00 1.146131e+00 -1.944212e+00 -1.864213e+00 -2.063979e+00 6.956237e-01 1.058631e-01 -1.078599e+00 5.812087e-01 -1.419161e+00 4.488258e+01 -3.777837e-01 -1.091679e-01 -8.915497e-02 1.323010e-01 -4.123067e-02 -3.192258e-02 1.230816e-01 1.539085e-02 1.828673e-02 1.083572e-01 6.760687e-02 1.326854e-01 -2.674722e-01 2.975772e-01 -1.315746e-02 1.138894e-01 -1.703358e-01 -4.301545e-02 9.638783e-02 1.422328e-02 -2.621635e-02 -9.707340e-02 -2.598614e-02 -1.915200e-02 -3.885784e-02 4.178837e-02
<VARIANCE> 39
 1.599324e+01 2.326673e+01 2.660628e+01 3.634723e+01 2.996479e+01 3.504956e+01 3.515073e+01 3.747889e+01 2.242168e+01 2.230067e+01 1.868780e+01 1.330958e+01 8.580061e+01 7.064404e-01 7.883224e-01 1.004316e+00 1.076896e+00 1.147229e+00 1.316833e+00 1.533291e+00 1.484647e+00 1.383928e+00 1.185457e+00 9.755576e-01 8.892098e-01 5.777032e-01 2.463491e-01 1.778481e-01 2.506344e-01 2.569446e-01 2.896535e-01 2.931383e-01 3.449644e-01 3.347428e-01 3.092638e-01 2.608469e-01 1.981310e-01 1.787316e-01 1.020985e-01
<GCONST> 9.669102e+01
<STATE> 4
<MEAN> 39
 -1.235770e+01 -9.091783e-01 -1.748675e+00 4.827109e-01 -3.846798e+00 -4.355374e+00 -3.067053e+00 -2.344166e+00 4.455103e-02 -2.315492e-01 -4.898168e-01 -2.113963e+00 5.141010e+01 1.960207e+00 1.243744e-01 6.397403e-01 -1.468451e+00 -9.292325e-01 2.830199e-01 -1.169030e-02 -6.615635e-01 -9.618860e-01 -5.762390e-02 6.341134e-02 -3.511240e-01 6.757365e-01 8.414690e-01 2.510664e-01 3.731234e-01 -8.567971e-01 -4.312708e-01 1.437766e-01 -1.842892e-01 -1.565444e-01 -3.309053e-01 3.487620e-02 1.329366e-01 -2.352785e-01 5.006424e-01
<VARIANCE> 39
 2.142560e+01 1.820461e+01 4.511891e+01 3.597241e+01 4.478560e+01 3.905389e+01 4.191644e+01 2.660866e+01 2.475128e+01 1.837115e+01 1.869264e+01 1.813664e+01 3.463369e+01 3.337660e+00 3.186888e+00 5.263009e+00 5.118001e+00 3.286546e+00 3.771020e+00 2.477454e+00 2.966281e+00 2.885729e+00 1.780740e+00 1.968233e+00 1.904224e+00 3.129155e+00 4.004511e-01 5.082297e-01 7.140890e-01 8.136209e-01 6.432458e-01 5.304503e-01 5.337577e-01 5.369067e-01 4.817065e-01 3.112167e-01 3.216774e-01 4.141685e-01 2.505242e-01
<GCONST> 1.195205e+02
<TRANSP> 5
 0.000000e+00 1.000000e+00 0.000000e+00 0.000000e+00 0.000000e+00
 0.000000e+00 6.253936e-01 3.746064e-01 0.000000e+00 0.000000e+00
 0.000000e+00 0.000000e+00 8.163750e-01 1.836250e-01 0.000000e+00
 0.000000e+00 0.000000e+00 0.000000e+00 6.032677e-01 3.967323e-01
 0.000000e+00 0.000000e+00 0.000000e+00 0.000000e+00 0.000000e+00
<ENDHMM>
~h "g"
<BEGINHMM>
<NUMSTATES> 5
<STATE> 2
<MEAN> 39
 -7.878488e-02 4.662726e+00 3.659974e+00 -2.516208e+00 -5.332701e+00 -4.668391e+00 -5.725275e+00 -2.521020e+00 -2.447180e+00 -8.367727e-01 -2.658072e+00 -3.288818e+00 5.116840e+01 -1.574397e-01 8.210594e-01 2.680202e-01 7.526940e-01 4.102097e-01 5.959773e-01 3.708280e-01 -1.559103e-01 -1.704438e-02 -3.099429e-01 -3.411965e-01 1.891411e-02 -1.046702e+00 -1.812552e-01 -3.722494e-01 -1.181458e-01 -3.478148e-01 -1.382208e-02 -2.255246e-01 -9.771730e-02 1.668036e-01 1.398809e-02 9.361828e-02 1.040241e-01 1.253866e-02 4.834211e-01
<VARIANCE> 39
 1.227168e+01 3.640552e+01 2.867554e+01 3.802160e+01 4.500932e+01 3.438922e+01 3.542614e+01 2.761573e+01 2.101011e+01 2.854166e+01 2.842259e+01 2.549224e+01 2.742114e+01 5.485725e-01 8.377372e-01 1.143160e+00 1.623484e+00 1.793999e+00 1.742226e+00 1.878369e+00 1.902131e+00 1.849031e+00 1.797855e+00 1.688071e+00 1.394197e+00 8.309261e-01 1.409176e-01 1.928346e-01 2.972679e-01 3.086948e-01 5.131610e-01 4.492474e-01 4.172792e-01 4.390933e-01 4.121274e-01 3.680197e-01 3.412331e-01 2.930652e-01 1.511902e-01
<GCONST> 1.041867e+02
<STATE> 3
<MEAN> 39
 -9.938947e-01 5.933560e+00 3.465950e+00 -1.263753e+00 -4.645864e+00 -3.873957e+00 -5.466504e+00 -2.571386e+00 -2.439402e+00 -1.091569e+00 -3.248476e+00 -3.298691e+00 4.924502e+01 -8.626722e-01 -8.603459e-01 -1.766130e-01 -4.884382e-01 7.195695e-01 -9.529730e-01 -1.120644e-01 2.506987e-01 -3.957211e-01 2.691295e-01 7.820079e-02 2.657876e-01 1.204736e+00 -8.560668e-02 -4.383461e-01 3.392105e-02 -6.238311e-01 -3.370630e-01 -4.618242e-01 -2.457331e-01 3.971855e-02 -5.028798e-02 1.675074e-01 2.218852e-01 8.691911e-02 7.644918e-01
<VARIANCE> 39
 2.175145e+01 3.920390e+01 3.696120e+01 4.383103e+01 4.744281e+01 3.775002e+01 3.723224e+01 3.032995e+01 2.459485e+01 3.051217e+01 2.570039e+01 2.093247e+01 3.851229e+01 1.976720e+00 3.276049e+00 3.548167e+00 3.568505e+00 5.618387e+00 4.207570e+00 3.783768e+00 3.782947e+00 2.852792e+00 2.813277e+00 2.624354e+00 1.896444e+00 1.558368e+00 2.836013e-01 4.196137e-01 4.385267e-01 4.895810e-01 8.043876e-01 5.189379e-01 5.047683e-01 6.630402e-01 4.599818e-01 4.879588e-01 4.944774e-01 3.276807e-01 2.171555e-01
<GCONST> 1.207805e+02
<STATE> 4
<MEAN> 39
 -3.063591e+00 6.676759e-01 2.906805e+00 -5.268753e+00 -4.718796e+00 -1.043168e+01 -7.348994e+00 -6.312416e-01 -3.433759e+00 1.089445e+00 -1.967927e+00 -2.358611e+00 5.711999e+01 -9.859922e-02 -1.000323e+00 2.114988e-01 -1.814136e+00 -1.690273e+00 -1.018440e+00 -2.331104e-01 8.746843e-01 2.031907e-01 3.483340e-01 6.177995e-01 -7.953515e-02 1.913506e+00 2.935206e-01 3.919376e-02 -1.567074e-03 -1.141085e-01 -3.297790e-01 5.045673e-01 1.817007e-01 3.283629e-02 2.173155e-01 -2.327051e-01 1.654238e-02 -2.513911e-01 -1.752215e-01
<VARIANCE> 39
 2.393516e+01 3.275070e+01 5.532273e+01 5.456725e+01 7.001150e+01 5.272531e+01 5.309443e+01 3.852021e+01 3.529308e+01 4.169706e+01 5.147963e+01 3.304268e+01 3.402686e+01 1.583275e+00 2.908886e+00 3.293575e+00 3.558136e+00 5.349934e+00 3.847945e+00 3.408483e+00 4.267490e+00 3.889965e+00 3.324565e+00 3.378717e+00 2.488191e+00 1.305457e+00 2.317834e-01 4.904913e-01 4.994316e-01 6.585523e-01 1.374821e+00 7.110953e-01 7.476608e-01 5.925603e-01 5.398428e-01 6.325036e-01 5.268202e-01 4.143086e-01 2.189548e-01
<GCONST> 1.268586e+02
<TRANSP> 5
 0.000000e+00 1.000000e+00 0.000000e+00 0.000000e+00 0.000000e+00
 0.000000e+00 6.362240e-01 3.637760e-01 0.000000e+00 0.000000e+00
 0.000000e+00 0.000000e+00 4.958287e-01 5.041712e-01 0.000000e+00
 0.000000e+00 0.000000e+00 0.000000e+00 5.540884e-01 4.459117e-01
 0.000000e+00 0.000000e+00 0.000000e+00 0.000000e+00 0.000000e+00
<ENDHMM>
~h "h"
<BEGINHMM>
<NUMSTATES> 5
<STATE> 2
<MEAN> 39
 -3.603970e+00 -3.748864e+00 -1.626818e+00 -7.265059e+00 -2.041040e+00 -1.967792e+00 -2.474849e+00 -1.419553e+00 -1.719562e+00 -3.053098e+00 -3.220042e+00 -3.778502e+00 5.814942e+01 -4.859005e-01 8.132204e-02 -3.873648e-03 9.373991e-01 8.943743e-01 3.946355e-01 6.052956e-01 8.219191e-02 1.003990e-01 -1.791830e-01 9.895621e-03 2.503214e-01 -6.716021e-01 -6.809815e-03 -8.911299e-02 -3.723084e-02 -1.253027e-01 -1.205638e-01 -6.855638e-02 -9.041952e-02 4.178382e-02 3.543780e-02 8.858974e-02 6.351511e-02 -4.211747e-02 2.425150e-02
<VARIANCE> 39
 1.826072e+01 4.699117e+01 5.662254e+01 4.902588e+01 7.156436e+01 5.263628e+01 5.106657e+01 5.787930e+01 6.060901e+01 5.228319e+01 3.449132e+01 2.563215e+01 3.621388e+01 1.074431e+00 1.911151e+00 2.165459e+00 1.889223e+00 2.456797e+00 2.221511e+00 2.452600e+00 2.715201e+00 2.175576e+00 2.047746e+00 1.839635e+00 1.373608e+00 1.052220e+00 1.126720e-01 1.855175e-01 2.027318e-01 2.687232e-01 3.370222e-01 3.559868e-01 3.838887e-01 3.714661e-01 3.517217e-01 3.359132e-01 2.707031e-01 2.280460e-01 9.285845e-02
<GCONST> 1.110712e+02
<STATE> 3
<MEAN> 39
 -5.394904e+00 -4.560159e+00 -1.402833e+00 -4.859064e+00 1.227813e+00 -9.770941e-01 -7.966269e-01 6.963522e-02 7.966439e-01 -1.838252e+00 -2.156166e+00 -2.826477e+00 5.672289e+01 -6.124076e-02 -2.046922e-02 -2.014878e-01 3.852917e-01 2.532050e-01 2.348281e-01 1.452880e-01 -1.005268e-01 -7.047396e-02 -8.122461e-02 -5.500316e-02 9.803878e-03 -3.277385e-01 2.450594e-01 2.318055e-02 -7.783089e-02 -2.976074e-01 -3.651557e-01 -1.099632e-01 -1.976316e-01 -7.069235e-02 -1.156000e-01 3.147428e-02 -6.551352e-03 -1.189210e-01 1.415865e-01
<VARIANCE> 39
 2.587000e+01 5.249213e+01 5.276171e+01 4.871111e+01 6.275442e+01 5.346139e+01 4.841492e+01 4.798977e+01 4.187589e+01 3.945571e+01 2.950922e+01 2.738610e+01 3.796333e+01 1.586579e+00 2.026153e+00 1.914556e+00 1.859719e+00 2.484257e+00 2.146228e+00 2.089694e+00 2.537632e+00 1.920544e+00 1.965082e+00 1.752371e+00 1.413323e+00 1.795168e+00 2.388035e-01 3.141139e-01 3.651654e-01 3.606174e-01 4.154316e-01 3.722922e-01 4.086871e-01 4.195108e-01 3.716721e-01 3.377853e-01 3.282132e-01 2.649831e-01 1.604215e-01
<GCONST> 1.143579e+02
<STATE> 4
<MEAN> 39
 -6.072103e+00 -5.241950e+00 -3.790077e+00 -3.179341e+00 -1.575296e-01 8.725445e-01 3.894387e-01 4.659062e-02 -8.563756e-01 -2.716249e+00 -2.055653e+00 -1.915486e+00 5.285385e+01 1.593960e-01 7.474380e-02 -1.463844e-01 -6.366203e-02 -2.539847e-01 -5.243827e-02 -9.573201e-02 3.491721e-02 -6.653572e-02 4.872196e-02 2.747045e-02 -2.871993e-03 -2.155306e-01 4.051211e-02 -2.985905e-02 6.447636e-03 -1.036972e-01 -9.234721e-02 -5.953384e-02 -6.186489e-02 2.545957e-02 -1.488807e-02 8.860758e-03 8.481359e-03 -2.784423e-02 9.348465e-02
<VARIANCE> 39
 2.970408e+01 4.098145e+01 4.090367e+01 4.652266e+01 4.845282e+01 3.746816e+01 3.983358e+01 3.679352e+01 3.356329e+01 3.298896e+01 2.349914e+01 2.350971e+01 7.955421e+01 9.407252e-01 1.146072e+00 1.122819e+00 1.457388e+00 1.586375e+00 1.353634e+00 1.522687e+00 1.624369e+00 1.361712e+00 1.393374e+00 1.212380e+00 1.095788e+00 1.073746e+00 9.548543e-02 1.704400e-01 1.737147e-01 2.183112e-01 2.351628e-01 2.438468e-01 2.620651e-01 2.884135e-01 2.432198e-01 2.570895e-01 2.270435e-01 1.923858e-01 9.164171e-02
<GCONST> 1.009362e+02
<TRANSP> 5
 0.000000e+00 1.000000e+00 0.000000e+00 0.000000e+00 0.000000e+00
 0.000000e+00 2.888626e-01 7.111375e-01 0.000000e+00 0.000000e+00
 0.000000e+00 0.000000e+00 3.657967e-01 6.342033e-01 0.000000e+00
 0.000000e+00 0.000000e+00 0.000000e+00 7.209110e-01 2.790891e-01
 0.000000e+00 0.000000e+00 0.000000e+00 0.000000e+00 0.000000e+00
<ENDHMM>
~h "i"
<BEGINHMM>
<NUMSTATES> 5
<STATE> 2
<MEAN> 39
 -5.485883e+00 3.545814e+00 1.105606e+01 -7.661945e+00 -1.188244e+01 -8.713859e+00 -5.352821e+00 -6.568048e+00 -4.247052e+00 -9.504347e-02 -5.010110e-01 -3.165189e+00 5.754078e+01 2.212007e-01 3.264748e-01 2.211614e+00 -1.643001e+00 -1.899965e+00 -2.053615e-01 -8.025441e-01 -7.495964e-01 -6.777549e-01 4.761765e-01 2.935712e-01 -2.771636e-01 1.205472e+00 -5.566469e-02 -5.063442e-02 -5.262208e-01 1.248645e-01 3.918121e-01 2.764655e-01 9.649433e-02 2.898002e-01 2.300989e-01 -3.678823e-02 -4.747023e-02 9.523298e-03 -2.854999e-01
<VARIANCE> 39
 2.931022e+01 4.733978e+01 4.616135e+01 7.316677e+01 5.614613e+01 4.534856e+01 4.475145e+01 5.590265e+01 3.381613e+01 4.306883e+01 4.716673e+01 3.159166e+01 3.736134e+01 3.871453e+00 2.561630e+00 3.609129e+00 4.445560e+00 4.395692e+00 3.503938e+00 4.810551e+00 4.023735e+00 3.150827e+00 3.246986e+00 3.785097e+00 2.622869e+00 1.458968e+00 4.267761e-01 3.877785e-01 5.626491e-01 7.147087e-01 7.067888e-01 5.398093e-01 6.836801e-01 6.512083e-01 4.614867e-01 5.016358e-01 4.987572e-01 3.482553e-01 2.920524e-01
<GCONST> 1.277540e+02
<STATE> 3
<MEAN> 39
 -4.609248e+00 1.580562e+00 1.404719e+01 -7.674303e+00 -1.509642e+01 -7.233267e+00 -5.234567e+00 -4.052383e+00 -6.446776e+00 -5.181639e-01 3.560589e+00 -6.047904e+00 5.949850e+01 1.303552e-01 1.342993e-01 -2.557575e-01 8.398838e-02 2.067402e-01 4.078476e-02 2.522426e-02 1.770140e-01 1.985812e-01 2.980390e-02 -1.113324e-01 1.293073e-01 -2.357448e-01 -5.435948e-04 5.564827e-02 -6.681737e-01 4.206360e-01 7.281623e-01 4.991387e-02 1.700479e-01 1.174569e-01 3.240457e-01 -1.052028e-01 -2.971392e-01 2.041352e-01 -4.484223e-01
<VARIANCE> 39
 1.541473e+01 4.066422e+01 3.521396e+01 6.620840e+01 4.696465e+01 4.743028e+01 3.583607e+01 6.417387e+01 4.501929e+01 4.375965e+01 4.996465e+01 3.876207e+01 2.304065e+01 8.165367e-01 1.496000e+00 2.033633e+00 2.189591e+00 2.487288e+00 2.079184e+00 2.048486e+00 2.725487e+00 1.911198e+00 1.670712e+00 1.760821e+00 1.463210e+00 9.830375e-01 2.527845e-01 2.691049e-01 3.402772e-01 4.636549e-01 4.900518e-01 4.600836e-01 4.788812e-01 5.636275e-01 4.144560e-01 4.226826e-01 4.350030e-01 3.351662e-01 1.651119e-01
<GCONST> 1.139577e+02
<STATE> 4
<MEAN> 39
 -6.520722e+00 5.833375e+00 1.176916e+01 -1.115709e+01 -9.520867e+00 -5.960580e+00 -6.279721e+00 -7.810506e+00 -2.971601e+00 6.473344e-01 -2.482158e+00 -1.744534e+00 5.489742e+01 7.512470e-02 -2.820329e-02 -6.611617e-01 6.216717e-01 5.464090e-01 1.529895e-01 2.412435e-01 2.584663e-01 1.895342e-01 -1.238233e-01 -1.062154e-01 1.212581e-01 -7.542827e-01 -2.584036e-02 -6.435984e-02 -1.107506e-01 1.125772e-01 4.016146e-02 2.372441e-02 5.124204e-02 4.658923e-02 -2.263462e-02 -3.152154e-02 2.670182e-02 -3.360878e-02 -4.026304e-02
<VARIANCE> 39
 2.198547e+01 4.290941e+01 5.026675e+01 1.031675e+02 5.579717e+01 5.378374e+01 5.035366e+01 5.073482e+01 3.099704e+01 4.630290e+01 4.221409e+01 2.997728e+01 6.035343e+01 8.021249e-01 1.218564e+00 1.440198e+00 2.023944e+00 2.086968e+00 1.779343e+00 1.900286e+00 2.088229e+00 1.575344e+00 1.597522e+00 1.576307e+00 1.195145e+00 1.015011e+00 1.086791e-01 1.501330e-01 2.035858e-01 3.173111e-01 3.111239e-01 3.125411e-01 3.254902e-01 3.255666e-01 2.591292e-01 2.795614e-01 2.521316e-01 1.969099e-01 9.953839e-02
<GCONST> 1.073884e+02
<TRANSP> 5
 0.000000e+00 1.000000e+00 0.000000e+00 0.000000e+00 0.000000e+00
 0.000000e+00 5.284083e-01 4.715916e-01 0.000000e+00 0.000000e+00
 0.000000e+00 0.000000e+00 6.051221e-01 3.948779e-01 0.000000e+00
 0.000000e+00 0.000000e+00 0.000000e+00 7.749082e-01 2.250917e-01
 0.000000e+00 0.000000e+00 0.000000e+00 0.000000e+00 0.000000e+00
<ENDHMM>
~h "j"
<BEGINHMM>
<NUMSTATES> 5
<STATE> 2
<MEAN> 39
 -2.390312e+00 6.289768e+00 5.235003e+00 -1.211011e+00 -4.313500e+00 -4.684407e+00 -3.397683e+00 -1.173066e+00 -2.348528e+00 -2.790270e+00 -1.866236e+00 -2.488884e+00 4.991976e+01 -1.243819e+00 8.155986e-01 1.879980e-01 1.573287e-02 8.756866e-01 1.998833e-01 4.387462e-01 -1.969477e-01 2.183913e-01 8.947604e-04 4.848383e-02 -9.599442e-02 2.448416e-02 -4.041561e-01 -2.088899e-01 1.486354e-01 -3.612261e-01 -3.022656e-01 -3.955437e-01 -7.701026e-02 -7.190426e-02 -6.423891e-02 3.550534e-02 2.563490e-01 9.047574e-02 5.691985e-01
<VARIANCE> 39
 2.073802e+01 4.328288e+01 2.752821e+01 3.519689e+01 4.004508e+01 2.967923e+01 2.659302e+01 2.312186e+01 2.450069e+01 2.073802e+01 2.061259e+01 1.462073e+01 3.537012e+01 3.437905e+00 2.055859e+00 1.763186e+00 2.517256e+00 3.169607e+00 2.705363e+00 1.937580e+00 2.088467e+00 1.790266e+00 1.885319e+00 1.909104e+00 1.364022e+00 2.195414e+00 4.345824e-01 2.944358e-01 3.126994e-01 3.922814e-01 5.191796e-01 4.522094e-01 3.826573e-01 4.251212e-01 3.854489e-01 4.120488e-01 3.116792e-01 2.243852e-01 2.261064e-01
<GCONST> 1.109060e+02
<STATE> 3
<MEAN> 39
 -1.141150e+01 7.960920e+00 7.588458e+00 -4.461024e+00 -2.889465e+00 -6.969028e+00 -2.712908e+00 -3.121395e+00 -2.664590e+00 -2.991661e+00 1.641594e-01 -2.589927e+00 5.552327e+01 -5.266104e-01 -5.507828e-01 1.209132e+00 -7.304634e-01 -2.099391e+00 -1.710909e+00 -5.452703e-01 -3.506747e-01 -5.667448e-01 3.403068e-02 9.040495e-01 4.177930e-01 1.710433e+00 1.225145e+00 -7.189835e-01 -1.400499e-01 -4.930613e-02 -7.492877e-01 -2.057908e-01 -4.306572e-01 3.122143e-01 -6.144784e-03 1.356888e-01 -7.862721e-02 1.707287e-02 -2.838048e-02
<VARIANCE> 39
 2.791537e+01 4.066019e+01 3.745181e+01 4.445889e+01 4.556653e+01 4.298503e+01 3.399966e+01 2.678959e+01 2.692962e+01 2.807752e+01 2.098741e+01 2.079719e+01 2.340420e+01 6.578607e+00 2.857782e+00 2.414492e+00 3.856427e+00 4.712279e+00 3.036718e+00 2.943537e+00 3.408560e+00 2.374674e+00 3.312448e+00 1.870691e+00 1.505383e+00 1.133944e+00 6.591399e-01 5.502110e-01 5.931272e-01 6.004428e-01 1.087087e+00 7.778699e-01 6.057717e-01 6.029474e-01 4.478366e-01 4.385755e-01 4.227556e-01 3.733924e-01 2.365266e-01
<GCONST> 1.216021e+02
<STATE> 4
<MEAN> 39
 -5.037205e+00 1.091108e+00 1.000159e+01 -7.642337e+00 -1.297440e+01 -1.302080e+01 -6.491648e+00 -1.166281e+00 -3.871294e+00 -9.791185e-01 1.655362e+00 -1.114218e+00 6.002245e+01 1.593178e+00 -2.051441e+00 -1.005273e+00 -8.409007e-01 -1.017361e+00 -5.158119e-01 -7.889847e-01 1.318156e+00 5.686657e-01 4.448547e-01 -2.043659e-01 -2.113761e-01 8.797498e-01 -7.399112e-02 1.653866e-01 -7.024460e-01 7.234529e-02 9.995370e-01 7.489789e-01 1.873771e-01 9.204260e-02 2.142167e-01 -3.692453e-02 -3.539834e-01 -2.681672e-01 -3.482445e-01
<VARIANCE> 39
 1.797891e+01 3.479160e+01 4.048566e+01 7.548914e+01 2.996913e+01 3.167341e+01 3.468619e+01 5.012369e+01 4.240098e+01 5.751926e+01 2.547456e+01 1.622332e+01 2.884866e+01 1.927356e+00 2.425982e+00 2.961849e+00 2.756657e+00 5.587319e+00 3.497437e+00 4.177335e+00 3.513273e+00 2.580945e+00 2.950341e+00 2.408699e+00 2.012913e+00 8.183615e-01 3.785899e-01 3.310944e-01 3.416607e-01 6.142241e-01 4.723131e-01 4.925909e-01 5.203851e-01 6.979401e-01 4.422447e-01 6.494765e-01 3.808850e-01 2.917403e-01 1.014349e-01
<GCONST> 1.185100e+02
<TRANSP> 5
 0.000000e+00 1.000000e+00 0.000000e+00 0.000000e+00 0.000000e+00
 0.000000e+00 7.140462e-01 2.859538e-01 0.000000e+00 0.000000e+00
 0.000000e+00 0.000000e+00 6.229274e-01 3.770727e-01 0.000000e+00
 0.000000e+00 0.000000e+00 0.000000e+00 6.246545e-01 3.753455e-01
 0.000000e+00 0.000000e+00 0.000000e+00 0.000000e+00 0.000000e+00
<ENDHMM>
~h "k"
<BEGINHMM>
<NUMSTATES> 5
<STATE> 2
<MEAN> 39
 -7.827003e+00 -1.216981e-01 -1.903861e+00 -1.808764e+00 -1.883006e+00 -5.617321e-01 -1.554129e+00 5.017167e-01 -6.818897e-01 -8.585142e-01 -9.933999e-02 -1.320636e+00 4.370962e+01 -3.940630e-01 8.275025e-02 -1.028911e-01 3.369108e-01 1.130942e-01 1.099202e-01 1.293040e-01 3.414183e-02 3.826305e-02 -1.117324e-02 1.711266e-02 1.639232e-01 -6.809156e-01 1.327979e-02 -9.586231e-02 -5.631768e-02 -9.684841e-02 1.492842e-02 -6.252798e-02 -2.581590e-02 1.141807e-02 -1.324373e-02 1.280501e-02 -1.253008e-02 -2.404976e-02 2.421137e-01
<VARIANCE> 39
 3.092701e+01 4.081227e+01 4.022407e+01 5.375022e+01 4.784370e+01 5.009138e+01 3.890398e+01 3.841686e+01 2.914801e+01 3.127561e+01 2.230924e+01 2.247436e+01 6.641545e+01 7.270806e-01 7.857029e-01 1.050784e+00 1.393967e+00 1.446686e+00 1.623411e+00 1.509244e+00 1.642789e+00 1.554234e+00 1.481079e+00 1.288630e+00 1.077803e+00 1.065606e+00 1.163929e-01 1.739803e-01 2.173313e-01 2.542175e-01 2.943319e-01 3.349597e-01 3.061267e-01 3.310293e-01 3.223772e-01 2.998185e-01 2.531649e-01 2.137040e-01 1.751044e-01
<GCONST> 1.032285e+02
<STATE> 3
<MEAN> 39
 -6.370036e+00 1.393899e+00 -1.085707e+00 -3.416956e+00 -2.832898e+00 -3.084939e+00 -3.891288e+00 -2.042084e+00 -1.460272e+00 -2.360086e-01 -1.093282e+00 -2.402867e+00 4.637326e+01 -7.688960e-01 -1.017403e+00 -1.161438e+00 -1.022801e-01 1.008355e+00 -6.849069e-01 1.995184e-02 2.478685e-01 2.026888e-01 1.874861e-01 -2.254515e-01 2.404445e-01 9.020829e-01 1.671577e-01 -3.674963e-01 -2.129019e-01 -3.948656e-01 6.530563e-02 -2.870774e-01 -5.099347e-02 9.790120e-02 8.796421e-02 1.365021e-01 -7.720915e-02 -1.191961e-01 1.013307e+00
<VARIANCE> 39
 2.445008e+01 3.642550e+01 5.236545e+01 5.099215e+01 5.226213e+01 4.853316e+01 3.090140e+01 3.424392e+01 2.839207e+01 2.802758e+01 2.400918e+01 2.237146e+01 4.934879e+01 2.145450e+00 3.262563e+00 4.092972e+00 3.469162e+00 4.311240e+00 4.353440e+00 3.332922e+00 3.200835e+00 2.907641e+00 2.600324e+00 2.386858e+00 1.747713e+00 3.777153e+00 3.659318e-01 4.547639e-01 5.796033e-01 5.288763e-01 7.316471e-01 6.484098e-01 5.491754e-01 5.446122e-01 5.354058e-01 4.743104e-01 4.184455e-01 3.452993e-01 3.757652e-01
<GCONST> 1.234927e+02
<STATE> 4
<MEAN> 39
 -7.769975e+00 -3.488720e+00 -6.112066e+00 -5.315218e+00 1.061645e+00 -6.171534e+00 -3.708761e+00 -4.822165e-01 4.813327e-01 1.026193e+00 -2.483243e+00 -2.468489e+00 5.406589e+01 1.005976e+00 -4.104685e-01 -7.054935e-02 -9.115546e-01 -6.199946e-01 -2.149795e-01 1.273002e-01 2.070740e-01 -9.453420e-02 2.316679e-02 -2.985432e-01 -6.767768e-01 2.113615e+00 5.483471e-01 1.740342e-01 4.989442e-01 -1.962810e-01 -6.464649e-01 3.374127e-01 -4.287363e-03 -4.007550e-02 -2.178874e-01 -1.942244e-01 9.978838e-02 -2.607434e-01 -2.164919e-02
<VARIANCE> 39
 3.285120e+01 3.709782e+01 5.754512e+01 4.457068e+01 5.439123e+01 5.904322e+01 4.974664e+01 3.681795e+01 4.481540e+01 3.926622e+01 3.309629e+01 2.530588e+01 4.287494e+01 4.061582e+00 4.128080e+00 4.856116e+00 4.672995e+00 6.146766e+00 4.918933e+00 4.016516e+00 4.394130e+00 4.060429e+00 3.672181e+00 3.053699e+00 2.838496e+00 3.841419e+00 5.409492e-01 7.025781e-01 6.981261e-01 7.722255e-01 9.625505e-01 8.599016e-01 7.838543e-01 6.275717e-01 6.721283e-01 6.497734e-01 5.848354e-01 4.689237e-01 5.617640e-01
<GCONST> 1.334275e+02
<TRANSP> 5
 0.000000e+00 1.000000e+00 0.000000e+00 0.000000e+00 0.000000e+00
 0.000000e+00 7.670534e-01 2.329467e-01 0.000000e+00 0.000000e+00
 0.000000e+00 0.000000e+00 5.190312e-01 4.809687e-01 0.000000e+00
 0.000000e+00 0.000000e+00 0.000000e+00 6.382073e-01 3.617928e-01
 0.000000e+00 0.000000e+00 0.000000e+00 0.000000e+00 0.000000e+00
<ENDHMM>
~h "l"
<BEGINHMM>
<NUMSTATES> 5
<STATE> 2
<MEAN> 39
 -1.024852e-01 -3.919988e+00 -8.614652e-01 -9.570245e+00 -5.785500e+00 -6.143195e+00 -9.455574e+00 -3.692887e+00 3.562427e+00 1.770734e+00 -2.037451e+00 -4.072509e+00 6.047440e+01 3.097313e-01 1.739045e-02 -8.207807e-02 -1.170542e-01 2.740519e-01 4.054611e-02 -7.119501e-01 -3.631099e-01 4.885594e-01 3.941099e-01 -7.913431e-02 -3.938297e-02 -1.706827e-01 -1.560120e-01 1.139806e-02 -3.492065e-02 -1.322038e-01 6.527755e-02 1.869276e-01 3.100978e-01 2.457155e-01 -2.806943e-01 -1.641632e-01 1.234117e-02 -9.084522e-02 4.351320e-02
<VARIANCE> 39
 1.551666e+01 4.813570e+01 6.774293e+01 6.487859e+01 4.310732e+01 6.740356e+01 4.901021e+01 6.099771e+01 5.852463e+01 5.369665e+01 3.310677e+01 3.405877e+01 3.459479e+01 4.663218e-01 1.248817e+00 2.031033e+00 2.234117e+00 2.289748e+00 2.457292e+00 2.530367e+00 3.048203e+00 2.539866e+00 2.235281e+00 2.009365e+00 1.655158e+00 6.380507e-01 8.678452e-02 2.105764e-01 2.659309e-01 4.384916e-01 3.651600e-01 4.457988e-01 4.901102e-01 5.707319e-01 4.217511e-01 4.498558e-01 3.974030e-01 2.907612e-01 9.673423e-02
<GCONST> 1.131175e+02
<STATE> 3
<MEAN> 39
 1.311631e+00 -2.452125e+00 -5.304605e+00 -1.052604e+01 -4.639865e+00 -2.524775e+00 -8.676095e+00 -2.693474e+00 2.795467e+00 1.185599e+00 -2.015113e+00 -5.474647e+00 5.864872e+01 -7.799637e-02 -1.233420e-01 -1.330961e-01 -1.355665e-01 1.861850e-01 1.741169e-01 1.923327e-01 3.583682e-01 -4.220330e-02 -1.613316e-01 -1.282453e-01 -1.056583e-01 3.053226e-02 -1.307151e-01 -1.069909e-01 -1.222921e-02 4.017338e-02 9.564073e-03 1.368367e-02 2.432020e-01 2.223651e-01 -1.196960e-01 -2.194801e-01 -5.177856e-02 1.670784e-02 8.321758e-02
<VARIANCE> 39
 1.027728e+01 3.995443e+01 8.694090e+01 5.408542e+01 4.176685e+01 5.630199e+01 4.636214e+01 6.860541e+01 4.680136e+01 6.210772e+01 3.673296e+01 2.646986e+01 2.463853e+01 2.314838e-01 9.553275e-01 1.024174e+00 1.604644e+00 1.182290e+00 1.644951e+00 1.462847e+00 1.870408e+00 1.413926e+00 1.424342e+00 1.287048e+00 1.169764e+00 5.063241e-01 5.411309e-02 1.411844e-01 1.730933e-01 2.580919e-01 2.624678e-01 2.724514e-01 3.462372e-01 3.759806e-01 3.233500e-01 3.203284e-01 2.819946e-01 2.124280e-01 5.934025e-02
<GCONST> 1.005589e+02
<STATE> 4
<MEAN> 39
 9.660032e-03 -4.244321e+00 -2.926399e+00 -9.891327e+00 -4.762655e+00 -4.032012e+00 -8.214424e+00 -1.687693e+00 3.206724e+00 3.376585e-01 -2.886806e+00 -4.988936e+00 5.993310e+01 -5.544757e-01 -4.601835e-01 6.124755e-03 1.177585e-01 9.494195e-02 6.086067e-02 1.049442e+00 1.034300e+00 -6.019941e-01 -8.803254e-01 -1.629220e-01 -4.501533e-02 3.225134e-01 -1.093342e-01 6.382516e-02 1.117512e-01 1.010207e-02 -5.816145e-02 2.506368e-02 1.667790e-01 -2.522630e-02 -2.502163e-01 -3.134961e-02 1.486179e-01 4.031578e-02 -1.381006e-02
<VARIANCE> 39
 1.597171e+01 4.373718e+01 7.455034e+01 5.933105e+01 4.603185e+01 6.288227e+01 5.154171e+01 6.079661e+01 5.232412e+01 6.123005e+01 3.404078e+01 3.634211e+01 4.142276e+01 5.012098e-01 1.744222e+00 2.342052e+00 2.680251e+00 2.768130e+00 3.119071e+00 2.891528e+00 3.702878e+00 2.853241e+00 2.705040e+00 2.741413e+00 1.965165e+00 1.044084e+00 8.741835e-02 1.749315e-01 2.221957e-01 3.649629e-01 3.791154e-01 3.931790e-01 4.612497e-01 4.504765e-01 3.936584e-01 4.333083e-01 3.305943e-01 3.129094e-01 1.078422e-01
<GCONST> 1.151261e+02
<TRANSP> 5
 0.000000e+00 1.000000e+00 0.000000e+00 0.000000e+00 0.000000e+00
 0.000000e+00 3.640066e-01 6.359934e-01 0.000000e+00 0.000000e+00
 0.000000e+00 0.000000e+00 6.061491e-01 3.938509e-01 0.000000e+00
 0.000000e+00 0.000000e+00 0.000000e+00 2.660057e-01 7.339943e-01
 0.000000e+00 0.000000e+00 0.000000e+00 0.000000e+00 0.000000e+00
<ENDHMM>
~h "m"
<BEGINHMM>
<NUMSTATES> 5
<STATE> 2
<MEAN> 39
 2.371514e+00 -5.379923e-04 -1.053995e+00 -5.291182e+00 -3.754719e+00 1.538987e-01 -6.874504e+00 -5.595436e+00 -2.602992e+00 -3.319149e-02 5.214403e-01 -5.761319e+00 5.512071e+01 1.203526e-01 9.260499e-01 1.172841e+00 1.405895e+00 2.167434e-01 3.783387e-01 8.051625e-03 -1.513934e+00 -1.345479e+00 -1.219136e-01 -1.050015e-01 1.256279e-01 -9.782043e-01 -1.419811e-01 -2.134647e-01 -4.959809e-02 -1.908984e-01 -4.128864e-02 -8.458882e-02 9.682383e-02 2.235772e-01 1.088568e-01 -1.053256e-01 -1.232016e-01 -3.028283e-02 2.416787e-01
<VARIANCE> 39
 1.577254e+01 3.431211e+01 4.658659e+01 4.455426e+01 3.910986e+01 3.650089e+01 3.926731e+01 5.235550e+01 3.255577e+01 3.374952e+01 3.218834e+01 2.485061e+01 3.356275e+01 5.043055e-01 1.208470e+00 1.884565e+00 1.860195e+00 1.769768e+00 1.753202e+00 1.947516e+00 2.621815e+00 2.101624e+00 1.807452e+00 2.138917e+00 1.302955e+00 6.434684e-01 7.464542e-02 1.373306e-01 2.651930e-01 2.844477e-01 2.687602e-01 2.549317e-01 2.667396e-01 3.848531e-01 3.360363e-01 2.506050e-01 2.886073e-01 1.878460e-01 7.229939e-02
<GCONST> 1.030034e+02
<STATE> 3
<MEAN> 39
 1.213545e+00 1.427899e-01 2.084171e+00 -3.624384e+00 -2.388650e+00 1.529425e-01 -6.249415e+00 -5.270131e+00 -5.513855e+00 -1.813338e+00 -1.102430e-01 -4.700158e+00 5.405685e+01 7.109059e-02 1.604946e-01 1.354502e-01 8.388560e-02 -1.128540e-01 6.704303e-02 8.580604e-02 -1.121930e-01 -2.476758e-01 -1.090461e-01 -3.663991e-03 5.594005e-02 -1.573702e-01 -1.289405e-02 -1.523555e-01 -2.918260e-01 -3.952107e-01 -1.260686e-01 -9.474529e-02 2.812086e-02 3.192744e-01 3.055151e-01 8.509564e-02 8.367016e-02 1.516387e-02 2.122613e-01
<VARIANCE> 39
 1.531070e+01 4.109135e+01 3.332211e+01 4.539771e+01 4.443578e+01 3.030327e+01 4.469231e+01 7.304749e+01 3.337520e+01 3.967065e+01 3.034091e+01 2.103103e+01 3.043336e+01 2.465739e-01 5.222040e-01 8.426942e-01 1.016969e+00 1.127725e+00 1.090762e+00 1.053354e+00 1.351222e+00 1.313636e+00 1.104765e+00 1.185399e+00 8.518921e-01 3.051818e-01 6.606664e-02 1.322170e-01 2.063340e-01 2.510318e-01 2.425843e-01 2.440217e-01 2.788296e-01 3.602940e-01 3.256868e-01 2.564209e-01 2.864574e-01 1.923905e-01 6.510580e-02
<GCONST> 9.441461e+01
<STATE> 4
<MEAN> 39
 2.257784e+00 7.028828e-01 -2.324530e-01 -5.039880e+00 -4.472705e+00 2.852326e-01 -6.501463e+00 -6.480875e+00 -4.602696e+00 -7.456579e-01 7.709410e-01 -4.893443e+00 5.438711e+01 2.787825e-02 -7.226295e-01 -9.945495e-01 -1.259294e+00 -4.704807e-02 -6.253369e-02 -3.406998e-02 1.054114e+00 8.735265e-01 7.823372e-02 2.030637e-01 -7.968496e-02 8.532948e-01 -1.825739e-01 -2.697944e-01 -7.824802e-02 -2.355773e-01 1.139104e-01 -7.613852e-02 -9.539243e-03 3.538275e-01 2.821003e-01 -1.407254e-02 -1.146659e-01 -6.112335e-02 2.388723e-01
<VARIANCE> 39
 1.825333e+01 3.882947e+01 4.611936e+01 4.951762e+01 4.500694e+01 4.079352e+01 4.485272e+01 6.372282e+01 3.974905e+01 3.735817e+01 3.584318e+01 2.584276e+01 3.985128e+01 9.833761e-01 1.874868e+00 2.991636e+00 2.883294e+00 3.009461e+00 3.051477e+00 2.917229e+00 3.705411e+00 3.266040e+00 2.266440e+00 2.476653e+00 1.863925e+00 1.120940e+00 1.485127e-01 2.549165e-01 4.241959e-01 4.542671e-01 4.175440e-01 4.003457e-01 4.293518e-01 5.774610e-01 5.507609e-01 3.871767e-01 4.203906e-01 2.922277e-01 1.335442e-01
<GCONST> 1.165176e+02
<TRANSP> 5
 0.000000e+00 1.000000e+00 0.000000e+00 0.000000e+00 0.000000e+00
 0.000000e+00 4.415730e-01 5.584270e-01 0.000000e+00 0.000000e+00
 0.000000e+00 0.000000e+00 6.765985e-01 3.234014e-01 0.000000e+00
 0.000000e+00 0.000000e+00 0.000000e+00 5.094238e-01 4.905761e-01
 0.000000e+00 0.000000e+00 0.000000e+00 0.000000e+00 0.000000e+00
<ENDHMM>
~h "n"
<BEGINHMM>
<NUMSTATES> 5
<STATE> 2
<MEAN> 39
 1.108007e+00 -1.769841e+00 2.355160e+00 -3.939594e+00 -6.219019e+00 -5.839389e+00 -7.153179e+00 -7.781392e-01 -1.722677e-01 -9.941089e-01 -2.994572e+00 -4.212865e+00 5.655058e+01 4.554449e-01 1.558239e+00 7.532392e-01 1.304855e+00 -1.763157e-01 3.992776e-01 -3.834482e-01 -1.675916e+00 -1.261813e-01 8.233276e-02 -3.695098e-01 1.313272e-01 -1.488415e+00 -1.452221e-01 -1.236233e-01 -1.910403e-01 -3.131419e-01 4.789462e-02 1.685608e-01 1.915852e-01 1.013858e-01 -1.516024e-02 -5.698425e-02 8.578739e-02 -4.624045e-02 1.930476e-01
<VARIANCE> 39
 1.129473e+01 4.596469e+01 3.565989e+01 3.537530e+01 5.153637e+01 3.463889e+01 3.524555e+01 5.394606e+01 3.816419e+01 3.889643e+01 2.547416e+01 2.499697e+01 2.988346e+01 4.443390e-01 1.214159e+00 1.780485e+00 1.293380e+00 2.145485e+00 2.034503e+00 2.369727e+00 3.399032e+00 1.982397e+00 2.105819e+00 1.885271e+00 1.231347e+00 4.166267e-01 5.678094e-02 1.580045e-01 1.784356e-01 1.911771e-01 2.631143e-01 2.570710e-01 2.821345e-01 4.167765e-01 2.882494e-01 2.740826e-01 2.368003e-01 1.866248e-01 7.229548e-02
<GCONST> 1.012258e+02
<STATE> 3
<MEAN> 39
 2.658151e-01 -8.284810e-01 3.723784e+00 -3.313824e+00 -4.558640e+00 -4.134902e+00 -6.486758e+00 -1.686780e+00 -1.005862e+00 -2.562362e+00 -2.568012e+00 -3.053638e+00 5.365621e+01 1.022289e-02 5.994388e-01 7.963923e-02 3.415585e-01 6.180883e-02 2.405771e-01 8.248047e-02 -3.592393e-01 -1.099921e-01 -6.771497e-03 -2.334734e-02 1.073991e-01 -6.404845e-01 -1.365189e-01 -1.607109e-01 -9.243465e-02 -1.476322e-01 6.413285e-02 -3.592192e-02 8.732426e-02 2.112268e-01 -1.163566e-02 1.495258e-02 6.555625e-02 -1.369542e-02 1.340671e-01
<VARIANCE> 39
 1.448504e+01 4.909687e+01 3.246625e+01 3.582462e+01 5.491350e+01 3.112012e+01 3.176759e+01 4.415648e+01 3.188733e+01 3.591784e+01 2.572959e+01 2.196635e+01 3.025871e+01 2.709934e-01 5.533928e-01 6.783510e-01 7.500040e-01 9.955263e-01 1.048518e+00 1.077126e+00 1.289514e+00 1.109535e+00 1.066637e+00 1.068270e+00 8.038850e-01 2.476100e-01 6.271078e-02 1.257425e-01 1.575169e-01 1.799459e-01 2.272547e-01 2.186962e-01 2.377598e-01 3.180197e-01 2.362446e-01 2.266623e-01 2.355875e-01 1.603373e-01 6.182798e-02
<GCONST> 9.022513e+01
<STATE> 4
<MEAN> 39
 6.988463e-01 1.987885e+00 2.581161e+00 -1.653391e+00 -6.642704e+00 -4.069729e+00 -6.611476e+00 -4.136912e+00 -8.003001e-01 -7.076862e-01 -3.162411e+00 -3.555401e+00 5.203020e+01 -5.089634e-01 -1.027207e-01 -1.739924e-01 -1.761365e-01 4.977249e-01 2.784832e-02 3.021476e-01 4.614528e-01 -1.122221e-01 -1.026686e-01 1.913074e-01 9.895529e-02 -9.356212e-02 -2.809505e-01 -2.568723e-01 -8.370566e-02 -3.294585e-01 1.093594e-01 -4.590788e-02 1.194275e-01 2.871329e-01 -2.602750e-02 -6.736086e-02 1.471983e-01 3.244985e-03 3.114745e-01
<VARIANCE> 39
 1.771076e+01 4.329552e+01 3.749183e+01 3.979013e+01 5.487201e+01 3.441702e+01 3.935785e+01 5.572511e+01 3.965118e+01 4.591749e+01 3.209462e+01 2.507434e+01 4.109437e+01 8.424924e-01 1.871088e+00 1.660807e+00 1.961550e+00 2.384070e+00 2.095272e+00 2.101830e+00 3.056174e+00 2.099112e+00 1.929535e+00 1.922838e+00 1.306199e+00 1.402601e+00 2.137019e-01 3.415475e-01 3.733996e-01 3.898613e-01 5.263531e-01 4.045887e-01 4.322621e-01 5.977435e-01 4.115933e-01 3.996660e-01 3.892109e-01 2.555142e-01 1.966818e-01
<GCONST> 1.133563e+02
<TRANSP> 5
 0.000000e+00 1.000000e+00 0.000000e+00 0.000000e+00 0.000000e+00
 0.000000e+00 3.807239e-01 6.192761e-01 0.000000e+00 0.000000e+00
 0.000000e+00 0.000000e+00 7.328010e-01 2.671990e-01 0.000000e+00
 0.000000e+00 0.000000e+00 0.000000e+00 5.005515e-01 4.994485e-01
 0.000000e+00 0.000000e+00 0.000000e+00 0.000000e+00 0.000000e+00
<ENDHMM>
~h "o"
<BEGINHMM>
<NUMSTATES> 5
<STATE> 2
<MEAN> 39
 4.471748e-01 -1.566543e+00 -7.761308e+00 -1.460650e+01 -4.995093e+00 2.877520e+00 -4.488202e+00 -2.621927e+00 -1.395912e+00 5.467653e-01 1.805452e+00 -3.787176e+00 5.624476e+01 1.149862e+00 -6.353237e-01 -6.485023e-01 -2.027951e+00 -3.172244e-01 9.416579e-01 -2.613477e-01 -2.512572e-01 -1.888345e-01 2.252534e-01 4.730748e-01 -5.383611e-01 1.594657e+00 -3.138206e-01 1.448936e-02 2.548424e-01 5.392863e-01 1.657327e-01 -1.780390e-01 -9.290918e-03 9.769490e-03 4.957579e-02 -9.640056e-02 -1.142405e-01 4.849568e-03 -3.075483e-01
<VARIANCE> 39
 3.362291e+01 3.886816e+01 4.600254e+01 1.080890e+02 5.441070e+01 6.130609e+01 7.259434e+01 4.246397e+01 5.883717e+01 5.056015e+01 3.926646e+01 2.809279e+01 7.269082e+01 2.510087e+00 2.675695e+00 3.059416e+00 6.790932e+00 3.542099e+00 3.833547e+00 3.823940e+00 3.239695e+00 3.670697e+00 3.175248e+00 2.787027e+00 2.125601e+00 3.381753e+00 4.558616e-01 5.120596e-01 5.048804e-01 1.241048e+00 5.639801e-01 6.826586e-01 7.167336e-01 5.753227e-01 6.651406e-01 5.308362e-01 4.845531e-01 3.986193e-01 6.780450e-01
<GCONST> 1.314804e+02
<STATE> 3
<MEAN> 39
 1.427818e+00 -3.663802e+00 -6.976697e+00 -1.768027e+01 -3.329052e+00 2.304047e+00 -5.157348e+00 -1.790660e+00 -2.739635e+00 8.434588e-01 2.366562e+00 -4.946038e+00 6.042377e+01 5.379948e-03 -4.850636e-02 1.611533e-01 3.430513e-01 9.482103e-02 -1.733007e-01 -2.545919e-01 1.324234e-02 1.506819e-01 -5.715201e-02 -2.736580e-02 -8.170257e-02 -1.265476e-01 -1.273181e-01 1.877301e-01 2.139786e-01 5.766241e-01 6.220228e-02 -2.798259e-01 -5.255692e-02 -4.408354e-02 1.303873e-01 -1.106086e-01 -1.853237e-01 1.479916e-01 -3.193753e-01
<VARIANCE> 39
 1.451407e+01 3.389271e+01 4.611312e+01 6.288487e+01 5.670036e+01 3.846262e+01 5.163748e+01 4.342478e+01 5.107839e+01 5.020998e+01 5.017260e+01 2.465461e+01 2.416652e+01 3.140974e-01 9.461635e-01 8.736361e-01 2.475566e+00 1.304724e+00 1.834771e+00 1.829926e+00 1.567155e+00 2.006997e+00 1.522699e+00 1.442012e+00 1.229603e+00 5.683771e-01 1.177311e-01 1.819846e-01 1.966469e-01 3.597192e-01 3.057930e-01 2.937980e-01 2.973686e-01 3.207856e-01 3.571534e-01 3.109112e-01 3.193226e-01 2.520619e-01 1.412282e-01
<GCONST> 1.040887e+02
<STATE> 4
<MEAN> 39
 2.259763e+00 -2.516223e+00 -6.354697e+00 -1.164551e+01 -4.329940e+00 -1.756184e-01 -7.963692e+00 -3.265977e+00 -4.102249e-01 4.858851e-01 1.484847e+00 -4.148471e+00 5.704736e+01 -2.841690e-01 9.046724e-01 9.449294e-01 1.877831e+00 5.100491e-01 -5.158000e-01 -3.612198e-02 -1.205231e-01 2.035834e-01 -3.332938e-01 -7.499369e-01 3.398415e-01 -1.437522e+00 -1.823728e-01 1.668825e-01 7.591905e-02 2.345439e-02 4.351722e-02 1.595319e-01 2.711264e-01 -8.691205e-03 -1.425288e-01 -3.570559e-02 -3.604673e-02 -2.421773e-03 -1.575966e-01
<VARIANCE> 39
 1.372358e+01 3.717685e+01 3.832445e+01 5.885238e+01 5.433499e+01 5.838517e+01 5.079457e+01 4.392607e+01 5.639416e+01 4.665500e+01 4.642925e+01 3.200567e+01 3.897145e+01 7.593924e-01 1.207030e+00 1.350122e+00 1.912408e+00 2.573149e+00 2.599781e+00 2.446329e+00 2.577527e+00 2.883686e+00 2.175472e+00 2.438324e+00 1.626972e+00 8.612944e-01 1.274292e-01 2.485434e-01 2.218891e-01 4.153398e-01 4.047875e-01 4.794195e-01 3.771308e-01 4.225844e-01 4.930891e-01 4.188202e-01 3.907628e-01 3.005580e-01 1.503997e-01
<GCONST> 1.129897e+02
<TRANSP> 5
 0.000000e+00 1.000000e+00 0.000000e+00 0.000000e+00 0.000000e+00
 0.000000e+00 5.913093e-01 4.086907e-01 0.000000e+00 0.000000e+00
 0.000000e+00 0.000000e+00 7.312513e-01 2.687487e-01 0.000000e+00
 0.000000e+00 0.000000e+00 0.000000e+00 5.711452e-01 4.288547e-01
 0.000000e+00 0.000000e+00 0.000000e+00 0.000000e+00 0.000000e+00
<ENDHMM>
~h "p"
<BEGINHMM>
<NUMSTATES> 5
<STATE> 2
<MEAN> 39
 -5.031565e+00 -2.866554e-01 -2.229561e+00 -4.425582e+00 -1.861620e+00 -8.649640e-01 -3.133135e+00 -9.987668e-01 -7.271812e-02 4.607116e-02 -5.739894e-01 -3.070562e+00 4.701784e+01 -6.533321e-01 1.367365e-01 -6.173538e-02 3.790811e-01 6.438068e-02 -4.503243e-02 2.223657e-01 -2.415547e-02 7.006713e-02 -5.212767e-02 -5.085222e-02 2.600974e-01 -8.668821e-01 6.570493e-02 -1.248051e-01 -4.227112e-02 -1.450201e-01 -6.072082e-02 -4.960950e-02 -3.168154e-02 2.217979e-02 -2.270479e-02 4.740854e-03 7.243422e-02 -4.391973e-02 3.833770e-01
<VARIANCE> 39
 2.157990e+01 3.012647e+01 3.548889e+01 4.158836e+01 3.467059e+01 3.348653e+01 2.436448e+01 2.797476e+01 2.499091e+01 2.330902e+01 1.960333e+01 2.046567e+01 4.031074e+01 5.890014e-01 5.702493e-01 8.416947e-01 1.046884e+00 1.071283e+00 1.296766e+00 1.348688e+00 1.529884e+00 1.319507e+00 1.288722e+00 1.252252e+00 9.633302e-01 8.847013e-01 1.093844e-01 1.422253e-01 1.911224e-01 2.502472e-01 2.353085e-01 2.659011e-01 2.941910e-01 3.179212e-01 2.929954e-01 2.812487e-01 2.646587e-01 1.996542e-01 1.686964e-01
<GCONST> 9.596221e+01
<STATE> 3
<MEAN> 39
 -6.107842e+00 8.770911e-01 -1.213088e+00 -3.467360e+00 -2.679246e+00 -2.092752e+00 -3.061802e+00 -1.578034e+00 -3.858630e-01 -4.886299e-01 -5.730641e-01 -2.287463e+00 4.694040e+01 2.356252e-01 -5.721228e-01 -7.322687e-01 -8.007320e-01 -7.704942e-02 -2.150073e-01 7.669431e-02 -6.814423e-02 -1.429453e-02 1.897498e-01 3.164062e-01 -2.259954e-01 1.780918e+00 6.563451e-01 -3.850173e-01 -1.907915e-01 -7.159086e-01 -1.683440e-01 8.326506e-02 -2.891150e-01 2.212619e-02 -3.768177e-02 2.602348e-01 4.203663e-02 -3.650990e-01 1.046131e+00
<VARIANCE> 39
 2.344977e+01 3.477202e+01 3.745740e+01 4.086376e+01 3.599053e+01 3.689676e+01 2.562537e+01 2.841016e+01 2.436441e+01 2.395329e+01 2.029146e+01 1.937286e+01 4.155629e+01 3.006832e+00 2.471081e+00 3.183100e+00 3.670415e+00 2.828643e+00 3.555860e+00 2.791790e+00 3.111613e+00 2.652535e+00 2.526098e+00 2.345999e+00 1.786094e+00 3.037127e+00 3.215206e-01 4.602486e-01 5.645670e-01 5.487199e-01 5.548928e-01 6.207941e-01 4.975950e-01 5.376512e-01 4.821764e-01 4.606270e-01 4.171185e-01 3.252457e-01 3.502656e-01
<GCONST> 1.189281e+02
<STATE> 4
<MEAN> 39
 -2.430127e+00 -2.766636e+00 -4.772994e+00 -9.209861e+00 -2.911321e+00 -1.313237e+00 -3.873645e+00 -2.396434e+00 -6.125138e-01 1.365103e+00 5.239510e-01 -5.208856e+00 5.600990e+01 1.613559e+00 -1.742964e+00 -9.405974e-01 -2.293794e+00 -3.405052e-01 4.319941e-01 -7.013695e-01 3.814327e-01 4.184002e-02 7.639274e-01 9.022547e-02 -1.313915e+00 3.471048e+00 -1.556667e-02 -6.721039e-02 4.028204e-01 1.881294e-01 -4.630999e-02 -9.630097e-02 -1.047838e-01 2.528054e-01 5.490608e-02 -1.438140e-01 -2.602043e-01 5.862976e-02 -2.474942e-01
<VARIANCE> 39
 2.871784e+01 3.604816e+01 3.221391e+01 5.609283e+01 2.503866e+01 5.096872e+01 3.466573e+01 3.030944e+01 3.099006e+01 3.054563e+01 2.504685e+01 2.597706e+01 4.681394e+01 3.124330e+00 4.506180e+00 5.498513e+00 5.747609e+00 4.332218e+00 5.258773e+00 4.105315e+00 5.511977e+00 4.631243e+00 3.802784e+00 3.659204e+00 3.132122e+00 3.287708e+00 5.136182e-01 5.531157e-01 5.067152e-01 9.168665e-01 6.515940e-01 7.765818e-01 5.182825e-01 5.568142e-01 5.252777e-01 5.172772e-01 4.999096e-01 4.480212e-01 5.644763e-01
<GCONST> 1.289256e+02
<TRANSP> 5
 0.000000e+00 1.000000e+00 0.000000e+00 0.000000e+00 0.000000e+00
 0.000000e+00 7.909444e-01 2.090556e-01 0.000000e+00 0.000000e+00
 0.000000e+00 0.000000e+00 5.611866e-01 4.388134e-01 0.000000e+00
 0.000000e+00 0.000000e+00 0.000000e+00 3.765059e-01 6.234941e-01
 0.000000e+00 0.000000e+00 0.000000e+00 0.000000e+00 0.000000e+00
<ENDHMM>
~h "r"
<BEGINHMM>
<NUMSTATES> 5
<STATE> 2
<MEAN> 39
 -8.112563e-01 -4.378323e+00 -1.126008e+00 -5.342793e+00 -5.933737e+00 -7.060042e+00 -5.467461e+00 1.827463e+00 2.687345e+00 -3.113751e-02 -1.594049e+00 -3.625134e+00 5.757987e+01 -5.815148e-01 4.953664e-01 5.429525e-01 9.831864e-01 4.328543e-01 -4.158209e-02 9.194257e-02 -1.629494e-01 -6.420230e-03 -3.138418e-01 2.085014e-01 4.379491e-01 -1.084199e+00 -9.139990e-02 -6.300909e-02 1.821638e-02 -3.194676e-01 1.068133e-02 1.281395e-01 8.289266e-02 -8.757753e-02 -2.843175e-01 -1.459804e-02 9.445587e-02 -2.730046e-02 2.414429e-01
<VARIANCE> 39
 1.803505e+01 3.513479e+01 3.909657e+01 4.380577e+01 6.459522e+01 5.071455e+01 4.599987e+01 4.020973e+01 3.764983e+01 3.635557e+01 2.877871e+01 2.240750e+01 3.448978e+01 1.423373e+00 2.063201e+00 2.095315e+00 2.288750e+00 3.094088e+00 2.783928e+00 2.575028e+00 2.607568e+00 2.377795e+00 2.229460e+00 2.089874e+00 1.710876e+00 9.309592e-01 1.737937e-01 2.199675e-01 2.584131e-01 3.344064e-01 4.005580e-01 3.822196e-01 3.534839e-01 4.227190e-01 3.417343e-01 3.228114e-01 3.482548e-01 2.552997e-01 1.537038e-01
<GCONST> 1.120085e+02
<STATE> 3
<MEAN> 39
 -3.440332e+00 -3.371935e+00 -1.841594e-01 -4.306139e+00 -3.782530e+00 -5.978181e+00 -4.308028e+00 1.334879e+00 2.022549e+00 -1.273677e+00 -7.629195e-01 -2.597932e+00 5.568186e+01 -1.578368e-01 7.841615e-02 4.910528e-01 1.534184e-01 -8.658859e-02 -1.960964e-02 1.193075e-01 -1.110460e-01 -4.885143e-01 -1.713941e-01 2.592061e-01 2.227793e-01 -8.490673e-02 2.891191e-01 -1.625968e-01 -6.873959e-02 -4.304494e-01 -3.389237e-01 4.209981e-02 -8.435360e-02 7.760712e-03 -1.891675e-01 1.674473e-01 -5.647605e-03 -1.937696e-01 4.708185e-01
<VARIANCE> 39
 2.410577e+01 3.272776e+01 3.441044e+01 3.983907e+01 4.919885e+01 4.459429e+01 3.930215e+01 3.366098e+01 3.479559e+01 3.063218e+01 2.503634e+01 2.179851e+01 4.127816e+01 1.448372e+00 1.627003e+00 1.977276e+00 1.784637e+00 2.565459e+00 2.317024e+00 2.068840e+00 2.472676e+00 2.042452e+00 1.865804e+00 1.811489e+00 1.422971e+00 9.965890e-01 3.489702e-01 4.411286e-01 4.070868e-01 5.121471e-01 6.087374e-01 5.324860e-01 4.751320e-01 5.464208e-01 4.177049e-01 4.498477e-01 4.586940e-01 3.445131e-01 2.180947e-01
<GCONST> 1.143066e+02
<STATE> 4
<MEAN> 39
 -1.408653e+00 -3.090955e+00 1.001765e+00 -4.803391e+00 -6.841025e+00 -7.822677e+00 -5.067218e+00 1.496736e-01 8.116225e-01 1.664465e-01 -1.184525e+00 -2.636989e+00 5.828303e+01 2.193505e-01 1.534460e-01 2.668220e-01 -2.502133e-01 -4.175811e-01 1.353723e-01 -1.012528e-01 -1.927455e-01 -4.640883e-01 1.305021e-01 7.757636e-02 -1.209030e-01 1.183951e-01 -7.641806e-02 6.503501e-02 -7.560803e-02 -1.653101e-01 7.236411e-02 1.738877e-01 -7.356734e-04 -1.151670e-02 6.454870e-03 4.533799e-03 -6.333337e-02 -9.896253e-02 -1.337097e-02
<VARIANCE> 39
 2.627819e+01 4.599911e+01 5.355107e+01 4.268866e+01 5.761422e+01 4.884781e+01 4.702644e+01 4.586275e+01 3.983395e+01 3.522932e+01 3.161358e+01 2.360443e+01 3.560989e+01 2.057274e+00 2.576064e+00 2.709230e+00 2.401569e+00 3.537303e+00 2.590447e+00 2.483723e+00 3.086267e+00 2.218333e+00 2.205705e+00 2.302462e+00 1.638008e+00 2.070323e+00 2.805137e-01 3.628826e-01 3.359185e-01 4.390547e-01 5.476584e-01 4.814747e-01 4.302602e-01 4.769103e-01 3.837648e-01 3.863466e-01 3.666674e-01 3.038292e-01 2.695883e-01
<GCONST> 1.184678e+02
<TRANSP> 5
 0.000000e+00 1.000000e+00 0.000000e+00 0.000000e+00 0.000000e+00
 0.000000e+00 2.164509e-01 7.835491e-01 0.000000e+00 0.000000e+00
 0.000000e+00 0.000000e+00 2.785984e-01 7.214016e-01 0.000000e+00
 0.000000e+00 0.000000e+00 0.000000e+00 4.215853e-01 5.784147e-01
 0.000000e+00 0.000000e+00 0.000000e+00 0.000000e+00 0.000000e+00
<ENDHMM>
~h "s"
<BEGINHMM>
<NUMSTATES> 5
<STATE> 2
<MEAN> 39
 -1.005670e+01 3.979437e+00 -1.734776e+00 -3.247963e+00 -1.188138e+00 -7.598552e+00 -8.679964e-01 -4.220369e-01 4.387048e-01 -2.104217e+00 -1.540429e+00 -2.386221e+00 5.690794e+01 -3.399913e+00 1.921956e+00 -1.051980e+00 9.388906e-01 9.251519e-01 -4.046217e-01 9.887381e-01 1.106047e-01 1.711559e-01 -4.656605e-01 5.329444e-01 1.918525e-01 -1.544219e-01 -9.852418e-02 -2.799540e-01 -8.918668e-02 -3.071142e-01 -1.485020e-01 1.041392e-01 -2.076682e-01 -2.737970e-02 -1.578085e-01 5.294662e-02 3.140574e-02 -5.945266e-02 3.613715e-02
<VARIANCE> 39
 4.673139e+01 4.423260e+01 4.912239e+01 3.635307e+01 5.774142e+01 4.462498e+01 4.719460e+01 4.446173e+01 4.322767e+01 3.898230e+01 3.058660e+01 2.169511e+01 4.025316e+01 1.837555e+00 2.776088e+00 2.786116e+00 3.488525e+00 3.401683e+00 3.230212e+00 2.790977e+00 2.965597e+00 2.363883e+00 2.578064e+00 2.111763e+00 1.791101e+00 9.182460e-01 6.668164e-01 4.292716e-01 3.784129e-01 3.938248e-01 4.884240e-01 4.647136e-01 4.240973e-01 4.429663e-01 3.986214e-01 3.992566e-01 3.499850e-01 2.782530e-01 1.066057e-01
<GCONST> 1.186755e+02
<STATE> 3
<MEAN> 39
 -1.889526e+01 5.468655e+00 -4.573452e+00 -1.979204e+00 -2.309491e-01 -6.720526e+00 1.162505e+00 -7.104185e-03 -1.823082e-01 -2.375007e+00 4.362149e-01 -1.112922e+00 5.314755e+01 -5.476970e-01 -2.355765e-01 -8.595578e-02 6.481685e-03 -3.932469e-02 2.505150e-02 1.770848e-01 6.137948e-03 -6.015835e-02 -2.763509e-03 1.035739e-01 1.483253e-01 -3.504019e-01 6.225671e-01 -2.881597e-01 2.246119e-01 -9.160472e-02 -1.452637e-01 -1.414476e-02 -7.241455e-02 -1.818705e-03 2.550082e-02 7.257210e-02 -8.136949e-02 -2.122146e-02 1.010619e-02
<VARIANCE> 39
 2.700691e+01 4.287094e+01 3.840215e+01 2.903831e+01 3.646417e+01 4.560381e+01 3.970337e+01 3.269954e+01 3.348664e+01 3.202412e+01 2.157917e+01 1.962314e+01 6.237989e+01 1.358880e+00 1.062111e+00 1.105392e+00 1.068590e+00 1.263708e+00 1.425559e+00 1.444731e+00 1.538544e+00 1.487294e+00 1.392556e+00 1.213625e+00 9.962628e-01 4.209409e-01 3.505718e-01 2.563692e-01 2.324083e-01 2.682115e-01 2.910787e-01 3.132369e-01 3.278978e-01 3.259825e-01 3.084754e-01 3.143250e-01 2.623969e-01 2.227822e-01 8.783003e-02
<GCONST> 1.020454e+02
<STATE> 4
<MEAN> 39
 -1.642435e+01 3.448449e+00 -3.740263e+00 -2.630869e+00 -1.233049e+00 -8.048740e+00 9.552349e-01 -4.931949e-02 6.983478e-01 -1.985632e+00 -3.617024e-01 -1.040441e+00 5.380360e+01 2.644860e+00 -8.242928e-01 5.067923e-01 -6.026111e-01 -9.609960e-01 -1.870466e-01 -7.891048e-01 -2.043592e-01 1.080151e-01 1.412057e-01 -5.174167e-01 -3.690675e-01 6.651902e-01 5.540661e-01 -4.229835e-02 9.375407e-02 -2.536007e-01 -1.905661e-01 6.352942e-02 -3.567122e-01 -7.285430e-02 -5.703693e-02 4.887578e-02 -5.426226e-02 -1.661741e-01 3.350655e-01
<VARIANCE> 39
 5.235697e+01 3.179936e+01 3.703836e+01 3.029975e+01 3.986734e+01 4.492337e+01 3.854822e+01 3.028676e+01 3.392438e+01 2.975498e+01 2.353125e+01 1.857388e+01 4.570815e+01 5.073944e+00 3.292743e+00 3.267484e+00 2.908836e+00 3.416124e+00 3.370653e+00 3.529462e+00 3.310277e+00 2.615661e+00 2.730802e+00 2.471779e+00 1.856352e+00 2.636333e+00 8.014222e-01 4.512051e-01 3.972147e-01 4.502503e-01 5.168357e-01 5.335934e-01 5.543672e-01 5.124220e-01 4.278131e-01 4.328238e-01 4.260770e-01 3.085555e-01 2.867911e-01
<GCONST> 1.216693e+02
<TRANSP> 5
 0.000000e+00 1.000000e+00 0.000000e+00 0.000000e+00 0.000000e+00
 0.000000e+00 6.782176e-01 3.217824e-01 0.000000e+00 0.000000e+00
 0.000000e+00 0.000000e+00 8.126074e-01 1.873926e-01 0.000000e+00
 0.000000e+00 0.000000e+00 0.000000e+00 7.148503e-01 2.851497e-01
 0.000000e+00 0.000000e+00 0.000000e+00 0.000000e+00 0.000000e+00
<ENDHMM>
~h "t"
<BEGINHMM>
<NUMSTATES> 5
<STATE> 2
<MEAN> 39
 -6.869569e+00 -3.320386e-01 -1.442890e+00 -3.038097e+00 -3.112409e+00 -3.392394e+00 -3.016234e+00 -1.296021e-01 2.420308e-02 -6.539312e-01 -1.343252e+00 -2.335004e+00 4.606213e+01 -4.960545e-01 4.858726e-02 -1.435966e-01 2.197653e-01 1.137609e-01 3.184372e-01 1.843593e-01 -3.129411e-02 -2.862325e-02 -1.264055e-02 1.070683e-01 1.979220e-01 -9.159937e-01 -3.518314e-02 -1.277460e-01 -2.774687e-02 -1.504359e-01 -2.673533e-02 -1.491150e-01 1.415699e-02 1.459836e-02 -9.864875e-03 -2.248553e-02 4.570562e-02 2.089468e-03 3.689914e-01
<VARIANCE> 39
 2.775513e+01 3.544468e+01 4.151971e+01 3.855035e+01 3.895242e+01 3.878050e+01 2.907287e+01 3.743279e+01 3.100655e+01 2.634832e+01 2.377982e+01 2.376637e+01 5.153761e+01 6.238768e-01 6.726746e-01 9.261470e-01 1.097135e+00 1.305566e+00 1.574502e+00 1.390481e+00 1.600435e+00 1.423449e+00 1.441782e+00 1.249573e+00 1.029495e+00 1.277742e+00 1.123172e-01 1.654187e-01 2.077113e-01 2.541965e-01 2.748184e-01 3.615677e-01 2.904056e-01 3.454930e-01 3.006866e-01 2.976343e-01 2.597309e-01 2.044125e-01 2.242758e-01
<GCONST> 1.007492e+02
<STATE> 3
<MEAN> 39
 -5.933998e+00 2.055771e+00 2.346464e-01 -2.652726e+00 -3.842793e+00 -4.337498e+00 -4.186170e+00 -2.125828e+00 -8.148509e-01 -5.409324e-01 -1.255898e+00 -2.559563e+00 4.642159e+01 -1.055303e+00 -7.949045e-01 -7.406394e-01 -6.230993e-01 3.703777e-01 -7.738201e-01 5.782167e-01 5.025392e-02 1.694774e-01 -2.783563e-01 2.721495e-01 2.407401e-01 1.278123e+00 2.656359e-01 -2.851234e-01 -8.519274e-02 -5.616800e-01 -9.814397e-02 -3.360220e-01 -1.468230e-01 8.650774e-02 1.791100e-01 2.950536e-02 -7.722241e-02 -1.689462e-01 1.142095e+00
<VARIANCE> 39
 2.235618e+01 3.460754e+01 4.793709e+01 4.431679e+01 4.528991e+01 4.063042e+01 2.782355e+01 3.455396e+01 2.896854e+01 2.536186e+01 2.497011e+01 2.210319e+01 4.328926e+01 1.704641e+00 2.298923e+00 3.192083e+00 3.034538e+00 3.507845e+00 3.798059e+00 2.867468e+00 3.117764e+00 2.554693e+00 2.511397e+00 2.385145e+00 1.648988e+00 3.541091e+00 3.321053e-01 3.995574e-01 6.042843e-01 5.461465e-01 6.062809e-01 5.894997e-01 5.337197e-01 6.613405e-01 4.872821e-01 4.876624e-01 4.696246e-01 3.423209e-01 3.928762e-01
<GCONST> 1.205679e+02
<STATE> 4
<MEAN> 39
 -8.490359e+00 -1.656025e+00 -2.666597e+00 -6.268560e+00 -2.616284e+00 -7.671293e+00 -2.044156e+00 -1.242288e+00 7.400501e-01 -1.342221e+00 -6.065124e-01 -2.449964e+00 5.408363e+01 8.925005e-01 -6.018593e-01 -2.216792e-01 -1.530363e+00 -2.439801e-01 -6.530720e-01 -5.816609e-01 2.683988e-01 4.340625e-01 8.148357e-02 -2.360506e-01 -5.701690e-01 2.919265e+00 6.672269e-01 9.711564e-02 3.327586e-01 -1.414995e-01 -2.349731e-01 4.436289e-01 -4.701664e-01 2.789923e-02 -1.276739e-01 1.696771e-01 -1.057176e-01 -2.140261e-01 -4.418470e-02
<VARIANCE> 39
 2.318162e+01 2.552826e+01 3.764901e+01 3.455116e+01 3.728445e+01 4.423914e+01 3.380787e+01 3.033537e+01 3.325349e+01 2.885686e+01 2.635849e+01 2.265732e+01 5.021955e+01 3.414966e+00 3.887545e+00 6.297987e+00 4.975158e+00 5.024478e+00 5.222868e+00 4.444247e+00 6.171272e+00 4.017446e+00 3.630646e+00 3.537034e+00 2.725587e+00 4.449847e+00 4.294237e-01 5.513111e-01 6.241447e-01 6.896104e-01 7.173242e-01 8.025602e-01 6.662147e-01 7.031506e-01 5.472733e-01 5.649230e-01 5.568588e-01 4.251162e-01 6.601382e-01
<GCONST> 1.291716e+02
<TRANSP> 5
 0.000000e+00 1.000000e+00 0.000000e+00 0.000000e+00 0.000000e+00
 0.000000e+00 7.623539e-01 2.376461e-01 0.000000e+00 0.000000e+00
 0.000000e+00 0.000000e+00 4.468270e-01 5.531731e-01 0.000000e+00
 0.000000e+00 0.000000e+00 0.000000e+00 5.015381e-01 4.984619e-01
 0.000000e+00 0.000000e+00 0.000000e+00 0.000000e+00 0.000000e+00
<ENDHMM>
~h "u"
<BEGINHMM>
<NUMSTATES> 5
<STATE> 2
<MEAN> 39
 4.658231e-01 3.872522e+00 -1.715933e+00 -1.009188e+01 -5.910862e+00 -4.883532e+00 -9.605501e+00 -4.491145e+00 -2.741028e+00 -3.674058e-01 2.822241e-01 -2.054741e+00 5.547085e+01 1.261770e+00 4.247265e-01 -4.975078e-01 -1.790760e+00 -5.646757e-01 7.778117e-01 -1.028219e+00 -7.616016e-01 -7.038666e-01 3.763077e-01 7.736160e-01 1.676086e-01 7.237693e-01 -3.088216e-01 -8.592002e-02 8.926747e-02 2.139316e-01 2.175729e-01 2.934389e-01 3.213493e-01 4.756666e-02 -9.584174e-03 3.530522e-02 -7.295695e-03 -5.941664e-02 -2.720754e-01
<VARIANCE> 39
 2.389425e+01 4.497937e+01 4.344975e+01 6.681659e+01 5.098479e+01 5.215894e+01 5.580635e+01 5.322645e+01 5.180907e+01 4.805944e+01 3.406851e+01 2.464706e+01 4.036743e+01 2.612969e+00 2.282940e+00 3.057736e+00 4.418250e+00 4.063259e+00 4.190163e+00 4.140759e+00 4.018678e+00 3.514980e+00 3.180483e+00 3.098807e+00 2.212928e+00 1.700032e+00 3.606908e-01 4.334655e-01 3.755401e-01 7.301700e-01 5.790724e-01 6.386434e-01 7.874733e-01 6.576834e-01 6.529190e-01 5.433444e-01 4.653340e-01 3.950352e-01 3.409225e-01
<GCONST> 1.270614e+02
<STATE> 3
<MEAN> 39
 1.689456e+00 2.510830e+00 -2.892037e+00 -1.484892e+01 -5.496520e+00 -4.924061e-01 -1.145662e+01 -7.048950e+00 -4.032224e+00 1.323850e+00 3.597105e+00 -2.171304e+00 5.813611e+01 -1.350234e-02 -3.195305e-01 9.502231e-03 -8.108246e-02 3.592027e-01 2.650766e-01 -2.111026e-01 -1.155409e-01 2.343131e-01 4.814944e-01 4.727143e-02 -4.001125e-01 1.151547e-01 -3.444615e-01 -3.624946e-02 2.796638e-01 8.499944e-01 1.641521e-01 -3.722555e-01 4.246666e-01 3.701478e-01 3.037670e-01 -2.508897e-01 -4.983175e-01 -9.807234e-02 -3.999842e-01
<VARIANCE> 39
 1.910682e+01 4.045583e+01 4.267616e+01 7.354201e+01 5.515621e+01 6.093880e+01 5.677830e+01 6.829322e+01 6.312746e+01 6.452764e+01 4.945141e+01 3.636456e+01 3.014978e+01 7.354425e-01 2.510335e+00 1.800494e+00 4.707760e+00 2.879191e+00 3.682383e+00 3.445340e+00 3.340303e+00 4.699251e+00 2.991938e+00 2.959893e+00 2.563259e+00 1.450420e+00 2.515471e-01 3.387876e-01 3.739839e-01 6.115932e-01 6.049238e-01 6.607020e-01 7.276298e-01 6.930730e-01 7.292970e-01 6.213872e-01 5.892273e-01 5.260105e-01 1.876996e-01
<GCONST> 1.253960e+02
<STATE> 4
<MEAN> 39
 7.572172e-01 3.082625e+00 -2.024117e+00 -1.375245e+01 -3.760471e+00 -2.949826e+00 -9.875051e+00 -4.794794e+00 -5.047374e+00 8.779433e-01 6.755270e-01 -1.937213e+00 5.567453e+01 -2.531364e-01 4.422652e-02 3.105287e-01 9.033699e-01 1.713866e-01 -1.442477e-01 4.137745e-01 2.735646e-01 3.402225e-01 -1.751077e-01 -4.271280e-01 -1.026807e-01 -6.910567e-01 -1.560593e-01 -2.574567e-03 6.801780e-02 2.346508e-01 5.066649e-04 -7.540368e-02 9.800554e-02 1.609390e-02 7.092991e-02 -6.881090e-02 -5.209199e-02 4.203507e-02 -9.874595e-02
<VARIANCE> 39
 1.478932e+01 3.824932e+01 4.689471e+01 7.377853e+01 4.694519e+01 4.450639e+01 4.513654e+01 4.680540e+01 5.765872e+01 5.883327e+01 4.309034e+01 3.257875e+01 3.424952e+01 6.525666e-01 1.279951e+00 1.300002e+00 2.628243e+00 1.771163e+00 2.130015e+00 2.049067e+00 2.169888e+00 2.213006e+00 1.845350e+00 2.005889e+00 1.453632e+00 1.085607e+00 1.230935e-01 1.902369e-01 2.183805e-01 3.740290e-01 3.364260e-01 3.652328e-01 3.680897e-01 3.833364e-01 4.399732e-01 3.548837e-01 3.449211e-01 2.831850e-01 1.098098e-01
<GCONST> 1.100960e+02
<TRANSP> 5
 0.000000e+00 1.000000e+00 0.000000e+00 0.000000e+00 0.000000e+00
 0.000000e+00 4.503048e-01 5.496952e-01 0.000000e+00 0.000000e+00
 0.000000e+00 0.000000e+00 4.737174e-01 5.262826e-01 0.000000e+00
 0.000000e+00 0.000000e+00 0.000000e+00 6.804214e-01 3.195785e-01
 0.000000e+00 0.000000e+00 0.000000e+00 0.000000e+00 0.000000e+00
<ENDHMM>
~h "v"
<BEGINHMM>
<NUMSTATES> 5
<STATE> 2
<MEAN> 39
 -4.736019e+00 -4.878481e-01 1.366055e-02 -1.631058e+00 -3.763818e+00 -1.783732e+00 -9.452512e-01 2.701410e+00 1.107080e+00 -1.311955e+00 -2.195510e+00 -3.373780e+00 5.376080e+01 -1.730161e+00 5.403800e-01 -8.896656e-01 7.706317e-01 1.119876e-01 -3.234626e-01 3.206879e-01 -3.284850e-02 1.915041e-01 -3.810754e-01 -5.717435e-02 4.433116e-01 -9.595379e-01 -1.375658e-01 -1.859469e-01 -6.044889e-02 -2.555578e-01 -1.993563e-01 -2.275955e-01 -2.549147e-01 -2.127202e-01 -1.130044e-01 -7.461945e-02 6.283129e-02 -1.269147e-01 2.503109e-01
<VARIANCE> 39
 1.282894e+01 2.585536e+01 5.053632e+01 2.718065e+01 3.708051e+01 2.791595e+01 1.551236e+01 4.762577e+01 3.441660e+01 2.501736e+01 2.343641e+01 2.314765e+01 2.186872e+01 1.402954e+00 8.913394e-01 1.970212e+00 1.264815e+00 2.326581e+00 2.176747e+00 2.103929e+00 2.058704e+00 2.807941e+00 1.712517e+00 1.543367e+00 1.454731e+00 6.659930e-01 2.403983e-01 1.404249e-01 2.518508e-01 2.110090e-01 3.274190e-01 3.580720e-01 2.762568e-01 3.189437e-01 4.240592e-01 2.525747e-01 2.577776e-01 2.074735e-01 7.295423e-02
<GCONST> 1.019144e+02
<STATE> 3
<MEAN> 39
 -1.205832e+01 -5.565508e-01 -2.381920e+00 -1.034548e+00 -2.985336e+00 -4.729319e+00 -2.301700e+00 -1.187668e+00 2.229007e-01 -3.044541e+00 -1.029024e+00 -1.799410e+00 5.209559e+01 -7.517020e-01 -1.989728e-01 -7.028925e-02 2.844592e-02 -1.088372e-01 -1.542817e-01 6.770589e-02 -1.717977e-01 -2.017668e-01 -8.767348e-02 1.205028e-01 7.053660e-02 -1.795742e-01 7.559870e-01 -3.330527e-02 4.787554e-01 -2.484336e-01 -1.619412e-01 2.336290e-01 5.083910e-02 -1.040233e-02 -1.754701e-01 3.229752e-01 1.793046e-01 -1.393570e-01 2.686359e-01
<VARIANCE> 39
 1.039502e+01 1.516529e+01 3.257411e+01 1.914952e+01 2.015015e+01 2.170742e+01 1.668860e+01 2.457265e+01 2.074922e+01 3.105675e+01 1.711901e+01 1.377164e+01 1.341001e+01 1.764689e+00 1.080242e+00 1.591646e+00 1.050398e+00 1.426453e+00 1.405933e+00 1.159315e+00 1.981261e+00 1.525116e+00 1.722704e+00 1.449199e+00 9.357063e-01 3.122037e-01 2.786971e-01 2.753788e-01 4.221365e-01 3.322811e-01 4.006779e-01 3.354530e-01 3.273497e-01 4.369661e-01 4.186867e-01 3.683785e-01 3.563248e-01 2.160043e-01 1.320488e-01
<GCONST> 9.764951e+01
<STATE> 4
<MEAN> 39
 -8.971961e+00 3.386385e-01 -1.708653e+00 -1.082018e+00 -4.094902e+00 -2.123340e+00 -9.581293e-01 -9.161564e-01 -4.932648e-01 -1.527976e+00 -2.424233e-01 -2.689465e+00 5.186986e+01 2.495944e+00 -9.218498e-02 1.139542e+00 -1.488722e+00 -1.314578e+00 2.461044e-01 -4.873955e-01 -9.812914e-01 -8.807009e-01 9.801722e-01 7.078525e-01 -7.908072e-01 1.667613e+00 4.897284e-01 -2.206042e-01 3.236376e-01 -6.102453e-01 -4.563766e-01 -1.580114e-01 -3.464017e-01 -1.343642e-01 -4.348121e-02 1.835792e-01 -4.260785e-02 -2.608089e-01 5.993792e-01
<VARIANCE> 39
 3.009206e+01 2.360082e+01 4.778362e+01 3.535841e+01 2.680322e+01 3.287661e+01 2.442953e+01 2.813300e+01 2.475142e+01 2.698507e+01 1.737082e+01 1.547550e+01 2.142957e+01 4.066644e+00 3.361816e+00 7.158738e+00 3.960764e+00 3.515866e+00 5.040908e+00 2.986492e+00 5.109446e+00 2.459135e+00 2.171241e+00 2.785252e+00 1.310049e+00 1.359870e+00 6.208546e-01 5.388845e-01 7.521531e-01 5.126544e-01 4.691045e-01 4.965611e-01 4.521202e-01 6.328697e-01 3.931487e-01 4.662334e-01 3.479251e-01 2.711339e-01 1.425697e-01
<GCONST> 1.182274e+02
<TRANSP> 5
 0.000000e+00 1.000000e+00 0.000000e+00 0.000000e+00 0.000000e+00
 0.000000e+00 7.132562e-01 2.867438e-01 0.000000e+00 0.000000e+00
 0.000000e+00 0.000000e+00 7.198479e-01 2.801522e-01 0.000000e+00
 0.000000e+00 0.000000e+00 0.000000e+00 5.665343e-01 4.334657e-01
 0.000000e+00 0.000000e+00 0.000000e+00 0.000000e+00 0.000000e+00
<ENDHMM>
~h "w"
<BEGINHMM>
<NUMSTATES> 5
<STATE> 2
<MEAN> 39
 2.800257e+00 1.516047e+00 -4.743940e+00 -1.307554e+01 -5.597630e+00 1.967303e+00 -4.399844e+00 -2.678035e+00 -2.008309e+00 1.731037e+00 3.275450e+00 -3.549917e+00 5.635949e+01 7.785028e-01 9.156164e-01 -9.396015e-02 -1.242056e+00 -8.713629e-01 1.340528e-01 -1.044781e-01 -2.011684e-01 -7.243601e-01 -1.806140e-02 4.991395e-01 5.925680e-01 -9.494237e-02 -1.407208e-01 -3.698481e-01 -1.276541e-01 -1.228270e-01 7.643078e-02 6.734119e-02 7.208060e-02 1.853801e-01 9.405073e-02 3.856196e-03 -8.216966e-02 -1.629057e-01 2.631962e-01
<VARIANCE> 39
 1.879798e+01 4.195574e+01 3.590874e+01 7.784501e+01 4.398997e+01 3.711566e+01 4.157460e+01 2.826398e+01 2.907396e+01 2.690347e+01 2.520978e+01 2.173360e+01 3.782659e+01 1.011456e+00 1.076393e+00 1.242316e+00 2.368472e+00 2.119208e+00 2.634417e+00 1.789673e+00 1.809738e+00 1.634369e+00 1.572490e+00 1.821823e+00 1.305842e+00 1.164864e+00 1.267724e-01 1.951278e-01 2.314340e-01 4.639240e-01 3.375942e-01 5.136192e-01 3.226615e-01 3.872772e-01 3.071585e-01 3.471918e-01 3.769191e-01 3.049278e-01 1.154303e-01
<GCONST> 1.070502e+02
<STATE> 3
<MEAN> 39
 4.318544e+00 1.356596e+00 -6.228452e+00 -2.022323e+01 -8.002164e+00 4.705364e+00 -5.262438e+00 -2.931627e+00 -4.951626e+00 2.582963e+00 4.887730e+00 -2.909491e+00 5.823797e+01 -1.379718e-01 -1.543880e+00 -9.505079e-01 -1.582789e+00 7.988365e-01 1.483562e+00 1.636586e-02 -1.727729e-01 1.491561e-01 8.566865e-01 3.165560e-01 -1.320028e+00 1.319775e+00 -3.756162e-01 -4.303432e-01 8.944463e-02 6.246225e-01 5.813220e-01 -2.144030e-01 3.171890e-02 1.609380e-01 5.236092e-01 -5.442424e-02 -4.502069e-01 -5.039985e-01 5.874757e-02
<VARIANCE> 39
 1.483639e+01 5.115585e+01 4.093591e+01 6.943118e+01 5.295333e+01 5.060891e+01 4.472039e+01 3.783762e+01 4.523566e+01 3.948910e+01 3.668676e+01 2.498454e+01 2.694617e+01 1.002208e+00 1.332840e+00 1.207346e+00 3.741001e+00 2.894661e+00 3.213413e+00 2.431896e+00 2.500346e+00 3.032547e+00 2.110760e+00 2.595119e+00 2.143723e+00 1.166610e+00 1.323959e-01 2.395110e-01 2.360332e-01 4.385174e-01 4.341574e-01 4.995034e-01 3.810326e-01 4.274670e-01 4.015069e-01 4.492612e-01 3.361046e-01 3.453266e-01 1.285142e-01
<GCONST> 1.137700e+02
<STATE> 4
<MEAN> 39
 1.474990e+00 -4.559693e+00 -6.810169e+00 -2.022860e+01 -2.132188e+00 5.831631e+00 -4.069159e+00 -2.672660e+00 -1.420510e+00 4.688489e+00 3.523362e+00 -9.660231e+00 6.188416e+01 -5.994479e-01 -1.034033e+00 -1.535611e-01 9.251450e-01 9.630954e-01 -3.820566e-01 6.549012e-02 4.645800e-01 9.819409e-01 -4.444009e-01 -1.101691e+00 -9.879194e-01 3.166056e-01 1.036930e-03 2.547295e-01 1.763261e-01 3.368589e-01 -2.194691e-01 -3.243120e-01 4.620216e-02 9.402359e-02 -6.868266e-02 -3.145550e-01 -1.013526e-01 4.323061e-01 -2.700523e-01
<VARIANCE> 39
 1.257498e+01 4.688919e+01 4.042979e+01 6.058113e+01 4.251890e+01 4.798476e+01 5.506474e+01 3.959768e+01 6.755192e+01 4.747887e+01 4.496561e+01 3.369438e+01 2.255367e+01 3.625897e-01 1.540103e+00 8.146213e-01 1.732201e+00 1.787523e+00 1.661640e+00 1.318899e+00 1.559723e+00 2.192352e+00 1.799448e+00 1.601368e+00 2.153086e+00 1.486728e+00 7.242901e-02 2.116546e-01 1.591534e-01 3.933262e-01 2.895147e-01 3.759966e-01 2.388181e-01 2.678877e-01 3.435878e-01 3.366235e-01 2.626840e-01 3.456773e-01 1.309450e-01
<GCONST> 1.057541e+02
<TRANSP> 5
 0.000000e+00 1.000000e+00 0.000000e+00 0.000000e+00 0.000000e+00
 0.000000e+00 7.464695e-01 2.535305e-01 0.000000e+00 0.000000e+00
 0.000000e+00 0.000000e+00 6.015725e-01 3.984275e-01 0.000000e+00
 0.000000e+00 0.000000e+00 0.000000e+00 6.953012e-01 3.046987e-01
 0.000000e+00 0.000000e+00 0.000000e+00 0.000000e+00 0.000000e+00
<ENDHMM>
~h "y"
<BEGINHMM>
<NUMSTATES> 5
<STATE> 2
<MEAN> 39
 -5.309230e+00 1.972655e-01 9.329073e+00 -1.279195e+01 -1.060693e+01 -8.208276e+00 -5.255227e+00 -2.035786e+00 -4.201781e+00 -1.003365e-01 -5.911292e-02 -1.907120e+00 6.027406e+01 -1.126150e-01 -4.164316e-01 7.782776e-01 -9.341134e-01 -1.074678e+00 -2.688548e-01 4.247137e-01 5.053377e-01 -3.030137e-01 3.432539e-01 5.223152e-01 -1.291266e-02 9.479744e-01 9.013838e-02 -3.060968e-01 -5.095063e-01 2.141723e-01 2.199424e-01 1.298708e-01 1.946467e-01 2.377702e-01 1.667028e-01 -1.237872e-01 -1.262452e-01 -1.356966e-01 -4.774558e-02
<VARIANCE> 39
 2.514418e+01 7.102924e+01 6.081888e+01 8.755163e+01 5.925526e+01 5.137717e+01 4.330930e+01 7.312143e+01 4.021130e+01 5.337775e+01 5.326479e+01 2.266898e+01 4.877458e+01 1.231216e+00 3.230802e+00 4.006284e+00 3.535334e+00 2.805390e+00 2.906102e+00 3.190045e+00 4.546453e+00 2.643553e+00 2.453285e+00 2.086216e+00 1.667098e+00 1.893897e+00 1.476061e-01 3.097810e-01 4.647577e-01 5.736013e-01 6.333252e-01 4.364266e-01 5.062393e-01 5.317975e-01 4.155256e-01 4.421959e-01 4.082253e-01 2.895603e-01 1.874427e-01
<GCONST> 1.225313e+02
<STATE> 3
<MEAN> 39
 -4.794829e+00 -6.025589e+00 8.983214e+00 -1.263458e+01 -1.340799e+01 -9.467267e+00 -1.019635e+00 2.568877e+00 -3.710900e+00 -9.822798e-02 2.960630e+00 -3.875437e+00 6.392461e+01 1.535155e-01 -6.736687e-01 -5.933641e-01 9.148078e-02 1.977013e-01 2.557727e-02 6.121252e-01 8.526120e-01 9.812249e-02 -2.959686e-01 -9.426451e-02 -2.132236e-01 2.241047e-01 8.679830e-02 -4.373965e-02 -3.438650e-01 1.682051e-01 4.698295e-01 9.602742e-02 -1.259902e-01 4.341005e-02 1.212783e-01 -1.762462e-01 -3.001104e-01 9.194280e-03 -9.159387e-02
<VARIANCE> 39
 2.429237e+01 3.770340e+01 3.557461e+01 6.717154e+01 3.726743e+01 3.393261e+01 3.852305e+01 6.634950e+01 3.520925e+01 3.738532e+01 4.035492e+01 1.695667e+01 3.139595e+01 2.523108e-01 1.499765e+00 2.039863e+00 1.001005e+00 1.546823e+00 1.108699e+00 1.835438e+00 2.717191e+00 1.521321e+00 1.790255e+00 1.306028e+00 9.493625e-01 2.756802e-01 3.949561e-02 1.467376e-01 1.314365e-01 1.490673e-01 2.417836e-01 2.076918e-01 3.256113e-01 3.824346e-01 2.463862e-01 2.508856e-01 2.033023e-01 1.806112e-01 5.754869e-02
<GCONST> 9.713804e+01
<STATE> 4
<MEAN> 39
 -1.282168e+00 -8.038782e+00 -1.600381e+00 -5.872539e+00 -1.196389e+01 -3.079439e+00 1.362177e+00 3.263141e+00 -2.925479e+00 -4.556268e+00 -2.315736e-01 -3.515545e+00 6.104001e+01 2.272673e-01 -5.602515e-01 -1.066167e+00 6.534270e-01 1.239389e+00 2.628621e-01 -1.355044e-01 2.137887e-01 1.894805e-01 -4.895619e-01 -5.886807e-01 -3.671589e-02 -7.713785e-02 1.470138e-02 2.168005e-01 9.366965e-02 -2.520072e-02 1.526594e-01 6.381863e-02 -3.147463e-01 -3.197855e-01 4.822629e-02 1.785214e-01 -2.313307e-02 2.257361e-03 -1.665757e-01
<VARIANCE> 39
 1.574339e+01 3.164507e+01 6.414784e+01 8.214694e+01 4.168991e+01 9.761173e+01 3.226197e+01 5.610346e+01 4.416631e+01 2.743781e+01 3.217731e+01 1.478773e+01 2.876930e+01 3.045255e-01 8.438557e-01 1.655353e+00 1.749421e+00 1.796784e+00 1.436830e+00 1.720891e+00 1.831581e+00 1.485708e+00 1.474476e+00 1.723700e+00 1.006531e+00 2.395398e-01 3.598849e-02 1.316543e-01 1.384791e-01 1.785186e-01 2.259247e-01 2.453060e-01 2.819968e-01 3.963271e-01 2.205246e-01 2.319435e-01 2.119553e-01 1.689633e-01 5.024470e-02
<GCONST> 9.717191e+01
<TRANSP> 5
 0.000000e+00 1.000000e+00 0.000000e+00 0.000000e+00 0.000000e+00
 0.000000e+00 6.236027e-01 3.763973e-01 0.000000e+00 0.000000e+00
 0.000000e+00 0.000000e+00 6.929348e-01 3.070652e-01 0.000000e+00
 0.000000e+00 0.000000e+00 0.000000e+00 6.538116e-01 3.461884e-01
 0.000000e+00 0.000000e+00 0.000000e+00 0.000000e+00 0.000000e+00
<ENDHMM>
~h "z"
<BEGINHMM>
<NUMSTATES> 5
<STATE> 2
<MEAN> 39
 -5.828375e+00 2.028982e+00 -1.021792e+00 -2.777499e+00 -2.807949e+00 9.310688e-01 -3.754671e+00 -2.019242e+00 -1.538975e+00 5.896600e-01 -2.508440e-01 -1.725010e+00 4.458524e+01 -5.675569e-01 2.049150e-01 -2.317351e-01 -2.451889e-02 -1.384634e-01 1.406583e-01 4.473580e-01 1.227125e-01 6.146306e-02 5.866899e-02 -9.867026e-02 7.697750e-02 -6.008043e-01 -7.034887e-02 2.541517e-02 9.906315e-02 -1.916559e-02 -3.954898e-02 -2.796377e-02 2.687013e-02 -2.766029e-02 -3.560162e-02 -2.238269e-02 7.118078e-02 -2.561606e-02 7.088695e-02
<VARIANCE> 39
 4.667979e+01 3.690258e+01 1.940652e+01 1.811401e+01 2.383836e+01 4.376986e+01 2.266076e+01 2.369251e+01 1.884980e+01 2.360359e+01 1.388956e+01 1.033411e+01 4.584025e+01 3.942196e-01 4.138706e-01 3.877547e-01 6.711200e-01 8.672847e-01 9.429815e-01 1.203496e+00 1.322737e+00 1.080315e+00 1.007198e+00 8.806319e-01 6.671547e-01 3.170950e-01 1.084506e-01 6.942935e-02 6.785667e-02 1.537415e-01 2.223759e-01 1.835126e-01 2.730495e-01 2.632331e-01 2.048004e-01 1.491528e-01 1.673021e-01 1.650661e-01 3.260386e-02
<GCONST> 8.284081e+01
<STATE> 3
<MEAN> 39
 -1.221466e+01 3.777253e+00 3.205141e+00 -3.043132e+00 -7.815827e-01 -3.040683e+00 -2.047409e+00 -1.597478e+00 9.290532e-01 -4.386843e+00 1.759682e+00 -1.370372e+00 5.245940e+01 -7.199079e-01 -2.436540e-01 2.011627e-01 6.108165e-02 -3.823389e-01 -5.786196e-01 1.955952e-01 4.670694e-01 3.140576e-01 -9.672481e-02 3.469216e-02 -2.212174e-01 4.794258e-01 6.611271e-01 -3.293063e-01 1.108784e-01 -2.410184e-01 -2.794876e-01 -2.125003e-01 -2.159979e-01 2.490102e-01 -5.096614e-02 2.248615e-01 -1.193393e-02 -1.965685e-01 3.232883e-01
<VARIANCE> 39
 4.017285e+01 4.324632e+01 1.763125e+01 1.772318e+01 2.995936e+01 3.553819e+01 3.517361e+01 2.343300e+01 3.610030e+01 2.988263e+01 1.605697e+01 1.535176e+01 3.590938e+01 7.036462e+00 2.148206e+00 1.107950e+00 2.102722e+00 2.311790e+00 3.328364e+00 3.517594e+00 2.105410e+00 1.695115e+00 1.793031e+00 1.653439e+00 1.480436e+00 9.745491e-01 9.481567e-01 3.246342e-01 2.591768e-01 4.386402e-01 4.169680e-01 7.588478e-01 7.189231e-01 4.897980e-01 3.409384e-01 3.602361e-01 3.085366e-01 3.242122e-01 2.603560e-01
<GCONST> 1.129319e+02
<STATE> 4
<MEAN> 39
 -6.084222e+00 -8.670393e-01 4.731430e+00 -4.357019e+00 -1.623415e+00 -9.024706e+00 -1.665059e+00 6.965949e+00 -1.546733e+00 1.972569e-01 -4.619901e-01 -7.640922e+00 5.574337e+01 1.533034e+00 -8.908020e-01 3.468438e-01 -7.300668e-01 -1.337369e+00 -1.120534e+00 -5.505174e-01 6.990379e-01 -4.108275e-02 7.882847e-01 7.707885e-02 -8.036385e-01 1.263169e+00 -1.510771e-01 -5.753179e-02 -5.233803e-02 -1.101572e-01 2.831616e-02 5.853199e-02 -3.348117e-02 -1.106755e-01 -7.138627e-02 -2.621546e-02 -5.463160e-02 -1.185445e-01 4.542208e-02
<VARIANCE> 39
 2.143631e+01 4.961179e+01 1.214561e+01 2.017859e+01 4.594579e+01 2.877596e+01 1.239234e+01 4.564443e+01 3.880345e+01 3.836140e+01 8.572744e+00 3.745450e+01 4.314333e+01 4.475779e+00 3.322103e+00 1.380270e+00 2.493248e+00 2.655080e+00 3.147383e+00 1.367832e+00 3.691078e+00 1.994519e+00 3.613144e+00 1.220908e+00 3.015896e+00 2.671066e+00 4.423201e-01 2.942244e-01 1.055568e-01 2.403773e-01 3.019095e-01 4.045780e-01 2.145980e-01 2.901645e-01 3.300252e-01 3.375405e-01 1.287502e-01 4.142725e-01 3.198699e-01
<GCONST> 1.095956e+02
<TRANSP> 5
 0.000000e+00 1.000000e+00 0.000000e+00 0.000000e+00 0.000000e+00
 0.000000e+00 8.490260e-01 1.509740e-01 0.000000e+00 0.000000e+00
 0.000000e+00 0.000000e+00 8.107330e-01 1.892669e-01 0.000000e+00
 0.000000e+00 0.000000e+00 0.000000e+00 6.590175e-01 3.409824e-01
 0.000000e+00 0.000000e+00 0.000000e+00 0.000000e+00 0.000000e+00
<ENDHMM>
~h "ai"
<BEGINHMM>
<NUMSTATES> 5
<STATE> 2
<MEAN> 39
 -1.889007e+00 -1.106645e+01 -2.295258e+00 -1.016245e+01 -5.270756e+00 -5.013962e+00 -2.851881e+00 6.571167e+00 -3.545635e-01 -3.318635e+00 -3.059290e+00 -5.647186e+00 6.416869e+01 -3.617892e-01 -4.735133e-01 1.037364e+00 1.517009e-01 -1.092906e+00 -6.697984e-01 8.401083e-01 8.232617e-01 -5.799688e-01 -6.115375e-01 4.187765e-01 5.069042e-01 3.333218e-01 -8.256695e-02 5.459278e-01 2.438089e-01 4.915187e-02 -1.548807e-01 -9.347727e-04 -3.087637e-02 -4.491176e-01 -9.492154e-02 2.963951e-01 3.205298e-01 6.546555e-02 -3.452889e-01
<VARIANCE> 39
 1.452475e+01 3.767424e+01 4.857521e+01 5.490501e+01 5.184943e+01 4.424163e+01 3.603765e+01 5.052180e+01 5.346694e+01 3.679611e+01 3.045061e+01 2.829112e+01 3.328416e+01 2.601976e-01 1.203092e+00 1.277703e+00 1.364070e+00 1.913077e+00 2.085924e+00 1.829079e+00 1.852888e+00 1.490232e+00 1.596506e+00 1.827087e+00 1.178764e+00 3.038130e-01 1.144741e-01 1.893516e-01 1.733862e-01 2.598596e-01 3.088593e-01 3.059668e-01 3.114577e-01 4.349508e-01 2.896322e-01 3.616117e-01 3.315746e-01 2.937278e-01 1.268875e-01
<GCONST> 1.034658e+02
<STATE> 3
<MEAN> 39
 -3.577785e+00 -7.607641e+00 5.467852e+00 -1.093670e+01 -1.336588e+01 -7.863647e+00 -1.046613e+00 5.686310e+00 -3.709770e+00 -1.051550e+00 1.726333e+00 -4.934770e+00 6.312185e+01 -2.910731e-01 9.629802e-01 1.347744e+00 -2.863321e-01 -8.950744e-01 -1.730913e-01 -2.152522e-01 -1.094380e+00 -3.786657e-01 7.641791e-01 5.093102e-01 1.257535e-01 -3.384937e-01 7.177798e-02 1.459802e-01 -1.804771e-01 1.074449e-01 3.856294e-01 1.271801e-01 -2.389590e-01 -2.296118e-01 1.002527e-01 5.388579e-03 -2.618397e-01 1.984093e-02 -1.824715e-01
<VARIANCE> 39
 1.682434e+01 3.114279e+01 5.500589e+01 5.072371e+01 4.163462e+01 4.713195e+01 3.200344e+01 5.450908e+01 4.541090e+01 3.070726e+01 4.013929e+01 2.004703e+01 2.930302e+01 2.028834e-01 6.430503e-01 9.108160e-01 1.225699e+00 1.361906e+00 1.219768e+00 1.767177e+00 1.614814e+00 1.460427e+00 1.607518e+00 1.542979e+00 9.574820e-01 1.937001e-01 3.471367e-02 9.841648e-02 1.211145e-01 1.657926e-01 1.862787e-01 2.033366e-01 2.734590e-01 3.040391e-01 2.221624e-01 2.729884e-01 2.016451e-01 1.803997e-01 4.608349e-02
<GCONST> 9.291714e+01
<STATE> 4
<MEAN> 39
 -5.152317e+00 -2.147978e+00 9.928898e+00 -1.125991e+01 -1.221731e+01 -9.279964e+00 -2.739708e+00 -1.432860e+00 -4.370440e+00 9.739522e-01 5.073049e-03 -3.545013e+00 5.918044e+01 1.822322e-01 6.798050e-01 -3.510000e-01 8.107089e-01 7.846226e-01 2.998781e-01 -6.393911e-02 -5.006824e-01 1.622583e-01 -1.445172e-01 -3.927333e-01 9.814086e-02 -1.253864e+00 6.141209e-03 -6.489778e-02 -2.770042e-01 1.253223e-01 1.654440e-01 9.203478e-02 4.835811e-02 1.087815e-01 9.853089e-02 -9.383894e-02 -2.624805e-02 -2.539752e-02 -1.021644e-01
<VARIANCE> 39
 1.982914e+01 3.384543e+01 4.001507e+01 7.728379e+01 5.051055e+01 4.159873e+01 3.651287e+01 4.723959e+01 3.173980e+01 2.987617e+01 4.766260e+01 2.459246e+01 4.276136e+01 5.594833e-01 1.021011e+00 1.426053e+00 1.517531e+00 1.640410e+00 1.639954e+00 1.866619e+00 2.369873e+00 1.725353e+00 1.591587e+00 1.750638e+00 1.256915e+00 6.849619e-01 9.503974e-02 1.588696e-01 2.255978e-01 2.792879e-01 3.130087e-01 2.863406e-01 3.443217e-01 4.058386e-01 3.332811e-01 3.366817e-01 3.397803e-01 2.355668e-01 1.259470e-01
<GCONST> 1.049897e+02
<TRANSP> 5
 0.000000e+00 1.000000e+00 0.000000e+00 0.000000e+00 0.000000e+00
 0.000000e+00 7.172164e-01 2.827836e-01 0.000000e+00 0.000000e+00
 0.000000e+00 0.000000e+00 7.646852e-01 2.353147e-01 0.000000e+00
 0.000000e+00 0.000000e+00 0.000000e+00 7.978446e-01 2.021554e-01
 0.000000e+00 0.000000e+00 0.000000e+00 0.000000e+00 0.000000e+00
<ENDHMM>
~h "au"
<BEGINHMM>
<NUMSTATES> 5
<STATE> 2
<MEAN> 39
 8.829018e-01 -4.293244e+00 -9.529605e+00 -1.872536e+01 -2.668653e+00 8.639209e-01 -7.680716e+00 7.482821e-01 -3.905903e+00 -4.234412e-01 -3.513774e+00 -6.756583e+00 5.999334e+01 2.030555e-01 3.999934e-01 -1.498313e-01 -3.907573e-01 5.589604e-02 2.468860e-01 -1.368311e-01 -2.419621e-01 -1.749130e-01 1.807318e-01 3.285227e-01 1.670158e-01 -2.765463e-01 -2.170597e-02 1.220790e-01 1.161259e-01 1.605349e-01 -6.713744e-02 -9.113008e-02 -3.385069e-02 -1.154995e-01 3.934154e-03 1.183315e-02 4.572726e-02 8.284832e-02 -1.277520e-01
<VARIANCE> 39
 1.297473e+01 4.898747e+01 5.591424e+01 7.061703e+01 3.904398e+01 4.903925e+01 3.607148e+01 3.575264e+01 6.388635e+01 5.680674e+01 4.246885e+01 2.948716e+01 3.200928e+01 2.562945e-01 6.550599e-01 7.479058e-01 1.059928e+00 1.343742e+00 1.497723e+00 1.167107e+00 1.398996e+00 1.288682e+00 1.465355e+00 1.331852e+00 1.225612e+00 2.265398e-01 5.049384e-02 1.260514e-01 1.007747e-01 2.045472e-01 2.087666e-01 2.215651e-01 1.827190e-01 2.634818e-01 2.709532e-01 2.343560e-01 2.365310e-01 2.134143e-01 7.207283e-02
<GCONST> 9.532271e+01
<STATE> 3
<MEAN> 39
 2.079434e+00 -3.727991e-01 -6.619531e+00 -1.607493e+01 -4.088574e+00 3.692416e-03 -1.081340e+01 -4.187733e+00 -2.699846e+00 4.001325e+00 2.068470e+00 -3.948966e+00 5.807744e+01 -9.449915e-03 4.846565e-01 6.521955e-01 9.269927e-01 -6.355356e-02 -2.691760e-01 -4.300454e-01 -4.087918e-01 -9.108143e-02 -1.791822e-01 4.834172e-02 3.783177e-01 -6.924611e-01 -1.370199e-01 2.856505e-02 2.394884e-01 5.006306e-01 -7.375886e-03 -2.914235e-01 2.084386e-01 2.470254e-01 1.859264e-02 -1.675278e-01 -3.366658e-01 -6.901680e-02 -1.834182e-01
<VARIANCE> 39
 8.756832e+00 5.474233e+01 3.161374e+01 6.093942e+01 4.212804e+01 4.678919e+01 6.965565e+01 4.350017e+01 5.333851e+01 4.622444e+01 3.715131e+01 2.819655e+01 3.048487e+01 5.383551e-01 1.676920e+00 1.457892e+00 2.482839e+00 3.082108e+00 3.104470e+00 2.838614e+00 3.108516e+00 4.080659e+00 2.718975e+00 2.554768e+00 2.031793e+00 8.976810e-01 6.916387e-02 2.916386e-01 2.550647e-01 2.530461e-01 5.570770e-01 4.801235e-01 5.543129e-01 5.502025e-01 5.846173e-01 5.381864e-01 4.799942e-01 4.316946e-01 1.159758e-01
<GCONST> 1.147280e+02
<STATE> 4
<MEAN> 39
 -2.068208e+00 -1.289669e+00 -6.222943e+00 -9.442019e+00 -2.669764e-01 1.445108e+00 -4.264705e+00 5.579712e-01 -2.296801e+00 7.716720e-01 8.322183e-01 -4.817918e+00 4.899905e+01 -3.125302e-01 1.390162e-01 2.995041e-01 1.113347e+00 6.516433e-02 -2.052311e-01 2.822782e-01 1.305797e-01 2.451461e-02 -1.358173e-01 -3.115412e-01 -5.262680e-02 -8.107644e-01 -6.073304e-02 -4.793436e-02 -2.129292e-02 -3.270504e-02 5.242849e-03 -8.323082e-03 4.479447e-02 1.417706e-02 -6.299420e-02 -1.365713e-02 1.974270e-02 6.900959e-03 6.274910e-02
<VARIANCE> 39
 2.229785e+01 3.899280e+01 4.449709e+01 9.602128e+01 6.482730e+01 3.670023e+01 4.951192e+01 4.849287e+01 2.876508e+01 3.675690e+01 2.302048e+01 3.160297e+01 5.216282e+01 3.894810e-01 1.272777e+00 1.284855e+00 1.646101e+00 1.479805e+00 1.994049e+00 1.604123e+00 1.911592e+00 1.822138e+00 1.415757e+00 1.525272e+00 1.250392e+00 9.096205e-01 4.719461e-02 1.758130e-01 1.718924e-01 1.746621e-01 2.901874e-01 3.065933e-01 3.195551e-01 3.258280e-01 2.981783e-01 2.675775e-01 2.611527e-01 2.244314e-01 8.647368e-02
<GCONST> 1.028268e+02
<TRANSP> 5
 0.000000e+00 1.000000e+00 0.000000e+00 0.000000e+00 0.000000e+00
 0.000000e+00 8.581351e-01 1.418649e-01 0.000000e+00 0.000000e+00
 0.000000e+00 0.000000e+00 7.079131e-01 2.920869e-01 0.000000e+00
 0.000000e+00 0.000000e+00 0.000000e+00 7.425550e-01 2.574451e-01
 0.000000e+00 0.000000e+00 0.000000e+00 0.000000e+00 0.000000e+00
<ENDHMM>
~h "ei"
<BEGINHMM>
<NUMSTATES> 5
<STATE> 2
<MEAN> 39
 -3.488678e+00 -1.329495e+01 3.871500e+00 -1.134864e+01 -5.287831e+00 -1.610322e+00 -7.315218e+00 1.008432e+01 -6.764130e+00 -1.326160e+00 -5.109417e+00 5.082025e-01 5.457722e+01 -2.778389e-01 -6.266727e-01 8.033344e-01 -1.496004e+00 -9.374105e-01 4.356521e-02 8.286346e-01 -9.645835e-02 1.142918e-01 1.210546e-01 -4.515365e-01 -2.931373e-01 6.850455e-01 8.324225e-02 2.219929e-01 -3.264976e-01 3.426410e-01 -2.207751e-01 -1.698496e-01 -9.180330e-02 -5.420452e-01 1.980816e-01 4.462481e-02 -4.433091e-03 -1.063707e-01 -1.650381e-01
<VARIANCE> 39
 1.665355e+00 3.164202e+01 1.084182e+01 2.883881e+01 2.772843e+01 3.124839e+01 1.138871e+01 1.997188e+01 1.146049e+01 6.248478e+00 1.478995e+01 5.068833e+00 7.444632e+00 1.873420e-01 4.978924e-01 1.553300e+00 8.227740e-01 8.017542e-01 5.709483e-01 5.593053e-01 2.473243e+00 9.184726e-01 7.186189e-01 5.849442e-01 5.125725e-01 2.684944e-01 1.129607e-01 1.328300e-01 1.181992e-01 2.769079e-01 3.002526e-01 1.474061e-01 2.783357e-01 2.560689e-01 2.500357e-01 2.099027e-01 1.604544e-01 1.221504e-01 7.793459e-02
<GCONST> 7.584607e+01
<STATE> 3
<MEAN> 39
 -2.351982e+00 -9.386998e+00 3.464674e+00 -1.040048e+01 -1.291443e+01 -4.149403e+00 -7.329031e+00 3.881778e+00 -4.952069e+00 3.470384e-01 -5.735301e+00 -2.236162e+00 5.340744e+01 1.969717e-01 1.110333e+00 -2.128100e-01 1.484543e+00 -4.012870e-01 7.848405e-01 -2.831193e-01 -5.947521e-01 1.264992e-01 -2.242170e-01 8.166113e-01 -3.459093e-01 -1.139444e+00 -9.589816e-02 8.179199e-02 1.300475e-01 2.242333e-01 2.637646e-01 1.670140e-01 5.602270e-02 1.858800e-01 -2.520643e-02 -2.002532e-01 2.093535e-02 3.812298e-02 -1.531824e-01
<VARIANCE> 39
 2.489940e+00 2.569681e+01 3.618381e+00 3.760555e+01 1.398153e+01 5.808123e+01 1.319438e+01 1.961169e+01 9.671329e+00 1.287849e+01 3.195486e+01 1.124662e+01 1.682829e+01 2.015229e-01 5.063234e-01 4.912224e-01 1.379550e+00 1.819182e+00 2.892701e+00 7.243538e-01 8.694680e-01 1.156093e+00 1.316422e+00 1.619650e+00 4.038312e-01 3.723456e-01 3.224238e-02 1.309342e-01 5.342272e-02 4.395281e-01 2.897080e-01 5.639390e-01 1.378530e-01 1.473376e-01 1.679878e-01 2.309833e-01 4.743967e-01 9.535069e-02 1.024944e-01
<GCONST> 8.052033e+01
<STATE> 4
<MEAN> 39
 -3.147797e+00 2.442604e+00 6.293025e+00 -1.505013e+01 -1.765600e+01 -8.815341e+00 -1.075709e+01 -4.510209e+00 -1.406331e+00 -1.000790e+00 -7.776456e+00 -1.547252e+00 5.496053e+01 -6.906529e-02 5.077741e-01 3.076859e-01 1.101789e+00 -2.607477e-02 1.512206e-01 -1.113264e-01 -3.779095e-02 -9.673624e-02 -2.581737e-01 2.475651e-01 3.666409e-02 -6.426889e-01 -2.087040e-01 1.160346e-01 -1.582008e-01 1.990811e-01 2.018334e-01 -2.492146e-01 3.066522e-01 1.160952e-01 -1.578267e-02 1.105790e-01 2.689328e-01 4.866302e-02 8.266958e-02
<VARIANCE> 39
 1.735104e+00 2.286309e+01 2.099165e+01 6.895568e+01 1.317080e+01 5.462066e+01 1.825815e+01 2.064100e+01 1.751433e+01 8.589663e+00 1.391473e+01 1.843137e+01 2.245124e+01 2.199726e-01 1.458835e-01 5.605639e-01 1.161848e+00 6.036481e-01 8.733982e-01 2.771028e+00 7.088658e-01 1.400515e+00 9.574775e-01 1.212859e+00 1.305480e+00 1.351440e-01 1.079303e-01 6.013578e-02 1.567138e-01 2.505714e-01 2.533385e-01 3.514039e-01 4.670185e-01 1.397513e-01 2.749137e-01 2.143334e-01 1.409798e-01 2.506269e-01 4.340017e-02
<GCONST> 8.100154e+01
<TRANSP> 5
 0.000000e+00 1.000000e+00 0.000000e+00 0.000000e+00 0.000000e+00
 0.000000e+00 7.391821e-01 2.608179e-01 0.000000e+00 0.000000e+00
 0.000000e+00 0.000000e+00 7.932642e-01 2.067358e-01 0.000000e+00
 0.000000e+00 0.000000e+00 0.000000e+00 7.775952e-01 2.224048e-01
 0.000000e+00 0.000000e+00 0.000000e+00 0.000000e+00 0.000000e+00
<ENDHMM>
~h "fr"
<BEGINHMM>
<NUMSTATES> 5
<STATE> 2
<MEAN> 39
 -4.704510e+00 -1.103709e+00 -2.616500e-01 -5.726226e+00 -3.931308e+00 -3.382174e+00 -3.784538e+00 -5.278155e-01 -8.719915e-01 -8.440589e-01 -9.029119e-01 -2.999709e+00 5.348138e+01 3.453658e-03 -1.211672e-03 2.478141e-03 -2.587918e-03 1.180722e-03 -1.437788e-03 7.582301e-05 -8.767679e-04 -1.277914e-03 -1.967736e-03 -1.859193e-03 -1.121002e-03 1.006024e-02 -8.298113e-05 7.079283e-05 9.746225e-05 4.793386e-04 5.620109e-05 1.483774e-04 4.900038e-05 2.586535e-04 3.670288e-04 6.784983e-05 -9.429256e-05 1.335610e-04 -1.105432e-03
<VARIANCE> 39
