~o
<STREAMINFO> 1 39
<VECSIZE> 39<NULLD><MFCC_D_A_Z_0><DIAGC>
~h "proto"
<BEGINHMM>
<NUMSTATES> 5
<STATE> 2
<MEAN> 39
 1.036910e-08 -7.429724e-09 3.411060e-08 2.206934e-08 -3.902112e-09 6.145461e-09 6.531532e-09 2.633073e-09 1.019372e-08 6.491646e-09 8.988011e-10 -2.528091e-08 -1.295638e-07 3.453658e-03 -1.211672e-03 2.478141e-03 -2.587918e-03 1.180722e-03 -1.437788e-03 7.582301e-05 -8.767679e-04 -1.277914e-03 -1.967736e-03 -1.859193e-03 -1.121002e-03 1.006024e-02 -8.298113e-05 7.079283e-05 9.746225e-05 4.793386e-04 5.620109e-05 1.483774e-04 4.900038e-05 2.586535e-04 3.670288e-04 6.784983e-05 -9.429256e-05 1.335610e-04 -1.105432e-03
<VARIANCE> 39
 4.539408e+01 5.046627e+01 5.161306e+01 5.565681e+01 4.706133e+01 4.830912e+01 4.064808e+01 4.657745e+01 3.281387e+01 3.095273e+01 2.869560e+01 2.414902e+01 8.212817e+01 1.772591e+00 2.066407e+00 2.069771e+00 2.640792e+00 2.514299e+00 2.312440e+00 2.279269e+00 2.658525e+00 2.100943e+00 1.965783e+00 1.854149e+00 1.488415e+00 2.114969e+00 2.682002e-01 3.123998e-01 3.212786e-01 4.373820e-01 4.393006e-01 4.108190e-01 4.097324e-01 4.592709e-01 3.804689e-01 3.634385e-01 3.417788e-01 2.740677e-01 3.020167e-01
<GCONST> 1.168976e+02
<STATE> 3
<MEAN> 39
 1.036910e-08 -7.429724e-09 3.411060e-08 2.206934e-08 -3.902112e-09 6.145461e-09 6.531532e-09 2.633073e-09 1.019372e-08 6.491646e-09 8.988011e-10 -2.528091e-08 -1.295638e-07 3.453658e-03 -1.211672e-03 2.478141e-03 -2.587918e-03 1.180722e-03 -1.437788e-03 7.582301e-05 -8.767679e-04 -1.277914e-03 -1.967736e-03 -1.859193e-03 -1.121002e-03 1.006024e-02 -8.298113e-05 7.079283e-05 9.746225e-05 4.793386e-04 5.620109e-05 1.483774e-04 4.900038e-05 2.586535e-04 3.670288e-04 6.784983e-05 -9.429256e-05 1.335610e-04 -1.105432e-03
<VARIANCE> 39
 4.539408e+01 5.046627e+01 5.161306e+01 5.565681e+01 4.706133e+01 4.830912e+01 4.064808e+01 4.657745e+01 3.281387e+01 3.095273e+01 2.869560e+01 2.414902e+01 8.212817e+01 1.772591e+00 2.066407e+00 2.069771e+00 2.640792e+00 2.514299e+00 2.312440e+00 2.279269e+00 2.658525e+00 2.100943e+00 1.965783e+00 1.854149e+00 1.488415e+00 2.114969e+00 2.682002e-01 3.123998e-01 3.212786e-01 4.373820e-01 4.393006e-01 4.108190e-01 4.097324e-01 4.592709e-01 3.804689e-01 3.634385e-01 3.417788e-01 2.740677e-01 3.020167e-01
<GCONST> 1.168976e+02
<STATE> 4
<MEAN> 39
 1.036910e-08 -7.429724e-09 3.411060e-08 2.206934e-08 -3.902112e-09 6.145461e-09 6.531532e-09 2.633073e-09 1.019372e-08 6.491646e-09 8.988011e-10 -2.528091e-08 -1.295638e-07 3.453658e-03 -1.211672e-03 2.478141e-03 -2.587918e-03 1.180722e-03 -1.437788e-03 7.582301e-05 -8.767679e-04 -1.277914e-03 -1.967736e-03 -1.859193e-03 -1.121002e-03 1.006024e-02 -8.298113e-05 7.079283e-05 9.746225e-05 4.793386e-04 5.620109e-05 1.483774e-04 4.900038e-05 2.586535e-04 3.670288e-04 6.784983e-05 -9.429256e-05 1.335610e-04 -1.105432e-03
<VARIANCE> 39
 4.539408e+01 5.046627e+01 5.161306e+01 5.565681e+01 4.706133e+01 4.830912e+01 4.064808e+01 4.657745e+01 3.281387e+01 3.095273e+01 2.869560e+01 2.414902e+01 8.212817e+01 1.772591e+00 2.066407e+00 2.069771e+00 2.640792e+00 2.514299e+00 2.312440e+00 2.279269e+00 2.658525e+00 2.100943e+00 1.965783e+00 1.854149e+00 1.488415e+00 2.114969e+00 2.682002e-01 3.123998e-01 3.212786e-01 4.373820e-01 4.393006e-01 4.108190e-01 4.097324e-01 4.592709e-01 3.804689e-01 3.634385e-01 3.417788e-01 2.740677e-01 3.020167e-01
<GCONST> 1.168976e+02
<TRANSP> 5
 0.000000e+00 1.000000e+00 0.000000e+00 0.000000e+00 0.000000e+00
 0.000000e+00 6.000000e-01 4.000000e-01 0.000000e+00 0.000000e+00
 0.000000e+00 0.000000e+00 6.000000e-01 4.000000e-01 0.000000e+00
 0.000000e+00 0.000000e+00 0.000000e+00 7.000000e-01 3.000000e-01
 0.000000e+00 0.000000e+00 0.000000e+00 0.000000e+00 0.000000e+00
<ENDHMM>
