~o
<STREAMINFO> 1 39
<VECSIZE> 39<NULLD><MFCC_D_A_0><DIAGC>
~h "a"
<BEGINHMM>
<NUMSTATES> 5
<STATE> 2
<MEAN> 39
 -1.182171e+00 -9.245415e+00 -4.406726e+00 -1.118735e+01 -3.129559e+00 -3.944215e+00 -4.234740e+00 4.097617e+00 1.414456e+00 -1.677809e+00 -3.322750e+00 -6.950354e+00 6.316315e+01 1.713260e-01 -1.391367e+00 -3.870057e-01 -5.538914e-01 5.261878e-01 4.986813e-01 2.263340e-01 8.394186e-01 5.116015e-02 -4.950852e-01 -4.660716e-01 -4.537802e-01 9.851645e-01 -2.248927e-01 5.339147e-01 3.084701e-01 4.723103e-01 3.932983e-02 -5.551198e-02 -2.624997e-02 -4.546474e-01 -1.743045e-01 2.461047e-02 1.604580e-01 3.243225e-01 -6.006323e-01
<VARIANCE> 39
 1.801005e+01 4.278535e+01 5.272413e+01 5.301590e+01 6.375610e+01 5.775790e+01 5.171610e+01 5.629889e+01 5.388995e+01 4.481470e+01 3.919858e+01 3.778811e+01 3.732063e+01 1.088933e+00 2.136934e+00 2.054581e+00 2.699154e+00 2.869824e+00 2.802330e+00 2.796948e+00 3.091498e+00 2.416418e+00 2.533235e+00 2.246395e+00 2.045542e+00 1.460977e+00 2.546408e-01 3.558314e-01 3.084571e-01 4.295788e-01 5.435007e-01 4.527763e-01 4.797584e-01 5.960858e-01 4.760647e-01 4.478036e-01 4.251385e-01 3.832676e-01 2.593341e-01
<GCONST> 1.198869e+02
<STATE> 3
<MEAN> 39
 -2.186417e+00 -1.118590e+01 -3.714486e+00 -1.115839e+01 -1.498477e+00 -3.180351e+00 -2.708187e+00 3.423529e+00 -9.646034e-01 -3.329966e+00 -3.691967e+00 -5.469573e+00 6.365576e+01 8.941591e-02 2.123995e-01 1.449861e-01 2.798661e-01 2.960650e-02 -5.047723e-02 -4.951597e-02 -1.286953e-01 3.142218e-02 7.347108e-03 2.395970e-02 1.365357e-01 -3.796517e-01 1.320550e-02 3.685437e-01 1.466753e-01 1.687917e-01 -1.190332e-01 -1.048478e-01 -1.084584e-01 -1.925587e-01 3.315281e-02 1.313981e-01 9.489112e-02 9.598791e-02 -2.999015e-01
<VARIANCE> 39
 1.727291e+01 4.038861e+01 4.791585e+01 5.128686e+01 6.185762e+01 4.315468e+01 4.487847e+01 4.725326e+01 4.518967e+01 4.368340e+01 2.869138e+01 2.904421e+01 3.454035e+01 3.119175e-01 7.966495e-01 8.427410e-01 1.038062e+00 1.479776e+00 1.487545e+00 1.410694e+00 1.488680e+00 1.260352e+00 1.272649e+00 1.121103e+00 1.023863e+00 4.609499e-01 7.306369e-02 1.660304e-01 1.420732e-01 2.116181e-01 2.354238e-01 2.212137e-01 2.665705e-01 3.300984e-01 2.558916e-01 2.472600e-01 2.215953e-01 1.924844e-01 1.094149e-01
<GCONST> 9.784762e+01
<STATE> 4
<MEAN> 39
 -6.816449e-01 -6.880876e+00 -2.873476e+00 -8.562828e+00 -3.658860e+00 -4.347920e+00 -4.497688e+00 3.054039e+00 1.079915e+00 -1.531251e+00 -2.826820e+00 -5.531392e+00 5.953711e+01 2.489002e-02 1.418782e+00 6.306672e-01 1.051178e+00 1.202803e-02 2.998546e-02 -2.927034e-01 -8.464198e-01 -8.753895e-02 2.252038e-01 1.452755e-01 3.794968e-01 -1.605133e+00 -1.448481e-01 1.321122e-01 2.524571e-02 1.270677e-01 7.390088e-02 1.443370e-01 8.542918e-02 -1.431884e-01 -1.107616e-01 -7.413021e-02 -5.564654e-03 1.365996e-02 -1.642050e-01
<VARIANCE> 39
 1.418815e+01 3.711198e+01 5.219870e+01 4.735296e+01 6.111473e+01 5.644709e+01 4.719895e+01 4.776250e+01 4.638655e+01 4.452812e+01 3.547515e+01 3.384798e+01 3.982861e+01 7.424641e-01 1.122151e+00 1.446213e+00 1.604935e+00 1.993544e+00 1.988339e+00 2.081154e+00 2.739910e+00 2.187283e+00 1.860591e+00 1.733519e+00 1.340080e+00 8.752969e-01 1.234140e-01 2.187147e-01 2.333626e-01 2.807955e-01 3.629337e-01 3.755786e-01 3.483312e-01 4.541208e-01 3.450329e-01 3.369592e-01 3.147837e-01 2.538230e-01 1.614887e-01
<GCONST> 1.092456e+02
<TRANSP> 5
 0.000000e+00 1.000000e+00 0.000000e+00 0.000000e+00 0.000000e+00
 0.000000e+00 4.859868e-01 5.140132e-01 0.000000e+00 0.000000e+00
 0.000000e+00 0.000000e+00 7.144913e-01 2.855087e-01 0.000000e+00
 0.000000e+00 0.000000e+00 0.000000e+00 5.042379e-01 4.957620e-01
 0.000000e+00 0.000000e+00 0.000000e+00 0.000000e+00 0.000000e+00
<ENDHMM>
~h "b"
<BEGINHMM>
<NUMSTATES> 5
<STATE> 2
<MEAN> 39
 2.584711e-01 5.243388e+00 3.350633e+00 -1.899358e+00 -2.394109e+00 -1.363861e+00 -4.588981e+00 -3.550550e+00 -3.016029e+00 -1.415520e+00 -1.686820e+00 -3.814330e+00 5.047929e+01 8.144849e-02 7.302719e-01 1.492423e-01 5.207781e-01 3.958368e-01 3.482882e-01 4.378897e-01 -1.194893e-01 -1.660671e-01 -2.817364e-01 -2.591439e-01 3.748533e-02 -5.778571e-01 -6.952906e-02 -3.966702e-01 -1.597060e-01 -3.962828e-01 -2.778063e-01 -2.918219e-01 -2.642449e-01 6.997867e-02 8.373340e-02 1.349032e-01 2.283966e-01 -3.057406e-02 5.011565e-01
<VARIANCE> 39
 1.765073e+01 3.246040e+01 3.196944e+01 3.532432e+01 3.217806e+01 2.605240e+01 2.743068e+01 2.316305e+01 2.725723e+01 2.355524e+01 2.100111e+01 1.685401e+01 2.907739e+01 6.485947e-01 9.892004e-01 1.173579e+00 1.595654e+00 1.338783e+00 1.398159e+00 1.626768e+00 1.574745e+00 1.542993e+00 1.539971e+00 1.443501e+00 9.671270e-01 8.921604e-01 1.366163e-01 2.170548e-01 2.676479e-01 3.487968e-01 2.842417e-01 3.349086e-01 3.627481e-01 4.105252e-01 3.822310e-01 3.714357e-01 3.472647e-01 2.271975e-01 1.360525e-01
<GCONST> 1.001508e+02
<STATE> 3
<MEAN> 39
 4.132875e-01 6.244487e+00 2.787987e+00 -1.396535e+00 -2.273884e+00 -8.208470e-01 -4.391021e+00 -4.235532e+00 -3.960937e+00 -1.913533e+00 -1.822095e+00 -3.461034e+00 4.920613e+01 2.084193e-01 -1.017379e+00 -7.706809e-01 -1.208440e+00 -4.017766e-01 -9.106612e-01 -9.823690e-01 -9.324555e-02 2.114260e-01 7.150212e-01 8.609266e-01 -2.713189e-01 1.729503e+00 -1.410431e-01 -6.991934e-01 -2.035445e-01 -6.882688e-01 -3.659390e-01 -3.585989e-01 -3.455043e-01 2.649457e-01 3.151196e-01 3.945112e-01 1.761862e-01 -1.578503e-01 7.187890e-01
<VARIANCE> 39
 3.346009e+01 3.747158e+01 3.480497e+01 3.974287e+01 3.533513e+01 3.217316e+01 3.243376e+01 2.966257e+01 3.105468e+01 3.141044e+01 2.790508e+01 2.103730e+01 4.815413e+01 2.335185e+00 3.046897e+00 3.252057e+00 4.360728e+00 2.797764e+00 3.514977e+00 3.134974e+00 3.246879e+00 3.677405e+00 3.287185e+00 3.350440e+00 2.321877e+00 1.968577e+00 2.950562e-01 4.610779e-01 4.684598e-01 5.358653e-01 4.719853e-01 4.946988e-01 5.240431e-01 6.526521e-01 6.540455e-01 5.407338e-01 5.569364e-01 4.217372e-01 2.596757e-01
<GCONST> 1.217813e+02
<STATE> 4
<MEAN> 39
 8.852413e-01 -1.356068e-02 -5.501906e-01 -8.178323e+00 -3.957025e+00 -4.081827e+00 -8.758467e+00 -3.565896e+00 -1.571439e+00 2.628546e+00 1.935012e+00 -5.889163e+00 5.756997e+01 -3.969323e-01 -2.181211e+00 -7.558721e-01 -2.048549e+00 -1.007027e+00 -1.072706e+00 -8.219311e-01 1.318441e+00 1.146816e+00 1.017362e+00 2.627100e-01 -8.023575e-01 2.421737e+00 -1.653594e-01 1.422783e-01 4.036601e-01 2.805662e-01 -1.542181e-02 1.488757e-01 4.350991e-01 2.580863e-01 -7.748612e-02 -4.029701e-01 -4.697951e-01 1.506547e-01 -2.737990e-01
<VARIANCE> 39
 1.866666e+01 3.483272e+01 3.070678e+01 6.832942e+01 3.798753e+01 4.792669e+01 4.068497e+01 4.239338e+01 5.307934e+01 4.985419e+01 4.661224e+01 3.510681e+01 3.507711e+01 1.734559e+00 3.545530e+00 4.107033e+00 5.107941e+00 3.510244e+00 4.036079e+00 4.569032e+00 5.375772e+00 5.727904e+00 4.977130e+00 4.935752e+00 3.900035e+00 2.199483e+00 2.045306e-01 4.505233e-01 3.030679e-01 8.349190e-01 5.092834e-01 5.694438e-01 6.038005e-01 5.796437e-01 5.782376e-01 6.923347e-01 6.489904e-01 4.889834e-01 3.288401e-01
<GCONST> 1.281881e+02
<TRANSP> 5
 0.000000e+00 1.000000e+00 0.000000e+00 0.000000e+00 0.000000e+00
 0.000000e+00 6.552783e-01 3.447217e-01 0.000000e+00 0.000000e+00
 0.000000e+00 0.000000e+00 4.647679e-01 5.352321e-01 0.000000e+00
 0.000000e+00 0.000000e+00 0.000000e+00 3.782179e-01 6.217821e-01
 0.000000e+00 0.000000e+00 0.000000e+00 0.000000e+00 0.000000e+00
<ENDHMM>
~h "c"
<BEGINHMM>
<NUMSTATES> 5
<STATE> 2
<MEAN> 39
 -6.991933e+00 4.164348e+00 1.859681e+00 -2.268602e+00 -4.393753e+00 -6.122208e+00 -2.571041e+00 -1.304501e+00 -5.695800e-01 -1.649967e+00 -1.283892e+00 -1.745157e+00 4.929465e+01 -2.100787e+00 2.285204e-01 -8.078993e-01 -2.396467e-01 5.969483e-01 1.055531e-01 3.305690e-01 -2.768460e-01 2.050298e-01 -1.556892e-01 2.410653e-01 8.287686e-02 -1.844805e-01 -3.667799e-01 -7.102345e-02 -7.314713e-02 -3.398938e-01 -1.255576e-01 -1.942654e-01 2.407734e-02 3.022701e-02 4.221226e-02 -5.902929e-02 1.211565e-01 4.273955e-02 7.471201e-01
<VARIANCE> 39
 2.503224e+01 3.308994e+01 3.319553e+01 3.417900e+01 3.584270e+01 4.298259e+01 2.552980e+01 2.947943e+01 2.776287e+01 2.516879e+01 1.935018e+01 1.987567e+01 3.699335e+01 2.948611e+00 2.468395e+00 2.573705e+00 2.840908e+00 2.186991e+00 2.550444e+00 2.165679e+00 2.095509e+00 2.018994e+00 1.917769e+00 1.659524e+00 1.299662e+00 3.945776e+00 4.815492e-01 3.665708e-01 4.235585e-01 3.910039e-01 3.774232e-01 4.886858e-01 3.720418e-01 4.460635e-01 4.260758e-01 3.251702e-01 3.132905e-01 2.531219e-01 3.872071e-01
<GCONST> 1.137283e+02
<STATE> 3
<MEAN> 39
 -1.877143e+01 5.002902e+00 -1.694741e-01 -5.684767e+00 -2.510303e+00 -7.286369e+00 -5.168923e-01 -2.153758e+00 2.088022e-01 -2.458394e+00 7.559902e-01 -1.234393e+00 5.562403e+01 2.382093e-01 -5.538849e-01 1.461767e-01 -4.554462e-01 -1.043302e+00 -8.943499e-01 1.781907e-01 6.476448e-01 1.741839e-01 -3.036232e-01 1.292144e-01 1.703176e-01 1.771616e+00 1.847836e+00 -6.654702e-01 1.337255e-01 9.297624e-02 -4.847611e-01 -5.526628e-02 -3.138949e-01 3.831292e-01 -2.632497e-02 5.705855e-02 -3.321794e-01 -2.105050e-01 -7.712307e-02
<VARIANCE> 39
 2.137926e+01 1.869807e+01 3.647996e+01 2.980578e+01 3.305966e+01 3.580689e+01 3.520628e+01 2.569011e+01 3.151031e+01 3.308174e+01 1.937919e+01 2.099894e+01 2.437481e+01 1.094136e+01 2.800773e+00 2.896595e+00 2.915745e+00 3.397907e+00 2.618762e+00 2.719406e+00 3.053508e+00 2.561735e+00 2.243329e+00 2.156825e+00 1.774075e+00 2.136391e+00 5.048481e-01 6.490799e-01 7.027418e-01 6.501343e-01 6.609676e-01 5.473596e-01 4.955414e-01 5.980552e-01 5.142894e-01 5.443678e-01 4.028512e-01 3.885211e-01 3.627838e-01
<GCONST> 1.201296e+02
<STATE> 4
<MEAN> 39
 -6.060462e+00 -3.103988e-01 1.124253e-01 -6.157423e+00 -8.463729e+00 -1.112164e+01 -1.234368e+00 2.565718e+00 8.843226e-01 -3.330893e+00 -1.817149e+00 -1.981235e+00 6.053769e+01 3.800192e+00 -2.777107e+00 -8.549283e-01 -8.988931e-01 -8.133692e-01 1.185627e-01 -5.304670e-01 1.715840e+00 3.243397e-01 -2.930482e-03 -9.438041e-01 -9.746423e-01 1.738017e+00 -5.070570e-01 -1.042743e-01 -3.425727e-01 -1.387474e-01 7.704615e-01 6.433162e-01 -5.407209e-02 -2.180204e-01 -7.604198e-02 1.189840e-01 2.170802e-02 -2.166381e-01 -2.665405e-01
<VARIANCE> 39
 2.712456e+01 3.096046e+01 4.401573e+01 2.815436e+01 3.899775e+01 2.706193e+01 4.382025e+01 3.460252e+01 2.492575e+01 2.878573e+01 1.656365e+01 1.248686e+01 3.891136e+01 2.609694e+00 3.595607e+00 3.290567e+00 3.093877e+00 4.545087e+00 3.062091e+00 2.957844e+00 4.394092e+00 2.460921e+00 3.586680e+00 2.037294e+00 1.941712e+00 1.406952e+00 6.999269e-01 4.567752e-01 4.067722e-01 3.905579e-01 4.665436e-01 4.043014e-01 3.437307e-01 5.068040e-01 3.989422e-01 4.548275e-01 4.221508e-01 3.126059e-01 2.773913e-01
<GCONST> 1.176291e+02
<TRANSP> 5
 0.000000e+00 1.000000e+00 0.000000e+00 0.000000e+00 0.000000e+00
 0.000000e+00 7.518047e-01 2.481953e-01 0.000000e+00 0.000000e+00
 0.000000e+00 0.000000e+00 6.960121e-01 3.039878e-01 0.000000e+00
 0.000000e+00 0.000000e+00 0.000000e+00 5.529255e-01 4.470745e-01
 0.000000e+00 0.000000e+00 0.000000e+00 0.000000e+00 0.000000e+00
<ENDHMM>
~h "d"
<BEGINHMM>
<NUMSTATES> 5
<STATE> 2
<MEAN> 39
 -5.715271e+00 1.057964e+00 1.918768e+00 -3.680941e-01 -3.044184e+00 -2.829776e+00 -2.197063e+00 2.172176e-01 -6.842058e-01 -1.774513e+00 -1.195645e+00 -1.701649e+00 4.605865e+01 1.391224e-02 5.641233e-01 2.034038e-01 4.226199e-01 3.300633e-01 1.624127e-01 1.491840e-01 -5.045673e-02 -7.225391e-02 -1.135908e-01 -1.978739e-01 -4.367369e-02 -5.052324e-01 -6.401064e-02 -2.251054e-01 1.996451e-02 -2.454776e-01 -1.855817e-01 -1.800618e-01 -6.254985e-02 6.620339e-02 -1.771515e-02 8.060073e-03 1.292585e-01 4.193081e-02 3.595255e-01
<VARIANCE> 39
 5.482856e+01 4.576126e+01 4.143401e+01 3.860257e+01 5.081842e+01 4.508578e+01 4.315365e+01 3.667116e+01 2.978169e+01 2.885503e+01 2.629398e+01 2.250492e+01 8.039221e+01 8.225707e-01 1.463393e+00 1.182513e+00 1.473835e+00 1.706967e+00 1.776042e+00 1.674062e+00 1.902678e+00 1.584280e+00 1.553780e+00 1.446427e+00 1.111303e+00 1.031730e+00 1.746414e-01 3.245957e-01 2.308294e-01 3.349438e-01 3.609336e-01 3.788290e-01 3.466059e-01 4.260248e-01 3.314314e-01 3.407902e-01 3.214672e-01 2.316427e-01 2.303316e-01
<GCONST> 1.083482e+02
<STATE> 3
<MEAN> 39
 3.912659e-01 4.570621e+00 5.441469e+00 2.880680e-02 -4.461556e+00 -4.945580e+00 -4.911221e+00 -1.044912e+00 -1.053650e+00 -3.415104e+00 -3.893233e+00 -3.313463e+00 5.095126e+01 -2.467339e-01 -9.933064e-01 5.712619e-01 -8.493623e-01 -7.798011e-01 -1.230192e+00 -4.255928e-01 4.123725e-01 -1.808815e-02 -1.609055e-01 6.219816e-01 4.773408e-01 1.645335e+00 -2.627675e-01 -7.560121e-01 -1.256710e-01 -7.890255e-01 -6.401206e-01 -4.119407e-01 -2.003151e-01 2.823649e-01 1.406638e-01 2.249271e-01 4.246502e-01 8.003281e-02 8.494835e-01
<VARIANCE> 39
 2.069020e+01 5.186397e+01 3.253740e+01 3.678574e+01 4.470436e+01 3.079377e+01 3.221158e+01 3.110878e+01 2.773304e+01 2.793440e+01 2.573913e+01 1.955809e+01 4.051434e+01 2.744269e+00 4.414368e+00 2.641100e+00 3.342218e+00 4.292727e+00 3.580235e+00 3.298215e+00 4.746533e+00 2.885692e+00 2.826850e+00 2.758821e+00 2.047881e+00 2.413918e+00 3.253980e-01 5.857821e-01 4.519763e-01 5.103976e-01 6.584258e-01 5.526993e-01 5.869232e-01 7.901912e-01 5.349822e-01 4.843608e-01 4.761922e-01 3.850459e-01 2.800303e-01
<GCONST> 1.220999e+02
<STATE> 4
<MEAN> 39
 -1.656265e+00 -3.145375e+00 5.813362e+00 -6.142139e+00 -9.784262e+00 -1.142796e+01 -7.108032e+00 2.954959e+00 6.006729e-01 -2.747241e+00 2.476109e-01 -1.092404e+00 6.023701e+01 -5.280335e-01 -1.567342e+00 -5.212496e-01 -2.075660e+00 -1.587599e+00 -9.873282e-01 -5.494170e-02 1.421322e+00 5.370812e-01 5.870411e-01 7.879916e-01 -3.307700e-01 2.302819e+00 1.250556e-01 3.819536e-01 -2.689494e-01 8.705006e-02 3.755969e-01 6.748213e-01 2.602063e-01 -1.699307e-01 -9.298939e-02 6.511328e-02 -3.549120e-01 -4.378800e-01 -4.086057e-01
<VARIANCE> 39
 1.736493e+01 3.627408e+01 3.411918e+01 4.557866e+01 5.201123e+01 3.880325e+01 5.478163e+01 6.309062e+01 4.703828e+01 3.611662e+01 2.516571e+01 2.304636e+01 3.309939e+01 1.542058e+00 3.601386e+00 3.933412e+00 3.289116e+00 4.089510e+00 3.575798e+00 4.518213e+00 5.969821e+00 3.838825e+00 2.977218e+00 3.473372e+00 2.578423e+00 1.962477e+00 1.482326e-01 4.200506e-01 3.451868e-01 6.158736e-01 8.119800e-01 5.875462e-01 6.361633e-01 7.129289e-01 4.830145e-01 5.127108e-01 4.427677e-01 3.563114e-01 2.838133e-01
<GCONST> 1.237275e+02
<TRANSP> 5
 0.000000e+00 1.000000e+00 0.000000e+00 0.000000e+00 0.000000e+00
 0.000000e+00 7.025771e-01 2.974229e-01 0.000000e+00 0.000000e+00
 0.000000e+00 0.000000e+00 5.282832e-01 4.717169e-01 0.000000e+00
 0.000000e+00 0.000000e+00 0.000000e+00 4.790159e-01 5.209841e-01
 0.000000e+00 0.000000e+00 0.000000e+00 0.000000e+00 0.000000e+00
<ENDHMM>
~h "e"
<BEGINHMM>
<NUMSTATES> 5
<STATE> 2
<MEAN> 39
 -1.546784e+00 -2.285287e+00 -1.441834e+00 -8.752307e+00 -5.431977e+00 -6.699528e+00 -6.759633e+00 -2.597445e-01 7.206555e-01 4.817680e-01 -4.353875e-01 -4.062492e+00 5.944186e+01 1.327217e+00 -8.586447e-01 1.265465e-01 -1.218788e+00 -8.393561e-01 -2.421828e-01 -8.188072e-01 7.046252e-01 3.451918e-01 3.585676e-01 -2.035075e-02 -4.911073e-01 1.492901e+00 -3.443595e-01 3.051221e-01 2.143239e-01 4.730732e-01 2.231230e-01 2.919026e-01 2.621612e-01 -1.723327e-01 -1.816575e-01 -1.470148e-01 -4.510612e-02 1.129325e-01 -6.597868e-01
<VARIANCE> 39
 3.390263e+01 4.332686e+01 5.246413e+01 6.104836e+01 6.300799e+01 7.181113e+01 4.946464e+01 5.529509e+01 5.255546e+01 4.945693e+01 4.020324e+01 2.698580e+01 4.876760e+01 3.683229e+00 3.129959e+00 3.159274e+00 4.003558e+00 4.262258e+00 4.348850e+00 4.576129e+00 4.663365e+00 4.283376e+00 3.477257e+00 3.057109e+00 2.336563e+00 1.909858e+00 4.968280e-01 5.074602e-01 5.394120e-01 6.955960e-01 6.238436e-01 6.507972e-01 6.892791e-01 6.877059e-01 6.679062e-01 5.898686e-01 5.411185e-01 3.932894e-01 4.518046e-01
<GCONST> 1.311093e+02
<STATE> 3
<MEAN> 39
 -8.129826e-01 -3.634264e+00 -1.190304e+00 -9.870513e+00 -6.098219e+00 -6.937031e+00 -7.271005e+00 1.193457e+00 1.006989e+00 7.994868e-01 -3.804690e-01 -4.453467e+00 6.101682e+01 4.395353e-01 2.195625e-02 4.714529e-01 1.174211e-01 -2.359439e-01 1.451249e-01 -9.394421e-02 6.290644e-02 -1.169884e-01 -2.439499e-03 -5.723693e-02 -3.976991e-02 -1.096821e-01 -4.393573e-01 5.222577e-01 1.864974e-01 7.084261e-01 3.477801e-01 2.508820e-01 3.566658e-01 -4.118997e-01 -2.155914e-01 -2.257285e-01 -4.991103e-02 2.000555e-01 -8.277339e-01
<VARIANCE> 39
 2.632945e+01 4.349579e+01 5.648648e+01 6.218169e+01 6.765582e+01 6.989930e+01 5.357072e+01 5.850076e+01 5.890524e+01 5.501856e+01 4.432403e+01 2.950756e+01 3.580056e+01 1.233187e+00 1.648808e+00 1.672328e+00 2.690897e+00 2.505398e+00 2.721699e+00 2.404793e+00 2.657494e+00 2.399841e+00 2.175045e+00 1.974051e+00 1.510056e+00 1.064339e+00 4.706589e-01 4.460946e-01 5.275891e-01 6.049597e-01 6.855556e-01 6.591789e-01 7.228795e-01 7.593539e-01 6.940688e-01 6.253944e-01 5.705828e-01 3.864273e-01 2.594466e-01
<GCONST> 1.232366e+02
<STATE> 4
<MEAN> 39
 -1.441105e+00 -3.343105e+00 1.158042e+00 -9.059750e+00 -7.817730e+00 -7.075076e+00 -5.302984e+00 5.223810e-01 -9.855138e-01 -1.994309e-01 -4.015412e-01 -3.732969e+00 5.980282e+01 1.596945e-02 6.808321e-01 3.655577e-01 8.835438e-01 3.381237e-01 3.318633e-01 1.526186e-01 -3.799844e-01 -1.361503e-01 -1.968002e-01 -1.827703e-01 1.362066e-01 -1.053158e+00 -1.961246e-01 2.026814e-01 -6.070878e-03 2.586363e-01 1.508732e-01 9.831038e-02 1.033257e-01 -1.525399e-01 -1.541415e-02 -5.853676e-02 -2.740354e-02 5.184652e-02 -3.156934e-01
<VARIANCE> 39
 2.197800e+01 4.146652e+01 5.825727e+01 6.079390e+01 8.563919e+01 6.473186e+01 5.059779e+01 4.994007e+01 4.947032e+01 4.730824e+01 4.915412e+01 2.523620e+01 3.550790e+01 8.550854e-01 1.474756e+00 1.530041e+00 2.050808e+00 1.923369e+00 1.989938e+00 2.143968e+00 2.406733e+00 2.081061e+00 1.786690e+00 1.718926e+00 1.209578e+00 1.258796e+00 2.222731e-01 2.343494e-01 2.749093e-01 3.670272e-01 4.022924e-01 4.084908e-01 4.188141e-01 4.451453e-01 3.978552e-01 3.529410e-01 3.457941e-01 2.433415e-01 1.452416e-01
<GCONST> 1.131030e+02
<TRANSP> 5
 0.000000e+00 1.000000e+00 0.000000e+00 0.000000e+00 0.000000e+00
 0.000000e+00 2.264819e-01 7.735181e-01 0.000000e+00 0.000000e+00
 0.000000e+00 0.000000e+00 1.439264e-01 8.560736e-01 0.000000e+00
 0.000000e+00 0.000000e+00 0.000000e+00 4.979500e-01 5.020500e-01
 0.000000e+00 0.000000e+00 0.000000e+00 0.000000e+00 0.000000e+00
<ENDHMM>
~h "f"
<BEGINHMM>
<NUMSTATES> 5
<STATE> 2
<MEAN> 39
 -7.420806e+00 1.376596e+00 1.501971e-01 -1.270097e+00 -3.064018e+00 -3.739909e+00 -4.412623e+00 -2.050820e+00 -5.142545e-01 -1.352684e+00 -2.129744e-01 -2.778973e+00 5.304779e+01 -2.333913e+00 -7.614862e-02 -1.169629e+00 1.316827e+00 4.356184e-01 -5.930495e-01 1.650807e-01 6.633794e-02 3.774844e-01 2.158624e-01 7.885514e-02 3.968560e-01 -5.397459e-01 7.697322e-02 -2.177097e-01 5.384169e-02 -2.662376e-01 -3.578051e-01 -1.346961e-01 -7.705283e-02 -5.721413e-02 -5.849872e-02 3.410478e-02 3.705756e-03 -9.966998e-02 1.576266e-01
<VARIANCE> 39
 2.639785e+01 2.421143e+01 5.522905e+01 3.938441e+01 5.398474e+01 6.151111e+01 4.014305e+01 2.852249e+01 3.008965e+01 2.348869e+01 2.438573e+01 2.047599e+01 2.488049e+01 1.218216e+00 1.953209e+00 2.958786e+00 2.156323e+00 4.365284e+00 2.681297e+00 2.849952e+00 2.483743e+00 2.003178e+00 2.266258e+00 1.388094e+00 1.460449e+00 7.284725e-01 3.635726e-01 2.457411e-01 3.501814e-01 3.575772e-01 4.591104e-01 4.063213e-01 3.200271e-01 3.764180e-01 3.628057e-01 3.619562e-01 1.976158e-01 2.888208e-01 1.066162e-01
<GCONST> 1.105807e+02
<STATE> 3
<MEAN> 39
 -1.219932e+01 -1.544066e+00 -3.540455e+00 1.163673e+00 -1.935429e+00 -1.869554e+00 -2.073897e+00 7.015128e-01 8.886188e-02 -1.056377e+00 5.842314e-01 -1.410900e+00 4.484323e+01 -3.535196e-01 -1.089547e-01 -8.262825e-02 1.238510e-01 -3.678832e-02 -1.518845e-02 1.287242e-01 1.421796e-02 1.038076e-02 1.022136e-01 6.436332e-02 1.311009e-01 -2.732320e-01 2.956038e-01 -9.614877e-03 1.153786e-01 -1.687106e-01 -4.363415e-02 9.803224e-02 1.824786e-02 -2.501632e-02 -9.487616e-02 -2.850519e-02 -1.965586e-02 -3.735600e-02 4.154067e-02
<VARIANCE> 39
 1.598112e+01 2.341843e+01 2.646937e+01 3.631573e+01 2.997524e+01 3.515964e+01 3.524114e+01 3.756266e+01 2.221627e+01 2.236240e+01 1.848001e+01 1.317497e+01 8.538679e+01 6.869309e-01 7.904876e-01 9.963545e-01 1.068544e+00 1.136607e+00 1.327116e+00 1.530001e+00 1.482800e+00 1.382102e+00 1.187517e+00 9.763415e-01 8.948061e-01 5.878145e-01 2.490829e-01 1.801500e-01 2.526554e-01 2.568313e-01 2.892405e-01 2.940925e-01 3.444642e-01 3.346718e-01 3.083337e-01 2.600068e-01 1.976778e-01 1.778836e-01 1.022919e-01
<GCONST> 9.666559e+01
<STATE> 4
<MEAN> 39
 -1.224633e+01 -8.621734e-01 -1.653822e+00 4.519268e-01 -3.914216e+00 -4.261985e+00 -3.007127e+00 -2.308805e+00 1.782102e-02 -2.849647e-01 -4.864624e-01 -2.127340e+00 5.137226e+01 2.002591e+00 1.452260e-01 6.587612e-01 -1.507848e+00 -9.675679e-01 2.946005e-01 -2.079729e-02 -6.749738e-01 -9.759999e-01 -5.510835e-02 6.355407e-02 -3.530142e-01 7.105733e-01 8.254667e-01 2.431616e-01 3.571771e-01 -8.630015e-01 -4.229855e-01 1.316231e-01 -1.956471e-01 -1.608789e-01 -3.253882e-01 4.995675e-02 1.339742e-01 -2.342638e-01 5.130988e-01
<VARIANCE> 39
 2.194560e+01 1.789182e+01 4.458468e+01 3.628210e+01 4.509315e+01 3.929193e+01 4.178516e+01 2.645280e+01 2.490557e+01 1.819551e+01 1.889242e+01 1.815738e+01 3.485219e+01 3.317528e+00 3.248818e+00 5.380980e+00 5.198187e+00 3.343442e+00 3.824749e+00 2.511222e+00 3.030390e+00 2.906498e+00 1.804943e+00 1.985058e+00 1.917263e+00 3.118294e+00 4.111421e-01 5.065278e-01 7.064548e-01 8.107419e-01 6.459883e-01 5.327395e-01 5.278168e-01 5.237482e-01 4.852344e-01 3.017490e-01 3.202989e-01 4.166847e-01 2.426315e-01
<GCONST> 1.196195e+02
<TRANSP> 5
 0.000000e+00 1.000000e+00 0.000000e+00 0.000000e+00 0.000000e+00
 0.000000e+00 6.251292e-01 3.748708e-01 0.000000e+00 0.000000e+00
 0.000000e+00 0.000000e+00 8.162426e-01 1.837574e-01 0.000000e+00
 0.000000e+00 0.000000e+00 0.000000e+00 6.012415e-01 3.987584e-01
 0.000000e+00 0.000000e+00 0.000000e+00 0.000000e+00 0.000000e+00
<ENDHMM>
~h "g"
<BEGINHMM>
<NUMSTATES> 5
<STATE> 2
<MEAN> 39
 -8.162884e-02 4.882256e+00 3.748058e+00 -2.432148e+00 -5.361001e+00 -4.506955e+00 -5.580564e+00 -2.579108e+00 -2.442104e+00 -8.771647e-01 -2.711419e+00 -3.255088e+00 5.098444e+01 -1.808693e-01 7.747742e-01 2.551405e-01 6.959329e-01 3.988401e-01 5.407440e-01 3.450438e-01 -1.250673e-01 -9.522944e-03 -3.015910e-01 -3.319578e-01 1.909241e-02 -9.824052e-01 -1.848534e-01 -3.867726e-01 -1.135574e-01 -3.585793e-01 -1.669385e-02 -2.467584e-01 -1.171822e-01 1.598408e-01 1.363659e-03 9.520263e-02 1.189070e-01 1.687258e-02 5.071623e-01
<VARIANCE> 39
 1.222280e+01 3.735125e+01 2.874821e+01 3.762561e+01 4.471190e+01 3.346896e+01 3.514437e+01 2.786185e+01 2.042135e+01 2.796479e+01 2.817360e+01 2.530651e+01 2.696580e+01 5.731555e-01 8.561726e-01 1.179121e+00 1.664113e+00 1.870232e+00 1.804536e+00 1.878621e+00 1.920566e+00 1.809814e+00 1.792024e+00 1.689534e+00 1.386062e+00 8.654439e-01 1.447817e-01 1.996574e-01 3.043489e-01 3.187948e-01 5.249878e-01 4.465494e-01 4.229392e-01 4.553687e-01 4.111593e-01 3.725095e-01 3.410676e-01 2.929750e-01 1.552749e-01
<GCONST> 1.045245e+02
<STATE> 3
<MEAN> 39
 -1.434244e+00 5.568428e+00 3.324889e+00 -1.406750e+00 -4.313813e+00 -4.047332e+00 -5.390274e+00 -2.522862e+00 -2.524256e+00 -1.065111e+00 -3.281421e+00 -3.264545e+00 4.959943e+01 -8.874665e-01 -8.920388e-01 -1.358721e-01 -5.772794e-01 6.597924e-01 -1.035548e+00 -1.606496e-01 2.204086e-01 -4.457857e-01 2.874742e-01 1.257486e-01 2.790211e-01 1.334769e+00 -3.478442e-02 -3.952180e-01 6.992543e-02 -6.238126e-01 -3.984394e-01 -4.336902e-01 -2.427591e-01 4.402196e-02 -4.556908e-02 1.688367e-01 2.205009e-01 7.590662e-02 7.191948e-01
<VARIANCE> 39
 2.380819e+01 3.955954e+01 3.871903e+01 4.446131e+01 4.868590e+01 3.736572e+01 3.706390e+01 2.971169e+01 2.533845e+01 3.101628e+01 2.573754e+01 2.086864e+01 4.023724e+01 2.072686e+00 3.406742e+00 3.792260e+00 3.781097e+00 5.862232e+00 4.309109e+00 3.883249e+00 3.944154e+00 2.943676e+00 2.979234e+00 2.688696e+00 1.952378e+00 1.575500e+00 3.006751e-01 4.486495e-01 4.514120e-01 5.070420e-01 8.268340e-01 5.258624e-01 5.073460e-01 6.387614e-01 4.642723e-01 5.036736e-01 4.997471e-01 3.347867e-01 2.320961e-01
<GCONST> 1.218548e+02
<STATE> 4
<MEAN> 39
 -2.891079e+00 5.335091e-01 2.995611e+00 -5.690788e+00 -5.193899e+00 -1.074211e+01 -7.565702e+00 -4.775465e-01 -3.418362e+00 1.154038e+00 -1.859232e+00 -2.383616e+00 5.745065e+01 -3.488694e-02 -1.035049e+00 1.858291e-01 -1.840777e+00 -1.746334e+00 -9.175971e-01 -1.813598e-01 9.324985e-01 2.653935e-01 2.956051e-01 5.990777e-01 -1.304787e-01 1.874943e+00 2.693880e-01 3.552558e-02 -3.700430e-02 -4.506369e-02 -2.463061e-01 5.480999e-01 2.129968e-01 1.497991e-02 2.219013e-01 -2.495971e-01 -8.248067e-03 -2.529052e-01 -2.147755e-01
<VARIANCE> 39
 2.358889e+01 3.386674e+01 5.576490e+01 5.615287e+01 7.005958e+01 5.212205e+01 5.347772e+01 4.016079e+01 3.632045e+01 4.252655e+01 5.376805e+01 3.413095e+01 3.439826e+01 1.426847e+00 2.810661e+00 3.185266e+00 3.378665e+00 5.078461e+00 3.832409e+00 3.547286e+00 4.146218e+00 3.872727e+00 3.295958e+00 3.378108e+00 2.522740e+00 1.273894e+00 2.342762e-01 4.793299e-01 4.843472e-01 6.439636e-01 1.387341e+00 6.861734e-01 7.342935e-01 6.015803e-01 5.404715e-01 6.367486e-01 5.194774e-01 4.143516e-01 2.073004e-01
<GCONST> 1.266391e+02
<TRANSP> 5
 0.000000e+00 1.000000e+00 0.000000e+00 0.000000e+00 0.000000e+00
 0.000000e+00 6.398361e-01 3.601639e-01 0.000000e+00 0.000000e+00
 0.000000e+00 0.000000e+00 5.077811e-01 4.922189e-01 0.000000e+00
 0.000000e+00 0.000000e+00 0.000000e+00 5.475809e-01 4.524191e-01
 0.000000e+00 0.000000e+00 0.000000e+00 0.000000e+00 0.000000e+00
<ENDHMM>
~h "h"
<BEGINHMM>
<NUMSTATES> 5
<STATE> 2
<MEAN> 39
 -3.700887e+00 -3.805634e+00 -1.619244e+00 -7.180548e+00 -1.868224e+00 -1.917977e+00 -2.354399e+00 -1.395473e+00 -1.703918e+00 -3.044813e+00 -3.247563e+00 -3.784950e+00 5.810931e+01 -4.802759e-01 6.015867e-02 -6.345886e-03 9.144688e-01 8.756365e-01 3.855147e-01 5.918040e-01 1.031883e-01 1.055439e-01 -1.648120e-01 7.317294e-03 2.604864e-01 -6.702333e-01 5.459241e-03 -8.560347e-02 -3.840029e-02 -1.364576e-01 -1.340605e-01 -6.876638e-02 -9.244923e-02 3.988713e-02 2.847975e-02 8.440814e-02 6.590223e-02 -4.169008e-02 3.118040e-02
<VARIANCE> 39
 1.831386e+01 4.660089e+01 5.585744e+01 4.890246e+01 7.139413e+01 5.178351e+01 5.058551e+01 5.770950e+01 6.133567e+01 5.234726e+01 3.437766e+01 2.548795e+01 3.591468e+01 1.069702e+00 1.891991e+00 2.138350e+00 1.848715e+00 2.430400e+00 2.174944e+00 2.440957e+00 2.677665e+00 2.120172e+00 2.023437e+00 1.817460e+00 1.356265e+00 1.052116e+00 1.112345e-01 1.818857e-01 2.019643e-01 2.723444e-01 3.403255e-01 3.538311e-01 3.851107e-01 3.739347e-01 3.639820e-01 3.293746e-01 2.705847e-01 2.278156e-01 9.181141e-02
<GCONST> 1.108446e+02
<STATE> 3
<MEAN> 39
 -5.464373e+00 -4.653018e+00 -1.446216e+00 -4.795224e+00 1.365808e+00 -8.999550e-01 -7.343284e-01 4.658797e-02 8.324067e-01 -1.792652e+00 -2.193880e+00 -2.788321e+00 5.667516e+01 -7.388224e-03 -9.915031e-04 -2.110560e-01 3.370213e-01 1.786912e-01 2.190652e-01 1.244567e-01 -1.152131e-01 -9.772769e-02 -7.360724e-02 -4.863748e-02 -2.866082e-03 -3.091921e-01 2.482028e-01 2.780915e-02 -7.790811e-02 -3.001139e-01 -3.633105e-01 -1.135509e-01 -1.940058e-01 -6.927472e-02 -1.163034e-01 2.816809e-02 -3.619598e-05 -1.201198e-01 1.459179e-01
<VARIANCE> 39
 2.600537e+01 5.245708e+01 5.187838e+01 4.819421e+01 6.245459e+01 5.292741e+01 4.772987e+01 4.778808e+01 4.114800e+01 3.886535e+01 2.890830e+01 2.706827e+01 3.780946e+01 1.608617e+00 1.990974e+00 1.914231e+00 1.865475e+00 2.478751e+00 2.122245e+00 2.057924e+00 2.515284e+00 1.894462e+00 1.938701e+00 1.700952e+00 1.425742e+00 1.825205e+00 2.375800e-01 3.167398e-01 3.612718e-01 3.641872e-01 4.119179e-01 3.653307e-01 4.043696e-01 4.217266e-01 3.622272e-01 3.317962e-01 3.219622e-01 2.635884e-01 1.620948e-01
<GCONST> 1.140745e+02
<STATE> 4
<MEAN> 39
 -6.040246e+00 -5.215907e+00 -3.832121e+00 -3.160303e+00 -3.116426e-01 8.531768e-01 3.820553e-01 6.301023e-02 -9.112292e-01 -2.710497e+00 -2.040130e+00 -1.881441e+00 5.275713e+01 1.601120e-01 7.266570e-02 -1.429926e-01 -7.133472e-02 -2.582446e-01 -5.717377e-02 -9.609147e-02 3.893740e-02 -6.966315e-02 4.137135e-02 3.080575e-02 -7.628131e-04 -2.066458e-01 3.035799e-02 -3.247707e-02 9.736778e-03 -9.702611e-02 -8.136727e-02 -5.756449e-02 -5.834007e-02 2.714624e-02 -1.068414e-02 9.345826e-03 8.194609e-03 -2.702564e-02 9.364828e-02
<VARIANCE> 39
 2.998653e+01 4.106818e+01 4.110364e+01 4.672213e+01 4.791889e+01 3.761631e+01 3.992758e+01 3.668507e+01 3.320222e+01 3.276245e+01 2.341048e+01 2.336428e+01 8.048359e+01 9.394169e-01 1.155559e+00 1.135315e+00 1.487269e+00 1.593687e+00 1.359324e+00 1.539075e+00 1.622797e+00 1.362425e+00 1.396625e+00 1.216656e+00 1.111508e+00 1.090166e+00 9.411445e-02 1.702528e-01 1.747882e-01 2.142262e-01 2.307753e-01 2.437585e-01 2.618930e-01 2.872373e-01 2.426775e-01 2.559779e-01 2.269425e-01 1.919453e-01 9.314778e-02
<GCONST> 1.009804e+02
<TRANSP> 5
 0.000000e+00 1.000000e+00 0.000000e+00 0.000000e+00 0.000000e+00
 0.000000e+00 2.957785e-01 7.042215e-01 0.000000e+00 0.000000e+00
 0.000000e+00 0.000000e+00 3.813329e-01 6.186671e-01 0.000000e+00
 0.000000e+00 0.000000e+00 0.000000e+00 7.170289e-01 2.829711e-01
 0.000000e+00 0.000000e+00 0.000000e+00 0.000000e+00 0.000000e+00
<ENDHMM>
~h "i"
<BEGINHMM>
<NUMSTATES> 5
<STATE> 2
<MEAN> 39
 -5.500984e+00 3.538105e+00 1.121356e+01 -7.973416e+00 -1.201866e+01 -8.727734e+00 -5.481835e+00 -6.647988e+00 -4.330972e+00 -2.434486e-02 -5.460203e-01 -3.160734e+00 5.767308e+01 2.134402e-01 3.149908e-01 2.159660e+00 -1.617888e+00 -1.854878e+00 -1.840402e-01 -7.778471e-01 -7.245510e-01 -6.566262e-01 4.756594e-01 2.912930e-01 -2.704566e-01 1.169438e+00 -5.598809e-02 -5.283331e-02 -5.536571e-01 1.588371e-01 4.164674e-01 2.710934e-01 1.112621e-01 3.006063e-01 2.375358e-01 -4.840900e-02 -4.754836e-02 1.270051e-02 -3.009547e-01
<VARIANCE> 39
 2.846196e+01 4.722703e+01 4.629065e+01 7.568982e+01 5.623856e+01 4.568688e+01 4.520457e+01 5.606754e+01 3.408722e+01 4.372822e+01 4.788098e+01 3.229757e+01 3.717499e+01 3.769192e+00 2.534918e+00 3.619818e+00 4.453726e+00 4.357800e+00 3.499010e+00 4.828760e+00 3.936237e+00 3.129638e+00 3.203671e+00 3.713864e+00 2.603501e+00 1.437996e+00 4.259324e-01 3.866363e-01 5.538244e-01 7.239882e-01 7.049257e-01 5.437638e-01 6.931242e-01 6.476443e-01 4.609980e-01 5.058885e-01 5.011777e-01 3.497343e-01 2.848206e-01
<GCONST> 1.277110e+02
<STATE> 3
<MEAN> 39
 -4.579239e+00 1.579680e+00 1.399054e+01 -7.602071e+00 -1.508776e+01 -7.267674e+00 -5.179033e+00 -3.991635e+00 -6.410567e+00 -5.421216e-01 3.588134e+00 -6.041509e+00 5.949861e+01 1.409913e-01 1.334190e-01 -3.059640e-01 1.299324e-01 2.591568e-01 3.859204e-02 3.186789e-02 1.915291e-01 2.205492e-01 1.624061e-02 -1.312951e-01 1.403488e-01 -2.698561e-01 -2.543053e-03 5.879306e-02 -6.515107e-01 4.085009e-01 7.178489e-01 5.334545e-02 1.612322e-01 1.050413e-01 3.171922e-01 -1.004825e-01 -2.978261e-01 2.000687e-01 -4.426265e-01
<VARIANCE> 39
 1.535933e+01 4.067570e+01 3.533365e+01 6.568159e+01 4.659302e+01 4.763463e+01 3.623594e+01 6.375084e+01 4.515683e+01 4.350712e+01 4.928019e+01 3.860228e+01 2.308167e+01 8.148303e-01 1.497520e+00 2.024182e+00 2.175125e+00 2.484030e+00 2.066814e+00 2.032655e+00 2.749769e+00 1.903376e+00 1.668013e+00 1.755021e+00 1.448909e+00 9.979305e-01 2.478630e-01 2.654151e-01 3.389577e-01 4.562089e-01 4.857341e-01 4.601502e-01 4.771310e-01 5.559267e-01 4.137861e-01 4.179795e-01 4.278556e-01 3.328275e-01 1.632672e-01
<GCONST> 1.137821e+02
<STATE> 4
<MEAN> 39
 -6.513609e+00 5.812850e+00 1.170639e+01 -1.107608e+01 -9.432920e+00 -5.895802e+00 -6.267519e+00 -7.775387e+00 -2.936023e+00 6.355267e-01 -2.480072e+00 -1.742651e+00 5.478887e+01 6.919001e-02 -2.595161e-02 -6.603312e-01 6.191878e-01 5.476595e-01 1.590706e-01 2.371581e-01 2.537146e-01 1.889873e-01 -1.243052e-01 -1.080144e-01 1.207215e-01 -7.607028e-01 -2.758278e-02 -6.568000e-02 -1.052877e-01 1.048042e-01 3.329040e-02 2.153392e-02 4.938588e-02 4.294658e-02 -2.594796e-02 -2.901692e-02 2.873800e-02 -3.323492e-02 -3.184204e-02
<VARIANCE> 39
 2.201846e+01 4.286417e+01 5.009771e+01 1.024391e+02 5.546061e+01 5.346671e+01 4.975383e+01 5.068556e+01 3.086914e+01 4.611405e+01 4.178375e+01 2.982195e+01 6.052893e+01 8.018000e-01 1.203645e+00 1.428716e+00 2.007981e+00 2.069678e+00 1.769682e+00 1.886069e+00 2.075829e+00 1.568728e+00 1.591564e+00 1.568946e+00 1.189345e+00 1.013947e+00 1.067005e-01 1.485282e-01 2.016913e-01 3.126480e-01 3.047267e-01 3.085285e-01 3.203182e-01 3.233127e-01 2.578408e-01 2.781569e-01 2.493592e-01 1.954103e-01 9.900143e-02
<GCONST> 1.071142e+02
<TRANSP> 5
 0.000000e+00 1.000000e+00 0.000000e+00 0.000000e+00 0.000000e+00
 0.000000e+00 5.309345e-01 4.690655e-01 0.000000e+00 0.000000e+00
 0.000000e+00 0.000000e+00 6.059686e-01 3.940314e-01 0.000000e+00
 0.000000e+00 0.000000e+00 0.000000e+00 7.747819e-01 2.252181e-01
 0.000000e+00 0.000000e+00 0.000000e+00 0.000000e+00 0.000000e+00
<ENDHMM>
~h "j"
<BEGINHMM>
<NUMSTATES> 5
<STATE> 2
<MEAN> 39
 -2.421366e+00 6.294848e+00 5.249017e+00 -1.217975e+00 -4.266610e+00 -4.698104e+00 -3.380370e+00 -1.188430e+00 -2.321073e+00 -2.785996e+00 -1.877967e+00 -2.481876e+00 4.993333e+01 -1.254922e+00 8.139161e-01 1.904519e-01 6.237948e-03 8.696835e-01 1.897084e-01 4.370696e-01 -1.951802e-01 2.126588e-01 -1.539309e-03 5.651896e-02 -8.855353e-02 3.399862e-02 -4.006431e-01 -2.095175e-01 1.501852e-01 -3.610160e-01 -3.085613e-01 -3.971703e-01 -8.067492e-02 -7.078957e-02 -6.641899e-02 3.558482e-02 2.567697e-01 8.997459e-02 5.698540e-01
<VARIANCE> 39
 2.080511e+01 4.341645e+01 2.734486e+01 3.515345e+01 3.984475e+01 2.965258e+01 2.657932e+01 2.297597e+01 2.470967e+01 2.067931e+01 2.062100e+01 1.463887e+01 3.500830e+01 3.450629e+00 2.062226e+00 1.771448e+00 2.517593e+00 3.181501e+00 2.707403e+00 1.943220e+00 2.071132e+00 1.791959e+00 1.872711e+00 1.903176e+00 1.361964e+00 2.201929e+00 4.379116e-01 2.962440e-01 3.122717e-01 3.943022e-01 5.201154e-01 4.534053e-01 3.829257e-01 4.252921e-01 3.858227e-01 4.123552e-01 3.137721e-01 2.243354e-01 2.261900e-01
<GCONST> 1.109235e+02
<STATE> 3
<MEAN> 39
 -1.139912e+01 7.944335e+00 7.651483e+00 -4.485261e+00 -2.962686e+00 -7.030573e+00 -2.740693e+00 -3.140171e+00 -2.706553e+00 -2.992202e+00 1.838060e-01 -2.574400e+00 5.559013e+01 -4.998071e-01 -5.683195e-01 1.200915e+00 -7.251941e-01 -2.111663e+00 -1.714705e+00 -5.562062e-01 -3.393825e-01 -5.655391e-01 3.770114e-02 9.025769e-01 4.164511e-01 1.703481e+00 1.223675e+00 -7.188465e-01 -1.485012e-01 -4.877868e-02 -7.347533e-01 -1.975092e-01 -4.273224e-01 3.148891e-01 2.300405e-05 1.361413e-01 -8.282330e-02 1.280396e-02 -3.366885e-02
<VARIANCE> 39
 2.795530e+01 4.079173e+01 3.738745e+01 4.461708e+01 4.588194e+01 4.309195e+01 3.392472e+01 2.678561e+01 2.707611e+01 2.821620e+01 2.102804e+01 2.086848e+01 2.309138e+01 6.588197e+00 2.872887e+00 2.422121e+00 3.855741e+00 4.687172e+00 3.044343e+00 2.953586e+00 3.420638e+00 2.390381e+00 3.329767e+00 1.880922e+00 1.501616e+00 1.138617e+00 6.591247e-01 5.505419e-01 5.938919e-01 5.985458e-01 1.096590e+00 7.834545e-01 6.099024e-01 6.014082e-01 4.502185e-01 4.384162e-01 4.226716e-01 3.745816e-01 2.351585e-01
<GCONST> 1.216715e+02
<STATE> 4
<MEAN> 39
 -4.969944e+00 1.011878e+00 9.919757e+00 -7.644773e+00 -1.297057e+01 -1.302789e+01 -6.520561e+00 -1.069986e+00 -3.797663e+00 -9.932212e-01 1.631083e+00 -1.121053e+00 6.003918e+01 1.576003e+00 -2.034983e+00 -1.035425e+00 -8.318909e-01 -9.672400e-01 -4.768567e-01 -7.721972e-01 1.318111e+00 5.787397e-01 4.374714e-01 -2.195135e-01 -2.262709e-01 8.611553e-01 -8.376697e-02 1.780736e-01 -6.910093e-01 7.410228e-02 9.980041e-01 7.478597e-01 1.912739e-01 7.619027e-02 2.041667e-01 -3.697540e-02 -3.495568e-01 -2.660165e-01 -3.497855e-01
<VARIANCE> 39
 1.784942e+01 3.481165e+01 4.081864e+01 7.549530e+01 3.019829e+01 3.181154e+01 3.490117e+01 5.083046e+01 4.299789e+01 5.742052e+01 2.575955e+01 1.623294e+01 2.867858e+01 1.912020e+00 2.424188e+00 2.918827e+00 2.708627e+00 5.551706e+00 3.491210e+00 4.172601e+00 3.506688e+00 2.556682e+00 2.938074e+00 2.399449e+00 2.021156e+00 8.071452e-01 3.699189e-01 3.259791e-01 3.479676e-01 6.110737e-01 4.723551e-01 4.928659e-01 5.167322e-01 7.049229e-01 4.495914e-01 6.468176e-01 3.833997e-01 2.920477e-01 1.014376e-01
<GCONST> 1.184805e+02
<TRANSP> 5
 0.000000e+00 1.000000e+00 0.000000e+00 0.000000e+00 0.000000e+00
 0.000000e+00 7.130180e-01 2.869819e-01 0.000000e+00 0.000000e+00
 0.000000e+00 0.000000e+00 6.238599e-01 3.761400e-01 0.000000e+00
 0.000000e+00 0.000000e+00 0.000000e+00 6.278992e-01 3.721007e-01
 0.000000e+00 0.000000e+00 0.000000e+00 0.000000e+00 0.000000e+00
<ENDHMM>
~h "k"
<BEGINHMM>
<NUMSTATES> 5
<STATE> 2
<MEAN> 39
 -7.984833e+00 9.182468e-02 -1.869596e+00 -1.599652e+00 -1.737577e+00 -6.002989e-01 -1.475340e+00 4.106199e-01 -6.198825e-01 -8.038116e-01 -3.014552e-02 -1.244063e+00 4.348261e+01 -4.148302e-01 4.021800e-02 -1.452056e-01 3.145297e-01 1.399393e-01 8.477860e-02 1.248143e-01 4.071756e-02 3.977568e-02 -7.784563e-03 1.981917e-02 1.723271e-01 -6.199020e-01 2.528304e-02 -1.172150e-01 -6.910577e-02 -1.203457e-01 2.733435e-02 -8.421918e-02 -2.968292e-02 1.743510e-02 -5.995318e-03 2.517977e-02 -1.870240e-02 -3.134898e-02 2.969725e-01
<VARIANCE> 39
 3.026342e+01 3.980974e+01 4.052097e+01 5.167554e+01 4.827001e+01 4.922493e+01 3.889991e+01 3.799533e+01 2.926219e+01 3.031575e+01 2.208424e+01 2.240721e+01 6.467130e+01 7.736975e-01 8.229771e-01 1.119123e+00 1.422357e+00 1.523054e+00 1.686702e+00 1.538250e+00 1.681206e+00 1.585095e+00 1.530588e+00 1.295913e+00 1.089787e+00 1.071558e+00 1.300059e-01 1.988460e-01 2.468628e-01 2.759371e-01 3.223619e-01 3.664791e-01 3.185444e-01 3.430791e-01 3.394626e-01 3.102782e-01 2.624151e-01 2.204104e-01 2.267381e-01
<GCONST> 1.045827e+02
<STATE> 3
<MEAN> 39
 -7.463274e+00 8.675951e-02 -2.186095e+00 -3.602276e+00 -1.665235e+00 -4.027814e+00 -3.795761e+00 -1.816482e+00 -1.292331e+00 -1.795106e-01 -1.244812e+00 -2.016514e+00 4.771372e+01 -6.549791e-01 -1.102277e+00 -1.193721e+00 -3.219491e-01 1.039327e+00 -8.752851e-01 -1.264291e-02 2.895878e-01 3.049072e-01 2.838886e-01 -2.783737e-01 1.796707e-01 1.496442e+00 3.426026e-01 -1.522531e-01 3.112824e-02 -3.704416e-01 -1.686775e-01 -1.254275e-01 -2.787154e-02 6.194725e-02 3.710095e-02 8.399670e-02 -7.257764e-02 -1.929030e-01 7.848308e-01
<VARIANCE> 39
 2.889346e+01 4.118222e+01 6.309902e+01 5.218296e+01 5.950648e+01 5.469462e+01 3.612592e+01 3.665551e+01 3.147829e+01 3.159458e+01 2.598721e+01 2.251736e+01 5.621691e+01 2.699763e+00 3.804451e+00 5.016496e+00 4.159762e+00 5.160407e+00 4.975351e+00 3.892778e+00 3.758935e+00 3.366281e+00 2.958975e+00 2.738735e+00 2.036699e+00 4.276514e+00 4.496477e-01 6.278300e-01 7.350727e-01 6.663818e-01 8.856518e-01 7.422385e-01 6.147665e-01 6.005642e-01 5.576630e-01 5.391799e-01 4.639598e-01 3.845993e-01 5.863314e-01
<GCONST> 1.293516e+02
<STATE> 4
<MEAN> 39
 -6.639502e+00 -3.508256e+00 -6.307489e+00 -5.895496e+00 5.158745e-01 -6.219768e+00 -3.639411e+00 -2.585754e-01 7.239481e-01 1.268490e+00 -2.876619e+00 -3.147507e+00 5.528782e+01 1.572020e+00 -2.642836e-01 2.770273e-01 -1.069350e+00 -1.217891e+00 1.422117e-01 1.796346e-01 1.723695e-01 -3.220704e-01 -1.437223e-01 -2.726915e-01 -9.847809e-01 2.073634e+00 4.193205e-01 9.378891e-02 4.390034e-01 -1.362214e-01 -5.573528e-01 3.591324e-01 -2.395034e-02 -4.946247e-02 -2.302825e-01 -2.349057e-01 1.547677e-01 -1.888364e-01 -1.390589e-01
<VARIANCE> 39
 3.412089e+01 3.921580e+01 5.495081e+01 4.236211e+01 5.486239e+01 5.813518e+01 5.034330e+01 3.835610e+01 4.624611e+01 3.888118e+01 3.442061e+01 2.677695e+01 4.008237e+01 3.168722e+00 4.015019e+00 3.943916e+00 4.540116e+00 5.086076e+00 4.344860e+00 3.800038e+00 4.426503e+00 3.907340e+00 3.681067e+00 3.108216e+00 2.723396e+00 3.442853e+00 6.050849e-01 6.729356e-01 6.877562e-01 6.914879e-01 1.034766e+00 8.546661e-01 7.706664e-01 6.115777e-01 6.848405e-01 6.315050e-01 5.762869e-01 4.816290e-01 5.139746e-01
<GCONST> 1.323565e+02
<TRANSP> 5
 0.000000e+00 1.000000e+00 0.000000e+00 0.000000e+00 0.000000e+00
 0.000000e+00 7.731752e-01 2.268248e-01 0.000000e+00 0.000000e+00
 0.000000e+00 0.000000e+00 5.896910e-01 4.103089e-01 0.000000e+00
 0.000000e+00 0.000000e+00 0.000000e+00 5.628446e-01 4.371553e-01
 0.000000e+00 0.000000e+00 0.000000e+00 0.000000e+00 0.000000e+00
<ENDHMM>
~h "l"
<BEGINHMM>
<NUMSTATES> 5
<STATE> 2
<MEAN> 39
 -1.422952e-01 -4.005929e+00 -6.603845e-01 -9.846437e+00 -5.644891e+00 -6.151529e+00 -9.679400e+00 -3.875388e+00 3.692811e+00 2.146771e+00 -1.968224e+00 -4.121741e+00 6.061914e+01 2.828847e-01 2.293491e-02 -8.566993e-02 -1.408802e-01 2.738731e-01 4.131543e-02 -6.508356e-01 -3.178321e-01 4.322474e-01 3.744245e-01 -5.490534e-02 -6.613634e-02 -1.599562e-01 -1.645217e-01 -1.569307e-02 -6.109005e-02 -1.261403e-01 7.586347e-02 1.923737e-01 3.426197e-01 2.875964e-01 -2.784203e-01 -2.069577e-01 -8.784226e-03 -9.376732e-02 6.435937e-02
<VARIANCE> 39
 1.563181e+01 4.897675e+01 6.597699e+01 6.480817e+01 4.284737e+01 6.654449e+01 4.861973e+01 5.999148e+01 5.862230e+01 5.280069e+01 3.214349e+01 3.383457e+01 3.446120e+01 4.585206e-01 1.230791e+00 1.953013e+00 2.210894e+00 2.160745e+00 2.474494e+00 2.504966e+00 2.975483e+00 2.518189e+00 2.150793e+00 1.917869e+00 1.642390e+00 6.283932e-01 8.296134e-02 2.137664e-01 2.666814e-01 4.389167e-01 3.716485e-01 4.449572e-01 5.007361e-01 5.686264e-01 4.328920e-01 4.492241e-01 3.972098e-01 2.936707e-01 9.703480e-02
<GCONST> 1.127776e+02
<STATE> 3
<MEAN> 39
 1.368193e+00 -2.430757e+00 -5.651483e+00 -1.044191e+01 -4.621005e+00 -2.407783e+00 -8.542469e+00 -2.451666e+00 2.675611e+00 9.311591e-01 -2.050064e+00 -5.444520e+00 5.856395e+01 -9.682152e-02 -1.679451e-01 -1.559375e-01 -1.198535e-01 1.912289e-01 1.882993e-01 2.378833e-01 4.090950e-01 -4.520498e-02 -2.212977e-01 -1.581066e-01 -1.051906e-01 5.866021e-02 -1.238402e-01 -9.920228e-02 2.429355e-03 4.112031e-02 3.302090e-04 7.294009e-03 2.257669e-01 1.953284e-01 -1.206529e-01 -2.017922e-01 -4.128906e-02 2.381257e-02 7.609794e-02
<VARIANCE> 39
 1.020157e+01 3.894529e+01 8.679195e+01 5.499319e+01 4.185687e+01 5.646941e+01 4.653056e+01 6.814265e+01 4.661450e+01 6.277038e+01 3.716378e+01 2.676889e+01 2.449319e+01 2.374410e-01 9.756708e-01 1.057269e+00 1.593969e+00 1.230646e+00 1.680278e+00 1.510013e+00 1.888721e+00 1.437723e+00 1.453138e+00 1.328516e+00 1.190681e+00 5.125961e-01 5.278941e-02 1.383424e-01 1.667357e-01 2.524310e-01 2.550852e-01 2.665664e-01 3.341356e-01 3.636103e-01 3.152708e-01 3.152242e-01 2.743575e-01 2.081837e-01 5.678884e-02
<GCONST> 1.004823e+02
<STATE> 4
<MEAN> 39
 -8.295521e-02 -4.372277e+00 -3.132962e+00 -9.771304e+00 -4.799911e+00 -3.995741e+00 -7.999855e+00 -1.355179e+00 3.097690e+00 -9.656094e-02 -2.991180e+00 -4.883640e+00 5.982711e+01 -5.599160e-01 -4.414840e-01 3.918913e-02 1.136778e-01 6.829032e-02 5.635670e-02 1.028748e+00 9.924942e-01 -6.249604e-01 -8.539453e-01 -1.113432e-01 -3.266989e-02 3.103587e-01 -9.514992e-02 8.885648e-02 1.315900e-01 7.938230e-03 -6.433710e-02 1.597432e-02 1.317341e-01 -6.389846e-02 -2.432158e-01 1.536733e-02 1.659254e-01 3.757984e-02 -3.014013e-02
<VARIANCE> 39
 1.671186e+01 4.383437e+01 7.447573e+01 5.960324e+01 4.659791e+01 6.316135e+01 5.150155e+01 6.147978e+01 5.314030e+01 6.330004e+01 3.457667e+01 3.626363e+01 4.266623e+01 5.327074e-01 1.764564e+00 2.366776e+00 2.672990e+00 2.871011e+00 3.087130e+00 2.972984e+00 3.788344e+00 2.928158e+00 2.775650e+00 2.775729e+00 1.936146e+00 1.053107e+00 9.186777e-02 1.688979e-01 2.244578e-01 3.652390e-01 3.773947e-01 3.994610e-01 4.566230e-01 4.529957e-01 3.921581e-01 4.306889e-01 3.303603e-01 3.084623e-01 1.123218e-01
<GCONST> 1.155590e+02
<TRANSP> 5
 0.000000e+00 1.000000e+00 0.000000e+00 0.000000e+00 0.000000e+00
 0.000000e+00 3.782437e-01 6.217563e-01 0.000000e+00 0.000000e+00
 0.000000e+00 0.000000e+00 6.092397e-01 3.907604e-01 0.000000e+00
 0.000000e+00 0.000000e+00 0.000000e+00 2.637432e-01 7.362568e-01
 0.000000e+00 0.000000e+00 0.000000e+00 0.000000e+00 0.000000e+00
<ENDHMM>
~h "m"
<BEGINHMM>
<NUMSTATES> 5
<STATE> 2
<MEAN> 39
 2.378806e+00 5.951326e-02 -9.379709e-01 -5.201327e+00 -3.739091e+00 1.655426e-01 -6.881615e+00 -5.683236e+00 -2.711774e+00 -5.048288e-02 5.123709e-01 -5.758227e+00 5.507300e+01 1.132557e-01 9.140419e-01 1.166311e+00 1.392446e+00 2.159300e-01 3.743006e-01 9.922482e-03 -1.496326e+00 -1.342538e+00 -1.289816e-01 -1.117598e-01 1.237685e-01 -9.622682e-01 -1.387613e-01 -2.194878e-01 -6.427597e-02 -2.066393e-01 -4.760145e-02 -8.558621e-02 9.411521e-02 2.374960e-01 1.237427e-01 -1.035273e-01 -1.178057e-01 -3.168985e-02 2.484168e-01
<VARIANCE> 39
 1.569500e+01 3.436629e+01 4.600557e+01 4.420562e+01 3.921433e+01 3.640561e+01 3.921476e+01 5.233829e+01 3.242481e+01 3.376325e+01 3.212677e+01 2.494488e+01 3.335456e+01 4.967223e-01 1.189588e+00 1.852123e+00 1.842795e+00 1.747072e+00 1.742498e+00 1.936611e+00 2.604223e+00 2.075458e+00 1.786156e+00 2.115206e+00 1.296988e+00 6.341301e-01 7.445665e-02 1.377419e-01 2.629759e-01 2.798689e-01 2.674557e-01 2.559670e-01 2.652859e-01 3.837858e-01 3.325287e-01 2.510227e-01 2.883883e-01 1.865807e-01 7.148196e-02
<GCONST> 1.027654e+02
<STATE> 3
<MEAN> 39
 1.221773e+00 1.682293e-01 2.048019e+00 -3.613879e+00 -2.401961e+00 1.276153e-01 -6.238938e+00 -5.256403e+00 -5.566566e+00 -1.837674e+00 -1.312781e-01 -4.723441e+00 5.402373e+01 7.141220e-02 1.541740e-01 1.201526e-01 6.900909e-02 -1.161746e-01 6.249714e-02 8.724178e-02 -9.827380e-02 -2.322087e-01 -1.068336e-01 -1.318589e-03 5.760828e-02 -1.517546e-01 -1.356303e-02 -1.525549e-01 -2.910935e-01 -3.939136e-01 -1.257847e-01 -9.530921e-02 2.810942e-02 3.181650e-01 3.070413e-01 8.652509e-02 8.362331e-02 1.495570e-02 2.118790e-01
<VARIANCE> 39
 1.524121e+01 4.101449e+01 3.352620e+01 4.545254e+01 4.426042e+01 3.036006e+01 4.479387e+01 7.299117e+01 3.346168e+01 3.972135e+01 3.045018e+01 2.105565e+01 3.034450e+01 2.465724e-01 5.212179e-01 8.327233e-01 1.010973e+00 1.126087e+00 1.087978e+00 1.053744e+00 1.352628e+00 1.299559e+00 1.100976e+00 1.174366e+00 8.494930e-01 3.066479e-01 6.688512e-02 1.326948e-01 2.060362e-01 2.518368e-01 2.434297e-01 2.439676e-01 2.803508e-01 3.616591e-01 3.258141e-01 2.548002e-01 2.865041e-01 1.923808e-01 6.542876e-02
<GCONST> 9.440600e+01
<STATE> 4
<MEAN> 39
 2.264769e+00 6.686806e-01 -2.596208e-01 -5.108213e+00 -4.416287e+00 2.758666e-01 -6.464697e+00 -6.390252e+00 -4.598786e+00 -7.066101e-01 7.517787e-01 -4.876581e+00 5.440226e+01 2.555239e-02 -7.392002e-01 -1.004615e+00 -1.282087e+00 -5.155349e-02 -6.297386e-02 -3.767179e-02 1.064933e+00 8.868752e-01 8.342151e-02 1.973217e-01 -9.081203e-02 8.775430e-01 -1.859388e-01 -2.665812e-01 -6.750503e-02 -2.251471e-01 1.155194e-01 -7.529214e-02 -1.144951e-02 3.478547e-01 2.767595e-01 -1.549498e-02 -1.162810e-01 -6.187531e-02 2.352534e-01
<VARIANCE> 39
 1.835457e+01 3.916004e+01 4.646938e+01 5.001645e+01 4.470162e+01 4.133860e+01 4.463560e+01 6.345417e+01 3.954223e+01 3.688304e+01 3.566326e+01 2.547091e+01 4.038375e+01 1.027625e+00 1.928283e+00 3.067488e+00 2.893145e+00 3.078118e+00 3.079580e+00 2.951001e+00 3.770889e+00 3.323733e+00 2.292383e+00 2.515718e+00 1.890070e+00 1.151740e+00 1.502341e-01 2.565563e-01 4.317749e-01 4.601763e-01 4.197541e-01 4.032562e-01 4.281879e-01 5.801398e-01 5.504869e-01 3.865030e-01 4.193436e-01 2.931972e-01 1.369525e-01
<GCONST> 1.168560e+02
<TRANSP> 5
 0.000000e+00 1.000000e+00 0.000000e+00 0.000000e+00 0.000000e+00
 0.000000e+00 4.386866e-01 5.613134e-01 0.000000e+00 0.000000e+00
 0.000000e+00 0.000000e+00 6.755713e-01 3.244287e-01 0.000000e+00
 0.000000e+00 0.000000e+00 0.000000e+00 5.131339e-01 4.868661e-01
 0.000000e+00 0.000000e+00 0.000000e+00 0.000000e+00 0.000000e+00
<ENDHMM>
~h "n"
<BEGINHMM>
<NUMSTATES> 5
<STATE> 2
<MEAN> 39
 1.138401e+00 -1.685980e+00 2.403783e+00 -3.872060e+00 -6.224626e+00 -5.785005e+00 -7.175282e+00 -8.960024e-01 -1.615654e-01 -9.945465e-01 -3.018499e+00 -4.213277e+00 5.647569e+01 4.473291e-01 1.548071e+00 7.460580e-01 1.285746e+00 -1.786542e-01 4.076212e-01 -3.709373e-01 -1.673154e+00 -1.204769e-01 8.235725e-02 -3.671077e-01 1.259670e-01 -1.473482e+00 -1.486535e-01 -1.354294e-01 -1.959936e-01 -3.198936e-01 5.014334e-02 1.601526e-01 1.935232e-01 1.200694e-01 -1.553289e-02 -5.880215e-02 8.942445e-02 -4.461554e-02 2.021115e-01
<VARIANCE> 39
 1.122608e+01 4.556915e+01 3.537173e+01 3.508747e+01 5.119750e+01 3.440290e+01 3.504882e+01 5.357996e+01 3.774623e+01 3.902652e+01 2.559226e+01 2.501119e+01 2.978053e+01 4.378877e-01 1.197443e+00 1.753738e+00 1.287145e+00 2.123068e+00 2.018390e+00 2.347379e+00 3.378187e+00 1.955749e+00 2.096096e+00 1.869957e+00 1.217955e+00 4.168002e-01 5.698724e-02 1.573036e-01 1.790627e-01 1.896157e-01 2.627569e-01 2.566022e-01 2.805913e-01 4.175510e-01 2.875271e-01 2.748418e-01 2.369572e-01 1.868518e-01 7.100620e-02
<GCONST> 1.010154e+02
<STATE> 3
<MEAN> 39
 2.864311e-01 -7.431551e-01 3.650476e+00 -3.199152e+00 -4.580605e+00 -4.097411e+00 -6.455064e+00 -1.750507e+00 -9.996616e-01 -2.519414e+00 -2.587129e+00 -3.046271e+00 5.355823e+01 4.777078e-04 5.908266e-01 7.549912e-02 3.319727e-01 6.715229e-02 2.376848e-01 8.628552e-02 -3.468021e-01 -1.130083e-01 -6.687851e-03 -2.099665e-02 1.073783e-01 -6.343605e-01 -1.390475e-01 -1.632013e-01 -9.158746e-02 -1.485974e-01 6.484074e-02 -3.854663e-02 8.632616e-02 2.143329e-01 -1.233322e-02 1.549320e-02 6.771813e-02 -1.384624e-02 1.353546e-01
<VARIANCE> 39
 1.462645e+01 4.860519e+01 3.226183e+01 3.522635e+01 5.504384e+01 3.083938e+01 3.180738e+01 4.426418e+01 3.205988e+01 3.579200e+01 2.575657e+01 2.188097e+01 2.985254e+01 2.720213e-01 5.507011e-01 6.698309e-01 7.460812e-01 9.874145e-01 1.049027e+00 1.074452e+00 1.279975e+00 1.106897e+00 1.065622e+00 1.063120e+00 8.012029e-01 2.483135e-01 6.429799e-02 1.277277e-01 1.591427e-01 1.811142e-01 2.303479e-01 2.207388e-01 2.388733e-01 3.209077e-01 2.380152e-01 2.289737e-01 2.367802e-01 1.604099e-01 6.300591e-02
<GCONST> 9.027479e+01
<STATE> 4
<MEAN> 39
 6.650516e-01 2.074414e+00 2.611632e+00 -1.666629e+00 -6.673822e+00 -4.215922e+00 -6.521430e+00 -4.158771e+00 -7.600411e-01 -6.611511e-01 -3.104737e+00 -3.546571e+00 5.211510e+01 -5.159934e-01 -1.204115e-01 -1.722114e-01 -1.923793e-01 4.884183e-01 2.543114e-02 3.032218e-01 4.667876e-01 -1.255784e-01 -1.046649e-01 1.922814e-01 9.116129e-02 -6.976223e-02 -2.711444e-01 -2.497869e-01 -8.444045e-02 -3.188789e-01 1.029232e-01 -4.099226e-02 1.123827e-01 2.677003e-01 -2.665308e-02 -6.303680e-02 1.381676e-01 2.886250e-03 3.047748e-01
<VARIANCE> 39
 1.792894e+01 4.373545e+01 3.857491e+01 3.939947e+01 5.522039e+01 3.578070e+01 3.940083e+01 5.615199e+01 3.965449e+01 4.515556e+01 3.161515e+01 2.470467e+01 4.084965e+01 9.115745e-01 1.974995e+00 1.751730e+00 2.036551e+00 2.501465e+00 2.164011e+00 2.162270e+00 3.164267e+00 2.175365e+00 1.994653e+00 1.950836e+00 1.333442e+00 1.501362e+00 2.182487e-01 3.505686e-01 3.787806e-01 4.001439e-01 5.376923e-01 4.108178e-01 4.377017e-01 6.026072e-01 4.185988e-01 4.025568e-01 3.881059e-01 2.593920e-01 2.056581e-01
<GCONST> 1.141634e+02
<TRANSP> 5
 0.000000e+00 1.000000e+00 0.000000e+00 0.000000e+00 0.000000e+00
 0.000000e+00 3.789977e-01 6.210023e-01 0.000000e+00 0.000000e+00
 0.000000e+00 0.000000e+00 7.316089e-01 2.683911e-01 0.000000e+00
 0.000000e+00 0.000000e+00 0.000000e+00 5.186861e-01 4.813139e-01
 0.000000e+00 0.000000e+00 0.000000e+00 0.000000e+00 0.000000e+00
<ENDHMM>
~h "o"
<BEGINHMM>
<NUMSTATES> 5
<STATE> 2
<MEAN> 39
 5.103508e-01 -1.671013e+00 -7.750933e+00 -1.461995e+01 -5.078399e+00 2.888200e+00 -4.543090e+00 -2.613437e+00 -1.349235e+00 5.958379e-01 1.792397e+00 -3.818074e+00 5.629567e+01 1.122462e+00 -6.438061e-01 -6.413922e-01 -1.992900e+00 -2.937983e-01 9.210557e-01 -2.592677e-01 -2.561516e-01 -1.736768e-01 2.232865e-01 4.647376e-01 -5.355808e-01 1.578544e+00 -3.192550e-01 2.728377e-02 2.529888e-01 5.487133e-01 1.756139e-01 -1.804650e-01 -2.254847e-03 9.175639e-03 5.250923e-02 -1.029368e-01 -1.196842e-01 8.846134e-03 -3.169399e-01
<VARIANCE> 39
 3.355831e+01 3.856993e+01 4.588223e+01 1.099073e+02 5.437764e+01 6.247625e+01 7.288113e+01 4.271025e+01 5.920166e+01 5.076879e+01 3.998552e+01 2.829017e+01 7.353291e+01 2.475063e+00 2.648145e+00 3.031102e+00 6.868937e+00 3.503154e+00 3.867394e+00 3.833820e+00 3.224633e+00 3.658033e+00 3.140626e+00 2.769260e+00 2.104345e+00 3.399095e+00 4.515356e-01 5.086041e-01 4.979558e-01 1.250350e+00 5.574336e-01 6.833745e-01 7.268347e-01 5.780991e-01 6.682588e-01 5.308019e-01 4.840850e-01 3.994310e-01 6.816397e-01
<GCONST> 1.315040e+02
<STATE> 3
<MEAN> 39
 1.411013e+00 -3.704031e+00 -6.921894e+00 -1.768236e+01 -3.339271e+00 2.271806e+00 -5.141484e+00 -1.803420e+00 -2.725788e+00 8.722302e-01 2.374733e+00 -4.934277e+00 6.046829e+01 8.117603e-03 -4.200507e-02 1.717203e-01 3.629602e-01 9.497637e-02 -1.829001e-01 -2.598512e-01 1.109546e-02 1.534135e-01 -5.892936e-02 -3.304194e-02 -7.299418e-02 -1.369415e-01 -1.270459e-01 1.898280e-01 2.137445e-01 5.753165e-01 6.416900e-02 -2.770219e-01 -5.262823e-02 -4.255689e-02 1.273823e-01 -1.112088e-01 -1.869078e-01 1.485126e-01 -3.214211e-01
<VARIANCE> 39
 1.449853e+01 3.382378e+01 4.603090e+01 6.292800e+01 5.680354e+01 3.857760e+01 5.160909e+01 4.337886e+01 5.123577e+01 5.031587e+01 5.028664e+01 2.473502e+01 2.397536e+01 3.135609e-01 9.468190e-01 8.767843e-01 2.495124e+00 1.305332e+00 1.844157e+00 1.840741e+00 1.574944e+00 2.010130e+00 1.527486e+00 1.444861e+00 1.231859e+00 5.709147e-01 1.178307e-01 1.827826e-01 1.972239e-01 3.597644e-01 3.084079e-01 2.953140e-01 2.996058e-01 3.204498e-01 3.587224e-01 3.113014e-01 3.202690e-01 2.529144e-01 1.411156e-01
<GCONST> 1.041698e+02
<STATE> 4
<MEAN> 39
 2.252390e+00 -2.420384e+00 -6.344079e+00 -1.155554e+01 -4.294751e+00 -1.117819e-01 -7.945003e+00 -3.274093e+00 -4.785341e-01 4.262456e-01 1.412158e+00 -4.130492e+00 5.684405e+01 -2.926041e-01 9.111909e-01 9.355062e-01 1.865238e+00 5.092781e-01 -4.832114e-01 -1.936138e-02 -1.276483e-01 1.924365e-01 -3.289753e-01 -7.435574e-01 3.300384e-01 -1.447140e+00 -1.836857e-01 1.534989e-01 6.839675e-02 9.418059e-03 3.743882e-02 1.540784e-01 2.671624e-01 -6.013712e-03 -1.389759e-01 -3.145618e-02 -3.147643e-02 -5.797432e-03 -1.410099e-01
<VARIANCE> 39
 1.357785e+01 3.700530e+01 3.866258e+01 5.853042e+01 5.422228e+01 5.837217e+01 5.058549e+01 4.351613e+01 5.649291e+01 4.629883e+01 4.617496e+01 3.151122e+01 3.949548e+01 7.619322e-01 1.194206e+00 1.361877e+00 1.894247e+00 2.551216e+00 2.594522e+00 2.451090e+00 2.578697e+00 2.856367e+00 2.172927e+00 2.428712e+00 1.610809e+00 8.534110e-01 1.258864e-01 2.481147e-01 2.204196e-01 4.127655e-01 4.022134e-01 4.773865e-01 3.759991e-01 4.216389e-01 4.924389e-01 4.185879e-01 3.885993e-01 2.954028e-01 1.539385e-01
<GCONST> 1.128539e+02
<TRANSP> 5
 0.000000e+00 1.000000e+00 0.000000e+00 0.000000e+00 0.000000e+00
 0.000000e+00 5.842589e-01 4.157411e-01 0.000000e+00 0.000000e+00
 0.000000e+00 0.000000e+00 7.306305e-01 2.693695e-01 0.000000e+00
 0.000000e+00 0.000000e+00 0.000000e+00 5.766144e-01 4.233856e-01
 0.000000e+00 0.000000e+00 0.000000e+00 0.000000e+00 0.000000e+00
<ENDHMM>
~h "p"
<BEGINHMM>
<NUMSTATES> 5
<STATE> 2
<MEAN> 39
 -5.135224e+00 -3.685279e-01 -2.217922e+00 -4.369302e+00 -1.845938e+00 -9.185523e-01 -3.147570e+00 -1.004018e+00 -9.738787e-02 -3.390027e-03 -5.792245e-01 -3.018571e+00 4.692544e+01 -6.422748e-01 1.280883e-01 -6.678349e-02 3.633259e-01 6.023376e-02 -4.396521e-02 2.174638e-01 -2.491991e-02 6.764332e-02 -5.011687e-02 -4.140715e-02 2.568904e-01 -8.376696e-01 7.161167e-02 -1.225199e-01 -4.117065e-02 -1.446932e-01 -5.794309e-02 -4.721610e-02 -3.231520e-02 2.078903e-02 -2.314172e-02 6.162465e-03 7.224648e-02 -4.595868e-02 3.850321e-01
<VARIANCE> 39
 2.133264e+01 3.054386e+01 3.534637e+01 4.107743e+01 3.494428e+01 3.341137e+01 2.435037e+01 2.781195e+01 2.468133e+01 2.323380e+01 1.941965e+01 2.020558e+01 3.960582e+01 5.832486e-01 5.640218e-01 8.353719e-01 1.033754e+00 1.070609e+00 1.301362e+00 1.336169e+00 1.527093e+00 1.319374e+00 1.284418e+00 1.247425e+00 9.629934e-01 8.548976e-01 1.090403e-01 1.424072e-01 1.920532e-01 2.521904e-01 2.372016e-01 2.699541e-01 2.940714e-01 3.205356e-01 2.924900e-01 2.829995e-01 2.653061e-01 2.015156e-01 1.722283e-01
<GCONST> 9.587917e+01
<STATE> 3
<MEAN> 39
 -6.165713e+00 7.837304e-01 -1.303686e+00 -3.538716e+00 -2.653116e+00 -2.178194e+00 -3.007180e+00 -1.589104e+00 -3.745575e-01 -4.868484e-01 -5.224406e-01 -2.287701e+00 4.718631e+01 3.257102e-01 -5.987139e-01 -7.487932e-01 -8.813479e-01 -9.384779e-02 -1.874616e-01 4.396404e-02 -5.580286e-02 -3.718915e-02 2.185381e-01 3.262474e-01 -2.698613e-01 1.888983e+00 6.584296e-01 -3.823416e-01 -1.764133e-01 -7.101089e-01 -1.687390e-01 9.512506e-02 -2.941769e-01 3.050010e-02 -4.229660e-02 2.594794e-01 3.286569e-02 -3.639689e-01 1.014030e+00
<VARIANCE> 39
 2.307424e+01 3.406076e+01 3.664437e+01 3.995530e+01 3.503381e+01 3.685205e+01 2.556204e+01 2.794651e+01 2.404008e+01 2.393766e+01 2.004968e+01 1.903999e+01 4.278964e+01 3.132968e+00 2.554474e+00 3.289221e+00 3.835633e+00 2.864562e+00 3.633176e+00 2.865051e+00 3.244714e+00 2.704131e+00 2.598845e+00 2.409770e+00 1.858113e+00 3.096407e+00 3.191319e-01 4.669496e-01 5.727292e-01 5.536617e-01 5.622669e-01 6.225295e-01 4.976304e-01 5.360972e-01 4.805146e-01 4.609371e-01 4.152393e-01 3.247946e-01 3.719492e-01
<GCONST> 1.192669e+02
<STATE> 4
<MEAN> 39
 -1.904011e+00 -3.066851e+00 -5.001208e+00 -9.811867e+00 -2.960823e+00 -9.309874e-01 -4.099867e+00 -2.388730e+00 -6.104826e-01 1.620206e+00 5.995448e-01 -5.633079e+00 5.658660e+01 1.576301e+00 -1.781580e+00 -8.891203e-01 -2.244282e+00 -3.101853e-01 4.159316e-01 -7.219988e-01 4.325005e-01 9.432962e-02 7.425672e-01 2.225619e-02 -1.321295e+00 3.406082e+00 -9.140421e-02 -1.975568e-02 4.330965e-01 2.880212e-01 -3.570714e-02 -1.493489e-01 -6.724864e-02 2.478508e-01 6.277798e-02 -1.845417e-01 -2.720684e-01 1.198784e-01 -3.395833e-01
<VARIANCE> 39
 2.785969e+01 3.890768e+01 3.343437e+01 5.913021e+01 2.612211e+01 5.209484e+01 3.585048e+01 3.176451e+01 3.289744e+01 3.160504e+01 2.642195e+01 2.816714e+01 4.768244e+01 3.103377e+00 4.457108e+00 5.397988e+00 5.791840e+00 4.448282e+00 5.276215e+00 4.079369e+00 5.464233e+00 4.630421e+00 3.765465e+00 3.612368e+00 3.108359e+00 3.255722e+00 5.038040e-01 5.546660e-01 4.954962e-01 9.175348e-01 6.390839e-01 7.751162e-01 5.230928e-01 5.678168e-01 5.315551e-01 5.192361e-01 5.081427e-01 4.726335e-01 5.752664e-01
<GCONST> 1.294725e+02
<TRANSP> 5
 0.000000e+00 1.000000e+00 0.000000e+00 0.000000e+00 0.000000e+00
 0.000000e+00 7.923028e-01 2.076972e-01 0.000000e+00 0.000000e+00
 0.000000e+00 0.000000e+00 5.751085e-01 4.248915e-01 0.000000e+00
 0.000000e+00 0.000000e+00 0.000000e+00 3.820863e-01 6.179137e-01
 0.000000e+00 0.000000e+00 0.000000e+00 0.000000e+00 0.000000e+00
<ENDHMM>
~h "r"
<BEGINHMM>
<NUMSTATES> 5
<STATE> 2
<MEAN> 39
 -9.233724e-01 -4.263910e+00 -1.077493e+00 -5.294690e+00 -5.785867e+00 -7.024724e+00 -5.414949e+00 1.776130e+00 2.705075e+00 -7.187358e-02 -1.561851e+00 -3.583869e+00 5.745477e+01 -5.903475e-01 4.706865e-01 5.388246e-01 9.534130e-01 4.244523e-01 -3.927825e-02 9.000175e-02 -1.552036e-01 -2.484359e-02 -3.154980e-01 2.184871e-01 4.408638e-01 -1.048474e+00 -7.280579e-02 -7.976472e-02 1.526645e-02 -3.390500e-01 -8.791862e-03 1.247203e-01 7.610283e-02 -7.961265e-02 -2.908478e-01 -6.952344e-03 9.650873e-02 -3.574774e-02 2.679923e-01
<VARIANCE> 39
 1.823586e+01 3.504564e+01 3.905642e+01 4.294942e+01 6.402351e+01 4.986081e+01 4.552499e+01 4.037019e+01 3.746136e+01 3.609221e+01 2.842521e+01 2.231178e+01 3.436537e+01 1.436108e+00 2.077291e+00 2.099410e+00 2.289169e+00 3.112318e+00 2.791769e+00 2.560328e+00 2.615714e+00 2.369408e+00 2.216526e+00 2.093340e+00 1.707566e+00 9.370381e-01 1.815447e-01 2.270329e-01 2.657417e-01 3.382645e-01 4.005090e-01 3.850193e-01 3.617473e-01 4.315778e-01 3.471651e-01 3.280897e-01 3.500202e-01 2.577091e-01 1.564581e-01
<GCONST> 1.121821e+02
<STATE> 3
<MEAN> 39
 -3.658406e+00 -3.296962e+00 -2.121315e-01 -4.206885e+00 -3.700958e+00 -5.991611e+00 -4.263770e+00 1.232661e+00 1.978558e+00 -1.275796e+00 -7.918327e-01 -2.552641e+00 5.579461e+01 -9.856866e-02 3.925105e-02 4.737875e-01 1.135851e-01 -1.292044e-01 -3.623353e-02 9.277229e-02 -8.413643e-02 -4.895830e-01 -1.463954e-01 2.478794e-01 1.959573e-01 -1.451930e-02 3.020860e-01 -1.523151e-01 -6.651073e-02 -4.247124e-01 -3.472541e-01 4.373628e-02 -8.792963e-02 6.401822e-03 -1.774904e-01 1.673403e-01 -1.137328e-02 -1.956419e-01 4.535610e-01
<VARIANCE> 39
 2.680262e+01 3.383620e+01 3.503973e+01 3.947777e+01 4.955117e+01 4.456718e+01 4.001216e+01 3.408087e+01 3.484579e+01 3.027991e+01 2.533661e+01 2.165336e+01 4.211580e+01 1.611861e+00 1.695898e+00 2.036085e+00 1.816613e+00 2.689644e+00 2.359997e+00 2.110627e+00 2.561678e+00 2.038355e+00 1.881153e+00 1.875152e+00 1.448783e+00 1.065579e+00 3.547709e-01 4.624566e-01 4.130074e-01 5.265762e-01 6.353593e-01 5.410461e-01 4.819900e-01 5.458356e-01 4.141901e-01 4.523906e-01 4.629089e-01 3.512469e-01 2.254178e-01
<GCONST> 1.151858e+02
<STATE> 4
<MEAN> 39
 -1.111998e+00 -3.341282e+00 8.788196e-01 -4.897406e+00 -7.099576e+00 -7.764080e+00 -5.177179e+00 3.108218e-01 8.846160e-01 8.894204e-02 -1.113185e+00 -2.667022e+00 5.837543e+01 2.252315e-01 1.557200e-01 2.815646e-01 -2.808425e-01 -4.399802e-01 1.549415e-01 -1.014764e-01 -2.030622e-01 -4.767889e-01 1.403978e-01 7.134965e-02 -1.325480e-01 1.150672e-01 -1.045925e-01 7.761574e-02 -7.190888e-02 -1.581198e-01 1.063989e-01 1.837248e-01 1.081789e-02 -2.409927e-02 4.681523e-03 6.836082e-05 -6.576429e-02 -9.399866e-02 -3.183921e-02
<VARIANCE> 39
 2.335429e+01 4.608494e+01 5.375999e+01 4.281373e+01 5.713586e+01 4.878660e+01 4.685154e+01 4.644062e+01 3.910661e+01 3.555776e+01 3.178716e+01 2.386770e+01 3.531661e+01 1.957815e+00 2.619586e+00 2.713109e+00 2.449833e+00 3.556765e+00 2.602347e+00 2.529065e+00 3.102334e+00 2.217068e+00 2.231307e+00 2.283124e+00 1.666500e+00 2.092796e+00 2.538551e-01 3.376609e-01 3.270769e-01 4.270827e-01 5.135098e-01 4.730506e-01 4.204284e-01 4.605483e-01 3.861070e-01 3.808697e-01 3.564120e-01 2.959828e-01 2.586601e-01
<GCONST> 1.179389e+02
<TRANSP> 5
 0.000000e+00 1.000000e+00 0.000000e+00 0.000000e+00 0.000000e+00
 0.000000e+00 1.980931e-01 8.019069e-01 0.000000e+00 0.000000e+00
 0.000000e+00 0.000000e+00 2.987402e-01 7.012598e-01 0.000000e+00
 0.000000e+00 0.000000e+00 0.000000e+00 4.069884e-01 5.930116e-01
 0.000000e+00 0.000000e+00 0.000000e+00 0.000000e+00 0.000000e+00
<ENDHMM>
~h "s"
<BEGINHMM>
<NUMSTATES> 5
<STATE> 2
<MEAN> 39
 -1.019238e+01 4.048800e+00 -1.775718e+00 -3.213239e+00 -1.157471e+00 -7.612050e+00 -8.620672e-01 -4.324198e-01 4.308964e-01 -2.124449e+00 -1.515827e+00 -2.382916e+00 5.689359e+01 -3.398940e+00 1.906597e+00 -1.054749e+00 9.241152e-01 9.224948e-01 -4.027583e-01 9.821422e-01 1.128060e-01 1.575140e-01 -4.627914e-01 5.335334e-01 1.913366e-01 -1.500894e-01 -8.207981e-02 -2.880336e-01 -8.209783e-02 -3.098128e-01 -1.533301e-01 1.032856e-01 -2.078785e-01 -2.711005e-02 -1.583919e-01 5.571845e-02 2.872524e-02 -5.792686e-02 3.528474e-02
<VARIANCE> 39
 4.675291e+01 4.410913e+01 4.904594e+01 3.614728e+01 5.773623e+01 4.449094e+01 4.707843e+01 4.420358e+01 4.329868e+01 3.892296e+01 3.049962e+01 2.168393e+01 4.020085e+01 1.840326e+00 2.786896e+00 2.766534e+00 3.486274e+00 3.395015e+00 3.225526e+00 2.781780e+00 2.953175e+00 2.365362e+00 2.579175e+00 2.106015e+00 1.785594e+00 9.128528e-01 6.719295e-01 4.296920e-01 3.791397e-01 3.930817e-01 4.895489e-01 4.641302e-01 4.248543e-01 4.428938e-01 3.998272e-01 3.986245e-01 3.496761e-01 2.787878e-01 1.070570e-01
<GCONST> 1.186441e+02
<STATE> 3
<MEAN> 39
 -1.880091e+01 5.337720e+00 -4.591757e+00 -1.991050e+00 -2.620506e-01 -6.628950e+00 1.223948e+00 6.572285e-02 -2.450272e-01 -2.340529e+00 4.857492e-01 -1.063913e+00 5.298408e+01 -5.220710e-01 -2.397768e-01 -7.860316e-02 4.992624e-03 -4.115181e-02 2.495895e-02 1.760660e-01 7.596809e-03 -5.530742e-02 9.204713e-04 1.005679e-01 1.464984e-01 -3.481279e-01 6.135211e-01 -2.798779e-01 2.211301e-01 -8.873090e-02 -1.430218e-01 -1.551860e-02 -7.312076e-02 -3.448278e-03 2.601939e-02 7.091416e-02 -8.083263e-02 -2.303073e-02 1.166737e-02
<VARIANCE> 39
 2.756666e+01 4.342352e+01 3.790445e+01 2.901307e+01 3.619028e+01 4.576249e+01 3.949284e+01 3.271537e+01 3.429225e+01 3.186425e+01 2.148043e+01 1.963155e+01 6.304787e+01 1.328935e+00 1.050563e+00 1.094318e+00 1.068092e+00 1.258965e+00 1.419861e+00 1.438923e+00 1.532467e+00 1.487065e+00 1.391340e+00 1.214333e+00 9.954605e-01 4.244665e-01 3.533628e-01 2.545566e-01 2.311742e-01 2.662841e-01 2.884731e-01 3.113526e-01 3.259564e-01 3.243913e-01 3.083974e-01 3.137779e-01 2.622977e-01 2.224892e-01 8.782212e-02
<GCONST> 1.019875e+02
<STATE> 4
<MEAN> 39
 -1.619175e+01 3.388959e+00 -3.748644e+00 -2.678241e+00 -1.295778e+00 -8.078207e+00 8.766448e-01 -8.048676e-02 7.103130e-01 -1.991808e+00 -4.269212e-01 -1.088042e+00 5.391068e+01 2.671450e+00 -8.389454e-01 5.053548e-01 -6.209417e-01 -9.680775e-01 -1.780569e-01 -8.056350e-01 -2.015449e-01 1.064670e-01 1.406296e-01 -5.195422e-01 -3.766322e-01 6.928458e-01 5.239351e-01 -4.177034e-02 9.366978e-02 -2.521300e-01 -1.821429e-01 6.823561e-02 -3.475049e-01 -6.773847e-02 -5.920438e-02 4.940908e-02 -4.479265e-02 -1.611480e-01 3.287487e-01
<VARIANCE> 39
 5.443137e+01 3.204839e+01 3.771357e+01 3.032990e+01 4.038462e+01 4.482935e+01 3.883857e+01 3.047216e+01 3.397371e+01 2.977718e+01 2.377628e+01 1.857493e+01 4.608411e+01 5.025980e+00 3.346418e+00 3.310881e+00 2.950932e+00 3.439130e+00 3.391970e+00 3.540680e+00 3.348958e+00 2.628968e+00 2.737057e+00 2.481050e+00 1.870459e+00 2.664010e+00 8.307267e-01 4.494070e-01 3.979651e-01 4.509742e-01 5.193925e-01 5.324008e-01 5.577575e-01 5.106993e-01 4.263797e-01 4.303752e-01 4.296701e-01 3.086446e-01 2.897715e-01
<GCONST> 1.219223e+02
<TRANSP> 5
 0.000000e+00 1.000000e+00 0.000000e+00 0.000000e+00 0.000000e+00
 0.000000e+00 6.794091e-01 3.205909e-01 0.000000e+00 0.000000e+00
 0.000000e+00 0.000000e+00 8.148032e-01 1.851968e-01 0.000000e+00
 0.000000e+00 0.000000e+00 0.000000e+00 7.186586e-01 2.813415e-01
 0.000000e+00 0.000000e+00 0.000000e+00 0.000000e+00 0.000000e+00
<ENDHMM>
~h "t"
<BEGINHMM>
<NUMSTATES> 5
<STATE> 2
<MEAN> 39
 -6.949361e+00 -3.606209e-01 -1.481296e+00 -3.018589e+00 -3.100165e+00 -3.370872e+00 -3.000636e+00 -1.037901e-01 9.212671e-03 -6.582651e-01 -1.331350e+00 -2.329668e+00 4.594920e+01 -4.951301e-01 4.171480e-02 -1.414131e-01 2.130365e-01 1.111011e-01 3.052672e-01 1.841215e-01 -2.699002e-02 -2.870566e-02 -1.392048e-02 1.112668e-01 1.979086e-01 -8.919618e-01 -3.239661e-02 -1.265047e-01 -2.639446e-02 -1.504545e-01 -2.574827e-02 -1.529514e-01 1.255427e-02 1.358038e-02 -7.453483e-03 -2.150371e-02 4.516944e-02 1.602624e-03 3.736676e-01
<VARIANCE> 39
 2.764681e+01 3.520380e+01 4.089347e+01 3.842335e+01 3.854083e+01 3.838630e+01 2.885364e+01 3.800129e+01 3.080954e+01 2.640706e+01 2.353145e+01 2.363209e+01 5.069506e+01 6.267286e-01 6.637811e-01 9.151971e-01 1.085105e+00 1.295925e+00 1.577893e+00 1.388280e+00 1.592992e+00 1.416465e+00 1.436950e+00 1.247772e+00 1.029762e+00 1.255383e+00 1.128474e-01 1.657117e-01 2.092705e-01 2.559936e-01 2.757822e-01 3.634613e-01 2.909236e-01 3.467408e-01 3.000818e-01 2.986067e-01 2.618007e-01 2.047959e-01 2.289898e-01
<GCONST> 1.006665e+02
<STATE> 3
<MEAN> 39
 -5.991363e+00 2.027412e+00 2.418521e-01 -2.653646e+00 -3.903314e+00 -4.333405e+00 -4.119480e+00 -2.139565e+00 -8.497524e-01 -5.464242e-01 -1.212886e+00 -2.561168e+00 4.642894e+01 -1.026211e+00 -8.037686e-01 -7.380599e-01 -6.521745e-01 3.660438e-01 -7.916670e-01 5.638559e-01 5.010498e-02 1.776124e-01 -2.759638e-01 2.606032e-01 2.303005e-01 1.340370e+00 2.781925e-01 -2.803746e-01 -8.243108e-02 -5.602475e-01 -9.843504e-02 -3.275307e-01 -1.537137e-01 8.876303e-02 1.799961e-01 3.018141e-02 -8.284248e-02 -1.732128e-01 1.134711e+00
<VARIANCE> 39
 2.255251e+01 3.451689e+01 4.861772e+01 4.427330e+01 4.638506e+01 4.073065e+01 2.780046e+01 3.442731e+01 2.905693e+01 2.521278e+01 2.508356e+01 2.220977e+01 4.357261e+01 1.771293e+00 2.340219e+00 3.337025e+00 3.105796e+00 3.592156e+00 3.856437e+00 2.898172e+00 3.196781e+00 2.596308e+00 2.542069e+00 2.425865e+00 1.690047e+00 3.574316e+00 3.370479e-01 4.038823e-01 6.177055e-01 5.516501e-01 6.181406e-01 5.920938e-01 5.377367e-01 6.669566e-01 4.899063e-01 4.883827e-01 4.695887e-01 3.498191e-01 4.032141e-01
<GCONST> 1.210513e+02
<STATE> 4
<MEAN> 39
 -8.331711e+00 -1.699103e+00 -2.717892e+00 -6.395617e+00 -2.625687e+00 -7.736907e+00 -2.102690e+00 -1.204853e+00 8.280319e-01 -1.345404e+00 -6.837382e-01 -2.539007e+00 5.434657e+01 9.404535e-01 -6.180397e-01 -2.234860e-01 -1.540734e+00 -2.506021e-01 -6.156899e-01 -6.112133e-01 2.924296e-01 4.404709e-01 8.617072e-02 -2.424935e-01 -5.908849e-01 2.926915e+00 6.469277e-01 1.005987e-01 3.333839e-01 -1.212137e-01 -2.305959e-01 4.547970e-01 -4.608536e-01 2.414300e-02 -1.400713e-01 1.689072e-01 -9.617405e-02 -2.036027e-01 -8.087708e-02
<VARIANCE> 39
 2.387908e+01 2.604300e+01 3.828419e+01 3.467887e+01 3.694315e+01 4.412734e+01 3.442204e+01 3.038411e+01 3.368264e+01 2.921770e+01 2.688921e+01 2.298483e+01 4.926567e+01 3.415046e+00 3.950765e+00 6.258695e+00 5.029965e+00 5.032716e+00 5.232852e+00 4.477038e+00 6.212505e+00 4.021592e+00 3.666741e+00 3.582722e+00 2.768336e+00 4.408615e+00 4.437501e-01 5.479809e-01 6.183999e-01 6.870169e-01 7.150012e-01 8.000472e-01 6.674758e-01 6.940242e-01 5.498123e-01 5.631325e-01 5.579540e-01 4.235511e-01 6.545116e-01
<GCONST> 1.293457e+02
<TRANSP> 5
 0.000000e+00 1.000000e+00 0.000000e+00 0.000000e+00 0.000000e+00
 0.000000e+00 7.621027e-01 2.378973e-01 0.000000e+00 0.000000e+00
 0.000000e+00 0.000000e+00 4.527372e-01 5.472627e-01 0.000000e+00
 0.000000e+00 0.000000e+00 0.000000e+00 5.050811e-01 4.949189e-01
 0.000000e+00 0.000000e+00 0.000000e+00 0.000000e+00 0.000000e+00
<ENDHMM>
~h "u"
<BEGINHMM>
<NUMSTATES> 5
<STATE> 2
<MEAN> 39
 6.129630e-01 3.745023e+00 -1.690894e+00 -1.030316e+01 -6.031424e+00 -4.786569e+00 -9.972902e+00 -4.510411e+00 -2.822824e+00 -3.408370e-01 3.428794e-01 -2.025543e+00 5.559531e+01 1.244750e+00 4.087183e-01 -5.332668e-01 -1.813825e+00 -5.418968e-01 8.362916e-01 -1.014745e+00 -7.866077e-01 -7.122198e-01 4.030194e-01 7.998028e-01 1.767965e-01 6.937282e-01 -3.331495e-01 -8.415281e-02 9.230163e-02 2.472332e-01 2.339029e-01 2.913159e-01 3.535017e-01 6.348588e-02 -1.596973e-03 2.244680e-02 -2.046775e-02 -6.370687e-02 -2.930050e-01
<VARIANCE> 39
 2.295785e+01 4.458155e+01 4.320646e+01 6.830317e+01 5.049474e+01 5.107674e+01 5.586808e+01 5.384007e+01 5.247039e+01 4.892929e+01 3.507235e+01 2.503659e+01 4.013033e+01 2.507795e+00 2.258391e+00 2.956679e+00 4.354459e+00 4.045072e+00 4.170635e+00 4.128358e+00 3.975595e+00 3.518158e+00 3.177838e+00 3.098631e+00 2.213897e+00 1.674007e+00 3.544829e-01 4.312384e-01 3.639163e-01 7.330560e-01 5.718939e-01 6.353850e-01 7.927456e-01 6.614958e-01 6.594777e-01 5.458643e-01 4.755723e-01 3.978710e-01 3.364851e-01
<GCONST> 1.269177e+02
<STATE> 3
<MEAN> 39
 1.704717e+00 2.560719e+00 -2.958974e+00 -1.486041e+01 -5.523733e+00 -3.929464e-01 -1.140305e+01 -7.089155e+00 -3.980765e+00 1.238281e+00 3.687564e+00 -2.219759e+00 5.813152e+01 -3.850063e-02 -3.175825e-01 2.617608e-02 -9.239832e-03 3.700926e-01 2.397168e-01 -1.808581e-01 -9.250246e-02 2.660675e-01 4.540673e-01 8.569548e-03 -4.128463e-01 8.711104e-02 -3.370983e-01 -3.928010e-02 2.807413e-01 8.412862e-01 1.578287e-01 -3.802366e-01 4.117847e-01 3.654069e-01 3.029358e-01 -2.477269e-01 -4.982874e-01 -9.433519e-02 -3.901796e-01
<VARIANCE> 39
 1.893239e+01 4.070842e+01 4.214029e+01 7.377000e+01 5.568806e+01 6.034639e+01 5.656069e+01 6.836948e+01 6.292937e+01 6.490225e+01 4.893302e+01 3.649515e+01 3.013972e+01 7.172762e-01 2.489082e+00 1.761398e+00 4.591636e+00 2.835976e+00 3.613452e+00 3.435882e+00 3.288738e+00 4.633172e+00 2.979975e+00 2.931016e+00 2.546412e+00 1.445341e+00 2.465453e-01 3.344841e-01 3.675665e-01 6.055275e-01 5.990285e-01 6.524392e-01 7.187580e-01 6.853148e-01 7.239361e-01 6.189687e-01 5.829294e-01 5.227625e-01 1.836618e-01
<GCONST> 1.250491e+02
<STATE> 4
<MEAN> 39
 6.884843e-01 3.077547e+00 -1.993970e+00 -1.363088e+01 -3.663701e+00 -2.998626e+00 -9.798795e+00 -4.740754e+00 -5.098008e+00 8.333099e-01 6.043096e-01 -1.924094e+00 5.553552e+01 -2.688659e-01 4.441052e-02 3.153988e-01 9.265081e-01 1.729359e-01 -1.471644e-01 4.190791e-01 2.645530e-01 3.468870e-01 -1.769864e-01 -4.323637e-01 -9.463362e-02 -7.112164e-01 -1.550106e-01 -4.704127e-03 6.116031e-02 2.194647e-01 -2.107079e-03 -7.239489e-02 8.963717e-02 1.236598e-02 6.727368e-02 -6.526855e-02 -4.384051e-02 4.295348e-02 -8.783951e-02
<VARIANCE> 39
 1.473393e+01 3.825121e+01 4.693357e+01 7.325934e+01 4.657850e+01 4.406056e+01 4.495811e+01 4.585797e+01 5.683667e+01 5.840015e+01 4.238603e+01 3.240874e+01 3.486858e+01 6.696036e-01 1.278441e+00 1.306075e+00 2.609336e+00 1.779189e+00 2.125096e+00 2.059549e+00 2.174461e+00 2.200264e+00 1.839828e+00 2.012642e+00 1.449211e+00 1.087986e+00 1.219395e-01 1.908609e-01 2.182787e-01 3.703840e-01 3.334339e-01 3.605632e-01 3.684031e-01 3.817513e-01 4.359190e-01 3.525567e-01 3.417337e-01 2.815065e-01 1.112164e-01
<GCONST> 1.099835e+02
<TRANSP> 5
 0.000000e+00 1.000000e+00 0.000000e+00 0.000000e+00 0.000000e+00
 0.000000e+00 4.345579e-01 5.654421e-01 0.000000e+00 0.000000e+00
 0.000000e+00 0.000000e+00 4.775938e-01 5.224062e-01 0.000000e+00
 0.000000e+00 0.000000e+00 0.000000e+00 6.805793e-01 3.194207e-01
 0.000000e+00 0.000000e+00 0.000000e+00 0.000000e+00 0.000000e+00
<ENDHMM>
~h "v"
<BEGINHMM>
<NUMSTATES> 5
<STATE> 2
<MEAN> 39
 -4.864539e+00 -5.008603e-01 -5.332552e-02 -1.606421e+00 -3.745006e+00 -1.832414e+00 -9.128204e-01 2.754398e+00 1.089448e+00 -1.333428e+00 -2.190835e+00 -3.326423e+00 5.369490e+01 -1.729360e+00 5.280886e-01 -8.908182e-01 7.489991e-01 9.692988e-02 -3.401745e-01 3.017934e-01 -4.539060e-02 1.826662e-01 -3.905125e-01 -6.440218e-02 4.346878e-01 -9.465666e-01 -1.206398e-01 -1.853995e-01 -5.272004e-02 -2.584583e-01 -2.010509e-01 -2.183622e-01 -2.564839e-01 -2.147403e-01 -1.140704e-01 -7.325272e-02 6.311241e-02 -1.280121e-01 2.536689e-01
<VARIANCE> 39
 1.258419e+01 2.578315e+01 4.989519e+01 2.716221e+01 3.682761e+01 2.756304e+01 1.514239e+01 4.711737e+01 3.398724e+01 2.499812e+01 2.330236e+01 2.308453e+01 2.187466e+01 1.406544e+00 8.715749e-01 1.942180e+00 1.246412e+00 2.294406e+00 2.112896e+00 2.080309e+00 2.043520e+00 2.792460e+00 1.705284e+00 1.531773e+00 1.438359e+00 6.550511e-01 2.388467e-01 1.396706e-01 2.506162e-01 2.113562e-01 3.233123e-01 3.565784e-01 2.725588e-01 3.215398e-01 4.225410e-01 2.554468e-01 2.582825e-01 2.089700e-01 7.107780e-02
<GCONST> 1.016001e+02
<STATE> 3
<MEAN> 39
 -1.211791e+01 -5.785527e-01 -2.359884e+00 -1.050286e+00 -3.057780e+00 -4.740867e+00 -2.322875e+00 -1.230013e+00 2.621695e-01 -3.006380e+00 -1.013823e+00 -1.784076e+00 5.211918e+01 -6.842123e-01 -1.824632e-01 7.705222e-03 2.670965e-02 -1.193928e-01 -1.364673e-01 8.294356e-02 -1.921412e-01 -2.162654e-01 -4.679586e-02 1.344953e-01 4.856841e-02 -1.513791e-01 7.679620e-01 -2.734565e-02 4.919301e-01 -2.586345e-01 -1.683143e-01 2.304599e-01 4.998077e-02 -1.612481e-02 -1.810183e-01 3.228447e-01 1.786125e-01 -1.446066e-01 2.817554e-01
<VARIANCE> 39
 1.028190e+01 1.543405e+01 3.288886e+01 1.887986e+01 2.026347e+01 2.155843e+01 1.683257e+01 2.416293e+01 2.126234e+01 3.120889e+01 1.700930e+01 1.393548e+01 1.361231e+01 1.894969e+00 1.102358e+00 1.726128e+00 1.140028e+00 1.454473e+00 1.427968e+00 1.164094e+00 2.018762e+00 1.489011e+00 1.755416e+00 1.469488e+00 9.361232e-01 3.343528e-01 2.805419e-01 2.849051e-01 4.385511e-01 3.363165e-01 3.993501e-01 3.360327e-01 3.302308e-01 4.372119e-01 4.165851e-01 3.685599e-01 3.621874e-01 2.148906e-01 1.352262e-01
<GCONST> 9.821080e+01
<STATE> 4
<MEAN> 39
 -8.223724e+00 2.873630e-01 -1.998722e+00 -1.550694e+00 -4.105491e+00 -1.582492e+00 -8.738714e-01 -9.994670e-01 -5.511311e-01 -1.335106e+00 -7.903396e-02 -3.042495e+00 5.211052e+01 2.615273e+00 -2.091215e-01 1.039451e+00 -1.647183e+00 -1.322194e+00 3.027534e-01 -5.234340e-01 -1.008076e+00 -7.966272e-01 1.035885e+00 6.979154e-01 -8.954278e-01 1.795751e+00 3.896542e-01 -2.427356e-01 3.125372e-01 -5.587226e-01 -4.305362e-01 -2.020042e-01 -3.489798e-01 -1.032690e-01 -1.220236e-02 1.624766e-01 -7.268263e-02 -2.402736e-01 5.572768e-01
<VARIANCE> 39
 3.638078e+01 2.296067e+01 5.013426e+01 4.140436e+01 2.699287e+01 3.863784e+01 2.488431e+01 2.863962e+01 2.357629e+01 2.675913e+01 1.882724e+01 1.657489e+01 2.236591e+01 3.848125e+00 3.611127e+00 7.236104e+00 3.848530e+00 3.519683e+00 5.183660e+00 3.039069e+00 5.220033e+00 3.001510e+00 2.406168e+00 2.750867e+00 1.524017e+00 1.392348e+00 7.278042e-01 5.148344e-01 7.398120e-01 5.796874e-01 4.955212e-01 5.426389e-01 4.565205e-01 6.404418e-01 3.887615e-01 4.627471e-01 3.461494e-01 2.812290e-01 1.715028e-01
<GCONST> 1.200481e+02
<TRANSP> 5
 0.000000e+00 1.000000e+00 0.000000e+00 0.000000e+00 0.000000e+00
 0.000000e+00 7.129658e-01 2.870342e-01 0.000000e+00 0.000000e+00
 0.000000e+00 0.000000e+00 7.255094e-01 2.744907e-01 0.000000e+00
 0.000000e+00 0.000000e+00 0.000000e+00 5.649453e-01 4.350547e-01
 0.000000e+00 0.000000e+00 0.000000e+00 0.000000e+00 0.000000e+00
<ENDHMM>
~h "w"
<BEGINHMM>
<NUMSTATES> 5
<STATE> 2
<MEAN> 39
 3.024225e+00 2.181965e+00 -4.830963e+00 -1.311324e+01 -6.073997e+00 1.827994e+00 -4.513295e+00 -2.739851e+00 -2.231991e+00 1.572027e+00 3.161766e+00 -3.156810e+00 5.594191e+01 8.099874e-01 7.402782e-01 -2.025795e-01 -1.463987e+00 -8.551804e-01 2.101633e-01 -1.239770e-01 -1.656938e-01 -7.615782e-01 1.578432e-02 5.316023e-01 5.109620e-01 9.255775e-02 -1.851257e-01 -4.314176e-01 -1.487283e-01 -1.227726e-01 1.440331e-01 1.260395e-01 8.078944e-02 1.642459e-01 1.188413e-01 4.450960e-02 -7.525777e-02 -2.183385e-01 2.782404e-01
<VARIANCE> 39
 1.941751e+01 4.104321e+01 3.564899e+01 7.981860e+01 4.346301e+01 3.623919e+01 4.148907e+01 2.850878e+01 2.978164e+01 2.764319e+01 2.499908e+01 2.164135e+01 3.945091e+01 1.108427e+00 1.293927e+00 1.438365e+00 2.950216e+00 2.239243e+00 2.935733e+00 2.035223e+00 1.863201e+00 1.736652e+00 1.622388e+00 1.993394e+00 1.434268e+00 1.543079e+00 1.530646e-01 2.125980e-01 2.334213e-01 4.763300e-01 3.738655e-01 5.204437e-01 3.384880e-01 4.198026e-01 3.400483e-01 3.729044e-01 3.695744e-01 3.180055e-01 1.172102e-01
<GCONST> 1.094132e+02
<STATE> 3
<MEAN> 39
 4.181050e+00 3.882142e-01 -6.420763e+00 -2.095904e+01 -7.610397e+00 5.339686e+00 -5.110429e+00 -3.037331e+00 -4.826561e+00 3.185865e+00 5.275236e+00 -3.566722e+00 5.900919e+01 -3.453740e-01 -1.647911e+00 -8.660917e-01 -1.176201e+00 1.038406e+00 1.388113e+00 4.120340e-02 -1.345080e-01 4.106452e-01 8.518797e-01 1.245605e-01 -1.522022e+00 1.240365e+00 -3.231905e-01 -3.213258e-01 1.430318e-01 6.984473e-01 5.174800e-01 -3.422943e-01 1.360338e-02 1.887191e-01 5.102877e-01 -1.439748e-01 -5.038854e-01 -4.259774e-01 7.725595e-03
<VARIANCE> 39
 1.390475e+01 5.236816e+01 4.204551e+01 6.626113e+01 5.424091e+01 5.337815e+01 4.933110e+01 3.930648e+01 4.901440e+01 3.976545e+01 3.683372e+01 2.653194e+01 2.185130e+01 6.593484e-01 1.249832e+00 1.072048e+00 3.037233e+00 2.764424e+00 2.902327e+00 2.069447e+00 2.477216e+00 2.814867e+00 2.082643e+00 2.464997e+00 2.023657e+00 8.923840e-01 1.127658e-01 2.291439e-01 2.294545e-01 4.093130e-01 4.446035e-01 4.687171e-01 3.746244e-01 3.908287e-01 3.863147e-01 4.198218e-01 3.064165e-01 3.763527e-01 1.297537e-01
<GCONST> 1.117186e+02
<STATE> 4
<MEAN> 39
 1.275423e+00 -4.627152e+00 -6.904885e+00 -1.980269e+01 -1.867807e+00 5.537240e+00 -4.030140e+00 -2.571502e+00 -1.000560e+00 4.543833e+00 3.048133e+00 -9.815698e+00 6.201023e+01 -5.793231e-01 -9.553977e-01 -1.055997e-01 9.960054e-01 8.756180e-01 -4.456822e-01 1.133550e-01 5.038596e-01 9.203216e-01 -5.398983e-01 -1.110684e+00 -8.434969e-01 2.384294e-01 1.751968e-02 2.694474e-01 1.662906e-01 2.882590e-01 -2.471989e-01 -2.773837e-01 4.779726e-02 7.067630e-02 -1.172923e-01 -2.892320e-01 -4.610889e-02 4.635136e-01 -2.736152e-01
<VARIANCE> 39
 1.220262e+01 4.564204e+01 4.072948e+01 5.981332e+01 4.172356e+01 4.561303e+01 5.368591e+01 3.954862e+01 6.635937e+01 4.737477e+01 4.719695e+01 3.373792e+01 2.290276e+01 3.410465e-01 1.494728e+00 8.045476e-01 1.614698e+00 1.634401e+00 1.655216e+00 1.324717e+00 1.447225e+00 2.179553e+00 1.791714e+00 1.505762e+00 2.057520e+00 1.463454e+00 6.740179e-02 2.001344e-01 1.485905e-01 3.642820e-01 2.757595e-01 3.504039e-01 2.303636e-01 2.624716e-01 3.237405e-01 3.245124e-01 2.550122e-01 3.333287e-01 1.283231e-01
<GCONST> 1.045387e+02
<TRANSP> 5
 0.000000e+00 1.000000e+00 0.000000e+00 0.000000e+00 0.000000e+00
 0.000000e+00 7.473263e-01 2.526737e-01 0.000000e+00 0.000000e+00
 0.000000e+00 0.000000e+00 5.952510e-01 4.047490e-01 0.000000e+00
 0.000000e+00 0.000000e+00 0.000000e+00 6.875275e-01 3.124725e-01
 0.000000e+00 0.000000e+00 0.000000e+00 0.000000e+00 0.000000e+00
<ENDHMM>
~h "y"
<BEGINHMM>
<NUMSTATES> 5
<STATE> 2
<MEAN> 39
 -5.333578e+00 1.853953e-01 9.459990e+00 -1.289944e+01 -1.061507e+01 -8.247954e+00 -5.254725e+00 -2.028262e+00 -4.239420e+00 -3.971237e-02 -4.436419e-02 -1.888064e+00 6.030951e+01 -1.045797e-01 -4.410271e-01 7.569760e-01 -9.299220e-01 -1.068140e+00 -2.661001e-01 4.374929e-01 5.222871e-01 -2.974086e-01 3.373018e-01 5.228502e-01 -2.061398e-02 9.505770e-01 9.108397e-02 -3.037509e-01 -5.187930e-01 2.238235e-01 2.243091e-01 1.314212e-01 1.964450e-01 2.378695e-01 1.676542e-01 -1.291907e-01 -1.284602e-01 -1.373151e-01 -5.178834e-02
<VARIANCE> 39
 2.493917e+01 7.113519e+01 5.984906e+01 8.798357e+01 5.886420e+01 5.154129e+01 4.348478e+01 7.376395e+01 4.048077e+01 5.389537e+01 5.319740e+01 2.271805e+01 4.899580e+01 1.200546e+00 3.204049e+00 3.991143e+00 3.509176e+00 2.809248e+00 2.876684e+00 3.196112e+00 4.526420e+00 2.629410e+00 2.448354e+00 2.074147e+00 1.673726e+00 1.887930e+00 1.441282e-01 3.083261e-01 4.587671e-01 5.658399e-01 6.345033e-01 4.340018e-01 5.057746e-01 5.335618e-01 4.180641e-01 4.435983e-01 4.090587e-01 2.892449e-01 1.872104e-01
<GCONST> 1.224286e+02
<STATE> 3
<MEAN> 39
 -4.663120e+00 -5.989260e+00 8.874350e+00 -1.241606e+01 -1.355486e+01 -9.331497e+00 -1.034562e+00 2.527873e+00 -3.585256e+00 -1.698124e-01 3.018535e+00 -3.836152e+00 6.382128e+01 1.397767e-01 -6.277989e-01 -5.474935e-01 7.546955e-02 1.597569e-01 2.057871e-02 6.049080e-01 7.996402e-01 8.246765e-02 -2.470510e-01 -7.015005e-02 -2.111802e-01 2.120290e-01 8.617503e-02 -5.333921e-02 -3.493196e-01 1.708435e-01 4.619140e-01 8.759178e-02 -1.091960e-01 6.090089e-02 1.165394e-01 -1.796798e-01 -2.962270e-01 6.086964e-03 -8.592471e-02
<VARIANCE> 39
 2.433603e+01 3.807373e+01 3.561037e+01 6.769985e+01 3.719589e+01 3.385183e+01 3.760996e+01 6.638891e+01 3.565501e+01 3.717361e+01 4.067818e+01 1.689977e+01 3.163744e+01 2.448609e-01 1.466740e+00 1.982134e+00 9.794483e-01 1.456923e+00 1.090174e+00 1.815461e+00 2.688360e+00 1.482553e+00 1.678688e+00 1.247025e+00 9.410144e-01 2.753749e-01 3.866059e-02 1.425679e-01 1.262889e-01 1.471101e-01 2.393536e-01 2.036607e-01 3.088331e-01 3.683779e-01 2.427370e-01 2.448293e-01 2.034879e-01 1.761555e-01 5.656447e-02
<GCONST> 9.649842e+01
<STATE> 4
<MEAN> 39
 -1.687809e+00 -8.135421e+00 -9.388138e-01 -6.735791e+00 -1.160983e+01 -3.630479e+00 1.459260e+00 3.512414e+00 -3.043688e+00 -4.373538e+00 -1.708568e-01 -3.531941e+00 6.166445e+01 2.801167e-01 -6.318499e-01 -1.167592e+00 6.792391e-01 1.341151e+00 2.917338e-01 -1.898417e-01 2.697310e-01 2.286567e-01 -5.426636e-01 -6.408424e-01 -4.196106e-02 -5.393055e-02 2.048768e-02 2.455198e-01 1.087048e-01 -2.861681e-02 1.500025e-01 7.746460e-02 -3.509555e-01 -3.673364e-01 5.848227e-02 2.109237e-01 -2.105297e-02 -1.267221e-03 -1.767857e-01
<VARIANCE> 39
 1.847277e+01 3.273797e+01 6.784564e+01 8.747269e+01 4.445544e+01 9.908971e+01 3.353253e+01 5.734996e+01 4.271058e+01 2.876773e+01 3.063751e+01 1.494562e+01 3.127791e+01 2.993447e-01 8.608270e-01 1.601782e+00 1.712412e+00 1.848408e+00 1.429495e+00 1.806649e+00 1.924271e+00 1.564097e+00 1.618585e+00 1.750672e+00 1.025057e+00 2.298787e-01 3.566210e-02 1.323610e-01 1.382320e-01 1.779069e-01 2.341990e-01 2.489074e-01 2.860307e-01 3.967098e-01 2.293266e-01 2.433720e-01 2.139248e-01 1.765396e-01 5.088488e-02
<GCONST> 9.810017e+01
<TRANSP> 5
 0.000000e+00 1.000000e+00 0.000000e+00 0.000000e+00 0.000000e+00
 0.000000e+00 6.211745e-01 3.788255e-01 0.000000e+00 0.000000e+00
 0.000000e+00 0.000000e+00 6.920109e-01 3.079891e-01 0.000000e+00
 0.000000e+00 0.000000e+00 0.000000e+00 6.531292e-01 3.468708e-01
 0.000000e+00 0.000000e+00 0.000000e+00 0.000000e+00 0.000000e+00
<ENDHMM>
~h "z"
<BEGINHMM>
<NUMSTATES> 5
<STATE> 2
<MEAN> 39
 -5.755755e+00 2.088065e+00 -1.026335e+00 -2.784628e+00 -2.849004e+00 8.880954e-01 -3.783319e+00 -2.019340e+00 -1.513973e+00 6.299061e-01 -2.531382e-01 -1.714208e+00 4.463988e+01 -5.849423e-01 2.258246e-01 -2.190531e-01 -7.240919e-03 -1.277155e-01 1.352194e-01 4.456461e-01 1.290963e-01 5.587127e-02 5.835213e-02 -1.026132e-01 7.504250e-02 -6.048523e-01 -7.806473e-02 2.173687e-02 9.923529e-02 -1.420565e-02 -3.379204e-02 -2.315000e-02 2.801398e-02 -2.738831e-02 -3.574318e-02 -2.507340e-02 7.297749e-02 -2.462933e-02 7.101605e-02
<VARIANCE> 39
 4.704149e+01 3.700068e+01 1.925572e+01 1.807137e+01 2.373894e+01 4.365697e+01 2.266199e+01 2.367477e+01 1.889953e+01 2.329666e+01 1.375889e+01 1.019426e+01 4.588115e+01 4.112743e-01 4.535128e-01 3.827143e-01 6.863018e-01 8.771436e-01 9.367360e-01 1.202620e+00 1.339999e+00 1.069439e+00 1.020475e+00 8.759726e-01 7.096585e-01 3.143397e-01 1.184224e-01 6.743845e-02 6.758449e-02 1.562372e-01 2.245173e-01 1.837201e-01 2.725414e-01 2.642682e-01 2.045747e-01 1.477400e-01 1.651767e-01 1.615245e-01 3.256220e-02
<GCONST> 8.304898e+01
<STATE> 3
<MEAN> 39
 -1.242856e+01 3.719011e+00 3.280025e+00 -3.004625e+00 -7.144561e-01 -3.045068e+00 -1.953729e+00 -1.558625e+00 8.717187e-01 -4.483104e+00 1.746792e+00 -1.412446e+00 5.245723e+01 -6.996418e-01 -2.813936e-01 2.030846e-01 4.628860e-02 -3.961535e-01 -5.629022e-01 1.891571e-01 4.613706e-01 3.162670e-01 -9.545024e-02 4.463563e-02 -2.172060e-01 4.958453e-01 6.855163e-01 -3.373723e-01 1.096346e-01 -2.532442e-01 -2.922024e-01 -2.207800e-01 -2.267383e-01 2.517312e-01 -5.099717e-02 2.277419e-01 -1.311024e-02 -1.954464e-01 3.321732e-01
<VARIANCE> 39
 3.782264e+01 4.364904e+01 1.769003e+01 1.792912e+01 3.010266e+01 3.619404e+01 3.512773e+01 2.359649e+01 3.648622e+01 2.971430e+01 1.632307e+01 1.540588e+01 3.629832e+01 7.132490e+00 2.087480e+00 1.124990e+00 2.107471e+00 2.316677e+00 3.348864e+00 3.542139e+00 2.119003e+00 1.710002e+00 1.802768e+00 1.669613e+00 1.447475e+00 9.742717e-01 9.171070e-01 3.226886e-01 2.623714e-01 4.349765e-01 4.124303e-01 7.655825e-01 7.197956e-01 4.929899e-01 3.449283e-01 3.649964e-01 3.133689e-01 3.275578e-01 2.588853e-01
<GCONST> 1.130004e+02
<STATE> 4
<MEAN> 39
 -5.784997e+00 -8.706423e-01 4.503896e+00 -4.518941e+00 -1.959011e+00 -8.968207e+00 -1.668542e+00 6.852204e+00 -1.220612e+00 4.271743e-01 -4.768458e-01 -7.648127e+00 5.585176e+01 1.567209e+00 -9.386992e-01 3.203321e-01 -8.150214e-01 -1.345683e+00 -1.064280e+00 -5.618086e-01 6.957600e-01 -2.105556e-02 7.820336e-01 4.368887e-02 -8.740246e-01 1.307663e+00 -1.862504e-01 -4.583910e-02 -5.496565e-02 -9.467158e-02 5.387445e-02 8.089942e-02 -2.884926e-02 -1.059496e-01 -7.802753e-02 -5.757931e-02 -5.202357e-02 -9.237630e-02 1.772818e-02
<VARIANCE> 39
 2.280324e+01 4.821695e+01 1.387203e+01 2.008232e+01 4.715634e+01 2.881592e+01 1.214525e+01 4.498591e+01 4.060301e+01 3.877072e+01 8.487676e+00 3.729314e+01 4.182606e+01 4.345092e+00 3.287891e+00 1.380128e+00 2.601042e+00 2.579206e+00 3.174655e+00 1.344278e+00 3.659831e+00 1.972196e+00 3.494791e+00 1.212861e+00 3.012872e+00 2.621858e+00 4.603376e-01 2.894218e-01 1.069413e-01 2.437368e-01 3.068185e-01 4.044529e-01 2.079094e-01 3.152893e-01 3.199771e-01 3.513883e-01 1.256199e-01 4.305533e-01 3.198915e-01
<GCONST> 1.097865e+02
<TRANSP> 5
 0.000000e+00 1.000000e+00 0.000000e+00 0.000000e+00 0.000000e+00
 0.000000e+00 8.503085e-01 1.496915e-01 0.000000e+00 0.000000e+00
 0.000000e+00 0.000000e+00 8.081211e-01 1.918788e-01 0.000000e+00
 0.000000e+00 0.000000e+00 0.000000e+00 6.723708e-01 3.276293e-01
 0.000000e+00 0.000000e+00 0.000000e+00 0.000000e+00 0.000000e+00
<ENDHMM>
~h "ai"
<BEGINHMM>
<NUMSTATES> 5
<STATE> 2
<MEAN> 39
 -1.953003e+00 -1.112398e+01 -2.225047e+00 -1.015434e+01 -5.463122e+00 -5.015202e+00 -2.657489e+00 6.604649e+00 -5.938209e-01 -3.477424e+00 -3.049111e+00 -5.542552e+00 6.414082e+01 -3.652923e-01 -3.812614e-01 1.074352e+00 1.474000e-01 -1.120982e+00 -6.693331e-01 8.407028e-01 7.364864e-01 -5.828086e-01 -5.390335e-01 4.659625e-01 4.905648e-01 2.832113e-01 -7.051234e-02 5.334661e-01 2.293674e-01 2.971018e-02 -1.533769e-01 2.522232e-03 -5.004403e-02 -4.500363e-01 -8.047578e-02 3.074668e-01 3.042092e-01 4.887832e-02 -3.270259e-01
<VARIANCE> 39
 1.438981e+01 3.717325e+01 4.892238e+01 5.380092e+01 5.201725e+01 4.391779e+01 3.589679e+01 5.117542e+01 5.380875e+01 3.676802e+01 3.014990e+01 2.780777e+01 3.352259e+01 2.447934e-01 1.112095e+00 1.204340e+00 1.321734e+00 1.866597e+00 2.018570e+00 1.736263e+00 1.774448e+00 1.456388e+00 1.597183e+00 1.788205e+00 1.176233e+00 2.634458e-01 9.711745e-02 1.819910e-01 1.644484e-01 2.508931e-01 2.871715e-01 2.955284e-01 3.090803e-01 4.271970e-01 2.823437e-01 3.535980e-01 3.230998e-01 2.802118e-01 1.188742e-01
<GCONST> 1.022370e+02
<STATE> 3
<MEAN> 39
 -3.687822e+00 -7.369042e+00 5.917986e+00 -1.108078e+01 -1.353820e+01 -7.984493e+00 -1.127488e+00 5.499743e+00 -3.705762e+00 -7.835622e-01 1.907728e+00 -4.939910e+00 6.309620e+01 -2.837685e-01 9.853178e-01 1.319457e+00 -2.707564e-01 -8.347710e-01 -1.612401e-01 -2.682734e-01 -1.136854e+00 -3.693580e-01 7.570281e-01 4.614786e-01 1.440366e-01 -3.614625e-01 7.598443e-02 1.318303e-01 -1.974667e-01 1.247363e-01 4.006519e-01 1.286263e-01 -2.252716e-01 -2.079562e-01 9.971719e-02 -2.022973e-02 -2.708185e-01 2.664537e-02 -1.832506e-01
<VARIANCE> 39
 1.725222e+01 3.110522e+01 5.285915e+01 5.206880e+01 4.116532e+01 4.691565e+01 3.199696e+01 5.504380e+01 4.461003e+01 2.965892e+01 4.007433e+01 2.009882e+01 2.978989e+01 2.074920e-01 6.357471e-01 9.198102e-01 1.234865e+00 1.377455e+00 1.211871e+00 1.750222e+00 1.608000e+00 1.469995e+00 1.618311e+00 1.551428e+00 9.601219e-01 1.961087e-01 3.503871e-02 9.760563e-02 1.206128e-01 1.609312e-01 1.832531e-01 2.039902e-01 2.751065e-01 3.092088e-01 2.261647e-01 2.710394e-01 2.002826e-01 1.819280e-01 4.708774e-02
<GCONST> 9.294978e+01
<STATE> 4
<MEAN> 39
 -5.116648e+00 -2.110316e+00 9.814614e+00 -1.108120e+01 -1.206581e+01 -9.214024e+00 -2.753110e+00 -1.393542e+00 -4.409338e+00 9.533342e-01 -1.158946e-01 -3.503676e+00 5.887097e+01 1.722027e-01 6.666057e-01 -3.977665e-01 8.274295e-01 7.986361e-01 3.100533e-01 -5.060702e-02 -4.799418e-01 1.891548e-01 -1.623811e-01 -3.843634e-01 9.631003e-02 -1.269069e+00 -2.319586e-03 -6.510189e-02 -2.669503e-01 1.172037e-01 1.521072e-01 8.875891e-02 4.132112e-02 1.016507e-01 9.507896e-02 -8.640437e-02 -1.487241e-02 -2.411547e-02 -8.586573e-02
<VARIANCE> 39
 1.959848e+01 3.371618e+01 4.013392e+01 7.679535e+01 5.014344e+01 4.118127e+01 3.668023e+01 4.643184e+01 3.145878e+01 2.943183e+01 4.738388e+01 2.483891e+01 4.350915e+01 5.811760e-01 1.015419e+00 1.430865e+00 1.549558e+00 1.639652e+00 1.652066e+00 1.871385e+00 2.374515e+00 1.744004e+00 1.598355e+00 1.789396e+00 1.261175e+00 7.074159e-01 9.677899e-02 1.592844e-01 2.271088e-01 2.793424e-01 3.115678e-01 2.919065e-01 3.471390e-01 4.077526e-01 3.374668e-01 3.369053e-01 3.439319e-01 2.389800e-01 1.306626e-01
<GCONST> 1.052106e+02
<TRANSP> 5
 0.000000e+00 1.000000e+00 0.000000e+00 0.000000e+00 0.000000e+00
 0.000000e+00 7.228163e-01 2.771837e-01 0.000000e+00 0.000000e+00
 0.000000e+00 0.000000e+00 7.612917e-01 2.387084e-01 0.000000e+00
 0.000000e+00 0.000000e+00 0.000000e+00 7.974659e-01 2.025342e-01
 0.000000e+00 0.000000e+00 0.000000e+00 0.000000e+00 0.000000e+00
<ENDHMM>
~h "au"
<BEGINHMM>
<NUMSTATES> 5
<STATE> 2
<MEAN> 39
 9.167428e-01 -4.434937e+00 -9.344679e+00 -1.874330e+01 -2.474670e+00 1.167139e+00 -7.470241e+00 8.159561e-01 -3.906116e+00 -7.769328e-02 -3.343834e+00 -6.810910e+00 5.977479e+01 1.972627e-01 4.199907e-01 -1.514389e-01 -3.521464e-01 4.994665e-02 2.430548e-01 -1.423619e-01 -2.547105e-01 -1.481411e-01 1.718086e-01 3.333051e-01 1.572465e-01 -3.025623e-01 -2.408605e-02 1.144509e-01 1.149129e-01 1.632010e-01 -7.170807e-02 -9.728073e-02 -3.300495e-02 -1.082531e-01 1.030450e-02 9.681345e-03 3.413660e-02 7.439523e-02 -1.221365e-01
<VARIANCE> 39
 1.277912e+01 4.742525e+01 5.653117e+01 6.945000e+01 4.017236e+01 4.732909e+01 3.754900e+01 3.547602e+01 6.234243e+01 5.797861e+01 4.195862e+01 2.949793e+01 3.311903e+01 2.595716e-01 6.219306e-01 7.344399e-01 1.081302e+00 1.321424e+00 1.478554e+00 1.186522e+00 1.432276e+00 1.316987e+00 1.427372e+00 1.328882e+00 1.202020e+00 2.314323e-01 4.926011e-02 1.207488e-01 1.037928e-01 2.057208e-01 1.991179e-01 2.180482e-01 1.889268e-01 2.580343e-01 2.706510e-01 2.323413e-01 2.348352e-01 2.091659e-01 6.879948e-02
<GCONST> 9.511443e+01
<STATE> 3
<MEAN> 39
 2.071336e+00 -1.256368e-02 -6.852327e+00 -1.592666e+01 -4.458405e+00 7.324642e-03 -1.050293e+01 -4.253618e+00 -2.468023e+00 3.678510e+00 1.856196e+00 -4.228611e+00 5.751272e+01 -7.940023e-02 4.252342e-01 6.546611e-01 1.057619e+00 -7.773801e-02 -3.045351e-01 -3.154563e-01 -3.249555e-01 -1.094556e-01 -2.024499e-01 -6.837304e-02 3.206083e-01 -7.582467e-01 -1.346247e-01 1.742335e-02 2.143602e-01 4.487323e-01 3.754735e-03 -2.497006e-01 2.217421e-01 2.503832e-01 -1.487781e-02 -1.748638e-01 -2.929205e-01 -5.368782e-02 -1.720517e-01
<VARIANCE> 39
 8.863383e+00 5.334287e+01 3.343057e+01 5.971936e+01 4.533455e+01 5.128061e+01 6.855035e+01 4.107409e+01 5.053144e+01 4.919434e+01 3.798416e+01 3.162937e+01 3.192223e+01 5.404739e-01 1.746357e+00 1.483175e+00 2.506505e+00 2.931701e+00 3.025544e+00 2.744555e+00 3.021478e+00 3.800020e+00 2.668830e+00 2.509721e+00 2.022601e+00 9.544300e-01 6.754839e-02 2.911558e-01 2.544919e-01 2.579716e-01 5.442852e-01 4.897256e-01 5.241215e-01 5.164096e-01 5.544034e-01 5.165115e-01 4.818449e-01 4.233409e-01 1.182191e-01
<GCONST> 1.146934e+02
<STATE> 4
<MEAN> 39
 -4.232971e+00 4.814054e-01 -3.443854e+00 -5.718387e+00 9.523058e-01 6.000233e-01 -3.419619e+00 4.821559e-01 -2.289968e+00 -2.034184e-01 3.694623e-01 -3.648951e+00 4.520148e+01 -2.751895e-01 1.010196e-01 2.915677e-01 8.593609e-01 9.065904e-02 -1.580858e-01 2.459607e-01 1.265032e-01 -1.838595e-02 -1.001654e-01 -2.066921e-01 3.658038e-03 -6.351360e-01 -3.590507e-02 -4.132959e-02 -3.223704e-02 -6.515196e-02 -5.942506e-03 1.530085e-03 1.022191e-02 -1.748116e-03 -3.467735e-02 1.397960e-02 3.228227e-02 5.543851e-03 6.309430e-02
<VARIANCE> 39
 2.552192e+01 3.989614e+01 5.539703e+01 9.690295e+01 4.883713e+01 3.243496e+01 4.590117e+01 4.330205e+01 2.721373e+01 2.591698e+01 2.059171e+01 2.557809e+01 8.023863e+01 3.793581e-01 1.091702e+00 1.054451e+00 1.564855e+00 1.309117e+00 1.786154e+00 1.513435e+00 1.768821e+00 1.783607e+00 1.314933e+00 1.312504e+00 1.114103e+00 8.279389e-01 4.671808e-02 1.498015e-01 1.531589e-01 1.642000e-01 2.507928e-01 2.712395e-01 2.880291e-01 3.096721e-01 2.746017e-01 2.499342e-01 2.272183e-01 1.957964e-01 6.329388e-02
<GCONST> 9.955960e+01
<TRANSP> 5
 0.000000e+00 1.000000e+00 0.000000e+00 0.000000e+00 0.000000e+00
 0.000000e+00 8.617541e-01 1.382460e-01 0.000000e+00 0.000000e+00
 0.000000e+00 0.000000e+00 7.349703e-01 2.650297e-01 0.000000e+00
 0.000000e+00 0.000000e+00 0.000000e+00 7.699865e-01 2.300135e-01
 0.000000e+00 0.000000e+00 0.000000e+00 0.000000e+00 0.000000e+00
<ENDHMM>
~h "ei"
<BEGINHMM>
<NUMSTATES> 5
<STATE> 2
<MEAN> 39
 -3.488859e+00 -1.329522e+01 3.871471e+00 -1.134858e+01 -5.287431e+00 -1.609311e+00 -7.315372e+00 1.008451e+01 -6.764251e+00 -1.326264e+00 -5.108622e+00 5.084102e-01 5.457694e+01 -2.778459e-01 -6.266407e-01 8.034247e-01 -1.496075e+00 -9.374760e-01 4.350371e-02 8.287406e-01 -9.652033e-02 1.143450e-01 1.211206e-01 -4.515479e-01 -2.930639e-01 6.850847e-01 8.324953e-02 2.219666e-01 -3.265115e-01 3.426340e-01 -2.207153e-01 -1.698728e-01 -9.177843e-02 -5.419802e-01 1.980869e-01 4.463137e-02 -4.480422e-03 -1.063904e-01 -1.650232e-01
<VARIANCE> 39
 1.665134e+00 3.164297e+01 1.084225e+01 2.884078e+01 2.772768e+01 3.123956e+01 1.138843e+01 1.997284e+01 1.146142e+01 6.248945e+00 1.478385e+01 5.068468e+00 7.444124e+00 1.873554e-01 4.978851e-01 1.553307e+00 8.227910e-01 8.016486e-01 5.709604e-01 5.591810e-01 2.473233e+00 9.185093e-01 7.186242e-01 5.849604e-01 5.125361e-01 2.684976e-01 1.129655e-01 1.328178e-01 1.182067e-01 2.769211e-01 3.002059e-01 1.474085e-01 2.783333e-01 2.560113e-01 2.500598e-01 2.099170e-01 1.604435e-01 1.221553e-01 7.793686e-02
<GCONST> 7.584502e+01
<STATE> 3
<MEAN> 39
 -2.546512e+00 -9.753988e+00 3.344379e+00 -1.061449e+01 -1.274427e+01 -3.477228e+00 -6.951869e+00 4.145073e+00 -4.975090e+00 6.654312e-02 -5.472334e+00 -1.894171e+00 5.341380e+01 2.029727e-01 1.111803e+00 -3.230937e-01 1.460436e+00 -3.696287e-01 7.888711e-01 -3.301056e-01 -6.217404e-01 6.884668e-02 -2.981710e-01 9.401228e-01 -3.227715e-01 -1.097939e+00 -8.102049e-02 1.100983e-01 1.308427e-01 2.300739e-01 2.941342e-01 1.642250e-01 3.395706e-02 1.929803e-01 -4.547121e-03 -1.612347e-01 2.447003e-02 2.369775e-02 -1.533153e-01
<VARIANCE> 39
 1.983553e+00 2.525345e+01 3.508681e+00 3.892978e+01 1.434228e+01 5.413100e+01 1.149506e+01 1.983599e+01 9.866622e+00 1.147475e+01 3.298396e+01 1.009986e+01 1.783945e+01 2.135824e-01 5.344268e-01 3.297163e-01 1.463400e+00 1.921086e+00 3.086790e+00 7.176104e-01 9.152415e-01 1.174432e+00 1.309179e+00 1.480587e+00 4.148924e-01 3.692454e-01 3.054514e-02 1.269732e-01 5.226208e-02 4.678217e-01 2.941806e-01 5.954503e-01 1.335083e-01 1.554255e-01 1.661853e-01 2.095242e-01 5.013632e-01 9.842540e-02 1.089345e-01
<GCONST> 7.995441e+01
<STATE> 4
<MEAN> 39
 -2.880992e+00 1.848568e+00 6.166082e+00 -1.432869e+01 -1.735318e+01 -8.823521e+00 -1.094455e+01 -4.106732e+00 -1.828787e+00 -8.401845e-01 -7.795902e+00 -1.973135e+00 5.469324e+01 -8.207620e-02 5.475072e-01 3.823302e-01 1.154073e+00 -9.298220e-02 1.742302e-01 -8.565279e-02 -5.636414e-03 -2.229307e-02 -1.361588e-01 2.271029e-01 1.649935e-02 -7.211854e-01 -2.161934e-01 8.219032e-02 -1.362143e-01 1.804591e-01 1.684530e-01 -2.333243e-01 3.179938e-01 1.326246e-01 -1.092825e-03 7.762627e-02 2.483097e-01 6.249024e-02 6.972484e-02
<VARIANCE> 39
 2.488110e+00 2.477875e+01 1.952320e+01 6.913078e+01 1.353029e+01 5.691928e+01 1.737982e+01 2.061842e+01 1.900597e+01 1.206951e+01 1.338086e+01 1.898482e+01 2.189186e+01 2.282805e-01 1.589170e-01 5.895503e-01 1.095692e+00 6.084534e-01 8.288763e-01 2.572875e+00 7.246178e-01 1.356138e+00 1.068702e+00 1.356060e+00 1.260152e+00 1.988932e-01 9.973450e-02 6.814197e-02 1.529967e-01 2.390163e-01 2.440260e-01 3.471590e-01 4.345865e-01 1.449171e-01 3.136602e-01 2.771783e-01 1.387375e-01 2.316248e-01 4.356448e-02
<GCONST> 8.252288e+01
<TRANSP> 5
 0.000000e+00 1.000000e+00 0.000000e+00 0.000000e+00 0.000000e+00
 0.000000e+00 7.391604e-01 2.608395e-01 0.000000e+00 0.000000e+00
 0.000000e+00 0.000000e+00 7.793124e-01 2.206876e-01 0.000000e+00
 0.000000e+00 0.000000e+00 0.000000e+00 7.966748e-01 2.033253e-01
 0.000000e+00 0.000000e+00 0.000000e+00 0.000000e+00 0.000000e+00
<ENDHMM>
~h "fr"
<BEGINHMM>
<NUMSTATES> 5
<STATE> 2
<MEAN> 39
 -4.704510e+00 -1.103709e+00 -2.616500e-01 -5.726226e+00 -3.931308e+00 -3.382174e+00 -3.784538e+00 -5.278155e-01 -8.719915e-01 -8.440589e-01 -9.029119e-01 -2.999709e+00 5.348138e+01 3.453658e-03 -1.211672e-03 2.478141e-03 -2.587918e-03 1.180722e-03 -1.437788e-03 7.582301e-05 -8.767679e-04 -1.277914e-03 -1.967736e-03 -1.859193e-03 -1.121002e-03 1.006024e-02 -8.298113e-05 7.079283e-05 9.746225e-05 4.793386e-04 5.620109e-05 1.483774e-04 4.900038e-05 2.586535e-04 3.670288e-04 6.784983e-05 -9.429256e-05 1.335610e-04 -1.105432e-03
<VARIANCE> 39
