~o
<STREAMINFO> 1 39
<VECSIZE> 39<NULLD><MFCC_D_A_0><DIAGC>
~h "a"
<BEGINHMM>
<NUMSTATES> 5
<STATE> 2
<MEAN> 39
 -1.210262e+00 -9.414122e+00 -4.405458e+00 -1.122914e+01 -3.043340e+00 -3.880831e+00 -4.235982e+00 4.196147e+00 1.492001e+00 -1.798682e+00 -3.352200e+00 -7.006648e+00 6.328351e+01 1.296764e-01 -1.289262e+00 -3.487170e-01 -4.717165e-01 5.375576e-01 4.705831e-01 2.036662e-01 7.651237e-01 3.792654e-02 -4.756241e-01 -4.362867e-01 -3.903544e-01 8.789942e-01 -2.080297e-01 5.647853e-01 3.142909e-01 4.756767e-01 1.711020e-02 -6.575529e-02 -3.211024e-02 -4.718129e-01 -1.778896e-01 4.267350e-02 1.697340e-01 3.278398e-01 -6.126047e-01
<VARIANCE> 39
 1.798642e+01 4.329671e+01 5.206046e+01 5.297881e+01 6.396088e+01 5.738461e+01 5.220260e+01 5.690338e+01 5.466126e+01 4.506940e+01 3.907817e+01 3.846894e+01 3.721870e+01 9.765583e-01 2.159034e+00 1.990648e+00 2.603784e+00 2.776302e+00 2.784427e+00 2.752222e+00 3.051309e+00 2.344443e+00 2.496357e+00 2.214230e+00 1.999754e+00 1.424147e+00 2.482340e-01 3.450508e-01 3.023640e-01 4.246376e-01 5.344324e-01 4.437329e-01 4.822071e-01 5.964186e-01 4.769094e-01 4.455176e-01 4.212707e-01 3.809297e-01 2.504501e-01
<GCONST> 1.194178e+02
<STATE> 3
<MEAN> 39
 -2.159881e+00 -1.122749e+01 -3.452001e+00 -1.134512e+01 -1.408279e+00 -3.344012e+00 -2.805476e+00 3.483064e+00 -9.771498e-01 -3.236408e+00 -3.599003e+00 -5.538387e+00 6.376855e+01 1.076638e-01 2.754819e-01 1.689719e-01 3.168930e-01 6.776818e-03 -6.643786e-02 -7.201446e-02 -1.714617e-01 3.613130e-02 2.634767e-02 3.901481e-02 1.502856e-01 -4.333800e-01 8.775913e-03 3.598562e-01 1.392621e-01 1.709269e-01 -1.135325e-01 -9.209467e-02 -9.933019e-02 -1.926626e-01 3.087519e-02 1.174852e-01 8.798970e-02 9.230817e-02 -2.939303e-01
<VARIANCE> 39
 1.678965e+01 3.990192e+01 4.791128e+01 4.969873e+01 6.144620e+01 4.295917e+01 4.467980e+01 4.704784e+01 4.495983e+01 4.342545e+01 2.882151e+01 2.842755e+01 3.230538e+01 3.132668e-01 8.445060e-01 8.397998e-01 1.045973e+00 1.464775e+00 1.476391e+00 1.411314e+00 1.519406e+00 1.271527e+00 1.266057e+00 1.127372e+00 1.021646e+00 4.937124e-01 7.181291e-02 1.611152e-01 1.412418e-01 2.073058e-01 2.366876e-01 2.263114e-01 2.676213e-01 3.264346e-01 2.545571e-01 2.468837e-01 2.211178e-01 1.888447e-01 1.054569e-01
<GCONST> 9.768864e+01
<STATE> 4
<MEAN> 39
 -1.267736e+00 -6.375824e+00 -3.211843e+00 -7.556537e+00 -3.519297e+00 -3.756074e+00 -4.058986e+00 2.799582e+00 7.241185e-01 -1.820848e+00 -2.865049e+00 -5.116873e+00 5.774507e+01 -6.856105e-02 1.270048e+00 5.391645e-01 9.626620e-01 4.025883e-02 9.471790e-02 -2.002516e-01 -7.289220e-01 -8.186299e-02 1.735911e-01 1.264488e-01 3.575011e-01 -1.526598e+00 -1.316742e-01 7.659999e-02 1.505075e-02 7.291397e-02 6.119247e-02 1.098113e-01 7.139411e-02 -8.991870e-02 -9.496155e-02 -5.868544e-02 -1.480740e-03 4.029737e-03 -9.780653e-02
<VARIANCE> 39
 1.874470e+01 3.540749e+01 5.189553e+01 4.996349e+01 6.041268e+01 5.641186e+01 4.769779e+01 4.600079e+01 4.594334e+01 4.405053e+01 3.564143e+01 3.404854e+01 5.518775e+01 7.575120e-01 1.228535e+00 1.456654e+00 1.641606e+00 1.920725e+00 1.934746e+00 2.024410e+00 2.706528e+00 2.112776e+00 1.832495e+00 1.698542e+00 1.318815e+00 1.000145e+00 1.200841e-01 2.060279e-01 2.235704e-01 2.756395e-01 3.461637e-01 3.674994e-01 3.349287e-01 4.290647e-01 3.374239e-01 3.312119e-01 3.036702e-01 2.467137e-01 1.625793e-01
<GCONST> 1.094744e+02
<TRANSP> 5
 0.000000e+00 1.000000e+00 0.000000e+00 0.000000e+00 0.000000e+00
 0.000000e+00 4.852961e-01 5.147039e-01 0.000000e+00 0.000000e+00
 0.000000e+00 0.000000e+00 7.165458e-01 2.834542e-01 0.000000e+00
 0.000000e+00 0.000000e+00 0.000000e+00 5.428506e-01 4.571494e-01
 0.000000e+00 0.000000e+00 0.000000e+00 0.000000e+00 0.000000e+00
<ENDHMM>
~h "b"
<BEGINHMM>
<NUMSTATES> 5
<STATE> 2
<MEAN> 39
 2.201357e-01 5.308662e+00 3.505197e+00 -1.831319e+00 -2.313053e+00 -1.335608e+00 -4.492820e+00 -3.590104e+00 -3.056454e+00 -1.413122e+00 -1.663222e+00 -3.779762e+00 5.045695e+01 9.513205e-02 7.095425e-01 1.334953e-01 4.860392e-01 3.741649e-01 3.308568e-01 4.143770e-01 -1.200429e-01 -1.596330e-01 -2.778047e-01 -2.523507e-01 3.152866e-02 -5.388551e-01 -6.504176e-02 -4.065889e-01 -1.658721e-01 -4.074946e-01 -2.833277e-01 -2.999661e-01 -2.779181e-01 6.543694e-02 8.525365e-02 1.425090e-01 2.363695e-01 -3.297257e-02 5.134726e-01
<VARIANCE> 39
 1.802653e+01 3.280818e+01 3.023135e+01 3.445574e+01 3.147780e+01 2.558701e+01 2.682456e+01 2.283745e+01 2.666606e+01 2.270619e+01 2.040316e+01 1.648131e+01 2.881559e+01 6.534227e-01 9.978658e-01 1.173931e+00 1.581313e+00 1.344052e+00 1.394784e+00 1.622357e+00 1.553738e+00 1.517206e+00 1.520168e+00 1.425510e+00 9.686291e-01 8.833188e-01 1.404355e-01 2.226541e-01 2.757886e-01 3.534917e-01 2.853912e-01 3.381326e-01 3.633690e-01 4.160714e-01 3.871574e-01 3.716490e-01 3.471140e-01 2.283182e-01 1.419882e-01
<GCONST> 1.000340e+02
<STATE> 3
<MEAN> 39
 7.920026e-01 6.273604e+00 2.967970e+00 -1.431726e+00 -2.215843e+00 -8.060343e-01 -4.547484e+00 -4.444821e+00 -4.050939e+00 -1.911938e+00 -1.676432e+00 -3.442533e+00 4.958823e+01 2.317115e-01 -1.066081e+00 -8.005201e-01 -1.280676e+00 -4.518704e-01 -9.492163e-01 -1.039783e+00 -9.152251e-02 2.285165e-01 7.570264e-01 8.914901e-01 -2.997799e-01 1.819613e+00 -1.553981e-01 -7.111290e-01 -2.012377e-01 -6.862383e-01 -3.685530e-01 -3.558614e-01 -3.399538e-01 2.816605e-01 3.235274e-01 3.939877e-01 1.655537e-01 -1.581848e-01 7.172022e-01
<VARIANCE> 39
 2.666941e+01 3.721490e+01 3.217650e+01 4.020662e+01 3.485594e+01 3.225357e+01 3.198682e+01 2.878416e+01 3.124115e+01 3.160567e+01 2.724300e+01 2.013637e+01 4.111916e+01 2.412015e+00 3.130103e+00 3.335312e+00 4.465139e+00 2.875091e+00 3.582370e+00 3.175111e+00 3.393445e+00 3.815791e+00 3.361156e+00 3.409385e+00 2.343620e+00 1.927274e+00 3.018052e-01 4.545769e-01 4.611415e-01 5.368891e-01 4.727057e-01 5.014302e-01 5.295054e-01 6.630511e-01 6.551635e-01 5.440219e-01 5.619233e-01 4.263814e-01 2.514518e-01
<GCONST> 1.215194e+02
<STATE> 4
<MEAN> 39
 8.727439e-01 -1.911347e-01 -6.281793e-01 -8.373515e+00 -4.057084e+00 -4.177550e+00 -8.896155e+00 -3.466980e+00 -1.486065e+00 2.796559e+00 1.921145e+00 -5.975302e+00 5.781597e+01 -4.142385e-01 -2.179574e+00 -7.286314e-01 -2.014171e+00 -9.985927e-01 -1.068312e+00 -7.881067e-01 1.351092e+00 1.148784e+00 9.865400e-01 2.062577e-01 -7.993534e-01 2.408629e+00 -1.610605e-01 1.668203e-01 4.141577e-01 3.087329e-01 1.645833e-03 1.593115e-01 4.545475e-01 2.428913e-01 -9.474485e-02 -4.265958e-01 -4.694360e-01 1.687831e-01 -3.035929e-01
<VARIANCE> 39
 1.842678e+01 3.495445e+01 3.093475e+01 6.913722e+01 3.797053e+01 4.822891e+01 4.110526e+01 4.267125e+01 5.386665e+01 5.052266e+01 4.696266e+01 3.565084e+01 3.535110e+01 1.697697e+00 3.482578e+00 4.084971e+00 5.107769e+00 3.534810e+00 4.007290e+00 4.601054e+00 5.355348e+00 5.677329e+00 4.979384e+00 4.916479e+00 3.872343e+00 2.175598e+00 2.042633e-01 4.446629e-01 3.045934e-01 8.422874e-01 5.072418e-01 5.695536e-01 6.084323e-01 5.765080e-01 5.875692e-01 6.978398e-01 6.466005e-01 4.949977e-01 3.258305e-01
<GCONST> 1.282280e+02
<TRANSP> 5
 0.000000e+00 1.000000e+00 0.000000e+00 0.000000e+00 0.000000e+00
 0.000000e+00 6.504753e-01 3.495246e-01 0.000000e+00 0.000000e+00
 0.000000e+00 0.000000e+00 4.578464e-01 5.421536e-01 0.000000e+00
 0.000000e+00 0.000000e+00 0.000000e+00 3.861068e-01 6.138932e-01
 0.000000e+00 0.000000e+00 0.000000e+00 0.000000e+00 0.000000e+00
<ENDHMM>
~h "c"
<BEGINHMM>
<NUMSTATES> 5
<STATE> 2
<MEAN> 39
 -7.001198e+00 4.424628e+00 1.939268e+00 -2.089845e+00 -4.498432e+00 -6.207695e+00 -2.539093e+00 -1.294176e+00 -5.669866e-01 -1.567028e+00 -1.250855e+00 -1.641627e+00 4.925707e+01 -2.150330e+00 2.352025e-01 -8.325143e-01 -2.517749e-01 5.963165e-01 9.403700e-02 3.541281e-01 -2.766593e-01 2.182262e-01 -1.656900e-01 2.539591e-01 9.423321e-02 -1.652262e-01 -3.695067e-01 -7.364451e-02 -7.545561e-02 -3.470742e-01 -1.263819e-01 -1.900789e-01 2.578380e-02 2.744380e-02 4.411048e-02 -6.195131e-02 1.237305e-01 4.279555e-02 7.628413e-01
<VARIANCE> 39
 2.525298e+01 3.170946e+01 3.331115e+01 3.355118e+01 3.568847e+01 4.395631e+01 2.564352e+01 3.010364e+01 2.690178e+01 2.460960e+01 1.882810e+01 1.979880e+01 3.771844e+01 2.953107e+00 2.527672e+00 2.606070e+00 2.889117e+00 2.183450e+00 2.575195e+00 2.177123e+00 2.126933e+00 2.039778e+00 1.947710e+00 1.685666e+00 1.287886e+00 4.040074e+00 4.895430e-01 3.740371e-01 4.293605e-01 3.927801e-01 3.727397e-01 4.951044e-01 3.714902e-01 4.514576e-01 4.266772e-01 3.299153e-01 3.132729e-01 2.558101e-01 3.896186e-01
<GCONST> 1.138943e+02
<STATE> 3
<MEAN> 39
 -1.873902e+01 4.983231e+00 -1.621823e-01 -5.662794e+00 -2.548323e+00 -7.326242e+00 -5.428174e-01 -2.148459e+00 2.332843e-01 -2.458657e+00 7.619915e-01 -1.216331e+00 5.562855e+01 2.755253e-01 -5.658353e-01 1.450202e-01 -4.467503e-01 -1.046747e+00 -8.878292e-01 1.730928e-01 6.533051e-01 1.857223e-01 -3.021083e-01 1.220671e-01 1.678096e-01 1.760879e+00 1.838337e+00 -6.630523e-01 1.291015e-01 8.992940e-02 -4.744937e-01 -4.845295e-02 -3.121744e-01 3.803727e-01 -2.671015e-02 5.980143e-02 -3.313705e-01 -2.154755e-01 -7.671177e-02
<VARIANCE> 39
 2.163008e+01 1.888021e+01 3.652922e+01 2.971636e+01 3.325320e+01 3.659048e+01 3.542320e+01 2.581553e+01 3.125479e+01 3.330375e+01 1.921315e+01 2.078625e+01 2.429455e+01 1.097511e+01 2.806930e+00 2.878893e+00 2.913841e+00 3.405187e+00 2.630840e+00 2.702690e+00 3.066706e+00 2.571010e+00 2.257206e+00 2.177518e+00 1.774690e+00 2.165349e+00 5.138655e-01 6.484340e-01 7.016353e-01 6.488664e-01 6.650727e-01 5.514298e-01 4.941488e-01 5.968848e-01 5.143900e-01 5.464156e-01 4.026675e-01 3.835065e-01 3.622301e-01
<GCONST> 1.202118e+02
<STATE> 4
<MEAN> 39
 -5.862453e+00 -4.700170e-01 -4.344010e-02 -6.241754e+00 -8.498374e+00 -1.110513e+01 -1.207219e+00 2.692269e+00 9.625110e-01 -3.239198e+00 -1.832112e+00 -2.033910e+00 6.064705e+01 3.740783e+00 -2.790336e+00 -8.789982e-01 -9.157723e-01 -7.595413e-01 1.761901e-01 -5.163355e-01 1.693578e+00 3.008269e-01 -3.013844e-03 -9.253676e-01 -9.953281e-01 1.732703e+00 -5.445619e-01 -8.383989e-02 -3.300698e-01 -1.273468e-01 7.728806e-01 6.392862e-01 -4.779455e-02 -2.358027e-01 -8.204100e-02 1.112117e-01 3.071261e-02 -2.059447e-01 -2.757959e-01
<VARIANCE> 39
 2.628994e+01 3.153827e+01 4.549571e+01 2.820150e+01 3.900113e+01 2.678130e+01 4.400409e+01 3.476243e+01 2.486872e+01 2.881502e+01 1.658264e+01 1.237465e+01 3.920966e+01 2.724215e+00 3.602028e+00 3.278867e+00 3.068740e+00 4.575734e+00 3.065897e+00 2.922287e+00 4.399045e+00 2.443597e+00 3.565236e+00 2.052670e+00 1.920894e+00 1.382353e+00 6.694607e-01 4.621697e-01 4.094793e-01 3.938821e-01 4.691176e-01 4.061981e-01 3.492450e-01 5.117541e-01 4.072368e-01 4.517348e-01 4.325810e-01 3.084461e-01 2.767678e-01
<GCONST> 1.176847e+02
<TRANSP> 5
 0.000000e+00 1.000000e+00 0.000000e+00 0.000000e+00 0.000000e+00
 0.000000e+00 7.431280e-01 2.568720e-01 0.000000e+00 0.000000e+00
 0.000000e+00 0.000000e+00 6.984751e-01 3.015250e-01 0.000000e+00
 0.000000e+00 0.000000e+00 0.000000e+00 5.585111e-01 4.414889e-01
 0.000000e+00 0.000000e+00 0.000000e+00 0.000000e+00 0.000000e+00
<ENDHMM>
~h "d"
<BEGINHMM>
<NUMSTATES> 5
<STATE> 2
<MEAN> 39
 -4.124588e+00 2.515934e+00 2.984481e+00 -3.057541e-02 -3.693273e+00 -3.683435e+00 -3.232404e+00 -7.676604e-02 -3.237561e-01 -2.074592e+00 -2.055573e+00 -2.177215e+00 4.734082e+01 7.803513e-02 6.526875e-01 2.889690e-01 4.438601e-01 3.708140e-01 1.318481e-01 1.668881e-01 -5.779930e-02 -1.148443e-01 -1.763662e-01 -2.485508e-01 -7.456474e-02 -4.393629e-01 -1.122855e-01 -3.743852e-01 2.068171e-02 -3.785342e-01 -2.809624e-01 -2.632213e-01 -1.062775e-01 7.986245e-02 -1.141479e-02 3.276433e-02 2.063874e-01 8.952998e-02 5.123200e-01
<VARIANCE> 39
 5.624398e+01 4.691158e+01 3.814111e+01 3.511695e+01 4.965421e+01 4.031554e+01 3.444461e+01 3.279546e+01 2.767069e+01 2.667142e+01 2.532024e+01 2.080342e+01 7.350256e+01 1.205568e+00 1.738182e+00 1.361245e+00 1.597660e+00 2.000753e+00 1.944406e+00 1.767872e+00 1.932767e+00 1.637645e+00 1.541871e+00 1.533715e+00 1.131559e+00 1.264777e+00 2.332382e-01 4.265383e-01 2.769253e-01 4.076860e-01 4.399379e-01 4.499620e-01 4.076230e-01 5.029397e-01 3.666792e-01 3.683341e-01 3.666822e-01 2.574522e-01 2.953235e-01
<GCONST> 1.110957e+02
<STATE> 3
<MEAN> 39
 3.930704e-01 3.921790e+00 5.800321e+00 -2.862095e-01 -4.593705e+00 -5.268031e+00 -5.130214e+00 -1.093301e+00 -1.217710e+00 -3.665264e+00 -3.698436e+00 -3.148709e+00 5.172849e+01 -4.365539e-01 -1.437057e+00 5.282253e-01 -1.183863e+00 -1.071504e+00 -1.484830e+00 -5.390858e-01 5.686652e-01 3.777604e-02 -5.893289e-02 8.888361e-01 6.020671e-01 2.037428e+00 -2.407805e-01 -6.812841e-01 -1.731672e-01 -7.725210e-01 -6.245151e-01 -3.505898e-01 -1.633790e-01 3.168433e-01 1.553027e-01 2.519205e-01 3.933223e-01 4.538849e-03 7.796929e-01
<VARIANCE> 39
 1.864278e+01 5.274331e+01 3.315047e+01 3.722908e+01 4.435146e+01 3.049478e+01 3.352492e+01 3.214858e+01 2.823340e+01 2.829967e+01 2.559517e+01 2.004002e+01 3.765966e+01 2.553729e+00 3.939974e+00 2.918060e+00 3.232738e+00 4.368381e+00 3.561872e+00 3.623705e+00 5.532066e+00 3.169726e+00 3.075554e+00 2.757031e+00 2.188220e+00 1.993335e+00 3.023716e-01 5.828703e-01 4.508056e-01 5.099670e-01 6.716730e-01 5.393111e-01 5.879979e-01 7.473298e-01 5.312321e-01 4.743755e-01 4.837260e-01 3.888997e-01 2.717849e-01
<GCONST> 1.220951e+02
<STATE> 4
<MEAN> 39
 -1.692723e+00 -3.334940e+00 5.709109e+00 -6.455403e+00 -1.009588e+01 -1.162184e+01 -7.130941e+00 3.203648e+00 6.846765e-01 -2.585726e+00 3.787201e-01 -1.175148e+00 6.055897e+01 -5.141560e-01 -1.501384e+00 -5.631838e-01 -2.070047e+00 -1.507219e+00 -8.869830e-01 1.057764e-02 1.387177e+00 5.191278e-01 5.928138e-01 7.145337e-01 -4.050288e-01 2.231752e+00 1.381673e-01 4.152786e-01 -2.551623e-01 1.387187e-01 4.280597e-01 7.050921e-01 2.608515e-01 -2.077378e-01 -1.107070e-01 4.365547e-02 -3.824267e-01 -4.257035e-01 -4.622378e-01
<VARIANCE> 39
 1.777059e+01 3.622763e+01 3.467556e+01 4.645752e+01 5.059525e+01 3.862636e+01 5.601202e+01 6.549227e+01 4.882856e+01 3.598600e+01 2.529794e+01 2.379437e+01 3.316744e+01 1.496662e+00 3.499167e+00 3.923344e+00 3.319400e+00 4.231102e+00 3.604211e+00 4.518583e+00 5.753651e+00 3.836008e+00 2.967865e+00 3.510791e+00 2.554552e+00 1.937617e+00 1.456492e-01 4.000713e-01 3.396634e-01 5.969101e-01 7.780938e-01 5.648479e-01 6.310557e-01 7.219265e-01 4.854757e-01 5.025877e-01 4.280693e-01 3.620576e-01 2.594031e-01
<GCONST> 1.235090e+02
<TRANSP> 5
 0.000000e+00 1.000000e+00 0.000000e+00 0.000000e+00 0.000000e+00
 0.000000e+00 6.638656e-01 3.361344e-01 0.000000e+00 0.000000e+00
 0.000000e+00 0.000000e+00 4.448304e-01 5.551696e-01 0.000000e+00
 0.000000e+00 0.000000e+00 0.000000e+00 4.710165e-01 5.289835e-01
 0.000000e+00 0.000000e+00 0.000000e+00 0.000000e+00 0.000000e+00
<ENDHMM>
~h "e"
<BEGINHMM>
<NUMSTATES> 5
<STATE> 2
<MEAN> 39
 -1.360227e+00 -2.565784e+00 -1.498044e+00 -8.959970e+00 -5.487547e+00 -6.726783e+00 -6.924159e+00 -3.685417e-02 8.003737e-01 5.313316e-01 -4.474244e-01 -4.169535e+00 5.973232e+01 1.258709e+00 -8.765571e-01 1.302150e-01 -1.154045e+00 -7.666380e-01 -2.273043e-01 -7.865357e-01 7.146937e-01 3.322150e-01 3.331591e-01 -4.157780e-02 -4.696923e-01 1.416382e+00 -3.674077e-01 3.448715e-01 2.260003e-01 5.148339e-01 2.391328e-01 2.908598e-01 2.834149e-01 -2.046121e-01 -1.941815e-01 -1.586376e-01 -4.283542e-02 1.293297e-01 -6.946506e-01
<VARIANCE> 39
 3.211863e+01 4.279466e+01 5.369643e+01 6.234703e+01 6.251292e+01 7.251772e+01 4.955569e+01 5.631251e+01 5.493787e+01 5.021268e+01 4.102824e+01 2.748034e+01 4.758973e+01 3.506784e+00 2.997365e+00 3.007605e+00 3.872232e+00 4.033730e+00 4.259568e+00 4.445245e+00 4.593819e+00 4.201022e+00 3.415958e+00 2.951012e+00 2.267004e+00 1.866934e+00 4.969890e-01 5.038487e-01 5.368545e-01 6.981130e-01 6.282694e-01 6.551993e-01 6.985158e-01 7.106518e-01 6.894945e-01 5.990663e-01 5.540385e-01 3.961389e-01 4.385860e-01
<GCONST> 1.308627e+02
<STATE> 3
<MEAN> 39
 -8.209431e-01 -3.666682e+00 -1.114436e+00 -9.811809e+00 -6.134302e+00 -6.947759e+00 -7.213304e+00 1.216699e+00 9.745547e-01 7.426351e-01 -3.641492e-01 -4.416951e+00 6.100804e+01 3.925060e-01 8.366569e-02 4.848200e-01 2.008180e-01 -1.783822e-01 1.631191e-01 -6.222295e-02 7.845664e-03 -1.317681e-01 -2.666536e-02 -6.021990e-02 -1.235854e-02 -1.987689e-01 -4.329713e-01 5.230501e-01 1.791361e-01 6.981440e-01 3.450953e-01 2.456411e-01 3.465287e-01 -4.096112e-01 -2.071016e-01 -2.184272e-01 -5.067243e-02 1.951292e-01 -8.138218e-01
<VARIANCE> 39
 2.619312e+01 4.376844e+01 5.665837e+01 6.184401e+01 6.735994e+01 6.879040e+01 5.324201e+01 5.900785e+01 5.876733e+01 5.410982e+01 4.406540e+01 2.922539e+01 3.599430e+01 1.177210e+00 1.598614e+00 1.636796e+00 2.635739e+00 2.417757e+00 2.633041e+00 2.348190e+00 2.594881e+00 2.359114e+00 2.153613e+00 1.929319e+00 1.477220e+00 1.047910e+00 4.637360e-01 4.363056e-01 5.180327e-01 5.911294e-01 6.722743e-01 6.519510e-01 7.142369e-01 7.565206e-01 6.814495e-01 6.166299e-01 5.645322e-01 3.829309e-01 2.513566e-01
<GCONST> 1.226562e+02
<STATE> 4
<MEAN> 39
 -1.403156e+00 -3.235819e+00 1.303237e+00 -8.832270e+00 -7.642476e+00 -7.173090e+00 -5.323178e+00 5.053815e-01 -9.167768e-01 -8.365891e-02 -4.296724e-01 -3.752846e+00 5.965422e+01 4.801892e-03 7.092289e-01 3.702423e-01 9.108142e-01 3.414679e-01 3.475920e-01 1.564867e-01 -3.987849e-01 -1.348364e-01 -1.989085e-01 -1.907968e-01 1.438656e-01 -1.095894e+00 -1.897201e-01 1.859995e-01 -1.111596e-02 2.321836e-01 1.358301e-01 9.582119e-02 9.800880e-02 -1.417588e-01 -1.741011e-02 -5.251035e-02 -2.150748e-02 4.700128e-02 -2.889259e-01
<VARIANCE> 39
 2.156349e+01 4.190265e+01 5.788460e+01 6.029142e+01 8.140707e+01 6.246222e+01 4.931648e+01 4.993408e+01 4.929043e+01 4.610015e+01 4.854974e+01 2.539087e+01 3.549639e+01 8.714052e-01 1.443026e+00 1.543497e+00 2.012269e+00 1.941056e+00 2.000192e+00 2.142209e+00 2.419583e+00 2.055272e+00 1.797755e+00 1.727962e+00 1.210448e+00 1.227929e+00 2.135753e-01 2.291816e-01 2.684650e-01 3.577235e-01 3.936153e-01 4.029052e-01 4.000819e-01 4.339227e-01 3.836273e-01 3.460593e-01 3.425699e-01 2.388474e-01 1.420597e-01
<GCONST> 1.125873e+02
<TRANSP> 5
 0.000000e+00 1.000000e+00 0.000000e+00 0.000000e+00 0.000000e+00
 0.000000e+00 2.100044e-01 7.899956e-01 0.000000e+00 0.000000e+00
 0.000000e+00 0.000000e+00 1.433411e-01 8.566589e-01 0.000000e+00
 0.000000e+00 0.000000e+00 0.000000e+00 4.963985e-01 5.036015e-01
 0.000000e+00 0.000000e+00 0.000000e+00 0.000000e+00 0.000000e+00
<ENDHMM>
~h "f"
<BEGINHMM>
<NUMSTATES> 5
<STATE> 2
<MEAN> 39
 -7.929757e+00 1.314142e+00 1.854283e-01 -9.407371e-01 -2.915572e+00 -3.965112e+00 -4.617675e+00 -2.252936e+00 -4.814324e-01 -1.336304e+00 -1.852008e-01 -2.769688e+00 5.310564e+01 -2.263406e+00 -1.165016e-01 -1.137030e+00 1.208728e+00 4.402720e-01 -5.564474e-01 1.806424e-01 5.100381e-02 3.335304e-01 2.108461e-01 9.232071e-02 3.648357e-01 -5.131089e-01 1.356073e-01 -1.961236e-01 8.981137e-02 -2.809409e-01 -3.656305e-01 -9.492891e-02 -4.661718e-02 -2.772000e-02 -6.188559e-02 4.076983e-02 7.188765e-03 -1.035191e-01 1.325932e-01
<VARIANCE> 39
 2.854984e+01 2.394446e+01 5.183488e+01 3.873716e+01 4.927890e+01 5.568176e+01 3.706816e+01 2.782918e+01 3.028608e+01 2.328058e+01 2.365720e+01 2.037401e+01 2.718775e+01 1.272827e+00 1.974013e+00 2.876293e+00 2.154856e+00 4.119781e+00 2.627557e+00 2.764596e+00 2.462399e+00 2.005975e+00 2.167424e+00 1.392086e+00 1.465554e+00 7.364011e-01 3.806444e-01 2.667941e-01 3.563473e-01 3.594444e-01 4.479939e-01 4.081227e-01 3.533884e-01 3.846342e-01 3.693244e-01 3.458738e-01 1.975295e-01 2.881934e-01 1.127780e-01
<GCONST> 1.104835e+02
<STATE> 3
<MEAN> 39
 -1.226724e+01 -1.279146e+00 -3.387389e+00 1.030008e+00 -1.746137e+00 -1.492650e+00 -1.530917e+00 9.529226e-01 4.284827e-01 -5.992598e-01 7.987564e-01 -1.077815e+00 4.454603e+01 -2.968084e-01 -9.211841e-02 -6.812257e-02 9.906977e-02 -5.555122e-02 -1.224108e-02 1.336309e-01 1.530130e-02 1.403202e-02 1.031500e-01 6.473257e-02 1.248766e-01 -2.472553e-01 2.562312e-01 -1.384722e-02 9.759270e-02 -1.379670e-01 -3.810186e-02 7.752621e-02 1.116567e-04 -3.026294e-02 -8.288301e-02 -3.659090e-02 -2.555128e-02 -2.500984e-02 3.901102e-02
<VARIANCE> 39
 1.422546e+01 2.188506e+01 2.254191e+01 3.484658e+01 2.822579e+01 3.305386e+01 3.283345e+01 3.418801e+01 2.098872e+01 2.058566e+01 1.772677e+01 1.340861e+01 7.753783e+01 6.101139e-01 6.579182e-01 9.381656e-01 9.951088e-01 1.033792e+00 1.229561e+00 1.442562e+00 1.348923e+00 1.305826e+00 1.171946e+00 9.485546e-01 9.094933e-01 4.824797e-01 2.300830e-01 1.486847e-01 2.331020e-01 2.346517e-01 2.511545e-01 2.698061e-01 3.124689e-01 3.029576e-01 2.819260e-01 2.490379e-01 1.954704e-01 1.854657e-01 8.040842e-02
<GCONST> 9.348505e+01
<STATE> 4
<MEAN> 39
 -1.215460e+01 -7.876254e-01 -1.594200e+00 4.073219e-01 -3.967565e+00 -4.274330e+00 -3.007562e+00 -2.353113e+00 -2.630801e-02 -3.683754e-01 -5.246805e-01 -2.150284e+00 5.128180e+01 1.965094e+00 1.163355e-01 6.544354e-01 -1.485356e+00 -9.574329e-01 2.954035e-01 -3.258278e-02 -6.617032e-01 -9.377189e-01 -4.264837e-02 6.332008e-02 -3.311371e-01 7.151348e-01 8.087264e-01 2.304229e-01 3.395249e-01 -8.489677e-01 -4.033812e-01 1.324390e-01 -1.929696e-01 -1.539818e-01 -3.117241e-01 6.093296e-02 1.317743e-01 -2.330954e-01 5.137033e-01
<VARIANCE> 39
 2.235624e+01 1.838532e+01 4.449155e+01 3.734816e+01 4.475238e+01 4.033475e+01 4.115105e+01 2.634982e+01 2.502669e+01 1.816715e+01 1.899209e+01 1.791320e+01 3.545182e+01 3.349735e+00 3.238991e+00 5.337382e+00 5.187737e+00 3.455633e+00 3.782290e+00 2.437394e+00 2.997241e+00 2.906222e+00 1.791064e+00 1.976560e+00 1.931179e+00 3.067325e+00 4.121700e-01 5.019305e-01 7.076780e-01 7.977913e-01 6.457840e-01 5.384246e-01 5.211531e-01 5.201733e-01 4.862091e-01 3.013788e-01 3.164381e-01 4.048775e-01 2.401325e-01
<GCONST> 1.195790e+02
<TRANSP> 5
 0.000000e+00 1.000000e+00 0.000000e+00 0.000000e+00 0.000000e+00
 0.000000e+00 6.399134e-01 3.600866e-01 0.000000e+00 0.000000e+00
 0.000000e+00 0.000000e+00 8.214452e-01 1.785548e-01 0.000000e+00
 0.000000e+00 0.000000e+00 0.000000e+00 6.169312e-01 3.830688e-01
 0.000000e+00 0.000000e+00 0.000000e+00 0.000000e+00 0.000000e+00
<ENDHMM>
~h "g"
<BEGINHMM>
<NUMSTATES> 5
<STATE> 2
<MEAN> 39
 -7.785572e-02 5.078973e+00 3.814757e+00 -2.265440e+00 -5.472857e+00 -4.597758e+00 -5.615187e+00 -2.556255e+00 -2.308479e+00 -8.524379e-01 -2.716144e+00 -3.327071e+00 5.083258e+01 -2.119796e-01 7.290463e-01 2.427981e-01 6.576046e-01 4.185455e-01 4.941713e-01 3.182977e-01 -1.091082e-01 -3.451430e-02 -2.980825e-01 -3.213375e-01 2.780505e-02 -9.276395e-01 -1.871512e-01 -3.982721e-01 -1.161236e-01 -3.674791e-01 -1.494936e-02 -2.573280e-01 -1.227099e-01 1.576050e-01 -7.682735e-04 1.047162e-01 1.205431e-01 2.208779e-02 5.192812e-01
<VARIANCE> 39
 1.184725e+01 3.652359e+01 2.808255e+01 3.837564e+01 4.406021e+01 3.300104e+01 3.451659e+01 2.772610e+01 2.145922e+01 2.811300e+01 2.815784e+01 2.504872e+01 2.774710e+01 6.117191e-01 9.204031e-01 1.209700e+00 1.713358e+00 1.917758e+00 1.848912e+00 1.918626e+00 1.925033e+00 1.842282e+00 1.830990e+00 1.693036e+00 1.392561e+00 9.342411e-01 1.463951e-01 2.055915e-01 3.046553e-01 3.268408e-01 5.345680e-01 4.499362e-01 4.232058e-01 4.677648e-01 4.121263e-01 3.870440e-01 3.448207e-01 2.881933e-01 1.651581e-01
<GCONST> 1.050920e+02
<STATE> 3
<MEAN> 39
 -2.182437e+00 4.870376e+00 2.785562e+00 -1.289303e+00 -3.127316e+00 -4.421426e+00 -5.279513e+00 -2.354766e+00 -2.791925e+00 -1.044405e+00 -3.252915e+00 -3.131054e+00 5.011825e+01 -8.601897e-01 -9.032590e-01 -9.276386e-02 -7.355585e-01 4.959844e-01 -1.156357e+00 -2.779947e-01 2.194671e-01 -4.313040e-01 3.847146e-01 1.597066e-01 2.778863e-01 1.480611e+00 5.889805e-02 -2.868291e-01 1.335886e-01 -6.073139e-01 -5.386840e-01 -3.525338e-01 -2.345544e-01 5.603410e-02 -8.886411e-03 1.634242e-01 2.256019e-01 2.959559e-02 6.055617e-01
<VARIANCE> 39
 2.696556e+01 4.024469e+01 4.325969e+01 4.742943e+01 5.696668e+01 3.860687e+01 3.963335e+01 2.920488e+01 2.673524e+01 3.069664e+01 2.543734e+01 2.080790e+01 4.559979e+01 2.151532e+00 3.416368e+00 3.883795e+00 3.883106e+00 6.196749e+00 4.480369e+00 4.112134e+00 4.050622e+00 3.031116e+00 3.111445e+00 2.812590e+00 2.029489e+00 1.716990e+00 3.295425e-01 5.260231e-01 4.913963e-01 5.499205e-01 9.420288e-01 5.596946e-01 5.521653e-01 6.229302e-01 4.883586e-01 5.135242e-01 4.807436e-01 3.622046e-01 2.885403e-01
<GCONST> 1.240736e+02
<STATE> 4
<MEAN> 39
 -2.731740e+00 4.424198e-01 3.587793e+00 -6.649748e+00 -6.477358e+00 -1.122520e+01 -7.952208e+00 -1.821283e-01 -3.339480e+00 1.506906e+00 -1.571189e+00 -2.492470e+00 5.796228e+01 6.974940e-02 -1.042953e+00 1.990490e-01 -1.903117e+00 -1.866731e+00 -6.960313e-01 -4.634228e-02 9.718310e-01 3.507828e-01 2.162500e-01 5.802046e-01 -2.072512e-01 1.774061e+00 2.259830e-01 5.908842e-03 -1.191177e-01 7.703204e-02 -5.474367e-02 6.026809e-01 2.814422e-01 -1.620547e-02 2.216024e-01 -3.017928e-01 -6.720427e-02 -2.337767e-01 -2.659308e-01
<VARIANCE> 39
 2.407949e+01 3.615159e+01 5.543097e+01 5.794065e+01 6.272938e+01 5.141020e+01 5.436385e+01 4.259776e+01 3.781702e+01 4.436641e+01 5.817974e+01 3.629513e+01 3.625573e+01 1.226220e+00 2.767387e+00 3.125469e+00 3.175702e+00 4.683214e+00 3.568480e+00 3.670463e+00 4.084985e+00 3.813497e+00 3.275856e+00 3.332540e+00 2.518227e+00 1.182245e+00 2.342830e-01 4.340309e-01 4.221871e-01 5.923820e-01 1.265400e+00 6.553043e-01 6.952548e-01 5.977003e-01 5.279564e-01 6.376709e-01 5.139121e-01 4.066564e-01 1.943118e-01
<GCONST> 1.258489e+02
<TRANSP> 5
 0.000000e+00 1.000000e+00 0.000000e+00 0.000000e+00 0.000000e+00
 0.000000e+00 6.486268e-01 3.513732e-01 0.000000e+00 0.000000e+00
 0.000000e+00 0.000000e+00 5.581329e-01 4.418671e-01 0.000000e+00
 0.000000e+00 0.000000e+00 0.000000e+00 5.217192e-01 4.782809e-01
 0.000000e+00 0.000000e+00 0.000000e+00 0.000000e+00 0.000000e+00
<ENDHMM>
~h "h"
<BEGINHMM>
<NUMSTATES> 5
<STATE> 2
<MEAN> 39
 -3.740587e+00 -3.843701e+00 -1.646496e+00 -7.035557e+00 -1.920336e+00 -2.012780e+00 -2.265378e+00 -1.404906e+00 -1.825694e+00 -3.103913e+00 -3.302200e+00 -3.715591e+00 5.804214e+01 -4.637581e-01 5.638357e-02 -2.508527e-02 8.714942e-01 8.430099e-01 3.771379e-01 5.561533e-01 1.219681e-01 1.150445e-01 -1.295678e-01 1.508507e-02 2.582505e-01 -6.679007e-01 1.358973e-02 -8.253132e-02 -3.588659e-02 -1.493170e-01 -1.410706e-01 -6.708035e-02 -9.683903e-02 3.518070e-02 2.941572e-02 8.450505e-02 6.781588e-02 -4.435743e-02 3.476724e-02
<VARIANCE> 39
 1.840827e+01 4.552018e+01 5.561925e+01 4.835655e+01 7.124770e+01 5.082412e+01 5.084795e+01 5.764706e+01 6.250154e+01 5.275501e+01 3.437755e+01 2.544875e+01 3.580437e+01 1.074433e+00 1.818276e+00 2.036799e+00 1.807514e+00 2.418376e+00 2.118301e+00 2.408832e+00 2.610067e+00 2.087912e+00 2.009938e+00 1.769731e+00 1.317809e+00 1.043007e+00 1.103959e-01 1.847696e-01 2.019342e-01 2.792666e-01 3.450246e-01 3.463828e-01 3.918535e-01 3.802046e-01 3.649897e-01 3.279864e-01 2.701331e-01 2.287107e-01 9.257517e-02
<GCONST> 1.106219e+02
<STATE> 3
<MEAN> 39
 -5.345425e+00 -4.410371e+00 -1.655080e+00 -4.779190e+00 1.445025e+00 -7.692390e-01 -6.445192e-01 -3.308105e-02 9.356103e-01 -1.643986e+00 -2.180903e+00 -2.923814e+00 5.665619e+01 2.250828e-02 3.516570e-02 -1.996375e-01 2.695164e-01 1.335939e-01 1.912572e-01 7.898028e-02 -1.145438e-01 -1.007847e-01 -3.895392e-02 -1.583289e-02 -2.601699e-02 -3.175692e-01 2.435416e-01 2.219883e-02 -7.339859e-02 -2.910781e-01 -3.484374e-01 -1.194305e-01 -1.847737e-01 -6.037074e-02 -1.180056e-01 2.034962e-02 -2.481143e-03 -1.084764e-01 1.468458e-01
<VARIANCE> 39
 2.533172e+01 4.805181e+01 5.148469e+01 4.653813e+01 6.275239e+01 5.125700e+01 4.706161e+01 4.766452e+01 4.053460e+01 3.832542e+01 2.799281e+01 2.716498e+01 3.643850e+01 1.598268e+00 1.860247e+00 1.847904e+00 1.826521e+00 2.439714e+00 2.051469e+00 1.996303e+00 2.447750e+00 1.882958e+00 1.888117e+00 1.641814e+00 1.410392e+00 1.837163e+00 2.294227e-01 3.056748e-01 3.422783e-01 3.489318e-01 4.086178e-01 3.558419e-01 3.920358e-01 4.060518e-01 3.568281e-01 3.207711e-01 3.103082e-01 2.568769e-01 1.606761e-01
<GCONST> 1.130783e+02
<STATE> 4
<MEAN> 39
 -6.556565e+00 -4.599648e+00 -3.386142e+00 -2.584101e+00 -4.706028e-01 9.405791e-01 5.027571e-01 2.776320e-01 -1.018535e+00 -2.289999e+00 -1.556813e+00 -1.670803e+00 5.124186e+01 1.292848e-01 7.508615e-02 -1.208822e-01 -5.195439e-02 -2.294771e-01 -5.222921e-02 -7.998598e-02 4.103214e-02 -6.517106e-02 3.607466e-02 3.530523e-02 4.989025e-03 -2.062121e-01 2.191902e-02 -2.968778e-02 1.058152e-02 -7.742698e-02 -6.620733e-02 -4.957415e-02 -4.608202e-02 2.070411e-02 -7.613816e-03 4.540957e-03 5.039236e-03 -2.485885e-02 8.619734e-02
<VARIANCE> 39
 3.275849e+01 4.115450e+01 4.252148e+01 5.008707e+01 4.621093e+01 3.677491e+01 4.320350e+01 3.620176e+01 3.204356e+01 3.295887e+01 2.443630e+01 2.246872e+01 9.562997e+01 8.662595e-01 1.105424e+00 1.095152e+00 1.441578e+00 1.542184e+00 1.337444e+00 1.507640e+00 1.612642e+00 1.338152e+00 1.382035e+00 1.209536e+00 1.090145e+00 1.030300e+00 8.728167e-02 1.610539e-01 1.694023e-01 2.068727e-01 2.221709e-01 2.392498e-01 2.536181e-01 2.879152e-01 2.389172e-01 2.543228e-01 2.258812e-01 1.893567e-01 9.254144e-02
<GCONST> 1.006184e+02
<TRANSP> 5
 0.000000e+00 1.000000e+00 0.000000e+00 0.000000e+00 0.000000e+00
 0.000000e+00 2.894810e-01 7.105190e-01 0.000000e+00 0.000000e+00
 0.000000e+00 0.000000e+00 4.036499e-01 5.963501e-01 0.000000e+00
 0.000000e+00 0.000000e+00 0.000000e+00 7.322608e-01 2.677392e-01
 0.000000e+00 0.000000e+00 0.000000e+00 0.000000e+00 0.000000e+00
<ENDHMM>
~h "i"
<BEGINHMM>
<NUMSTATES> 5
<STATE> 2
<MEAN> 39
 -5.417437e+00 3.486004e+00 1.141986e+01 -8.194744e+00 -1.225851e+01 -8.730632e+00 -5.580996e+00 -6.746781e+00 -4.429916e+00 5.124861e-02 -4.990567e-01 -3.230581e+00 5.783633e+01 1.834060e-01 2.896924e-01 2.087242e+00 -1.600562e+00 -1.800999e+00 -1.527185e-01 -7.394709e-01 -6.923589e-01 -6.168388e-01 4.787433e-01 2.877863e-01 -2.689964e-01 1.138934e+00 -6.408992e-02 -4.899464e-02 -5.861757e-01 1.959019e-01 4.570890e-01 2.711360e-01 1.300224e-01 3.132741e-01 2.506259e-01 -6.265464e-02 -5.450975e-02 2.108122e-02 -3.233756e-01
<VARIANCE> 39
 2.760814e+01 4.723065e+01 4.668309e+01 7.729507e+01 5.660741e+01 4.635622e+01 4.536847e+01 5.692229e+01 3.442823e+01 4.457996e+01 4.924421e+01 3.298552e+01 3.699683e+01 3.593530e+00 2.541778e+00 3.624442e+00 4.408134e+00 4.323830e+00 3.480783e+00 4.777812e+00 3.925244e+00 3.116997e+00 3.153645e+00 3.669585e+00 2.569758e+00 1.424816e+00 4.224954e-01 3.882023e-01 5.487109e-01 7.354030e-01 7.025619e-01 5.449082e-01 6.961492e-01 6.575120e-01 4.668554e-01 5.124413e-01 5.162284e-01 3.557584e-01 2.825160e-01
<GCONST> 1.277735e+02
<STATE> 3
<MEAN> 39
 -4.566098e+00 1.634798e+00 1.396189e+01 -7.590228e+00 -1.506635e+01 -7.245166e+00 -5.141936e+00 -4.010282e+00 -6.341172e+00 -5.369624e-01 3.560873e+00 -6.010709e+00 5.947761e+01 1.551831e-01 1.291097e-01 -3.671081e-01 1.801886e-01 3.174195e-01 3.517945e-02 4.785491e-02 2.084845e-01 2.440020e-01 3.855455e-03 -1.533328e-01 1.577891e-01 -3.084850e-01 -2.403894e-03 5.778276e-02 -6.317687e-01 4.010591e-01 7.018406e-01 5.183432e-02 1.533609e-01 9.804415e-02 3.075291e-01 -9.836586e-02 -2.929647e-01 1.941009e-01 -4.345279e-01
<VARIANCE> 39
 1.529280e+01 4.079015e+01 3.544494e+01 6.550082e+01 4.633547e+01 4.759412e+01 3.617304e+01 6.332458e+01 4.523227e+01 4.316581e+01 4.875429e+01 3.825645e+01 2.321807e+01 8.092399e-01 1.491825e+00 1.996588e+00 2.151479e+00 2.451079e+00 2.037394e+00 2.007770e+00 2.759776e+00 1.884102e+00 1.652125e+00 1.741438e+00 1.423486e+00 1.007637e+00 2.397890e-01 2.618704e-01 3.338407e-01 4.493349e-01 4.801140e-01 4.572698e-01 4.718609e-01 5.444642e-01 4.104452e-01 4.102039e-01 4.196950e-01 3.259691e-01 1.610306e-01
<GCONST> 1.134312e+02
<STATE> 4
<MEAN> 39
 -6.491705e+00 5.718504e+00 1.153437e+01 -1.096041e+01 -9.259885e+00 -5.878440e+00 -6.216962e+00 -7.756354e+00 -2.930591e+00 5.987032e-01 -2.472315e+00 -1.723265e+00 5.466477e+01 6.272729e-02 -2.432005e-02 -6.519265e-01 6.166593e-01 5.444092e-01 1.644216e-01 2.254361e-01 2.514116e-01 1.893066e-01 -1.264283e-01 -1.092268e-01 1.221959e-01 -7.649713e-01 -3.045085e-02 -6.539195e-02 -9.510513e-02 9.326612e-02 2.436712e-02 1.996390e-02 4.728752e-02 3.924910e-02 -2.974543e-02 -2.537440e-02 3.153346e-02 -3.399908e-02 -2.103941e-02
<VARIANCE> 39
 2.224452e+01 4.333441e+01 5.095477e+01 1.017444e+02 5.495542e+01 5.315638e+01 4.877760e+01 5.090166e+01 3.095709e+01 4.603916e+01 4.124915e+01 2.963899e+01 6.070433e+01 7.948325e-01 1.185606e+00 1.406364e+00 1.978198e+00 2.046380e+00 1.768277e+00 1.868942e+00 2.068804e+00 1.565177e+00 1.593920e+00 1.560547e+00 1.187800e+00 1.006136e+00 1.041398e-01 1.472755e-01 2.000090e-01 3.070751e-01 2.991853e-01 3.056693e-01 3.153591e-01 3.215024e-01 2.578376e-01 2.766013e-01 2.455774e-01 1.962486e-01 9.799647e-02
<GCONST> 1.068709e+02
<TRANSP> 5
 0.000000e+00 1.000000e+00 0.000000e+00 0.000000e+00 0.000000e+00
 0.000000e+00 5.307001e-01 4.692999e-01 0.000000e+00 0.000000e+00
 0.000000e+00 0.000000e+00 6.081163e-01 3.918837e-01 0.000000e+00
 0.000000e+00 0.000000e+00 0.000000e+00 7.754751e-01 2.245249e-01
 0.000000e+00 0.000000e+00 0.000000e+00 0.000000e+00 0.000000e+00
<ENDHMM>
~h "j"
<BEGINHMM>
<NUMSTATES> 5
<STATE> 2
<MEAN> 39
 -2.542517e+00 6.422461e+00 5.129695e+00 -1.129482e+00 -4.237455e+00 -4.576996e+00 -3.276414e+00 -1.180028e+00 -2.313597e+00 -2.762401e+00 -1.860521e+00 -2.487118e+00 4.971371e+01 -1.272102e+00 8.112382e-01 2.035933e-01 -3.019812e-02 8.602875e-01 1.428194e-01 4.212444e-01 -2.087494e-01 2.092824e-01 1.145452e-03 5.344859e-02 -9.956209e-02 8.131392e-02 -3.947948e-01 -2.116978e-01 1.616092e-01 -3.644085e-01 -3.133830e-01 -4.041799e-01 -9.037584e-02 -7.537782e-02 -7.013343e-02 3.486812e-02 2.593817e-01 9.287944e-02 5.755723e-01
<VARIANCE> 39
 2.172647e+01 4.233655e+01 2.778998e+01 3.559600e+01 3.935892e+01 3.043581e+01 2.640203e+01 2.291035e+01 2.451999e+01 2.053486e+01 2.048236e+01 1.440072e+01 3.720226e+01 3.502256e+00 2.070784e+00 1.789225e+00 2.524494e+00 3.229744e+00 2.759037e+00 1.960267e+00 2.087612e+00 1.799238e+00 1.868697e+00 1.910248e+00 1.388277e+00 2.194267e+00 4.547186e-01 3.001709e-01 3.098963e-01 3.977621e-01 5.298176e-01 4.529121e-01 3.828400e-01 4.270144e-01 3.876319e-01 4.147422e-01 3.143034e-01 2.249133e-01 2.216412e-01
<GCONST> 1.111686e+02
<STATE> 3
<MEAN> 39
 -1.144941e+01 8.003998e+00 7.668980e+00 -4.504820e+00 -2.996716e+00 -7.102729e+00 -2.727116e+00 -3.159589e+00 -2.726991e+00 -3.016711e+00 1.876647e-01 -2.619408e+00 5.556960e+01 -4.625969e-01 -5.885491e-01 1.204759e+00 -7.417760e-01 -2.139690e+00 -1.728901e+00 -5.838348e-01 -3.411345e-01 -5.647233e-01 4.904724e-02 8.988790e-01 4.143523e-01 1.710609e+00 1.228911e+00 -7.223944e-01 -1.574096e-01 -5.040759e-02 -7.294662e-01 -1.835596e-01 -4.287162e-01 3.224475e-01 8.958804e-04 1.399287e-01 -8.849141e-02 1.512851e-02 -3.960159e-02
<VARIANCE> 39
 2.771738e+01 4.036502e+01 3.715870e+01 4.469447e+01 4.545575e+01 4.309920e+01 3.385265e+01 2.692319e+01 2.727757e+01 2.835679e+01 2.117192e+01 2.081378e+01 2.380280e+01 6.652934e+00 2.869517e+00 2.436966e+00 3.880650e+00 4.660337e+00 3.028070e+00 2.961583e+00 3.452176e+00 2.407460e+00 3.348571e+00 1.888961e+00 1.501020e+00 1.130939e+00 6.582019e-01 5.436394e-01 5.981419e-01 5.967256e-01 1.102653e+00 7.903738e-01 6.073115e-01 6.062162e-01 4.513680e-01 4.372404e-01 4.240257e-01 3.766879e-01 2.336849e-01
<GCONST> 1.217310e+02
<STATE> 4
<MEAN> 39
 -4.900699e+00 9.700337e-01 9.795607e+00 -7.716283e+00 -1.300953e+01 -1.300619e+01 -6.559885e+00 -9.613451e-01 -3.721595e+00 -9.931431e-01 1.591254e+00 -1.147905e+00 5.999126e+01 1.566706e+00 -2.030492e+00 -1.048518e+00 -8.369697e-01 -9.505986e-01 -4.402821e-01 -7.704423e-01 1.329248e+00 5.761393e-01 4.397262e-01 -2.388920e-01 -2.347361e-01 8.613148e-01 -9.762087e-02 1.895026e-01 -6.801347e-01 8.461806e-02 1.000101e+00 7.472963e-01 1.959533e-01 6.468152e-02 1.946438e-01 -3.891718e-02 -3.455920e-01 -2.614870e-01 -3.513264e-01
<VARIANCE> 39
 1.763964e+01 3.492553e+01 3.999997e+01 7.403610e+01 3.049628e+01 3.204171e+01 3.519767e+01 5.118292e+01 4.328931e+01 5.715342e+01 2.608796e+01 1.627266e+01 2.911776e+01 1.900553e+00 2.404454e+00 2.908422e+00 2.662358e+00 5.543552e+00 3.510793e+00 4.150823e+00 3.469010e+00 2.539924e+00 2.940489e+00 2.393004e+00 2.021281e+00 8.045979e-01 3.673466e-01 3.222081e-01 3.509018e-01 6.107697e-01 4.701337e-01 4.958875e-01 5.094459e-01 7.096500e-01 4.521614e-01 6.432990e-01 3.867307e-01 2.947039e-01 1.020527e-01
<GCONST> 1.184457e+02
<TRANSP> 5
 0.000000e+00 1.000000e+00 0.000000e+00 0.000000e+00 0.000000e+00
 0.000000e+00 7.117394e-01 2.882606e-01 0.000000e+00 0.000000e+00
 0.000000e+00 0.000000e+00 6.246758e-01 3.753242e-01 0.000000e+00
 0.000000e+00 0.000000e+00 0.000000e+00 6.324594e-01 3.675406e-01
 0.000000e+00 0.000000e+00 0.000000e+00 0.000000e+00 0.000000e+00
<ENDHMM>
~h "k"
<BEGINHMM>
<NUMSTATES> 5
<STATE> 2
<MEAN> 39
 -8.145120e+00 4.533327e-01 -1.758372e+00 -1.584411e+00 -1.716361e+00 -6.160114e-01 -1.379060e+00 1.615891e-01 -6.619374e-01 -5.996914e-01 9.146744e-02 -1.124728e+00 4.333654e+01 -4.430388e-01 -2.636248e-02 -1.951755e-01 2.802806e-01 1.901716e-01 4.363932e-02 1.212233e-01 6.432429e-02 5.476793e-02 1.964089e-03 1.660293e-02 1.685732e-01 -5.256243e-01 4.225587e-02 -1.350429e-01 -7.692121e-02 -1.401705e-01 3.417293e-02 -1.002772e-01 -3.250993e-02 2.329303e-02 6.554510e-03 3.539915e-02 -2.754172e-02 -3.988390e-02 3.500231e-01
<VARIANCE> 39
 2.895741e+01 3.797227e+01 4.118303e+01 5.100981e+01 4.994856e+01 4.902805e+01 3.832463e+01 3.663709e+01 2.850754e+01 2.897614e+01 2.143780e+01 2.154388e+01 6.389224e+01 8.514216e-01 9.201567e-01 1.261048e+00 1.524417e+00 1.679855e+00 1.782302e+00 1.603791e+00 1.732826e+00 1.643206e+00 1.574616e+00 1.320645e+00 1.091084e+00 1.145606e+00 1.495437e-01 2.288941e-01 2.841491e-01 3.054055e-01 3.579016e-01 3.972708e-01 3.376421e-01 3.582568e-01 3.634840e-01 3.246871e-01 2.708728e-01 2.274319e-01 2.882164e-01
<GCONST> 1.063198e+02
<STATE> 3
<MEAN> 39
 -8.441411e+00 -1.657921e+00 -4.267993e+00 -4.124709e+00 4.446506e-02 -5.253663e+00 -4.012136e+00 -1.195418e+00 -2.291257e-01 5.742457e-01 -1.769498e+00 -1.683757e+00 4.993179e+01 -1.043837e-01 -8.673027e-01 -8.974386e-01 -5.355578e-01 6.307599e-01 -7.726082e-01 1.092565e-02 2.630665e-01 2.506486e-01 2.631359e-01 -3.732885e-01 -8.313313e-02 1.907936e+00 5.682222e-01 7.061031e-02 2.998572e-01 -3.161510e-01 -5.025702e-01 1.134204e-01 9.031698e-03 -9.911617e-04 -1.259430e-01 -6.105757e-02 -1.216310e-02 -3.049186e-01 4.784538e-01
<VARIANCE> 39
 2.820574e+01 4.402261e+01 6.580346e+01 4.950673e+01 6.180258e+01 6.267443e+01 4.395674e+01 3.694549e+01 4.015793e+01 3.549968e+01 2.911187e+01 2.298468e+01 6.099060e+01 3.429813e+00 4.296277e+00 5.246223e+00 4.327679e+00 5.670619e+00 5.115442e+00 3.999594e+00 3.873649e+00 3.602095e+00 3.159069e+00 2.777714e+00 2.345169e+00 4.248610e+00 4.945226e-01 7.633864e-01 8.385595e-01 7.699698e-01 1.076060e+00 9.582674e-01 7.694519e-01 6.399058e-01 6.971965e-01 6.571434e-01 5.659878e-01 4.494320e-01 7.871848e-01
<GCONST> 1.336187e+02
<STATE> 4
<MEAN> 39
 -4.058967e+00 -2.411173e+00 -4.700440e+00 -6.578807e+00 -1.850825e+00 -5.248083e+00 -3.050555e+00 -4.060155e-01 -4.230248e-01 5.578036e-01 -2.911804e+00 -4.540871e+00 5.603047e+01 1.949458e+00 -4.131359e-01 5.422591e-01 -1.281291e+00 -1.769620e+00 4.301498e-01 1.414609e-01 1.721244e-01 -5.986439e-01 -3.554772e-01 -5.668931e-02 -1.184331e+00 1.989962e+00 1.180615e-02 -1.692418e-01 1.797502e-01 -8.675582e-02 -1.310300e-01 1.878238e-01 -1.040773e-01 -7.225972e-03 -4.960021e-02 -1.380114e-01 1.686773e-01 3.550532e-02 -1.469729e-01
<VARIANCE> 39
 3.038821e+01 4.731308e+01 5.802876e+01 4.557086e+01 5.026808e+01 4.820388e+01 4.098836e+01 4.090991e+01 4.109998e+01 3.742794e+01 3.465692e+01 2.493463e+01 4.570774e+01 2.924859e+00 4.301726e+00 4.016894e+00 4.914561e+00 4.604302e+00 4.102648e+00 3.927393e+00 4.806427e+00 3.833661e+00 3.800854e+00 3.455670e+00 2.820787e+00 2.777378e+00 4.570794e-01 4.350408e-01 5.302944e-01 5.348940e-01 7.528810e-01 6.177776e-01 5.236150e-01 5.402343e-01 5.144374e-01 5.197557e-01 4.494491e-01 3.548017e-01 4.225239e-01
<GCONST> 1.284173e+02
<TRANSP> 5
 0.000000e+00 1.000000e+00 0.000000e+00 0.000000e+00 0.000000e+00
 0.000000e+00 7.728636e-01 2.271364e-01 0.000000e+00 0.000000e+00
 0.000000e+00 0.000000e+00 6.585214e-01 3.414786e-01 0.000000e+00
 0.000000e+00 0.000000e+00 0.000000e+00 3.877212e-01 6.122788e-01
 0.000000e+00 0.000000e+00 0.000000e+00 0.000000e+00 0.000000e+00
<ENDHMM>
~h "l"
<BEGINHMM>
<NUMSTATES> 5
<STATE> 2
<MEAN> 39
 -9.762442e-02 -3.905579e+00 -4.401533e-01 -9.847977e+00 -5.675697e+00 -6.118398e+00 -9.633774e+00 -4.379883e+00 3.650131e+00 2.409975e+00 -1.880698e+00 -4.216552e+00 6.062763e+01 2.548252e-01 1.713268e-02 -9.378425e-02 -1.485194e-01 2.448005e-01 5.661979e-02 -6.005744e-01 -2.697442e-01 3.962009e-01 3.355515e-01 -2.640641e-02 -7.069620e-02 -1.351088e-01 -1.633060e-01 -2.862686e-02 -7.974786e-02 -1.342400e-01 8.164248e-02 1.868567e-01 3.353923e-01 3.192127e-01 -2.598337e-01 -2.188927e-01 -1.933134e-02 -9.476756e-02 7.921346e-02
<VARIANCE> 39
 1.507968e+01 4.886209e+01 6.309808e+01 6.398758e+01 4.222797e+01 6.623653e+01 4.942744e+01 6.343702e+01 6.044413e+01 5.160585e+01 3.166935e+01 3.391228e+01 3.284907e+01 4.490835e-01 1.197924e+00 1.878747e+00 2.202690e+00 2.077403e+00 2.446071e+00 2.506896e+00 2.985157e+00 2.477487e+00 2.146849e+00 1.824947e+00 1.684986e+00 6.317196e-01 7.952179e-02 2.132595e-01 2.630178e-01 4.346587e-01 3.710116e-01 4.394348e-01 5.107740e-01 5.726718e-01 4.471320e-01 4.543677e-01 3.958160e-01 3.076867e-01 9.678210e-02
<GCONST> 1.125368e+02
<STATE> 3
<MEAN> 39
 1.395560e+00 -2.552384e+00 -6.156588e+00 -1.046824e+01 -4.621267e+00 -2.108112e+00 -8.322228e+00 -2.018977e+00 2.525772e+00 5.679142e-01 -2.181930e+00 -5.420985e+00 5.857429e+01 -1.071772e-01 -1.981069e-01 -1.661712e-01 -1.353540e-01 1.952712e-01 1.861169e-01 2.456805e-01 4.577313e-01 -3.602828e-02 -2.521675e-01 -1.824279e-01 -1.197978e-01 8.958112e-02 -1.167860e-01 -8.615258e-02 1.788438e-02 5.080626e-02 -5.515080e-03 -5.662330e-03 2.102990e-01 1.645441e-01 -1.242223e-01 -1.854804e-01 -3.646610e-02 3.000373e-02 6.453416e-02
<VARIANCE> 39
 9.916798e+00 3.804136e+01 8.645191e+01 5.466555e+01 4.325854e+01 5.600747e+01 4.724432e+01 6.484035e+01 4.575811e+01 6.456107e+01 3.746859e+01 2.706989e+01 2.383522e+01 2.398069e-01 9.841007e-01 1.077808e+00 1.563733e+00 1.279276e+00 1.696675e+00 1.538300e+00 1.890885e+00 1.429011e+00 1.481339e+00 1.354352e+00 1.199354e+00 4.992211e-01 5.168496e-02 1.343195e-01 1.582930e-01 2.438358e-01 2.484578e-01 2.568610e-01 3.264185e-01 3.383492e-01 3.000609e-01 3.084352e-01 2.652400e-01 2.028503e-01 5.437119e-02
<GCONST> 1.000420e+02
<STATE> 4
<MEAN> 39
 -5.710898e-02 -4.495271e+00 -3.312471e+00 -9.776179e+00 -4.852074e+00 -3.942229e+00 -7.943779e+00 -1.115685e+00 3.058516e+00 -3.306569e-01 -3.088914e+00 -4.956309e+00 5.997778e+01 -5.624567e-01 -4.056141e-01 8.691311e-02 1.393726e-01 4.583853e-02 2.419542e-02 1.017849e+00 9.502788e-01 -6.538894e-01 -8.435271e-01 -8.483236e-02 -1.356532e-02 2.872717e-01 -8.835112e-02 1.152902e-01 1.516870e-01 2.019747e-02 -7.309799e-02 2.519522e-03 1.207215e-01 -1.043024e-01 -2.460685e-01 4.958751e-02 1.830669e-01 5.033004e-02 -5.570255e-02
<VARIANCE> 39
 1.648098e+01 4.377988e+01 7.424251e+01 5.924582e+01 4.656919e+01 6.322886e+01 5.135571e+01 6.127787e+01 5.320896e+01 6.397853e+01 3.469262e+01 3.599831e+01 4.068773e+01 5.286325e-01 1.784729e+00 2.382866e+00 2.680799e+00 2.901273e+00 3.084316e+00 3.003720e+00 3.871804e+00 2.950966e+00 2.804910e+00 2.824672e+00 1.949777e+00 1.060702e+00 9.204733e-02 1.654852e-01 2.206331e-01 3.664809e-01 3.744836e-01 3.955275e-01 4.520040e-01 4.513010e-01 3.872873e-01 4.304773e-01 3.307131e-01 3.069465e-01 1.119766e-01
<GCONST> 1.155107e+02
<TRANSP> 5
 0.000000e+00 1.000000e+00 0.000000e+00 0.000000e+00 0.000000e+00
 0.000000e+00 4.136537e-01 5.863463e-01 0.000000e+00 0.000000e+00
 0.000000e+00 0.000000e+00 6.171741e-01 3.828259e-01 0.000000e+00
 0.000000e+00 0.000000e+00 0.000000e+00 2.722048e-01 7.277952e-01
 0.000000e+00 0.000000e+00 0.000000e+00 0.000000e+00 0.000000e+00
<ENDHMM>
~h "m"
<BEGINHMM>
<NUMSTATES> 5
<STATE> 2
<MEAN> 39
 2.372613e+00 9.205237e-02 -8.175199e-01 -5.210309e+00 -3.750867e+00 1.769861e-01 -6.925370e+00 -5.743026e+00 -2.784899e+00 -1.122569e-01 5.311934e-01 -5.766158e+00 5.511829e+01 1.198175e-01 9.116874e-01 1.164328e+00 1.383654e+00 2.084765e-01 3.649772e-01 5.693989e-03 -1.495323e+00 -1.346476e+00 -1.196815e-01 -1.023115e-01 1.246734e-01 -9.557975e-01 -1.368654e-01 -2.214716e-01 -7.207198e-02 -2.133151e-01 -5.139523e-02 -8.580955e-02 9.670666e-02 2.408328e-01 1.300963e-01 -1.013720e-01 -1.168264e-01 -3.317807e-02 2.497390e-01
<VARIANCE> 39
 1.561623e+01 3.429866e+01 4.464007e+01 4.425101e+01 3.944535e+01 3.637694e+01 3.912094e+01 5.219096e+01 3.335813e+01 3.428504e+01 3.231841e+01 2.536708e+01 3.377470e+01 5.079603e-01 1.206807e+00 1.831255e+00 1.834759e+00 1.736509e+00 1.739124e+00 1.930251e+00 2.624027e+00 2.077967e+00 1.775279e+00 2.150280e+00 1.317767e+00 6.440250e-01 7.374719e-02 1.380386e-01 2.635513e-01 2.798809e-01 2.660679e-01 2.577476e-01 2.665600e-01 3.835261e-01 3.336692e-01 2.512691e-01 2.985988e-01 1.902219e-01 7.127844e-02
<GCONST> 1.029247e+02
<STATE> 3
<MEAN> 39
 1.267491e+00 3.245294e-01 2.079614e+00 -3.535397e+00 -2.471093e+00 1.597664e-01 -6.216810e+00 -5.334069e+00 -5.488392e+00 -1.797410e+00 -9.644423e-02 -4.677653e+00 5.397595e+01 7.498107e-02 1.443846e-01 9.717560e-02 4.416660e-02 -1.283544e-01 5.835786e-02 9.280829e-02 -8.580085e-02 -2.127439e-01 -1.006527e-01 2.875451e-03 5.827662e-02 -1.379317e-01 -1.581197e-02 -1.568720e-01 -2.947134e-01 -4.005800e-01 -1.229457e-01 -9.631912e-02 2.612861e-02 3.234476e-01 3.112058e-01 8.634314e-02 8.428953e-02 1.327393e-02 2.153279e-01
<VARIANCE> 39
 1.500595e+01 4.080360e+01 3.306625e+01 4.523524e+01 4.462471e+01 3.042308e+01 4.480570e+01 7.255971e+01 3.313731e+01 3.988719e+01 3.048915e+01 2.106519e+01 3.064924e+01 2.515034e-01 5.284660e-01 8.569301e-01 1.033317e+00 1.137978e+00 1.093306e+00 1.062265e+00 1.366166e+00 1.299372e+00 1.102285e+00 1.179426e+00 8.543383e-01 3.140895e-01 6.870074e-02 1.350454e-01 2.097610e-01 2.527167e-01 2.469418e-01 2.466852e-01 2.850010e-01 3.661565e-01 3.325313e-01 2.576194e-01 2.902631e-01 1.951030e-01 6.637828e-02
<GCONST> 9.472283e+01
<STATE> 4
<MEAN> 39
 2.256111e+00 6.211695e-01 -3.613925e-01 -5.179525e+00 -4.410622e+00 2.465762e-01 -6.496186e+00 -6.273429e+00 -4.456335e+00 -6.599547e-01 7.931608e-01 -4.851401e+00 5.444505e+01 1.952864e-02 -7.724120e-01 -1.009264e+00 -1.298240e+00 -3.579540e-02 -7.825356e-02 -5.203322e-02 1.085687e+00 9.105618e-01 7.944109e-02 1.778615e-01 -1.120109e-01 9.125115e-01 -1.916291e-01 -2.592236e-01 -4.533693e-02 -2.084020e-01 1.150035e-01 -7.516081e-02 -8.862366e-03 3.356617e-01 2.602965e-01 -2.164465e-02 -1.243455e-01 -5.993660e-02 2.253074e-01
<VARIANCE> 39
 1.891185e+01 3.981210e+01 4.696502e+01 5.121648e+01 4.484074e+01 4.212112e+01 4.471025e+01 6.264565e+01 3.939202e+01 3.651218e+01 3.525537e+01 2.525113e+01 4.173634e+01 1.086250e+00 1.993557e+00 3.135804e+00 2.944316e+00 3.168774e+00 3.152506e+00 3.028871e+00 3.854172e+00 3.418787e+00 2.350343e+00 2.550173e+00 1.912747e+00 1.183296e+00 1.522891e-01 2.611076e-01 4.354079e-01 4.715113e-01 4.238036e-01 4.069031e-01 4.329715e-01 5.867561e-01 5.534125e-01 3.871874e-01 4.119148e-01 2.936970e-01 1.428620e-01
<GCONST> 1.174187e+02
<TRANSP> 5
 0.000000e+00 1.000000e+00 0.000000e+00 0.000000e+00 0.000000e+00
 0.000000e+00 4.381910e-01 5.618091e-01 0.000000e+00 0.000000e+00
 0.000000e+00 0.000000e+00 6.745514e-01 3.254486e-01 0.000000e+00
 0.000000e+00 0.000000e+00 0.000000e+00 5.152302e-01 4.847697e-01
 0.000000e+00 0.000000e+00 0.000000e+00 0.000000e+00 0.000000e+00
<ENDHMM>
~h "n"
<BEGINHMM>
<NUMSTATES> 5
<STATE> 2
<MEAN> 39
 1.139067e+00 -1.684462e+00 2.435868e+00 -3.907376e+00 -6.162871e+00 -5.796426e+00 -7.249999e+00 -8.778634e-01 -8.400022e-02 -9.822129e-01 -2.990116e+00 -4.258159e+00 5.652330e+01 4.498444e-01 1.538014e+00 7.565408e-01 1.272754e+00 -1.802828e-01 4.083796e-01 -3.692138e-01 -1.684403e+00 -1.345364e-01 9.885309e-02 -3.663576e-01 1.280122e-01 -1.468555e+00 -1.486407e-01 -1.363633e-01 -1.990521e-01 -3.165296e-01 4.945285e-02 1.616236e-01 1.968413e-01 1.199473e-01 -1.760163e-02 -6.077174e-02 8.671968e-02 -4.381049e-02 2.010553e-01
<VARIANCE> 39
 1.123421e+01 4.496724e+01 3.516443e+01 3.488020e+01 5.085380e+01 3.450417e+01 3.500034e+01 5.390615e+01 3.795219e+01 3.906339e+01 2.550825e+01 2.529700e+01 3.020679e+01 4.357210e-01 1.192157e+00 1.740952e+00 1.289185e+00 2.107458e+00 2.008660e+00 2.331075e+00 3.378474e+00 1.952708e+00 2.095480e+00 1.852830e+00 1.227644e+00 4.280240e-01 5.754895e-02 1.579594e-01 1.796346e-01 1.909330e-01 2.656365e-01 2.615559e-01 2.820132e-01 4.292143e-01 2.893568e-01 2.740850e-01 2.393764e-01 1.868175e-01 7.124039e-02
<GCONST> 1.011134e+02
<STATE> 3
<MEAN> 39
 3.074651e-01 -5.731475e-01 3.593980e+00 -3.094664e+00 -4.642542e+00 -4.030716e+00 -6.418862e+00 -1.839170e+00 -1.002399e+00 -2.426096e+00 -2.572760e+00 -3.032828e+00 5.341806e+01 -1.217955e-02 5.787417e-01 6.718505e-02 3.210680e-01 7.045367e-02 2.318104e-01 9.337780e-02 -3.358981e-01 -1.141070e-01 -6.711701e-03 -1.985670e-02 1.085225e-01 -6.270555e-01 -1.416443e-01 -1.658728e-01 -9.021813e-02 -1.495303e-01 6.384715e-02 -4.151636e-02 8.608338e-02 2.182202e-01 -1.091450e-02 1.456668e-02 6.991457e-02 -1.288633e-02 1.377938e-01
<VARIANCE> 39
 1.481307e+01 4.800663e+01 3.217035e+01 3.431826e+01 5.516964e+01 3.015133e+01 3.168351e+01 4.384394e+01 3.206955e+01 3.538669e+01 2.521374e+01 2.141703e+01 2.872138e+01 2.714845e-01 5.576157e-01 6.634966e-01 7.454550e-01 9.855465e-01 1.052603e+00 1.069968e+00 1.275355e+00 1.104108e+00 1.063331e+00 1.067054e+00 7.973547e-01 2.515225e-01 6.601776e-02 1.298875e-01 1.605894e-01 1.822557e-01 2.343087e-01 2.216215e-01 2.399717e-01 3.222913e-01 2.388101e-01 2.303936e-01 2.388467e-01 1.607348e-01 6.395324e-02
<GCONST> 9.024444e+01
<STATE> 4
<MEAN> 39
 5.462876e-01 2.065460e+00 2.586577e+00 -1.748126e+00 -6.543141e+00 -4.253328e+00 -6.473622e+00 -4.092692e+00 -7.636133e-01 -6.578535e-01 -3.074234e+00 -3.530835e+00 5.211479e+01 -5.341999e-01 -1.390478e-01 -1.744648e-01 -2.068391e-01 4.912694e-01 2.580382e-02 3.131645e-01 4.849363e-01 -1.353058e-01 -1.106797e-01 1.958529e-01 9.155191e-02 -5.568234e-02 -2.677504e-01 -2.522004e-01 -8.704139e-02 -3.175115e-01 1.001117e-01 -4.247824e-02 1.073437e-01 2.586227e-01 -2.242518e-02 -6.054876e-02 1.356465e-01 4.685620e-03 3.100977e-01
<VARIANCE> 39
 1.871294e+01 4.403953e+01 3.887807e+01 3.926150e+01 5.518058e+01 3.678746e+01 3.941750e+01 5.580347e+01 3.944913e+01 4.491325e+01 3.144644e+01 2.455030e+01 4.166609e+01 9.393663e-01 2.018856e+00 1.803279e+00 2.079238e+00 2.542892e+00 2.204395e+00 2.194093e+00 3.234599e+00 2.224821e+00 2.025638e+00 1.973187e+00 1.352015e+00 1.551611e+00 2.208597e-01 3.573048e-01 3.856297e-01 4.028023e-01 5.402834e-01 4.194638e-01 4.398711e-01 6.079658e-01 4.183193e-01 4.025950e-01 3.886747e-01 2.636435e-01 2.086511e-01
<GCONST> 1.146320e+02
<TRANSP> 5
 0.000000e+00 1.000000e+00 0.000000e+00 0.000000e+00 0.000000e+00
 0.000000e+00 3.882476e-01 6.117523e-01 0.000000e+00 0.000000e+00
 0.000000e+00 0.000000e+00 7.306731e-01 2.693269e-01 0.000000e+00
 0.000000e+00 0.000000e+00 0.000000e+00 5.240828e-01 4.759172e-01
 0.000000e+00 0.000000e+00 0.000000e+00 0.000000e+00 0.000000e+00
<ENDHMM>
~h "o"
<BEGINHMM>
<NUMSTATES> 5
<STATE> 2
<MEAN> 39
 4.248445e-01 -1.809984e+00 -7.846693e+00 -1.462017e+01 -5.150102e+00 2.923172e+00 -4.685365e+00 -2.751840e+00 -1.393803e+00 4.489579e-01 1.685920e+00 -3.875713e+00 5.628714e+01 1.042518e+00 -6.336101e-01 -6.224779e-01 -1.900328e+00 -2.454106e-01 8.870320e-01 -2.544794e-01 -2.466486e-01 -1.501090e-01 2.233639e-01 4.425638e-01 -5.171242e-01 1.510361e+00 -3.112593e-01 4.708987e-02 2.519936e-01 5.504779e-01 1.728199e-01 -1.809247e-01 3.213316e-03 1.539594e-02 4.894520e-02 -1.062544e-01 -1.259522e-01 1.227415e-02 -3.235279e-01
<VARIANCE> 39
 3.411560e+01 3.789106e+01 4.627710e+01 1.102542e+02 5.448910e+01 6.238155e+01 7.325186e+01 4.271539e+01 5.955870e+01 5.114467e+01 4.145737e+01 2.829312e+01 7.499049e+01 2.438816e+00 2.633731e+00 2.985601e+00 6.869463e+00 3.380624e+00 3.848575e+00 3.789994e+00 3.161684e+00 3.598500e+00 3.079955e+00 2.727149e+00 2.072700e+00 3.448878e+00 4.562975e-01 5.037616e-01 4.945267e-01 1.244270e+00 5.547549e-01 6.764729e-01 7.252632e-01 5.766746e-01 6.656456e-01 5.300055e-01 4.830787e-01 4.002244e-01 6.818631e-01
<GCONST> 1.313950e+02
<STATE> 3
<MEAN> 39
 1.339254e+00 -3.761718e+00 -6.786971e+00 -1.767320e+01 -3.706840e+00 2.305075e+00 -5.044047e+00 -1.754078e+00 -2.610882e+00 8.097222e-01 2.333581e+00 -4.908140e+00 6.054105e+01 1.325100e-02 -4.104312e-02 1.795598e-01 3.823958e-01 9.061459e-02 -1.837110e-01 -2.608635e-01 1.066195e-02 1.424523e-01 -6.125348e-02 -3.967142e-02 -6.640327e-02 -1.469588e-01 -1.227585e-01 1.914095e-01 2.130413e-01 5.667630e-01 6.770848e-02 -2.702100e-01 -5.465966e-02 -4.598291e-02 1.224982e-01 -1.061659e-01 -1.877472e-01 1.454488e-01 -3.190071e-01
<VARIANCE> 39
 1.463681e+01 3.371920e+01 4.471124e+01 6.280075e+01 6.563015e+01 3.899056e+01 5.040018e+01 4.301736e+01 5.069871e+01 5.009101e+01 5.041365e+01 2.453685e+01 2.332630e+01 3.076085e-01 9.326829e-01 8.754163e-01 2.479396e+00 1.280500e+00 1.832532e+00 1.842885e+00 1.567685e+00 1.976537e+00 1.511215e+00 1.431555e+00 1.219900e+00 5.646480e-01 1.147982e-01 1.807549e-01 1.949317e-01 3.574832e-01 3.058517e-01 2.954038e-01 2.978101e-01 3.180346e-01 3.553511e-01 3.074459e-01 3.194286e-01 2.497417e-01 1.381059e-01
<GCONST> 1.039559e+02
<STATE> 4
<MEAN> 39
 2.164224e+00 -2.307345e+00 -6.091877e+00 -1.145316e+01 -4.096891e+00 1.462458e-01 -7.828374e+00 -3.404408e+00 -6.954331e-01 3.255433e-01 1.323780e+00 -4.003061e+00 5.648425e+01 -2.942244e-01 8.948179e-01 8.965970e-01 1.778113e+00 5.144809e-01 -4.091206e-01 9.797705e-03 -1.419090e-01 1.651661e-01 -2.972883e-01 -7.342350e-01 2.986875e-01 -1.424066e+00 -1.787819e-01 1.213263e-01 5.008670e-02 3.129283e-04 1.747920e-02 1.244477e-01 2.484182e-01 4.825073e-03 -1.248414e-01 -3.511984e-02 -1.638363e-02 1.002163e-03 -1.031303e-01
<VARIANCE> 39
 1.336564e+01 3.615561e+01 3.929250e+01 5.561357e+01 5.365449e+01 5.752341e+01 4.988462e+01 4.272977e+01 5.487699e+01 4.495874e+01 4.461351e+01 3.050976e+01 3.922069e+01 7.280158e-01 1.148423e+00 1.331426e+00 1.953327e+00 2.434216e+00 2.524452e+00 2.380494e+00 2.508074e+00 2.765494e+00 2.151968e+00 2.345826e+00 1.575797e+00 8.536232e-01 1.207394e-01 2.461418e-01 2.183457e-01 4.073452e-01 3.923643e-01 4.665119e-01 3.760195e-01 4.175221e-01 4.857398e-01 4.202667e-01 3.880652e-01 2.923152e-01 1.639042e-01
<GCONST> 1.121954e+02
<TRANSP> 5
 0.000000e+00 1.000000e+00 0.000000e+00 0.000000e+00 0.000000e+00
 0.000000e+00 5.883777e-01 4.116223e-01 0.000000e+00 0.000000e+00
 0.000000e+00 0.000000e+00 7.304924e-01 2.695077e-01 0.000000e+00
 0.000000e+00 0.000000e+00 0.000000e+00 6.017825e-01 3.982175e-01
 0.000000e+00 0.000000e+00 0.000000e+00 0.000000e+00 0.000000e+00
<ENDHMM>
~h "p"
<BEGINHMM>
<NUMSTATES> 5
<STATE> 2
<MEAN> 39
 -5.480760e+00 -3.149986e-01 -2.287978e+00 -4.018220e+00 -1.858960e+00 -9.576875e-01 -3.035836e+00 -8.608602e-01 -1.073302e-01 -5.777764e-02 -5.149145e-01 -2.747661e+00 4.637646e+01 -6.109730e-01 1.092414e-01 -6.585336e-02 3.332418e-01 5.523007e-02 -3.882644e-02 2.076270e-01 -1.842790e-02 6.685250e-02 -4.340609e-02 -2.338271e-02 2.414331e-01 -7.685496e-01 7.884469e-02 -1.147375e-01 -3.713444e-02 -1.399298e-01 -5.043619e-02 -4.443101e-02 -3.283209e-02 1.601202e-02 -2.430527e-02 7.652491e-03 6.879521e-02 -4.698755e-02 3.778428e-01
<VARIANCE> 39
 2.148894e+01 2.986674e+01 3.479791e+01 4.140399e+01 3.462635e+01 3.265815e+01 2.442745e+01 2.835766e+01 2.438979e+01 2.371899e+01 1.906699e+01 2.044960e+01 4.195982e+01 5.665567e-01 5.546419e-01 8.166217e-01 1.004438e+00 1.050530e+00 1.292673e+00 1.309273e+00 1.506845e+00 1.322721e+00 1.306451e+00 1.232621e+00 9.647678e-01 7.784820e-01 1.065273e-01 1.407814e-01 1.907565e-01 2.517521e-01 2.351870e-01 2.703266e-01 2.940536e-01 3.204717e-01 2.915910e-01 2.889687e-01 2.642803e-01 2.020082e-01 1.764638e-01
<GCONST> 9.565632e+01
<STATE> 3
<MEAN> 39
 -6.231719e+00 7.563364e-01 -1.360319e+00 -3.604271e+00 -2.575405e+00 -2.198404e+00 -2.950548e+00 -1.620352e+00 -3.358206e-01 -4.413514e-01 -4.897160e-01 -2.301051e+00 4.744868e+01 3.822254e-01 -6.101051e-01 -7.413887e-01 -9.182077e-01 -1.109260e-01 -1.787470e-01 1.976336e-02 -5.646191e-02 -4.633943e-02 2.301924e-01 3.215503e-01 -2.972117e-01 1.936092e+00 6.523836e-01 -3.776349e-01 -1.641314e-01 -6.898080e-01 -1.717132e-01 9.690516e-02 -2.913604e-01 3.626683e-02 -4.347464e-02 2.530886e-01 2.909110e-02 -3.572893e-01 9.771951e-01
<VARIANCE> 39
 2.391485e+01 3.325202e+01 3.589668e+01 3.955241e+01 3.445795e+01 3.655177e+01 2.566119e+01 2.780742e+01 2.383871e+01 2.387334e+01 1.984450e+01 1.881647e+01 4.420494e+01 3.302958e+00 2.606741e+00 3.365058e+00 3.953531e+00 2.896090e+00 3.641585e+00 2.908181e+00 3.325954e+00 2.744189e+00 2.639133e+00 2.416815e+00 1.900075e+00 3.157292e+00 3.349057e-01 4.716608e-01 5.762227e-01 5.687041e-01 5.693349e-01 6.191439e-01 4.951634e-01 5.442215e-01 4.816870e-01 4.581114e-01 4.120637e-01 3.263471e-01 4.051497e-01
<GCONST> 1.196625e+02
<STATE> 4
<MEAN> 39
 -1.580868e+00 -3.312188e+00 -5.116200e+00 -1.018684e+01 -2.992514e+00 -7.790582e-01 -4.247460e+00 -2.297399e+00 -6.119477e-01 1.755628e+00 5.848797e-01 -5.933910e+00 5.695445e+01 1.568445e+00 -1.817097e+00 -8.405223e-01 -2.208048e+00 -3.020133e-01 3.968479e-01 -7.348043e-01 4.726816e-01 1.154760e-01 7.271376e-01 -2.619959e-02 -1.314250e+00 3.365109e+00 -1.440922e-01 1.681134e-02 4.524901e-01 3.529479e-01 -2.790407e-02 -1.770046e-01 -4.826805e-02 2.421926e-01 6.760103e-02 -2.127791e-01 -2.772906e-01 1.651757e-01 -4.016724e-01
<VARIANCE> 39
 2.692912e+01 4.120066e+01 3.470847e+01 6.131662e+01 2.681214e+01 5.264868e+01 3.649828e+01 3.247139e+01 3.413537e+01 3.267427e+01 2.743309e+01 2.914938e+01 4.888184e+01 3.049376e+00 4.434231e+00 5.365002e+00 5.802368e+00 4.565128e+00 5.293124e+00 4.053846e+00 5.478390e+00 4.644424e+00 3.751948e+00 3.598006e+00 3.077882e+00 3.198988e+00 4.934624e-01 5.647882e-01 4.890954e-01 9.188989e-01 6.259514e-01 7.725320e-01 5.318770e-01 5.693094e-01 5.340418e-01 5.249810e-01 5.137309e-01 4.848132e-01 5.817771e-01
<GCONST> 1.298237e+02
<TRANSP> 5
 0.000000e+00 1.000000e+00 0.000000e+00 0.000000e+00 0.000000e+00
 0.000000e+00 7.924039e-01 2.075961e-01 0.000000e+00 0.000000e+00
 0.000000e+00 0.000000e+00 5.905153e-01 4.094847e-01 0.000000e+00
 0.000000e+00 0.000000e+00 0.000000e+00 3.859096e-01 6.140905e-01
 0.000000e+00 0.000000e+00 0.000000e+00 0.000000e+00 0.000000e+00
<ENDHMM>
~h "r"
<BEGINHMM>
<NUMSTATES> 5
<STATE> 2
<MEAN> 39
 -1.011205e+00 -4.113245e+00 -8.915401e-01 -5.126641e+00 -5.656774e+00 -6.975080e+00 -5.406109e+00 1.648709e+00 2.742894e+00 -1.093740e-01 -1.582890e+00 -3.466288e+00 5.739544e+01 -5.798655e-01 4.437438e-01 5.597932e-01 8.900281e-01 4.383334e-01 -6.688935e-02 9.486540e-02 -1.495893e-01 -7.130843e-02 -3.094954e-01 2.317062e-01 4.549510e-01 -1.006525e+00 -5.852041e-02 -8.750381e-02 1.838998e-02 -3.502801e-01 -2.110837e-02 1.158686e-01 7.822429e-02 -6.834076e-02 -2.984585e-01 -4.678554e-03 9.733263e-02 -4.424999e-02 2.816850e-01
<VARIANCE> 39
 1.820173e+01 3.465253e+01 3.806822e+01 4.220291e+01 6.333399e+01 4.831666e+01 4.467912e+01 3.934598e+01 3.711484e+01 3.530038e+01 2.746046e+01 2.183641e+01 3.388638e+01 1.421631e+00 2.045998e+00 2.110147e+00 2.293377e+00 3.111627e+00 2.789074e+00 2.510869e+00 2.577165e+00 2.322923e+00 2.186883e+00 2.049607e+00 1.702784e+00 9.560728e-01 1.899522e-01 2.377674e-01 2.787630e-01 3.503850e-01 4.191414e-01 3.894973e-01 3.679855e-01 4.385868e-01 3.541100e-01 3.367407e-01 3.516073e-01 2.605097e-01 1.672851e-01
<GCONST> 1.122394e+02
<STATE> 3
<MEAN> 39
 -3.652750e+00 -3.326445e+00 -1.277703e-01 -4.201159e+00 -3.703714e+00 -6.116746e+00 -4.272130e+00 1.153211e+00 1.924690e+00 -1.257957e+00 -7.452961e-01 -2.493870e+00 5.593373e+01 -7.446053e-02 3.877499e-03 4.785541e-01 6.792901e-02 -1.618918e-01 -4.139689e-02 9.269104e-02 -4.776999e-02 -5.123325e-01 -1.612112e-01 2.643445e-01 1.861332e-01 3.560432e-02 3.050019e-01 -1.444631e-01 -7.221511e-02 -4.202411e-01 -3.548294e-01 5.764245e-02 -8.869544e-02 6.367488e-03 -1.691044e-01 1.600611e-01 -1.721490e-02 -2.052088e-01 4.463162e-01
<VARIANCE> 39
 2.713322e+01 3.443959e+01 3.565116e+01 3.915701e+01 4.982849e+01 4.464052e+01 4.046495e+01 3.432738e+01 3.459609e+01 2.987234e+01 2.519274e+01 2.142883e+01 4.038865e+01 1.618310e+00 1.725571e+00 2.075103e+00 1.864667e+00 2.747769e+00 2.362812e+00 2.107867e+00 2.578493e+00 2.048696e+00 1.907994e+00 1.889321e+00 1.451408e+00 1.100379e+00 3.584823e-01 4.716272e-01 4.135834e-01 5.401271e-01 6.516460e-01 5.433376e-01 4.815671e-01 5.423117e-01 4.102404e-01 4.524300e-01 4.586761e-01 3.543950e-01 2.302120e-01
<GCONST> 1.154170e+02
<STATE> 4
<MEAN> 39
 -9.563721e-01 -3.461651e+00 9.550139e-01 -4.962260e+00 -7.241127e+00 -7.612151e+00 -5.249144e+00 4.498518e-01 8.131484e-01 -1.049548e-01 -1.070469e+00 -2.699139e+00 5.834848e+01 2.478356e-01 1.547061e-01 2.702051e-01 -2.963315e-01 -4.643112e-01 1.883037e-01 -1.025982e-01 -2.047178e-01 -4.936207e-01 1.442975e-01 6.234445e-02 -1.493368e-01 1.333103e-01 -1.103696e-01 7.843655e-02 -8.257063e-02 -1.547759e-01 1.167976e-01 1.868918e-01 9.271926e-03 -3.524448e-02 1.636104e-02 1.024444e-02 -7.106690e-02 -9.325156e-02 -3.203754e-02
<VARIANCE> 39
 2.237362e+01 4.576337e+01 5.553694e+01 4.269175e+01 5.876564e+01 4.991660e+01 4.770120e+01 4.688766e+01 3.959516e+01 3.550431e+01 3.219159e+01 2.391990e+01 3.526840e+01 1.927682e+00 2.648279e+00 2.734012e+00 2.558594e+00 3.590428e+00 2.590460e+00 2.596260e+00 3.152200e+00 2.246544e+00 2.233007e+00 2.307538e+00 1.679966e+00 2.082171e+00 2.469135e-01 3.229376e-01 3.195269e-01 4.210774e-01 5.036473e-01 4.718768e-01 4.203446e-01 4.568985e-01 3.884541e-01 3.712617e-01 3.543922e-01 2.905566e-01 2.536275e-01
<GCONST> 1.179395e+02
<TRANSP> 5
 0.000000e+00 1.000000e+00 0.000000e+00 0.000000e+00 0.000000e+00
 0.000000e+00 2.042367e-01 7.957633e-01 0.000000e+00 0.000000e+00
 0.000000e+00 0.000000e+00 2.869582e-01 7.130418e-01 0.000000e+00
 0.000000e+00 0.000000e+00 0.000000e+00 3.942437e-01 6.057564e-01
 0.000000e+00 0.000000e+00 0.000000e+00 0.000000e+00 0.000000e+00
<ENDHMM>
~h "s"
<BEGINHMM>
<NUMSTATES> 5
<STATE> 2
<MEAN> 39
 -9.916610e+00 3.831450e+00 -1.671526e+00 -3.285547e+00 -1.205744e+00 -7.505441e+00 -8.923099e-01 -4.092494e-01 4.356690e-01 -2.039063e+00 -1.525846e+00 -2.347525e+00 5.667376e+01 -3.406553e+00 1.942000e+00 -1.055674e+00 9.524788e-01 9.398378e-01 -4.382021e-01 1.014016e+00 1.126716e-01 1.806951e-01 -4.622890e-01 5.439917e-01 1.880745e-01 -1.107352e-01 -1.322195e-01 -2.583489e-01 -1.022696e-01 -3.038394e-01 -1.415739e-01 1.006818e-01 -2.013930e-01 -2.258764e-02 -1.625827e-01 5.013918e-02 3.386151e-02 -6.209325e-02 4.343962e-02
<VARIANCE> 39
 4.574777e+01 4.411653e+01 4.937605e+01 3.732623e+01 5.898482e+01 4.507634e+01 4.755136e+01 4.504830e+01 4.349830e+01 3.922499e+01 3.084133e+01 2.163143e+01 4.410908e+01 1.881956e+00 2.847070e+00 2.836756e+00 3.589172e+00 3.494047e+00 3.322927e+00 2.801642e+00 3.007689e+00 2.410797e+00 2.607568e+00 2.140337e+00 1.804324e+00 1.018921e+00 6.409090e-01 4.335499e-01 3.760259e-01 4.030619e-01 4.963929e-01 4.756417e-01 4.260465e-01 4.422309e-01 4.074338e-01 3.994099e-01 3.510906e-01 2.775966e-01 1.134365e-01
<GCONST> 1.192835e+02
<STATE> 3
<MEAN> 39
 -1.911423e+01 5.597345e+00 -4.597936e+00 -2.125335e+00 -1.791161e-01 -6.958372e+00 1.200388e+00 -7.461134e-02 -2.349967e-01 -2.384033e+00 4.458486e-01 -1.146629e+00 5.360289e+01 -5.546003e-01 -2.459483e-01 -9.013636e-02 -3.193947e-05 -4.304270e-02 2.110017e-02 1.798811e-01 1.262448e-02 -6.296968e-02 -1.441757e-02 9.319954e-02 1.470221e-01 -3.488097e-01 6.555397e-01 -2.982358e-01 2.322374e-01 -9.683438e-02 -1.576006e-01 -1.239498e-02 -8.976110e-02 -7.717122e-03 2.603816e-02 7.260444e-02 -8.810408e-02 -2.483336e-02 9.446583e-03
<VARIANCE> 39
 2.537729e+01 4.230338e+01 3.805244e+01 2.838875e+01 3.622663e+01 4.417986e+01 4.035077e+01 3.246462e+01 3.441500e+01 3.223878e+01 2.191620e+01 2.025271e+01 5.603450e+01 1.532262e+00 1.113733e+00 1.148944e+00 1.090919e+00 1.291551e+00 1.448148e+00 1.468473e+00 1.556351e+00 1.503438e+00 1.413919e+00 1.242823e+00 1.006458e+00 4.277600e-01 3.527322e-01 2.660453e-01 2.367881e-01 2.753531e-01 2.996337e-01 3.194586e-01 3.380492e-01 3.342503e-01 3.120655e-01 3.210669e-01 2.713393e-01 2.274835e-01 9.191936e-02
<GCONST> 1.025759e+02
<STATE> 4
<MEAN> 39
 -1.579495e+01 3.215216e+00 -3.713441e+00 -2.742595e+00 -1.368373e+00 -8.078693e+00 7.989885e-01 -7.412068e-02 7.463900e-01 -2.062400e+00 -5.375963e-01 -1.124163e+00 5.395074e+01 2.803125e+00 -8.484124e-01 5.316783e-01 -6.621249e-01 -1.013056e+00 -1.769529e-01 -8.847293e-01 -2.177825e-01 1.030078e-01 1.485400e-01 -5.410969e-01 -4.084206e-01 7.398158e-01 4.806301e-01 -3.728547e-02 8.815875e-02 -2.573144e-01 -1.724407e-01 7.521293e-02 -3.389127e-01 -6.436560e-02 -6.427605e-02 5.331988e-02 -3.085887e-02 -1.605727e-01 3.329512e-01
<VARIANCE> 39
 5.566505e+01 3.212260e+01 3.803276e+01 3.040981e+01 4.112312e+01 4.536982e+01 3.939805e+01 3.034349e+01 3.426915e+01 2.948436e+01 2.388498e+01 1.832272e+01 4.681736e+01 4.761606e+00 3.465723e+00 3.394296e+00 3.036464e+00 3.500300e+00 3.439636e+00 3.575432e+00 3.443253e+00 2.653796e+00 2.776627e+00 2.504813e+00 1.890688e+00 2.726789e+00 8.519965e-01 4.511881e-01 3.992027e-01 4.501713e-01 5.248294e-01 5.314834e-01 5.682546e-01 5.099756e-01 4.245863e-01 4.286714e-01 4.305618e-01 3.079687e-01 2.930694e-01
<GCONST> 1.222341e+02
<TRANSP> 5
 0.000000e+00 1.000000e+00 0.000000e+00 0.000000e+00 0.000000e+00
 0.000000e+00 6.690882e-01 3.309118e-01 0.000000e+00 0.000000e+00
 0.000000e+00 0.000000e+00 8.180935e-01 1.819065e-01 0.000000e+00
 0.000000e+00 0.000000e+00 0.000000e+00 7.102429e-01 2.897572e-01
 0.000000e+00 0.000000e+00 0.000000e+00 0.000000e+00 0.000000e+00
<ENDHMM>
~h "t"
<BEGINHMM>
<NUMSTATES> 5
<STATE> 2
<MEAN> 39
 -7.163013e+00 -1.393320e-01 -1.372232e+00 -2.709547e+00 -3.088750e+00 -3.179691e+00 -2.852352e+00 -1.430822e-01 -7.938467e-02 -6.064795e-01 -1.059953e+00 -2.074501e+00 4.555531e+01 -4.877320e-01 1.758177e-02 -1.376334e-01 1.862288e-01 1.240947e-01 2.751656e-01 1.812991e-01 -2.500644e-02 -2.634874e-02 -6.444403e-03 1.122824e-01 1.948585e-01 -8.165650e-01 -2.679316e-02 -1.222695e-01 -2.683306e-02 -1.490056e-01 -2.522274e-02 -1.575427e-01 9.567919e-03 1.126315e-02 -1.948926e-03 -2.150184e-02 3.994214e-02 -4.122486e-03 3.817352e-01
<VARIANCE> 39
 2.699165e+01 3.514684e+01 3.875893e+01 3.886983e+01 3.744168e+01 3.886754e+01 2.937254e+01 3.558234e+01 2.978470e+01 2.542110e+01 2.196714e+01 2.248097e+01 5.015791e+01 6.312451e-01 6.666762e-01 8.982665e-01 1.077069e+00 1.265166e+00 1.544450e+00 1.387451e+00 1.557175e+00 1.405094e+00 1.435515e+00 1.212500e+00 1.023061e+00 1.213709e+00 1.152587e-01 1.671334e-01 2.120218e-01 2.608176e-01 2.748919e-01 3.657412e-01 2.924667e-01 3.477705e-01 2.991344e-01 3.018633e-01 2.584490e-01 2.051942e-01 2.419185e-01
<GCONST> 1.002961e+02
<STATE> 3
<MEAN> 39
 -6.125990e+00 1.974052e+00 2.172363e-01 -2.650475e+00 -3.919398e+00 -4.387389e+00 -4.062106e+00 -2.147112e+00 -8.760681e-01 -5.492221e-01 -1.182742e+00 -2.557046e+00 4.640937e+01 -9.944414e-01 -8.183426e-01 -7.531504e-01 -6.940607e-01 3.737127e-01 -8.178244e-01 5.498925e-01 4.768480e-02 1.842791e-01 -2.737030e-01 2.355482e-01 2.115963e-01 1.437104e+00 2.989107e-01 -2.718778e-01 -7.734766e-02 -5.619010e-01 -1.016635e-01 -3.138429e-01 -1.629891e-01 9.426719e-02 1.810665e-01 3.047880e-02 -8.742307e-02 -1.777479e-01 1.128678e+00
<VARIANCE> 39
 2.287655e+01 3.420357e+01 4.901653e+01 4.435133e+01 4.727643e+01 4.151081e+01 2.810100e+01 3.459092e+01 2.942538e+01 2.526613e+01 2.513070e+01 2.233566e+01 4.414473e+01 1.877980e+00 2.413951e+00 3.528505e+00 3.199345e+00 3.731624e+00 4.028296e+00 2.973469e+00 3.328261e+00 2.673464e+00 2.584620e+00 2.500113e+00 1.737278e+00 3.591489e+00 3.433077e-01 4.131595e-01 6.345325e-01 5.542873e-01 6.346918e-01 6.042178e-01 5.489328e-01 6.771087e-01 4.967030e-01 4.904774e-01 4.743831e-01 3.574788e-01 4.089254e-01
<GCONST> 1.218053e+02
<STATE> 4
<MEAN> 39
 -8.216923e+00 -1.699428e+00 -2.738800e+00 -6.486454e+00 -2.645443e+00 -7.818740e+00 -2.151573e+00 -1.144159e+00 8.774900e-01 -1.314431e+00 -7.617548e-01 -2.600465e+00 5.459006e+01 9.948888e-01 -6.303193e-01 -2.238109e-01 -1.533655e+00 -2.570052e-01 -5.695305e-01 -6.406792e-01 3.088028e-01 4.335449e-01 9.767076e-02 -2.516319e-01 -6.054322e-01 2.915518e+00 6.261461e-01 1.034898e-01 3.333759e-01 -1.005068e-01 -2.273171e-01 4.653480e-01 -4.467478e-01 1.656536e-02 -1.485292e-01 1.687548e-01 -8.451121e-02 -1.905661e-01 -1.167753e-01
<VARIANCE> 39
 2.488264e+01 2.617506e+01 3.885321e+01 3.468221e+01 3.652493e+01 4.400272e+01 3.485387e+01 3.065513e+01 3.367645e+01 2.978596e+01 2.755412e+01 2.307074e+01 4.761893e+01 3.444736e+00 4.035184e+00 6.288727e+00 5.071261e+00 5.053919e+00 5.241815e+00 4.513409e+00 6.275299e+00 4.028605e+00 3.725046e+00 3.659864e+00 2.796082e+00 4.365461e+00 4.625855e-01 5.407694e-01 6.155437e-01 6.790866e-01 7.085388e-01 7.979622e-01 6.672008e-01 6.903310e-01 5.499422e-01 5.667633e-01 5.629663e-01 4.233818e-01 6.407890e-01
<GCONST> 1.295215e+02
<TRANSP> 5
 0.000000e+00 1.000000e+00 0.000000e+00 0.000000e+00 0.000000e+00
 0.000000e+00 7.587907e-01 2.412093e-01 0.000000e+00 0.000000e+00
 0.000000e+00 0.000000e+00 4.527835e-01 5.472165e-01 0.000000e+00
 0.000000e+00 0.000000e+00 0.000000e+00 5.087144e-01 4.912856e-01
 0.000000e+00 0.000000e+00 0.000000e+00 0.000000e+00 0.000000e+00
<ENDHMM>
~h "u"
<BEGINHMM>
<NUMSTATES> 5
<STATE> 2
<MEAN> 39
 7.452455e-01 3.638265e+00 -1.659489e+00 -1.062316e+01 -6.183859e+00 -4.618780e+00 -1.014147e+01 -4.631094e+00 -2.905609e+00 -2.970834e-01 5.005858e-01 -2.008798e+00 5.579650e+01 1.196206e+00 3.780801e-01 -5.755165e-01 -1.834920e+00 -4.935648e-01 9.241601e-01 -9.590889e-01 -7.759938e-01 -7.176353e-01 4.274267e-01 8.322461e-01 1.820364e-01 6.506463e-01 -3.540272e-01 -8.192544e-02 1.029647e-01 2.923099e-01 2.536489e-01 2.788331e-01 3.781106e-01 7.882737e-02 1.059459e-02 1.389925e-02 -3.711418e-02 -6.937394e-02 -3.136419e-01
<VARIANCE> 39
 2.282471e+01 4.409739e+01 4.409841e+01 6.954394e+01 5.068607e+01 5.110263e+01 5.517804e+01 5.451758e+01 5.347441e+01 5.028516e+01 3.634850e+01 2.565024e+01 3.828304e+01 2.370999e+00 2.183038e+00 2.885751e+00 4.277066e+00 4.006852e+00 4.093235e+00 4.031027e+00 3.915006e+00 3.481946e+00 3.113802e+00 3.061594e+00 2.202586e+00 1.621346e+00 3.478149e-01 4.262065e-01 3.675203e-01 7.341356e-01 5.736986e-01 6.357694e-01 7.872679e-01 6.610879e-01 6.622847e-01 5.465294e-01 4.890392e-01 4.045922e-01 3.286269e-01
<GCONST> 1.267267e+02
<STATE> 3
<MEAN> 39
 1.711851e+00 2.532763e+00 -2.983497e+00 -1.492645e+01 -5.524123e+00 -2.825473e-01 -1.140074e+01 -7.038187e+00 -3.849786e+00 1.208502e+00 3.709326e+00 -2.364238e+00 5.815833e+01 -6.039416e-02 -3.205373e-01 5.806540e-02 8.518025e-02 3.822341e-01 1.905979e-01 -1.549324e-01 -6.167444e-02 3.054773e-01 4.264188e-01 -5.012903e-02 -4.242353e-01 5.225962e-02 -3.260920e-01 -3.369002e-02 2.804543e-01 8.318418e-01 1.474762e-01 -3.842891e-01 4.061210e-01 3.554461e-01 2.939055e-01 -2.527408e-01 -4.966660e-01 -8.199406e-02 -3.856073e-01
<VARIANCE> 39
 1.882528e+01 4.171450e+01 4.190091e+01 7.415101e+01 5.584385e+01 6.086608e+01 5.650621e+01 6.849143e+01 6.332638e+01 6.565474e+01 4.859335e+01 3.705495e+01 3.011661e+01 6.943517e-01 2.480075e+00 1.714456e+00 4.466820e+00 2.780196e+00 3.524041e+00 3.451490e+00 3.233791e+00 4.556157e+00 2.968972e+00 2.902710e+00 2.530380e+00 1.444325e+00 2.419161e-01 3.327295e-01 3.653619e-01 6.026482e-01 5.947342e-01 6.470726e-01 7.125695e-01 6.799482e-01 7.213186e-01 6.108578e-01 5.832670e-01 5.178478e-01 1.821457e-01
<GCONST> 1.248187e+02
<STATE> 4
<MEAN> 39
 5.792866e-01 3.057920e+00 -1.826925e+00 -1.338726e+01 -3.603802e+00 -3.031168e+00 -9.768317e+00 -4.750200e+00 -5.017881e+00 8.838488e-01 5.414931e-01 -1.866438e+00 5.541020e+01 -2.752372e-01 4.574092e-02 3.142504e-01 9.305691e-01 1.731045e-01 -1.452606e-01 4.207650e-01 2.527800e-01 3.467692e-01 -1.701110e-01 -4.309188e-01 -8.855708e-02 -7.254927e-01 -1.504069e-01 -5.611725e-03 5.274967e-02 2.001003e-01 -6.803429e-03 -6.944904e-02 8.418097e-02 9.663235e-03 5.937883e-02 -6.428839e-02 -3.414406e-02 3.992838e-02 -7.433372e-02
<VARIANCE> 39
 1.556230e+01 3.845228e+01 4.755950e+01 7.333791e+01 4.665978e+01 4.439053e+01 4.500185e+01 4.542263e+01 5.570420e+01 5.749125e+01 4.145544e+01 3.198228e+01 3.514166e+01 6.756859e-01 1.264222e+00 1.304378e+00 2.569993e+00 1.776736e+00 2.123372e+00 2.072729e+00 2.181456e+00 2.177308e+00 1.848681e+00 1.997605e+00 1.436809e+00 1.081524e+00 1.202787e-01 1.896012e-01 2.165808e-01 3.669429e-01 3.326714e-01 3.580969e-01 3.713119e-01 3.800783e-01 4.323281e-01 3.522693e-01 3.391738e-01 2.800674e-01 1.137910e-01
<GCONST> 1.099140e+02
<TRANSP> 5
 0.000000e+00 1.000000e+00 0.000000e+00 0.000000e+00 0.000000e+00
 0.000000e+00 4.233122e-01 5.766878e-01 0.000000e+00 0.000000e+00
 0.000000e+00 0.000000e+00 4.788539e-01 5.211462e-01 0.000000e+00
 0.000000e+00 0.000000e+00 0.000000e+00 6.835566e-01 3.164434e-01
 0.000000e+00 0.000000e+00 0.000000e+00 0.000000e+00 0.000000e+00
<ENDHMM>
~h "v"
<BEGINHMM>
<NUMSTATES> 5
<STATE> 2
<MEAN> 39
 -4.836629e+00 -2.447223e-01 -1.355863e-02 -1.438978e+00 -3.997041e+00 -1.802087e+00 -9.245779e-01 2.565950e+00 1.088533e+00 -1.158789e+00 -2.031809e+00 -3.172104e+00 5.352742e+01 -1.804420e+00 5.189760e-01 -8.983598e-01 7.288078e-01 9.266750e-02 -3.852751e-01 2.880146e-01 -3.080237e-03 1.698790e-01 -3.940231e-01 -7.549705e-02 4.423034e-01 -9.548394e-01 -1.223366e-01 -1.894525e-01 -5.840465e-02 -2.667722e-01 -2.129846e-01 -2.178891e-01 -2.644425e-01 -2.329113e-01 -1.206885e-01 -9.000069e-02 5.185913e-02 -1.279435e-01 2.617269e-01
<VARIANCE> 39
 1.331937e+01 2.581090e+01 5.011796e+01 2.739280e+01 3.696829e+01 2.796447e+01 1.554312e+01 4.770702e+01 3.490524e+01 2.478624e+01 2.220321e+01 2.216619e+01 2.217538e+01 1.398147e+00 8.882733e-01 2.013952e+00 1.251588e+00 2.347880e+00 2.075892e+00 2.179865e+00 2.087001e+00 2.881987e+00 1.627450e+00 1.510207e+00 1.268072e+00 6.749231e-01 2.510276e-01 1.434830e-01 2.579999e-01 2.130463e-01 3.326270e-01 3.506141e-01 2.786509e-01 3.246342e-01 4.380341e-01 2.323790e-01 2.554757e-01 1.819400e-01 7.138914e-02
<GCONST> 1.016249e+02
<STATE> 3
<MEAN> 39
 -1.211864e+01 -6.577671e-01 -2.285604e+00 -1.049982e+00 -3.059701e+00 -4.769623e+00 -2.313004e+00 -1.233718e+00 2.255589e-01 -3.025471e+00 -9.902347e-01 -1.803854e+00 5.213111e+01 -6.401788e-01 -1.660034e-01 3.531803e-02 2.807054e-02 -1.253946e-01 -1.222975e-01 9.821118e-02 -1.909360e-01 -2.198688e-01 -2.971826e-02 1.437872e-01 3.991186e-02 -1.402252e-01 7.688859e-01 -1.885569e-02 4.927815e-01 -2.593480e-01 -1.711577e-01 2.290681e-01 4.207457e-02 -1.543112e-02 -1.810615e-01 3.255493e-01 1.805602e-01 -1.469181e-01 2.855503e-01
<VARIANCE> 39
 1.028764e+01 1.559959e+01 3.318769e+01 1.877808e+01 2.028867e+01 2.162696e+01 1.679160e+01 2.396956e+01 2.135491e+01 3.143421e+01 1.694047e+01 1.402714e+01 1.346120e+01 1.984658e+00 1.112134e+00 1.788345e+00 1.155736e+00 1.458071e+00 1.434396e+00 1.160093e+00 2.010278e+00 1.487844e+00 1.812170e+00 1.490929e+00 9.444135e-01 3.391083e-01 2.823852e-01 2.916674e-01 4.379165e-01 3.349190e-01 3.971490e-01 3.367288e-01 3.313251e-01 4.361947e-01 4.149578e-01 3.685288e-01 3.645838e-01 2.151352e-01 1.358410e-01
<GCONST> 9.842461e+01
<STATE> 4
<MEAN> 39
 -7.975333e+00 3.723339e-01 -2.110196e+00 -1.672629e+00 -4.129393e+00 -1.476467e+00 -9.296616e-01 -1.021543e+00 -5.698307e-01 -1.256819e+00 -1.233907e-01 -3.165608e+00 5.222117e+01 2.640079e+00 -2.475409e-01 9.997293e-01 -1.694040e+00 -1.331374e+00 2.894809e-01 -5.615074e-01 -1.028199e+00 -7.965978e-01 1.022866e+00 6.794344e-01 -9.105147e-01 1.844770e+00 3.533016e-01 -2.582458e-01 3.076409e-01 -5.531448e-01 -4.213498e-01 -2.066497e-01 -3.337378e-01 -9.720935e-02 -8.347100e-04 1.545246e-01 -8.233254e-02 -2.276454e-01 5.426695e-01
<VARIANCE> 39
 3.786915e+01 2.284190e+01 5.128727e+01 4.332986e+01 2.748951e+01 3.881802e+01 2.535257e+01 2.917277e+01 2.370226e+01 2.661627e+01 1.918592e+01 1.684998e+01 2.305325e+01 3.835926e+00 3.643617e+00 7.398542e+00 3.818090e+00 3.601853e+00 5.260113e+00 3.046912e+00 5.221896e+00 3.025661e+00 2.453323e+00 2.768520e+00 1.554921e+00 1.364378e+00 7.581974e-01 5.008641e-01 7.389895e-01 5.944051e-01 5.010948e-01 5.405401e-01 4.790296e-01 6.405321e-01 3.874284e-01 4.614804e-01 3.404371e-01 2.880449e-01 1.799144e-01
<GCONST> 1.205130e+02
<TRANSP> 5
 0.000000e+00 1.000000e+00 0.000000e+00 0.000000e+00 0.000000e+00
 0.000000e+00 6.960929e-01 3.039071e-01 0.000000e+00 0.000000e+00
 0.000000e+00 0.000000e+00 7.291524e-01 2.708476e-01 0.000000e+00
 0.000000e+00 0.000000e+00 0.000000e+00 5.634735e-01 4.365265e-01
 0.000000e+00 0.000000e+00 0.000000e+00 0.000000e+00 0.000000e+00
<ENDHMM>
~h "w"
<BEGINHMM>
<NUMSTATES> 5
<STATE> 2
<MEAN> 39
 3.379483e+00 2.755640e+00 -5.252266e+00 -1.339367e+01 -6.532170e+00 1.886516e+00 -4.816744e+00 -2.818272e+00 -2.552096e+00 1.498608e+00 3.202187e+00 -2.839145e+00 5.570141e+01 7.891688e-01 5.121694e-01 -3.238680e-01 -1.605980e+00 -7.868097e-01 3.035252e-01 -1.601892e-01 -1.919657e-01 -7.146190e-01 1.122292e-01 4.844804e-01 3.598536e-01 2.785739e-01 -2.307370e-01 -4.783722e-01 -1.441863e-01 -7.959707e-02 2.134493e-01 1.608316e-01 9.462210e-02 1.497993e-01 1.708589e-01 7.561742e-02 -9.329937e-02 -2.810886e-01 2.845224e-01
<VARIANCE> 39
 1.907172e+01 3.874703e+01 3.745872e+01 7.885158e+01 4.459557e+01 3.554189e+01 4.148286e+01 2.765834e+01 3.082789e+01 2.697197e+01 2.620318e+01 2.189991e+01 3.881923e+01 1.122586e+00 1.741692e+00 1.578178e+00 3.331113e+00 2.389971e+00 3.346169e+00 2.186408e+00 1.962816e+00 1.897123e+00 1.769771e+00 2.152776e+00 1.632722e+00 1.887873e+00 1.704299e-01 2.094837e-01 2.418808e-01 5.184926e-01 3.954375e-01 5.033811e-01 3.456146e-01 4.254702e-01 3.821038e-01 3.879416e-01 3.674988e-01 3.352375e-01 1.220726e-01
<GCONST> 1.113449e+02
<STATE> 3
<MEAN> 39
 3.850847e+00 -8.897604e-01 -6.299519e+00 -2.188238e+01 -6.777091e+00 6.060059e+00 -4.654127e+00 -2.925322e+00 -4.651531e+00 3.721318e+00 5.564487e+00 -4.438402e+00 5.991298e+01 -4.849759e-01 -1.676345e+00 -7.659501e-01 -7.125252e-01 1.256912e+00 1.201199e+00 8.383211e-02 -8.023852e-03 5.174537e-01 7.311586e-01 -3.193855e-02 -1.634592e+00 1.129719e+00 -2.647042e-01 -1.802327e-01 1.631512e-01 7.492943e-01 4.195068e-01 -4.678502e-01 -2.363745e-02 1.994871e-01 4.799637e-01 -2.265663e-01 -5.216630e-01 -3.163592e-01 -5.416398e-02
<VARIANCE> 39
 1.297717e+01 5.338258e+01 4.004093e+01 6.653873e+01 5.434561e+01 5.736394e+01 5.097456e+01 3.765162e+01 5.175268e+01 4.165775e+01 3.686014e+01 2.765748e+01 1.890854e+01 5.194719e-01 1.111713e+00 9.180100e-01 2.442421e+00 2.506382e+00 2.433848e+00 1.812281e+00 2.254220e+00 2.884097e+00 2.054178e+00 2.317018e+00 2.075486e+00 6.425444e-01 9.528146e-02 2.812729e-01 2.120930e-01 3.812224e-01 4.552177e-01 4.425128e-01 3.605665e-01 3.901496e-01 3.458926e-01 4.014493e-01 3.067042e-01 3.958742e-01 1.430733e-01
<GCONST> 1.099088e+02
<STATE> 4
<MEAN> 39
 1.052720e+00 -4.693742e+00 -7.093294e+00 -1.901999e+01 -1.607372e+00 5.158662e+00 -4.366599e+00 -2.385060e+00 -5.306866e-01 4.380662e+00 2.574870e+00 -1.006678e+01 6.204857e+01 -5.677422e-01 -8.555051e-01 -3.865074e-02 1.048998e+00 7.591431e-01 -5.453768e-01 1.208976e-01 5.262539e-01 8.920218e-01 -6.193441e-01 -1.120353e+00 -6.538239e-01 1.785574e-01 3.543735e-02 2.751232e-01 1.674842e-01 2.144316e-01 -2.642040e-01 -2.241179e-01 6.062110e-02 3.830357e-02 -1.712482e-01 -2.584804e-01 1.308085e-02 4.882139e-01 -2.759904e-01
<VARIANCE> 39
 1.103348e+01 4.557341e+01 3.981688e+01 5.661442e+01 3.932516e+01 4.130713e+01 5.383956e+01 4.054633e+01 6.602207e+01 4.784952e+01 4.927681e+01 3.304236e+01 2.295534e+01 3.194909e-01 1.421413e+00 8.056340e-01 1.524187e+00 1.497508e+00 1.637589e+00 1.273653e+00 1.457156e+00 2.041493e+00 1.816917e+00 1.396913e+00 1.883856e+00 1.398807e+00 6.161402e-02 1.866026e-01 1.393681e-01 3.352115e-01 2.725010e-01 3.218469e-01 2.229448e-01 2.521439e-01 3.190170e-01 3.154556e-01 2.468614e-01 3.265869e-01 1.250972e-01
<GCONST> 1.030971e+02
<TRANSP> 5
 0.000000e+00 1.000000e+00 0.000000e+00 0.000000e+00 0.000000e+00
 0.000000e+00 7.516587e-01 2.483412e-01 0.000000e+00 0.000000e+00
 0.000000e+00 0.000000e+00 5.907365e-01 4.092635e-01 0.000000e+00
 0.000000e+00 0.000000e+00 0.000000e+00 6.787037e-01 3.212964e-01
 0.000000e+00 0.000000e+00 0.000000e+00 0.000000e+00 0.000000e+00
<ENDHMM>
~h "y"
<BEGINHMM>
<NUMSTATES> 5
<STATE> 2
<MEAN> 39
 -5.316405e+00 2.187771e-01 9.512808e+00 -1.285508e+01 -1.069151e+01 -8.206478e+00 -5.279128e+00 -1.974335e+00 -4.197899e+00 -4.537842e-02 -1.074391e-02 -1.926382e+00 6.026186e+01 -9.011924e-02 -4.455504e-01 7.365059e-01 -9.100965e-01 -1.073487e+00 -2.693390e-01 4.368131e-01 5.365753e-01 -2.898577e-01 3.299519e-01 5.190934e-01 -3.170853e-02 9.531755e-01 9.124351e-02 -3.002825e-01 -5.187103e-01 2.306868e-01 2.242382e-01 1.303965e-01 1.957550e-01 2.355278e-01 1.670803e-01 -1.300931e-01 -1.274952e-01 -1.401630e-01 -5.383162e-02
<VARIANCE> 39
 2.500382e+01 7.078002e+01 5.967746e+01 8.877672e+01 5.910652e+01 5.202023e+01 4.386545e+01 7.463399e+01 4.049770e+01 5.400906e+01 5.342820e+01 2.221035e+01 5.031524e+01 1.226311e+00 3.233824e+00 4.004527e+00 3.506154e+00 2.781227e+00 2.879959e+00 3.183891e+00 4.508425e+00 2.635364e+00 2.448109e+00 2.075229e+00 1.673979e+00 1.873191e+00 1.473736e-01 3.091072e-01 4.541744e-01 5.581673e-01 6.347357e-01 4.282224e-01 5.061712e-01 5.381863e-01 4.153859e-01 4.456215e-01 4.089444e-01 2.883558e-01 1.854033e-01
<GCONST> 1.224707e+02
<STATE> 3
<MEAN> 39
 -4.687158e+00 -5.970127e+00 8.807140e+00 -1.248131e+01 -1.358069e+01 -9.332231e+00 -9.473625e-01 2.558599e+00 -3.548386e+00 -1.612618e-01 2.949173e+00 -3.860750e+00 6.381829e+01 1.483387e-01 -6.471429e-01 -5.830695e-01 8.619130e-02 1.808230e-01 1.884294e-02 6.188590e-01 8.273320e-01 9.293703e-02 -2.566878e-01 -9.082051e-02 -2.212850e-01 2.143498e-01 8.666842e-02 -4.752002e-02 -3.466604e-01 1.749710e-01 4.712630e-01 8.931579e-02 -1.160930e-01 4.978584e-02 1.126449e-01 -1.827627e-01 -2.985667e-01 1.180691e-02 -9.090379e-02
<VARIANCE> 39
 2.457246e+01 3.799856e+01 3.661531e+01 6.747408e+01 3.656083e+01 3.430335e+01 3.794225e+01 6.533788e+01 3.591709e+01 3.735134e+01 4.059041e+01 1.685078e+01 3.188436e+01 2.426820e-01 1.444463e+00 1.973519e+00 9.847636e-01 1.457211e+00 1.110421e+00 1.826112e+00 2.655804e+00 1.465979e+00 1.684115e+00 1.252320e+00 9.363329e-01 2.696638e-01 3.927506e-02 1.437817e-01 1.264143e-01 1.459846e-01 2.401521e-01 2.042203e-01 3.140317e-01 3.746867e-01 2.439415e-01 2.472032e-01 2.070077e-01 1.775050e-01 5.774394e-02
<GCONST> 9.661096e+01
<STATE> 4
<MEAN> 39
 -2.011050e+00 -8.366034e+00 -3.974240e-01 -7.601012e+00 -1.112126e+01 -4.105969e+00 1.392991e+00 3.883221e+00 -3.210747e+00 -4.126960e+00 -3.539151e-01 -3.557257e+00 6.220631e+01 3.392874e-01 -6.416734e-01 -1.248419e+00 7.132704e-01 1.412359e+00 3.099760e-01 -2.832367e-01 2.423171e-01 2.861696e-01 -5.338882e-01 -6.547244e-01 -5.280700e-02 -5.610220e-02 2.965494e-02 2.769835e-01 1.233687e-01 -3.477550e-02 1.248465e-01 9.320408e-02 -3.656413e-01 -4.066893e-01 6.100859e-02 2.464901e-01 -2.738676e-03 -5.795689e-03 -1.905478e-01
<VARIANCE> 39
 1.945963e+01 3.407715e+01 6.804382e+01 8.701785e+01 4.772320e+01 9.972096e+01 3.481481e+01 5.866549e+01 4.011610e+01 2.928447e+01 3.014402e+01 1.512633e+01 3.140716e+01 2.767035e-01 8.182364e-01 1.454382e+00 1.654591e+00 1.830303e+00 1.413684e+00 1.884790e+00 1.911209e+00 1.625553e+00 1.654927e+00 1.737597e+00 1.048041e+00 2.143611e-01 3.479168e-02 1.286855e-01 1.354994e-01 1.731574e-01 2.329206e-01 2.521813e-01 2.795854e-01 3.941838e-01 2.315010e-01 2.487223e-01 2.176025e-01 1.802864e-01 5.061236e-02
<GCONST> 9.798473e+01
<TRANSP> 5
 0.000000e+00 1.000000e+00 0.000000e+00 0.000000e+00 0.000000e+00
 0.000000e+00 6.224024e-01 3.775976e-01 0.000000e+00 0.000000e+00
 0.000000e+00 0.000000e+00 6.877565e-01 3.122435e-01 0.000000e+00
 0.000000e+00 0.000000e+00 0.000000e+00 6.485774e-01 3.514226e-01
 0.000000e+00 0.000000e+00 0.000000e+00 0.000000e+00 0.000000e+00
<ENDHMM>
~h "z"
<BEGINHMM>
<NUMSTATES> 5
<STATE> 2
<MEAN> 39
 -5.803131e+00 2.082957e+00 -1.026450e+00 -2.764736e+00 -2.856631e+00 8.677956e-01 -3.771709e+00 -2.005885e+00 -1.497935e+00 6.104134e-01 -2.504318e-01 -1.733820e+00 4.461522e+01 -5.902867e-01 2.284761e-01 -2.167753e-01 -7.620129e-03 -1.257894e-01 1.360424e-01 4.457088e-01 1.263201e-01 5.303765e-02 6.285309e-02 -1.019212e-01 6.868639e-02 -6.047106e-01 -8.043128e-02 2.154568e-02 1.001255e-01 -1.427815e-02 -3.133881e-02 -2.316858e-02 2.872575e-02 -2.946673e-02 -3.763558e-02 -2.373626e-02 7.398923e-02 -2.138141e-02 7.180970e-02
<VARIANCE> 39
 4.664207e+01 3.725160e+01 1.927906e+01 1.797505e+01 2.382492e+01 4.383632e+01 2.271303e+01 2.355562e+01 1.891242e+01 2.347316e+01 1.372418e+01 1.015528e+01 4.582582e+01 4.143243e-01 4.682983e-01 3.816184e-01 6.870702e-01 8.748254e-01 9.367021e-01 1.217461e+00 1.342265e+00 1.068467e+00 1.029569e+00 8.785297e-01 7.284095e-01 3.126613e-01 1.218863e-01 6.618228e-02 6.783702e-02 1.566616e-01 2.262139e-01 1.838070e-01 2.722619e-01 2.655334e-01 2.045590e-01 1.460681e-01 1.644183e-01 1.584253e-01 3.235016e-02
<GCONST> 8.311550e+01
<STATE> 3
<MEAN> 39
 -1.249430e+01 3.700395e+00 3.296725e+00 -3.002642e+00 -6.924140e-01 -3.048617e+00 -1.928397e+00 -1.556083e+00 8.485718e-01 -4.506719e+00 1.741598e+00 -1.419095e+00 5.244520e+01 -6.934939e-01 -2.930258e-01 2.047354e-01 4.271776e-02 -3.993503e-01 -5.559093e-01 1.839721e-01 4.585914e-01 3.143500e-01 -9.719499e-02 4.800038e-02 -2.092147e-01 5.016108e-01 6.932417e-01 -3.403045e-01 1.091649e-01 -2.566630e-01 -2.961355e-01 -2.230082e-01 -2.286699e-01 2.542260e-01 -4.997239e-02 2.289536e-01 -1.343501e-02 -1.956121e-01 3.356888e-01
<VARIANCE> 39
 3.702853e+01 4.382648e+01 1.773309e+01 1.808692e+01 3.010548e+01 3.637593e+01 3.508263e+01 2.365100e+01 3.656686e+01 2.968669e+01 1.639439e+01 1.543627e+01 3.647854e+01 7.160243e+00 2.063400e+00 1.130006e+00 2.111171e+00 2.321654e+00 3.348865e+00 3.542355e+00 2.134505e+00 1.713147e+00 1.803593e+00 1.671778e+00 1.435347e+00 9.709906e-01 9.051837e-01 3.212550e-01 2.631125e-01 4.333152e-01 4.102291e-01 7.668687e-01 7.220839e-01 4.927174e-01 3.462141e-01 3.660792e-01 3.147689e-01 3.286410e-01 2.573444e-01
<GCONST> 1.130018e+02
<STATE> 4
<MEAN> 39
 -5.676739e+00 -9.121338e-01 4.453170e+00 -4.580890e+00 -2.060067e+00 -9.011973e+00 -1.703317e+00 6.815383e+00 -1.098444e+00 4.587239e-01 -4.519908e-01 -7.582327e+00 5.593441e+01 1.573088e+00 -9.646541e-01 3.121627e-01 -8.366991e-01 -1.341543e+00 -1.051003e+00 -5.544378e-01 7.041849e-01 -2.132561e-02 7.829425e-01 3.851320e-02 -8.930250e-01 1.316551e+00 -1.989175e-01 -3.654382e-02 -5.749480e-02 -8.262358e-02 6.199851e-02 8.902091e-02 -2.943238e-02 -1.111466e-01 -8.116980e-02 -6.677218e-02 -5.324408e-02 -8.827145e-02 6.346727e-03
<VARIANCE> 39
 2.308816e+01 4.764603e+01 1.404126e+01 1.995509e+01 4.710665e+01 2.851448e+01 1.208645e+01 4.455353e+01 4.098153e+01 3.827638e+01 8.469945e+00 3.704275e+01 4.137516e+01 4.272813e+00 3.298266e+00 1.370236e+00 2.588544e+00 2.548102e+00 3.150823e+00 1.342451e+00 3.622083e+00 1.945207e+00 3.450070e+00 1.204808e+00 2.978178e+00 2.580173e+00 4.629508e-01 2.888454e-01 1.065305e-01 2.476291e-01 3.058804e-01 4.018668e-01 2.057399e-01 3.174421e-01 3.163050e-01 3.517016e-01 1.242221e-01 4.273589e-01 3.193226e-01
<GCONST> 1.095968e+02
<TRANSP> 5
 0.000000e+00 1.000000e+00 0.000000e+00 0.000000e+00 0.000000e+00
 0.000000e+00 8.497412e-01 1.502588e-01 0.000000e+00 0.000000e+00
 0.000000e+00 0.000000e+00 8.075364e-01 1.924636e-01 0.000000e+00
 0.000000e+00 0.000000e+00 0.000000e+00 6.784405e-01 3.215595e-01
 0.000000e+00 0.000000e+00 0.000000e+00 0.000000e+00 0.000000e+00
<ENDHMM>
~h "ai"
<BEGINHMM>
<NUMSTATES> 5
<STATE> 2
<MEAN> 39
 -2.018277e+00 -1.119641e+01 -2.097150e+00 -1.014440e+01 -5.750957e+00 -5.117751e+00 -2.418090e+00 6.684844e+00 -7.253023e-01 -3.587590e+00 -2.948281e+00 -5.416744e+00 6.418045e+01 -3.643284e-01 -2.875693e-01 1.116314e+00 1.213618e-01 -1.164350e+00 -6.701398e-01 8.245903e-01 6.516007e-01 -5.929222e-01 -4.542636e-01 5.269421e-01 4.763287e-01 2.414962e-01 -6.013782e-02 5.271501e-01 2.211443e-01 1.570389e-02 -1.436990e-01 1.011447e-02 -7.957842e-02 -4.592123e-01 -6.846269e-02 3.243270e-01 2.839437e-01 2.903331e-02 -3.176624e-01
<VARIANCE> 39
 1.441356e+01 3.692223e+01 4.881608e+01 5.313468e+01 5.263996e+01 4.373497e+01 3.646693e+01 5.135918e+01 5.345210e+01 3.638508e+01 2.972026e+01 2.733835e+01 3.367348e+01 2.377763e-01 1.092075e+00 1.191105e+00 1.319234e+00 1.874143e+00 1.968807e+00 1.728560e+00 1.765232e+00 1.421403e+00 1.667145e+00 1.748129e+00 1.170299e+00 2.411340e-01 8.698367e-02 1.764986e-01 1.594172e-01 2.438791e-01 2.789767e-01 2.882511e-01 3.189316e-01 4.190305e-01 2.763437e-01 3.448524e-01 3.178833e-01 2.700576e-01 1.157021e-01
<GCONST> 1.016430e+02
<STATE> 3
<MEAN> 39
 -3.819264e+00 -7.114264e+00 6.343644e+00 -1.126670e+01 -1.373680e+01 -8.090000e+00 -1.249710e+00 5.193001e+00 -3.741555e+00 -5.284792e-01 2.072498e+00 -4.901525e+00 6.311909e+01 -2.689581e-01 1.013700e+00 1.284893e+00 -2.448873e-01 -7.533831e-01 -1.431855e-01 -3.310022e-01 -1.176243e+00 -3.522095e-01 7.408994e-01 3.976148e-01 1.610040e-01 -3.901451e-01 8.131114e-02 1.159474e-01 -2.166298e-01 1.462614e-01 4.153811e-01 1.268206e-01 -1.994033e-01 -1.783567e-01 9.643084e-02 -5.354455e-02 -2.809571e-01 2.977646e-02 -1.855825e-01
<VARIANCE> 39
 1.770800e+01 3.093828e+01 5.149559e+01 5.385532e+01 4.054575e+01 4.719077e+01 3.187284e+01 5.634946e+01 4.419269e+01 2.946936e+01 3.985972e+01 2.022756e+01 2.948713e+01 2.187349e-01 6.357369e-01 9.385445e-01 1.240933e+00 1.385516e+00 1.198587e+00 1.753794e+00 1.597163e+00 1.468228e+00 1.619371e+00 1.544127e+00 9.655125e-01 1.991424e-01 3.519298e-02 9.743558e-02 1.209581e-01 1.602047e-01 1.833195e-01 2.040915e-01 2.791841e-01 3.153564e-01 2.323573e-01 2.692354e-01 1.977303e-01 1.815242e-01 4.792276e-02
<GCONST> 9.310599e+01
<STATE> 4
<MEAN> 39
 -5.047079e+00 -2.054179e+00 9.671865e+00 -1.085896e+01 -1.192378e+01 -9.174723e+00 -2.711265e+00 -1.463491e+00 -4.353361e+00 8.541554e-01 -2.124234e-01 -3.479827e+00 5.861349e+01 1.669623e-01 6.547068e-01 -4.426402e-01 8.517560e-01 8.113407e-01 3.218364e-01 -3.812195e-02 -4.580621e-01 2.056225e-01 -1.784006e-01 -3.751835e-01 8.939591e-02 -1.287863e+00 -1.164719e-02 -7.118206e-02 -2.591525e-01 1.013090e-01 1.350277e-01 8.303331e-02 3.310466e-02 9.880852e-02 8.959546e-02 -7.731256e-02 -3.293758e-03 -2.047548e-02 -7.062034e-02
<VARIANCE> 39
 1.926123e+01 3.341276e+01 3.954708e+01 7.602954e+01 5.040738e+01 4.046901e+01 3.640530e+01 4.602113e+01 3.120672e+01 2.933150e+01 4.614489e+01 2.492351e+01 4.348783e+01 5.923717e-01 1.012485e+00 1.437331e+00 1.568658e+00 1.636146e+00 1.654244e+00 1.861755e+00 2.372247e+00 1.756516e+00 1.595126e+00 1.808963e+00 1.253410e+00 7.131444e-01 9.723789e-02 1.616413e-01 2.298876e-01 2.837683e-01 3.090504e-01 2.933356e-01 3.516250e-01 4.064933e-01 3.381555e-01 3.343630e-01 3.429201e-01 2.409767e-01 1.336405e-01
<GCONST> 1.052159e+02
<TRANSP> 5
 0.000000e+00 1.000000e+00 0.000000e+00 0.000000e+00 0.000000e+00
 0.000000e+00 7.300354e-01 2.699646e-01 0.000000e+00 0.000000e+00
 0.000000e+00 0.000000e+00 7.589095e-01 2.410905e-01 0.000000e+00
 0.000000e+00 0.000000e+00 0.000000e+00 7.967758e-01 2.032242e-01
 0.000000e+00 0.000000e+00 0.000000e+00 0.000000e+00 0.000000e+00
<ENDHMM>
~h "au"
<BEGINHMM>
<NUMSTATES> 5
<STATE> 2
<MEAN> 39
 8.926293e-01 -4.389967e+00 -9.498266e+00 -1.852343e+01 -2.568338e+00 1.235015e+00 -7.530027e+00 8.795269e-01 -3.807935e+00 -1.656636e-01 -3.320593e+00 -6.939396e+00 5.973714e+01 1.963465e-01 4.239525e-01 -1.554273e-01 -3.603176e-01 4.605794e-02 2.610048e-01 -1.427847e-01 -2.628051e-01 -1.638419e-01 1.832419e-01 3.491223e-01 1.602590e-01 -3.017303e-01 -2.224519e-02 1.181762e-01 1.200468e-01 1.571188e-01 -7.734571e-02 -1.021076e-01 -3.230752e-02 -1.054412e-01 3.437886e-03 8.563107e-03 3.257532e-02 8.471177e-02 -1.223530e-01
<VARIANCE> 39
 1.274692e+01 4.792244e+01 5.526204e+01 6.803020e+01 3.983498e+01 4.718496e+01 3.826659e+01 3.534356e+01 6.240357e+01 5.737022e+01 4.211731e+01 2.867916e+01 3.342464e+01 2.583166e-01 6.125731e-01 7.169004e-01 1.056109e+00 1.321223e+00 1.479246e+00 1.183833e+00 1.488813e+00 1.319470e+00 1.428989e+00 1.352709e+00 1.196926e+00 2.254208e-01 4.841928e-02 1.171496e-01 1.033217e-01 2.029155e-01 2.004669e-01 2.175293e-01 1.835139e-01 2.564366e-01 2.645765e-01 2.338843e-01 2.351150e-01 2.087506e-01 6.703634e-02
<GCONST> 9.487764e+01
<STATE> 3
<MEAN> 39
 2.135288e+00 -3.004977e-02 -6.564424e+00 -1.645373e+01 -4.358969e+00 -3.962130e-02 -1.024398e+01 -4.414207e+00 -2.691781e+00 3.601465e+00 1.641321e+00 -3.877710e+00 5.758523e+01 -6.786676e-02 4.597792e-01 6.695439e-01 1.070816e+00 -7.767017e-02 -3.266046e-01 -2.653426e-01 -2.861864e-01 -6.947381e-02 -2.386855e-01 -1.081038e-01 3.227039e-01 -7.979582e-01 -1.371855e-01 -4.904720e-03 1.910046e-01 4.388219e-01 2.542242e-02 -2.322190e-01 2.196180e-01 2.446528e-01 2.268276e-03 -1.604086e-01 -2.717815e-01 -8.647497e-02 -1.578531e-01
<VARIANCE> 39
 8.856616e+00 5.358255e+01 3.529036e+01 6.697342e+01 4.849726e+01 4.990635e+01 6.777359e+01 3.960049e+01 5.009177e+01 4.944122e+01 3.830320e+01 3.218877e+01 3.118164e+01 5.228581e-01 1.707210e+00 1.418581e+00 2.417356e+00 2.812102e+00 2.789175e+00 2.672302e+00 2.829445e+00 3.565583e+00 2.605193e+00 2.353825e+00 1.971963e+00 9.538659e-01 6.623069e-02 2.845027e-01 2.527882e-01 2.563136e-01 5.241709e-01 4.807281e-01 5.135286e-01 4.961820e-01 5.394434e-01 4.992186e-01 4.735349e-01 4.031092e-01 1.169929e-01
<GCONST> 1.140164e+02
<STATE> 4
<MEAN> 39
 -4.432453e+00 4.733119e-01 -3.350552e+00 -5.297516e+00 1.126415e+00 7.129530e-01 -3.183851e+00 6.021281e-01 -2.139309e+00 -2.288366e-01 4.263860e-01 -3.624813e+00 4.477932e+01 -2.857155e-01 6.819122e-02 2.641209e-01 8.470059e-01 9.867644e-02 -1.596496e-01 2.450593e-01 1.331733e-01 -1.283387e-02 -1.036825e-01 -2.028007e-01 -1.648182e-02 -5.983651e-01 -3.487743e-02 -3.935536e-02 -2.886577e-02 -6.953704e-02 -1.050622e-02 -5.612268e-03 5.093294e-03 7.915293e-04 -4.017964e-02 1.239396e-02 2.056792e-02 8.337907e-03 7.374214e-02
<VARIANCE> 39
 2.510538e+01 3.895995e+01 5.615932e+01 9.612818e+01 4.829710e+01 3.263993e+01 4.588477e+01 4.240160e+01 2.702954e+01 2.630997e+01 2.054187e+01 2.602810e+01 8.101930e+01 3.726301e-01 1.107295e+00 1.058224e+00 1.571998e+00 1.260526e+00 1.857069e+00 1.529627e+00 1.749623e+00 1.795344e+00 1.361073e+00 1.284567e+00 1.139733e+00 8.311900e-01 5.082266e-02 1.583336e-01 1.586868e-01 1.682782e-01 2.540956e-01 2.788567e-01 2.862364e-01 3.064168e-01 2.708014e-01 2.699040e-01 2.328376e-01 1.950095e-01 7.131906e-02
<GCONST> 1.000095e+02
<TRANSP> 5
 0.000000e+00 1.000000e+00 0.000000e+00 0.000000e+00 0.000000e+00
 0.000000e+00 8.596791e-01 1.403209e-01 0.000000e+00 0.000000e+00
 0.000000e+00 0.000000e+00 7.439107e-01 2.560893e-01 0.000000e+00
 0.000000e+00 0.000000e+00 0.000000e+00 7.723482e-01 2.276517e-01
 0.000000e+00 0.000000e+00 0.000000e+00 0.000000e+00 0.000000e+00
<ENDHMM>
~h "ei"
<BEGINHMM>
<NUMSTATES> 5
<STATE> 2
<MEAN> 39
 -3.488782e+00 -1.329496e+01 3.871551e+00 -1.134881e+01 -5.287993e+00 -1.610113e+00 -7.315278e+00 1.008416e+01 -6.764083e+00 -1.326148e+00 -5.109258e+00 5.081756e-01 5.457718e+01 -2.778473e-01 -6.266492e-01 8.033502e-01 -1.496021e+00 -9.374858e-01 4.356878e-02 8.286978e-01 -9.660358e-02 1.142843e-01 1.211000e-01 -4.515150e-01 -2.930978e-01 6.850473e-01 8.324745e-02 2.219913e-01 -3.265109e-01 3.426515e-01 -2.207225e-01 -1.698704e-01 -9.178634e-02 -5.419983e-01 1.980764e-01 4.463273e-02 -4.448039e-03 -1.063645e-01 -1.650362e-01
<VARIANCE> 39
 1.665166e+00 3.164369e+01 1.084146e+01 2.883984e+01 2.773010e+01 3.124619e+01 1.138875e+01 1.997389e+01 1.146131e+01 6.248659e+00 1.478922e+01 5.068891e+00 7.444508e+00 1.873428e-01 4.978894e-01 1.553257e+00 8.228039e-01 8.017168e-01 5.709601e-01 5.592628e-01 2.473357e+00 9.184480e-01 7.185963e-01 5.849598e-01 5.125434e-01 2.684963e-01 1.129638e-01 1.328176e-01 1.181976e-01 2.769066e-01 3.002272e-01 1.474072e-01 2.783383e-01 2.560256e-01 2.500435e-01 2.099105e-01 1.604501e-01 1.221533e-01 7.793172e-02
<GCONST> 7.584574e+01
<STATE> 3
<MEAN> 39
 -2.842183e+00 -1.016240e+01 3.284679e+00 -1.048390e+01 -1.232356e+01 -2.662246e+00 -6.526370e+00 5.037345e+00 -4.215442e+00 3.850330e-01 -4.930058e+00 -1.462993e+00 5.316202e+01 1.718087e-01 1.079610e+00 -3.588735e-01 1.496244e+00 -4.241707e-01 9.458396e-01 -2.185562e-01 -6.436930e-01 8.876678e-02 -4.068475e-01 9.557831e-01 -3.014789e-01 -1.093367e+00 -8.145875e-02 1.212276e-01 9.976310e-02 2.216989e-01 3.268853e-01 2.296772e-01 3.335339e-02 1.173319e-01 -8.987837e-02 -2.503497e-01 1.040589e-01 5.237333e-02 -1.510063e-01
<VARIANCE> 39
 1.619833e+00 2.785044e+01 3.978682e+00 4.503028e+01 1.323457e+01 4.789991e+01 1.134346e+01 1.731808e+01 7.250779e+00 1.101166e+01 3.547760e+01 1.024966e+01 1.922276e+01 2.311581e-01 6.060730e-01 3.290620e-01 1.677550e+00 2.167277e+00 3.073787e+00 6.516060e-01 9.482796e-01 1.046917e+00 1.059371e+00 1.562539e+00 4.396315e-01 4.169623e-01 2.969909e-02 1.388526e-01 5.055951e-02 5.430035e-01 3.089425e-01 6.094828e-01 1.374327e-01 1.273284e-01 1.306585e-01 1.665339e-01 5.050450e-01 1.045813e-01 1.235276e-01
<GCONST> 7.968645e+01
<STATE> 4
<MEAN> 39
 -2.626396e+00 7.545547e-01 5.867352e+00 -1.392344e+01 -1.706902e+01 -8.672966e+00 -1.080467e+01 -3.752883e+00 -2.787721e+00 -1.022990e+00 -7.876008e+00 -2.283906e+00 5.466866e+01 -3.625969e-02 6.348040e-01 3.286215e-01 1.165642e+00 -9.087502e-02 1.300017e-01 -1.936718e-01 -4.589550e-02 -2.380661e-02 -6.184473e-02 3.171723e-01 -2.804447e-02 -7.696916e-01 -2.007811e-01 7.591038e-02 -8.281363e-02 1.869581e-01 1.569786e-01 -2.383052e-01 2.883795e-01 1.985234e-01 6.966527e-02 1.205279e-01 1.669941e-01 3.841870e-02 4.347828e-02
<VARIANCE> 39
 2.703400e+00 3.066349e+01 1.785006e+01 6.230915e+01 1.415602e+01 5.875350e+01 1.601053e+01 1.909539e+01 2.343403e+01 1.232297e+01 1.254977e+01 1.749644e+01 2.035227e+01 2.395752e-01 2.034978e-01 5.740303e-01 9.742645e-01 5.699557e-01 9.800623e-01 2.413321e+00 7.644042e-01 1.411942e+00 1.263217e+00 1.385753e+00 1.167203e+00 2.003360e-01 9.359064e-02 6.587360e-02 1.579299e-01 2.144906e-01 2.337230e-01 3.440444e-01 4.028256e-01 1.683391e-01 3.257727e-01 2.744976e-01 1.956551e-01 2.109328e-01 4.620704e-02
<GCONST> 8.314304e+01
<TRANSP> 5
 0.000000e+00 1.000000e+00 0.000000e+00 0.000000e+00 0.000000e+00
 0.000000e+00 7.391594e-01 2.608406e-01 0.000000e+00 0.000000e+00
 0.000000e+00 0.000000e+00 7.433518e-01 2.566482e-01 0.000000e+00
 0.000000e+00 0.000000e+00 0.000000e+00 8.213869e-01 1.786130e-01
 0.000000e+00 0.000000e+00 0.000000e+00 0.000000e+00 0.000000e+00
<ENDHMM>
~h "fr"
<BEGINHMM>
<NUMSTATES> 5
<STATE> 2
<MEAN> 39
 -4.704510e+00 -1.103709e+00 -2.616500e-01 -5.726226e+00 -3.931308e+00 -3.382174e+00 -3.784538e+00 -5.278155e-01 -8.719915e-01 -8.440589e-01 -9.029119e-01 -2.999709e+00 5.348138e+01 3.453658e-03 -1.211672e-03 2.478141e-03 -2.587918e-03 1.180722e-03 -1.437788e-03 7.582301e-05 -8.767679e-04 -1.277914e-03 -1.967736e-03 -1.859193e-03 -1.121002e-03 1.006024e-02 -8.298113e-05 7.079283e-05 9.746225e-05 4.793386e-04 5.620109e-05 1.483774e-04 4.900038e-05 2.586535e-04 3.670288e-04 6.784983e-05 -9.429256e-05 1.335610e-04 -1.105432e-03
<VARIANCE> 39
