~o
<STREAMINFO> 1 39
<VECSIZE> 39<NULLD><MFCC_D_A_0><DIAGC>
~s "silst"
<MEAN> 39
 -1.137613e+01 -8.437711e-01 -3.279708e+00 -5.151880e-01 -7.103600e-02 5.939186e-01 -3.946371e-01 1.114800e+00 6.765641e-01 -4.882468e-01 4.631582e-01 3.708048e-01 4.094383e+01 -8.450561e-02 -1.840224e-01 4.397007e-03 -2.485667e-01 1.353802e-01 -1.590328e-01 -1.802351e-02 -4.918082e-02 -7.177156e-02 -8.803354e-03 -3.815389e-02 -2.592788e-02 4.751511e-01 -2.869158e-02 7.990197e-02 1.295577e-01 1.076493e-01 -6.597947e-02 -3.988838e-02 3.473118e-02 2.388042e-02 -5.640768e-03 8.591261e-02 -5.956114e-03 -7.129961e-03 -1.032110e-01
<VARIANCE> 39
 3.045861e+01 2.938606e+01 2.938920e+01 3.703805e+01 3.178960e+01 3.925762e+01 2.461139e+01 2.812052e+01 2.224755e+01 2.196683e+01 1.775214e+01 1.435077e+01 9.893912e+01 2.017694e+00 1.764231e+00 1.963678e+00 2.265001e+00 1.902859e+00 2.255161e+00 1.863542e+00 1.813338e+00 1.586964e+00 1.891200e+00 1.288995e+00 1.101394e+00 3.614215e+00 2.819038e-01 2.678177e-01 3.295904e-01 3.832126e-01 3.277343e-01 4.167514e-01 3.478151e-01 3.282983e-01 2.954104e-01 3.534315e-01 2.410469e-01 2.038911e-01 4.389817e-01
<GCONST> 1.087238e+02
~h "a"
<BEGINHMM>
<NUMSTATES> 5
<STATE> 2
<MEAN> 39
 -1.138620e+00 -8.942266e+00 -4.508495e+00 -1.103179e+01 -3.259375e+00 -3.971035e+00 -4.212612e+00 3.865710e+00 1.434435e+00 -1.526661e+00 -3.294751e+00 -6.918497e+00 6.293702e+01 2.523592e-01 -1.472471e+00 -4.242857e-01 -6.461634e-01 4.658677e-01 5.193285e-01 2.332479e-01 9.031385e-01 6.777742e-02 -5.038474e-01 -4.858052e-01 -5.320361e-01 1.107942e+00 -2.439810e-01 4.907268e-01 3.038771e-01 4.604626e-01 6.410845e-02 -4.146988e-02 -2.069755e-02 -4.237168e-01 -1.731537e-01 2.142691e-03 1.491375e-01 3.197238e-01 -5.880761e-01
<VARIANCE> 39
 1.818704e+01 4.331618e+01 5.355162e+01 5.364400e+01 6.319093e+01 5.892468e+01 5.158981e+01 5.592614e+01 5.352767e+01 4.490263e+01 3.952942e+01 3.754226e+01 3.809513e+01 1.301042e+00 2.221339e+00 2.134068e+00 2.839837e+00 3.121230e+00 2.879264e+00 2.888813e+00 3.207629e+00 2.532820e+00 2.621994e+00 2.321383e+00 2.158702e+00 1.582062e+00 2.657326e-01 3.795455e-01 3.197168e-01 4.474933e-01 5.524815e-01 4.752818e-01 4.837604e-01 6.054338e-01 4.800373e-01 4.542910e-01 4.348694e-01 3.891045e-01 2.767600e-01
<GCONST> 1.210876e+02
<STATE> 3
<MEAN> 39
 -2.170708e+00 -1.120344e+01 -3.808646e+00 -1.117572e+01 -1.584153e+00 -3.142310e+00 -2.664550e+00 3.468755e+00 -9.446099e-01 -3.332800e+00 -3.704431e+00 -5.505485e+00 6.375796e+01 7.837208e-02 1.578441e-01 1.285047e-01 2.598172e-01 5.241229e-02 -4.097013e-02 -3.536517e-02 -1.030876e-01 2.194414e-02 -1.409516e-02 7.868746e-03 1.287804e-01 -3.335022e-01 1.404221e-02 3.830371e-01 1.525397e-01 1.762924e-01 -1.215501e-01 -1.125106e-01 -1.140780e-01 -2.033138e-01 3.483320e-02 1.396214e-01 1.003596e-01 1.025279e-01 -3.124222e-01
<VARIANCE> 39
 1.740346e+01 4.075771e+01 4.767147e+01 5.162373e+01 6.226606e+01 4.309161e+01 4.505794e+01 4.743278e+01 4.546232e+01 4.362114e+01 2.877770e+01 2.922606e+01 3.455883e+01 3.096629e-01 7.927810e-01 8.549489e-01 1.036346e+00 1.508055e+00 1.502896e+00 1.420691e+00 1.482050e+00 1.258098e+00 1.284829e+00 1.125791e+00 1.027554e+00 4.457468e-01 7.510767e-02 1.699125e-01 1.432198e-01 2.162745e-01 2.376053e-01 2.204113e-01 2.682279e-01 3.365316e-01 2.586422e-01 2.501946e-01 2.237500e-01 1.949638e-01 1.118489e-01
<GCONST> 9.808592e+01
<STATE> 4
<MEAN> 39
 -7.276521e-01 -7.199039e+00 -2.863107e+00 -8.832627e+00 -3.596779e+00 -4.428118e+00 -4.459889e+00 3.207499e+00 1.069619e+00 -1.584559e+00 -2.883616e+00 -5.557646e+00 5.988815e+01 5.902759e-02 1.417951e+00 6.303326e-01 1.046507e+00 3.100655e-03 4.069651e-03 -3.119486e-01 -8.369243e-01 -6.581082e-02 2.385292e-01 1.513046e-01 3.755757e-01 -1.585848e+00 -1.398798e-01 1.580106e-01 3.577023e-02 1.467174e-01 7.564571e-02 1.489155e-01 7.929845e-02 -1.641007e-01 -1.117474e-01 -6.918512e-02 -1.520231e-03 1.577845e-02 -1.899266e-01
<VARIANCE> 39
 1.414433e+01 3.744878e+01 5.222974e+01 4.727744e+01 6.139454e+01 5.647784e+01 4.756369e+01 4.802207e+01 4.639522e+01 4.458212e+01 3.532610e+01 3.411280e+01 3.936766e+01 7.067112e-01 1.093774e+00 1.418823e+00 1.586037e+00 1.989908e+00 1.992864e+00 2.076050e+00 2.695236e+00 2.164654e+00 1.833257e+00 1.719135e+00 1.340763e+00 8.514357e-01 1.234662e-01 2.194462e-01 2.329524e-01 2.803272e-01 3.660538e-01 3.763851e-01 3.539781e-01 4.586214e-01 3.452095e-01 3.399491e-01 3.153692e-01 2.565888e-01 1.585061e-01
<GCONST> 1.091175e+02
<TRANSP> 5
 0.000000e+00 1.000000e+00 0.000000e+00 0.000000e+00 0.000000e+00
 0.000000e+00 4.976009e-01 5.023991e-01 0.000000e+00 0.000000e+00
 0.000000e+00 0.000000e+00 7.116160e-01 2.883840e-01 0.000000e+00
 0.000000e+00 0.000000e+00 0.000000e+00 5.029349e-01 4.970652e-01
 0.000000e+00 0.000000e+00 0.000000e+00 0.000000e+00 0.000000e+00
<ENDHMM>
~h "b"
<BEGINHMM>
<NUMSTATES> 5
<STATE> 2
<MEAN> 39
 2.103545e-01 5.169428e+00 3.366616e+00 -1.887783e+00 -2.399010e+00 -1.432122e+00 -4.605659e+00 -3.553005e+00 -2.991556e+00 -1.449285e+00 -1.720292e+00 -3.815330e+00 5.049131e+01 7.848532e-02 7.547557e-01 1.631823e-01 5.513413e-01 4.216824e-01 3.666053e-01 4.573618e-01 -1.212282e-01 -1.707601e-01 -2.878941e-01 -2.763993e-01 4.306595e-02 -6.149601e-01 -6.803341e-02 -3.857965e-01 -1.573465e-01 -3.881636e-01 -2.731282e-01 -2.845422e-01 -2.587132e-01 6.869319e-02 8.104341e-02 1.301903e-01 2.273896e-01 -3.027044e-02 4.952072e-01
<VARIANCE> 39
 1.793970e+01 3.230807e+01 3.162424e+01 3.546090e+01 3.233804e+01 2.621982e+01 2.799080e+01 2.313347e+01 2.744068e+01 2.341751e+01 2.088296e+01 1.701810e+01 3.002576e+01 6.384148e-01 9.888684e-01 1.178083e+00 1.570490e+00 1.343818e+00 1.384110e+00 1.629329e+00 1.588247e+00 1.552557e+00 1.534086e+00 1.430354e+00 9.560441e-01 8.782622e-01 1.276161e-01 2.067294e-01 2.602345e-01 3.446213e-01 2.817630e-01 3.322958e-01 3.592880e-01 4.006347e-01 3.742551e-01 3.649097e-01 3.426280e-01 2.259679e-01 1.295130e-01
<GCONST> 9.984959e+01
<STATE> 3
<MEAN> 39
 2.439057e-01 6.267665e+00 2.748011e+00 -1.289326e+00 -2.212705e+00 -7.450982e-01 -4.301964e+00 -4.174681e+00 -3.913165e+00 -1.934492e+00 -1.832782e+00 -3.384216e+00 4.893960e+01 2.664628e-01 -9.294176e-01 -7.481520e-01 -1.153260e+00 -3.480095e-01 -8.487794e-01 -9.462268e-01 -1.364343e-01 1.679388e-01 6.847998e-01 8.236735e-01 -2.753238e-01 1.689407e+00 -1.300252e-01 -7.005122e-01 -2.155139e-01 -6.936594e-01 -3.614922e-01 -3.630033e-01 -3.508962e-01 2.538110e-01 3.066066e-01 4.016579e-01 1.804882e-01 -1.644088e-01 7.265247e-01
<VARIANCE> 39
 3.580929e+01 3.800626e+01 3.491989e+01 3.952882e+01 3.599363e+01 3.213928e+01 3.211866e+01 3.044293e+01 3.088114e+01 3.095705e+01 2.747712e+01 2.120958e+01 5.023079e+01 2.394920e+00 3.046247e+00 3.184525e+00 4.214001e+00 2.743544e+00 3.446642e+00 3.113147e+00 3.239534e+00 3.539408e+00 3.233438e+00 3.273576e+00 2.251312e+00 2.024925e+00 3.150570e-01 4.736268e-01 4.740182e-01 5.292745e-01 4.769318e-01 4.901860e-01 5.263641e-01 6.647712e-01 6.526225e-01 5.405845e-01 5.510291e-01 4.161655e-01 2.707765e-01
<GCONST> 1.218818e+02
<STATE> 4
<MEAN> 39
 9.297283e-01 2.566697e-01 -5.063317e-01 -7.964868e+00 -3.781303e+00 -3.942361e+00 -8.640458e+00 -3.760918e+00 -1.755815e+00 2.538706e+00 1.886658e+00 -5.784947e+00 5.727564e+01 -3.705367e-01 -2.196293e+00 -8.083686e-01 -2.090928e+00 -9.942288e-01 -1.091397e+00 -8.763289e-01 1.290619e+00 1.154456e+00 1.083289e+00 3.016198e-01 -8.226240e-01 2.456071e+00 -1.737401e-01 9.977558e-02 3.944228e-01 2.421196e-01 -4.064706e-02 1.255878e-01 4.110680e-01 2.845519e-01 -4.706410e-02 -3.834154e-01 -4.674843e-01 1.342229e-01 -2.304420e-01
<VARIANCE> 39
 1.853126e+01 3.483726e+01 2.931000e+01 6.697333e+01 3.634396e+01 4.654322e+01 4.053226e+01 4.121170e+01 5.206435e+01 4.855639e+01 4.541480e+01 3.363561e+01 3.499991e+01 1.773037e+00 3.582566e+00 4.111144e+00 5.164450e+00 3.476430e+00 4.026466e+00 4.540099e+00 5.357936e+00 5.823052e+00 4.942832e+00 4.880142e+00 3.912236e+00 2.257272e+00 2.064403e-01 4.452151e-01 3.026031e-01 8.390802e-01 5.087445e-01 5.673047e-01 6.084481e-01 5.776316e-01 5.729778e-01 6.864021e-01 6.405491e-01 4.766094e-01 3.291168e-01
<GCONST> 1.278866e+02
<TRANSP> 5
 0.000000e+00 1.000000e+00 0.000000e+00 0.000000e+00 0.000000e+00
 0.000000e+00 6.550446e-01 3.449553e-01 0.000000e+00 0.000000e+00
 0.000000e+00 0.000000e+00 4.716967e-01 5.283033e-01 0.000000e+00
 0.000000e+00 0.000000e+00 0.000000e+00 3.666633e-01 6.333367e-01
 0.000000e+00 0.000000e+00 0.000000e+00 0.000000e+00 0.000000e+00
<ENDHMM>
~h "c"
<BEGINHMM>
<NUMSTATES> 5
<STATE> 2
<MEAN> 39
 -6.938572e+00 4.115584e+00 1.842016e+00 -2.258474e+00 -4.398160e+00 -6.113488e+00 -2.616876e+00 -1.274284e+00 -5.608780e-01 -1.651637e+00 -1.253373e+00 -1.742125e+00 4.928548e+01 -2.096969e+00 2.466468e-01 -8.032160e-01 -2.440970e-01 5.984683e-01 1.220367e-01 3.480223e-01 -2.788925e-01 1.952581e-01 -1.646157e-01 2.415214e-01 7.420142e-02 -2.044913e-01 -3.757856e-01 -6.892174e-02 -7.371168e-02 -3.367758e-01 -1.191575e-01 -1.914187e-01 2.785233e-02 2.660271e-02 4.039291e-02 -6.266010e-02 1.222641e-01 3.727567e-02 7.441234e-01
<VARIANCE> 39
 2.487460e+01 3.320524e+01 3.319816e+01 3.422969e+01 3.599098e+01 4.315870e+01 2.534867e+01 2.954032e+01 2.792822e+01 2.535393e+01 1.925310e+01 1.989395e+01 3.748811e+01 2.930098e+00 2.408679e+00 2.585205e+00 2.802288e+00 2.196929e+00 2.485189e+00 2.147130e+00 2.102785e+00 2.036871e+00 1.916054e+00 1.670627e+00 1.306385e+00 3.914042e+00 4.779067e-01 3.639914e-01 4.249758e-01 3.879539e-01 3.767173e-01 4.901349e-01 3.722412e-01 4.521286e-01 4.260392e-01 3.270803e-01 3.126312e-01 2.515628e-01 3.877093e-01
<GCONST> 1.136926e+02
<STATE> 3
<MEAN> 39
 -1.877694e+01 5.029732e+00 -1.950595e-01 -5.700828e+00 -2.505339e+00 -7.275222e+00 -4.838867e-01 -2.169325e+00 1.934890e-01 -2.452857e+00 7.756437e-01 -1.244524e+00 5.562015e+01 1.883537e-01 -5.330336e-01 1.494710e-01 -4.649404e-01 -1.033522e+00 -8.853968e-01 1.962951e-01 6.344048e-01 1.617926e-01 -3.088896e-01 1.416528e-01 1.709433e-01 1.773330e+00 1.852199e+00 -6.703779e-01 1.397865e-01 9.736717e-02 -4.880559e-01 -5.952917e-02 -3.184935e-01 3.828573e-01 -2.358323e-02 5.591769e-02 -3.361734e-01 -2.065700e-01 -7.752898e-02
<VARIANCE> 39
 2.129479e+01 1.856400e+01 3.670503e+01 2.976138e+01 3.331287e+01 3.585101e+01 3.507811e+01 2.573261e+01 3.163426e+01 3.273818e+01 1.920572e+01 2.111566e+01 2.461493e+01 1.089909e+01 2.811771e+00 2.902830e+00 2.918431e+00 3.397800e+00 2.609849e+00 2.689170e+00 3.050189e+00 2.552409e+00 2.233783e+00 2.153126e+00 1.771454e+00 2.127565e+00 5.044937e-01 6.433389e-01 7.033513e-01 6.473246e-01 6.603892e-01 5.441093e-01 4.947619e-01 6.048300e-01 5.148148e-01 5.458233e-01 4.023561e-01 3.891823e-01 3.634400e-01
<GCONST> 1.200978e+02
<STATE> 4
<MEAN> 39
 -6.259013e+00 -1.389023e-01 2.037917e-01 -6.104537e+00 -8.403593e+00 -1.112093e+01 -1.201290e+00 2.467967e+00 8.528501e-01 -3.439822e+00 -1.748032e+00 -1.935645e+00 6.040998e+01 3.864175e+00 -2.773971e+00 -8.277092e-01 -8.802640e-01 -8.377154e-01 7.291705e-02 -5.382218e-01 1.727204e+00 3.309973e-01 -1.462797e-02 -9.767612e-01 -9.631509e-01 1.734191e+00 -4.739130e-01 -1.281699e-01 -3.522575e-01 -1.473708e-01 7.680978e-01 6.439702e-01 -6.628373e-02 -2.097991e-01 -7.436971e-02 1.292235e-01 1.325831e-02 -2.223470e-01 -2.528739e-01
<VARIANCE> 39
 2.792417e+01 3.055937e+01 4.389430e+01 2.741204e+01 3.878796e+01 2.707342e+01 4.315462e+01 3.504399e+01 2.474010e+01 2.817951e+01 1.627094e+01 1.257532e+01 3.891979e+01 2.535888e+00 3.615494e+00 3.298502e+00 3.124923e+00 4.495230e+00 3.051610e+00 2.966211e+00 4.493481e+00 2.401089e+00 3.582347e+00 1.995608e+00 1.941693e+00 1.456725e+00 7.275049e-01 4.487041e-01 4.075821e-01 3.866286e-01 4.579083e-01 3.920454e-01 3.298476e-01 5.085271e-01 3.918267e-01 4.615775e-01 4.210270e-01 3.044652e-01 2.814446e-01
<GCONST> 1.174644e+02
<TRANSP> 5
 0.000000e+00 1.000000e+00 0.000000e+00 0.000000e+00 0.000000e+00
 0.000000e+00 7.529472e-01 2.470528e-01 0.000000e+00 0.000000e+00
 0.000000e+00 0.000000e+00 6.938131e-01 3.061869e-01 0.000000e+00
 0.000000e+00 0.000000e+00 0.000000e+00 5.431144e-01 4.568857e-01
 0.000000e+00 0.000000e+00 0.000000e+00 0.000000e+00 0.000000e+00
<ENDHMM>
~h "d"
<BEGINHMM>
<NUMSTATES> 5
<STATE> 2
<MEAN> 39
 -6.106410e+00 9.389189e-01 1.944400e+00 -4.628710e-01 -2.619244e+00 -2.748148e+00 -1.959670e+00 1.423267e-01 -5.596668e-01 -1.628136e+00 -1.054885e+00 -1.555779e+00 4.567977e+01 3.071051e-03 5.373603e-01 1.828251e-01 4.135512e-01 3.266406e-01 1.687296e-01 1.517076e-01 -5.083027e-02 -6.850908e-02 -1.107225e-01 -1.917823e-01 -4.186202e-02 -5.190524e-01 -5.496636e-02 -1.899287e-01 1.811665e-02 -2.143355e-01 -1.606945e-01 -1.557669e-01 -5.234068e-02 6.345872e-02 -2.072597e-02 2.039773e-03 1.088086e-01 3.090703e-02 3.208127e-01
<VARIANCE> 39
 5.375648e+01 4.466885e+01 4.152542e+01 3.867774e+01 5.400146e+01 4.515363e+01 4.491764e+01 3.708174e+01 3.078306e+01 2.904472e+01 2.641608e+01 2.318616e+01 8.228548e+01 7.522380e-01 1.393374e+00 1.128578e+00 1.477224e+00 1.669365e+00 1.734025e+00 1.663261e+00 1.904622e+00 1.604085e+00 1.537657e+00 1.445947e+00 1.105031e+00 9.767259e-01 1.595594e-01 2.895508e-01 2.178364e-01 3.112875e-01 3.400112e-01 3.609136e-01 3.311451e-01 4.073337e-01 3.250003e-01 3.243811e-01 3.103032e-01 2.241600e-01 2.048855e-01
<GCONST> 1.074374e+02
<STATE> 3
<MEAN> 39
 3.713112e-01 4.692927e+00 5.333090e+00 8.118915e-02 -4.441265e+00 -4.796778e+00 -4.856922e+00 -9.917126e-01 -1.033245e+00 -3.360826e+00 -3.916483e+00 -3.383347e+00 5.073671e+01 -2.032891e-01 -8.498058e-01 5.698280e-01 -7.261695e-01 -6.716843e-01 -1.136600e+00 -3.791600e-01 3.625197e-01 -3.295162e-02 -1.879812e-01 5.403146e-01 4.386168e-01 1.504776e+00 -2.658405e-01 -7.763451e-01 -1.082612e-01 -7.926073e-01 -6.449546e-01 -4.371066e-01 -2.072477e-01 2.628520e-01 1.341184e-01 2.155038e-01 4.339082e-01 1.000919e-01 8.767240e-01
<VARIANCE> 39
 2.168017e+01 5.117778e+01 3.240512e+01 3.661764e+01 4.517779e+01 3.060276e+01 3.183857e+01 3.139137e+01 2.757793e+01 2.784070e+01 2.533439e+01 1.925109e+01 4.104170e+01 2.705915e+00 4.505852e+00 2.559114e+00 3.336939e+00 4.203828e+00 3.585244e+00 3.216514e+00 4.555711e+00 2.774893e+00 2.741293e+00 2.703048e+00 2.007182e+00 2.633827e+00 3.280792e-01 5.719608e-01 4.472353e-01 5.059186e-01 6.469688e-01 5.441113e-01 5.800841e-01 8.016922e-01 5.313905e-01 4.886574e-01 4.709634e-01 3.781044e-01 2.716745e-01
<GCONST> 1.218402e+02
<STATE> 4
<MEAN> 39
 -1.630166e+00 -3.006983e+00 5.876001e+00 -5.930692e+00 -9.582221e+00 -1.129126e+01 -7.098172e+00 2.783779e+00 5.352540e-01 -2.852750e+00 1.864613e-01 -1.037248e+00 6.002817e+01 -5.350693e-01 -1.604272e+00 -4.947459e-01 -2.086938e+00 -1.640325e+00 -1.065389e+00 -9.432248e-02 1.418345e+00 5.482628e-01 5.811058e-01 8.329089e-01 -2.816715e-01 2.348426e+00 1.182854e-01 3.610061e-01 -2.758978e-01 5.095433e-02 3.426886e-01 6.536427e-01 2.593273e-01 -1.454971e-01 -8.285756e-02 8.125833e-02 -3.411129e-01 -4.460291e-01 -3.751918e-01
<VARIANCE> 39
 1.717812e+01 3.622626e+01 3.386806e+01 4.511224e+01 5.217074e+01 3.939045e+01 5.444874e+01 6.189537e+01 4.606695e+01 3.568468e+01 2.481548e+01 2.287708e+01 3.312346e+01 1.567008e+00 3.656780e+00 3.959198e+00 3.282099e+00 4.033256e+00 3.552224e+00 4.516466e+00 6.107857e+00 3.859583e+00 2.996864e+00 3.447164e+00 2.593768e+00 1.982981e+00 1.477856e-01 4.277955e-01 3.496542e-01 6.213551e-01 8.283123e-01 6.025256e-01 6.422781e-01 7.037338e-01 4.801626e-01 5.142454e-01 4.486822e-01 3.581034e-01 2.951279e-01
<GCONST> 1.238285e+02
<TRANSP> 5
 0.000000e+00 1.000000e+00 0.000000e+00 0.000000e+00 0.000000e+00
 0.000000e+00 7.121144e-01 2.878856e-01 0.000000e+00 0.000000e+00
 0.000000e+00 0.000000e+00 5.459422e-01 4.540578e-01 0.000000e+00
 0.000000e+00 0.000000e+00 0.000000e+00 4.744977e-01 5.255023e-01
 0.000000e+00 0.000000e+00 0.000000e+00 0.000000e+00 0.000000e+00
<ENDHMM>
~h "e"
<BEGINHMM>
<NUMSTATES> 5
<STATE> 2
<MEAN> 39
 -1.631952e+00 -1.898500e+00 -1.375874e+00 -8.444451e+00 -5.398416e+00 -6.570414e+00 -6.588007e+00 -5.397934e-01 5.203744e-01 4.547086e-01 -4.366914e-01 -3.942809e+00 5.899270e+01 1.407968e+00 -8.700753e-01 8.553407e-02 -1.307418e+00 -8.834931e-01 -2.511153e-01 -8.514926e-01 6.855653e-01 3.608069e-01 3.862490e-01 7.064613e-03 -5.181208e-01 1.618863e+00 -3.174802e-01 2.534010e-01 1.979963e-01 4.197133e-01 1.976364e-01 2.819783e-01 2.345264e-01 -1.268069e-01 -1.550322e-01 -1.331100e-01 -4.419513e-02 9.014405e-02 -6.069946e-01
<VARIANCE> 39
 3.423429e+01 4.284924e+01 5.265210e+01 6.046987e+01 6.226017e+01 7.150504e+01 4.881495e+01 5.346085e+01 5.124686e+01 4.786261e+01 3.923958e+01 2.606113e+01 4.971087e+01 3.887098e+00 3.316768e+00 3.335186e+00 4.210831e+00 4.544187e+00 4.461605e+00 4.691337e+00 4.790047e+00 4.528523e+00 3.571186e+00 3.215665e+00 2.429648e+00 2.036914e+00 4.891391e-01 5.027341e-01 5.430479e-01 6.866762e-01 6.134616e-01 6.493279e-01 6.651374e-01 6.669459e-01 6.390228e-01 5.763937e-01 5.264577e-01 3.838970e-01 4.628229e-01
<GCONST> 1.313237e+02
<STATE> 3
<MEAN> 39
 -7.985438e-01 -3.660126e+00 -1.339752e+00 -9.931189e+00 -6.073668e+00 -6.876129e+00 -7.330687e+00 1.165135e+00 1.145172e+00 8.249716e-01 -3.813394e-01 -4.560717e+00 6.108365e+01 4.959378e-01 -8.610817e-02 4.406129e-01 -2.762447e-03 -2.988698e-01 1.030867e-01 -1.372137e-01 1.629336e-01 -7.939079e-02 2.924409e-02 -5.730935e-02 -7.756695e-02 3.550981e-02 -4.434888e-01 5.303570e-01 2.078435e-01 7.238715e-01 3.457101e-01 2.534230e-01 3.677496e-01 -4.107633e-01 -2.396376e-01 -2.295249e-01 -5.085940e-02 2.091159e-01 -8.522292e-01
<VARIANCE> 39
 2.653090e+01 4.351905e+01 5.640488e+01 6.224076e+01 6.705331e+01 7.112264e+01 5.393099e+01 5.834348e+01 5.949583e+01 5.587221e+01 4.457373e+01 3.056425e+01 3.607748e+01 1.332701e+00 1.706807e+00 1.718537e+00 2.771376e+00 2.627788e+00 2.885874e+00 2.522332e+00 2.795282e+00 2.480240e+00 2.247967e+00 2.039018e+00 1.569373e+00 1.071420e+00 4.823463e-01 4.614492e-01 5.346498e-01 6.210566e-01 6.877253e-01 6.689380e-01 7.328377e-01 7.715202e-01 7.187181e-01 6.419328e-01 5.827408e-01 3.978806e-01 2.775278e-01
<GCONST> 1.241715e+02
<STATE> 4
<MEAN> 39
 -1.442376e+00 -3.474298e+00 1.156621e+00 -9.068432e+00 -7.770701e+00 -7.274848e+00 -5.330065e+00 6.219329e-01 -9.805765e-01 -1.204356e-01 -2.604876e-01 -3.767082e+00 6.003747e+01 3.205344e-02 6.668336e-01 3.768950e-01 8.688208e-01 3.333231e-01 3.186748e-01 1.460357e-01 -3.679265e-01 -1.554586e-01 -1.856958e-01 -1.831011e-01 1.329793e-01 -1.027504e+00 -2.088509e-01 2.321748e-01 2.007567e-03 2.977127e-01 1.686921e-01 1.066274e-01 1.138009e-01 -1.740474e-01 -1.929275e-02 -7.003963e-02 -3.536914e-02 5.911109e-02 -3.596928e-01
<VARIANCE> 39
 2.233621e+01 4.181524e+01 5.925615e+01 6.095711e+01 8.620055e+01 6.186569e+01 5.155246e+01 5.074086e+01 5.027537e+01 4.792781e+01 4.946634e+01 2.534898e+01 3.528024e+01 8.385357e-01 1.490185e+00 1.525199e+00 2.053818e+00 1.906799e+00 2.006677e+00 2.132817e+00 2.396767e+00 2.061447e+00 1.794281e+00 1.689781e+00 1.202151e+00 1.248381e+00 2.392097e-01 2.458449e-01 2.921589e-01 3.859206e-01 4.245455e-01 4.258661e-01 4.415843e-01 4.650889e-01 4.114911e-01 3.682862e-01 3.571235e-01 2.506719e-01 1.465675e-01
<GCONST> 1.136912e+02
<TRANSP> 5
 0.000000e+00 1.000000e+00 0.000000e+00 0.000000e+00 0.000000e+00
 0.000000e+00 2.410446e-01 7.589554e-01 0.000000e+00 0.000000e+00
 0.000000e+00 0.000000e+00 1.495790e-01 8.504210e-01 0.000000e+00
 0.000000e+00 0.000000e+00 0.000000e+00 4.885724e-01 5.114276e-01
 0.000000e+00 0.000000e+00 0.000000e+00 0.000000e+00 0.000000e+00
<ENDHMM>
~h "f"
<BEGINHMM>
<NUMSTATES> 5
<STATE> 2
<MEAN> 39
 -7.060510e+00 1.409790e+00 3.385735e-01 -1.371796e+00 -3.241778e+00 -3.684344e+00 -4.429175e+00 -1.982610e+00 -5.929602e-01 -1.468967e+00 -2.618452e-01 -2.822928e+00 5.299120e+01 -2.329635e+00 -3.956988e-02 -1.198483e+00 1.346875e+00 4.668154e-01 -5.772179e-01 1.788241e-01 7.737657e-02 3.883940e-01 2.189377e-01 7.224084e-02 4.192501e-01 -5.683232e-01 3.044095e-02 -2.290918e-01 2.758398e-02 -2.611293e-01 -3.484801e-01 -1.591615e-01 -7.835156e-02 -5.360080e-02 -4.808372e-02 4.226169e-02 1.114391e-02 -9.487352e-02 1.677671e-01
<VARIANCE> 39
 2.594908e+01 2.444498e+01 5.680354e+01 4.016235e+01 5.869552e+01 6.532989e+01 4.080006e+01 2.928523e+01 3.039556e+01 2.408473e+01 2.454700e+01 2.012119e+01 2.506320e+01 1.223222e+00 1.980434e+00 2.949646e+00 2.171472e+00 4.511168e+00 2.724324e+00 2.901433e+00 2.571502e+00 2.044365e+00 2.306295e+00 1.372716e+00 1.463546e+00 7.313703e-01 3.484904e-01 2.430925e-01 3.421372e-01 3.546928e-01 4.727193e-01 4.016279e-01 3.019677e-01 3.702174e-01 3.537448e-01 3.558244e-01 1.962364e-01 2.854832e-01 1.023200e-01
<GCONST> 1.107512e+02
<STATE> 3
<MEAN> 39
 -1.208418e+01 -1.668176e+00 -3.575564e+00 1.116245e+00 -2.226866e+00 -1.779646e+00 -2.009072e+00 7.120409e-01 7.257254e-02 -1.060552e+00 5.046567e-01 -1.461890e+00 4.470096e+01 -4.061824e-01 -1.254324e-01 -9.317818e-02 1.337311e-01 -4.145565e-02 -7.042234e-02 1.119410e-01 1.682177e-02 1.446915e-02 1.049992e-01 6.479595e-02 1.204143e-01 -2.470185e-01 3.078740e-01 -1.315424e-02 1.190971e-01 -1.812917e-01 -3.702362e-02 9.907481e-02 6.264735e-03 -3.195797e-02 -1.041827e-01 -2.791007e-02 -1.919134e-02 -3.847378e-02 4.748303e-02
<VARIANCE> 39
 1.621547e+01 2.373559e+01 2.778340e+01 3.792303e+01 2.881586e+01 3.526878e+01 3.658601e+01 3.884719e+01 2.278631e+01 2.271192e+01 1.956818e+01 1.381082e+01 8.928639e+01 7.268068e-01 7.996331e-01 1.046636e+00 1.117645e+00 1.134745e+00 1.324585e+00 1.551917e+00 1.493629e+00 1.359823e+00 1.155620e+00 9.737310e-01 8.792742e-01 5.993637e-01 2.560892e-01 1.795584e-01 2.572545e-01 2.656740e-01 2.853678e-01 2.976566e-01 3.504720e-01 3.404805e-01 3.086917e-01 2.557183e-01 2.006159e-01 1.776721e-01 1.060879e-01
<GCONST> 9.728969e+01
<STATE> 4
<MEAN> 39
 -1.238314e+01 -9.094579e-01 -1.769458e+00 4.232152e-01 -3.633455e+00 -4.393336e+00 -3.211033e+00 -2.383415e+00 2.026587e-02 -2.163386e-01 -4.809581e-01 -2.136560e+00 5.146800e+01 1.891351e+00 1.415986e-01 6.183482e-01 -1.467048e+00 -8.701423e-01 2.935223e-01 3.902223e-03 -6.426085e-01 -9.799475e-01 -9.413347e-02 7.528220e-02 -3.078299e-01 6.373214e-01 8.442777e-01 2.641823e-01 3.856624e-01 -8.600577e-01 -4.460854e-01 1.567492e-01 -1.549560e-01 -1.525308e-01 -3.432761e-01 2.307472e-02 1.353225e-01 -2.365446e-01 4.841194e-01
<VARIANCE> 39
 2.092284e+01 1.820171e+01 4.530709e+01 3.550421e+01 4.377196e+01 3.922123e+01 4.254486e+01 2.670832e+01 2.513326e+01 1.828206e+01 1.876021e+01 1.801383e+01 3.422706e+01 3.319650e+00 3.159557e+00 5.266357e+00 5.098356e+00 3.297533e+00 3.778742e+00 2.452110e+00 2.871328e+00 2.863804e+00 1.639246e+00 1.981438e+00 1.905788e+00 3.118290e+00 3.890853e-01 5.085471e-01 7.182411e-01 8.050695e-01 6.329864e-01 5.320352e-01 5.431045e-01 5.370591e-01 4.825796e-01 2.902073e-01 3.243745e-01 4.080696e-01 2.591900e-01
<GCONST> 1.192731e+02
<TRANSP> 5
 0.000000e+00 1.000000e+00 0.000000e+00 0.000000e+00 0.000000e+00
 0.000000e+00 6.228505e-01 3.771496e-01 0.000000e+00 0.000000e+00
 0.000000e+00 0.000000e+00 8.064902e-01 1.935098e-01 0.000000e+00
 0.000000e+00 0.000000e+00 0.000000e+00 5.982246e-01 4.017754e-01
 0.000000e+00 0.000000e+00 0.000000e+00 0.000000e+00 0.000000e+00
<ENDHMM>
~h "g"
<BEGINHMM>
<NUMSTATES> 5
<STATE> 2
<MEAN> 39
 -7.665705e-02 4.607936e+00 3.647353e+00 -2.539904e+00 -5.328579e+00 -4.696487e+00 -5.753123e+00 -2.519228e+00 -2.456826e+00 -8.139807e-01 -2.628818e+00 -3.291509e+00 5.121717e+01 -1.535933e-01 8.313980e-01 2.700190e-01 7.651552e-01 4.119349e-01 6.056836e-01 3.779062e-01 -1.632071e-01 -1.556611e-02 -3.138108e-01 -3.472410e-01 2.090157e-02 -1.061186e+00 -1.803632e-01 -3.670186e-01 -1.188448e-01 -3.438506e-01 -1.266676e-02 -2.184885e-01 -9.135139e-02 1.695791e-01 1.675792e-02 8.992010e-02 9.992940e-02 1.025781e-02 4.758540e-01
<VARIANCE> 39
 1.231913e+01 3.640204e+01 2.872775e+01 3.811356e+01 4.527669e+01 3.456981e+01 3.561613e+01 2.774028e+01 2.112737e+01 2.856071e+01 2.841576e+01 2.560574e+01 2.755526e+01 5.417081e-01 8.324580e-01 1.131182e+00 1.620736e+00 1.773548e+00 1.733113e+00 1.876446e+00 1.901273e+00 1.855280e+00 1.797146e+00 1.688830e+00 1.394507e+00 8.249788e-01 1.396294e-01 1.912445e-01 2.946877e-01 3.055960e-01 5.090107e-01 4.493798e-01 4.152157e-01 4.375595e-01 4.115448e-01 3.666234e-01 3.402245e-01 2.929666e-01 1.493109e-01
<GCONST> 1.041046e+02
<STATE> 3
<MEAN> 39
 -9.330371e-01 5.998440e+00 3.479196e+00 -1.240814e+00 -4.726020e+00 -3.834777e+00 -5.464986e+00 -2.573549e+00 -2.405551e+00 -1.106024e+00 -3.255240e+00 -3.306018e+00 4.915747e+01 -8.496354e-01 -8.399549e-01 -1.760937e-01 -4.647766e-01 7.274680e-01 -9.250361e-01 -1.031926e-01 2.536665e-01 -3.873420e-01 2.599431e-01 6.793896e-02 2.546437e-01 1.169295e+00 -9.609680e-02 -4.466998e-01 2.849511e-02 -6.216447e-01 -3.220388e-01 -4.668300e-01 -2.468012e-01 3.697507e-02 -5.408503e-02 1.687665e-01 2.226667e-01 8.827988e-02 7.736987e-01
<VARIANCE> 39
 2.139289e+01 3.910860e+01 3.673243e+01 4.369410e+01 4.705121e+01 3.783696e+01 3.723977e+01 3.046979e+01 2.430580e+01 3.033442e+01 2.591359e+01 2.093717e+01 3.837980e+01 1.961236e+00 3.253071e+00 3.507261e+00 3.541275e+00 5.560172e+00 4.175126e+00 3.758514e+00 3.745152e+00 2.823909e+00 2.773177e+00 2.603634e+00 1.895465e+00 1.560695e+00 2.813807e-01 4.140562e-01 4.375012e-01 4.855333e-01 7.999548e-01 5.169749e-01 5.056170e-01 6.664850e-01 4.584138e-01 4.855000e-01 4.927886e-01 3.264011e-01 2.149279e-01
<GCONST> 1.205773e+02
<STATE> 4
<MEAN> 39
 -3.096277e+00 7.025484e-01 2.880770e+00 -5.190808e+00 -4.606035e+00 -1.036094e+01 -7.321633e+00 -6.798197e-01 -3.451987e+00 1.081550e+00 -2.017467e+00 -2.345399e+00 5.704411e+01 -1.145368e-01 -9.921130e-01 2.163230e-01 -1.807294e+00 -1.674154e+00 -1.040644e+00 -2.464434e-01 8.596457e-01 1.862432e-01 3.638632e-01 6.194760e-01 -6.639431e-02 1.919640e+00 2.980637e-01 3.857160e-02 5.904176e-03 -1.291466e-01 -3.487782e-01 4.937546e-01 1.749757e-01 3.795778e-02 2.173715e-01 -2.281516e-01 2.306393e-02 -2.504500e-01 -1.659473e-01
<VARIANCE> 39
 2.397647e+01 3.252531e+01 5.518334e+01 5.439995e+01 6.995395e+01 5.272631e+01 5.314921e+01 3.824780e+01 3.495039e+01 4.176955e+01 5.117448e+01 3.285238e+01 3.396203e+01 1.617187e+00 2.935212e+00 3.318369e+00 3.590759e+00 5.424121e+00 3.869549e+00 3.392735e+00 4.299978e+00 3.892271e+00 3.332183e+00 3.379203e+00 2.478572e+00 1.316858e+00 2.307451e-01 4.932970e-01 5.011819e-01 6.626584e-01 1.369986e+00 7.176356e-01 7.503886e-01 5.909770e-01 5.393597e-01 6.330853e-01 5.277164e-01 4.152526e-01 2.214222e-01
<GCONST> 1.269290e+02
<TRANSP> 5
 0.000000e+00 1.000000e+00 0.000000e+00 0.000000e+00 0.000000e+00
 0.000000e+00 6.358191e-01 3.641809e-01 0.000000e+00 0.000000e+00
 0.000000e+00 0.000000e+00 4.961804e-01 5.038197e-01 0.000000e+00
 0.000000e+00 0.000000e+00 0.000000e+00 5.543728e-01 4.456272e-01
 0.000000e+00 0.000000e+00 0.000000e+00 0.000000e+00 0.000000e+00
<ENDHMM>
~h "h"
<BEGINHMM>
<NUMSTATES> 5
<STATE> 2
<MEAN> 39
 -3.575547e+00 -3.799440e+00 -1.635371e+00 -7.368320e+00 -2.143845e+00 -2.014957e+00 -2.492745e+00 -1.433336e+00 -1.773992e+00 -3.091903e+00 -3.280142e+00 -3.785921e+00 5.826357e+01 -4.771960e-01 9.662731e-02 -1.159025e-02 9.574719e-01 8.909996e-01 3.981068e-01 6.074156e-01 6.749035e-02 1.034186e-01 -1.811580e-01 3.960278e-03 2.448502e-01 -6.803350e-01 -7.997690e-03 -8.256093e-02 -3.718098e-02 -1.165938e-01 -1.204320e-01 -6.879253e-02 -9.310664e-02 4.179550e-02 4.055336e-02 8.832274e-02 7.000111e-02 -4.236387e-02 1.739352e-02
<VARIANCE> 39
 1.864023e+01 4.698305e+01 5.699514e+01 4.891505e+01 7.189378e+01 5.237770e+01 5.109782e+01 5.813120e+01 6.105771e+01 5.271153e+01 3.469638e+01 2.564617e+01 3.502321e+01 1.072888e+00 1.931250e+00 2.165553e+00 1.872836e+00 2.486585e+00 2.220490e+00 2.473661e+00 2.746671e+00 2.200183e+00 2.051721e+00 1.835611e+00 1.371880e+00 1.043853e+00 1.126077e-01 1.802884e-01 2.002057e-01 2.681473e-01 3.362324e-01 3.535024e-01 3.831325e-01 3.720355e-01 3.529227e-01 3.348600e-01 2.703154e-01 2.270415e-01 9.165257e-02
<GCONST> 1.110505e+02
<STATE> 3
<MEAN> 39
 -5.151895e+00 -4.372739e+00 -1.362974e+00 -4.929027e+00 1.097849e+00 -1.044960e+00 -8.772801e-01 1.419150e-01 8.389907e-01 -1.833022e+00 -2.187574e+00 -2.940123e+00 5.692968e+01 -1.096196e-01 1.555245e-02 -1.965557e-01 4.425837e-01 2.819150e-01 2.275016e-01 1.448656e-01 -8.528446e-02 -5.299738e-02 -7.443392e-02 -3.005269e-02 4.257878e-02 -4.276755e-01 2.432804e-01 1.198147e-02 -7.737716e-02 -3.102756e-01 -3.662320e-01 -1.091021e-01 -1.990905e-01 -6.944972e-02 -1.266740e-01 3.296799e-02 -5.563511e-03 -1.132243e-01 1.466835e-01
<VARIANCE> 39
 2.391539e+01 5.026556e+01 5.261266e+01 4.882275e+01 6.351548e+01 5.427395e+01 4.982244e+01 4.874574e+01 4.282263e+01 4.039319e+01 3.008528e+01 2.722273e+01 3.561707e+01 1.513700e+00 1.936406e+00 1.843340e+00 1.763978e+00 2.396264e+00 2.152910e+00 2.088579e+00 2.556201e+00 1.968830e+00 1.955024e+00 1.776699e+00 1.373938e+00 1.558382e+00 2.323395e-01 3.008579e-01 3.536815e-01 3.481711e-01 4.090983e-01 3.684591e-01 4.138257e-01 4.283178e-01 3.760663e-01 3.366256e-01 3.301004e-01 2.618047e-01 1.479218e-01
<GCONST> 1.137476e+02
<STATE> 4
<MEAN> 39
 -6.050970e+00 -5.366760e+00 -3.885662e+00 -3.167009e+00 -1.350234e-01 8.811083e-01 4.432179e-01 1.447002e-01 -8.632632e-01 -2.792752e+00 -2.051819e+00 -1.863520e+00 5.291469e+01 1.592400e-01 7.278157e-02 -1.423613e-01 -5.710256e-02 -2.534047e-01 -3.681712e-02 -9.160520e-02 2.818322e-02 -6.967223e-02 5.480974e-02 3.004349e-02 -3.467460e-03 -2.173617e-01 4.427435e-02 -3.091571e-02 7.107047e-03 -1.084626e-01 -9.613909e-02 -5.923402e-02 -6.272443e-02 2.330132e-02 -1.621039e-02 1.025245e-02 6.025777e-03 -2.989041e-02 9.597738e-02
<VARIANCE> 39
 2.857490e+01 4.149147e+01 3.935459e+01 4.435846e+01 4.884592e+01 3.785138e+01 3.980289e+01 3.720077e+01 3.328965e+01 3.288780e+01 2.322739e+01 2.355303e+01 7.811303e+01 9.317310e-01 1.146644e+00 1.116532e+00 1.442257e+00 1.562172e+00 1.338011e+00 1.504191e+00 1.630475e+00 1.352379e+00 1.396301e+00 1.205185e+00 1.088653e+00 1.094398e+00 9.665090e-02 1.736430e-01 1.728466e-01 2.201741e-01 2.331623e-01 2.432550e-01 2.609020e-01 2.883335e-01 2.414306e-01 2.592636e-01 2.264736e-01 1.914690e-01 9.265393e-02
<GCONST> 1.007771e+02
<TRANSP> 5
 0.000000e+00 1.000000e+00 0.000000e+00 0.000000e+00 0.000000e+00
 0.000000e+00 2.819203e-01 7.180797e-01 0.000000e+00 0.000000e+00
 0.000000e+00 0.000000e+00 3.423940e-01 6.576061e-01 0.000000e+00
 0.000000e+00 0.000000e+00 0.000000e+00 7.212797e-01 2.787203e-01
 0.000000e+00 0.000000e+00 0.000000e+00 0.000000e+00 0.000000e+00
<ENDHMM>
~h "i"
<BEGINHMM>
<NUMSTATES> 5
<STATE> 2
<MEAN> 39
 -5.485357e+00 3.537336e+00 1.097890e+01 -7.577546e+00 -1.181975e+01 -8.699695e+00 -5.335711e+00 -6.537152e+00 -4.229685e+00 -1.149542e-01 -4.850827e-01 -3.145041e+00 5.747047e+01 2.216517e-01 3.230741e-01 2.224733e+00 -1.647693e+00 -1.913388e+00 -2.129893e-01 -8.082955e-01 -7.573459e-01 -6.805539e-01 4.740429e-01 2.970540e-01 -2.742281e-01 1.218603e+00 -5.412984e-02 -4.758975e-02 -5.144450e-01 1.140338e-01 3.821521e-01 2.781239e-01 9.180224e-02 2.849466e-01 2.264539e-01 -3.418294e-02 -4.799713e-02 7.107901e-03 -2.803241e-01
<VARIANCE> 39
 2.976436e+01 4.729285e+01 4.656192e+01 7.315310e+01 5.629386e+01 4.561881e+01 4.462362e+01 5.570783e+01 3.366831e+01 4.311079e+01 4.692421e+01 3.155214e+01 3.844826e+01 3.900520e+00 2.574370e+00 3.591553e+00 4.438665e+00 4.394177e+00 3.514128e+00 4.803676e+00 4.044564e+00 3.166077e+00 3.271661e+00 3.822868e+00 2.629332e+00 1.467979e+00 4.271841e-01 3.896268e-01 5.697079e-01 7.161452e-01 7.121724e-01 5.405231e-01 6.812803e-01 6.489283e-01 4.644860e-01 5.023839e-01 5.006074e-01 3.481225e-01 2.959322e-01
<GCONST> 1.278877e+02
<STATE> 3
<MEAN> 39
 -4.610890e+00 1.591765e+00 1.405571e+01 -7.685616e+00 -1.510790e+01 -7.239546e+00 -5.243408e+00 -4.080155e+00 -6.447322e+00 -5.105475e-01 3.544027e+00 -6.032681e+00 5.950368e+01 1.297450e-01 1.334234e-01 -2.416472e-01 7.455003e-02 1.925334e-01 4.372784e-02 2.004711e-02 1.743027e-01 1.939429e-01 3.386710e-02 -1.062540e-01 1.250858e-01 -2.287305e-01 -7.683443e-04 5.552033e-02 -6.717038e-01 4.227382e-01 7.313295e-01 5.000965e-02 1.711825e-01 1.199282e-01 3.254204e-01 -1.058755e-01 -2.967944e-01 2.038796e-01 -4.506887e-01
<VARIANCE> 39
 1.544821e+01 4.070749e+01 3.525973e+01 6.637388e+01 4.693433e+01 4.739946e+01 3.587151e+01 6.433973e+01 4.498266e+01 4.393269e+01 5.023150e+01 3.882722e+01 2.304980e+01 8.215462e-01 1.500383e+00 2.047338e+00 2.200494e+00 2.503747e+00 2.085450e+00 2.056447e+00 2.719886e+00 1.921694e+00 1.674247e+00 1.768257e+00 1.471283e+00 9.849273e-01 2.542242e-01 2.706273e-01 3.410043e-01 4.660676e-01 4.900712e-01 4.606219e-01 4.804337e-01 5.670221e-01 4.150680e-01 4.236764e-01 4.375073e-01 3.361535e-01 1.650068e-01
<GCONST> 1.140699e+02
<STATE> 4
<MEAN> 39
 -6.516357e+00 5.835641e+00 1.177200e+01 -1.113378e+01 -9.523775e+00 -5.929155e+00 -6.262322e+00 -7.811189e+00 -2.963294e+00 6.470039e-01 -2.458182e+00 -1.757629e+00 5.487444e+01 7.434888e-02 -2.827456e-02 -6.594020e-01 6.185065e-01 5.453134e-01 1.505808e-01 2.369814e-01 2.569973e-01 1.884925e-01 -1.242282e-01 -1.073345e-01 1.213893e-01 -7.553260e-01 -2.556161e-02 -6.352396e-02 -1.116835e-01 1.132910e-01 4.106901e-02 2.391012e-02 5.227459e-02 4.694033e-02 -2.211857e-02 -3.300408e-02 2.557443e-02 -3.361997e-02 -4.044629e-02
<VARIANCE> 39
 2.192336e+01 4.277557e+01 5.024333e+01 1.028213e+02 5.580188e+01 5.376484e+01 5.022512e+01 5.063251e+01 3.100501e+01 4.621459e+01 4.222772e+01 2.991429e+01 6.033672e+01 7.968084e-01 1.213329e+00 1.436030e+00 2.012344e+00 2.080204e+00 1.770272e+00 1.890175e+00 2.083783e+00 1.573891e+00 1.593027e+00 1.570054e+00 1.190083e+00 1.009351e+00 1.083560e-01 1.501213e-01 2.032045e-01 3.155546e-01 3.103721e-01 3.109589e-01 3.237931e-01 3.250147e-01 2.584669e-01 2.785079e-01 2.519233e-01 1.968139e-01 9.952589e-02
<GCONST> 1.072845e+02
<TRANSP> 5
 0.000000e+00 1.000000e+00 0.000000e+00 0.000000e+00 0.000000e+00
 0.000000e+00 5.282243e-01 4.717757e-01 0.000000e+00 0.000000e+00
 0.000000e+00 0.000000e+00 6.059216e-01 3.940784e-01 0.000000e+00
 0.000000e+00 0.000000e+00 0.000000e+00 7.757406e-01 2.242594e-01
 0.000000e+00 0.000000e+00 0.000000e+00 0.000000e+00 0.000000e+00
<ENDHMM>
~h "j"
<BEGINHMM>
<NUMSTATES> 5
<STATE> 2
<MEAN> 39
 -2.535826e+00 6.092453e+00 5.262894e+00 -1.095307e+00 -4.378726e+00 -4.708742e+00 -3.403602e+00 -1.090305e+00 -2.305915e+00 -2.772752e+00 -1.919599e+00 -2.525626e+00 4.998297e+01 -1.271549e+00 8.442506e-01 1.963433e-01 1.642902e-02 8.939123e-01 2.007190e-01 4.437610e-01 -2.049195e-01 2.229763e-01 1.755903e-03 4.786400e-02 -9.980827e-02 2.835041e-02 -4.085925e-01 -2.094686e-01 1.541322e-01 -3.704802e-01 -3.067842e-01 -4.067128e-01 -8.025713e-02 -7.534838e-02 -6.647572e-02 3.757738e-02 2.620518e-01 9.015301e-02 5.845844e-01
<VARIANCE> 39
 2.159151e+01 4.338464e+01 2.828131e+01 3.601358e+01 4.073781e+01 3.043058e+01 2.741129e+01 2.345426e+01 2.500653e+01 2.123911e+01 2.079797e+01 1.489415e+01 3.678757e+01 3.499246e+00 2.092095e+00 1.801999e+00 2.579611e+00 3.214175e+00 2.764345e+00 1.973589e+00 2.125560e+00 1.823383e+00 1.927438e+00 1.917443e+00 1.379706e+00 2.243584e+00 4.469173e-01 3.054089e-01 3.209124e-01 3.988349e-01 5.303136e-01 4.558375e-01 3.868296e-01 4.325580e-01 3.937641e-01 4.228702e-01 3.119467e-01 2.268542e-01 2.222759e-01
<GCONST> 1.116337e+02
<STATE> 3
<MEAN> 39
 -1.142251e+01 7.966850e+00 7.594444e+00 -4.463639e+00 -2.887046e+00 -6.961828e+00 -2.715135e+00 -3.129241e+00 -2.668065e+00 -2.988791e+00 1.696498e-01 -2.593228e+00 5.552840e+01 -5.162946e-01 -5.577813e-01 1.212965e+00 -7.294930e-01 -2.108889e+00 -1.713565e+00 -5.476612e-01 -3.483051e-01 -5.692435e-01 3.207987e-02 9.056276e-01 4.193519e-01 1.713285e+00 1.228840e+00 -7.196283e-01 -1.426835e-01 -4.694550e-02 -7.499321e-01 -2.050870e-01 -4.312912e-01 3.138279e-01 -4.627296e-03 1.339599e-01 -7.894608e-02 1.660258e-02 -3.050272e-02
<VARIANCE> 39
 2.795106e+01 4.062017e+01 3.739686e+01 4.437659e+01 4.559305e+01 4.304829e+01 3.398830e+01 2.674102e+01 2.695712e+01 2.806565e+01 2.095956e+01 2.075821e+01 2.330613e+01 6.568194e+00 2.844694e+00 2.411302e+00 3.853727e+00 4.689440e+00 3.027377e+00 2.937323e+00 3.407112e+00 2.373049e+00 3.311465e+00 1.867355e+00 1.499495e+00 1.135030e+00 6.576808e-01 5.503533e-01 5.909734e-01 5.979362e-01 1.088864e+00 7.770116e-01 6.074004e-01 6.019576e-01 4.463900e-01 4.375281e-01 4.230126e-01 3.736405e-01 2.355314e-01
<GCONST> 1.215510e+02
<STATE> 4
<MEAN> 39
 -5.048033e+00 1.101851e+00 1.001342e+01 -7.639502e+00 -1.297163e+01 -1.301949e+01 -6.489528e+00 -1.184135e+00 -3.877375e+00 -9.756263e-01 1.656088e+00 -1.111576e+00 6.002349e+01 1.595268e+00 -2.053057e+00 -1.003048e+00 -8.430079e-01 -1.022094e+00 -5.203995e-01 -7.908780e-01 1.317148e+00 5.687497e-01 4.458951e-01 -2.015920e-01 -2.095438e-01 8.817293e-01 -7.252297e-02 1.638490e-01 -7.042086e-01 7.148194e-02 9.998600e-01 7.487919e-01 1.873161e-01 9.478583e-02 2.154609e-01 -3.724060e-02 -3.543361e-01 -2.687121e-01 -3.480775e-01
<VARIANCE> 39
 1.799268e+01 3.475123e+01 4.044745e+01 7.547459e+01 2.994800e+01 3.164628e+01 3.469776e+01 5.001581e+01 4.248765e+01 5.752157e+01 2.544535e+01 1.623193e+01 2.884923e+01 1.929520e+00 2.425069e+00 2.966057e+00 2.758573e+00 5.593462e+00 3.500424e+00 4.180846e+00 3.516471e+00 2.583526e+00 2.954030e+00 2.410537e+00 2.013010e+00 8.183437e-01 3.793893e-01 3.310325e-01 3.409105e-01 6.141012e-01 4.720035e-01 4.929429e-01 5.214264e-01 6.967244e-01 4.417286e-01 6.496515e-01 3.804402e-01 2.918872e-01 1.013841e-01
<GCONST> 1.185140e+02
<TRANSP> 5
 0.000000e+00 1.000000e+00 0.000000e+00 0.000000e+00 0.000000e+00
 0.000000e+00 7.093171e-01 2.906828e-01 0.000000e+00 0.000000e+00
 0.000000e+00 0.000000e+00 6.211371e-01 3.788629e-01 0.000000e+00
 0.000000e+00 0.000000e+00 0.000000e+00 6.236352e-01 3.763648e-01
 0.000000e+00 0.000000e+00 0.000000e+00 0.000000e+00 0.000000e+00
<ENDHMM>
~h "k"
<BEGINHMM>
<NUMSTATES> 5
<STATE> 2
<MEAN> 39
 -7.751620e+00 -1.742114e-01 -1.900475e+00 -1.946200e+00 -1.862760e+00 -5.874634e-01 -1.610408e+00 5.244480e-01 -7.107967e-01 -8.956102e-01 -9.504025e-02 -1.360245e+00 4.383942e+01 -4.002124e-01 8.809688e-02 -1.065600e-01 3.467688e-01 1.146143e-01 1.109674e-01 1.292304e-01 3.026911e-02 3.831532e-02 -1.408577e-02 1.414791e-02 1.633909e-01 -7.039484e-01 1.229739e-02 -9.876020e-02 -5.818464e-02 -9.907579e-02 1.491174e-02 -6.363123e-02 -2.549337e-02 1.240399e-02 -1.343359e-02 1.263533e-02 -1.200110e-02 -2.274422e-02 2.471964e-01
<VARIANCE> 39
 3.128256e+01 4.147639e+01 4.073811e+01 5.389474e+01 4.853222e+01 5.041866e+01 3.918134e+01 3.882750e+01 2.952095e+01 3.167876e+01 2.260093e+01 2.281592e+01 6.741598e+01 7.229156e-01 7.800270e-01 1.037822e+00 1.384453e+00 1.452973e+00 1.617253e+00 1.511836e+00 1.642939e+00 1.563778e+00 1.489139e+00 1.299096e+00 1.084521e+00 1.063727e+00 1.155175e-01 1.726990e-01 2.151695e-01 2.528363e-01 2.934688e-01 3.328901e-01 3.055141e-01 3.296998e-01 3.229120e-01 3.023517e-01 2.545032e-01 2.149249e-01 1.726360e-01
<GCONST> 1.033340e+02
<STATE> 3
<MEAN> 39
 -6.281206e+00 1.434995e+00 -1.092534e+00 -3.425668e+00 -2.926700e+00 -3.093227e+00 -3.924870e+00 -2.026178e+00 -1.484873e+00 -2.465834e-01 -1.089781e+00 -2.412086e+00 4.635675e+01 -7.739571e-01 -1.018511e+00 -1.161733e+00 -9.244151e-02 1.014514e+00 -6.858253e-01 2.908513e-02 2.484993e-01 2.091269e-01 1.908163e-01 -2.241555e-01 2.475716e-01 8.893747e-01 1.622328e-01 -3.752216e-01 -2.188148e-01 -3.984818e-01 7.173029e-02 -2.914474e-01 -4.893181e-02 9.875425e-02 9.116557e-02 1.391259e-01 -7.939874e-02 -1.192827e-01 1.024469e+00
<VARIANCE> 39
 2.396296e+01 3.636499e+01 5.254294e+01 5.135148e+01 5.149497e+01 4.876228e+01 3.070986e+01 3.427245e+01 2.845895e+01 2.810735e+01 2.413573e+01 2.237128e+01 4.916624e+01 2.133309e+00 3.249246e+00 4.084404e+00 3.456711e+00 4.287707e+00 4.368646e+00 3.304290e+00 3.194108e+00 2.891366e+00 2.605359e+00 2.394774e+00 1.744427e+00 3.749717e+00 3.657009e-01 4.492231e-01 5.747322e-01 5.252851e-01 7.289649e-01 6.508450e-01 5.483257e-01 5.440128e-01 5.326720e-01 4.713662e-01 4.195509e-01 3.456093e-01 3.609041e-01
<GCONST> 1.233559e+02
<STATE> 4
<MEAN> 39
 -7.827834e+00 -3.508383e+00 -6.063826e+00 -5.305813e+00 1.141684e+00 -6.195418e+00 -3.696954e+00 -5.131637e-01 4.643274e-01 1.062023e+00 -2.443760e+00 -2.439041e+00 5.404955e+01 9.844025e-01 -4.172010e-01 -7.740320e-02 -9.098479e-01 -6.026624e-01 -2.275855e-01 1.300219e-01 2.110315e-01 -8.678826e-02 3.392691e-02 -3.022799e-01 -6.687382e-01 2.127929e+00 5.599037e-01 1.771776e-01 5.042346e-01 -2.018119e-01 -6.591886e-01 3.379173e-01 -4.338022e-03 -3.942928e-02 -2.212929e-01 -1.954676e-01 9.803623e-02 -2.676369e-01 -1.442397e-02
<VARIANCE> 39
 3.203400e+01 3.649623e+01 5.767766e+01 4.462733e+01 5.402669e+01 5.879699e+01 4.968803e+01 3.662816e+01 4.493014e+01 3.936412e+01 3.300888e+01 2.516175e+01 4.259670e+01 4.076673e+00 4.111548e+00 4.897228e+00 4.670484e+00 6.182044e+00 4.930020e+00 4.021327e+00 4.401060e+00 4.062628e+00 3.677485e+00 3.046631e+00 2.835820e+00 3.819857e+00 5.301342e-01 7.009230e-01 7.003270e-01 7.743965e-01 9.603477e-01 8.628951e-01 7.834615e-01 6.279507e-01 6.773201e-01 6.523622e-01 5.863340e-01 4.672585e-01 5.584245e-01
<GCONST> 1.333632e+02
<TRANSP> 5
 0.000000e+00 1.000000e+00 0.000000e+00 0.000000e+00 0.000000e+00
 0.000000e+00 7.621978e-01 2.378022e-01 0.000000e+00 0.000000e+00
 0.000000e+00 0.000000e+00 5.160770e-01 4.839230e-01 0.000000e+00
 0.000000e+00 0.000000e+00 0.000000e+00 6.345900e-01 3.654099e-01
 0.000000e+00 0.000000e+00 0.000000e+00 0.000000e+00 0.000000e+00
<ENDHMM>
~h "l"
<BEGINHMM>
<NUMSTATES> 5
<STATE> 2
<MEAN> 39
 -9.624445e-02 -4.111035e+00 -9.565969e-01 -9.724166e+00 -5.797659e+00 -6.069098e+00 -9.393830e+00 -3.633964e+00 3.578617e+00 1.729789e+00 -2.111089e+00 -4.100337e+00 6.056604e+01 3.004784e-01 2.648779e-02 -5.997490e-02 -7.941000e-02 2.665779e-01 2.026402e-02 -7.259079e-01 -3.809555e-01 4.866138e-01 4.070137e-01 -7.665903e-02 -2.755881e-02 -2.002133e-01 -1.524464e-01 2.115021e-02 -2.911061e-02 -1.267330e-01 6.548263e-02 1.756815e-01 3.025545e-01 2.355613e-01 -2.865606e-01 -1.583898e-01 1.968225e-02 -8.682043e-02 3.696827e-02
<VARIANCE> 39
 1.531578e+01 4.773172e+01 6.808486e+01 6.423488e+01 4.301836e+01 6.801124e+01 4.905579e+01 6.124557e+01 5.939882e+01 5.406921e+01 3.314340e+01 3.433492e+01 3.353015e+01 4.029239e-01 1.197373e+00 2.005496e+00 2.131495e+00 2.274673e+00 2.412493e+00 2.530004e+00 3.006567e+00 2.520169e+00 2.213723e+00 2.010295e+00 1.643684e+00 5.556842e-01 8.083243e-02 1.989653e-01 2.602751e-01 4.281615e-01 3.626603e-01 4.384674e-01 4.720484e-01 5.557059e-01 4.100382e-01 4.423913e-01 3.904023e-01 2.854421e-01 8.635287e-02
<GCONST> 1.121983e+02
<STATE> 3
<MEAN> 39
 1.343722e+00 -2.486895e+00 -5.382506e+00 -1.041666e+01 -4.689982e+00 -2.478211e+00 -8.622484e+00 -2.613658e+00 2.708373e+00 1.050723e+00 -2.066571e+00 -5.415526e+00 5.856413e+01 -6.996444e-02 -1.071456e-01 -1.167652e-01 -1.321898e-01 1.739315e-01 1.637272e-01 1.692175e-01 3.314101e-01 -4.061752e-02 -1.360662e-01 -1.055761e-01 -9.796852e-02 2.043630e-02 -1.295852e-01 -1.048096e-01 -1.348016e-02 3.671386e-02 1.099606e-02 1.289073e-02 2.417091e-01 2.207515e-01 -1.167614e-01 -2.146076e-01 -5.086928e-02 1.332917e-02 8.367902e-02
<VARIANCE> 39
 1.033340e+01 3.971941e+01 8.768855e+01 5.459745e+01 4.212347e+01 5.637181e+01 4.653267e+01 6.777048e+01 4.698004e+01 6.190419e+01 3.721957e+01 2.657030e+01 2.427175e+01 2.247079e-01 9.390446e-01 1.003397e+00 1.591667e+00 1.184816e+00 1.610467e+00 1.436961e+00 1.828769e+00 1.406116e+00 1.388000e+00 1.261536e+00 1.164031e+00 4.869176e-01 5.277250e-02 1.405505e-01 1.705342e-01 2.561518e-01 2.618230e-01 2.740785e-01 3.477140e-01 3.764812e-01 3.215311e-01 3.163278e-01 2.798497e-01 2.104295e-01 5.912006e-02
<GCONST> 1.002678e+02
<STATE> 4
<MEAN> 39
 4.436656e-02 -4.197927e+00 -2.791667e+00 -9.900168e+00 -4.764963e+00 -4.076182e+00 -8.378879e+00 -1.816334e+00 3.212282e+00 5.293608e-01 -2.768432e+00 -4.983732e+00 5.989119e+01 -5.572694e-01 -4.410698e-01 -1.251618e-02 1.281326e-01 1.152725e-01 4.524248e-02 1.050691e+00 1.023489e+00 -5.821732e-01 -8.735605e-01 -1.779836e-01 -5.282374e-02 3.189288e-01 -1.161520e-01 5.482911e-02 9.923100e-02 1.149414e-02 -5.816107e-02 3.141046e-02 1.872244e-01 -5.112831e-03 -2.494998e-01 -5.629889e-02 1.320876e-01 3.848025e-02 -4.555032e-03
<VARIANCE> 39
 1.621145e+01 4.375996e+01 7.412872e+01 5.962211e+01 4.598826e+01 6.324247e+01 5.207010e+01 6.063191e+01 5.206553e+01 6.143730e+01 3.302655e+01 3.700087e+01 4.115956e+01 4.935765e-01 1.753292e+00 2.357438e+00 2.696935e+00 2.765349e+00 3.205553e+00 2.853935e+00 3.708270e+00 2.847595e+00 2.676726e+00 2.702519e+00 1.973863e+00 1.040979e+00 8.755613e-02 1.770912e-01 2.245385e-01 3.748495e-01 3.838207e-01 4.049316e-01 4.718941e-01 4.602098e-01 4.009323e-01 4.435220e-01 3.358777e-01 3.210402e-01 1.085229e-01
<GCONST> 1.153511e+02
<TRANSP> 5
 0.000000e+00 1.000000e+00 0.000000e+00 0.000000e+00 0.000000e+00
 0.000000e+00 3.546061e-01 6.453938e-01 0.000000e+00 0.000000e+00
 0.000000e+00 0.000000e+00 6.069637e-01 3.930363e-01 0.000000e+00
 0.000000e+00 0.000000e+00 0.000000e+00 2.766095e-01 7.233905e-01
 0.000000e+00 0.000000e+00 0.000000e+00 0.000000e+00 0.000000e+00
<ENDHMM>
~h "m"
<BEGINHMM>
<NUMSTATES> 5
<STATE> 2
<MEAN> 39
 2.388368e+00 -1.185543e-02 -1.093213e+00 -5.328232e+00 -3.766891e+00 1.451570e-01 -6.870083e+00 -5.559871e+00 -2.560583e+00 -1.115691e-02 5.364051e-01 -5.762405e+00 5.515199e+01 1.223038e-01 9.306003e-01 1.174735e+00 1.408981e+00 2.193702e-01 3.780199e-01 6.225502e-03 -1.517895e+00 -1.353231e+00 -1.172602e-01 -9.930162e-02 1.284938e-01 -9.866817e-01 -1.454471e-01 -2.121706e-01 -4.291559e-02 -1.851646e-01 -3.762380e-02 -8.353413e-02 9.920254e-02 2.188472e-01 1.023919e-01 -1.084189e-01 -1.260817e-01 -2.973182e-02 2.390981e-01
<VARIANCE> 39
 1.561354e+01 3.430866e+01 4.677918e+01 4.466843e+01 3.884032e+01 3.663208e+01 3.918417e+01 5.226585e+01 3.255383e+01 3.380173e+01 3.221685e+01 2.478693e+01 3.351078e+01 5.049590e-01 1.230412e+00 1.894017e+00 1.859963e+00 1.784029e+00 1.747791e+00 1.947612e+00 2.636003e+00 2.100929e+00 1.804617e+00 2.141514e+00 1.299757e+00 6.424839e-01 7.336998e-02 1.365767e-01 2.665306e-01 2.861948e-01 2.676100e-01 2.554255e-01 2.666419e-01 3.851418e-01 3.372196e-01 2.517945e-01 2.892237e-01 1.883411e-01 7.217514e-02
<GCONST> 1.030186e+02
<STATE> 3
<MEAN> 39
 1.212744e+00 1.117041e-01 2.100724e+00 -3.659150e+00 -2.356606e+00 1.343410e-01 -6.266784e+00 -5.266888e+00 -5.545288e+00 -1.811439e+00 -9.093193e-02 -4.702891e+00 5.410003e+01 7.000054e-02 1.622300e-01 1.453789e-01 9.306658e-02 -1.072818e-01 7.115024e-02 8.642233e-02 -1.208301e-01 -2.586916e-01 -1.145484e-01 -8.070642e-03 5.570511e-02 -1.624394e-01 -1.302190e-02 -1.513006e-01 -2.919803e-01 -3.962063e-01 -1.276520e-01 -9.438507e-02 2.962544e-02 3.185114e-01 3.072277e-01 8.507479e-02 8.212726e-02 1.552811e-02 2.123967e-01
<VARIANCE> 39
 1.535790e+01 4.138983e+01 3.349152e+01 4.571689e+01 4.454471e+01 3.043023e+01 4.475649e+01 7.298171e+01 3.349700e+01 3.983928e+01 3.040638e+01 2.102748e+01 3.047659e+01 2.366000e-01 5.211684e-01 8.284181e-01 1.012847e+00 1.126954e+00 1.087953e+00 1.054548e+00 1.344538e+00 1.316162e+00 1.107303e+00 1.187020e+00 8.501479e-01 2.977484e-01 6.615021e-02 1.333095e-01 2.068662e-01 2.507140e-01 2.413858e-01 2.431511e-01 2.782207e-01 3.610261e-01 3.246858e-01 2.583534e-01 2.868410e-01 1.924715e-01 6.523912e-02
<GCONST> 9.437318e+01
<STATE> 4
<MEAN> 39
 2.338496e+00 7.218915e-01 -2.449508e-01 -4.970808e+00 -4.519330e+00 2.697747e-01 -6.476968e+00 -6.537536e+00 -4.624483e+00 -7.967318e-01 7.533816e-01 -4.894495e+00 5.438235e+01 2.810973e-02 -7.041035e-01 -9.967641e-01 -1.261270e+00 -4.897361e-02 -5.989157e-02 -1.630147e-02 1.043382e+00 8.675657e-01 7.705021e-02 2.025519e-01 -7.535221e-02 8.329489e-01 -1.793686e-01 -2.730963e-01 -8.651157e-02 -2.430647e-01 1.165957e-01 -7.374130e-02 -1.335584e-02 3.592369e-01 2.863707e-01 -1.182969e-02 -1.104712e-01 -6.438585e-02 2.460302e-01
<VARIANCE> 39
 1.735255e+01 3.887457e+01 4.587881e+01 4.929297e+01 4.509510e+01 4.046461e+01 4.477254e+01 6.356794e+01 3.804240e+01 3.721845e+01 3.607873e+01 2.574336e+01 3.767241e+01 9.092230e-01 1.828007e+00 2.954465e+00 2.863175e+00 2.930245e+00 3.024407e+00 2.876210e+00 3.639725e+00 3.134712e+00 2.253546e+00 2.453830e+00 1.859809e+00 1.043855e+00 1.433751e-01 2.488069e-01 4.192711e-01 4.496381e-01 4.129251e-01 3.963093e-01 4.284069e-01 5.724890e-01 5.405100e-01 3.857706e-01 4.168735e-01 2.904608e-01 1.215567e-01
<GCONST> 1.157821e+02
<TRANSP> 5
 0.000000e+00 1.000000e+00 0.000000e+00 0.000000e+00 0.000000e+00
 0.000000e+00 4.423333e-01 5.576667e-01 0.000000e+00 0.000000e+00
 0.000000e+00 0.000000e+00 6.745738e-01 3.254262e-01 0.000000e+00
 0.000000e+00 0.000000e+00 0.000000e+00 5.034240e-01 4.965760e-01
 0.000000e+00 0.000000e+00 0.000000e+00 0.000000e+00 0.000000e+00
<ENDHMM>
~h "n"
<BEGINHMM>
<NUMSTATES> 5
<STATE> 2
<MEAN> 39
 1.088076e+00 -1.807427e+00 2.332212e+00 -3.968123e+00 -6.220593e+00 -5.862161e+00 -7.141479e+00 -7.125549e-01 -1.801700e-01 -9.965987e-01 -2.974716e+00 -4.197558e+00 5.656889e+01 4.608614e-01 1.563909e+00 7.609978e-01 1.317484e+00 -1.770477e-01 3.926294e-01 -3.912027e-01 -1.677145e+00 -1.254253e-01 8.312587e-02 -3.732600e-01 1.333776e-01 -1.497788e+00 -1.434913e-01 -1.167832e-01 -1.888274e-01 -3.094124e-01 4.682199e-02 1.734468e-01 1.912723e-01 9.045400e-02 -1.587968e-02 -5.682894e-02 8.291856e-02 -4.756786e-02 1.893127e-01
<VARIANCE> 39
 1.140909e+01 4.604103e+01 3.589544e+01 3.547127e+01 5.168218e+01 3.468397e+01 3.555274e+01 5.390340e+01 3.833122e+01 3.891276e+01 2.547186e+01 2.496237e+01 3.023034e+01 4.471525e-01 1.226999e+00 1.794474e+00 1.298008e+00 2.160975e+00 2.043312e+00 2.384689e+00 3.423702e+00 2.001762e+00 2.124606e+00 1.896439e+00 1.229027e+00 4.250110e-01 5.741453e-02 1.582258e-01 1.793042e-01 1.925518e-01 2.635036e-01 2.572561e-01 2.842728e-01 4.165062e-01 2.887780e-01 2.742639e-01 2.373375e-01 1.871094e-01 7.283111e-02
<GCONST> 1.014178e+02
<STATE> 3
<MEAN> 39
 3.363461e-01 -8.320290e-01 3.760913e+00 -3.285336e+00 -4.568664e+00 -4.134911e+00 -6.508379e+00 -1.625844e+00 -9.858061e-01 -2.598889e+00 -2.548902e+00 -3.038743e+00 5.372202e+01 1.737417e-02 6.143739e-01 8.738461e-02 3.514007e-01 5.913458e-02 2.450025e-01 8.258238e-02 -3.734924e-01 -1.147994e-01 -9.881862e-03 -3.025799e-02 1.088363e-01 -6.493208e-01 -1.378673e-01 -1.627793e-01 -9.570544e-02 -1.510175e-01 6.453282e-02 -3.545026e-02 8.962871e-02 2.128019e-01 -1.128204e-02 1.635614e-02 6.526791e-02 -1.462410e-02 1.360850e-01
<VARIANCE> 39
 1.410965e+01 4.935806e+01 3.245884e+01 3.605806e+01 5.491223e+01 3.124401e+01 3.183426e+01 4.399362e+01 3.207217e+01 3.628728e+01 2.566822e+01 2.211218e+01 3.046176e+01 2.720241e-01 5.557874e-01 6.808514e-01 7.517723e-01 1.000754e+00 1.053238e+00 1.083892e+00 1.298246e+00 1.108616e+00 1.066824e+00 1.067559e+00 7.988929e-01 2.520431e-01 6.248092e-02 1.253702e-01 1.576136e-01 1.800913e-01 2.267637e-01 2.187425e-01 2.382628e-01 3.174997e-01 2.356296e-01 2.272221e-01 2.345148e-01 1.596402e-01 6.219837e-02
<GCONST> 9.027698e+01
<STATE> 4
<MEAN> 39
 8.605787e-01 2.001811e+00 2.686787e+00 -1.669091e+00 -6.764426e+00 -4.177661e+00 -6.699850e+00 -4.234811e+00 -8.269812e-01 -6.839833e-01 -3.235623e+00 -3.600682e+00 5.220624e+01 -4.998025e-01 -9.160469e-02 -1.720829e-01 -1.702487e-01 5.066737e-01 2.882275e-02 3.070054e-01 4.559559e-01 -1.105715e-01 -8.920983e-02 1.939777e-01 9.527968e-02 -9.351190e-02 -2.869010e-01 -2.649951e-01 -8.773204e-02 -3.366919e-01 1.144725e-01 -4.510485e-02 1.205340e-01 2.964581e-01 -2.389050e-02 -6.997249e-02 1.525378e-01 6.067849e-03 3.157502e-01
<VARIANCE> 39
 1.551526e+01 4.330818e+01 3.688390e+01 3.903317e+01 5.497398e+01 3.377548e+01 3.886266e+01 5.568309e+01 3.943700e+01 4.608499e+01 3.193799e+01 2.503847e+01 3.811165e+01 8.072575e-01 1.837452e+00 1.633226e+00 1.948505e+00 2.351427e+00 2.077418e+00 2.084886e+00 3.034487e+00 2.089525e+00 1.923412e+00 1.904631e+00 1.307462e+00 1.350634e+00 2.066297e-01 3.382388e-01 3.723057e-01 3.865401e-01 5.259230e-01 4.057496e-01 4.294035e-01 5.984784e-01 4.106070e-01 4.007245e-01 3.901702e-01 2.548485e-01 1.888007e-01
<GCONST> 1.127999e+02
<TRANSP> 5
 0.000000e+00 1.000000e+00 0.000000e+00 0.000000e+00 0.000000e+00
 0.000000e+00 3.769754e-01 6.230246e-01 0.000000e+00 0.000000e+00
 0.000000e+00 0.000000e+00 7.301913e-01 2.698087e-01 0.000000e+00
 0.000000e+00 0.000000e+00 0.000000e+00 4.940413e-01 5.059587e-01
 0.000000e+00 0.000000e+00 0.000000e+00 0.000000e+00 0.000000e+00
<ENDHMM>
~h "o"
<BEGINHMM>
<NUMSTATES> 5
<STATE> 2
<MEAN> 39
 3.372443e-01 -1.305910e+00 -7.878946e+00 -1.425454e+01 -5.000486e+00 3.016676e+00 -4.330295e+00 -2.589117e+00 -1.487866e+00 4.365926e-01 1.543449e+00 -3.667854e+00 5.572670e+01 1.163380e+00 -6.136199e-01 -6.406110e-01 -2.022061e+00 -3.370966e-01 9.090996e-01 -2.587288e-01 -2.490731e-01 -2.115392e-01 2.040050e-01 4.521895e-01 -5.229250e-01 1.589397e+00 -2.925418e-01 -4.370894e-03 2.334568e-01 4.992471e-01 1.560751e-01 -1.673620e-01 -1.471455e-02 7.021760e-03 4.363584e-02 -8.446544e-02 -9.833634e-02 -1.452126e-03 -2.768204e-01
<VARIANCE> 39
 3.408325e+01 3.940160e+01 4.648862e+01 1.080601e+02 5.299596e+01 5.958755e+01 7.168896e+01 4.152428e+01 5.736415e+01 4.893815e+01 3.920362e+01 2.755403e+01 7.834791e+01 2.603098e+00 2.720568e+00 3.065222e+00 6.742203e+00 3.495351e+00 3.769752e+00 3.784436e+00 3.181389e+00 3.655281e+00 3.095424e+00 2.769358e+00 2.124037e+00 3.447056e+00 4.821387e-01 5.252148e-01 5.151045e-01 1.252441e+00 5.567677e-01 6.725978e-01 7.053081e-01 5.662610e-01 6.540613e-01 5.146941e-01 4.810166e-01 3.912915e-01 7.006405e-01
<GCONST> 1.314058e+02
<STATE> 3
<MEAN> 39
 1.406651e+00 -3.647772e+00 -6.861891e+00 -1.768988e+01 -3.597894e+00 2.336753e+00 -5.147481e+00 -1.753258e+00 -2.736196e+00 8.806966e-01 2.328366e+00 -4.908948e+00 6.047102e+01 6.658068e-03 -6.640259e-02 1.557106e-01 3.181594e-01 9.987676e-02 -1.547351e-01 -2.497572e-01 1.566135e-02 1.406185e-01 -5.346103e-02 -1.474825e-02 -9.130866e-02 -1.100965e-01 -1.293477e-01 1.895593e-01 2.130719e-01 5.793287e-01 6.523561e-02 -2.787766e-01 -5.224169e-02 -4.563648e-02 1.323481e-01 -1.124327e-01 -1.860627e-01 1.464268e-01 -3.209198e-01
<VARIANCE> 39
 1.434300e+01 3.404699e+01 4.576682e+01 6.267910e+01 5.890324e+01 3.850740e+01 5.144939e+01 4.318106e+01 5.099982e+01 4.991461e+01 5.084737e+01 2.469296e+01 2.363951e+01 3.081348e-01 9.404911e-01 8.824626e-01 2.468904e+00 1.307471e+00 1.837037e+00 1.823342e+00 1.567522e+00 2.005401e+00 1.516426e+00 1.440805e+00 1.218891e+00 5.628265e-01 1.173915e-01 1.815867e-01 1.970150e-01 3.662471e-01 3.065823e-01 2.955812e-01 2.952964e-01 3.215875e-01 3.576659e-01 3.112670e-01 3.178273e-01 2.512247e-01 1.426145e-01
<GCONST> 1.040671e+02
<STATE> 4
<MEAN> 39
 2.232915e+00 -2.549434e+00 -6.357243e+00 -1.178222e+01 -4.273003e+00 -1.422199e-01 -7.892949e+00 -3.278679e+00 -4.667343e-01 4.609278e-01 1.524071e+00 -4.173314e+00 5.710487e+01 -2.816853e-01 9.015988e-01 9.323273e-01 1.883858e+00 5.009660e-01 -5.110517e-01 -4.498712e-02 -1.145769e-01 2.215990e-01 -3.315621e-01 -7.436694e-01 3.395895e-01 -1.431326e+00 -1.811113e-01 1.712621e-01 8.018386e-02 3.100822e-02 4.331445e-02 1.551191e-01 2.651590e-01 -9.591820e-03 -1.373939e-01 -3.500869e-02 -4.190317e-02 2.400608e-03 -1.642321e-01
<VARIANCE> 39
 1.379544e+01 3.702004e+01 3.855331e+01 5.900513e+01 5.556134e+01 5.852725e+01 5.155815e+01 4.394879e+01 5.665592e+01 4.681673e+01 4.625047e+01 3.192873e+01 3.878696e+01 7.542273e-01 1.203715e+00 1.351761e+00 1.900998e+00 2.580143e+00 2.622631e+00 2.446267e+00 2.579252e+00 2.910825e+00 2.181735e+00 2.428078e+00 1.628928e+00 8.602895e-01 1.275551e-01 2.482823e-01 2.231051e-01 4.144595e-01 4.053804e-01 4.797369e-01 3.827800e-01 4.243321e-01 4.992857e-01 4.213063e-01 3.890093e-01 3.020240e-01 1.500073e-01
<GCONST> 1.130829e+02
<TRANSP> 5
 0.000000e+00 1.000000e+00 0.000000e+00 0.000000e+00 0.000000e+00
 0.000000e+00 6.051812e-01 3.948189e-01 0.000000e+00 0.000000e+00
 0.000000e+00 0.000000e+00 7.317957e-01 2.682043e-01 0.000000e+00
 0.000000e+00 0.000000e+00 0.000000e+00 5.740971e-01 4.259029e-01
 0.000000e+00 0.000000e+00 0.000000e+00 0.000000e+00 0.000000e+00
<ENDHMM>
~h "p"
<BEGINHMM>
<NUMSTATES> 5
<STATE> 2
<MEAN> 39
 -4.990653e+00 -2.951607e-01 -2.234197e+00 -4.414041e+00 -1.833164e+00 -8.541119e-01 -3.143450e+00 -9.861436e-01 -7.481631e-02 2.889639e-02 -5.732806e-01 -3.099100e+00 4.706806e+01 -6.539537e-01 1.431442e-01 -5.804318e-02 3.858623e-01 6.820886e-02 -4.354671e-02 2.213736e-01 -2.256678e-02 6.953248e-02 -5.368274e-02 -5.515809e-02 2.614464e-01 -8.864530e-01 6.039574e-02 -1.236324e-01 -4.123816e-02 -1.414912e-01 -6.263483e-02 -5.048681e-02 -3.193800e-02 2.332431e-02 -2.278449e-02 4.026453e-03 7.283928e-02 -4.098677e-02 3.761641e-01
<VARIANCE> 39
 2.164635e+01 3.030310e+01 3.570229e+01 4.180991e+01 3.441013e+01 3.359440e+01 2.445222e+01 2.804891e+01 2.511192e+01 2.335425e+01 1.974376e+01 2.062181e+01 4.074065e+01 5.856977e-01 5.654748e-01 8.433308e-01 1.045125e+00 1.070034e+00 1.286517e+00 1.338752e+00 1.529355e+00 1.319488e+00 1.281963e+00 1.251279e+00 9.638330e-01 8.773016e-01 1.064964e-01 1.404420e-01 1.889378e-01 2.453859e-01 2.322841e-01 2.622838e-01 2.910751e-01 3.146031e-01 2.928394e-01 2.787023e-01 2.632053e-01 1.981308e-01 1.623173e-01
<GCONST> 9.579234e+01
<STATE> 3
<MEAN> 39
 -5.992753e+00 1.045610e+00 -1.096510e+00 -3.347222e+00 -2.713612e+00 -1.930348e+00 -3.163847e+00 -1.550000e+00 -3.844788e-01 -4.206679e-01 -6.102674e-01 -2.290864e+00 4.659061e+01 1.075097e-01 -5.329964e-01 -6.945896e-01 -6.761236e-01 -5.266691e-02 -2.665060e-01 1.061900e-01 -8.120044e-02 1.465906e-02 1.422865e-01 2.903736e-01 -1.613944e-01 1.617809e+00 6.460463e-01 -3.858936e-01 -2.109056e-01 -7.120248e-01 -1.699443e-01 5.932362e-02 -2.724914e-01 1.021693e-02 -3.228085e-02 2.528277e-01 5.123198e-02 -3.584498e-01 1.083896e+00
<VARIANCE> 39
 2.360383e+01 3.542984e+01 3.833613e+01 4.243985e+01 3.668058e+01 3.660381e+01 2.541631e+01 2.880103e+01 2.467473e+01 2.394366e+01 2.026887e+01 1.966953e+01 4.026598e+01 2.775221e+00 2.359015e+00 2.982323e+00 3.383640e+00 2.735422e+00 3.388412e+00 2.687256e+00 2.900823e+00 2.572808e+00 2.402312e+00 2.216203e+00 1.649006e+00 2.947190e+00 3.270263e-01 4.454159e-01 5.535678e-01 5.361167e-01 5.396124e-01 6.123247e-01 4.895107e-01 5.372745e-01 4.785779e-01 4.567908e-01 4.150898e-01 3.214082e-01 3.266138e-01
<GCONST> 1.180951e+02
<STATE> 4
<MEAN> 39
 -3.044454e+00 -2.470161e+00 -4.518131e+00 -8.467320e+00 -2.868311e+00 -1.742046e+00 -3.634860e+00 -2.363208e+00 -5.615304e-01 1.018774e+00 4.639076e-01 -4.743143e+00 5.532908e+01 1.643485e+00 -1.679390e+00 -9.842725e-01 -2.307772e+00 -3.730711e-01 4.395886e-01 -6.558918e-01 3.372966e-01 -1.513553e-02 7.759447e-01 1.619610e-01 -1.279453e+00 3.510028e+00 7.512737e-02 -1.124080e-01 3.634903e-01 6.541295e-02 -5.448702e-02 -2.649641e-02 -1.443703e-01 2.464446e-01 3.727189e-02 -8.685458e-02 -2.440944e-01 -1.177046e-02 -1.410856e-01
<VARIANCE> 39
 2.929713e+01 3.287071e+01 3.056687e+01 5.164360e+01 2.411320e+01 4.963230e+01 3.303448e+01 2.882236e+01 2.894447e+01 2.907246e+01 2.396681e+01 2.402830e+01 4.645881e+01 3.141275e+00 4.479781e+00 5.592229e+00 5.683384e+00 4.234307e+00 5.255489e+00 4.060436e+00 5.548038e+00 4.503409e+00 3.809058e+00 3.693094e+00 3.160405e+00 3.256718e+00 5.211117e-01 5.604824e-01 5.165133e-01 9.156852e-01 6.659153e-01 7.770770e-01 5.207855e-01 5.500327e-01 5.214794e-01 5.135039e-01 4.844382e-01 4.378202e-01 5.727594e-01
<GCONST> 1.282737e+02
<TRANSP> 5
 0.000000e+00 1.000000e+00 0.000000e+00 0.000000e+00 0.000000e+00
 0.000000e+00 7.895361e-01 2.104639e-01 0.000000e+00 0.000000e+00
 0.000000e+00 0.000000e+00 5.443537e-01 4.556463e-01 0.000000e+00
 0.000000e+00 0.000000e+00 0.000000e+00 3.962531e-01 6.037469e-01
 0.000000e+00 0.000000e+00 0.000000e+00 0.000000e+00 0.000000e+00
<ENDHMM>
~h "r"
<BEGINHMM>
<NUMSTATES> 5
<STATE> 2
<MEAN> 39
 -7.649853e-01 -4.401593e+00 -1.140632e+00 -5.345335e+00 -5.974628e+00 -7.039198e+00 -5.465114e+00 1.807705e+00 2.696578e+00 1.322917e-04 -1.603686e+00 -3.650066e+00 5.766365e+01 -5.839300e-01 4.996523e-01 5.518676e-01 9.922576e-01 4.319653e-01 -4.707744e-02 9.312166e-02 -1.638295e-01 -2.030326e-03 -3.110887e-01 1.989457e-01 4.494980e-01 -1.091508e+00 -9.776857e-02 -5.872256e-02 2.106390e-02 -3.188981e-01 1.788222e-02 1.248813e-01 8.345744e-02 -8.703735e-02 -2.835920e-01 -1.672713e-02 9.595514e-02 -2.466370e-02 2.354656e-01
<VARIANCE> 39
 1.801816e+01 3.520082e+01 3.906283e+01 4.400974e+01 6.534012e+01 5.105351e+01 4.615232e+01 4.035103e+01 3.802903e+01 3.626124e+01 2.881690e+01 2.247102e+01 3.387438e+01 1.426854e+00 2.066066e+00 2.121352e+00 2.320410e+00 3.105055e+00 2.812956e+00 2.566849e+00 2.612416e+00 2.377609e+00 2.234873e+00 2.077902e+00 1.714269e+00 9.418371e-01 1.739686e-01 2.211164e-01 2.551670e-01 3.355409e-01 4.078608e-01 3.836732e-01 3.538128e-01 4.230111e-01 3.436265e-01 3.225344e-01 3.468415e-01 2.556106e-01 1.536941e-01
<GCONST> 1.121066e+02
<STATE> 3
<MEAN> 39
 -3.444105e+00 -3.362340e+00 -1.809237e-01 -4.324472e+00 -3.756319e+00 -5.967911e+00 -4.311838e+00 1.347191e+00 2.015538e+00 -1.284756e+00 -7.929539e-01 -2.604998e+00 5.570819e+01 -1.674952e-01 7.946218e-02 4.974570e-01 1.516269e-01 -8.342405e-02 -2.723425e-02 1.160407e-01 -1.092553e-01 -4.791391e-01 -1.760949e-01 2.571409e-01 2.322654e-01 -9.273428e-02 2.903752e-01 -1.645623e-01 -7.058845e-02 -4.291940e-01 -3.371454e-01 4.237392e-02 -8.577970e-02 9.386349e-03 -1.890839e-01 1.688774e-01 -2.346617e-04 -1.958848e-01 4.689564e-01
<VARIANCE> 39
 2.394336e+01 3.255198e+01 3.424908e+01 3.954213e+01 4.932907e+01 4.489693e+01 3.912176e+01 3.361287e+01 3.475552e+01 3.042019e+01 2.501784e+01 2.183183e+01 4.057095e+01 1.463123e+00 1.627403e+00 1.974878e+00 1.813750e+00 2.580720e+00 2.328110e+00 2.064430e+00 2.463322e+00 2.050411e+00 1.861588e+00 1.801976e+00 1.429455e+00 9.918802e-01 3.472529e-01 4.355387e-01 4.053908e-01 5.113800e-01 6.066384e-01 5.317803e-01 4.729558e-01 5.438802e-01 4.159594e-01 4.456946e-01 4.561935e-01 3.432692e-01 2.182836e-01
<GCONST> 1.142283e+02
<STATE> 4
<MEAN> 39
 -1.398589e+00 -3.094284e+00 8.392853e-01 -4.907506e+00 -6.726524e+00 -7.743032e+00 -5.199557e+00 6.181756e-02 9.907647e-01 2.359218e-01 -1.228320e+00 -2.736955e+00 5.843222e+01 2.180222e-01 1.531257e-01 2.522797e-01 -2.410782e-01 -4.078086e-01 1.374991e-01 -1.020473e-01 -1.832431e-01 -4.538159e-01 1.308880e-01 8.632032e-02 -1.229601e-01 1.064471e-01 -7.215627e-02 6.589629e-02 -7.549515e-02 -1.591935e-01 6.971443e-02 1.733034e-01 3.257291e-03 -1.016696e-02 3.149446e-03 3.706345e-03 -6.105193e-02 -9.927178e-02 -1.499325e-02
<VARIANCE> 39
 2.587683e+01 4.491857e+01 5.205003e+01 4.294546e+01 5.677946e+01 4.911234e+01 4.668965e+01 4.687887e+01 4.047760e+01 3.579625e+01 3.194628e+01 2.385686e+01 3.604743e+01 2.034035e+00 2.568450e+00 2.675248e+00 2.382584e+00 3.482975e+00 2.557599e+00 2.526379e+00 3.090550e+00 2.207353e+00 2.217405e+00 2.337403e+00 1.643601e+00 2.064587e+00 2.787476e-01 3.667164e-01 3.399974e-01 4.397883e-01 5.425550e-01 4.760260e-01 4.423698e-01 4.815928e-01 3.838454e-01 3.927280e-01 3.732765e-01 3.071959e-01 2.727051e-01
<GCONST> 1.185400e+02
<TRANSP> 5
 0.000000e+00 1.000000e+00 0.000000e+00 0.000000e+00 0.000000e+00
 0.000000e+00 2.184320e-01 7.815680e-01 0.000000e+00 0.000000e+00
 0.000000e+00 0.000000e+00 2.814671e-01 7.185329e-01 0.000000e+00
 0.000000e+00 0.000000e+00 0.000000e+00 4.276361e-01 5.723639e-01
 0.000000e+00 0.000000e+00 0.000000e+00 0.000000e+00 0.000000e+00
<ENDHMM>
~h "s"
<BEGINHMM>
<NUMSTATES> 5
<STATE> 2
<MEAN> 39
 -9.975254e+00 3.948267e+00 -1.692175e+00 -3.250374e+00 -1.181597e+00 -7.554759e+00 -8.852233e-01 -4.001138e-01 4.261337e-01 -2.105653e+00 -1.562629e+00 -2.397851e+00 5.689060e+01 -3.397222e+00 1.924493e+00 -1.046092e+00 9.432284e-01 9.267001e-01 -4.003756e-01 9.910454e-01 1.123659e-01 1.713050e-01 -4.690028e-01 5.364938e-01 1.942259e-01 -1.561159e-01 -1.095084e-01 -2.747597e-01 -9.177081e-02 -3.071004e-01 -1.465542e-01 1.004973e-01 -2.048258e-01 -2.722256e-02 -1.565759e-01 5.202514e-02 3.322700e-02 -5.995237e-02 3.859285e-02
<VARIANCE> 39
 4.640426e+01 4.457755e+01 4.918073e+01 3.666803e+01 5.833992e+01 4.432235e+01 4.718451e+01 4.467091e+01 4.321326e+01 3.882407e+01 3.047939e+01 2.163093e+01 4.056073e+01 1.849953e+00 2.774666e+00 2.796807e+00 3.499900e+00 3.423120e+00 3.193518e+00 2.789163e+00 2.976810e+00 2.356043e+00 2.568146e+00 2.112287e+00 1.801230e+00 9.237076e-01 6.595991e-01 4.274663e-01 3.767315e-01 3.925992e-01 4.898744e-01 4.595005e-01 4.233753e-01 4.426635e-01 3.974802e-01 3.971388e-01 3.498108e-01 2.790480e-01 1.067485e-01
<GCONST> 1.186688e+02
<STATE> 3
<MEAN> 39
 -1.896296e+01 5.488783e+00 -4.556571e+00 -1.980573e+00 -2.636007e-01 -6.783403e+00 1.122650e+00 1.490862e-02 -2.015651e-01 -2.400341e+00 4.630941e-01 -1.085834e+00 5.321506e+01 -5.627899e-01 -2.313880e-01 -9.458432e-02 4.599349e-03 -3.798348e-02 1.991769e-02 1.815388e-01 5.895507e-03 -6.103418e-02 -1.282615e-04 1.046642e-01 1.500441e-01 -3.514162e-01 6.291181e-01 -2.909056e-01 2.263948e-01 -9.219353e-02 -1.457677e-01 -1.362941e-02 -7.325594e-02 -2.758445e-03 2.532412e-02 7.400919e-02 -8.325699e-02 -2.277458e-02 9.309341e-03
<VARIANCE> 39
 2.657222e+01 4.352248e+01 3.877060e+01 2.907599e+01 3.676551e+01 4.553544e+01 4.025640e+01 3.316019e+01 3.367026e+01 3.251903e+01 2.188790e+01 1.997680e+01 6.248311e+01 1.375994e+00 1.070532e+00 1.110227e+00 1.070886e+00 1.270071e+00 1.429909e+00 1.446923e+00 1.537472e+00 1.498468e+00 1.396225e+00 1.217919e+00 9.973356e-01 4.191703e-01 3.483038e-01 2.582907e-01 2.322515e-01 2.694635e-01 2.932143e-01 3.160343e-01 3.287840e-01 3.265675e-01 3.094808e-01 3.141491e-01 2.631272e-01 2.235466e-01 8.744386e-02
<GCONST> 1.022207e+02
<STATE> 4
<MEAN> 39
 -1.649344e+01 3.535880e+00 -3.769881e+00 -2.668786e+00 -1.205742e+00 -8.150192e+00 1.019587e+00 -6.863406e-02 6.689215e-01 -2.002729e+00 -3.416656e-01 -1.050849e+00 5.391290e+01 2.677268e+00 -8.205990e-01 5.185038e-01 -6.108845e-01 -9.609455e-01 -1.992833e-01 -7.910620e-01 -2.130355e-01 1.114016e-01 1.384686e-01 -5.238869e-01 -3.711337e-01 6.865585e-01 5.675111e-01 -4.602719e-02 9.423749e-02 -2.571091e-01 -1.953547e-01 6.653268e-02 -3.634631e-01 -7.342325e-02 -5.698743e-02 4.738887e-02 -5.639776e-02 -1.673182e-01 3.416297e-01
<VARIANCE> 39
 5.209479e+01 3.163978e+01 3.700031e+01 3.034658e+01 3.984224e+01 4.473309e+01 3.891261e+01 3.048361e+01 3.407537e+01 2.989304e+01 2.360838e+01 1.858965e+01 4.239095e+01 4.975268e+00 3.307843e+00 3.275006e+00 2.923072e+00 3.459733e+00 3.410435e+00 3.560336e+00 3.342937e+00 2.635076e+00 2.746398e+00 2.476411e+00 1.861674e+00 2.503976e+00 7.939529e-01 4.513600e-01 3.977854e-01 4.537508e-01 5.195346e-01 5.385813e-01 5.567538e-01 5.189673e-01 4.325772e-01 4.374514e-01 4.283048e-01 3.093696e-01 2.723447e-01
<GCONST> 1.216195e+02
<TRANSP> 5
 0.000000e+00 1.000000e+00 0.000000e+00 0.000000e+00 0.000000e+00
 0.000000e+00 6.779550e-01 3.220450e-01 0.000000e+00 0.000000e+00
 0.000000e+00 0.000000e+00 8.116245e-01 1.883755e-01 0.000000e+00
 0.000000e+00 0.000000e+00 0.000000e+00 7.107628e-01 2.892371e-01
 0.000000e+00 0.000000e+00 0.000000e+00 0.000000e+00 0.000000e+00
<ENDHMM>
~h "t"
<BEGINHMM>
<NUMSTATES> 5
<STATE> 2
<MEAN> 39
 -6.825256e+00 -3.635601e-01 -1.459821e+00 -3.064380e+00 -3.139706e+00 -3.427771e+00 -3.036966e+00 -7.408928e-02 4.628293e-02 -6.755189e-01 -1.359396e+00 -2.371840e+00 4.611696e+01 -4.984696e-01 4.988232e-02 -1.458120e-01 2.225308e-01 1.171967e-01 3.239372e-01 1.844660e-01 -3.306375e-02 -3.209029e-02 -1.730205e-02 1.057524e-01 1.971950e-01 -9.318694e-01 -3.609347e-02 -1.300183e-01 -2.851113e-02 -1.519595e-01 -2.698147e-02 -1.481209e-01 1.488630e-02 1.433038e-02 -9.904852e-03 -2.293909e-02 4.742583e-02 3.774637e-03 3.709172e-01
<VARIANCE> 39
 2.778337e+01 3.560968e+01 4.165448e+01 3.870951e+01 3.925868e+01 3.883183e+01 2.926081e+01 3.755898e+01 3.111620e+01 2.645994e+01 2.390635e+01 2.380996e+01 5.193154e+01 6.238307e-01 6.780081e-01 9.368790e-01 1.100121e+00 1.307611e+00 1.569375e+00 1.395449e+00 1.608202e+00 1.427483e+00 1.453941e+00 1.248233e+00 1.029665e+00 1.265446e+00 1.118363e-01 1.667653e-01 2.089933e-01 2.546560e-01 2.757623e-01 3.611293e-01 2.912087e-01 3.458267e-01 3.006028e-01 2.994141e-01 2.594672e-01 2.050816e-01 2.219891e-01
<GCONST> 1.008485e+02
<STATE> 3
<MEAN> 39
 -5.854785e+00 2.069737e+00 2.349310e-01 -2.666706e+00 -3.875648e+00 -4.308768e+00 -4.202825e+00 -2.122198e+00 -8.578798e-01 -5.396025e-01 -1.244576e+00 -2.565871e+00 4.644008e+01 -1.070157e+00 -7.981185e-01 -7.452429e-01 -6.148713e-01 3.762026e-01 -7.677035e-01 5.880448e-01 4.884890e-02 1.705006e-01 -2.818443e-01 2.861603e-01 2.502632e-01 1.261778e+00 2.605956e-01 -2.886533e-01 -8.827443e-02 -5.664591e-01 -9.743069e-02 -3.419421e-01 -1.451965e-01 8.471338e-02 1.831652e-01 2.895728e-02 -7.586844e-02 -1.691492e-01 1.154380e+00
<VARIANCE> 39
 2.192241e+01 3.470604e+01 4.813793e+01 4.441164e+01 4.522540e+01 4.080253e+01 2.806057e+01 3.474834e+01 2.876734e+01 2.558957e+01 2.492125e+01 2.218181e+01 4.310852e+01 1.677911e+00 2.278657e+00 3.173990e+00 3.010701e+00 3.489591e+00 3.786027e+00 2.855265e+00 3.121098e+00 2.541434e+00 2.507237e+00 2.371962e+00 1.644262e+00 3.460029e+00 3.290601e-01 3.942505e-01 6.046182e-01 5.423079e-01 6.024008e-01 5.897017e-01 5.336370e-01 6.640283e-01 4.868041e-01 4.890569e-01 4.647807e-01 3.403637e-01 3.825441e-01
<GCONST> 1.204134e+02
<STATE> 4
<MEAN> 39
 -8.589271e+00 -1.645115e+00 -2.642562e+00 -6.221438e+00 -2.597699e+00 -7.686880e+00 -1.985290e+00 -1.252239e+00 6.834874e-01 -1.365173e+00 -5.450040e-01 -2.390034e+00 5.395613e+01 8.758321e-01 -6.041867e-01 -2.295380e-01 -1.534349e+00 -2.391608e-01 -6.722040e-01 -5.728192e-01 2.645665e-01 4.350358e-01 8.129030e-02 -2.334237e-01 -5.636114e-01 2.937872e+00 6.789578e-01 9.719377e-02 3.326158e-01 -1.488402e-01 -2.390201e-01 4.396377e-01 -4.779706e-01 3.033682e-02 -1.265308e-01 1.709334e-01 -1.131439e-01 -2.193064e-01 -2.907266e-02
<VARIANCE> 39
 2.285917e+01 2.536102e+01 3.757763e+01 3.453433e+01 3.735786e+01 4.391497e+01 3.360046e+01 3.032630e+01 3.301784e+01 2.854058e+01 2.618444e+01 2.237007e+01 5.066204e+01 3.412391e+00 3.859147e+00 6.305173e+00 4.961359e+00 5.021502e+00 5.226616e+00 4.454537e+00 6.149564e+00 4.003635e+00 3.612502e+00 3.519729e+00 2.695977e+00 4.425255e+00 4.223849e-01 5.525292e-01 6.244339e-01 6.924812e-01 7.184978e-01 8.029775e-01 6.653839e-01 7.052356e-01 5.444798e-01 5.624839e-01 5.546907e-01 4.208508e-01 6.571778e-01
<GCONST> 1.290337e+02
<TRANSP> 5
 0.000000e+00 1.000000e+00 0.000000e+00 0.000000e+00 0.000000e+00
 0.000000e+00 7.610639e-01 2.389361e-01 0.000000e+00 0.000000e+00
 0.000000e+00 0.000000e+00 4.412014e-01 5.587986e-01 0.000000e+00
 0.000000e+00 0.000000e+00 0.000000e+00 4.986764e-01 5.013236e-01
 0.000000e+00 0.000000e+00 0.000000e+00 0.000000e+00 0.000000e+00
<ENDHMM>
~h "u"
<BEGINHMM>
<NUMSTATES> 5
<STATE> 2
<MEAN> 39
 4.178134e-01 3.862139e+00 -1.691386e+00 -1.001629e+01 -5.865796e+00 -4.921434e+00 -9.583727e+00 -4.476720e+00 -2.697952e+00 -3.643363e-01 2.355679e-01 -2.079780e+00 5.542266e+01 1.272906e+00 4.315891e-01 -4.884707e-01 -1.779803e+00 -5.782855e-01 7.612807e-01 -1.034568e+00 -7.570840e-01 -6.966900e-01 3.736281e-01 7.671009e-01 1.651937e-01 7.305833e-01 -3.031384e-01 -8.171270e-02 8.545701e-02 2.042478e-01 2.102011e-01 2.985188e-01 3.191554e-01 4.620415e-02 -1.665654e-02 3.374090e-02 -7.284647e-04 -5.484246e-02 -2.711765e-01
<VARIANCE> 39
 2.387671e+01 4.493750e+01 4.350235e+01 6.696210e+01 5.095581e+01 5.228914e+01 5.580202e+01 5.324813e+01 5.152287e+01 4.765141e+01 3.399917e+01 2.463414e+01 4.073037e+01 2.637708e+00 2.289520e+00 3.088963e+00 4.463010e+00 4.081617e+00 4.200823e+00 4.144079e+00 4.016004e+00 3.513064e+00 3.170324e+00 3.105006e+00 2.207487e+00 1.699068e+00 3.634832e-01 4.350130e-01 3.786561e-01 7.336918e-01 5.841979e-01 6.412295e-01 7.887484e-01 6.558174e-01 6.511107e-01 5.416521e-01 4.629999e-01 3.946362e-01 3.428442e-01
<GCONST> 1.271224e+02
<STATE> 3
<MEAN> 39
 1.716820e+00 2.540496e+00 -2.881974e+00 -1.483913e+01 -5.548954e+00 -4.662151e-01 -1.142505e+01 -7.048259e+00 -4.032866e+00 1.292212e+00 3.613875e+00 -2.152782e+00 5.814136e+01 -5.335630e-03 -3.123304e-01 -2.543702e-03 -1.035317e-01 3.528664e-01 2.792916e-01 -2.123170e-01 -1.220596e-01 2.198368e-01 4.805914e-01 5.907546e-02 -3.890717e-01 1.176803e-01 -3.460501e-01 -3.913789e-02 2.786711e-01 8.482829e-01 1.690140e-01 -3.713384e-01 4.219992e-01 3.674815e-01 3.050021e-01 -2.463910e-01 -4.967518e-01 -1.012706e-01 -3.992772e-01
<VARIANCE> 39
 1.897578e+01 4.042390e+01 4.257126e+01 7.369696e+01 5.536378e+01 6.075764e+01 5.686834e+01 6.819895e+01 6.319330e+01 6.500413e+01 4.925289e+01 3.638908e+01 2.975239e+01 7.360349e-01 2.512100e+00 1.798214e+00 4.721789e+00 2.867489e+00 3.686995e+00 3.453372e+00 3.353419e+00 4.699360e+00 3.009523e+00 2.968883e+00 2.569992e+00 1.449037e+00 2.517246e-01 3.396681e-01 3.729565e-01 6.126966e-01 6.030849e-01 6.580092e-01 7.280280e-01 6.959856e-01 7.285853e-01 6.241479e-01 5.898851e-01 5.255889e-01 1.875521e-01
<GCONST> 1.254008e+02
<STATE> 4
<MEAN> 39
 7.819483e-01 3.111363e+00 -2.080184e+00 -1.374600e+01 -3.787792e+00 -2.908584e+00 -9.838903e+00 -4.818130e+00 -5.063320e+00 8.477029e-01 6.860707e-01 -1.920781e+00 5.565409e+01 -2.550181e-01 4.031121e-02 3.088782e-01 8.955221e-01 1.726104e-01 -1.423941e-01 4.098932e-01 2.756351e-01 3.395201e-01 -1.700322e-01 -4.232529e-01 -1.032045e-01 -6.885980e-01 -1.562343e-01 -3.078888e-03 6.946136e-02 2.355551e-01 8.015650e-04 -7.686950e-02 9.751373e-02 1.664375e-02 7.221702e-02 -6.751138e-02 -5.313804e-02 4.071967e-02 -9.927087e-02
<VARIANCE> 39
 1.469178e+01 3.808836e+01 4.667586e+01 7.344555e+01 4.692794e+01 4.456895e+01 4.523762e+01 4.674851e+01 5.743853e+01 5.880351e+01 4.302091e+01 3.252522e+01 3.391051e+01 6.533697e-01 1.281316e+00 1.292268e+00 2.625365e+00 1.770164e+00 2.128605e+00 2.046175e+00 2.166516e+00 2.209425e+00 1.842914e+00 2.008935e+00 1.452329e+00 1.082785e+00 1.229381e-01 1.891413e-01 2.170951e-01 3.734421e-01 3.359360e-01 3.649397e-01 3.674433e-01 3.830176e-01 4.384624e-01 3.553213e-01 3.467332e-01 2.824779e-01 1.087485e-01
<GCONST> 1.100180e+02
<TRANSP> 5
 0.000000e+00 1.000000e+00 0.000000e+00 0.000000e+00 0.000000e+00
 0.000000e+00 4.521148e-01 5.478852e-01 0.000000e+00 0.000000e+00
 0.000000e+00 0.000000e+00 4.755351e-01 5.244649e-01 0.000000e+00
 0.000000e+00 0.000000e+00 0.000000e+00 6.815732e-01 3.184268e-01
 0.000000e+00 0.000000e+00 0.000000e+00 0.000000e+00 0.000000e+00
<ENDHMM>
~h "v"
<BEGINHMM>
<NUMSTATES> 5
<STATE> 2
<MEAN> 39
 -4.582983e+00 -6.186356e-01 8.583657e-02 -1.817087e+00 -3.825040e+00 -1.773973e+00 -1.014134e+00 2.774123e+00 1.269771e+00 -1.192841e+00 -2.188947e+00 -3.509031e+00 5.391485e+01 -1.744492e+00 5.673825e-01 -8.793824e-01 7.907746e-01 1.014057e-01 -3.362587e-01 3.418390e-01 -5.141522e-02 2.040877e-01 -3.624862e-01 -4.953707e-02 4.551653e-01 -9.776621e-01 -1.611407e-01 -1.912032e-01 -7.373447e-02 -2.493083e-01 -1.903360e-01 -2.406860e-01 -2.365961e-01 -2.181873e-01 -1.325475e-01 -9.073959e-02 6.786285e-02 -1.154962e-01 2.554139e-01
<VARIANCE> 39
 1.335515e+01 2.550455e+01 5.082132e+01 2.678841e+01 3.789872e+01 2.818876e+01 1.629541e+01 4.839812e+01 3.470509e+01 2.497933e+01 2.412784e+01 2.336557e+01 2.168007e+01 1.405386e+00 9.142236e-01 2.019704e+00 1.287145e+00 2.375872e+00 2.207469e+00 2.133874e+00 2.062705e+00 2.840454e+00 1.706739e+00 1.575307e+00 1.486132e+00 6.808517e-01 2.397635e-01 1.421590e-01 2.491707e-01 2.124261e-01 3.327705e-01 3.623160e-01 2.702479e-01 3.133696e-01 4.104735e-01 2.415522e-01 2.592474e-01 2.055740e-01 7.097926e-02
<GCONST> 1.021439e+02
<STATE> 3
<MEAN> 39
 -1.189991e+01 -4.407389e-01 -2.395640e+00 -9.013513e-01 -2.953741e+00 -4.606837e+00 -2.245361e+00 -1.156648e+00 1.064663e-01 -3.117120e+00 -1.063601e+00 -1.756073e+00 5.200959e+01 -7.785892e-01 -1.981636e-01 -1.047038e-01 4.329590e-02 -8.810398e-02 -1.470123e-01 6.618753e-02 -1.444189e-01 -2.001624e-01 -1.147646e-01 1.068699e-01 8.206449e-02 -1.963456e-01 7.420403e-01 -3.394863e-02 4.717722e-01 -2.497291e-01 -1.692672e-01 2.287262e-01 3.011581e-02 -7.476771e-03 -1.548217e-01 3.265961e-01 1.724946e-01 -1.461062e-01 2.598794e-01
<VARIANCE> 39
 1.090933e+01 1.591692e+01 3.254972e+01 1.967798e+01 2.003101e+01 2.243278e+01 1.641782e+01 2.430858e+01 2.063190e+01 3.065421e+01 1.693223e+01 1.361380e+01 1.345807e+01 1.721912e+00 1.049337e+00 1.564281e+00 1.032479e+00 1.426921e+00 1.407161e+00 1.173889e+00 1.965773e+00 1.540911e+00 1.740301e+00 1.433978e+00 9.387383e-01 3.106725e-01 2.762236e-01 2.671871e-01 4.160294e-01 3.260385e-01 3.958637e-01 3.329006e-01 3.434173e-01 4.367351e-01 4.309043e-01 3.658208e-01 3.520419e-01 2.174665e-01 1.317660e-01
<GCONST> 9.763004e+01
<STATE> 4
<MEAN> 39
 -9.076665e+00 3.479633e-01 -1.694392e+00 -1.038762e+00 -4.092288e+00 -2.144463e+00 -9.542179e-01 -9.134889e-01 -4.592144e-01 -1.539237e+00 -2.693966e-01 -2.666526e+00 5.184797e+01 2.469696e+00 -7.825106e-02 1.144736e+00 -1.471027e+00 -1.307412e+00 2.399779e-01 -4.743604e-01 -9.901929e-01 -8.818524e-01 9.759930e-01 7.042526e-01 -7.809211e-01 1.648510e+00 5.044084e-01 -2.161320e-01 3.281131e-01 -6.167395e-01 -4.568541e-01 -1.551908e-01 -3.439409e-01 -1.411472e-01 -4.851190e-02 1.855041e-01 -4.071744e-02 -2.615122e-01 6.041734e-01
<VARIANCE> 39
 2.965021e+01 2.363852e+01 4.762370e+01 3.476496e+01 2.677253e+01 3.270735e+01 2.433637e+01 2.808465e+01 2.503043e+01 2.695166e+01 1.729777e+01 1.548934e+01 2.127165e+01 4.101842e+00 3.307561e+00 7.131421e+00 3.977002e+00 3.510796e+00 5.003988e+00 2.978763e+00 5.086289e+00 2.447516e+00 2.168829e+00 2.781089e+00 1.301297e+00 1.363422e+00 6.137954e-01 5.416080e-01 7.563908e-01 5.051323e-01 4.670891e-01 4.962046e-01 4.511992e-01 6.265944e-01 3.943120e-01 4.671398e-01 3.477238e-01 2.707180e-01 1.396938e-01
<GCONST> 1.180964e+02
<TRANSP> 5
 0.000000e+00 1.000000e+00 0.000000e+00 0.000000e+00 0.000000e+00
 0.000000e+00 7.070350e-01 2.929651e-01 0.000000e+00 0.000000e+00
 0.000000e+00 0.000000e+00 7.263685e-01 2.736315e-01 0.000000e+00
 0.000000e+00 0.000000e+00 0.000000e+00 5.681831e-01 4.318169e-01
 0.000000e+00 0.000000e+00 0.000000e+00 0.000000e+00 0.000000e+00
<ENDHMM>
~h "w"
<BEGINHMM>
<NUMSTATES> 5
<STATE> 2
<MEAN> 39
 2.708848e+00 -1.142000e-01 -4.966655e+00 -1.381302e+01 -4.790895e+00 2.183072e+00 -4.165971e+00 -2.703677e+00 -1.686428e+00 2.018410e+00 3.588073e+00 -4.240376e+00 5.771548e+01 6.202228e-01 1.001000e+00 4.853344e-02 -9.679217e-01 -7.829863e-01 1.770837e-01 -2.790931e-02 -2.334913e-01 -6.370347e-01 2.252647e-02 5.540910e-01 6.616287e-01 -3.858382e-01 -1.165306e-01 -2.574573e-01 -4.363799e-02 -1.228992e-02 4.985658e-03 -3.973660e-02 6.251944e-02 2.103052e-01 5.299552e-02 -6.484146e-02 -1.136421e-01 -9.227896e-02 1.804267e-01
<VARIANCE> 39
 1.500270e+01 4.209520e+01 3.808118e+01 7.299112e+01 4.414858e+01 3.668689e+01 4.169737e+01 3.073854e+01 3.332576e+01 2.721389e+01 2.630086e+01 2.177062e+01 2.578853e+01 6.190655e-01 9.995085e-01 9.292251e-01 1.630948e+00 1.701673e+00 2.479619e+00 1.485017e+00 1.670788e+00 1.352740e+00 1.414976e+00 1.575865e+00 1.107687e+00 5.909986e-01 7.703185e-02 1.812679e-01 2.015265e-01 3.507652e-01 2.948300e-01 4.078017e-01 2.871669e-01 3.451097e-01 2.732318e-01 2.832039e-01 3.246784e-01 2.628956e-01 8.911837e-02
<GCONST> 1.011876e+02
<STATE> 3
<MEAN> 39
 3.975484e+00 3.181054e+00 -5.825954e+00 -1.701738e+01 -8.347045e+00 3.706580e+00 -5.148753e+00 -2.634777e+00 -4.564763e+00 1.491267e+00 3.798366e+00 -2.089278e+00 5.579181e+01 3.316622e-01 -1.031172e+00 -1.053265e+00 -2.094287e+00 2.098782e-01 1.277918e+00 -1.175404e-01 -2.906338e-01 -3.316802e-01 6.101788e-01 4.407550e-01 -8.417355e-01 1.404624e+00 -3.540605e-01 -5.743103e-01 -6.880334e-02 2.831597e-01 5.790524e-01 3.476802e-02 1.549678e-02 9.662142e-02 4.647471e-01 1.179927e-01 -3.061945e-01 -5.465569e-01 2.125589e-01
<VARIANCE> 39
 2.141237e+01 4.671467e+01 4.070763e+01 9.781921e+01 5.200996e+01 4.337087e+01 4.028505e+01 3.561887e+01 3.970632e+01 3.538688e+01 3.423495e+01 2.270911e+01 5.227861e+01 1.894463e+00 2.020640e+00 1.410549e+00 3.945937e+00 3.692675e+00 3.823319e+00 2.773695e+00 2.691437e+00 3.267419e+00 2.505492e+00 2.629369e+00 2.253704e+00 1.436729e+00 2.272803e-01 2.048894e-01 2.748613e-01 7.638326e-01 4.479110e-01 5.736569e-01 3.960403e-01 4.311435e-01 4.516925e-01 4.691924e-01 4.370302e-01 3.663041e-01 1.764455e-01
<GCONST> 1.188138e+02
<STATE> 4
<MEAN> 39
 1.876600e+00 -3.996254e+00 -6.723543e+00 -2.072548e+01 -2.826065e+00 6.166226e+00 -4.235103e+00 -2.736412e+00 -2.188751e+00 4.860393e+00 4.191240e+00 -8.903790e+00 6.156129e+01 -6.025724e-01 -1.169295e+00 -2.347318e-01 7.603472e-01 1.081545e+00 -1.803061e-01 2.799736e-02 4.272698e-01 1.005722e+00 -2.215816e-01 -1.023713e+00 -1.222072e+00 4.321644e-01 -4.050880e-02 2.080003e-01 1.839001e-01 4.268186e-01 -1.416839e-01 -3.912258e-01 5.289504e-02 1.258397e-01 3.703580e-02 -3.581907e-01 -2.021646e-01 3.347156e-01 -2.489667e-01
<VARIANCE> 39
 1.300516e+01 4.981832e+01 3.956358e+01 6.156422e+01 4.405336e+01 5.174521e+01 5.448592e+01 3.937040e+01 6.722408e+01 4.609942e+01 4.329998e+01 3.627301e+01 2.199338e+01 3.802849e-01 1.564937e+00 8.277529e-01 1.858134e+00 1.890774e+00 1.898487e+00 1.439589e+00 1.585629e+00 2.263941e+00 1.938606e+00 1.739012e+00 2.268695e+00 1.465196e+00 8.001001e-02 2.298805e-01 1.713282e-01 4.239477e-01 3.347484e-01 4.021426e-01 2.597619e-01 2.900865e-01 3.793286e-01 3.337352e-01 2.866060e-01 3.964073e-01 1.340459e-01
<GCONST> 1.076286e+02
<TRANSP> 5
 0.000000e+00 1.000000e+00 0.000000e+00 0.000000e+00 0.000000e+00
 0.000000e+00 7.444459e-01 2.555541e-01 0.000000e+00 0.000000e+00
 0.000000e+00 0.000000e+00 6.078954e-01 3.921046e-01 0.000000e+00
 0.000000e+00 0.000000e+00 0.000000e+00 7.179977e-01 2.820022e-01
 0.000000e+00 0.000000e+00 0.000000e+00 0.000000e+00 0.000000e+00
<ENDHMM>
~h "y"
<BEGINHMM>
<NUMSTATES> 5
<STATE> 2
<MEAN> 39
 -5.099053e+00 2.605436e-01 8.915538e+00 -1.222039e+01 -1.048534e+01 -7.954713e+00 -5.178257e+00 -1.791190e+00 -4.027375e+00 -3.925645e-01 9.938627e-03 -1.913158e+00 5.975201e+01 -1.196938e-01 -3.568937e-01 8.803903e-01 -1.000885e+00 -1.102464e+00 -2.770939e-01 3.655121e-01 4.603503e-01 -3.230498e-01 3.585549e-01 5.336629e-01 7.873229e-03 9.834692e-01 8.465129e-02 -3.000697e-01 -4.811177e-01 1.867154e-01 1.969734e-01 1.288114e-01 1.793419e-01 2.191597e-01 1.555422e-01 -1.026900e-01 -1.194681e-01 -1.329254e-01 -3.327837e-02
<VARIANCE> 39
 2.455436e+01 7.264884e+01 6.183557e+01 8.642638e+01 6.159260e+01 5.129695e+01 4.451593e+01 7.266435e+01 4.099945e+01 5.166261e+01 5.406025e+01 2.344004e+01 5.165003e+01 1.303510e+00 3.236934e+00 4.047182e+00 3.712821e+00 2.851032e+00 3.023588e+00 3.212842e+00 4.596118e+00 2.736675e+00 2.512523e+00 2.150061e+00 1.671925e+00 2.024768e+00 1.573538e-01 3.300043e-01 5.134829e-01 6.211546e-01 6.569007e-01 4.585168e-01 5.198738e-01 5.389622e-01 4.287034e-01 4.434757e-01 4.188128e-01 2.921937e-01 2.121396e-01
<GCONST> 1.236595e+02
<STATE> 3
<MEAN> 39
 -5.164736e+00 -5.819825e+00 9.365149e+00 -1.317212e+01 -1.313690e+01 -9.636331e+00 -1.262569e+00 2.031640e+00 -3.978608e+00 2.081310e-01 2.657307e+00 -3.777497e+00 6.407517e+01 1.459613e-01 -6.790864e-01 -5.415878e-01 7.720439e-02 1.212970e-01 1.013825e-02 6.290650e-01 8.387015e-01 5.570056e-02 -2.686183e-01 -4.260287e-02 -2.103544e-01 2.429314e-01 8.935042e-02 -6.232443e-02 -3.612335e-01 1.746256e-01 4.640831e-01 9.541312e-02 -1.040361e-01 7.665657e-02 1.246845e-01 -1.913349e-01 -2.936127e-01 8.997518e-04 -8.523176e-02
<VARIANCE> 39
 2.537656e+01 3.926932e+01 3.662678e+01 6.841449e+01 3.857686e+01 3.501979e+01 3.940279e+01 6.851730e+01 3.452138e+01 3.915353e+01 4.058594e+01 1.747099e+01 3.159726e+01 2.608817e-01 1.617378e+00 2.082757e+00 1.022111e+00 1.569768e+00 1.125844e+00 1.926114e+00 2.810477e+00 1.531542e+00 1.825872e+00 1.317303e+00 1.005552e+00 2.999155e-01 4.075281e-02 1.484552e-01 1.335666e-01 1.515052e-01 2.547416e-01 2.102862e-01 3.390287e-01 3.887176e-01 2.531261e-01 2.606896e-01 2.092548e-01 1.907825e-01 5.777763e-02
<GCONST> 9.824801e+01
<STATE> 4
<MEAN> 39
 -1.039554e+00 -7.815423e+00 -1.391182e+00 -5.554883e+00 -1.258018e+01 -3.149327e+00 1.418997e+00 3.236999e+00 -2.602924e+00 -4.469715e+00 2.022727e-01 -3.577619e+00 6.094481e+01 2.180051e-01 -5.607252e-01 -1.054977e+00 6.107861e-01 1.173246e+00 2.309860e-01 -5.600837e-02 2.588830e-01 1.959800e-01 -4.858608e-01 -5.748661e-01 -6.156402e-02 -5.119926e-02 1.525917e-02 1.986665e-01 7.348310e-02 -1.538201e-02 1.746953e-01 6.129606e-02 -3.062672e-01 -3.017296e-01 4.457720e-02 1.512608e-01 -4.170699e-02 1.070936e-02 -1.596830e-01
<VARIANCE> 39
 1.481060e+01 3.086603e+01 6.372464e+01 8.090792e+01 4.020770e+01 9.540423e+01 3.132239e+01 5.642892e+01 4.453457e+01 2.681559e+01 3.449227e+01 1.417359e+01 2.626297e+01 2.873173e-01 8.583092e-01 1.643908e+00 1.719190e+00 1.727442e+00 1.387605e+00 1.660012e+00 1.839521e+00 1.465827e+00 1.430752e+00 1.669511e+00 9.509705e-01 2.334759e-01 3.511528e-02 1.264022e-01 1.381646e-01 1.756366e-01 2.241855e-01 2.356507e-01 2.748555e-01 3.842003e-01 2.161455e-01 2.222477e-01 2.049817e-01 1.611536e-01 4.864983e-02
<GCONST> 9.620889e+01
<TRANSP> 5
 0.000000e+00 1.000000e+00 0.000000e+00 0.000000e+00 0.000000e+00
 0.000000e+00 6.105434e-01 3.894566e-01 0.000000e+00 0.000000e+00
 0.000000e+00 0.000000e+00 6.954521e-01 3.045479e-01 0.000000e+00
 0.000000e+00 0.000000e+00 0.000000e+00 6.645321e-01 3.354679e-01
 0.000000e+00 0.000000e+00 0.000000e+00 0.000000e+00 0.000000e+00
<ENDHMM>
~h "z"
<BEGINHMM>
<NUMSTATES> 5
<STATE> 2
<MEAN> 39
 -5.842516e+00 2.024572e+00 -1.019268e+00 -2.771581e+00 -2.805197e+00 9.274471e-01 -3.752969e+00 -2.015047e+00 -1.543521e+00 5.811275e-01 -2.517636e-01 -1.725380e+00 4.457542e+01 -5.665336e-01 2.024274e-01 -2.332207e-01 -2.544988e-02 -1.376407e-01 1.415262e-01 4.471422e-01 1.221913e-01 6.166184e-02 5.851040e-02 -9.759594e-02 7.732070e-02 -6.004238e-01 -6.954433e-02 2.572301e-02 9.910335e-02 -2.006635e-02 -4.044639e-02 -2.789747e-02 2.731322e-02 -2.760747e-02 -3.505405e-02 -2.204898e-02 7.089105e-02 -2.594229e-02 7.111637e-02
<VARIANCE> 39
 4.658277e+01 3.690548e+01 1.944708e+01 1.811510e+01 2.386447e+01 4.379352e+01 2.267317e+01 2.366870e+01 1.883964e+01 2.363489e+01 1.389416e+01 1.034244e+01 4.577470e+01 3.927631e-01 4.115162e-01 3.892430e-01 6.692162e-01 8.699750e-01 9.428627e-01 1.204091e+00 1.323231e+00 1.081629e+00 1.007044e+00 8.799296e-01 6.646920e-01 3.174208e-01 1.078509e-01 6.940446e-02 6.789363e-02 1.538828e-01 2.223987e-01 1.837195e-01 2.734349e-01 2.631489e-01 2.050574e-01 1.492943e-01 1.676295e-01 1.651461e-01 3.255670e-02
<GCONST> 8.283671e+01
<STATE> 3
<MEAN> 39
 -1.219523e+01 3.783150e+00 3.197930e+00 -3.048155e+00 -7.866592e-01 -3.037298e+00 -2.055801e+00 -1.603918e+00 9.365165e-01 -4.378936e+00 1.762841e+00 -1.367183e+00 5.246103e+01 -7.228646e-01 -2.408070e-01 2.000311e-01 6.247451e-02 -3.811641e-01 -5.800815e-01 1.958372e-01 4.680089e-01 3.141581e-01 -9.837441e-02 3.366211e-02 -2.210230e-01 4.779195e-01 6.594049e-01 -3.285746e-01 1.109370e-01 -2.400247e-01 -2.785434e-01 -2.119645e-01 -2.155703e-01 2.490298e-01 -5.066050e-02 2.244219e-01 -1.179130e-02 -1.965232e-01 3.222735e-01
<VARIANCE> 39
 4.038714e+01 4.318114e+01 1.761865e+01 1.768285e+01 2.993026e+01 3.546388e+01 3.518262e+01 2.342510e+01 3.607415e+01 2.989908e+01 1.602800e+01 1.535505e+01 3.587049e+01 7.027267e+00 2.152828e+00 1.106787e+00 2.104400e+00 2.311695e+00 3.327526e+00 3.516379e+00 2.099663e+00 1.694808e+00 1.789936e+00 1.652593e+00 1.480591e+00 9.733006e-01 9.506119e-01 3.249731e-01 2.589677e-01 4.387336e-01 4.172180e-01 7.581644e-01 7.180360e-01 4.893987e-01 3.405074e-01 3.598949e-01 3.081582e-01 3.241158e-01 2.605189e-01
<GCONST> 1.129180e+02
<STATE> 4
<MEAN> 39
 -6.150085e+00 -8.468326e-01 4.761549e+00 -4.317777e+00 -1.543736e+00 -9.016585e+00 -1.658099e+00 6.966627e+00 -1.601812e+00 1.594541e-01 -4.623480e-01 -7.663130e+00 5.570650e+01 1.524765e+00 -8.820357e-01 3.494308e-01 -7.113381e-01 -1.333987e+00 -1.126577e+00 -5.480093e-01 6.934295e-01 -4.164035e-02 7.854575e-01 8.580969e-02 -7.893652e-01 1.254960e+00 -1.419389e-01 -6.223528e-02 -4.993561e-02 -1.154982e-01 2.206206e-02 5.519452e-02 -3.407537e-02 -1.063515e-01 -7.127171e-02 -1.933054e-02 -5.448403e-02 -1.216175e-01 5.258316e-02
<VARIANCE> 39
 2.117881e+01 4.986119e+01 1.196825e+01 2.019883e+01 4.567405e+01 2.891616e+01 1.246693e+01 4.586788e+01 3.865692e+01 3.847915e+01 8.622735e+00 3.753652e+01 4.345077e+01 4.504589e+00 3.336185e+00 1.383766e+00 2.476077e+00 2.671779e+00 3.158367e+00 1.377275e+00 3.693586e+00 2.004894e+00 3.636711e+00 1.223164e+00 3.023480e+00 2.689689e+00 4.371276e-01 2.947067e-01 1.048282e-01 2.387000e-01 3.010547e-01 4.068679e-01 2.162392e-01 2.835436e-01 3.329755e-01 3.359236e-01 1.294066e-01 4.142185e-01 3.196623e-01
<GCONST> 1.096172e+02
<TRANSP> 5
 0.000000e+00 1.000000e+00 0.000000e+00 0.000000e+00 0.000000e+00
 0.000000e+00 8.489090e-01 1.510910e-01 0.000000e+00 0.000000e+00
 0.000000e+00 0.000000e+00 8.108452e-01 1.891548e-01 0.000000e+00
 0.000000e+00 0.000000e+00 0.000000e+00 6.557668e-01 3.442332e-01
 0.000000e+00 0.000000e+00 0.000000e+00 0.000000e+00 0.000000e+00
<ENDHMM>
~h "ai"
<BEGINHMM>
<NUMSTATES> 5
<STATE> 2
<MEAN> 39
 -1.994148e+00 -1.115179e+01 -1.819396e+00 -1.081500e+01 -4.827288e+00 -5.396416e+00 -3.167906e+00 7.063353e+00 -1.322795e-01 -2.981789e+00 -3.040036e+00 -5.914492e+00 6.441211e+01 -3.614352e-01 -5.525119e-01 1.021109e+00 1.922258e-01 -1.083915e+00 -7.250652e-01 8.901682e-01 9.176242e-01 -5.949315e-01 -6.620231e-01 3.906506e-01 5.553097e-01 3.700093e-01 -9.035891e-02 5.655949e-01 2.537583e-01 8.015859e-02 -1.594433e-01 -1.319645e-03 -1.967385e-02 -4.804620e-01 -1.089828e-01 2.897271e-01 3.480583e-01 8.794336e-02 -3.677880e-01
<VARIANCE> 39
 1.486845e+01 3.865025e+01 4.403410e+01 4.678050e+01 5.091893e+01 4.075312e+01 3.678365e+01 4.557621e+01 5.225502e+01 3.666271e+01 3.114925e+01 2.857727e+01 3.347608e+01 2.787665e-01 1.287909e+00 1.357529e+00 1.337116e+00 2.003011e+00 2.145231e+00 1.851650e+00 1.881962e+00 1.545473e+00 1.644516e+00 1.919403e+00 1.191344e+00 3.418999e-01 1.259290e-01 1.953624e-01 1.863148e-01 2.655477e-01 3.253407e-01 3.146369e-01 3.246661e-01 4.326876e-01 2.997861e-01 3.774601e-01 3.380429e-01 3.099742e-01 1.321274e-01
<GCONST> 1.041366e+02
<STATE> 3
<MEAN> 39
 -3.330659e+00 -7.729518e+00 4.548789e+00 -1.035439e+01 -1.325704e+01 -7.363587e+00 -9.424584e-01 5.431196e+00 -3.678710e+00 -1.459672e+00 1.405980e+00 -4.797996e+00 6.291875e+01 -2.962414e-01 9.128436e-01 1.338171e+00 -3.092276e-01 -9.231276e-01 -1.570448e-01 -1.805511e-01 -1.026087e+00 -3.755533e-01 7.210827e-01 5.304755e-01 9.331755e-02 -3.042700e-01 6.399993e-02 1.571569e-01 -1.565340e-01 8.070880e-02 3.578791e-01 1.190540e-01 -2.404065e-01 -2.295494e-01 9.733331e-02 2.988973e-02 -2.487041e-01 1.086554e-02 -1.760586e-01
<VARIANCE> 39
 1.648610e+01 3.111337e+01 6.549265e+01 5.694852e+01 4.098787e+01 5.142592e+01 3.136371e+01 5.701229e+01 4.644711e+01 3.205138e+01 4.098404e+01 1.982891e+01 2.880291e+01 1.969957e-01 6.589749e-01 9.171845e-01 1.243711e+00 1.337773e+00 1.227261e+00 1.742632e+00 1.656608e+00 1.438430e+00 1.618719e+00 1.501160e+00 9.398368e-01 1.974750e-01 3.385644e-02 9.711114e-02 1.227879e-01 1.710432e-01 1.925662e-01 2.049829e-01 2.665766e-01 3.019308e-01 2.167652e-01 2.678540e-01 1.985631e-01 1.762342e-01 4.492429e-02
<GCONST> 9.322938e+01
<STATE> 4
<MEAN> 39
 -5.206170e+00 -2.236893e+00 1.002667e+01 -1.139366e+01 -1.222172e+01 -9.282960e+00 -2.674333e+00 -1.387546e+00 -4.339831e+00 1.048656e+00 1.085967e-01 -3.595231e+00 5.935907e+01 1.819180e-01 6.865764e-01 -3.247963e-01 7.989743e-01 7.657714e-01 2.908327e-01 -7.354292e-02 -5.172220e-01 1.521888e-01 -1.307886e-01 -3.899629e-01 1.124513e-01 -1.237817e+00 1.065845e-02 -6.128655e-02 -2.803036e-01 1.342939e-01 1.757641e-01 9.217262e-02 4.731327e-02 1.161772e-01 9.978845e-02 -1.023679e-01 -3.446200e-02 -2.224728e-02 -1.123472e-01
<VARIANCE> 39
 1.995135e+01 3.391445e+01 3.943618e+01 7.619149e+01 5.051727e+01 4.151489e+01 3.648854e+01 4.753166e+01 3.193732e+01 2.984792e+01 4.749559e+01 2.460282e+01 4.291828e+01 5.464462e-01 1.003364e+00 1.427871e+00 1.502005e+00 1.641723e+00 1.623333e+00 1.872872e+00 2.358779e+00 1.713344e+00 1.604579e+00 1.720144e+00 1.245988e+00 6.613274e-01 9.375108e-02 1.563215e-01 2.229655e-01 2.757839e-01 3.128301e-01 2.810453e-01 3.424605e-01 3.977835e-01 3.320513e-01 3.412319e-01 3.384877e-01 2.332277e-01 1.201152e-01
<GCONST> 1.047072e+02
<TRANSP> 5
 0.000000e+00 1.000000e+00 0.000000e+00 0.000000e+00 0.000000e+00
 0.000000e+00 7.010720e-01 2.989279e-01 0.000000e+00 0.000000e+00
 0.000000e+00 0.000000e+00 7.733107e-01 2.266892e-01 0.000000e+00
 0.000000e+00 0.000000e+00 0.000000e+00 7.997202e-01 2.002797e-01
 0.000000e+00 0.000000e+00 0.000000e+00 0.000000e+00 0.000000e+00
<ENDHMM>
~h "au"
<BEGINHMM>
<NUMSTATES> 5
<STATE> 2
<MEAN> 39
 8.758126e-01 -4.300737e+00 -9.519621e+00 -1.872395e+01 -2.668059e+00 8.616907e-01 -7.677385e+00 7.502681e-01 -3.904989e+00 -4.224835e-01 -3.516185e+00 -6.763500e+00 6.000112e+01 2.022937e-01 3.981834e-01 -1.527138e-01 -3.930729e-01 5.830976e-02 2.487524e-01 -1.361761e-01 -2.409892e-01 -1.756257e-01 1.804645e-01 3.267404e-01 1.656247e-01 -2.747326e-01 -2.154321e-02 1.228114e-01 1.163014e-01 1.603581e-01 -6.737374e-02 -9.111226e-02 -3.453353e-02 -1.163943e-01 3.075181e-03 1.222036e-02 4.649534e-02 8.421867e-02 -1.285029e-01
<VARIANCE> 39
 1.298893e+01 4.903107e+01 5.585102e+01 7.063290e+01 3.902658e+01 4.907193e+01 3.609422e+01 3.582280e+01 6.396674e+01 5.680873e+01 4.238112e+01 2.955538e+01 3.206098e+01 2.570364e-01 6.561325e-01 7.493486e-01 1.059510e+00 1.347804e+00 1.498712e+00 1.167845e+00 1.401199e+00 1.289406e+00 1.466632e+00 1.333506e+00 1.226332e+00 2.275839e-01 5.056042e-02 1.264003e-01 1.009812e-01 2.044995e-01 2.089394e-01 2.219592e-01 1.829475e-01 2.644084e-01 2.709954e-01 2.342991e-01 2.365698e-01 2.137376e-01 7.257602e-02
<GCONST> 9.537135e+01
<STATE> 3
<MEAN> 39
 2.089694e+00 -4.027500e-01 -6.640302e+00 -1.610596e+01 -4.107457e+00 3.169150e-02 -1.078340e+01 -4.197587e+00 -2.713621e+00 3.997960e+00 2.073811e+00 -3.952650e+00 5.810583e+01 -2.720638e-03 4.891461e-01 6.479481e-01 9.142915e-01 -6.547255e-02 -2.586118e-01 -4.419769e-01 -4.143857e-01 -9.439092e-02 -1.782427e-01 5.911894e-02 3.901246e-01 -6.882821e-01 -1.367077e-01 3.009011e-02 2.410241e-01 5.058915e-01 -2.703699e-03 -2.949443e-01 2.044527e-01 2.471189e-01 2.369159e-02 -1.653949e-01 -3.387131e-01 -7.020303e-02 -1.847299e-01
<VARIANCE> 39
 8.747741e+00 5.479417e+01 3.168016e+01 6.091893e+01 4.197927e+01 4.659767e+01 6.973338e+01 4.359064e+01 5.324216e+01 4.614718e+01 3.728576e+01 2.804697e+01 3.043515e+01 5.355194e-01 1.656269e+00 1.456556e+00 2.473728e+00 3.081264e+00 3.073711e+00 2.831835e+00 3.103244e+00 4.088384e+00 2.705122e+00 2.545443e+00 2.018420e+00 8.924817e-01 6.914266e-02 2.924228e-01 2.552897e-01 2.522519e-01 5.559976e-01 4.763936e-01 5.550914e-01 5.505078e-01 5.831009e-01 5.392786e-01 4.796410e-01 4.316386e-01 1.162622e-01
<GCONST> 1.146559e+02
<STATE> 4
<MEAN> 39
 -1.968295e+00 -1.304316e+00 -6.400816e+00 -9.486775e+00 -3.495918e-01 1.437891e+00 -4.322574e+00 6.506110e-01 -2.266059e+00 8.384771e-01 9.453089e-01 -4.761837e+00 4.904596e+01 -3.126088e-01 1.581946e-01 3.157519e-01 1.137652e+00 7.931014e-02 -2.216715e-01 2.741494e-01 1.209447e-01 3.804415e-02 -1.146242e-01 -3.079358e-01 -5.900445e-02 -8.242503e-01 -6.171634e-02 -4.497247e-02 -1.752691e-02 -2.523798e-02 8.853860e-03 -8.474918e-03 5.147133e-02 1.380502e-02 -6.618805e-02 -1.761924e-02 1.102974e-02 -2.230938e-03 6.136797e-02
<VARIANCE> 39
 2.228594e+01 3.923383e+01 4.416386e+01 9.798445e+01 6.642246e+01 3.718182e+01 5.048787e+01 4.888597e+01 2.913938e+01 3.729108e+01 2.266418e+01 3.199759e+01 5.325222e+01 3.933120e-01 1.305845e+00 1.281853e+00 1.642769e+00 1.494806e+00 2.045621e+00 1.610656e+00 1.931423e+00 1.837850e+00 1.450586e+00 1.527506e+00 1.271299e+00 9.260202e-01 4.779249e-02 1.749654e-01 1.713124e-01 1.735627e-01 2.938296e-01 3.127958e-01 3.228236e-01 3.293291e-01 3.019677e-01 2.681307e-01 2.582841e-01 2.248559e-01 8.698896e-02
<GCONST> 1.031677e+02
<TRANSP> 5
 0.000000e+00 1.000000e+00 0.000000e+00 0.000000e+00 0.000000e+00
 0.000000e+00 8.579718e-01 1.420282e-01 0.000000e+00 0.000000e+00
 0.000000e+00 0.000000e+00 7.055482e-01 2.944518e-01 0.000000e+00
 0.000000e+00 0.000000e+00 0.000000e+00 7.385388e-01 2.614612e-01
 0.000000e+00 0.000000e+00 0.000000e+00 0.000000e+00 0.000000e+00
<ENDHMM>
~h "ei"
<BEGINHMM>
<NUMSTATES> 5
<STATE> 2
<MEAN> 39
 -3.488618e+00 -1.329484e+01 3.871545e+00 -1.134871e+01 -5.287973e+00 -1.610734e+00 -7.315092e+00 1.008427e+01 -6.764060e+00 -1.326125e+00 -5.109696e+00 5.080900e-01 5.457732e+01 -2.778399e-01 -6.266915e-01 8.033094e-01 -1.495997e+00 -9.373698e-01 4.357813e-02 8.285942e-01 -9.641735e-02 1.142810e-01 1.210253e-01 -4.515426e-01 -2.931686e-01 6.850405e-01 8.324173e-02 2.220031e-01 -3.264945e-01 3.426443e-01 -2.208025e-01 -1.698397e-01 -9.182190e-02 -5.420794e-01 1.980754e-01 4.462400e-02 -4.420552e-03 -1.063621e-01 -1.650419e-01
<VARIANCE> 39
 1.665436e+00 3.164118e+01 1.084169e+01 2.883831e+01 2.772835e+01 3.125218e+01 1.138848e+01 1.997160e+01 1.146054e+01 6.248370e+00 1.479166e+01 5.068891e+00 7.444940e+00 1.873385e-01 4.978861e-01 1.553311e+00 8.227552e-01 8.017794e-01 5.709369e-01 5.593423e-01 2.473221e+00 9.184525e-01 7.186242e-01 5.849276e-01 5.125949e-01 2.684858e-01 1.129590e-01 1.328334e-01 1.181974e-01 2.769043e-01 3.002718e-01 1.474075e-01 2.783276e-01 2.561032e-01 2.500307e-01 2.098966e-01 1.604533e-01 1.221481e-01 7.793477e-02
<GCONST> 7.584640e+01
<STATE> 3
<MEAN> 39
 -2.352082e+00 -9.387129e+00 3.464685e+00 -1.040070e+01 -1.291454e+01 -4.150409e+00 -7.328751e+00 3.881983e+00 -4.951443e+00 3.479363e-01 -5.735636e+00 -2.236278e+00 5.340788e+01 1.970409e-01 1.110379e+00 -2.128690e-01 1.484490e+00 -4.013432e-01 7.848310e-01 -2.830944e-01 -5.948722e-01 1.266433e-01 -2.241960e-01 8.165483e-01 -3.459924e-01 -1.139432e+00 -9.586863e-02 8.180956e-02 1.300242e-01 2.242542e-01 2.638021e-01 1.671208e-01 5.600852e-02 1.858032e-01 -2.530057e-02 -2.003886e-01 2.089906e-02 3.813121e-02 -1.532101e-01
<VARIANCE> 39
 2.489942e+00 2.569790e+01 3.618593e+00 3.760782e+01 1.398249e+01 5.807816e+01 1.319424e+01 1.961200e+01 9.666409e+00 1.286908e+01 3.195716e+01 1.124740e+01 1.682792e+01 2.014795e-01 5.063316e-01 4.912111e-01 1.379627e+00 1.819288e+00 2.892910e+00 7.243930e-01 8.694288e-01 1.155878e+00 1.316527e+00 1.619723e+00 4.037783e-01 3.723741e-01 3.223531e-02 1.309420e-01 5.341901e-02 4.395505e-01 2.897043e-01 5.638259e-01 1.378633e-01 1.472808e-01 1.678855e-01 2.307471e-01 4.744113e-01 9.535721e-02 1.024920e-01
<GCONST> 8.051700e+01
<STATE> 4
<MEAN> 39
 -3.148271e+00 2.445404e+00 6.293736e+00 -1.506079e+01 -1.765863e+01 -8.813185e+00 -1.075508e+01 -4.514560e+00 -1.402740e+00 -9.986054e-01 -7.775374e+00 -1.542567e+00 5.496700e+01 -6.848062e-02 5.075062e-01 3.087551e-01 1.102213e+00 -2.709039e-02 1.503024e-01 -1.123894e-01 -3.885348e-02 -9.747590e-02 -2.577840e-01 2.456564e-01 3.512907e-02 -6.425678e-01 -2.088357e-01 1.160323e-01 -1.580553e-01 1.995451e-01 2.018266e-01 -2.494668e-01 3.061872e-01 1.165781e-01 -1.616884e-02 1.102408e-01 2.689053e-01 4.863979e-02 8.235952e-02
<VARIANCE> 39
 1.736157e+00 2.286646e+01 2.100561e+01 6.884357e+01 1.316927e+01 5.463220e+01 1.826621e+01 2.062821e+01 1.751029e+01 8.590343e+00 1.392055e+01 1.841130e+01 2.240678e+01 2.196278e-01 1.458960e-01 5.591428e-01 1.162481e+00 6.020049e-01 8.722387e-01 2.771315e+00 7.077180e-01 1.401293e+00 9.565732e-01 1.208684e+00 1.302948e+00 1.352238e-01 1.079841e-01 6.017448e-02 1.568255e-01 2.504565e-01 2.535053e-01 3.515766e-01 4.670648e-01 1.394228e-01 2.747976e-01 2.143810e-01 1.410779e-01 2.508046e-01 4.327986e-02
<GCONST> 8.098291e+01
<TRANSP> 5
 0.000000e+00 1.000000e+00 0.000000e+00 0.000000e+00 0.000000e+00
 0.000000e+00 7.391866e-01 2.608134e-01 0.000000e+00 0.000000e+00
