~o
<STREAMINFO> 1 39
<VECSIZE> 39<NULLD><MFCC_D_A_0><DIAGC>
~s "silst"
<MEAN> 39
 -1.137747e+01 -8.430567e-01 -3.279782e+00 -5.158737e-01 -7.072669e-02 5.938176e-01 -3.946265e-01 1.114008e+00 6.771292e-01 -4.872327e-01 4.636572e-01 3.707266e-01 4.094293e+01 -8.440134e-02 -1.841309e-01 4.429883e-03 -2.486894e-01 1.351586e-01 -1.590439e-01 -1.812041e-02 -4.915414e-02 -7.186519e-02 -8.795884e-03 -3.819767e-02 -2.586402e-02 4.753610e-01 -2.870014e-02 7.990950e-02 1.295846e-01 1.077168e-01 -6.595569e-02 -3.987962e-02 3.474586e-02 2.389136e-02 -5.645189e-03 8.589468e-02 -6.002356e-03 -7.125173e-03 -1.032341e-01
<VARIANCE> 39
 3.045507e+01 2.938438e+01 2.938844e+01 3.704478e+01 3.178868e+01 3.926405e+01 2.461227e+01 2.811946e+01 2.224530e+01 2.196133e+01 1.775237e+01 1.434979e+01 9.895247e+01 2.017843e+00 1.764352e+00 1.963822e+00 2.265162e+00 1.902258e+00 2.255429e+00 1.863539e+00 1.813475e+00 1.587047e+00 1.891355e+00 1.289064e+00 1.101400e+00 3.614532e+00 2.819450e-01 2.678498e-01 3.296180e-01 3.832219e-01 3.276933e-01 4.167958e-01 3.478120e-01 3.283336e-01 2.954212e-01 3.534405e-01 2.410637e-01 2.038853e-01 4.390518e-01
<GCONST> 1.087248e+02
~h "a"
<BEGINHMM>
<NUMSTATES> 5
<STATE> 2
<MEAN> 39
 -1.142202e+00 -8.949059e+00 -4.502454e+00 -1.102937e+01 -3.258307e+00 -3.982092e+00 -4.211915e+00 3.879396e+00 1.437964e+00 -1.536134e+00 -3.301095e+00 -6.914696e+00 6.294385e+01 2.495391e-01 -1.468504e+00 -4.225200e-01 -6.423427e-01 4.666871e-01 5.187429e-01 2.343657e-01 9.008142e-01 6.654917e-02 -5.042589e-01 -4.844214e-01 -5.285348e-01 1.102373e+00 -2.431424e-01 4.918440e-01 3.035821e-01 4.599335e-01 6.348582e-02 -4.089271e-02 -2.113000e-02 -4.253523e-01 -1.736099e-01 3.438549e-03 1.502156e-01 3.193955e-01 -5.879559e-01
<VARIANCE> 39
 1.817291e+01 4.329511e+01 5.351030e+01 5.356629e+01 6.324618e+01 5.881555e+01 5.159268e+01 5.589983e+01 5.352290e+01 4.486786e+01 3.949330e+01 3.754002e+01 3.809296e+01 1.293187e+00 2.216393e+00 2.131569e+00 2.832686e+00 3.114751e+00 2.876407e+00 2.884953e+00 3.203023e+00 2.527002e+00 2.617409e+00 2.318507e+00 2.154576e+00 1.575860e+00 2.650865e-01 3.788698e-01 3.189181e-01 4.460552e-01 5.525909e-01 4.738302e-01 4.835519e-01 6.044777e-01 4.796387e-01 4.535310e-01 4.340338e-01 3.887045e-01 2.760356e-01
<GCONST> 1.210290e+02
<STATE> 3
<MEAN> 39
 -2.171542e+00 -1.120402e+01 -3.807595e+00 -1.117569e+01 -1.581092e+00 -3.142520e+00 -2.665670e+00 3.467130e+00 -9.460295e-01 -3.332983e+00 -3.705218e+00 -5.504259e+00 6.375608e+01 7.875148e-02 1.597510e-01 1.293764e-01 2.603375e-01 5.136748e-02 -4.140025e-02 -3.576823e-02 -1.039311e-01 2.222004e-02 -1.307259e-02 8.569739e-03 1.289289e-01 -3.350445e-01 1.403008e-02 3.826389e-01 1.523566e-01 1.760726e-01 -1.214972e-01 -1.122962e-01 -1.139235e-01 -2.029511e-01 3.484477e-02 1.393725e-01 1.001568e-01 1.023387e-01 -3.120434e-01
<VARIANCE> 39
 1.740752e+01 4.075001e+01 4.768933e+01 5.162290e+01 6.225681e+01 4.310005e+01 4.505041e+01 4.742242e+01 4.545102e+01 4.362448e+01 2.877095e+01 2.922380e+01 3.456593e+01 3.097753e-01 7.930569e-01 8.545088e-01 1.036247e+00 1.507179e+00 1.502393e+00 1.420383e+00 1.482370e+00 1.258390e+00 1.284830e+00 1.125549e+00 1.027428e+00 4.464155e-01 7.505433e-02 1.697951e-01 1.432073e-01 2.161749e-01 2.375634e-01 2.204526e-01 2.681974e-01 3.363134e-01 2.585414e-01 2.500936e-01 2.236882e-01 1.949087e-01 1.118015e-01
<GCONST> 9.808182e+01
<STATE> 4
<MEAN> 39
 -7.241641e-01 -7.189260e+00 -2.862532e+00 -8.825634e+00 -3.601526e+00 -4.426947e+00 -4.460719e+00 3.203873e+00 1.072181e+00 -1.580911e+00 -2.880409e+00 -5.557802e+00 5.987992e+01 5.823667e-02 1.418825e+00 6.308699e-01 1.047143e+00 3.283921e-03 4.614950e-03 -3.116374e-01 -8.380482e-01 -6.672920e-02 2.383246e-01 1.512295e-01 3.759693e-01 -1.586672e+00 -1.401218e-01 1.572879e-01 3.540269e-02 1.463027e-01 7.573124e-02 1.489321e-01 7.948117e-02 -1.636282e-01 -1.118067e-01 -6.954538e-02 -1.747264e-03 1.570584e-02 -1.892314e-01
<VARIANCE> 39
 1.413969e+01 3.743971e+01 5.223008e+01 4.725950e+01 6.139046e+01 5.648225e+01 4.756425e+01 4.802657e+01 4.637606e+01 4.456681e+01 3.533419e+01 3.410593e+01 3.936098e+01 7.075740e-01 1.094381e+00 1.419803e+00 1.586808e+00 1.990215e+00 1.993148e+00 2.076461e+00 2.696906e+00 2.165795e+00 1.833640e+00 1.720177e+00 1.340807e+00 8.520788e-01 1.234753e-01 2.194163e-01 2.329324e-01 2.803025e-01 3.659977e-01 3.764382e-01 3.538688e-01 4.585851e-01 3.451943e-01 3.398281e-01 3.153620e-01 2.565325e-01 1.585654e-01
<GCONST> 1.091210e+02
<TRANSP> 5
 0.000000e+00 1.000000e+00 0.000000e+00 0.000000e+00 0.000000e+00
 0.000000e+00 4.969946e-01 5.030054e-01 0.000000e+00 0.000000e+00
 0.000000e+00 0.000000e+00 7.116578e-01 2.883422e-01 0.000000e+00
 0.000000e+00 0.000000e+00 0.000000e+00 5.026733e-01 4.973267e-01
 0.000000e+00 0.000000e+00 0.000000e+00 0.000000e+00 0.000000e+00
<ENDHMM>
~h "b"
<BEGINHMM>
<NUMSTATES> 5
<STATE> 2
<MEAN> 39
 2.105870e-01 5.171213e+00 3.366773e+00 -1.886123e+00 -2.398080e+00 -1.429877e+00 -4.603785e+00 -3.553398e+00 -2.992715e+00 -1.449949e+00 -1.719687e+00 -3.814906e+00 5.048994e+01 7.828941e-02 7.539188e-01 1.626632e-01 5.503099e-01 4.211499e-01 3.660388e-01 4.568957e-01 -1.211293e-01 -1.706379e-01 -2.878410e-01 -2.758395e-01 4.317629e-02 -6.139594e-01 -6.791667e-02 -3.860666e-01 -1.574619e-01 -3.885133e-01 -2.732746e-01 -2.847675e-01 -2.590780e-01 6.869551e-02 8.116433e-02 1.304056e-01 2.275655e-01 -3.034708e-02 4.955304e-01
<VARIANCE> 39
 1.793827e+01 3.230660e+01 3.161484e+01 3.544791e+01 3.233612e+01 2.619942e+01 2.797922e+01 2.312483e+01 2.743642e+01 2.341597e+01 2.087386e+01 1.701138e+01 3.001661e+01 6.379500e-01 9.890865e-01 1.178385e+00 1.570707e+00 1.343956e+00 1.384193e+00 1.628822e+00 1.587644e+00 1.552297e+00 1.533799e+00 1.430183e+00 9.558014e-01 8.780941e-01 1.276920e-01 2.068964e-01 2.603750e-01 3.447562e-01 2.818266e-01 3.324053e-01 3.593328e-01 4.007715e-01 3.744093e-01 3.650723e-01 3.427339e-01 2.260414e-01 1.295485e-01
<GCONST> 9.984937e+01
<STATE> 3
<MEAN> 39
 2.453525e-01 6.265160e+00 2.745679e+00 -1.292221e+00 -2.213064e+00 -7.466552e-01 -4.304589e+00 -4.177240e+00 -3.913756e+00 -1.932746e+00 -1.829423e+00 -3.384841e+00 4.894353e+01 2.661597e-01 -9.317700e-01 -7.485331e-01 -1.155707e+00 -3.491480e-01 -8.501373e-01 -9.478146e-01 -1.352780e-01 1.691892e-01 6.863812e-01 8.243928e-01 -2.761062e-01 1.691636e+00 -1.303126e-01 -7.002002e-01 -2.149420e-01 -6.931683e-01 -3.613220e-01 -3.627254e-01 -3.504124e-01 2.543504e-01 3.067840e-01 4.012459e-01 1.797282e-01 -1.643641e-01 7.259420e-01
<VARIANCE> 39
 3.580666e+01 3.799158e+01 3.490431e+01 3.952699e+01 3.598206e+01 3.214238e+01 3.212566e+01 3.045160e+01 3.089920e+01 3.096802e+01 2.749954e+01 2.120730e+01 5.022701e+01 2.395377e+00 3.048699e+00 3.187554e+00 4.219207e+00 2.746338e+00 3.448491e+00 3.115709e+00 3.243134e+00 3.544685e+00 3.237205e+00 3.276385e+00 2.254047e+00 2.025184e+00 3.153848e-01 4.736777e-01 4.739405e-01 5.294325e-01 4.771847e-01 4.903346e-01 5.265114e-01 6.648957e-01 6.527667e-01 5.406356e-01 5.513555e-01 4.162154e-01 2.709650e-01
<GCONST> 1.218985e+02
<STATE> 4
<MEAN> 39
 9.275521e-01 2.384577e-01 -5.124220e-01 -7.982699e+00 -3.785280e+00 -3.947631e+00 -8.647573e+00 -3.747126e+00 -1.746350e+00 2.549448e+00 1.889508e+00 -5.795269e+00 5.729457e+01 -3.717545e-01 -2.195964e+00 -8.060917e-01 -2.088007e+00 -9.936585e-01 -1.090514e+00 -8.732813e-01 1.293376e+00 1.154569e+00 1.080409e+00 2.974974e-01 -8.221098e-01 2.454135e+00 -1.733023e-01 1.022863e-01 3.953170e-01 2.449009e-01 -3.968190e-02 1.263497e-01 4.124883e-01 2.828521e-01 -4.881544e-02 -3.852113e-01 -4.677876e-01 1.357068e-01 -2.329088e-01
<VARIANCE> 39
 1.852179e+01 3.487390e+01 2.930936e+01 6.703111e+01 3.637389e+01 4.657843e+01 4.053367e+01 4.130610e+01 5.211509e+01 4.860463e+01 4.545384e+01 3.371014e+01 3.502065e+01 1.770469e+00 3.579333e+00 4.107042e+00 5.162692e+00 3.476809e+00 4.025195e+00 4.540575e+00 5.355485e+00 5.816113e+00 4.941644e+00 4.882904e+00 3.910378e+00 2.255805e+00 2.059171e-01 4.453155e-01 3.024602e-01 8.391306e-01 5.083875e-01 5.669514e-01 6.082219e-01 5.777530e-01 5.729291e-01 6.866783e-01 6.406848e-01 4.772607e-01 3.291734e-01
<GCONST> 1.278891e+02
<TRANSP> 5
 0.000000e+00 1.000000e+00 0.000000e+00 0.000000e+00 0.000000e+00
 0.000000e+00 6.549949e-01 3.450051e-01 0.000000e+00 0.000000e+00
 0.000000e+00 0.000000e+00 4.719941e-01 5.280059e-01 0.000000e+00
 0.000000e+00 0.000000e+00 0.000000e+00 3.675830e-01 6.324170e-01
 0.000000e+00 0.000000e+00 0.000000e+00 0.000000e+00 0.000000e+00
<ENDHMM>
~h "c"
<BEGINHMM>
<NUMSTATES> 5
<STATE> 2
<MEAN> 39
 -6.946359e+00 4.120406e+00 1.840038e+00 -2.257591e+00 -4.393100e+00 -6.112046e+00 -2.615310e+00 -1.278494e+00 -5.614997e-01 -1.653915e+00 -1.251948e+00 -1.740864e+00 4.928014e+01 -2.098251e+00 2.463226e-01 -8.026793e-01 -2.454055e-01 5.980615e-01 1.214200e-01 3.481265e-01 -2.794905e-01 1.949784e-01 -1.647188e-01 2.420966e-01 7.463271e-02 -2.029952e-01 -3.751433e-01 -6.915804e-02 -7.337222e-02 -3.367329e-01 -1.197986e-01 -1.915989e-01 2.784234e-02 2.693889e-02 4.048461e-02 -6.255947e-02 1.222281e-01 3.732898e-02 7.446466e-01
<VARIANCE> 39
 2.495324e+01 3.319890e+01 3.319740e+01 3.423107e+01 3.597849e+01 4.314706e+01 2.534968e+01 2.952748e+01 2.792548e+01 2.532508e+01 1.925102e+01 1.988660e+01 3.739387e+01 2.930695e+00 2.409214e+00 2.585467e+00 2.801849e+00 2.197414e+00 2.485372e+00 2.147807e+00 2.100647e+00 2.036155e+00 1.916315e+00 1.669983e+00 1.305475e+00 3.915096e+00 4.785959e-01 3.639407e-01 4.249737e-01 3.880502e-01 3.761129e-01 4.899754e-01 3.721086e-01 4.521448e-01 4.260227e-01 3.270516e-01 3.126083e-01 2.515987e-01 3.871323e-01
<GCONST> 1.136870e+02
<STATE> 3
<MEAN> 39
 -1.878809e+01 5.031030e+00 -1.897384e-01 -5.704492e+00 -2.500040e+00 -7.272419e+00 -4.896273e-01 -2.173290e+00 1.957268e-01 -2.448725e+00 7.755427e-01 -1.241547e+00 5.562204e+01 1.919780e-01 -5.341340e-01 1.513783e-01 -4.648901e-01 -1.035824e+00 -8.855760e-01 1.952925e-01 6.353719e-01 1.624416e-01 -3.083219e-01 1.412520e-01 1.710043e-01 1.773593e+00 1.852828e+00 -6.700028e-01 1.394314e-01 9.791235e-02 -4.887931e-01 -5.991927e-02 -3.179500e-01 3.831336e-01 -2.433111e-02 5.593427e-02 -3.359284e-01 -2.068217e-01 -7.725693e-02
<VARIANCE> 39
 2.126678e+01 1.853626e+01 3.671892e+01 2.973746e+01 3.325346e+01 3.583064e+01 3.512888e+01 2.569938e+01 3.164674e+01 3.275242e+01 1.919687e+01 2.108771e+01 2.455906e+01 1.089887e+01 2.810638e+00 2.900031e+00 2.916859e+00 3.395132e+00 2.607975e+00 2.688151e+00 3.048446e+00 2.555688e+00 2.232987e+00 2.151272e+00 1.770060e+00 2.125839e+00 5.032178e-01 6.433607e-01 7.030693e-01 6.469675e-01 6.593551e-01 5.442111e-01 4.951658e-01 6.040799e-01 5.162044e-01 5.455059e-01 4.024009e-01 3.889747e-01 3.633183e-01
<GCONST> 1.200793e+02
<STATE> 4
<MEAN> 39
 -6.259455e+00 -1.373061e-01 2.144608e-01 -6.107110e+00 -8.410141e+00 -1.112086e+01 -1.204004e+00 2.463495e+00 8.462561e-01 -3.430531e+00 -1.743412e+00 -1.936532e+00 6.041655e+01 3.864105e+00 -2.774404e+00 -8.274022e-01 -8.785472e-01 -8.414395e-01 7.114941e-02 -5.358650e-01 1.728563e+00 3.284359e-01 -1.436566e-02 -9.753891e-01 -9.639480e-01 1.735325e+00 -4.750700e-01 -1.281071e-01 -3.534049e-01 -1.466886e-01 7.688376e-01 6.441963e-01 -6.660862e-02 -2.090195e-01 -7.311970e-02 1.286316e-01 1.234887e-02 -2.224509e-01 -2.533059e-01
<VARIANCE> 39
 2.790509e+01 3.057837e+01 4.396607e+01 2.740599e+01 3.879404e+01 2.706306e+01 4.312146e+01 3.496913e+01 2.474873e+01 2.826968e+01 1.626030e+01 1.254617e+01 3.893128e+01 2.535397e+00 3.610685e+00 3.298615e+00 3.125720e+00 4.492290e+00 3.055200e+00 2.964501e+00 4.490024e+00 2.409369e+00 3.581469e+00 1.996894e+00 1.941324e+00 1.454482e+00 7.274908e-01 4.487230e-01 4.071055e-01 3.865384e-01 4.580800e-01 3.913971e-01 3.301243e-01 5.078283e-01 3.934854e-01 4.615800e-01 4.209623e-01 3.041888e-01 2.813735e-01
<GCONST> 1.174633e+02
<TRANSP> 5
 0.000000e+00 1.000000e+00 0.000000e+00 0.000000e+00 0.000000e+00
 0.000000e+00 7.529284e-01 2.470716e-01 0.000000e+00 0.000000e+00
 0.000000e+00 0.000000e+00 6.938471e-01 3.061529e-01 0.000000e+00
 0.000000e+00 0.000000e+00 0.000000e+00 5.436824e-01 4.563176e-01
 0.000000e+00 0.000000e+00 0.000000e+00 0.000000e+00 0.000000e+00
<ENDHMM>
~h "d"
<BEGINHMM>
<NUMSTATES> 5
<STATE> 2
<MEAN> 39
 -6.106824e+00 9.397559e-01 1.943990e+00 -4.619852e-01 -2.618208e+00 -2.747643e+00 -1.959026e+00 1.425885e-01 -5.595082e-01 -1.628315e+00 -1.055294e+00 -1.555432e+00 4.567840e+01 2.933331e-03 5.370245e-01 1.828347e-01 4.132474e-01 3.263749e-01 1.685573e-01 1.516694e-01 -5.086278e-02 -6.855844e-02 -1.107404e-01 -1.915576e-01 -4.174428e-02 -5.186231e-01 -5.498917e-02 -1.900929e-01 1.816929e-02 -2.144710e-01 -1.608612e-01 -1.559308e-01 -5.242540e-02 6.345549e-02 -2.072532e-02 2.029947e-03 1.089388e-01 3.097352e-02 3.210096e-01
<VARIANCE> 39
 5.376217e+01 4.467458e+01 4.152330e+01 3.867629e+01 5.399110e+01 4.514530e+01 4.492128e+01 3.708062e+01 3.078196e+01 2.904465e+01 2.641833e+01 2.318667e+01 8.228033e+01 7.522296e-01 1.392983e+00 1.128572e+00 1.477026e+00 1.669002e+00 1.733985e+00 1.663159e+00 1.904363e+00 1.603956e+00 1.537522e+00 1.445684e+00 1.105127e+00 9.764135e-01 1.596342e-01 2.897652e-01 2.178675e-01 3.114233e-01 3.401337e-01 3.610164e-01 3.312073e-01 4.074140e-01 3.250425e-01 3.244832e-01 3.103915e-01 2.242350e-01 2.050655e-01
<GCONST> 1.074405e+02
<STATE> 3
<MEAN> 39
 3.703115e-01 4.691591e+00 5.333842e+00 8.082781e-02 -4.441257e+00 -4.797756e+00 -4.856941e+00 -9.921831e-01 -1.033680e+00 -3.361469e+00 -3.915639e+00 -3.382189e+00 5.073776e+01 -2.034789e-01 -8.509235e-01 5.699376e-01 -7.272090e-01 -6.728472e-01 -1.137524e+00 -3.794841e-01 3.628038e-01 -3.295248e-02 -1.877462e-01 5.411098e-01 4.388207e-01 1.506225e+00 -2.657218e-01 -7.760223e-01 -1.084151e-01 -7.925513e-01 -6.448611e-01 -4.368456e-01 -2.071524e-01 2.629423e-01 1.341549e-01 2.156171e-01 4.337559e-01 9.986325e-02 8.764362e-01
<VARIANCE> 39
 2.168191e+01 5.118327e+01 3.241018e+01 3.661797e+01 4.517633e+01 3.060582e+01 3.184195e+01 3.138581e+01 2.757841e+01 2.784118e+01 2.533494e+01 1.925437e+01 4.104827e+01 2.706806e+00 4.506579e+00 2.560153e+00 3.337555e+00 4.204904e+00 3.585434e+00 3.217315e+00 4.557946e+00 2.776090e+00 2.742216e+00 2.703877e+00 2.007736e+00 2.632582e+00 3.281634e-01 5.722303e-01 4.473298e-01 5.060061e-01 6.471101e-01 5.442485e-01 5.802306e-01 8.016443e-01 5.313976e-01 4.886453e-01 4.710168e-01 3.781908e-01 2.718197e-01
<GCONST> 1.218465e+02
<STATE> 4
<MEAN> 39
 -1.630394e+00 -3.010145e+00 5.875165e+00 -5.934499e+00 -9.586389e+00 -1.129394e+01 -7.098613e+00 2.786905e+00 5.361467e-01 -2.851738e+00 1.879165e-01 -1.038327e+00 6.003281e+01 -5.349288e-01 -1.603662e+00 -4.953713e-01 -2.086807e+00 -1.639583e+00 -1.064083e+00 -9.358044e-02 1.418236e+00 5.481326e-01 5.812145e-01 8.322470e-01 -2.826989e-01 2.347761e+00 1.184004e-01 3.614908e-01 -2.757880e-01 5.165315e-02 3.433524e-01 6.541183e-01 2.593575e-01 -1.459799e-01 -8.298837e-02 8.100612e-02 -3.414311e-01 -4.458935e-01 -3.759540e-01
<VARIANCE> 39
 1.717996e+01 3.623157e+01 3.387090e+01 4.512535e+01 5.217042e+01 3.938380e+01 5.446112e+01 6.192321e+01 4.609325e+01 3.569452e+01 2.482773e+01 2.288193e+01 3.312515e+01 1.566601e+00 3.656483e+00 3.958707e+00 3.282545e+00 4.035267e+00 3.553636e+00 4.516822e+00 6.105800e+00 3.859098e+00 2.996813e+00 3.448007e+00 2.594292e+00 1.982844e+00 1.478829e-01 4.278338e-01 3.496061e-01 6.214685e-01 8.280751e-01 6.022142e-01 6.421948e-01 7.042075e-01 4.802738e-01 5.142919e-01 4.486854e-01 3.580600e-01 2.951106e-01
<GCONST> 1.238325e+02
<TRANSP> 5
 0.000000e+00 1.000000e+00 0.000000e+00 0.000000e+00 0.000000e+00
 0.000000e+00 7.120668e-01 2.879331e-01 0.000000e+00 0.000000e+00
 0.000000e+00 0.000000e+00 5.458852e-01 4.541148e-01 0.000000e+00
 0.000000e+00 0.000000e+00 0.000000e+00 4.747508e-01 5.252492e-01
 0.000000e+00 0.000000e+00 0.000000e+00 0.000000e+00 0.000000e+00
<ENDHMM>
~h "e"
<BEGINHMM>
<NUMSTATES> 5
<STATE> 2
<MEAN> 39
 -1.627975e+00 -1.917641e+00 -1.372876e+00 -8.456922e+00 -5.402067e+00 -6.578789e+00 -6.595341e+00 -5.228949e-01 5.250044e-01 4.533929e-01 -4.393828e-01 -3.950122e+00 5.901358e+01 1.401356e+00 -8.668894e-01 8.860924e-02 -1.299809e+00 -8.808083e-01 -2.506318e-01 -8.465238e-01 6.862279e-01 3.588624e-01 3.823482e-01 5.062739e-03 -5.154222e-01 1.610009e+00 -3.187357e-01 2.561756e-01 1.980184e-01 4.218063e-01 1.989408e-01 2.828643e-01 2.360846e-01 -1.294682e-01 -1.565181e-01 -1.335273e-01 -4.371172e-02 9.144673e-02 -6.096132e-01
<VARIANCE> 39
 3.420361e+01 4.292475e+01 5.274080e+01 6.053838e+01 6.245401e+01 7.149465e+01 4.893370e+01 5.355753e+01 5.150732e+01 4.794712e+01 3.931319e+01 2.615082e+01 4.970696e+01 3.880637e+00 3.303559e+00 3.326401e+00 4.198037e+00 4.541494e+00 4.456612e+00 4.683587e+00 4.783132e+00 4.510161e+00 3.561784e+00 3.209054e+00 2.422705e+00 2.022511e+00 4.900821e-01 5.044729e-01 5.439227e-01 6.885327e-01 6.148319e-01 6.487390e-01 6.670589e-01 6.683292e-01 6.420082e-01 5.775795e-01 5.273045e-01 3.847975e-01 4.636792e-01
<GCONST> 1.313403e+02
<STATE> 3
<MEAN> 39
 -8.035808e-01 -3.652252e+00 -1.330566e+00 -9.917786e+00 -6.074628e+00 -6.884903e+00 -7.318959e+00 1.168348e+00 1.137267e+00 8.198254e-01 -3.833583e-01 -4.547559e+00 6.107573e+01 4.931337e-01 -7.926284e-02 4.419782e-01 3.585522e-03 -2.954743e-01 1.067433e-01 -1.340449e-01 1.567559e-01 -8.257524e-02 2.769066e-02 -5.674050e-02 -7.473888e-02 2.675464e-02 -4.430918e-01 5.291630e-01 2.063966e-01 7.219670e-01 3.459392e-01 2.541395e-01 3.664908e-01 -4.111369e-01 -2.383769e-01 -2.287594e-01 -5.045721e-02 2.080527e-01 -8.503035e-01
<VARIANCE> 39
 2.654861e+01 4.352043e+01 5.637632e+01 6.216160e+01 6.707118e+01 7.104255e+01 5.388218e+01 5.834962e+01 5.933754e+01 5.579076e+01 4.453055e+01 3.044133e+01 3.606649e+01 1.327245e+00 1.701084e+00 1.715211e+00 2.766815e+00 2.618467e+00 2.870688e+00 2.514253e+00 2.784049e+00 2.471976e+00 2.241853e+00 2.034490e+00 1.565565e+00 1.066887e+00 4.819964e-01 4.603129e-01 5.338514e-01 6.185594e-01 6.873996e-01 6.681778e-01 7.320089e-01 7.705950e-01 7.159091e-01 6.405530e-01 5.816672e-01 3.968209e-01 2.762320e-01
<GCONST> 1.240893e+02
<STATE> 4
<MEAN> 39
 -1.442414e+00 -3.468703e+00 1.158465e+00 -9.062404e+00 -7.770401e+00 -7.273716e+00 -5.328752e+00 6.173989e-01 -9.785306e-01 -1.209479e-01 -2.639293e-01 -3.767563e+00 6.002907e+01 3.163800e-02 6.678756e-01 3.770915e-01 8.703251e-01 3.339316e-01 3.196110e-01 1.463421e-01 -3.693205e-01 -1.556041e-01 -1.862488e-01 -1.832017e-01 1.334123e-01 -1.029524e+00 -2.084309e-01 2.311787e-01 1.819591e-03 2.964080e-01 1.679766e-01 1.062544e-01 1.134385e-01 -1.733164e-01 -1.921283e-02 -6.960242e-02 -3.514510e-02 5.889817e-02 -3.582369e-01
<VARIANCE> 39
 2.234584e+01 4.183095e+01 5.923761e+01 6.094779e+01 8.614725e+01 6.188558e+01 5.153750e+01 5.072753e+01 5.022929e+01 4.791172e+01 4.946343e+01 2.536630e+01 3.528666e+01 8.389782e-01 1.490201e+00 1.524064e+00 2.053050e+00 1.906365e+00 2.006409e+00 2.133998e+00 2.397337e+00 2.062236e+00 1.795313e+00 1.691095e+00 1.202574e+00 1.247518e+00 2.386168e-01 2.453547e-01 2.913416e-01 3.851196e-01 4.237045e-01 4.253643e-01 4.408103e-01 4.644582e-01 4.109537e-01 3.676702e-01 3.565877e-01 2.505278e-01 1.462770e-01
<GCONST> 1.136688e+02
<TRANSP> 5
 0.000000e+00 1.000000e+00 0.000000e+00 0.000000e+00 0.000000e+00
 0.000000e+00 2.417297e-01 7.582703e-01 0.000000e+00 0.000000e+00
 0.000000e+00 0.000000e+00 1.472839e-01 8.527161e-01 0.000000e+00
 0.000000e+00 0.000000e+00 0.000000e+00 4.883547e-01 5.116453e-01
 0.000000e+00 0.000000e+00 0.000000e+00 0.000000e+00 0.000000e+00
<ENDHMM>
~h "f"
<BEGINHMM>
<NUMSTATES> 5
<STATE> 2
<MEAN> 39
 -7.076954e+00 1.409442e+00 3.327385e-01 -1.364426e+00 -3.239041e+00 -3.691677e+00 -4.429999e+00 -1.985236e+00 -5.902701e-01 -1.463962e+00 -2.591181e-01 -2.821452e+00 5.299242e+01 -2.329679e+00 -4.122537e-02 -1.197948e+00 1.345573e+00 4.657189e-01 -5.777251e-01 1.780110e-01 7.661525e-02 3.882680e-01 2.186227e-01 7.238200e-02 4.186330e-01 -5.670719e-01 3.265642e-02 -2.287160e-01 2.872033e-02 -2.616207e-01 -3.486361e-01 -1.579155e-01 -7.837108e-02 -5.392801e-02 -4.878677e-02 4.191462e-02 1.073892e-02 -9.511951e-02 1.673756e-01
<VARIANCE> 39
 2.598265e+01 2.443845e+01 5.675346e+01 4.012917e+01 5.856820e+01 6.524029e+01 4.079042e+01 2.925419e+01 3.038458e+01 2.406196e+01 2.455313e+01 2.013460e+01 2.505130e+01 1.223088e+00 1.978471e+00 2.949632e+00 2.171560e+00 4.506171e+00 2.721077e+00 2.898948e+00 2.567688e+00 2.042798e+00 2.304502e+00 1.373290e+00 1.463790e+00 7.310442e-01 3.494835e-01 2.434523e-01 3.425373e-01 3.547917e-01 4.724644e-01 4.020200e-01 3.026240e-01 3.707401e-01 3.544362e-01 3.561817e-01 1.964122e-01 2.856178e-01 1.026153e-01
<GCONST> 1.107547e+02
<STATE> 3
<MEAN> 39
 -1.208600e+01 -1.669531e+00 -3.575095e+00 1.118168e+00 -2.226997e+00 -1.780063e+00 -2.010008e+00 7.111720e-01 7.147283e-02 -1.059953e+00 5.051163e-01 -1.460549e+00 4.469712e+01 -4.043086e-01 -1.256693e-01 -9.278892e-02 1.328695e-01 -4.131428e-02 -6.946962e-02 1.122418e-01 1.617971e-02 1.353266e-02 1.046709e-01 6.509424e-02 1.207287e-01 -2.471313e-01 3.078289e-01 -1.292755e-02 1.193222e-01 -1.812864e-01 -3.702331e-02 9.911316e-02 6.541565e-03 -3.176688e-02 -1.040608e-01 -2.797780e-02 -1.922726e-02 -3.861950e-02 4.750130e-02
<VARIANCE> 39
 1.621984e+01 2.373963e+01 2.778153e+01 3.793958e+01 2.881426e+01 3.530135e+01 3.660201e+01 3.887103e+01 2.277599e+01 2.271852e+01 1.953759e+01 1.379904e+01 8.928171e+01 7.244336e-01 7.997203e-01 1.045639e+00 1.116375e+00 1.133859e+00 1.324359e+00 1.551726e+00 1.494125e+00 1.360180e+00 1.155784e+00 9.748337e-01 8.808387e-01 5.997940e-01 2.563041e-01 1.796446e-01 2.575553e-01 2.658274e-01 2.853700e-01 2.977412e-01 3.504640e-01 3.403098e-01 3.086146e-01 2.554736e-01 2.005297e-01 1.775000e-01 1.061331e-01
<GCONST> 9.728847e+01
<STATE> 4
<MEAN> 39
 -1.237738e+01 -9.111596e-01 -1.770978e+00 4.188132e-01 -3.633336e+00 -4.385950e+00 -3.203441e+00 -2.381140e+00 1.888687e-02 -2.185526e-01 -4.789135e-01 -2.135917e+00 5.146657e+01 1.894594e+00 1.430335e-01 6.203562e-01 -1.469774e+00 -8.718824e-01 2.937186e-01 2.942540e-03 -6.430651e-01 -9.807885e-01 -9.388610e-02 7.491516e-02 -3.094375e-01 6.395624e-01 8.434641e-01 2.641828e-01 3.849744e-01 -8.602167e-01 -4.459566e-01 1.561554e-01 -1.557683e-01 -1.523500e-01 -3.428868e-01 2.363285e-02 1.354314e-01 -2.365945e-01 4.845917e-01
<VARIANCE> 39
 2.093379e+01 1.818616e+01 4.532781e+01 3.550184e+01 4.375145e+01 3.913810e+01 4.255278e+01 2.670235e+01 2.514157e+01 1.828094e+01 1.874808e+01 1.800880e+01 3.423392e+01 3.317911e+00 3.163769e+00 5.272133e+00 5.102439e+00 3.300172e+00 3.782617e+00 2.454418e+00 2.875621e+00 2.865449e+00 1.640352e+00 1.981584e+00 1.902018e+00 3.122762e+00 3.894680e-01 5.085552e-01 7.179780e-01 8.053976e-01 6.333913e-01 5.321215e-01 5.427052e-01 5.366229e-01 4.824564e-01 2.901839e-01 3.241436e-01 4.087038e-01 2.590263e-01
<GCONST> 1.192780e+02
<TRANSP> 5
 0.000000e+00 1.000000e+00 0.000000e+00 0.000000e+00 0.000000e+00
 0.000000e+00 6.231233e-01 3.768767e-01 0.000000e+00 0.000000e+00
 0.000000e+00 0.000000e+00 8.064117e-01 1.935883e-01 0.000000e+00
 0.000000e+00 0.000000e+00 0.000000e+00 5.979045e-01 4.020956e-01
 0.000000e+00 0.000000e+00 0.000000e+00 0.000000e+00 0.000000e+00
<ENDHMM>
~h "g"
<BEGINHMM>
<NUMSTATES> 5
<STATE> 2
<MEAN> 39
 -7.633340e-02 4.613032e+00 3.649565e+00 -2.536874e+00 -5.328280e+00 -4.694363e+00 -5.749868e+00 -2.519468e+00 -2.455778e+00 -8.151270e-01 -2.629244e+00 -3.291539e+00 5.121286e+01 -1.540193e-01 8.299797e-01 2.699068e-01 7.639271e-01 4.115789e-01 6.048951e-01 3.774970e-01 -1.622547e-01 -1.569704e-02 -3.136197e-01 -3.464124e-01 2.076066e-02 -1.059644e+00 -1.805135e-01 -3.675523e-01 -1.188123e-01 -3.442405e-01 -1.291051e-02 -2.191385e-01 -9.178196e-02 1.693833e-01 1.645839e-02 9.030014e-02 1.003172e-01 1.033686e-02 4.767174e-01
<VARIANCE> 39
 1.231329e+01 3.640109e+01 2.871437e+01 3.809955e+01 4.525979e+01 3.455600e+01 3.558641e+01 2.772643e+01 2.111311e+01 2.854607e+01 2.839816e+01 2.558746e+01 2.754996e+01 5.417276e-01 8.327902e-01 1.131439e+00 1.620613e+00 1.774602e+00 1.733585e+00 1.875838e+00 1.900611e+00 1.854522e+00 1.796912e+00 1.689136e+00 1.394215e+00 8.251345e-01 1.397424e-01 1.914447e-01 2.947233e-01 3.057700e-01 5.093734e-01 4.491969e-01 4.152238e-01 4.378521e-01 4.115576e-01 3.667961e-01 3.402114e-01 2.929333e-01 1.493822e-01
<GCONST> 1.041032e+02
<STATE> 3
<MEAN> 39
 -9.385506e-01 5.991187e+00 3.476665e+00 -1.241909e+00 -4.719328e+00 -3.837941e+00 -5.464372e+00 -2.572172e+00 -2.408818e+00 -1.105753e+00 -3.254724e+00 -3.305406e+00 4.916385e+01 -8.505588e-01 -8.414928e-01 -1.762391e-01 -4.665435e-01 7.266722e-01 -9.275697e-01 -1.038991e-01 2.531461e-01 -3.883360e-01 2.611686e-01 6.871729e-02 2.552023e-01 1.172610e+00 -9.517434e-02 -4.457124e-01 2.914665e-02 -6.218439e-01 -3.233522e-01 -4.664130e-01 -2.468571e-01 3.698215e-02 -5.378376e-02 1.686821e-01 2.225767e-01 8.815901e-02 7.728130e-01
<VARIANCE> 39
 2.142893e+01 3.912558e+01 3.676500e+01 4.370087e+01 4.710138e+01 3.784832e+01 3.724822e+01 3.046633e+01 2.432841e+01 3.034044e+01 2.591069e+01 2.093624e+01 3.841346e+01 1.963052e+00 3.256588e+00 3.511666e+00 3.544969e+00 5.567411e+00 4.179238e+00 3.760931e+00 3.749073e+00 2.827017e+00 2.775958e+00 2.605997e+00 1.896118e+00 1.560251e+00 2.815752e-01 4.146228e-01 4.376525e-01 4.858672e-01 8.004375e-01 5.170386e-01 5.056338e-01 6.662418e-01 4.585447e-01 4.856802e-01 4.930480e-01 3.265112e-01 2.151020e-01
<GCONST> 1.206010e+02
<STATE> 4
<MEAN> 39
 -3.093829e+00 6.970850e-01 2.885295e+00 -5.200586e+00 -4.620380e+00 -1.036928e+01 -7.320962e+00 -6.738396e-01 -3.452777e+00 1.084777e+00 -2.006372e+00 -2.350227e+00 5.705671e+01 -1.130717e-01 -9.932624e-01 2.157383e-01 -1.807771e+00 -1.675962e+00 -1.038041e+00 -2.445589e-01 8.608435e-01 1.878667e-01 3.621451e-01 6.198400e-01 -6.787312e-02 1.919278e+00 2.975480e-01 3.871429e-02 5.238722e-03 -1.276529e-01 -3.462857e-01 4.947287e-01 1.754652e-01 3.726288e-02 2.176007e-01 -2.287309e-01 2.183037e-02 -2.501837e-01 -1.670559e-01
<VARIANCE> 39
 2.397445e+01 3.255978e+01 5.520363e+01 5.445213e+01 6.998596e+01 5.273304e+01 5.309238e+01 3.828354e+01 3.500206e+01 4.177076e+01 5.117521e+01 3.284908e+01 3.399119e+01 1.614279e+00 2.932540e+00 3.315317e+00 3.587027e+00 5.416155e+00 3.866931e+00 3.393798e+00 4.297727e+00 3.892817e+00 3.331048e+00 3.378589e+00 2.479834e+00 1.315005e+00 2.307965e-01 4.928890e-01 5.008631e-01 6.623806e-01 1.370838e+00 7.172394e-01 7.499849e-01 5.909824e-01 5.393952e-01 6.328484e-01 5.274137e-01 4.150291e-01 2.211050e-01
<GCONST> 1.269208e+02
<TRANSP> 5
 0.000000e+00 1.000000e+00 0.000000e+00 0.000000e+00 0.000000e+00
 0.000000e+00 6.358346e-01 3.641654e-01 0.000000e+00 0.000000e+00
 0.000000e+00 0.000000e+00 4.962636e-01 5.037364e-01 0.000000e+00
 0.000000e+00 0.000000e+00 0.000000e+00 5.545164e-01 4.454836e-01
 0.000000e+00 0.000000e+00 0.000000e+00 0.000000e+00 0.000000e+00
<ENDHMM>
~h "h"
<BEGINHMM>
<NUMSTATES> 5
<STATE> 2
<MEAN> 39
 -3.581743e+00 -3.801377e+00 -1.641566e+00 -7.356709e+00 -2.125242e+00 -2.005619e+00 -2.484325e+00 -1.427291e+00 -1.767485e+00 -3.092189e+00 -3.279245e+00 -3.786464e+00 5.826008e+01 -4.787776e-01 9.461746e-02 -1.106318e-02 9.566451e-01 8.912664e-01 3.984558e-01 6.080676e-01 6.769451e-02 1.041580e-01 -1.795185e-01 5.473879e-03 2.456809e-01 -6.798180e-01 -7.317584e-03 -8.277750e-02 -3.707260e-02 -1.175395e-01 -1.214268e-01 -6.931970e-02 -9.350199e-02 4.140815e-02 4.007282e-02 8.825278e-02 6.999703e-02 -4.243184e-02 1.792660e-02
<VARIANCE> 39
 1.862869e+01 4.697330e+01 5.696665e+01 4.887653e+01 7.188116e+01 5.231196e+01 5.106411e+01 5.805951e+01 6.101311e+01 5.267360e+01 3.466788e+01 2.562486e+01 3.498358e+01 1.072301e+00 1.929532e+00 2.164519e+00 1.869603e+00 2.483541e+00 2.218581e+00 2.472124e+00 2.745822e+00 2.198035e+00 2.051013e+00 1.834706e+00 1.371308e+00 1.042462e+00 1.125411e-01 1.803073e-01 2.004119e-01 2.682556e-01 3.363197e-01 3.529995e-01 3.830701e-01 3.718650e-01 3.532709e-01 3.350106e-01 2.702340e-01 2.269475e-01 9.153721e-02
<GCONST> 1.110293e+02
<STATE> 3
<MEAN> 39
 -5.193672e+00 -4.441472e+00 -1.355322e+00 -4.908720e+00 1.112619e+00 -1.008352e+00 -8.624470e-01 1.327262e-01 8.439436e-01 -1.835038e+00 -2.197687e+00 -2.916313e+00 5.692434e+01 -1.033660e-01 1.730317e-02 -1.963461e-01 4.379044e-01 2.720802e-01 2.260855e-01 1.387865e-01 -8.927008e-02 -5.880035e-02 -7.711616e-02 -3.320554e-02 3.966609e-02 -4.244696e-01 2.458065e-01 1.428975e-02 -7.824874e-02 -3.098418e-01 -3.673419e-01 -1.110268e-01 -2.003560e-01 -6.929224e-02 -1.274741e-01 3.061905e-02 -7.566405e-03 -1.156197e-01 1.471218e-01
<VARIANCE> 39
 2.419388e+01 5.148182e+01 5.252231e+01 4.870988e+01 6.334751e+01 5.437361e+01 4.966673e+01 4.861982e+01 4.269418e+01 4.027422e+01 3.006938e+01 2.727386e+01 3.551396e+01 1.519629e+00 1.935004e+00 1.836914e+00 1.761171e+00 2.398787e+00 2.151038e+00 2.085909e+00 2.548634e+00 1.969198e+00 1.956317e+00 1.778015e+00 1.378090e+00 1.557422e+00 2.332588e-01 3.010690e-01 3.533516e-01 3.488484e-01 4.078947e-01 3.689806e-01 4.133106e-01 4.279684e-01 3.751654e-01 3.372273e-01 3.301039e-01 2.622503e-01 1.479104e-01
<GCONST> 1.137662e+02
<STATE> 4
<MEAN> 39
 -6.036541e+00 -5.344172e+00 -3.894225e+00 -3.166951e+00 -1.505838e-01 8.733094e-01 4.358009e-01 1.439702e-01 -8.699633e-01 -2.794128e+00 -2.049924e+00 -1.871100e+00 5.290340e+01 1.608518e-01 7.344747e-02 -1.434362e-01 -5.851475e-02 -2.544511e-01 -3.894345e-02 -9.176209e-02 2.908613e-02 -6.931054e-02 5.448539e-02 2.956112e-02 -4.216325e-03 -2.164902e-01 4.304177e-02 -3.196196e-02 7.194324e-03 -1.081948e-01 -9.463838e-02 -5.862418e-02 -6.174472e-02 2.393053e-02 -1.534006e-02 1.091890e-02 6.917310e-03 -2.891474e-02 9.596767e-02
<VARIANCE> 39
 2.853288e+01 4.109763e+01 3.936295e+01 4.442606e+01 4.884775e+01 3.783616e+01 3.985614e+01 3.724149e+01 3.331857e+01 3.290666e+01 2.327019e+01 2.354021e+01 7.821434e+01 9.364959e-01 1.148639e+00 1.120110e+00 1.444902e+00 1.564187e+00 1.339168e+00 1.506545e+00 1.633282e+00 1.353782e+00 1.399864e+00 1.206828e+00 1.089255e+00 1.096695e+00 9.599385e-02 1.733426e-01 1.732074e-01 2.197030e-01 2.328212e-01 2.429700e-01 2.606002e-01 2.884572e-01 2.415268e-01 2.589756e-01 2.264013e-01 1.909947e-01 9.273441e-02
<GCONST> 1.007842e+02
<TRANSP> 5
 0.000000e+00 1.000000e+00 0.000000e+00 0.000000e+00 0.000000e+00
 0.000000e+00 2.836356e-01 7.163644e-01 0.000000e+00 0.000000e+00
 0.000000e+00 0.000000e+00 3.456119e-01 6.543881e-01 0.000000e+00
 0.000000e+00 0.000000e+00 0.000000e+00 7.206597e-01 2.793403e-01
 0.000000e+00 0.000000e+00 0.000000e+00 0.000000e+00 0.000000e+00
<ENDHMM>
~h "i"
<BEGINHMM>
<NUMSTATES> 5
<STATE> 2
<MEAN> 39
 -5.486790e+00 3.538270e+00 1.098515e+01 -7.585935e+00 -1.182346e+01 -8.699328e+00 -5.338427e+00 -6.540266e+00 -4.231125e+00 -1.128803e-01 -4.870125e-01 -3.145330e+00 5.747398e+01 2.211585e-01 3.229263e-01 2.222705e+00 -1.647077e+00 -1.911697e+00 -2.121566e-01 -8.075070e-01 -7.565299e-01 -6.798446e-01 4.739981e-01 2.968456e-01 -2.742396e-01 1.217690e+00 -5.405283e-02 -4.767790e-02 -5.152315e-01 1.150740e-01 3.828052e-01 2.779409e-01 9.224226e-02 2.852632e-01 2.265829e-01 -3.446490e-02 -4.798857e-02 7.237959e-03 -2.808420e-01
<VARIANCE> 39
 2.973922e+01 4.730039e+01 4.655766e+01 7.319514e+01 5.630059e+01 4.562396e+01 4.462088e+01 5.572069e+01 3.368471e+01 4.311694e+01 4.695346e+01 3.156421e+01 3.844510e+01 3.896952e+00 2.573807e+00 3.593311e+00 4.438025e+00 4.395058e+00 3.513472e+00 4.803538e+00 4.043208e+00 3.165750e+00 3.270474e+00 3.821241e+00 2.628261e+00 1.467639e+00 4.272296e-01 3.896264e-01 5.695937e-01 7.164246e-01 7.123309e-01 5.406920e-01 6.813890e-01 6.490576e-01 4.644626e-01 5.024822e-01 5.007973e-01 3.481406e-01 2.958779e-01
<GCONST> 1.278884e+02
<STATE> 3
<MEAN> 39
 -4.610220e+00 1.591958e+00 1.405393e+01 -7.685593e+00 -1.510765e+01 -7.239856e+00 -5.242676e+00 -4.079724e+00 -6.445294e+00 -5.105738e-01 3.543264e+00 -6.032496e+00 5.950336e+01 1.300707e-01 1.331501e-01 -2.435383e-01 7.623450e-02 1.942564e-01 4.355865e-02 2.072642e-02 1.750289e-01 1.946288e-01 3.326988e-02 -1.067238e-01 1.254358e-01 -2.297899e-01 -7.564619e-04 5.557662e-02 -6.711784e-01 4.225399e-01 7.309946e-01 5.006302e-02 1.709257e-01 1.196828e-01 3.251393e-01 -1.058608e-01 -2.967229e-01 2.038001e-01 -4.505365e-01
<VARIANCE> 39
 1.544278e+01 4.072094e+01 3.526713e+01 6.636691e+01 4.692496e+01 4.740497e+01 3.587547e+01 6.433521e+01 4.498909e+01 4.393427e+01 5.022242e+01 3.882185e+01 2.305053e+01 8.208761e-01 1.500245e+00 2.046708e+00 2.199663e+00 2.502886e+00 2.084570e+00 2.056205e+00 2.720933e+00 1.920957e+00 1.673801e+00 1.767867e+00 1.470399e+00 9.850243e-01 2.540229e-01 2.705765e-01 3.409287e-01 4.658579e-01 4.899689e-01 4.606507e-01 4.803410e-01 5.668333e-01 4.150116e-01 4.235585e-01 4.372892e-01 3.360429e-01 1.649427e-01
<GCONST> 1.140624e+02
<STATE> 4
<MEAN> 39
 -6.515779e+00 5.834271e+00 1.176961e+01 -1.113020e+01 -9.520958e+00 -5.928126e+00 -6.261434e+00 -7.809311e+00 -2.962560e+00 6.463601e-01 -2.457424e+00 -1.757538e+00 5.487088e+01 7.411721e-02 -2.830967e-02 -6.596479e-01 6.185539e-01 5.455667e-01 1.508811e-01 2.368865e-01 2.569852e-01 1.884632e-01 -1.243891e-01 -1.074519e-01 1.214304e-01 -7.555722e-01 -2.562435e-02 -6.351862e-02 -1.114421e-01 1.129668e-01 4.083541e-02 2.389598e-02 5.215518e-02 4.675008e-02 -2.222726e-02 -3.289973e-02 2.562453e-02 -3.362151e-02 -4.018502e-02
<VARIANCE> 39
 2.192763e+01 4.277843e+01 5.024887e+01 1.028324e+02 5.578901e+01 5.376245e+01 5.021964e+01 5.064664e+01 3.100475e+01 4.621301e+01 4.221892e+01 2.991192e+01 6.035330e+01 7.967583e-01 1.213337e+00 1.435880e+00 2.011870e+00 2.079841e+00 1.770354e+00 1.889753e+00 2.083356e+00 1.573898e+00 1.593542e+00 1.570122e+00 1.190132e+00 1.009337e+00 1.082811e-01 1.500479e-01 2.031599e-01 3.153596e-01 3.101953e-01 3.108622e-01 3.237115e-01 3.250344e-01 2.584563e-01 2.784597e-01 2.518704e-01 1.967904e-01 9.945327e-02
<GCONST> 1.072798e+02
<TRANSP> 5
 0.000000e+00 1.000000e+00 0.000000e+00 0.000000e+00 0.000000e+00
 0.000000e+00 5.284407e-01 4.715593e-01 0.000000e+00 0.000000e+00
 0.000000e+00 0.000000e+00 6.059812e-01 3.940188e-01 0.000000e+00
 0.000000e+00 0.000000e+00 0.000000e+00 7.757182e-01 2.242818e-01
 0.000000e+00 0.000000e+00 0.000000e+00 0.000000e+00 0.000000e+00
<ENDHMM>
~h "j"
<BEGINHMM>
<NUMSTATES> 5
<STATE> 2
<MEAN> 39
 -2.536807e+00 6.093813e+00 5.262410e+00 -1.094942e+00 -4.377110e+00 -4.707730e+00 -3.402540e+00 -1.090368e+00 -2.304898e+00 -2.772432e+00 -1.919813e+00 -2.525515e+00 4.998202e+01 -1.272241e+00 8.442000e-01 1.965474e-01 1.584893e-02 8.941121e-01 2.000849e-01 4.436499e-01 -2.050019e-01 2.230421e-01 1.723108e-03 4.834947e-02 -9.971290e-02 2.889415e-02 -4.085193e-01 -2.094999e-01 1.542722e-01 -3.705036e-01 -3.070520e-01 -4.068752e-01 -8.037078e-02 -7.541683e-02 -6.662027e-02 3.750015e-02 2.621148e-01 9.017733e-02 5.847102e-01
<VARIANCE> 39
 2.159741e+01 4.337977e+01 2.828635e+01 3.601092e+01 4.073203e+01 3.042782e+01 2.740605e+01 2.345241e+01 2.500810e+01 2.123535e+01 2.079600e+01 1.489419e+01 3.678760e+01 3.500138e+00 2.092165e+00 1.802040e+00 2.579269e+00 3.215500e+00 2.764985e+00 1.973597e+00 2.125701e+00 1.823478e+00 1.927355e+00 1.917708e+00 1.379742e+00 2.243797e+00 4.471016e-01 3.054607e-01 3.208854e-01 3.988497e-01 5.303621e-01 4.557894e-01 3.868634e-01 4.325475e-01 3.937252e-01 4.229093e-01 3.119401e-01 2.268602e-01 2.222216e-01
<GCONST> 1.116348e+02
<STATE> 3
<MEAN> 39
 -1.142260e+01 7.966410e+00 7.594991e+00 -4.464534e+00 -2.888495e+00 -6.963696e+00 -2.715447e+00 -3.129515e+00 -2.668378e+00 -2.989038e+00 1.704789e-01 -2.593174e+00 5.552947e+01 -5.154699e-01 -5.581141e-01 1.212865e+00 -7.293521e-01 -2.109136e+00 -1.713768e+00 -5.479944e-01 -3.481044e-01 -5.692120e-01 3.192986e-02 9.055798e-01 4.193886e-01 1.713034e+00 1.228941e+00 -7.196140e-01 -1.428899e-01 -4.680489e-02 -7.497844e-01 -2.047635e-01 -4.311681e-01 3.139307e-01 -4.610822e-03 1.340072e-01 -7.917204e-02 1.653248e-02 -3.064321e-02
<VARIANCE> 39
 2.794574e+01 4.061815e+01 3.740280e+01 4.437965e+01 4.559158e+01 4.305068e+01 3.398275e+01 2.674094e+01 2.695609e+01 2.806906e+01 2.095794e+01 2.075773e+01 2.330300e+01 6.568604e+00 2.844719e+00 2.411334e+00 3.854108e+00 4.689507e+00 3.026671e+00 2.937518e+00 3.407304e+00 2.373475e+00 3.311800e+00 1.867596e+00 1.499382e+00 1.135388e+00 6.574814e-01 5.503163e-01 5.909253e-01 5.978937e-01 1.089037e+00 7.772952e-01 6.074528e-01 6.019065e-01 4.464560e-01 4.374916e-01 4.231035e-01 3.736369e-01 2.354921e-01
<GCONST> 1.215516e+02
<STATE> 4
<MEAN> 39
 -5.045863e+00 1.099636e+00 1.001116e+01 -7.639946e+00 -1.297192e+01 -1.301995e+01 -6.490783e+00 -1.181486e+00 -3.875313e+00 -9.757064e-01 1.656003e+00 -1.111849e+00 6.002343e+01 1.594862e+00 -2.052746e+00 -1.003530e+00 -8.427361e-01 -1.021083e+00 -5.194674e-01 -7.904295e-01 1.317337e+00 5.689632e-01 4.457894e-01 -2.020603e-01 -2.100048e-01 8.813656e-01 -7.282385e-02 1.641842e-01 -7.038792e-01 7.166027e-02 9.997969e-01 7.488037e-01 1.875031e-01 9.433235e-02 2.151659e-01 -3.725047e-02 -3.542449e-01 -2.686739e-01 -3.481165e-01
<VARIANCE> 39
 1.798957e+01 3.475045e+01 4.045325e+01 7.547458e+01 2.994658e+01 3.164546e+01 3.469585e+01 5.003201e+01 4.249179e+01 5.752848e+01 2.544970e+01 1.623016e+01 2.884583e+01 1.928970e+00 2.425169e+00 2.965167e+00 2.758379e+00 5.592291e+00 3.499834e+00 4.180519e+00 3.515512e+00 2.582894e+00 2.953078e+00 2.410167e+00 2.013006e+00 8.183880e-01 3.791827e-01 3.309690e-01 3.410685e-01 6.141031e-01 4.720100e-01 4.928719e-01 5.212812e-01 6.968715e-01 4.418696e-01 6.496978e-01 3.804988e-01 2.918297e-01 1.013882e-01
<GCONST> 1.185122e+02
<TRANSP> 5
 0.000000e+00 1.000000e+00 0.000000e+00 0.000000e+00 0.000000e+00
 0.000000e+00 7.092401e-01 2.907599e-01 0.000000e+00 0.000000e+00
 0.000000e+00 0.000000e+00 6.211787e-01 3.788213e-01 0.000000e+00
 0.000000e+00 0.000000e+00 0.000000e+00 6.237714e-01 3.762285e-01
 0.000000e+00 0.000000e+00 0.000000e+00 0.000000e+00 0.000000e+00
<ENDHMM>
~h "k"
<BEGINHMM>
<NUMSTATES> 5
<STATE> 2
<MEAN> 39
 -7.753181e+00 -1.734755e-01 -1.901075e+00 -1.944822e+00 -1.861405e+00 -5.870221e-01 -1.609510e+00 5.247944e-01 -7.102419e-01 -8.954254e-01 -9.447466e-02 -1.359732e+00 4.383678e+01 -4.001750e-01 8.791721e-02 -1.065626e-01 3.465788e-01 1.145736e-01 1.108015e-01 1.292275e-01 3.022202e-02 3.824099e-02 -1.405791e-02 1.410774e-02 1.634227e-01 -7.035192e-01 1.240319e-02 -9.878221e-02 -5.819397e-02 -9.915262e-02 1.495721e-02 -6.367894e-02 -2.553752e-02 1.241221e-02 -1.342235e-02 1.266420e-02 -1.204727e-02 -2.275035e-02 2.474063e-01
<VARIANCE> 39
 3.127659e+01 4.147627e+01 4.073221e+01 5.388971e+01 4.852226e+01 5.041401e+01 3.917484e+01 3.882354e+01 2.951905e+01 3.167721e+01 2.259436e+01 2.281435e+01 6.740038e+01 7.229890e-01 7.800672e-01 1.037734e+00 1.384247e+00 1.452551e+00 1.617790e+00 1.511876e+00 1.642927e+00 1.563541e+00 1.489142e+00 1.298787e+00 1.084443e+00 1.063173e+00 1.155639e-01 1.727610e-01 2.152356e-01 2.528840e-01 2.935834e-01 3.329384e-01 3.055607e-01 3.297275e-01 3.230018e-01 3.023837e-01 2.545170e-01 2.149564e-01 1.727614e-01
<GCONST> 1.033346e+02
<STATE> 3
<MEAN> 39
 -6.283714e+00 1.433365e+00 -1.094150e+00 -3.425159e+00 -2.923537e+00 -3.093670e+00 -3.924330e+00 -2.025609e+00 -1.484483e+00 -2.465999e-01 -1.089981e+00 -2.411739e+00 4.635669e+01 -7.734233e-01 -1.018983e+00 -1.161964e+00 -9.314560e-02 1.014537e+00 -6.861516e-01 2.898878e-02 2.485871e-01 2.092459e-01 1.909692e-01 -2.244993e-01 2.472693e-01 8.911566e-01 1.626755e-01 -3.750201e-01 -2.184546e-01 -3.986420e-01 7.120305e-02 -2.912970e-01 -4.895371e-02 9.880015e-02 9.111700e-02 1.391235e-01 -7.934696e-02 -1.194224e-01 1.024481e+00
<VARIANCE> 39
 2.396129e+01 3.636857e+01 5.253743e+01 5.134254e+01 5.150788e+01 4.875786e+01 3.071303e+01 3.426294e+01 2.846412e+01 2.810239e+01 2.413395e+01 2.237804e+01 4.917023e+01 2.135011e+00 3.250076e+00 4.086075e+00 3.458127e+00 4.288200e+00 4.369073e+00 3.305365e+00 3.195016e+00 2.892333e+00 2.605540e+00 2.395387e+00 1.745101e+00 3.749275e+00 3.658833e-01 4.494009e-01 5.749364e-01 5.253696e-01 7.294475e-01 6.510339e-01 5.483515e-01 5.440482e-01 5.326828e-01 4.714103e-01 4.195148e-01 3.457226e-01 3.609132e-01
<GCONST> 1.233625e+02
<STATE> 4
<MEAN> 39
 -7.818071e+00 -3.510976e+00 -6.063832e+00 -5.309377e+00 1.134205e+00 -6.196712e+00 -3.695247e+00 -5.111301e-01 4.633834e-01 1.060714e+00 -2.445456e+00 -2.444327e+00 5.405862e+01 9.867144e-01 -4.182979e-01 -7.649712e-02 -9.111988e-01 -6.053035e-01 -2.259537e-01 1.301485e-01 2.114364e-01 -8.747846e-02 3.311355e-02 -3.015842e-01 -6.702381e-01 2.128843e+00 5.585082e-01 1.768487e-01 5.037444e-01 -2.013121e-01 -6.580038e-01 3.379599e-01 -4.519071e-03 -3.949068e-02 -2.209204e-01 -1.954375e-01 9.823279e-02 -2.669561e-01 -1.533092e-02
<VARIANCE> 39
 3.208783e+01 3.651338e+01 5.768142e+01 4.463139e+01 5.405487e+01 5.878778e+01 4.969819e+01 3.665660e+01 4.493665e+01 3.937353e+01 3.300982e+01 2.518338e+01 4.261795e+01 4.075192e+00 4.113081e+00 4.896258e+00 4.670885e+00 6.182321e+00 4.930229e+00 4.020999e+00 4.402333e+00 4.063432e+00 3.679103e+00 3.048111e+00 2.837454e+00 3.816711e+00 5.313469e-01 7.007261e-01 7.003788e-01 7.742066e-01 9.609220e-01 8.625590e-01 7.833420e-01 6.278592e-01 6.771927e-01 6.522616e-01 5.861220e-01 4.673888e-01 5.581457e-01
<GCONST> 1.333706e+02
<TRANSP> 5
 0.000000e+00 1.000000e+00 0.000000e+00 0.000000e+00 0.000000e+00
 0.000000e+00 7.621400e-01 2.378600e-01 0.000000e+00 0.000000e+00
 0.000000e+00 0.000000e+00 5.161061e-01 4.838938e-01 0.000000e+00
 0.000000e+00 0.000000e+00 0.000000e+00 6.348923e-01 3.651077e-01
 0.000000e+00 0.000000e+00 0.000000e+00 0.000000e+00 0.000000e+00
<ENDHMM>
~h "l"
<BEGINHMM>
<NUMSTATES> 5
<STATE> 2
<MEAN> 39
 -9.608044e-02 -4.112378e+00 -9.523583e-01 -9.726219e+00 -5.796033e+00 -6.071984e+00 -9.398447e+00 -3.640024e+00 3.582640e+00 1.734621e+00 -2.109646e+00 -4.099537e+00 6.056763e+01 2.996516e-01 2.680259e-02 -5.980669e-02 -8.004006e-02 2.664206e-01 2.054076e-02 -7.243413e-01 -3.801982e-01 4.854094e-01 4.065779e-01 -7.619862e-02 -2.787603e-02 -1.999432e-01 -1.527141e-01 2.044998e-02 -2.966050e-02 -1.268424e-01 6.558261e-02 1.760999e-01 3.033710e-01 2.367562e-01 -2.868151e-01 -1.592065e-01 1.923591e-02 -8.716322e-02 3.762298e-02
<VARIANCE> 39
 1.532001e+01 4.774007e+01 6.807290e+01 6.423660e+01 4.299337e+01 6.797821e+01 4.905098e+01 6.123757e+01 5.937757e+01 5.407594e+01 3.312129e+01 3.432585e+01 3.353023e+01 4.029149e-01 1.196103e+00 2.003478e+00 2.130466e+00 2.272041e+00 2.412215e+00 2.528746e+00 3.004116e+00 2.519577e+00 2.211577e+00 2.008819e+00 1.643836e+00 5.555059e-01 8.071948e-02 1.990025e-01 2.603505e-01 4.281925e-01 3.627980e-01 4.383615e-01 4.723605e-01 5.560241e-01 4.103247e-01 4.426947e-01 3.905912e-01 2.853999e-01 8.637839e-02
<GCONST> 1.121913e+02
<STATE> 3
<MEAN> 39
 1.342701e+00 -2.482958e+00 -5.376863e+00 -1.042084e+01 -4.687891e+00 -2.484150e+00 -8.628689e+00 -2.612430e+00 2.710149e+00 1.055479e+00 -2.063883e+00 -5.416640e+00 5.856292e+01 -7.089560e-02 -1.082978e-01 -1.176388e-01 -1.328209e-01 1.745495e-01 1.646058e-01 1.713798e-01 3.338503e-01 -4.122924e-02 -1.379490e-01 -1.069608e-01 -9.830079e-02 2.135920e-02 -1.296797e-01 -1.049946e-01 -1.340261e-02 3.688437e-02 1.096905e-02 1.304374e-02 2.418503e-01 2.206422e-01 -1.169523e-01 -2.147062e-01 -5.096622e-02 1.346479e-02 8.374138e-02
<VARIANCE> 39
 1.033459e+01 3.972978e+01 8.765271e+01 5.454065e+01 4.210100e+01 5.636416e+01 4.653920e+01 6.781409e+01 4.695453e+01 6.190907e+01 3.720500e+01 2.657839e+01 2.428546e+01 2.251215e-01 9.403082e-01 1.004973e+00 1.592795e+00 1.185928e+00 1.613001e+00 1.439162e+00 1.831591e+00 1.407478e+00 1.389194e+00 1.263472e+00 1.164933e+00 4.880295e-01 5.278591e-02 1.405529e-01 1.705093e-01 2.563493e-01 2.618747e-01 2.741523e-01 3.476876e-01 3.764807e-01 3.217308e-01 3.165827e-01 2.799120e-01 2.104965e-01 5.911607e-02
<GCONST> 1.002875e+02
<STATE> 4
<MEAN> 39
 3.665086e-02 -4.203821e+00 -2.783197e+00 -9.916236e+00 -4.760361e+00 -4.078697e+00 -8.375619e+00 -1.804022e+00 3.203975e+00 5.355453e-01 -2.771537e+00 -4.991714e+00 5.990047e+01 -5.579064e-01 -4.421585e-01 -1.423834e-02 1.267336e-01 1.183870e-01 4.658096e-02 1.052467e+00 1.025013e+00 -5.832827e-01 -8.743615e-01 -1.800889e-01 -5.320211e-02 3.197889e-01 -1.156205e-01 5.546894e-02 9.991343e-02 1.223435e-02 -5.803331e-02 3.114656e-02 1.855740e-01 -6.947488e-03 -2.487243e-01 -5.564619e-02 1.325983e-01 3.938501e-02 -5.301441e-03
<VARIANCE> 39
 1.623302e+01 4.381845e+01 7.397711e+01 5.953362e+01 4.600975e+01 6.319129e+01 5.204506e+01 6.061690e+01 5.205608e+01 6.126744e+01 3.306210e+01 3.701634e+01 4.124398e+01 4.941214e-01 1.756441e+00 2.357314e+00 2.697376e+00 2.762777e+00 3.204370e+00 2.858931e+00 3.714858e+00 2.850528e+00 2.680595e+00 2.703424e+00 1.975190e+00 1.041848e+00 8.768184e-02 1.768985e-01 2.246051e-01 3.748663e-01 3.836745e-01 4.047013e-01 4.719419e-01 4.596287e-01 4.005119e-01 4.427072e-01 3.353711e-01 3.210079e-01 1.087257e-01
<GCONST> 1.153553e+02
<TRANSP> 5
 0.000000e+00 1.000000e+00 0.000000e+00 0.000000e+00 0.000000e+00
 0.000000e+00 3.551615e-01 6.448384e-01 0.000000e+00 0.000000e+00
 0.000000e+00 0.000000e+00 6.065492e-01 3.934507e-01 0.000000e+00
 0.000000e+00 0.000000e+00 0.000000e+00 2.751148e-01 7.248853e-01
 0.000000e+00 0.000000e+00 0.000000e+00 0.000000e+00 0.000000e+00
<ENDHMM>
~h "m"
<BEGINHMM>
<NUMSTATES> 5
<STATE> 2
<MEAN> 39
 2.388250e+00 -9.186323e-03 -1.088109e+00 -5.322515e+00 -3.764513e+00 1.471340e-01 -6.871267e+00 -5.566321e+00 -2.566649e+00 -1.222152e-02 5.349423e-01 -5.762356e+00 5.514875e+01 1.217937e-01 9.296822e-01 1.174283e+00 1.408044e+00 2.194156e-01 3.776922e-01 6.581294e-03 -1.516781e+00 -1.352579e+00 -1.176893e-01 -9.982909e-02 1.282655e-01 -9.855680e-01 -1.452102e-01 -2.124808e-01 -4.375007e-02 -1.860684e-01 -3.807331e-02 -8.371220e-02 9.905104e-02 2.197619e-01 1.032486e-01 -1.082076e-01 -1.257264e-01 -2.976727e-02 2.394629e-01
<VARIANCE> 39
 1.561103e+01 3.430375e+01 4.675470e+01 4.465074e+01 3.884137e+01 3.660285e+01 3.919403e+01 5.227596e+01 3.254112e+01 3.380913e+01 3.221801e+01 2.479065e+01 3.349926e+01 5.047160e-01 1.229386e+00 1.892548e+00 1.859470e+00 1.782869e+00 1.746802e+00 1.947001e+00 2.635119e+00 2.099637e+00 1.803270e+00 2.140610e+00 1.299543e+00 6.425782e-01 7.339443e-02 1.366541e-01 2.664281e-01 2.860436e-01 2.675407e-01 2.552830e-01 2.666299e-01 3.851671e-01 3.370679e-01 2.519324e-01 2.892657e-01 1.883306e-01 7.217883e-02
<GCONST> 1.030101e+02
<STATE> 3
<MEAN> 39
 1.212811e+00 1.126186e-01 2.100418e+00 -3.657642e+00 -2.356301e+00 1.343905e-01 -6.266965e+00 -5.266874e+00 -5.544323e+00 -1.811359e+00 -9.133363e-02 -4.702179e+00 5.409823e+01 7.010832e-02 1.618908e-01 1.442728e-01 9.191708e-02 -1.079197e-01 7.058647e-02 8.653337e-02 -1.197616e-01 -2.574062e-01 -1.142223e-01 -8.002722e-03 5.570323e-02 -1.619618e-01 -1.301617e-02 -1.512601e-01 -2.919616e-01 -3.961325e-01 -1.276738e-01 -9.435549e-02 2.956238e-02 3.184493e-01 3.071715e-01 8.503437e-02 8.220000e-02 1.548746e-02 2.123466e-01
<VARIANCE> 39
 1.535615e+01 4.137849e+01 3.349317e+01 4.568887e+01 4.454228e+01 3.041235e+01 4.477548e+01 7.298075e+01 3.348831e+01 3.984071e+01 3.040495e+01 2.102361e+01 3.045839e+01 2.368377e-01 5.211010e-01 8.286136e-01 1.013091e+00 1.127222e+00 1.087462e+00 1.054312e+00 1.344473e+00 1.315734e+00 1.107279e+00 1.186821e+00 8.501083e-01 2.980602e-01 6.623050e-02 1.333431e-01 2.069469e-01 2.508253e-01 2.414872e-01 2.432149e-01 2.783255e-01 3.611208e-01 3.248864e-01 2.583097e-01 2.869054e-01 1.925239e-01 6.528936e-02
<GCONST> 9.437763e+01
<STATE> 4
<MEAN> 39
 2.340598e+00 7.183696e-01 -2.489665e-01 -4.980308e+00 -4.519322e+00 2.754803e-01 -6.470175e+00 -6.531050e+00 -4.620733e+00 -7.981802e-01 7.542122e-01 -4.895442e+00 5.438916e+01 2.765862e-02 -7.061316e-01 -9.980953e-01 -1.262943e+00 -4.868675e-02 -6.027883e-02 -1.679868e-02 1.045811e+00 8.692587e-01 7.686365e-02 2.022283e-01 -7.591339e-02 8.344032e-01 -1.797753e-01 -2.730498e-01 -8.545914e-02 -2.421176e-01 1.168741e-01 -7.388002e-02 -1.345733e-02 3.588040e-01 2.857257e-01 -1.190421e-02 -1.108269e-01 -6.432254e-02 2.457727e-01
<VARIANCE> 39
 1.736651e+01 3.888918e+01 4.593403e+01 4.936459e+01 4.509032e+01 4.052607e+01 4.470871e+01 6.357043e+01 3.806268e+01 3.721814e+01 3.608798e+01 2.575426e+01 3.767602e+01 9.108828e-01 1.832863e+00 2.957736e+00 2.865796e+00 2.932809e+00 3.027606e+00 2.880996e+00 3.642019e+00 3.142097e+00 2.255272e+00 2.457121e+00 1.862602e+00 1.044936e+00 1.433705e-01 2.489505e-01 4.197718e-01 4.503910e-01 4.129656e-01 3.967588e-01 4.285132e-01 5.724035e-01 5.408071e-01 3.857406e-01 4.170354e-01 2.906559e-01 1.216062e-01
<GCONST> 1.158116e+02
<TRANSP> 5
 0.000000e+00 1.000000e+00 0.000000e+00 0.000000e+00 0.000000e+00
 0.000000e+00 4.423208e-01 5.576792e-01 0.000000e+00 0.000000e+00
 0.000000e+00 0.000000e+00 6.746092e-01 3.253908e-01 0.000000e+00
 0.000000e+00 0.000000e+00 0.000000e+00 5.033852e-01 4.966148e-01
 0.000000e+00 0.000000e+00 0.000000e+00 0.000000e+00 0.000000e+00
<ENDHMM>
~h "n"
<BEGINHMM>
<NUMSTATES> 5
<STATE> 2
<MEAN> 39
 1.089434e+00 -1.803462e+00 2.333991e+00 -3.964674e+00 -6.219887e+00 -5.859182e+00 -7.142651e+00 -7.182353e-01 -1.795617e-01 -9.969091e-01 -2.975582e+00 -4.197853e+00 5.656525e+01 4.604130e-01 1.563468e+00 7.605262e-01 1.316230e+00 -1.771151e-01 3.929788e-01 -3.905591e-01 -1.676741e+00 -1.253610e-01 8.298276e-02 -3.729002e-01 1.331505e-01 -1.496922e+00 -1.435782e-01 -1.174201e-01 -1.890467e-01 -3.098021e-01 4.684692e-02 1.729530e-01 1.914034e-01 9.141115e-02 -1.590389e-02 -5.681692e-02 8.307542e-02 -4.745172e-02 1.898220e-01
<VARIANCE> 39
 1.140475e+01 4.603373e+01 3.588818e+01 3.547344e+01 5.167678e+01 3.467818e+01 3.553206e+01 5.389257e+01 3.831361e+01 3.891366e+01 2.547390e+01 2.495693e+01 3.022281e+01 4.469795e-01 1.226179e+00 1.793105e+00 1.297893e+00 2.159475e+00 2.042480e+00 2.383700e+00 3.422089e+00 2.000826e+00 2.123278e+00 1.895699e+00 1.228455e+00 4.249858e-01 5.737592e-02 1.581313e-01 1.792701e-01 1.924527e-01 2.634830e-01 2.572024e-01 2.841749e-01 4.164377e-01 2.887068e-01 2.743607e-01 2.373191e-01 1.870985e-01 7.272726e-02
<GCONST> 1.014051e+02
<STATE> 3
<MEAN> 39
 3.365210e-01 -8.292992e-01 3.760075e+00 -3.283756e+00 -4.568798e+00 -4.133001e+00 -6.507877e+00 -1.627328e+00 -9.858644e-01 -2.598525e+00 -2.549265e+00 -3.039271e+00 5.371909e+01 1.705847e-02 6.139211e-01 8.717870e-02 3.510557e-01 5.925551e-02 2.447760e-01 8.282024e-02 -3.728978e-01 -1.148407e-01 -9.757373e-03 -3.015772e-02 1.088559e-01 -6.490089e-01 -1.379019e-01 -1.627821e-01 -9.563271e-02 -1.509436e-01 6.452152e-02 -3.552803e-02 8.954190e-02 2.128030e-01 -1.130643e-02 1.636508e-02 6.527769e-02 -1.460223e-02 1.360729e-01
<VARIANCE> 39
 1.411070e+01 4.934959e+01 3.246260e+01 3.606041e+01 5.492728e+01 3.124066e+01 3.183627e+01 4.400169e+01 3.208148e+01 3.628666e+01 2.567013e+01 2.211171e+01 3.045676e+01 2.720241e-01 5.554722e-01 6.805075e-01 7.517255e-01 1.000327e+00 1.053088e+00 1.083864e+00 1.297704e+00 1.108512e+00 1.066613e+00 1.067203e+00 7.988691e-01 2.520011e-01 6.253111e-02 1.254145e-01 1.576490e-01 1.801235e-01 2.268666e-01 2.187301e-01 2.383123e-01 3.175592e-01 2.356748e-01 2.272593e-01 2.345496e-01 1.596398e-01 6.222575e-02
<GCONST> 9.027798e+01
<STATE> 4
<MEAN> 39
 8.611991e-01 1.999515e+00 2.685218e+00 -1.671136e+00 -6.763729e+00 -4.177931e+00 -6.700767e+00 -4.231801e+00 -8.270549e-01 -6.850367e-01 -3.234215e+00 -3.600528e+00 5.220853e+01 -5.005389e-01 -9.244762e-02 -1.716485e-01 -1.717095e-01 5.064811e-01 2.833226e-02 3.070923e-01 4.571193e-01 -1.109310e-01 -8.949953e-02 1.945169e-01 9.536324e-02 -9.214871e-02 -2.869494e-01 -2.648923e-01 -8.756255e-02 -3.368988e-01 1.142238e-01 -4.484637e-02 1.205115e-01 2.961346e-01 -2.385303e-02 -6.989387e-02 1.524571e-01 6.010159e-03 3.158384e-01
<VARIANCE> 39
 1.551071e+01 4.332896e+01 3.690453e+01 3.905308e+01 5.496553e+01 3.378753e+01 3.886898e+01 5.567812e+01 3.945008e+01 4.607510e+01 3.194290e+01 2.503871e+01 3.811836e+01 8.080339e-01 1.840023e+00 1.636481e+00 1.952521e+00 2.354096e+00 2.079517e+00 2.086691e+00 3.037757e+00 2.091111e+00 1.926149e+00 1.906360e+00 1.308152e+00 1.353306e+00 2.065952e-01 3.383477e-01 3.723997e-01 3.867880e-01 5.258847e-01 4.059438e-01 4.295268e-01 5.985066e-01 4.107215e-01 4.006064e-01 3.902198e-01 2.549393e-01 1.888013e-01
<GCONST> 1.128202e+02
<TRANSP> 5
 0.000000e+00 1.000000e+00 0.000000e+00 0.000000e+00 0.000000e+00
 0.000000e+00 3.768830e-01 6.231169e-01 0.000000e+00 0.000000e+00
 0.000000e+00 0.000000e+00 7.301766e-01 2.698235e-01 0.000000e+00
 0.000000e+00 0.000000e+00 0.000000e+00 4.941527e-01 5.058473e-01
 0.000000e+00 0.000000e+00 0.000000e+00 0.000000e+00 0.000000e+00
<ENDHMM>
~h "o"
<BEGINHMM>
<NUMSTATES> 5
<STATE> 2
<MEAN> 39
 3.370601e-01 -1.312922e+00 -7.883594e+00 -1.425685e+01 -4.997720e+00 3.020518e+00 -4.333399e+00 -2.591276e+00 -1.484346e+00 4.412939e-01 1.546264e+00 -3.671115e+00 5.573058e+01 1.161062e+00 -6.144791e-01 -6.399332e-01 -2.019304e+00 -3.344636e-01 9.098287e-01 -2.585601e-01 -2.494413e-01 -2.103606e-01 2.028241e-01 4.518104e-01 -5.230658e-01 1.587578e+00 -2.923310e-01 -3.853888e-03 2.337308e-01 4.996485e-01 1.559475e-01 -1.678001e-01 -1.486201e-02 7.145640e-03 4.370049e-02 -8.512767e-02 -9.877345e-02 -1.257785e-03 -2.770400e-01
<VARIANCE> 39
 3.408810e+01 3.941215e+01 4.649138e+01 1.081185e+02 5.297922e+01 5.960480e+01 7.171032e+01 4.152772e+01 5.745179e+01 4.898562e+01 3.921000e+01 2.759340e+01 7.837685e+01 2.598902e+00 2.719198e+00 3.062994e+00 6.738702e+00 3.494414e+00 3.774715e+00 3.783115e+00 3.180066e+00 3.654619e+00 3.098229e+00 2.767410e+00 2.121914e+00 3.447086e+00 4.819617e-01 5.251143e-01 5.152676e-01 1.253093e+00 5.565550e-01 6.729262e-01 7.053672e-01 5.663517e-01 6.542820e-01 5.147738e-01 4.804011e-01 3.914441e-01 7.008813e-01
<GCONST> 1.314082e+02
<STATE> 3
<MEAN> 39
 1.406850e+00 -3.647317e+00 -6.862977e+00 -1.769034e+01 -3.596985e+00 2.338490e+00 -5.147762e+00 -1.753714e+00 -2.736015e+00 8.789772e-01 2.328431e+00 -4.909212e+00 6.047013e+01 6.627416e-03 -6.596340e-02 1.560618e-01 3.188797e-01 1.000078e-01 -1.551636e-01 -2.500277e-01 1.577369e-02 1.407827e-01 -5.369713e-02 -1.502076e-02 -9.097193e-02 -1.105896e-01 -1.292417e-01 1.895721e-01 2.130164e-01 5.791915e-01 6.512558e-02 -2.788016e-01 -5.214299e-02 -4.567377e-02 1.322705e-01 -1.123074e-01 -1.861337e-01 1.464301e-01 -3.208403e-01
<VARIANCE> 39
 1.434208e+01 3.405472e+01 4.576730e+01 6.266228e+01 5.889090e+01 3.848885e+01 5.145239e+01 4.318874e+01 5.100751e+01 4.989652e+01 5.085373e+01 2.469276e+01 2.363956e+01 3.081062e-01 9.404201e-01 8.822043e-01 2.469691e+00 1.307531e+00 1.837065e+00 1.823198e+00 1.567330e+00 2.005326e+00 1.516896e+00 1.440829e+00 1.219102e+00 5.630346e-01 1.172978e-01 1.815237e-01 1.969655e-01 3.660685e-01 3.064123e-01 2.956079e-01 2.953272e-01 3.215759e-01 3.576552e-01 3.112285e-01 3.177681e-01 2.511821e-01 1.425374e-01
<GCONST> 1.040636e+02
<STATE> 4
<MEAN> 39
 2.233248e+00 -2.546921e+00 -6.354775e+00 -1.177687e+01 -4.272089e+00 -1.397780e-01 -7.893662e+00 -3.276934e+00 -4.649120e-01 4.584100e-01 1.522138e+00 -4.173379e+00 5.710041e+01 -2.825114e-01 9.017019e-01 9.323221e-01 1.883291e+00 5.008700e-01 -5.107502e-01 -4.388424e-02 -1.144604e-01 2.211168e-01 -3.318448e-01 -7.437003e-01 3.398032e-01 -1.431278e+00 -1.811861e-01 1.708660e-01 7.981620e-02 3.050723e-02 4.300034e-02 1.549015e-01 2.652056e-01 -9.667223e-03 -1.375784e-01 -3.491259e-02 -4.157056e-02 2.298389e-03 -1.636601e-01
<VARIANCE> 39
 1.379395e+01 3.702743e+01 3.856961e+01 5.902859e+01 5.557718e+01 5.852362e+01 5.154401e+01 4.393637e+01 5.665282e+01 4.679537e+01 4.624777e+01 3.191742e+01 3.878376e+01 7.553793e-01 1.203805e+00 1.352581e+00 1.901955e+00 2.580298e+00 2.623024e+00 2.446932e+00 2.579860e+00 2.911017e+00 2.181695e+00 2.427653e+00 1.629603e+00 8.604077e-01 1.276163e-01 2.482755e-01 2.231539e-01 4.143250e-01 4.053341e-01 4.798699e-01 3.827853e-01 4.242108e-01 4.991246e-01 4.213168e-01 3.889173e-01 3.019085e-01 1.500460e-01
<GCONST> 1.130859e+02
<TRANSP> 5
 0.000000e+00 1.000000e+00 0.000000e+00 0.000000e+00 0.000000e+00
 0.000000e+00 6.049697e-01 3.950303e-01 0.000000e+00 0.000000e+00
 0.000000e+00 0.000000e+00 7.318034e-01 2.681966e-01 0.000000e+00
 0.000000e+00 0.000000e+00 0.000000e+00 5.742565e-01 4.257435e-01
 0.000000e+00 0.000000e+00 0.000000e+00 0.000000e+00 0.000000e+00
<ENDHMM>
~h "p"
<BEGINHMM>
<NUMSTATES> 5
<STATE> 2
<MEAN> 39
 -4.996116e+00 -2.843665e-01 -2.238951e+00 -4.401588e+00 -1.839612e+00 -8.563791e-01 -3.143532e+00 -9.887928e-01 -7.396886e-02 3.078494e-02 -5.722117e-01 -3.092185e+00 4.705285e+01 -6.546139e-01 1.421017e-01 -5.838691e-02 3.849197e-01 6.750566e-02 -4.440757e-02 2.213606e-01 -2.222695e-02 6.929164e-02 -5.401554e-02 -5.340818e-02 2.615055e-01 -8.829912e-01 6.192128e-02 -1.244699e-01 -4.159540e-02 -1.429274e-01 -6.248480e-02 -5.037184e-02 -3.213052e-02 2.289364e-02 -2.268961e-02 4.356440e-03 7.279431e-02 -4.187469e-02 3.788304e-01
<VARIANCE> 39
 2.163984e+01 3.028842e+01 3.563879e+01 4.180018e+01 3.440008e+01 3.359317e+01 2.444613e+01 2.803220e+01 2.510513e+01 2.333995e+01 1.973433e+01 2.059516e+01 4.068248e+01 5.873652e-01 5.673751e-01 8.443873e-01 1.044941e+00 1.071049e+00 1.289086e+00 1.341203e+00 1.530846e+00 1.320425e+00 1.282757e+00 1.250931e+00 9.639983e-01 8.797460e-01 1.075312e-01 1.412264e-01 1.898579e-01 2.465391e-01 2.332105e-01 2.635373e-01 2.918390e-01 3.159482e-01 2.933046e-01 2.793265e-01 2.635944e-01 1.986627e-01 1.644192e-01
<GCONST> 9.586257e+01
<STATE> 3
<MEAN> 39
 -6.027408e+00 9.955129e-01 -1.130463e+00 -3.371945e+00 -2.706023e+00 -1.967541e+00 -3.135234e+00 -1.554500e+00 -3.884438e-01 -4.478576e-01 -5.970208e-01 -2.291130e+00 4.668696e+01 1.504480e-01 -5.501962e-01 -7.098899e-01 -7.200748e-01 -6.174394e-02 -2.500808e-01 9.482898e-02 -7.711839e-02 8.235845e-03 1.594987e-01 2.995239e-01 -1.823643e-01 1.674653e+00 6.495586e-01 -3.872728e-01 -2.051519e-01 -7.153492e-01 -1.688512e-01 6.633633e-02 -2.770477e-01 1.434793e-02 -3.294517e-02 2.560535e-01 4.776389e-02 -3.614641e-01 1.074059e+00
<VARIANCE> 39
 2.349244e+01 3.526293e+01 3.805591e+01 4.203861e+01 3.638301e+01 3.672736e+01 2.543472e+01 2.867124e+01 2.460209e+01 2.398189e+01 2.030818e+01 1.956985e+01 4.075160e+01 2.849342e+00 2.402207e+00 3.056333e+00 3.492421e+00 2.771015e+00 3.454990e+00 2.716337e+00 2.963906e+00 2.604035e+00 2.445942e+00 2.262266e+00 1.692808e+00 2.984115e+00 3.251982e-01 4.507713e-01 5.561357e-01 5.398625e-01 5.445989e-01 6.160040e-01 4.903546e-01 5.371123e-01 4.800200e-01 4.578305e-01 4.157166e-01 3.232187e-01 3.336573e-01
<GCONST> 1.183906e+02
<STATE> 4
<MEAN> 39
 -2.853230e+00 -2.565737e+00 -4.603039e+00 -8.699806e+00 -2.880038e+00 -1.626249e+00 -3.719811e+00 -2.374711e+00 -5.695779e-01 1.130656e+00 4.900312e-01 -4.880045e+00 5.556104e+01 1.636542e+00 -1.704764e+00 -9.703478e-01 -2.306068e+00 -3.635337e-01 4.365614e-01 -6.697209e-01 3.521464e-01 -5.390164e-04 7.739553e-01 1.379098e-01 -1.293432e+00 3.504678e+00 4.691548e-02 -9.641601e-02 3.769373e-01 1.062183e-01 -5.206367e-02 -4.712192e-02 -1.311271e-01 2.484864e-01 4.140519e-02 -1.060666e-01 -2.503897e-01 1.024118e-02 -1.771132e-01
<VARIANCE> 39
 2.915248e+01 3.367671e+01 3.096378e+01 5.290495e+01 2.420412e+01 5.003500e+01 3.351187e+01 2.919367e+01 2.942341e+01 2.932524e+01 2.418429e+01 2.453084e+01 4.633729e+01 3.128857e+00 4.487139e+00 5.554306e+00 5.677744e+00 4.258816e+00 5.243602e+00 4.066542e+00 5.541542e+00 4.537304e+00 3.808167e+00 3.674067e+00 3.151662e+00 3.262297e+00 5.200338e-01 5.566288e-01 5.134155e-01 9.137484e-01 6.605203e-01 7.789923e-01 5.202890e-01 5.510767e-01 5.222306e-01 5.128796e-01 4.871476e-01 4.388270e-01 5.666733e-01
<GCONST> 1.283915e+02
<TRANSP> 5
 0.000000e+00 1.000000e+00 0.000000e+00 0.000000e+00 0.000000e+00
 0.000000e+00 7.899970e-01 2.100030e-01 0.000000e+00 0.000000e+00
 0.000000e+00 0.000000e+00 5.503423e-01 4.496578e-01 0.000000e+00
 0.000000e+00 0.000000e+00 0.000000e+00 3.881266e-01 6.118734e-01
 0.000000e+00 0.000000e+00 0.000000e+00 0.000000e+00 0.000000e+00
<ENDHMM>
~h "r"
<BEGINHMM>
<NUMSTATES> 5
<STATE> 2
<MEAN> 39
 -7.713970e-01 -4.397769e+00 -1.136004e+00 -5.344203e+00 -5.964835e+00 -7.041043e+00 -5.464397e+00 1.806931e+00 2.695554e+00 -1.342473e-03 -1.601973e+00 -3.648760e+00 5.765699e+01 -5.839555e-01 4.987201e-01 5.512917e-01 9.913236e-01 4.308051e-01 -4.634132e-02 9.297036e-02 -1.644102e-01 -2.829292e-03 -3.113251e-01 1.992753e-01 4.493267e-01 -1.090082e+00 -9.669527e-02 -5.958914e-02 2.067123e-02 -3.197004e-01 1.664671e-02 1.248680e-01 8.293515e-02 -8.660145e-02 -2.834788e-01 -1.631368e-02 9.574787e-02 -2.505691e-02 2.367845e-01
<VARIANCE> 39
 1.802360e+01 3.520667e+01 3.904044e+01 4.397379e+01 6.527540e+01 5.102151e+01 4.612159e+01 4.035667e+01 3.800149e+01 3.625023e+01 2.879373e+01 2.247010e+01 3.387658e+01 1.425580e+00 2.065997e+00 2.121101e+00 2.317784e+00 3.102487e+00 2.811692e+00 2.566423e+00 2.611809e+00 2.377067e+00 2.234787e+00 2.076765e+00 1.714265e+00 9.421794e-01 1.740643e-01 2.211360e-01 2.553091e-01 3.357578e-01 4.074226e-01 3.837169e-01 3.540685e-01 4.231043e-01 3.435700e-01 3.226948e-01 3.470117e-01 2.557009e-01 1.537559e-01
<GCONST> 1.121008e+02
<STATE> 3
<MEAN> 39
 -3.444791e+00 -3.363713e+00 -1.801139e-01 -4.323346e+00 -3.758261e+00 -5.967741e+00 -4.311716e+00 1.345936e+00 2.013867e+00 -1.285349e+00 -7.915109e-01 -2.602849e+00 5.570992e+01 -1.652401e-01 7.758857e-02 4.971934e-01 1.499017e-01 -8.601891e-02 -2.729661e-02 1.149342e-01 -1.082532e-01 -4.796769e-01 -1.753556e-01 2.570144e-01 2.312252e-01 -9.010690e-02 2.904543e-01 -1.643935e-01 -7.052337e-02 -4.294582e-01 -3.370167e-01 4.232170e-02 -8.595379e-02 9.531129e-03 -1.887968e-01 1.690435e-01 -2.913917e-04 -1.961582e-01 4.689368e-01
<VARIANCE> 39
 2.395164e+01 3.256549e+01 3.426102e+01 3.953328e+01 4.934859e+01 4.489150e+01 3.913512e+01 3.361943e+01 3.475402e+01 3.040901e+01 2.502609e+01 2.184409e+01 4.059307e+01 1.463465e+00 1.627066e+00 1.976603e+00 1.813689e+00 2.579643e+00 2.328019e+00 2.064589e+00 2.465515e+00 2.050848e+00 1.861611e+00 1.802945e+00 1.429152e+00 9.934281e-01 3.471137e-01 4.361265e-01 4.054974e-01 5.111804e-01 6.068895e-01 5.319309e-01 4.733613e-01 5.438994e-01 4.159835e-01 4.460008e-01 4.561866e-01 3.435331e-01 2.182479e-01
<GCONST> 1.142382e+02
<STATE> 4
<MEAN> 39
 -1.394451e+00 -3.099677e+00 8.398427e-01 -4.909629e+00 -6.734664e+00 -7.743420e+00 -5.200774e+00 6.484713e-02 9.887436e-01 2.347309e-01 -1.227906e+00 -2.738903e+00 5.843578e+01 2.178629e-01 1.531959e-01 2.527038e-01 -2.419970e-01 -4.075917e-01 1.375517e-01 -1.023087e-01 -1.831320e-01 -4.538597e-01 1.311118e-01 8.620920e-02 -1.234533e-01 1.067400e-01 -7.288881e-02 6.644277e-02 -7.541032e-02 -1.588330e-01 7.081620e-02 1.732790e-01 3.590505e-03 -1.049387e-02 3.319664e-03 3.470239e-03 -6.122702e-02 -9.889182e-02 -1.556796e-02
<VARIANCE> 39
 2.587275e+01 4.496738e+01 5.208665e+01 4.296083e+01 5.681886e+01 4.912856e+01 4.668170e+01 4.689997e+01 4.048792e+01 3.580380e+01 3.197029e+01 2.384873e+01 3.605295e+01 2.034046e+00 2.570220e+00 2.676802e+00 2.383850e+00 3.486006e+00 2.558114e+00 2.526878e+00 3.092350e+00 2.207445e+00 2.217976e+00 2.337912e+00 1.643919e+00 2.065655e+00 2.783872e-01 3.661515e-01 3.398415e-01 4.393048e-01 5.420914e-01 4.758025e-01 4.419492e-01 4.814608e-01 3.838625e-01 3.923272e-01 3.732982e-01 3.069217e-01 2.722917e-01
<GCONST> 1.185389e+02
<TRANSP> 5
 0.000000e+00 1.000000e+00 0.000000e+00 0.000000e+00 0.000000e+00
 0.000000e+00 2.178929e-01 7.821071e-01 0.000000e+00 0.000000e+00
 0.000000e+00 0.000000e+00 2.814158e-01 7.185841e-01 0.000000e+00
 0.000000e+00 0.000000e+00 0.000000e+00 4.278024e-01 5.721977e-01
 0.000000e+00 0.000000e+00 0.000000e+00 0.000000e+00 0.000000e+00
<ENDHMM>
~h "s"
<BEGINHMM>
<NUMSTATES> 5
<STATE> 2
<MEAN> 39
 -9.977929e+00 3.949948e+00 -1.693040e+00 -3.249444e+00 -1.181236e+00 -7.554938e+00 -8.848036e-01 -4.004196e-01 4.265015e-01 -2.106489e+00 -1.562548e+00 -2.397921e+00 5.689095e+01 -3.397304e+00 1.924237e+00 -1.046226e+00 9.430900e-01 9.265484e-01 -4.002630e-01 9.909219e-01 1.125809e-01 1.710287e-01 -4.689455e-01 5.365423e-01 1.941962e-01 -1.561263e-01 -1.091645e-01 -2.750147e-01 -9.162744e-02 -3.072556e-01 -1.466143e-01 1.004698e-01 -2.048893e-01 -2.724540e-02 -1.566131e-01 5.210943e-02 3.316838e-02 -5.989877e-02 3.858854e-02
<VARIANCE> 39
 4.639854e+01 4.456649e+01 4.918068e+01 3.665919e+01 5.833735e+01 4.431382e+01 4.717439e+01 4.466395e+01 4.321167e+01 3.882316e+01 3.047582e+01 2.162753e+01 4.054841e+01 1.849739e+00 2.774999e+00 2.796201e+00 3.499409e+00 3.422521e+00 3.192933e+00 2.788768e+00 2.976249e+00 2.355708e+00 2.568213e+00 2.112117e+00 1.801179e+00 9.232345e-01 6.596324e-01 4.273857e-01 3.767250e-01 3.924924e-01 4.898016e-01 4.593336e-01 4.233032e-01 4.425762e-01 3.974219e-01 3.970864e-01 3.497734e-01 2.790258e-01 1.067359e-01
<GCONST> 1.186633e+02
<STATE> 3
<MEAN> 39
 -1.896305e+01 5.487328e+00 -4.557000e+00 -1.980791e+00 -2.632492e-01 -6.783474e+00 1.123156e+00 1.582954e-02 -2.014062e-01 -2.400798e+00 4.633996e-01 -1.085547e+00 5.321498e+01 -5.620422e-01 -2.317698e-01 -9.432954e-02 4.526987e-03 -3.816945e-02 1.985048e-02 1.815190e-01 5.973440e-03 -6.097092e-02 -3.044811e-05 1.046582e-01 1.500609e-01 -3.514373e-01 6.292554e-01 -2.907174e-01 2.263917e-01 -9.215732e-02 -1.458224e-01 -1.364317e-02 -7.335577e-02 -2.842942e-03 2.531514e-02 7.402278e-02 -8.330629e-02 -2.284272e-02 9.365931e-03
<VARIANCE> 39
 2.656935e+01 4.352204e+01 3.876484e+01 2.907657e+01 3.676296e+01 4.553708e+01 4.025455e+01 3.315789e+01 3.367020e+01 3.251689e+01 2.188735e+01 1.997787e+01 6.247631e+01 1.376468e+00 1.070637e+00 1.110361e+00 1.070986e+00 1.270329e+00 1.430208e+00 1.447184e+00 1.537621e+00 1.498550e+00 1.396313e+00 1.218099e+00 9.974924e-01 4.192407e-01 3.484298e-01 2.583111e-01 2.322907e-01 2.694749e-01 2.932488e-01 3.160958e-01 3.288601e-01 3.266333e-01 3.094922e-01 3.142042e-01 2.631702e-01 2.235878e-01 8.747590e-02
<GCONST> 1.022244e+02
<STATE> 4
<MEAN> 39
 -1.647854e+01 3.534301e+00 -3.770756e+00 -2.670480e+00 -1.212616e+00 -8.150684e+00 1.016938e+00 -7.054315e-02 6.692017e-01 -2.002898e+00 -3.433945e-01 -1.053088e+00 5.391597e+01 2.678761e+00 -8.211648e-01 5.183521e-01 -6.120860e-01 -9.616306e-01 -1.989965e-01 -7.920462e-01 -2.132840e-01 1.114885e-01 1.384391e-01 -5.236577e-01 -3.718332e-01 6.887490e-01 5.655468e-01 -4.622851e-02 9.408210e-02 -2.569968e-01 -1.946586e-01 6.688592e-02 -3.629301e-01 -7.308637e-02 -5.698867e-02 4.736068e-02 -5.598633e-02 -1.670632e-01 3.412078e-01
<VARIANCE> 39
 5.222758e+01 3.164996e+01 3.702638e+01 3.036301e+01 3.990509e+01 4.475942e+01 3.891233e+01 3.048964e+01 3.407095e+01 2.989348e+01 2.362159e+01 1.858864e+01 4.241570e+01 4.974718e+00 3.311598e+00 3.277233e+00 2.926351e+00 3.461792e+00 3.413228e+00 3.560608e+00 3.345505e+00 2.635580e+00 2.748068e+00 2.479323e+00 1.862241e+00 2.507579e+00 7.957574e-01 4.516853e-01 3.979179e-01 4.537973e-01 5.200061e-01 5.386632e-01 5.568113e-01 5.189988e-01 4.323963e-01 4.374038e-01 4.283778e-01 3.093665e-01 2.725530e-01
<GCONST> 1.216409e+02
<TRANSP> 5
 0.000000e+00 1.000000e+00 0.000000e+00 0.000000e+00 0.000000e+00
 0.000000e+00 6.778857e-01 3.221143e-01 0.000000e+00 0.000000e+00
 0.000000e+00 0.000000e+00 8.116628e-01 1.883372e-01 0.000000e+00
 0.000000e+00 0.000000e+00 0.000000e+00 7.109501e-01 2.890499e-01
 0.000000e+00 0.000000e+00 0.000000e+00 0.000000e+00 0.000000e+00
<ENDHMM>
~h "t"
<BEGINHMM>
<NUMSTATES> 5
<STATE> 2
<MEAN> 39
 -6.826110e+00 -3.639447e-01 -1.460689e+00 -3.063912e+00 -3.139903e+00 -3.426967e+00 -3.037343e+00 -7.398541e-02 4.661115e-02 -6.755190e-01 -1.359254e+00 -2.371426e+00 4.611469e+01 -4.985877e-01 4.974120e-02 -1.458051e-01 2.221968e-01 1.170382e-01 3.236068e-01 1.844461e-01 -3.313937e-02 -3.214805e-02 -1.729321e-02 1.058828e-01 1.972619e-01 -9.311476e-01 -3.601103e-02 -1.299921e-01 -2.848180e-02 -1.520481e-01 -2.688326e-02 -1.483339e-01 1.488429e-02 1.427259e-02 -9.855985e-03 -2.290424e-02 4.736768e-02 3.730030e-03 3.712130e-01
<VARIANCE> 39
 2.777807e+01 3.559983e+01 4.164832e+01 3.870480e+01 3.925983e+01 3.881820e+01 2.926282e+01 3.755519e+01 3.111501e+01 2.646006e+01 2.390393e+01 2.380661e+01 5.190656e+01 6.238808e-01 6.777730e-01 9.365163e-01 1.099749e+00 1.307414e+00 1.569277e+00 1.395300e+00 1.607739e+00 1.427280e+00 1.453767e+00 1.248131e+00 1.029752e+00 1.264729e+00 1.118741e-01 1.667780e-01 2.090755e-01 2.547692e-01 2.758963e-01 3.612107e-01 2.913071e-01 3.459336e-01 3.006430e-01 2.994627e-01 2.595628e-01 2.051119e-01 2.222075e-01
<GCONST> 1.008486e+02
<STATE> 3
<MEAN> 39
 -5.858730e+00 2.068587e+00 2.337157e-01 -2.665484e+00 -3.874807e+00 -4.309905e+00 -4.200658e+00 -2.123703e+00 -8.586481e-01 -5.402964e-01 -1.243687e+00 -2.564888e+00 4.643998e+01 -1.069492e+00 -7.985524e-01 -7.453104e-01 -6.165093e-01 3.764304e-01 -7.687269e-01 5.877402e-01 4.892661e-02 1.709526e-01 -2.816092e-01 2.855613e-01 2.498010e-01 1.264615e+00 2.613114e-01 -2.884533e-01 -8.798139e-02 -5.665250e-01 -9.761532e-02 -3.415476e-01 -1.455093e-01 8.491080e-02 1.832370e-01 2.907553e-02 -7.602063e-02 -1.692968e-01 1.154141e+00
<VARIANCE> 39
 2.193302e+01 3.469757e+01 4.814333e+01 4.441767e+01 4.522821e+01 4.080224e+01 2.806102e+01 3.473419e+01 2.876933e+01 2.557829e+01 2.491140e+01 2.217718e+01 4.311797e+01 1.680099e+00 2.279779e+00 3.176911e+00 3.013265e+00 3.492571e+00 3.788575e+00 2.857258e+00 3.123395e+00 2.542977e+00 2.508321e+00 2.373650e+00 1.645126e+00 3.460181e+00 3.292775e-01 3.943965e-01 6.048734e-01 5.424083e-01 6.028629e-01 5.897945e-01 5.337908e-01 6.639620e-01 4.869070e-01 4.890294e-01 4.648424e-01 3.405150e-01 3.828138e-01
<GCONST> 1.204258e+02
<STATE> 4
<MEAN> 39
 -8.582859e+00 -1.645587e+00 -2.643910e+00 -6.227608e+00 -2.598781e+00 -7.690450e+00 -1.988219e+00 -1.250209e+00 6.866754e-01 -1.365037e+00 -5.482730e-01 -2.393485e+00 5.396624e+01 8.781887e-01 -6.052842e-01 -2.295189e-01 -1.535662e+00 -2.394294e-01 -6.704980e-01 -5.739560e-01 2.658786e-01 4.355531e-01 8.141317e-02 -2.336428e-01 -5.644637e-01 2.939186e+00 6.781707e-01 9.710733e-02 3.326710e-01 -1.478755e-01 -2.388887e-01 4.402777e-01 -4.776027e-01 3.032300e-02 -1.269242e-01 1.707756e-01 -1.126137e-01 -2.189783e-01 -3.056651e-02
<VARIANCE> 39
 2.288786e+01 2.537069e+01 3.759413e+01 3.454176e+01 3.736327e+01 4.390962e+01 3.361175e+01 3.032923e+01 3.303205e+01 2.855957e+01 2.620490e+01 2.238706e+01 5.063544e+01 3.413793e+00 3.862448e+00 6.305362e+00 4.964018e+00 5.023829e+00 5.227952e+00 4.456868e+00 6.152891e+00 4.005446e+00 3.614611e+00 3.522086e+00 2.698359e+00 4.421434e+00 4.229420e-01 5.523357e-01 6.241547e-01 6.924629e-01 7.184417e-01 8.026201e-01 6.651973e-01 7.050686e-01 5.445952e-01 5.624828e-01 5.548887e-01 4.208641e-01 6.568862e-01
<GCONST> 1.290435e+02
<TRANSP> 5
 0.000000e+00 1.000000e+00 0.000000e+00 0.000000e+00 0.000000e+00
 0.000000e+00 7.610482e-01 2.389517e-01 0.000000e+00 0.000000e+00
 0.000000e+00 0.000000e+00 4.413387e-01 5.586613e-01 0.000000e+00
 0.000000e+00 0.000000e+00 0.000000e+00 4.988146e-01 5.011854e-01
 0.000000e+00 0.000000e+00 0.000000e+00 0.000000e+00 0.000000e+00
<ENDHMM>
~h "u"
<BEGINHMM>
<NUMSTATES> 5
<STATE> 2
<MEAN> 39
 4.212674e-01 3.862831e+00 -1.693266e+00 -1.002184e+01 -5.867350e+00 -4.916187e+00 -9.586559e+00 -4.479383e+00 -2.700633e+00 -3.633457e-01 2.391106e-01 -2.079273e+00 5.542577e+01 1.271363e+00 4.311230e-01 -4.886546e-01 -1.778855e+00 -5.770714e-01 7.624263e-01 -1.033542e+00 -7.571748e-01 -6.967135e-01 3.738890e-01 7.675158e-01 1.651714e-01 7.294080e-01 -3.035798e-01 -8.181071e-02 8.583774e-02 2.052655e-01 2.105217e-01 2.977621e-01 3.196348e-01 4.654786e-02 -1.622722e-02 3.357605e-02 -1.301135e-03 -5.497099e-02 -2.714901e-01
<VARIANCE> 39
 2.387699e+01 4.493216e+01 4.350663e+01 6.698955e+01 5.096172e+01 5.229944e+01 5.581020e+01 5.326467e+01 5.153709e+01 4.768243e+01 3.402384e+01 2.464261e+01 4.071189e+01 2.634750e+00 2.289735e+00 3.087336e+00 4.461480e+00 4.078880e+00 4.199332e+00 4.142491e+00 4.016237e+00 3.513556e+00 3.170569e+00 3.104862e+00 2.207506e+00 1.697714e+00 3.634298e-01 4.347597e-01 3.787422e-01 7.340893e-01 5.842426e-01 6.414150e-01 7.887306e-01 6.560736e-01 6.511647e-01 5.418187e-01 4.633015e-01 3.947565e-01 3.427381e-01
<GCONST> 1.271230e+02
<STATE> 3
<MEAN> 39
 1.715254e+00 2.537809e+00 -2.881519e+00 -1.484045e+01 -5.545594e+00 -4.671591e-01 -1.142698e+01 -7.047474e+00 -4.031329e+00 1.295936e+00 3.613732e+00 -2.154730e+00 5.814310e+01 -6.204268e-03 -3.128593e-01 -1.494073e-03 -1.007500e-01 3.535015e-01 2.775306e-01 -2.114599e-01 -1.209686e-01 2.212262e-01 4.801497e-01 5.729505e-02 -3.898515e-01 1.168895e-01 -3.458492e-01 -3.888949e-02 2.786525e-01 8.482056e-01 1.686492e-01 -3.713881e-01 4.221295e-01 3.675674e-01 3.047492e-01 -2.468196e-01 -4.968366e-01 -1.009372e-01 -3.993078e-01
<VARIANCE> 39
 1.897395e+01 4.042950e+01 4.257465e+01 7.369892e+01 5.535791e+01 6.077620e+01 5.686210e+01 6.819938e+01 6.320003e+01 6.498614e+01 4.925943e+01 3.639435e+01 2.975682e+01 7.353972e-01 2.511987e+00 1.797588e+00 4.719890e+00 2.866425e+00 3.686429e+00 3.453056e+00 3.352323e+00 4.699171e+00 3.008081e+00 2.967753e+00 2.570101e+00 1.449032e+00 2.516468e-01 3.395349e-01 3.729120e-01 6.125289e-01 6.030648e-01 6.580792e-01 7.278889e-01 6.957891e-01 7.287514e-01 6.239440e-01 5.897993e-01 5.256310e-01 1.874285e-01
<GCONST> 1.253956e+02
<STATE> 4
<MEAN> 39
 7.815721e-01 3.111199e+00 -2.079517e+00 -1.374307e+01 -3.788119e+00 -2.909342e+00 -9.837581e+00 -4.817272e+00 -5.062482e+00 8.466387e-01 6.847498e-01 -1.921137e+00 5.565208e+01 -2.552516e-01 4.048296e-02 3.090390e-01 8.959338e-01 1.725416e-01 -1.424169e-01 4.102384e-01 2.755592e-01 3.394390e-01 -1.701727e-01 -4.233705e-01 -1.028964e-01 -6.890211e-01 -1.561712e-01 -3.086041e-03 6.931397e-02 2.351087e-01 7.642955e-04 -7.673389e-02 9.732059e-02 1.652644e-02 7.204925e-02 -6.737864e-02 -5.287654e-02 4.076765e-02 -9.907521e-02
<VARIANCE> 39
 1.468889e+01 3.809238e+01 4.666908e+01 7.344687e+01 4.693109e+01 4.456422e+01 4.523674e+01 4.674599e+01 5.744057e+01 5.879606e+01 4.301809e+01 3.252486e+01 3.391477e+01 6.537138e-01 1.281110e+00 1.292498e+00 2.625148e+00 1.770485e+00 2.128550e+00 2.046188e+00 2.166417e+00 2.208746e+00 1.843291e+00 2.009006e+00 1.452048e+00 1.082744e+00 1.228979e-01 1.891524e-01 2.170309e-01 3.733433e-01 3.358643e-01 3.648462e-01 3.673367e-01 3.829497e-01 4.384501e-01 3.552110e-01 3.466715e-01 2.824598e-01 1.087290e-01
<GCONST> 1.100154e+02
<TRANSP> 5
 0.000000e+00 1.000000e+00 0.000000e+00 0.000000e+00 0.000000e+00
 0.000000e+00 4.521018e-01 5.478982e-01 0.000000e+00 0.000000e+00
 0.000000e+00 0.000000e+00 4.754002e-01 5.245998e-01 0.000000e+00
 0.000000e+00 0.000000e+00 0.000000e+00 6.815841e-01 3.184159e-01
 0.000000e+00 0.000000e+00 0.000000e+00 0.000000e+00 0.000000e+00
<ENDHMM>
~h "v"
<BEGINHMM>
<NUMSTATES> 5
<STATE> 2
<MEAN> 39
 -4.627739e+00 -6.242144e-01 8.731930e-02 -1.792404e+00 -3.820483e+00 -1.817600e+00 -9.912234e-01 2.756937e+00 1.241514e+00 -1.219526e+00 -2.187742e+00 -3.481418e+00 5.390454e+01 -1.741338e+00 5.621427e-01 -8.818845e-01 7.857575e-01 1.037525e-01 -3.335876e-01 3.363884e-01 -5.240222e-02 2.013087e-01 -3.641743e-01 -5.123439e-02 4.516272e-01 -9.710252e-01 -1.558172e-01 -1.901700e-01 -7.240298e-02 -2.500775e-01 -1.907517e-01 -2.362414e-01 -2.393584e-01 -2.165818e-01 -1.296844e-01 -8.799689e-02 6.814225e-02 -1.162086e-01 2.547738e-01
<VARIANCE> 39
 1.317945e+01 2.546951e+01 5.071542e+01 2.669512e+01 3.776058e+01 2.806213e+01 1.602378e+01 4.823348e+01 3.456279e+01 2.500130e+01 2.397224e+01 2.325550e+01 2.176028e+01 1.407894e+00 9.103617e-01 2.007824e+00 1.285220e+00 2.367915e+00 2.205551e+00 2.120975e+00 2.061132e+00 2.834357e+00 1.709320e+00 1.575876e+00 1.474778e+00 6.795766e-01 2.391888e-01 1.423888e-01 2.485846e-01 2.124001e-01 3.316593e-01 3.612892e-01 2.689334e-01 3.158360e-01 4.119655e-01 2.434786e-01 2.599589e-01 2.056649e-01 7.143712e-02
<GCONST> 1.020686e+02
<STATE> 3
<MEAN> 39
 -1.193024e+01 -4.406186e-01 -2.410404e+00 -9.099638e-01 -2.956670e+00 -4.611084e+00 -2.253721e+00 -1.158241e+00 1.238713e-01 -3.106823e+00 -1.063416e+00 -1.756668e+00 5.201745e+01 -7.704135e-01 -1.986297e-01 -9.716261e-02 3.993663e-02 -9.140784e-02 -1.449199e-01 6.647381e-02 -1.460093e-01 -2.010279e-01 -1.094120e-01 1.077903e-01 7.975399e-02 -1.943009e-01 7.458754e-01 -3.389035e-02 4.746443e-01 -2.501913e-01 -1.691413e-01 2.291873e-01 3.270632e-02 -8.777067e-03 -1.573108e-01 3.266240e-01 1.733317e-01 -1.463873e-01 2.608649e-01
<VARIANCE> 39
 1.082101e+01 1.587298e+01 3.246786e+01 1.967523e+01 1.997049e+01 2.242582e+01 1.648217e+01 2.434251e+01 2.067751e+01 3.068750e+01 1.694595e+01 1.363677e+01 1.344265e+01 1.726375e+00 1.054712e+00 1.568788e+00 1.035046e+00 1.424942e+00 1.404903e+00 1.172662e+00 1.971744e+00 1.534012e+00 1.736906e+00 1.435328e+00 9.378744e-01 3.117526e-01 2.759820e-01 2.686024e-01 4.159232e-01 3.272313e-01 3.969657e-01 3.334840e-01 3.425785e-01 4.363357e-01 4.300685e-01 3.662373e-01 3.527353e-01 2.172441e-01 1.321467e-01
<GCONST> 9.764423e+01
<STATE> 4
<MEAN> 39
 -9.052037e+00 3.432433e-01 -1.699590e+00 -1.049506e+00 -4.093791e+00 -2.140844e+00 -9.541603e-01 -9.132113e-01 -4.689396e-01 -1.537852e+00 -2.628420e-01 -2.671449e+00 5.185110e+01 2.476544e+00 -8.130994e-02 1.143847e+00 -1.475646e+00 -1.309361e+00 2.418149e-01 -4.775583e-01 -9.882175e-01 -8.819402e-01 9.777070e-01 7.053793e-01 -7.833015e-01 1.653256e+00 5.009690e-01 -2.171188e-01 3.272010e-01 -6.153113e-01 -4.568461e-01 -1.558489e-01 -3.447537e-01 -1.394354e-01 -4.725408e-02 1.852034e-01 -4.107363e-02 -2.614589e-01 6.031660e-01
<VARIANCE> 39
 2.974376e+01 2.361665e+01 4.766545e+01 3.487487e+01 2.678615e+01 3.274221e+01 2.434662e+01 2.808501e+01 2.495995e+01 2.696273e+01 1.731911e+01 1.548397e+01 2.131038e+01 4.093002e+00 3.320492e+00 7.139737e+00 3.972517e+00 3.512995e+00 5.013526e+00 2.980792e+00 5.092346e+00 2.449684e+00 2.168926e+00 2.782964e+00 1.303241e+00 1.362279e+00 6.151182e-01 5.411025e-01 7.557678e-01 5.067296e-01 4.674780e-01 4.964690e-01 4.511445e-01 6.281328e-01 3.940572e-01 4.669303e-01 3.479087e-01 2.707161e-01 1.403093e-01
<GCONST> 1.181244e+02
<TRANSP> 5
 0.000000e+00 1.000000e+00 0.000000e+00 0.000000e+00 0.000000e+00
 0.000000e+00 7.086555e-01 2.913444e-01 0.000000e+00 0.000000e+00
 0.000000e+00 0.000000e+00 7.251574e-01 2.748426e-01 0.000000e+00
 0.000000e+00 0.000000e+00 0.000000e+00 5.675344e-01 4.324655e-01
 0.000000e+00 0.000000e+00 0.000000e+00 0.000000e+00 0.000000e+00
<ENDHMM>
~h "w"
<BEGINHMM>
<NUMSTATES> 5
<STATE> 2
<MEAN> 39
 2.737403e+00 -4.876800e-02 -4.951034e+00 -1.383916e+01 -4.847282e+00 2.156779e+00 -4.184565e+00 -2.716594e+00 -1.718811e+00 2.014702e+00 3.612818e+00 -4.202594e+00 5.768799e+01 6.144331e-01 9.873075e-01 4.161950e-02 -9.714199e-01 -7.786154e-01 1.815988e-01 -2.627743e-02 -2.234403e-01 -6.358228e-01 2.271009e-02 5.520489e-01 6.568280e-01 -3.764274e-01 -1.191628e-01 -2.647102e-01 -4.768124e-02 -1.159682e-02 1.162496e-02 -3.407580e-02 6.378599e-02 2.093574e-01 5.603556e-02 -6.179808e-02 -1.161748e-01 -1.000877e-01 1.839331e-01
<VARIANCE> 39
 1.491749e+01 4.213522e+01 3.792235e+01 7.297234e+01 4.395472e+01 3.655186e+01 4.168797e+01 3.073168e+01 3.332621e+01 2.723308e+01 2.615856e+01 2.174083e+01 2.572406e+01 6.162983e-01 1.008200e+00 9.322993e-01 1.635225e+00 1.709565e+00 2.478054e+00 1.492386e+00 1.669895e+00 1.349332e+00 1.416090e+00 1.574462e+00 1.108580e+00 5.956321e-01 7.731524e-02 1.816254e-01 2.024155e-01 3.500677e-01 2.973333e-01 4.100404e-01 2.866285e-01 3.456213e-01 2.755723e-01 2.844768e-01 3.251231e-01 2.652451e-01 8.935118e-02
<GCONST> 1.012333e+02
<STATE> 3
<MEAN> 39
 3.989597e+00 3.081915e+00 -5.917143e+00 -1.709287e+01 -8.377324e+00 3.839193e+00 -5.153461e+00 -2.633444e+00 -4.589010e+00 1.507790e+00 3.754382e+00 -2.165056e+00 5.582563e+01 3.223232e-01 -1.077119e+00 -1.049209e+00 -2.097406e+00 2.418857e-01 1.284267e+00 -1.139919e-01 -2.878191e-01 -3.273180e-01 6.103320e-01 4.153592e-01 -8.703618e-01 1.427297e+00 -3.580128e-01 -5.580696e-01 -5.561426e-02 3.055215e-01 5.842887e-01 1.765547e-02 1.526480e-02 9.616353e-02 4.653384e-01 1.127736e-01 -3.047157e-01 -5.300733e-01 1.972196e-01
<VARIANCE> 39
 2.137812e+01 4.721637e+01 4.132919e+01 9.753303e+01 5.276881e+01 4.408223e+01 4.040345e+01 3.561016e+01 3.967088e+01 3.551951e+01 3.542511e+01 2.310902e+01 5.241371e+01 1.900790e+00 2.076217e+00 1.415944e+00 3.973619e+00 3.722906e+00 3.818696e+00 2.805112e+00 2.694694e+00 3.316844e+00 2.498192e+00 2.661232e+00 2.263432e+00 1.465281e+00 2.299697e-01 2.200811e-01 2.818083e-01 7.853987e-01 4.498473e-01 5.903960e-01 3.995620e-01 4.329891e-01 4.522506e-01 4.707903e-01 4.484063e-01 3.847320e-01 1.871928e-01
<GCONST> 1.193552e+02
<STATE> 4
<MEAN> 39
 1.842750e+00 -4.037584e+00 -6.728101e+00 -2.069133e+01 -2.748121e+00 6.140093e+00 -4.243368e+00 -2.732714e+00 -2.147315e+00 4.856029e+00 4.143086e+00 -8.933970e+00 6.157706e+01 -6.072498e-01 -1.149043e+00 -2.295679e-01 7.832069e-01 1.075594e+00 -1.977672e-01 2.580968e-02 4.239395e-01 1.010558e+00 -2.322808e-01 -1.020676e+00 -1.203560e+00 4.200841e-01 -3.664144e-02 2.121226e-01 1.810846e-01 4.193242e-01 -1.499626e-01 -3.875507e-01 5.316451e-02 1.223105e-01 3.286076e-02 -3.570341e-01 -1.956162e-01 3.358336e-01 -2.488566e-01
<VARIANCE> 39
 1.293036e+01 4.974065e+01 3.960038e+01 6.162990e+01 4.315009e+01 5.144014e+01 5.491321e+01 3.937036e+01 6.744379e+01 4.601847e+01 4.334062e+01 3.619780e+01 2.192540e+01 3.693659e-01 1.526206e+00 8.275031e-01 1.781771e+00 1.881835e+00 1.878144e+00 1.404770e+00 1.591645e+00 2.238212e+00 1.938199e+00 1.732747e+00 2.272330e+00 1.427629e+00 7.672725e-02 2.342568e-01 1.671730e-01 4.185235e-01 3.243091e-01 3.951715e-01 2.574889e-01 2.888832e-01 3.786432e-01 3.341883e-01 2.827550e-01 3.942572e-01 1.349315e-01
<GCONST> 1.072940e+02
<TRANSP> 5
 0.000000e+00 1.000000e+00 0.000000e+00 0.000000e+00 0.000000e+00
 0.000000e+00 7.455961e-01 2.544039e-01 0.000000e+00 0.000000e+00
 0.000000e+00 0.000000e+00 6.074273e-01 3.925726e-01 0.000000e+00
 0.000000e+00 0.000000e+00 0.000000e+00 7.180080e-01 2.819921e-01
 0.000000e+00 0.000000e+00 0.000000e+00 0.000000e+00 0.000000e+00
<ENDHMM>
~h "y"
<BEGINHMM>
<NUMSTATES> 5
<STATE> 2
<MEAN> 39
 -5.239963e+00 2.344709e-01 9.082645e+00 -1.244794e+01 -1.043764e+01 -8.065593e+00 -5.196355e+00 -1.930488e+00 -4.105746e+00 -2.173927e-01 -5.556582e-02 -1.897656e+00 5.992151e+01 -1.161771e-01 -3.633949e-01 8.519863e-01 -9.771066e-01 -1.090223e+00 -2.770059e-01 3.791554e-01 4.630850e-01 -3.259321e-01 3.560697e-01 5.282421e-01 2.338954e-03 9.682639e-01 8.756202e-02 -3.021995e-01 -4.849994e-01 1.908423e-01 1.975434e-01 1.250671e-01 1.825707e-01 2.272357e-01 1.556651e-01 -1.091404e-01 -1.170135e-01 -1.331901e-01 -3.269015e-02
<VARIANCE> 39
 2.515013e+01 7.160455e+01 6.212915e+01 8.735263e+01 6.136630e+01 5.156514e+01 4.414254e+01 7.246556e+01 4.099349e+01 5.292072e+01 5.371760e+01 2.320840e+01 5.195516e+01 1.271816e+00 3.227409e+00 4.024387e+00 3.669143e+00 2.822954e+00 2.975250e+00 3.209273e+00 4.549661e+00 2.710008e+00 2.481715e+00 2.117982e+00 1.669402e+00 1.988051e+00 1.529713e-01 3.224751e-01 5.050334e-01 6.094496e-01 6.504896e-01 4.518251e-01 5.171260e-01 5.348377e-01 4.263541e-01 4.416801e-01 4.148151e-01 2.909468e-01 2.083799e-01
<GCONST> 1.233832e+02
<STATE> 3
<MEAN> 39
 -5.004622e+00 -5.910730e+00 9.209611e+00 -1.296978e+01 -1.326645e+01 -9.552981e+00 -1.165600e+00 2.286629e+00 -3.881675e+00 6.546681e-02 2.781422e+00 -3.821725e+00 6.400120e+01 1.494275e-01 -6.879962e-01 -5.664158e-01 8.367350e-02 1.508846e-01 1.893559e-02 6.269780e-01 8.527194e-01 7.370296e-02 -2.852105e-01 -6.174535e-02 -2.131952e-01 2.415138e-01 8.793459e-02 -5.418965e-02 -3.553260e-01 1.731199e-01 4.696965e-01 9.747758e-02 -1.129026e-01 6.231499e-02 1.236586e-01 -1.863896e-01 -2.986444e-01 3.170060e-03 -8.859355e-02
<VARIANCE> 39
 2.473186e+01 3.885709e+01 3.590966e+01 6.742737e+01 3.768629e+01 3.475108e+01 3.913291e+01 6.754199e+01 3.447416e+01 3.790126e+01 4.025017e+01 1.735504e+01 3.149803e+01 2.573105e-01 1.577386e+00 2.069663e+00 1.019606e+00 1.564060e+00 1.117981e+00 1.898465e+00 2.786352e+00 1.525064e+00 1.824804e+00 1.319562e+00 9.871820e-01 2.929501e-01 4.043187e-02 1.477769e-01 1.321763e-01 1.503652e-01 2.496877e-01 2.097594e-01 3.341952e-01 3.874842e-01 2.507567e-01 2.580416e-01 2.064233e-01 1.880765e-01 5.776487e-02
<GCONST> 9.782848e+01
<STATE> 4
<MEAN> 39
 -1.043375e+00 -7.844428e+00 -1.480872e+00 -5.519133e+00 -1.252270e+01 -3.086327e+00 1.437000e+00 3.205269e+00 -2.626139e+00 -4.514430e+00 1.457234e-01 -3.569865e+00 6.092979e+01 2.177436e-01 -5.557718e-01 -1.049949e+00 6.148531e-01 1.179310e+00 2.331529e-01 -6.999874e-02 2.460440e-01 1.918917e-01 -4.828776e-01 -5.731789e-01 -5.698803e-02 -5.694893e-02 1.496649e-02 2.013358e-01 7.791455e-02 -1.779294e-02 1.692220e-01 6.011166e-02 -3.066076e-01 -3.027812e-01 4.467240e-02 1.553582e-01 -3.768172e-02 9.778712e-03 -1.604115e-01
<VARIANCE> 39
 1.495252e+01 3.088301e+01 6.360849e+01 8.112639e+01 4.037132e+01 9.559146e+01 3.137350e+01 5.616212e+01 4.462233e+01 2.679094e+01 3.416269e+01 1.422987e+01 2.651122e+01 2.900720e-01 8.545063e-01 1.648139e+00 1.725637e+00 1.739977e+00 1.392419e+00 1.658565e+00 1.829637e+00 1.463428e+00 1.429273e+00 1.673961e+00 9.558374e-01 2.335229e-01 3.520254e-02 1.274258e-01 1.379851e-01 1.759331e-01 2.237851e-01 2.362843e-01 2.758758e-01 3.859273e-01 2.166139e-01 2.238635e-01 2.059643e-01 1.619862e-01 4.898845e-02
<GCONST> 9.629502e+01
<TRANSP> 5
 0.000000e+00 1.000000e+00 0.000000e+00 0.000000e+00 0.000000e+00
 0.000000e+00 6.184604e-01 3.815397e-01 0.000000e+00 0.000000e+00
 0.000000e+00 0.000000e+00 6.927394e-01 3.072606e-01 0.000000e+00
 0.000000e+00 0.000000e+00 0.000000e+00 6.615518e-01 3.384482e-01
 0.000000e+00 0.000000e+00 0.000000e+00 0.000000e+00 0.000000e+00
<ENDHMM>
~h "z"
<BEGINHMM>
<NUMSTATES> 5
<STATE> 2
<MEAN> 39
 -5.842650e+00 2.025008e+00 -1.019253e+00 -2.771368e+00 -2.805568e+00 9.274197e-01 -3.752787e+00 -2.014962e+00 -1.543547e+00 5.812810e-01 -2.519131e-01 -1.725326e+00 4.457517e+01 -5.666922e-01 2.025118e-01 -2.331907e-01 -2.536919e-02 -1.375172e-01 1.414946e-01 4.471846e-01 1.222185e-01 6.160703e-02 5.847717e-02 -9.753315e-02 7.732094e-02 -6.004549e-01 -6.958842e-02 2.570851e-02 9.911708e-02 -2.003946e-02 -4.043542e-02 -2.787676e-02 2.731343e-02 -2.764701e-02 -3.503882e-02 -2.204805e-02 7.087443e-02 -2.592629e-02 7.112534e-02
<VARIANCE> 39
 4.658057e+01 3.690594e+01 1.944815e+01 1.811435e+01 2.386476e+01 4.379403e+01 2.267334e+01 2.366620e+01 1.883911e+01 2.363132e+01 1.389336e+01 1.034253e+01 4.577383e+01 3.928491e-01 4.116957e-01 3.892327e-01 6.693600e-01 8.700920e-01 9.429600e-01 1.204095e+00 1.323234e+00 1.081651e+00 1.007118e+00 8.797964e-01 6.648669e-01 3.173909e-01 1.079022e-01 6.941389e-02 6.789228e-02 1.538748e-01 2.223872e-01 1.837023e-01 2.733939e-01 2.631300e-01 2.050514e-01 1.492831e-01 1.676303e-01 1.651336e-01 3.256313e-02
<GCONST> 8.283775e+01
<STATE> 3
<MEAN> 39
 -1.219661e+01 3.782589e+00 3.198537e+00 -3.047677e+00 -7.862128e-01 -3.037729e+00 -2.055251e+00 -1.603165e+00 9.359068e-01 -4.379489e+00 1.762436e+00 -1.367442e+00 5.246095e+01 -7.225307e-01 -2.409841e-01 2.001479e-01 6.237433e-02 -3.812712e-01 -5.799751e-01 1.958621e-01 4.679406e-01 3.141336e-01 -9.814924e-02 3.374858e-02 -2.210439e-01 4.780360e-01 6.594962e-01 -3.286268e-01 1.109298e-01 -2.401034e-01 -2.786056e-01 -2.119963e-01 -2.155737e-01 2.490016e-01 -5.070581e-02 2.244652e-01 -1.180650e-02 -1.965327e-01 3.223620e-01
<VARIANCE> 39
 4.037112e+01 4.318777e+01 1.761937e+01 1.768670e+01 2.993269e+01 3.547044e+01 3.518211e+01 2.342531e+01 3.607476e+01 2.989825e+01 1.603101e+01 1.535425e+01 3.587201e+01 7.028080e+00 2.152446e+00 1.106836e+00 2.104208e+00 2.311607e+00 3.327535e+00 3.516384e+00 2.100305e+00 1.694749e+00 1.790377e+00 1.652615e+00 1.480844e+00 9.734979e-01 9.504144e-01 3.249443e-01 2.589730e-01 4.387318e-01 4.172005e-01 7.582153e-01 7.181441e-01 4.894204e-01 3.405365e-01 3.599177e-01 3.081812e-01 3.241135e-01 2.605053e-01
<GCONST> 1.129192e+02
<STATE> 4
<MEAN> 39
 -6.139502e+00 -8.502021e-01 4.757179e+00 -4.324107e+00 -1.556736e+00 -9.018476e+00 -1.659632e+00 6.967248e+00 -1.593363e+00 1.650453e-01 -4.618041e-01 -7.658401e+00 5.571246e+01 1.526191e+00 -8.835395e-01 3.491732e-01 -7.143490e-01 -1.334654e+00 -1.125868e+00 -5.483306e-01 6.948088e-01 -4.168904e-02 7.859111e-01 8.446116e-02 -7.916238e-01 1.256240e+00 -1.434062e-01 -6.142979e-02 -5.036685e-02 -1.145989e-01 2.304874e-02 5.565786e-02 -3.393483e-02 -1.072339e-01 -7.129165e-02 -2.032455e-02 -5.450200e-02 -1.212091e-01 5.149050e-02
<VARIANCE> 39
 2.122020e+01 4.982313e+01 1.198853e+01 2.019525e+01 4.572029e+01 2.889010e+01 1.245493e+01 4.583229e+01 3.867497e+01 3.845254e+01 8.614357e+00 3.752355e+01 4.340318e+01 4.500378e+00 3.334131e+00 1.383089e+00 2.478655e+00 2.669212e+00 3.156071e+00 1.375849e+00 3.693829e+00 2.002958e+00 3.633009e+00 1.222733e+00 3.022258e+00 2.686570e+00 4.379532e-01 2.946723e-01 1.049717e-01 2.390125e-01 3.012052e-01 4.064535e-01 2.160132e-01 2.846623e-01 3.325080e-01 3.360862e-01 1.292985e-01 4.140692e-01 3.196823e-01
<GCONST> 1.096128e+02
<TRANSP> 5
 0.000000e+00 1.000000e+00 0.000000e+00 0.000000e+00 0.000000e+00
 0.000000e+00 8.489011e-01 1.510989e-01 0.000000e+00 0.000000e+00
 0.000000e+00 0.000000e+00 8.108498e-01 1.891502e-01 0.000000e+00
 0.000000e+00 0.000000e+00 0.000000e+00 6.562716e-01 3.437283e-01
 0.000000e+00 0.000000e+00 0.000000e+00 0.000000e+00 0.000000e+00
<ENDHMM>
~h "ai"
<BEGINHMM>
<NUMSTATES> 5
<STATE> 2
<MEAN> 39
 -1.943538e+00 -1.107877e+01 -1.998862e+00 -1.057117e+01 -4.960222e+00 -5.262706e+00 -3.075142e+00 6.902276e+00 -1.164022e-01 -3.082273e+00 -3.022719e+00 -5.817225e+00 6.429866e+01 -3.624297e-01 -5.335060e-01 1.024166e+00 1.872800e-01 -1.088920e+00 -7.119544e-01 8.803908e-01 8.947593e-01 -5.889815e-01 -6.518357e-01 4.012941e-01 5.463855e-01 3.604357e-01 -8.800570e-02 5.603235e-01 2.531432e-01 6.883828e-02 -1.594108e-01 -6.355644e-04 -2.134754e-02 -4.706579e-01 -1.057771e-01 2.905414e-01 3.407746e-01 7.969677e-02 -3.610759e-01
<VARIANCE> 39
 1.471535e+01 3.855401e+01 4.555860e+01 4.980028e+01 5.137099e+01 4.225294e+01 3.662727e+01 4.726390e+01 5.234648e+01 3.659473e+01 3.085990e+01 2.871948e+01 3.361120e+01 2.732349e-01 1.255213e+00 1.337207e+00 1.333549e+00 1.975435e+00 2.123260e+00 1.840719e+00 1.868061e+00 1.524089e+00 1.624041e+00 1.888957e+00 1.182419e+00 3.270977e-01 1.227496e-01 1.935196e-01 1.819258e-01 2.645227e-01 3.214876e-01 3.128180e-01 3.204099e-01 4.348245e-01 2.971245e-01 3.710844e-01 3.378449e-01 3.058611e-01 1.300189e-01
<GCONST> 1.039570e+02
<STATE> 3
<MEAN> 39
 -3.406574e+00 -7.761229e+00 4.808997e+00 -1.053168e+01 -1.325469e+01 -7.520461e+00 -9.674008e-01 5.539021e+00 -3.734715e+00 -1.350884e+00 1.475178e+00 -4.849457e+00 6.301900e+01 -2.954927e-01 9.285197e-01 1.344014e+00 -3.056828e-01 -9.174858e-01 -1.614334e-01 -1.924079e-01 -1.046248e+00 -3.797784e-01 7.340047e-01 5.236674e-01 1.001852e-01 -3.141302e-01 6.629781e-02 1.549635e-01 -1.636243e-01 8.853100e-02 3.663287e-01 1.214744e-01 -2.414702e-01 -2.307295e-01 9.840088e-02 2.459852e-02 -2.521749e-01 1.403476e-02 -1.783156e-01
<VARIANCE> 39
 1.666654e+01 3.101184e+01 6.269527e+01 5.469958e+01 4.117497e+01 4.996609e+01 3.153188e+01 5.590987e+01 4.620770e+01 3.191045e+01 4.082218e+01 1.987947e+01 2.887513e+01 1.988180e-01 6.548258e-01 9.112902e-01 1.246296e+00 1.343025e+00 1.232028e+00 1.750180e+00 1.647168e+00 1.447425e+00 1.619077e+00 1.514940e+00 9.484577e-01 1.960973e-01 3.418723e-02 9.759743e-02 1.219040e-01 1.688460e-01 1.902344e-01 2.047369e-01 2.683698e-01 3.014585e-01 2.186539e-01 2.719728e-01 1.998096e-01 1.775848e-01 4.541852e-02
<GCONST> 9.316386e+01
<STATE> 4
<MEAN> 39
 -5.188179e+00 -2.188284e+00 9.987931e+00 -1.137405e+01 -1.223370e+01 -9.250156e+00 -2.686564e+00 -1.436657e+00 -4.333510e+00 1.021815e+00 7.941559e-02 -3.584810e+00 5.929530e+01 1.822455e-01 6.820889e-01 -3.302443e-01 8.002602e-01 7.679837e-01 2.926690e-01 -7.039528e-02 -5.086685e-01 1.557317e-01 -1.345087e-01 -3.871118e-01 1.090676e-01 -1.238848e+00 9.455284e-03 -6.197611e-02 -2.789319e-01 1.326938e-01 1.729115e-01 9.048609e-02 4.794496e-02 1.161710e-01 9.843989e-02 -9.957261e-02 -3.177281e-02 -2.254669e-02 -1.101714e-01
<VARIANCE> 39
 1.988574e+01 3.388307e+01 3.974399e+01 7.646207e+01 5.058431e+01 4.165308e+01 3.654384e+01 4.739012e+01 3.188999e+01 2.994261e+01 4.768463e+01 2.451981e+01 4.272637e+01 5.466962e-01 1.002757e+00 1.423862e+00 1.504739e+00 1.640582e+00 1.623159e+00 1.868804e+00 2.351279e+00 1.708987e+00 1.601121e+00 1.721049e+00 1.244656e+00 6.649997e-01 9.360567e-02 1.562334e-01 2.235489e-01 2.762050e-01 3.121755e-01 2.814704e-01 3.426612e-01 3.971475e-01 3.316115e-01 3.401024e-01 3.375883e-01 2.328702e-01 1.202413e-01
<GCONST> 1.047009e+02
<TRANSP> 5
 0.000000e+00 1.000000e+00 0.000000e+00 0.000000e+00 0.000000e+00
 0.000000e+00 7.055241e-01 2.944758e-01 0.000000e+00 0.000000e+00
 0.000000e+00 0.000000e+00 7.708650e-01 2.291351e-01 0.000000e+00
 0.000000e+00 0.000000e+00 0.000000e+00 7.996332e-01 2.003668e-01
 0.000000e+00 0.000000e+00 0.000000e+00 0.000000e+00 0.000000e+00
<ENDHMM>
~h "au"
<BEGINHMM>
<NUMSTATES> 5
<STATE> 2
<MEAN> 39
 8.765056e-01 -4.300060e+00 -9.520480e+00 -1.872457e+01 -2.667692e+00 8.615816e-01 -7.678579e+00 7.505795e-01 -3.905313e+00 -4.225585e-01 -3.516270e+00 -6.762532e+00 6.000024e+01 2.024143e-01 3.984508e-01 -1.523311e-01 -3.928546e-01 5.796453e-02 2.485841e-01 -1.362325e-01 -2.413087e-01 -1.756285e-01 1.805452e-01 3.269286e-01 1.657411e-01 -2.750157e-01 -2.153740e-02 1.227242e-01 1.162574e-01 1.603276e-01 -6.742426e-02 -9.105660e-02 -3.440419e-02 -1.163057e-01 3.162241e-03 1.220997e-02 4.647820e-02 8.408165e-02 -1.283609e-01
<VARIANCE> 39
 1.298780e+01 4.903444e+01 5.585714e+01 7.063184e+01 3.902597e+01 4.906901e+01 3.609234e+01 3.581183e+01 6.396312e+01 5.681582e+01 4.238923e+01 2.954648e+01 3.205764e+01 2.569277e-01 6.559547e-01 7.488715e-01 1.059374e+00 1.347395e+00 1.498672e+00 1.167696e+00 1.401074e+00 1.289287e+00 1.466239e+00 1.333247e+00 1.226237e+00 2.272864e-01 5.055572e-02 1.263641e-01 1.009644e-01 2.045096e-01 2.088981e-01 2.219039e-01 1.829342e-01 2.642881e-01 2.710042e-01 2.343411e-01 2.365755e-01 2.136934e-01 7.246754e-02
<GCONST> 9.536398e+01
<STATE> 3
<MEAN> 39
 2.089401e+00 -4.017126e-01 -6.639674e+00 -1.610619e+01 -4.107439e+00 3.142556e-02 -1.078398e+01 -4.197662e+00 -2.713565e+00 3.996999e+00 2.073858e+00 -3.952568e+00 5.810584e+01 -3.019586e-03 4.887455e-01 6.483636e-01 9.150994e-01 -6.561327e-02 -2.591136e-01 -4.412507e-01 -4.139747e-01 -9.423367e-02 -1.783011e-01 5.878187e-02 3.900838e-01 -6.883714e-01 -1.367168e-01 3.002152e-02 2.409266e-01 5.057012e-01 -2.788017e-03 -2.948323e-01 2.045715e-01 2.472930e-01 2.362469e-02 -1.654211e-01 -3.386739e-01 -7.021455e-02 -1.847027e-01
<VARIANCE> 39
 8.748225e+00 5.478843e+01 3.168513e+01 6.091491e+01 4.198679e+01 4.662015e+01 6.973983e+01 4.358918e+01 5.323270e+01 4.615585e+01 3.728867e+01 2.806546e+01 3.043967e+01 5.356357e-01 1.657050e+00 1.456367e+00 2.474829e+00 3.081398e+00 3.075191e+00 2.832538e+00 3.103155e+00 4.089021e+00 2.705068e+00 2.545768e+00 2.018685e+00 8.928221e-01 6.913949e-02 2.924068e-01 2.553138e-01 2.522977e-01 5.559939e-01 4.765721e-01 5.550960e-01 5.504434e-01 5.828801e-01 5.392767e-01 4.795819e-01 4.316478e-01 1.162674e-01
<GCONST> 1.146601e+02
<STATE> 4
<MEAN> 39
 -1.968948e+00 -1.304438e+00 -6.397223e+00 -9.486640e+00 -3.482333e-01 1.436657e+00 -4.321204e+00 6.485136e-01 -2.266190e+00 8.374152e-01 9.436847e-01 -4.764203e+00 4.904714e+01 -3.126335e-01 1.578702e-01 3.154219e-01 1.137453e+00 7.930978e-02 -2.213961e-01 2.743157e-01 1.212044e-01 3.821470e-02 -1.145244e-01 -3.079068e-01 -5.903981e-02 -8.241307e-01 -6.171294e-02 -4.491210e-02 -1.759803e-02 -2.570558e-02 8.613376e-03 -8.343783e-03 5.122958e-02 1.380011e-02 -6.615649e-02 -1.747900e-02 1.126687e-02 -1.990383e-03 6.156413e-02
<VARIANCE> 39
 2.227679e+01 3.921745e+01 4.417946e+01 9.796090e+01 6.639972e+01 3.717170e+01 5.044913e+01 4.887172e+01 2.913054e+01 3.727375e+01 2.266029e+01 3.199587e+01 5.324896e+01 3.933121e-01 1.305543e+00 1.281886e+00 1.642539e+00 1.493971e+00 2.045420e+00 1.610116e+00 1.931688e+00 1.837181e+00 1.451130e+00 1.527458e+00 1.271083e+00 9.261195e-01 4.779993e-02 1.749875e-01 1.713275e-01 1.737956e-01 2.938608e-01 3.125818e-01 3.227678e-01 3.292302e-01 3.019760e-01 2.681019e-01 2.583590e-01 2.249013e-01 8.704915e-02
<GCONST> 1.031647e+02
<TRANSP> 5
 0.000000e+00 1.000000e+00 0.000000e+00 0.000000e+00 0.000000e+00
 0.000000e+00 8.579621e-01 1.420380e-01 0.000000e+00 0.000000e+00
 0.000000e+00 0.000000e+00 7.055962e-01 2.944038e-01 0.000000e+00
 0.000000e+00 0.000000e+00 0.000000e+00 7.386540e-01 2.613460e-01
 0.000000e+00 0.000000e+00 0.000000e+00 0.000000e+00 0.000000e+00
<ENDHMM>
~h "ei"
<BEGINHMM>
<NUMSTATES> 5
<STATE> 2
<MEAN> 39
 -3.488627e+00 -1.329486e+01 3.871542e+00 -1.134870e+01 -5.287953e+00 -1.610678e+00 -7.315105e+00 1.008428e+01 -6.764069e+00 -1.326131e+00 -5.109656e+00 5.081034e-01 5.457730e+01 -2.778397e-01 -6.266887e-01 8.033130e-01 -1.495999e+00 -9.373754e-01 4.357573e-02 8.285994e-01 -9.642325e-02 1.142825e-01 1.210291e-01 -4.515416e-01 -2.931643e-01 6.850414e-01 8.324202e-02 2.220019e-01 -3.264948e-01 3.426440e-01 -2.207988e-01 -1.698409e-01 -9.182000e-02 -5.420746e-01 1.980760e-01 4.462434e-02 -4.422457e-03 -1.063631e-01 -1.650413e-01
<VARIANCE> 39
 1.665424e+00 3.164123e+01 1.084171e+01 2.883841e+01 2.772837e+01 3.125173e+01 1.138849e+01 1.997166e+01 1.146057e+01 6.248393e+00 1.479144e+01 5.068887e+00 7.444905e+00 1.873392e-01 4.978871e-01 1.553311e+00 8.227588e-01 8.017763e-01 5.709387e-01 5.593378e-01 2.473227e+00 9.184569e-01 7.186244e-01 5.849302e-01 5.125922e-01 2.684874e-01 1.129592e-01 1.328329e-01 1.181979e-01 2.769051e-01 3.002689e-01 1.474077e-01 2.783278e-01 2.560987e-01 2.500319e-01 2.098973e-01 1.604536e-01 1.221485e-01 7.793484e-02
<GCONST> 7.584641e+01
<STATE> 3
<MEAN> 39
 -2.352053e+00 -9.387094e+00 3.464689e+00 -1.040065e+01 -1.291452e+01 -4.150201e+00 -7.328823e+00 3.881920e+00 -4.951602e+00 3.477182e-01 -5.735577e+00 -2.236266e+00 5.340778e+01 1.970247e-01 1.110367e+00 -2.128539e-01 1.484501e+00 -4.013308e-01 7.848315e-01 -2.831020e-01 -5.948456e-01 1.266066e-01 -2.241992e-01 8.165628e-01 -3.459729e-01 -1.139435e+00 -9.587561e-02 8.180556e-02 1.300300e-01 2.242494e-01 2.637920e-01 1.670948e-01 5.601145e-02 1.858219e-01 -2.527756e-02 -2.003550e-01 2.090782e-02 3.812981e-02 -1.532038e-01
<VARIANCE> 39
 2.489945e+00 2.569754e+01 3.618534e+00 3.760722e+01 1.398225e+01 5.807901e+01 1.319429e+01 1.961192e+01 9.667603e+00 1.287135e+01 3.195664e+01 1.124720e+01 1.682800e+01 2.014897e-01 5.063298e-01 4.912149e-01 1.379606e+00 1.819261e+00 2.892858e+00 7.243828e-01 8.694422e-01 1.155933e+00 1.316503e+00 1.619704e+00 4.037911e-01 3.723671e-01 3.223708e-02 1.309402e-01 5.341998e-02 4.395438e-01 2.897049e-01 5.638521e-01 1.378611e-01 1.472949e-01 1.679105e-01 2.308043e-01 4.744075e-01 9.535561e-02 1.024923e-01
<GCONST> 8.051781e+01
<STATE> 4
<MEAN> 39
 -3.148085e+00 2.444294e+00 6.293549e+00 -1.505665e+01 -1.765771e+01 -8.814249e+00 -1.075582e+01 -4.512872e+00 -1.404114e+00 -9.994237e-01 -7.775855e+00 -1.544452e+00 5.496448e+01 -6.870086e-02 5.076069e-01 3.083293e-01 1.102051e+00 -2.666867e-02 1.506913e-01 -1.119809e-01 -3.845048e-02 -9.720857e-02 -2.579905e-01 2.463802e-01 3.573410e-02 -6.426177e-01 -2.087841e-01 1.160350e-01 -1.581112e-01 1.993698e-01 2.018310e-01 -2.493651e-01 3.063635e-01 1.163817e-01 -1.602809e-02 1.103739e-01 2.689221e-01 4.865058e-02 8.248357e-02
<VARIANCE> 39
 1.735786e+00 2.286490e+01 2.100013e+01 6.888776e+01 1.316931e+01 5.462678e+01 1.826323e+01 2.063316e+01 1.751225e+01 8.590275e+00 1.391823e+01 1.841923e+01 2.242431e+01 2.197488e-01 1.458922e-01 5.597172e-01 1.162248e+00 6.026545e-01 8.727109e-01 2.771217e+00 7.081222e-01 1.401044e+00 9.568346e-01 1.210258e+00 1.303954e+00 1.351951e-01 1.079630e-01 6.015956e-02 1.567877e-01 2.504986e-01 2.534380e-01 3.515150e-01 4.670472e-01 1.395548e-01 2.748218e-01 2.143753e-01 1.410414e-01 2.507368e-01 4.332822e-02
<GCONST> 8.099020e+01
<TRANSP> 5
 0.000000e+00 1.000000e+00 0.000000e+00 0.000000e+00 0.000000e+00
 0.000000e+00 7.391859e-01 2.608141e-01 0.000000e+00 0.000000e+00
