~o
<STREAMINFO> 1 52
<VECSIZE> 52<NULLD><MFCC_D_A_T_Z_0><DIAGC>
~s "silst"
<MEAN> 52
 -6.835509e+00 6.537687e-01 -2.233182e+00 3.992656e+00 2.419272e+00 3.073011e+00 2.589200e+00 1.567628e+00 5.662838e-01 3.580757e-01 9.338529e-01 2.793748e+00 -1.487430e+01 1.615141e-01 -2.925689e-01 5.587056e-02 -5.338899e-01 1.571043e-01 -2.761993e-01 -1.602998e-01 -4.868524e-02 -1.361474e-01 -5.309489e-02 -1.074945e-01 -1.106949e-01 1.227571e+00 5.172645e-02 -6.318973e-03 2.551587e-02 -9.968392e-03 -6.777666e-03 1.759797e-02 3.472324e-03 5.662708e-03 -8.397394e-03 -2.397142e-02 -1.658404e-02 -1.035677e-02 4.648557e-02 -1.336850e-02 2.130106e-02 6.832816e-04 3.872404e-02 -1.455219e-02 1.208112e-02 1.090907e-02 4.756683e-03 1.374951e-02 6.567953e-03 9.518465e-03 8.319171e-03 -6.919515e-02
<VARIANCE> 52
 5.659766e+01 4.919757e+01 4.671729e+01 5.689714e+01 4.310449e+01 4.199374e+01 3.809828e+01 3.275992e+01 2.501599e+01 2.307099e+01 2.093528e+01 1.715278e+01 2.018590e+02 3.998811e+00 2.779592e+00 2.695937e+00 3.646680e+00 2.710862e+00 3.138178e+00 2.640390e+00 2.489019e+00 2.109492e+00 1.849917e+00 1.661481e+00 1.401177e+00 6.430472e+00 5.252269e-01 4.389118e-01 4.139030e-01 5.762842e-01 4.536474e-01 5.441125e-01 4.590613e-01 4.290270e-01 3.736807e-01 3.180369e-01 2.990845e-01 2.452808e-01 8.612621e-01 1.135230e-01 9.667296e-02 9.308571e-02 1.262981e-01 1.055266e-01 1.260616e-01 1.057552e-01 9.817762e-02 8.666255e-02 7.536308e-02 6.929754e-02 5.666555e-02 1.798641e-01
<GCONST> 1.154061e+02
~h "a"
<BEGINHMM>
<NUMSTATES> 5
<STATE> 2
<MEAN> 52
 3.395731e+00 -8.218661e+00 -4.149034e+00 -4.651709e+00 8.681026e-01 -3.320403e-01 -1.351309e-01 4.655358e+00 1.748414e+00 -1.263964e+00 -2.630500e+00 -3.300655e+00 9.294816e+00 -4.617132e-03 -1.027871e+00 -2.460194e-01 -2.873442e-01 5.890210e-01 3.962142e-01 1.725498e-01 5.958383e-01 -9.959365e-02 -4.489154e-01 -3.391006e-01 -2.296545e-01 5.824672e-01 -1.502250e-01 5.472228e-01 2.775722e-01 3.937252e-01 -3.396185e-02 -1.015271e-01 -6.359855e-02 -4.278186e-01 -1.114886e-01 1.007091e-01 1.894840e-01 2.784909e-01 -5.334279e-01 5.666683e-02 1.301572e-01 1.236834e-02 2.975191e-02 -1.060454e-01 -6.406606e-02 -3.012777e-02 -7.501967e-02 4.394827e-02 8.073676e-02 4.407977e-02 1.382757e-02 -5.271907e-02
<VARIANCE> 52
 1.246644e+01 2.556610e+01 3.355999e+01 3.362921e+01 4.543198e+01 4.623239e+01 3.934170e+01 4.535134e+01 3.330863e+01 3.296408e+01 2.871846e+01 2.569875e+01 2.097178e+01 6.538338e-01 1.696508e+00 1.673093e+00 2.028143e+00 2.382776e+00 2.386956e+00 2.284989e+00 2.682646e+00 1.976263e+00 2.183489e+00 1.852979e+00 1.666674e+00 9.960031e-01 2.011932e-01 2.786952e-01 2.531818e-01 3.622552e-01 4.467178e-01 3.593511e-01 4.258564e-01 5.285129e-01 4.124925e-01 3.882515e-01 3.568273e-01 3.238085e-01 2.002725e-01 3.190401e-02 5.789799e-02 5.620142e-02 7.976738e-02 8.829473e-02 8.963802e-02 8.944069e-02 1.110570e-01 8.168487e-02 8.615681e-02 7.858836e-02 6.928682e-02 3.949337e-02
<GCONST> 9.886813e+01
<STATE> 3
<MEAN> 52
 3.498011e+00 -8.383332e+00 -3.712746e+00 -4.806848e+00 1.316638e+00 -3.508911e-01 -3.688856e-01 4.297520e+00 1.300647e+00 -1.233575e+00 -2.340035e+00 -3.211848e+00 9.074396e+00 1.566005e-01 8.476581e-01 3.797286e-01 6.892843e-01 -7.506912e-02 -1.413260e-01 -1.954769e-01 -5.646923e-01 -3.595199e-02 1.671753e-01 2.111890e-01 3.618031e-01 -9.343623e-01 -2.938937e-02 4.316749e-01 1.630313e-01 2.673336e-01 -7.630547e-02 -1.660018e-02 -4.344541e-02 -2.731207e-01 -2.885316e-02 7.383830e-02 8.002792e-02 1.085027e-01 -4.174898e-01 -1.873287e-02 -1.612951e-01 -6.676697e-02 -1.107931e-01 2.939387e-02 5.411876e-02 4.249617e-02 1.170301e-01 7.167215e-03 -5.241986e-02 -6.060913e-02 -8.216261e-02 1.464072e-01
<VARIANCE> 52
 1.117590e+01 2.607543e+01 2.849902e+01 2.881491e+01 3.922365e+01 4.518805e+01 3.622710e+01 4.199995e+01 3.241368e+01 3.535289e+01 2.793916e+01 2.482599e+01 1.891294e+01 4.599524e-01 1.270339e+00 1.183950e+00 1.423279e+00 1.912736e+00 1.998234e+00 1.902278e+00 2.230023e+00 1.845414e+00 1.650036e+00 1.524649e+00 1.315539e+00 9.223632e-01 1.088078e-01 2.071929e-01 1.948842e-01 2.519405e-01 3.451982e-01 3.539861e-01 3.645080e-01 4.313108e-01 3.465237e-01 3.438792e-01 3.023950e-01 2.541373e-01 1.130917e-01 2.399457e-02 4.126675e-02 4.097632e-02 5.984284e-02 7.482427e-02 7.358128e-02 7.741661e-02 9.150396e-02 7.870036e-02 7.251585e-02 6.686033e-02 5.771172e-02 2.880904e-02
<GCONST> 8.880546e+01
<STATE> 4
<MEAN> 52
 1.366861e+00 -4.707050e+00 -3.250353e+00 -3.124563e-01 2.065560e+00 1.481941e+00 1.235350e+00 2.226805e+00 9.394639e-01 -1.082355e+00 -1.425783e+00 -1.081831e+00 1.466052e+00 -1.239616e-01 5.383247e-01 2.410339e-01 4.566403e-01 -3.428907e-03 8.287988e-02 6.927421e-03 -2.860684e-01 -1.380683e-02 3.138537e-02 4.235998e-02 1.909441e-01 -8.070211e-01 -3.761326e-02 2.870535e-02 1.772471e-02 -2.147021e-02 -2.837486e-02 -2.485455e-02 -7.007632e-03 -3.232158e-03 -1.157761e-02 1.469087e-02 1.317030e-02 -4.128837e-03 2.839315e-02 -9.044574e-04 -4.771427e-02 -2.667093e-02 -4.258351e-02 2.516816e-03 -6.687480e-03 1.529343e-03 2.786479e-02 1.524939e-04 -6.027380e-03 1.947009e-03 -1.561997e-02 7.408156e-02
<VARIANCE> 52
 2.377481e+01 3.250190e+01 2.743860e+01 3.995500e+01 3.330670e+01 3.762272e+01 3.216626e+01 3.749505e+01 2.594882e+01 3.122911e+01 2.731227e+01 2.233108e+01 6.786336e+01 4.709274e-01 9.213202e-01 8.758563e-01 1.166823e+00 1.185544e+00 1.251518e+00 1.309241e+00 1.740644e+00 1.379787e+00 1.258838e+00 1.155607e+00 9.475526e-01 8.024690e-01 7.910164e-02 1.345236e-01 1.448034e-01 1.891392e-01 2.202064e-01 2.373981e-01 2.437081e-01 2.912653e-01 2.429547e-01 2.401872e-01 2.209889e-01 1.791258e-01 9.583195e-02 1.579582e-02 3.179700e-02 3.270587e-02 4.627243e-02 4.906514e-02 5.267017e-02 5.566252e-02 6.947403e-02 5.870359e-02 5.560250e-02 5.074838e-02 4.232996e-02 2.438811e-02
<GCONST> 7.826598e+01
<TRANSP> 5
 0.000000e+00 1.000000e+00 0.000000e+00 0.000000e+00 0.000000e+00
 0.000000e+00 4.854525e-01 5.145475e-01 0.000000e+00 0.000000e+00
 0.000000e+00 0.000000e+00 5.621005e-01 4.378995e-01 0.000000e+00
 0.000000e+00 0.000000e+00 0.000000e+00 7.585059e-01 2.414940e-01
 0.000000e+00 0.000000e+00 0.000000e+00 0.000000e+00 0.000000e+00
<ENDHMM>
~h "b"
<BEGINHMM>
<NUMSTATES> 5
<STATE> 2
<MEAN> 52
 5.418001e+00 7.663942e+00 3.290076e+00 4.594058e+00 1.721620e+00 2.626888e+00 -6.446705e-01 -3.710153e+00 -3.109370e+00 -1.042289e+00 -9.650465e-01 -2.063285e-01 -4.291856e+00 3.622594e-01 -3.799708e-01 -6.271445e-01 -7.376697e-01 -1.652084e-01 -4.416046e-01 -7.025959e-01 -2.278388e-01 1.375511e-03 4.992393e-01 6.471802e-01 -2.359490e-01 1.086954e+00 -1.519736e-01 -7.245169e-01 -2.645827e-01 -6.301018e-01 -3.262214e-01 -4.007324e-01 -3.651161e-01 2.094390e-01 3.158422e-01 3.902275e-01 2.013390e-01 -1.567653e-01 7.128010e-01 -4.681645e-02 3.187411e-02 1.156882e-01 8.045983e-02 8.559152e-03 6.131773e-02 1.171805e-01 8.749238e-02 2.133151e-02 -7.365295e-02 -1.316157e-01 1.134268e-02 -1.107317e-01
<VARIANCE> 52
 2.128038e+01 2.855169e+01 2.482212e+01 3.032554e+01 2.601955e+01 2.777500e+01 2.999378e+01 3.034131e+01 2.694241e+01 2.656443e+01 2.422485e+01 1.733647e+01 2.848313e+01 1.952058e+00 3.056513e+00 2.672346e+00 3.917675e+00 2.453193e+00 3.047463e+00 2.950469e+00 2.842237e+00 3.157953e+00 2.846027e+00 3.020069e+00 1.922093e+00 2.200095e+00 2.564564e-01 4.042679e-01 4.257737e-01 5.326584e-01 4.450293e-01 4.750955e-01 5.346160e-01 6.111220e-01 6.045503e-01 5.323379e-01 5.412156e-01 3.847455e-01 2.407948e-01 5.465868e-02 1.173055e-01 8.961622e-02 1.511291e-01 1.007061e-01 1.216680e-01 1.309543e-01 1.173297e-01 1.233835e-01 1.352813e-01 1.329688e-01 8.223005e-02 7.391249e-02
<GCONST> 1.112859e+02
<STATE> 3
<MEAN> 52
 5.990918e+00 2.857715e+00 -5.922703e-01 -1.151650e+00 3.197963e-01 3.679067e-01 -4.652502e+00 -4.138354e+00 -1.243953e+00 3.341182e+00 2.485582e+00 -2.086133e+00 2.076299e+00 -3.344494e-01 -2.341923e+00 -1.044388e+00 -2.150864e+00 -8.613069e-01 -1.182287e+00 -1.131187e+00 1.124081e+00 1.391271e+00 1.345984e+00 3.510238e-01 -9.579921e-01 2.543022e+00 -2.068409e-01 -6.972780e-02 3.672298e-01 1.524601e-01 -1.177831e-01 6.106153e-03 3.762103e-01 3.907153e-01 3.391179e-02 -3.678340e-01 -4.571940e-01 9.398118e-02 -7.620627e-02 4.621530e-02 4.068652e-01 1.893879e-01 3.724953e-01 1.507033e-01 2.050178e-01 2.336514e-01 -1.705578e-01 -2.558585e-01 -2.726520e-01 -6.663381e-02 1.880947e-01 -4.115385e-01
<VARIANCE> 52
 1.438862e+01 2.814663e+01 2.667459e+01 5.302166e+01 2.605657e+01 3.928703e+01 3.271000e+01 2.939830e+01 3.395568e+01 3.714868e+01 3.397672e+01 2.669468e+01 3.003584e+01 1.620961e+00 3.652296e+00 3.608112e+00 5.306986e+00 3.412500e+00 4.241967e+00 4.420632e+00 4.828830e+00 5.525000e+00 4.458097e+00 4.745464e+00 3.814531e+00 2.124597e+00 2.079425e-01 3.910527e-01 3.320276e-01 8.536215e-01 5.476272e-01 5.180025e-01 5.781035e-01 5.517955e-01 5.407476e-01 6.484728e-01 6.366383e-01 4.538855e-01 3.211771e-01 5.309073e-02 1.017718e-01 1.037826e-01 1.780008e-01 1.215610e-01 1.493158e-01 1.679016e-01 1.588334e-01 1.888375e-01 1.692650e-01 1.809909e-01 1.375591e-01 5.673913e-02
<GCONST> 1.208488e+02
<STATE> 4
<MEAN> 52
 4.886080e+00 -1.078616e+00 -8.054788e-01 -2.494438e+00 -1.224019e+00 -2.387991e+00 -4.968777e+00 -1.815959e-01 1.898564e+00 3.156075e+00 3.089259e-01 -3.068138e+00 5.197793e+00 -5.877069e-01 -1.355884e+00 2.654397e-01 -7.701572e-01 -9.190538e-01 -8.421555e-01 3.262799e-01 1.376073e+00 3.635172e-01 -3.538923e-01 -4.538973e-01 2.952322e-03 1.344850e+00 -5.783479e-02 5.627548e-01 4.500314e-01 4.422817e-01 8.016029e-02 3.478068e-01 4.221378e-01 -2.301707e-01 -4.843877e-01 -4.124425e-01 -7.968921e-02 3.464150e-01 -5.703570e-01 6.930836e-02 1.888831e-01 -8.001856e-02 8.236463e-02 1.459173e-01 1.008400e-01 -8.711393e-02 -2.208906e-01 -2.387709e-02 1.021369e-01 1.237080e-01 -8.658597e-03 -1.575184e-01
<VARIANCE> 52
 1.349542e+01 3.894520e+01 3.490113e+01 6.278295e+01 3.444320e+01 5.502012e+01 4.453236e+01 4.658944e+01 5.356281e+01 4.277671e+01 4.028859e+01 4.365166e+01 3.009194e+01 1.070406e+00 2.047836e+00 3.038240e+00 4.501738e+00 3.681701e+00 3.372269e+00 4.270911e+00 4.455657e+00 4.122653e+00 4.152158e+00 3.827769e+00 2.724953e+00 1.188918e+00 1.964245e-01 4.257147e-01 3.456496e-01 9.640267e-01 5.412513e-01 6.209355e-01 7.445921e-01 6.130075e-01 7.209873e-01 7.437986e-01 7.086731e-01 5.950810e-01 3.129379e-01 3.983703e-02 6.804378e-02 9.684899e-02 1.770166e-01 1.422637e-01 1.250379e-01 1.632123e-01 1.555435e-01 1.508637e-01 1.666474e-01 1.594732e-01 1.082892e-01 5.035182e-02
<GCONST> 1.210342e+02
<TRANSP> 5
 0.000000e+00 1.000000e+00 0.000000e+00 0.000000e+00 0.000000e+00
 0.000000e+00 5.543990e-01 4.456010e-01 0.000000e+00 0.000000e+00
 0.000000e+00 0.000000e+00 3.195613e-01 6.804387e-01 0.000000e+00
 0.000000e+00 0.000000e+00 0.000000e+00 2.144871e-01 7.855129e-01
 0.000000e+00 0.000000e+00 0.000000e+00 0.000000e+00 0.000000e+00
<ENDHMM>
~h "c"
<BEGINHMM>
<NUMSTATES> 5
<STATE> 2
<MEAN> 52
 -4.516366e+00 5.085853e+00 2.054482e+00 2.964499e+00 4.333696e-01 -3.299040e+00 1.161880e+00 -1.113476e+00 -1.692142e-02 -5.204338e-01 3.971848e-02 1.155677e+00 -3.446748e+00 -2.446530e+00 3.569521e-01 -8.257589e-01 -4.681467e-01 5.468768e-01 -8.484334e-03 4.415328e-01 -2.712196e-01 2.164797e-01 -2.295170e-01 3.758058e-01 1.393574e-01 4.362884e-01 -1.065443e-02 -1.509697e-01 2.905546e-02 -2.349977e-01 -2.174886e-01 -1.802994e-01 1.485825e-02 1.315097e-01 3.887651e-02 -4.612888e-02 6.221509e-02 4.004554e-02 6.473719e-01 4.213175e-01 -1.016249e-01 1.323199e-01 7.424121e-02 -1.192697e-01 -2.183077e-02 -5.055742e-02 8.951644e-02 -4.340387e-03 2.637932e-02 -6.777985e-02 -2.867847e-02 -5.032472e-02
<VARIANCE> 52
 3.686798e+01 2.875019e+01 3.208022e+01 3.327691e+01 3.496507e+01 3.610048e+01 2.914470e+01 3.286031e+01 2.733044e+01 2.526866e+01 1.870307e+01 2.063691e+01 2.846608e+01 3.225766e+00 2.665302e+00 2.857946e+00 3.077399e+00 2.336090e+00 2.696431e+00 2.336958e+00 2.429237e+00 2.427354e+00 2.123034e+00 1.763554e+00 1.380828e+00 4.498324e+00 1.008216e+00 4.680996e-01 5.245151e-01 4.820737e-01 4.483471e-01 4.834107e-01 3.873316e-01 5.023281e-01 4.409713e-01 3.707245e-01 3.434044e-01 2.929110e-01 4.645551e-01 2.331192e-01 1.379687e-01 1.181398e-01 1.207050e-01 1.107968e-01 1.258031e-01 1.050034e-01 1.213021e-01 1.156243e-01 1.013797e-01 8.752067e-02 7.495930e-02 1.474877e-01
<GCONST> 1.134149e+02
<STATE> 3
<MEAN> 52
 -1.388490e+01 5.318270e+00 1.098634e+00 1.750247e-02 5.924819e-01 -4.672404e+00 3.518467e+00 -9.858994e-01 9.423812e-01 -1.674271e+00 2.076001e+00 2.344857e+00 2.811484e+00 1.962347e+00 -1.139032e+00 4.101844e-01 -2.862904e-01 -1.541644e+00 -1.048414e+00 -7.515430e-02 1.071255e+00 1.893418e-01 -2.249627e-01 -2.051193e-01 2.771149e-02 1.554261e+00 1.767647e+00 -6.746169e-01 -5.736261e-02 2.959844e-02 -2.646289e-01 8.369704e-02 -3.620545e-01 3.202798e-01 -1.047234e-02 7.300384e-02 -3.852414e-01 -3.256161e-01 -1.469171e-01 -3.624053e-01 7.163903e-02 -2.026495e-01 -6.606917e-02 3.125075e-01 2.242730e-01 1.787761e-02 -1.423247e-01 -9.807160e-03 1.788678e-02 2.334591e-02 -4.921193e-02 -1.224929e-01
<VARIANCE> 52
 2.988331e+01 2.682124e+01 4.143913e+01 3.883392e+01 3.851218e+01 3.489537e+01 3.177295e+01 2.305112e+01 2.281283e+01 3.011857e+01 1.699964e+01 1.822711e+01 1.408148e+01 8.383477e+00 2.753346e+00 2.696148e+00 2.906296e+00 3.269926e+00 2.608372e+00 2.635206e+00 3.249448e+00 2.360917e+00 2.641065e+00 2.290011e+00 1.973124e+00 2.218536e+00 7.366387e-01 6.580557e-01 6.828184e-01 6.614479e-01 7.687554e-01 6.003252e-01 4.858006e-01 6.147912e-01 5.223988e-01 5.866442e-01 3.920501e-01 3.442004e-01 3.306681e-01 3.728174e-01 1.110416e-01 1.083878e-01 1.217067e-01 1.338757e-01 1.145590e-01 1.111447e-01 1.184886e-01 1.024463e-01 1.158615e-01 1.067128e-01 8.301619e-02 9.873620e-02
<GCONST> 1.166883e+02
<STATE> 4
<MEAN> 52
 2.074412e-01 -1.143437e+00 -1.009609e+00 -1.136881e+00 -4.401091e+00 -7.375089e+00 2.446868e+00 4.613279e+00 1.737326e+00 -2.298174e+00 -1.163408e+00 7.250476e-01 7.470462e+00 3.304673e+00 -2.893519e+00 -1.101959e+00 -1.045472e+00 -3.279583e-01 5.416368e-01 -6.086271e-01 1.507168e+00 2.375506e-01 -2.326409e-02 -8.367574e-01 -1.177630e+00 1.687473e+00 -8.516207e-01 1.279029e-01 -2.343222e-01 -2.843814e-02 7.862276e-01 5.865120e-01 1.023760e-02 -3.968069e-01 -1.216048e-01 1.009769e-01 1.476033e-01 -6.492843e-02 -3.912283e-01 -5.297058e-01 4.153455e-01 1.449151e-01 1.255311e-01 4.849267e-02 -9.544705e-02 1.115176e-01 -2.139243e-01 -3.140714e-02 2.264295e-03 1.553369e-01 2.035257e-01 -1.724539e-01
<VARIANCE> 52
 1.406716e+01 2.472567e+01 4.157690e+01 3.193735e+01 4.254580e+01 2.253921e+01 4.560651e+01 3.680884e+01 1.473302e+01 2.000608e+01 1.828191e+01 1.594461e+01 2.131261e+01 3.091190e+00 3.706474e+00 2.862283e+00 2.782043e+00 4.164227e+00 2.783018e+00 3.075121e+00 4.545296e+00 2.239766e+00 3.352421e+00 2.231084e+00 1.909836e+00 1.217874e+00 3.796597e-01 4.500642e-01 4.527797e-01 3.860959e-01 5.436026e-01 4.432436e-01 3.647976e-01 5.052370e-01 3.632007e-01 4.418070e-01 4.140935e-01 3.262985e-01 2.418819e-01 1.975101e-01 1.078290e-01 1.097110e-01 1.031082e-01 1.691969e-01 1.176151e-01 1.315380e-01 1.567693e-01 9.622809e-02 1.263185e-01 9.265609e-02 6.958558e-02 3.959737e-02
<GCONST> 1.099000e+02
<TRANSP> 5
 0.000000e+00 1.000000e+00 0.000000e+00 0.000000e+00 0.000000e+00
 0.000000e+00 7.730153e-01 2.269846e-01 0.000000e+00 0.000000e+00
 0.000000e+00 0.000000e+00 6.550384e-01 3.449616e-01 0.000000e+00
 0.000000e+00 0.000000e+00 0.000000e+00 5.317156e-01 4.682845e-01
 0.000000e+00 0.000000e+00 0.000000e+00 0.000000e+00 0.000000e+00
<ENDHMM>
~h "d"
<BEGINHMM>
<NUMSTATES> 5
<STATE> 2
<MEAN> 52
 4.088754e+00 4.527648e+00 4.651536e+00 5.170065e+00 -7.223427e-01 -1.267159e+00 -9.613880e-01 3.026719e-01 5.495703e-02 -1.885942e+00 -2.519302e+00 2.066476e-01 -2.983065e+00 2.014097e-01 6.065173e-01 5.361977e-01 4.750079e-01 3.375461e-01 -8.449875e-02 7.211220e-02 -2.131012e-02 -2.214094e-01 -3.401647e-01 -2.251852e-01 -1.907449e-02 -1.418489e-01 -2.521461e-01 -6.163132e-01 -3.992098e-02 -5.969387e-01 -3.950471e-01 -3.529228e-01 -1.215830e-01 1.455780e-01 3.334739e-02 1.052919e-01 3.383110e-01 1.245664e-01 7.215803e-01 -1.183954e-02 -1.204866e-01 -2.525014e-02 -1.341731e-01 -1.409766e-01 -5.128458e-02 -5.751444e-02 3.786028e-02 4.651291e-02 6.841161e-02 6.490164e-02 4.243436e-03 1.073148e-01
<VARIANCE> 52
 2.982217e+01 4.332264e+01 3.221914e+01 3.423016e+01 3.828770e+01 3.404470e+01 3.314062e+01 3.676781e+01 2.761552e+01 2.563921e+01 2.657875e+01 1.855356e+01 4.904065e+01 2.091067e+00 3.370545e+00 1.993047e+00 2.768740e+00 3.336233e+00 2.899818e+00 2.436346e+00 2.940700e+00 2.116331e+00 2.036319e+00 2.013191e+00 1.512439e+00 2.952868e+00 3.060153e-01 6.204006e-01 3.799847e-01 5.365674e-01 6.517930e-01 5.772258e-01 5.296242e-01 6.993176e-01 4.703348e-01 4.537235e-01 4.445294e-01 3.306079e-01 3.814926e-01 6.474105e-02 1.416476e-01 7.749345e-02 1.190421e-01 1.587634e-01 1.408716e-01 1.143041e-01 1.289250e-01 9.619106e-02 9.473883e-02 9.390289e-02 7.595331e-02 9.673965e-02
<GCONST> 1.132093e+02
<STATE> 3
<MEAN> 52
 3.927512e+00 1.838010e+00 6.017582e+00 3.848645e+00 -1.966506e+00 -3.961194e+00 -2.135427e+00 5.782126e-01 -1.717842e-01 -2.875647e+00 -1.265464e+00 1.538560e+00 1.164255e+00 -7.395450e-01 -2.116521e+00 1.696220e-01 -1.944562e+00 -1.685985e+00 -1.845719e+00 -5.942514e-01 1.139912e+00 3.300670e-01 3.175039e-01 1.284984e+00 5.400795e-01 2.661505e+00 -4.166754e-02 -2.043945e-01 -2.793196e-01 -5.387129e-01 -3.359824e-01 5.448539e-02 4.256964e-02 2.406285e-01 1.190077e-01 2.462624e-01 8.128434e-02 -2.721401e-01 3.464071e-01 1.533501e-01 4.208215e-01 -5.373942e-02 3.389245e-01 3.439272e-01 3.800763e-01 1.355404e-01 -1.701117e-01 -6.279112e-02 -6.193561e-02 -2.707408e-01 -1.549943e-01 -4.779549e-01
<VARIANCE> 52
 1.443776e+01 3.843950e+01 3.314400e+01 3.687183e+01 4.389068e+01 3.681303e+01 3.668603e+01 4.177356e+01 2.708900e+01 2.611162e+01 2.563660e+01 2.166883e+01 3.147466e+01 1.627219e+00 3.459336e+00 3.404069e+00 3.423344e+00 4.083776e+00 3.422560e+00 4.276592e+00 6.858576e+00 3.775706e+00 3.317453e+00 2.834821e+00 2.386508e+00 2.029881e+00 2.094167e-01 5.988217e-01 4.162350e-01 5.879716e-01 8.299248e-01 6.577337e-01 6.298782e-01 6.542597e-01 5.036531e-01 4.736218e-01 5.266923e-01 3.975800e-01 3.843734e-01 5.286758e-02 1.040177e-01 1.006478e-01 1.301592e-01 1.631614e-01 1.298575e-01 1.564701e-01 2.336443e-01 1.345176e-01 1.325240e-01 1.072833e-01 9.579947e-02 5.012881e-02
<GCONST> 1.181688e+02
<STATE> 4
<MEAN> 52
 2.774060e+00 -2.862620e+00 4.728805e+00 -2.014760e+00 -7.211638e+00 -7.867409e+00 -2.704855e+00 5.120195e+00 2.153378e+00 -1.032039e+00 1.139340e+00 1.083505e+00 7.431394e+00 -3.689601e-01 -8.994780e-01 -7.249354e-01 -1.750302e+00 -8.344529e-01 -8.290902e-03 3.462799e-01 9.781527e-01 2.948837e-01 5.373375e-01 2.001309e-01 -8.514097e-01 1.528682e+00 1.723100e-01 5.358506e-01 -1.342009e-01 3.985211e-01 6.392320e-01 7.461136e-01 1.722585e-01 -4.329163e-01 -2.275983e-01 -6.569381e-02 -3.922026e-01 -2.687286e-01 -6.650763e-01 4.312516e-02 1.087153e-01 1.133828e-01 2.764577e-01 1.623480e-01 -2.039373e-02 -7.632291e-02 -1.521005e-01 -4.908661e-02 -8.386324e-02 -1.180447e-02 1.703569e-01 -2.269208e-01
<VARIANCE> 52
 1.420682e+01 2.967839e+01 3.804013e+01 3.729407e+01 3.316050e+01 3.131597e+01 5.205174e+01 7.405929e+01 4.105349e+01 2.821715e+01 2.406068e+01 2.114398e+01 2.327283e+01 1.127191e+00 2.711276e+00 3.904134e+00 3.184072e+00 4.640166e+00 3.191941e+00 4.224682e+00 4.872366e+00 3.629571e+00 2.886949e+00 3.467327e+00 2.313333e+00 1.357387e+00 1.506486e-01 3.809737e-01 3.345075e-01 5.271908e-01 6.169506e-01 4.960753e-01 6.413892e-01 8.559405e-01 4.779645e-01 4.640277e-01 4.135479e-01 3.726329e-01 2.277102e-01 4.025620e-02 9.684750e-02 1.151839e-01 1.287135e-01 1.905597e-01 1.338184e-01 1.607209e-01 1.769076e-01 1.260500e-01 1.122939e-01 1.373520e-01 9.040649e-02 6.048140e-02
<GCONST> 1.149298e+02
<TRANSP> 5
 0.000000e+00 1.000000e+00 0.000000e+00 0.000000e+00 0.000000e+00
 0.000000e+00 6.139369e-01 3.860631e-01 0.000000e+00 0.000000e+00
 0.000000e+00 0.000000e+00 4.449935e-01 5.550065e-01 0.000000e+00
 0.000000e+00 0.000000e+00 0.000000e+00 3.960995e-01 6.039005e-01
 0.000000e+00 0.000000e+00 0.000000e+00 0.000000e+00 0.000000e+00
<ENDHMM>
~h "e"
<BEGINHMM>
<NUMSTATES> 5
<STATE> 2
<MEAN> 52
 3.180818e+00 -1.453404e+00 -1.076750e+00 -2.373681e+00 -1.661270e+00 -2.562556e+00 -2.583307e+00 8.030670e-01 1.395478e+00 1.233747e+00 4.717949e-01 -6.498014e-01 5.009326e+00 7.932876e-01 -6.187965e-01 1.972455e-01 -6.654009e-01 -4.585817e-01 -1.095074e-01 -4.396839e-01 5.611575e-01 1.088676e-01 1.152539e-01 -2.281481e-02 -2.847383e-01 8.942174e-01 -3.331927e-01 3.415865e-01 1.605535e-01 4.545454e-01 2.351614e-01 2.297700e-01 2.461715e-01 -2.427056e-01 -1.817846e-01 -1.238624e-01 -2.634805e-02 1.037273e-01 -5.839527e-01 -9.504074e-02 9.019457e-02 -2.343625e-02 1.043372e-01 5.845341e-02 -2.705490e-03 6.370556e-02 -1.091661e-01 -1.906144e-02 -2.113796e-02 5.449924e-03 4.031404e-02 -9.533592e-02
<VARIANCE> 52
 2.918875e+01 3.732236e+01 3.996380e+01 5.410103e+01 5.035633e+01 6.923959e+01 4.564473e+01 5.196684e+01 4.398945e+01 3.586982e+01 3.252137e+01 2.480464e+01 4.306886e+01 3.066642e+00 2.941387e+00 2.807857e+00 3.870097e+00 3.694561e+00 3.982878e+00 4.164628e+00 4.533499e+00 3.839154e+00 3.282122e+00 2.659141e+00 2.134959e+00 2.082599e+00 5.628429e-01 5.400199e-01 5.279856e-01 7.596923e-01 7.021676e-01 6.913431e-01 7.589609e-01 7.741135e-01 7.346492e-01 5.842170e-01 5.391790e-01 4.170917e-01 4.976797e-01 1.023542e-01 1.114524e-01 1.096585e-01 1.424475e-01 1.500385e-01 1.500843e-01 1.640254e-01 1.750097e-01 1.536294e-01 1.397853e-01 1.157674e-01 8.738521e-02 7.341860e-02
<GCONST> 1.257880e+02
<STATE> 3
<MEAN> 52
 3.839568e+00 -2.284742e+00 -8.901889e-01 -3.084246e+00 -2.358993e+00 -3.124956e+00 -2.998966e+00 1.733541e+00 1.344495e+00 1.285333e+00 5.399953e-01 -9.361120e-01 6.348216e+00 1.949675e-01 4.917447e-01 6.001590e-01 5.951821e-01 6.581275e-02 2.893958e-01 8.896745e-02 -3.305873e-01 -3.386142e-01 -1.046773e-01 -3.393677e-02 9.203638e-02 -6.636703e-01 -3.727841e-01 4.551668e-01 1.075627e-01 5.690538e-01 2.998020e-01 1.982464e-01 2.802518e-01 -3.703976e-01 -1.284088e-01 -1.522977e-01 -5.480570e-02 1.402702e-01 -6.650881e-01 4.154159e-02 -1.213210e-01 -9.939338e-02 -1.596186e-01 -6.198849e-02 -7.263824e-02 -5.072156e-02 8.262771e-02 7.661910e-02 2.691739e-02 3.142351e-03 -4.039145e-02 1.946595e-01
<VARIANCE> 52
 1.954687e+01 3.400556e+01 4.020858e+01 4.516972e+01 4.860048e+01 5.964155e+01 4.317646e+01 4.864353e+01 3.978902e+01 3.594416e+01 3.392170e+01 2.353685e+01 2.358883e+01 1.071828e+00 1.703890e+00 1.611950e+00 2.534060e+00 2.404606e+00 2.407568e+00 2.427133e+00 2.548950e+00 2.347450e+00 2.067393e+00 1.868300e+00 1.431877e+00 1.184770e+00 3.908519e-01 3.634571e-01 4.422665e-01 5.191005e-01 5.906006e-01 5.605998e-01 6.235906e-01 6.789088e-01 5.784788e-01 5.441289e-01 5.077723e-01 3.448492e-01 2.154749e-01 5.347736e-02 6.862371e-02 7.297207e-02 1.084143e-01 1.063329e-01 1.051652e-01 1.092758e-01 1.135504e-01 1.068108e-01 9.698383e-02 9.188574e-02 6.629507e-02 5.363175e-02
<GCONST> 1.088780e+02
<STATE> 4
<MEAN> 52
 2.919688e+00 5.498835e-01 1.358540e+00 -4.112300e-01 -2.544044e+00 -2.730173e+00 -1.203809e+00 -1.805458e-01 4.493933e-01 7.283548e-01 8.521160e-02 -4.174430e-01 2.231163e+00 -1.107619e-01 6.944566e-01 3.011388e-01 8.552710e-01 3.252119e-01 4.085304e-01 2.760215e-01 -3.667538e-01 -1.259860e-01 -2.235154e-01 -2.087471e-01 1.216323e-01 -1.160409e+00 -1.299492e-01 -1.774215e-02 -7.585438e-02 7.147179e-03 2.380406e-02 7.384932e-04 2.223844e-02 -2.232770e-02 -1.582530e-03 -7.616358e-03 2.721924e-02 1.792573e-02 8.307157e-03 5.453856e-02 -1.245429e-01 -4.559969e-02 -1.748048e-01 -7.145406e-02 -5.849868e-02 -6.655139e-02 6.362460e-02 1.021689e-02 4.960052e-02 4.182296e-02 -3.234186e-02 2.101588e-01
<VARIANCE> 52
 1.822643e+01 3.599999e+01 3.645248e+01 4.264589e+01 4.913202e+01 4.584048e+01 3.656876e+01 4.248289e+01 3.231132e+01 2.986338e+01 3.153676e+01 1.931901e+01 3.919909e+01 8.287164e-01 1.238236e+00 1.337227e+00 1.763135e+00 1.726016e+00 1.706565e+00 1.851645e+00 2.234886e+00 1.804743e+00 1.607465e+00 1.611870e+00 1.092089e+00 1.119298e+00 1.598094e-01 2.222152e-01 2.187189e-01 3.439876e-01 3.463974e-01 3.531059e-01 3.451405e-01 3.916389e-01 3.403347e-01 3.240970e-01 3.062829e-01 2.109243e-01 2.033220e-01 4.309728e-02 5.645985e-02 6.274304e-02 8.972371e-02 8.461490e-02 8.474191e-02 9.255508e-02 1.042119e-01 8.820744e-02 8.068343e-02 7.857094e-02 5.305491e-02 4.819750e-02
<GCONST> 9.575361e+01
<TRANSP> 5
 0.000000e+00 1.000000e+00 0.000000e+00 0.000000e+00 0.000000e+00
 0.000000e+00 3.104556e-01 6.895444e-01 0.000000e+00 0.000000e+00
 0.000000e+00 0.000000e+00 2.085631e-01 7.914369e-01 0.000000e+00
 0.000000e+00 0.000000e+00 0.000000e+00 5.756967e-01 4.243033e-01
 0.000000e+00 0.000000e+00 0.000000e+00 0.000000e+00 0.000000e+00
<ENDHMM>
~h "f"
<BEGINHMM>
<NUMSTATES> 5
<STATE> 2
<MEAN> 52
 -2.381216e+00 2.300689e+00 2.295978e+00 2.242549e+00 -2.934759e+00 -7.068367e-01 -1.008635e+00 -1.612605e+00 -3.530664e-01 2.090498e-01 1.050531e+00 7.857038e-01 -2.200056e-01 -1.874595e+00 7.270221e-02 -1.307706e+00 1.323691e+00 7.752135e-01 -4.990066e-01 1.078645e-01 7.310289e-02 3.762506e-01 1.351938e-01 -1.298769e-01 5.980802e-01 -5.204390e-01 -7.693539e-02 -2.137488e-01 -1.052811e-01 -1.538676e-01 -1.470888e-01 -1.602547e-01 -2.833956e-02 -5.935893e-02 5.023956e-03 -7.685369e-03 3.066655e-03 -7.808444e-02 1.903007e-01 2.762359e-01 9.260736e-04 2.231479e-01 -1.829984e-01 -1.517511e-01 7.305760e-02 -7.100868e-03 -3.219083e-02 -1.287934e-01 7.096590e-04 2.954151e-02 -8.062363e-02 4.862646e-02
<VARIANCE> 52
 2.822176e+01 2.496654e+01 9.916527e+01 5.489629e+01 1.068426e+02 8.914793e+01 4.533767e+01 3.863851e+01 3.455670e+01 2.288942e+01 2.696119e+01 3.423870e+01 3.445071e+01 1.973738e+00 2.472566e+00 3.365106e+00 2.973414e+00 5.808816e+00 2.828768e+00 3.265158e+00 3.055817e+00 2.498234e+00 2.256735e+00 1.601487e+00 1.820293e+00 8.302491e-01 3.961829e-01 2.739024e-01 4.644155e-01 5.357050e-01 6.040953e-01 4.018433e-01 3.624197e-01 3.983845e-01 3.475937e-01 3.562765e-01 2.164136e-01 2.941605e-01 1.621829e-01 7.544251e-02 9.342907e-02 1.146013e-01 1.339754e-01 1.765968e-01 1.104670e-01 1.122443e-01 1.367682e-01 1.252101e-01 9.641145e-02 7.381947e-02 8.297714e-02 2.883210e-02
<GCONST> 1.120731e+02
<STATE> 3
<MEAN> 52
 -7.257466e+00 1.705828e+00 -1.465585e+00 6.382735e+00 2.426579e-01 -2.575806e+00 3.370660e-01 -6.958680e-01 8.233644e-01 4.939370e-01 2.701761e-01 1.223870e+00 -1.248295e+00 -1.399923e+00 -6.395504e-01 -9.140266e-01 5.966070e-01 2.097362e-01 -6.332030e-01 3.371908e-02 -1.980621e-01 2.248679e-01 2.132879e-01 2.289355e-02 2.443372e-01 -1.321452e-01 7.338239e-01 -1.116521e-01 4.332542e-01 -6.421527e-01 -3.465974e-01 1.306218e-01 -2.182175e-02 -1.368695e-01 -3.896103e-01 -4.022190e-02 7.817744e-02 -1.071423e-01 2.328129e-01 2.408279e-01 1.356471e-01 1.534597e-01 -1.260908e-01 -4.824909e-02 1.065581e-01 1.730024e-02 1.093876e-02 -1.084442e-01 -1.653208e-02 6.609816e-03 -3.578534e-02 8.945822e-03
<VARIANCE> 52
 1.707490e+01 3.148259e+01 4.292713e+01 3.848946e+01 3.470696e+01 6.499737e+01 3.600631e+01 3.104280e+01 2.767856e+01 2.246193e+01 2.146049e+01 2.718481e+01 3.274255e+01 2.473406e+00 1.422407e+00 2.913767e+00 2.639874e+00 2.759855e+00 2.595561e+00 2.112897e+00 1.860171e+00 1.869230e+00 1.976897e+00 1.355221e+00 1.405932e+00 1.103770e+00 2.931308e-01 3.889109e-01 6.573457e-01 5.761294e-01 6.298169e-01 5.253032e-01 5.185806e-01 4.825286e-01 4.765706e-01 4.474204e-01 3.101821e-01 3.415401e-01 2.166351e-01 8.759840e-02 5.779003e-02 7.838339e-02 1.212064e-01 1.105542e-01 1.021887e-01 8.944008e-02 8.778760e-02 8.329927e-02 9.116162e-02 5.400924e-02 7.331402e-02 3.532777e-02
<GCONST> 1.050017e+02
<STATE> 4
<MEAN> 52
 -8.380958e+00 -1.527649e+00 -1.533280e+00 4.638065e+00 1.525244e+00 -5.204334e-01 1.367720e+00 -1.470970e+00 3.286292e-01 2.427849e-01 1.374562e+00 1.404095e+00 -1.001176e+00 1.258452e+00 7.031273e-02 3.821947e-01 -1.184756e+00 -5.284204e-01 3.218694e-01 -4.069889e-02 -4.054644e-01 -7.071986e-01 -1.570832e-02 2.056369e-02 -1.836947e-01 2.008127e-01 6.517119e-01 2.268785e-01 2.507676e-01 -5.320076e-01 -3.033541e-01 1.336570e-01 -1.233266e-01 -9.336956e-02 -1.888025e-01 5.858133e-02 2.966661e-02 -1.663805e-01 2.603847e-01 -2.334367e-01 -1.221261e-02 -9.265605e-02 1.340372e-01 8.163276e-02 -5.289594e-02 -1.410972e-02 4.426758e-02 1.289405e-01 3.336404e-02 -7.504367e-03 2.526994e-02 -6.957475e-03
<VARIANCE> 52
 2.452789e+01 1.927245e+01 2.988711e+01 3.433084e+01 2.648443e+01 3.523331e+01 2.687166e+01 2.253423e+01 2.026009e+01 1.760803e+01 1.380834e+01 1.920569e+01 2.791605e+01 3.609621e+00 2.441099e+00 3.821080e+00 3.648923e+00 2.683798e+00 2.590543e+00 2.225073e+00 2.443038e+00 2.250261e+00 1.447215e+00 1.720616e+00 1.480463e+00 2.484226e+00 4.402470e-01 3.863259e-01 4.784576e-01 5.944203e-01 5.271890e-01 4.535356e-01 4.953365e-01 4.963906e-01 4.107807e-01 2.601795e-01 2.904644e-01 3.297915e-01 2.410927e-01 1.069090e-01 9.392698e-02 1.086523e-01 1.188855e-01 9.981950e-02 9.462103e-02 1.094118e-01 9.998102e-02 1.010042e-01 6.792650e-02 7.060485e-02 6.432865e-02 7.328197e-02
<GCONST> 1.051772e+02
<TRANSP> 5
 0.000000e+00 1.000000e+00 0.000000e+00 0.000000e+00 0.000000e+00
 0.000000e+00 3.450681e-01 6.549318e-01 0.000000e+00 0.000000e+00
 0.000000e+00 0.000000e+00 4.790566e-01 5.209434e-01 0.000000e+00
 0.000000e+00 0.000000e+00 0.000000e+00 6.822194e-01 3.177806e-01
 0.000000e+00 0.000000e+00 0.000000e+00 0.000000e+00 0.000000e+00
<ENDHMM>
~h "g"
<BEGINHMM>
<NUMSTATES> 5
<STATE> 2
<MEAN> 52
 3.628011e+00 5.815321e+00 4.583160e+00 3.698233e+00 -2.822750e-01 -1.228176e+00 -1.279998e+00 -1.394601e+00 -1.398223e+00 4.125802e-01 -1.798386e+00 -5.781625e-01 -2.673099e+00 -6.388356e-01 -1.906739e-01 -1.888692e-02 1.874705e-01 8.508587e-01 -3.814117e-01 8.262626e-02 1.699375e-01 -2.524992e-01 1.869673e-02 -1.814161e-01 1.992320e-01 2.273325e-01 -1.552326e-01 -4.364379e-01 -5.679141e-02 -5.444261e-01 -1.844435e-01 -3.678828e-01 -1.779738e-01 1.233785e-01 8.906579e-03 1.135523e-01 1.544320e-01 6.409760e-02 6.934698e-01 1.044636e-01 6.530955e-02 9.006876e-02 -5.769505e-02 -2.234573e-01 3.089901e-02 -3.099570e-02 -3.381815e-02 2.393444e-02 -4.636378e-03 5.455516e-02 -2.856758e-02 -2.115885e-02
<VARIANCE> 52
 1.797631e+01 2.683770e+01 2.887715e+01 3.503028e+01 3.666324e+01 3.742107e+01 3.365552e+01 3.332240e+01 2.583357e+01 2.644760e+01 2.205540e+01 1.963720e+01 2.400068e+01 1.772105e+00 3.349571e+00 2.729477e+00 3.216218e+00 4.182440e+00 4.276028e+00 3.341568e+00 3.397624e+00 2.545312e+00 2.646079e+00 2.335809e+00 1.898095e+00 3.043345e+00 2.647805e-01 3.817498e-01 4.386330e-01 4.841039e-01 7.571984e-01 5.586091e-01 5.351011e-01 6.355621e-01 4.588274e-01 4.838682e-01 4.188094e-01 3.445672e-01 2.646745e-01 7.643875e-02 1.122901e-01 1.008997e-01 1.223780e-01 1.877654e-01 1.765153e-01 1.492706e-01 1.391051e-01 1.147104e-01 1.228783e-01 9.601937e-02 9.162483e-02 9.708150e-02
<GCONST> 1.141548e+02
<STATE> 3
<MEAN> 52
 1.396879e+00 1.700907e+00 3.461509e+00 7.959242e-01 8.886428e-01 -6.492554e+00 -3.398223e+00 -2.133047e-01 -2.371700e+00 2.372366e+00 -1.164011e+00 7.209054e-01 3.139613e+00 -6.906280e-02 -8.914376e-01 2.854288e-01 -1.825979e+00 -1.685970e+00 -1.277909e+00 -4.507244e-01 8.714479e-01 1.526518e-01 4.267329e-01 5.872548e-01 3.507049e-02 1.944160e+00 3.261492e-01 5.248488e-02 3.218368e-02 -2.311407e-01 -5.370339e-01 4.797310e-01 1.397709e-01 7.407881e-02 2.489021e-01 -2.203192e-01 5.903558e-02 -2.352924e-01 -8.676218e-02 -9.131907e-03 7.480820e-02 -8.270305e-02 3.073667e-01 2.972022e-01 2.226930e-01 1.296805e-01 -9.953611e-02 -8.153725e-03 -1.037565e-01 -9.681982e-02 -1.976930e-02 -2.764452e-01
<VARIANCE> 52
 2.164972e+01 3.106372e+01 4.617329e+01 4.332673e+01 6.412437e+01 4.928234e+01 4.315642e+01 3.320139e+01 3.487727e+01 3.536731e+01 3.656712e+01 2.618256e+01 2.209802e+01 1.707995e+00 3.099228e+00 3.481914e+00 3.836913e+00 5.718490e+00 3.850860e+00 3.144558e+00 4.335678e+00 3.951020e+00 3.429342e+00 3.577465e+00 2.547051e+00 1.600786e+00 2.353684e-01 5.320153e-01 5.155578e-01 6.021577e-01 1.177743e+00 7.260422e-01 7.718648e-01 5.743668e-01 5.680438e-01 5.794647e-01 5.260577e-01 4.479135e-01 2.643271e-01 6.319156e-02 1.174461e-01 1.119023e-01 1.280786e-01 2.259282e-01 1.452635e-01 1.236209e-01 1.483816e-01 1.354199e-01 1.369660e-01 1.230841e-01 1.005886e-01 5.585172e-02
<GCONST> 1.214021e+02
<STATE> 4
<MEAN> 52
 2.323420e+00 6.296384e-01 4.222594e+00 -3.509160e+00 -4.288248e+00 -6.569857e+00 -2.602071e+00 1.831394e+00 -7.534283e-01 2.020905e+00 -9.292843e-01 -7.768217e-02 5.728285e+00 1.511865e-01 -7.954897e-01 -3.024207e-01 -1.089773e+00 -7.764814e-01 4.547975e-01 4.365231e-01 6.316750e-01 4.160708e-01 -5.617063e-01 8.854574e-02 -4.615547e-01 8.967402e-01 6.439497e-02 6.016425e-02 -1.128203e-01 3.946106e-01 3.399298e-01 3.729375e-01 9.084362e-02 -2.751600e-01 -9.353460e-02 -1.619440e-01 -6.285099e-02 -4.326264e-02 -3.309793e-01 -4.884445e-02 7.732309e-02 5.006899e-02 1.496357e-01 9.630606e-02 -1.501280e-01 -7.766368e-02 -8.290449e-02 -8.905913e-02 1.166637e-01 1.118493e-02 8.639006e-02 -6.758981e-02
<VARIANCE> 52
 2.009257e+01 4.266997e+01 4.055186e+01 4.177694e+01 4.712857e+01 4.652404e+01 4.192374e+01 4.146602e+01 3.923142e+01 3.673199e+01 5.287748e+01 2.469040e+01 2.932030e+01 6.014486e-01 2.160940e+00 2.653634e+00 2.134418e+00 2.907085e+00 2.153333e+00 3.868582e+00 2.914832e+00 3.043320e+00 2.417709e+00 2.563461e+00 2.081028e+00 8.088120e-01 2.156987e-01 3.539035e-01 3.382188e-01 5.015079e-01 8.826795e-01 4.656499e-01 4.916339e-01 5.265908e-01 4.808475e-01 5.681947e-01 5.292779e-01 3.447716e-01 2.007027e-01 2.561859e-02 6.349100e-02 8.096324e-02 8.324890e-02 1.312330e-01 8.947778e-02 1.402942e-01 9.831134e-02 1.160870e-01 9.866271e-02 9.790246e-02 8.815333e-02 3.042543e-02
<GCONST> 1.083933e+02
<TRANSP> 5
 0.000000e+00 1.000000e+00 0.000000e+00 0.000000e+00 0.000000e+00
 0.000000e+00 6.521767e-01 3.478233e-01 0.000000e+00 0.000000e+00
 0.000000e+00 0.000000e+00 4.949135e-01 5.050865e-01 0.000000e+00
 0.000000e+00 0.000000e+00 0.000000e+00 3.615637e-01 6.384363e-01
 0.000000e+00 0.000000e+00 0.000000e+00 0.000000e+00 0.000000e+00
<ENDHMM>
~h "h"
<BEGINHMM>
<NUMSTATES> 5
<STATE> 2
<MEAN> 52
 3.221535e-01 -2.476048e+00 -2.658270e-01 -4.255221e-01 3.133645e+00 1.643468e+00 1.820440e+00 -2.617927e-01 5.513493e-03 -1.318350e+00 -1.403040e+00 -1.334968e-01 3.532578e+00 -4.810895e-01 -1.678845e-01 -5.691961e-02 7.417130e-01 8.598954e-01 3.346779e-01 6.665407e-01 1.102105e-01 8.221988e-02 -1.982173e-01 -4.898645e-03 1.855178e-01 -5.143741e-01 7.018409e-02 -5.674303e-02 -5.339945e-02 -1.565292e-01 -2.065626e-01 -8.688123e-02 -1.310970e-01 -3.838429e-02 1.553404e-03 6.344749e-02 3.225673e-02 -6.396686e-02 6.948935e-02 7.025490e-02 1.755766e-02 -7.247318e-03 -8.755654e-02 -1.168679e-01 -4.542771e-02 -7.883306e-02 -9.747379e-03 -2.566537e-02 2.145938e-02 5.600917e-03 -2.084223e-02 6.168694e-02
<VARIANCE> 52
 1.980071e+01 3.758720e+01 4.997149e+01 4.573294e+01 5.357952e+01 4.811216e+01 4.408089e+01 4.735553e+01 3.747790e+01 3.592026e+01 2.419260e+01 2.228782e+01 3.192194e+01 1.019576e+00 1.833583e+00 1.967301e+00 1.741758e+00 2.411805e+00 2.297335e+00 2.636377e+00 2.648920e+00 2.180471e+00 2.110474e+00 1.799864e+00 1.318765e+00 1.028038e+00 1.312566e-01 2.012670e-01 2.545677e-01 2.940834e-01 3.563185e-01 3.294215e-01 3.814702e-01 3.735053e-01 3.710822e-01 3.407811e-01 2.864837e-01 2.354513e-01 1.048760e-01 2.913413e-02 5.610386e-02 6.474025e-02 6.676254e-02 8.028434e-02 9.292326e-02 1.022976e-01 1.006592e-01 9.168110e-02 9.423776e-02 7.733010e-02 5.510924e-02 2.826094e-02
<GCONST> 9.785852e+01
<STATE> 3
<MEAN> 52
 -7.735060e-02 -2.922967e+00 -9.288377e-01 8.282746e-01 4.513848e+00 2.422587e+00 2.775239e+00 3.277309e-01 9.188124e-01 -9.828685e-01 -1.436471e+00 2.911736e-02 2.724519e+00 1.308949e-01 1.188560e-01 -2.235338e-01 2.138257e-01 -5.095193e-02 1.536531e-01 1.171231e-02 -1.974545e-01 -8.852714e-02 -5.135504e-02 -8.352140e-02 -7.882726e-02 -3.609899e-01 1.842264e-01 -1.915115e-02 -8.966060e-02 -2.821569e-01 -3.515560e-01 -1.723513e-01 -2.172568e-01 -1.823870e-02 -7.069704e-02 5.205584e-02 3.566343e-02 -8.129630e-02 1.844715e-01 -3.293663e-02 -2.847564e-02 1.659574e-02 -1.612642e-02 2.789991e-02 -3.255698e-02 1.337865e-02 5.504827e-02 1.140594e-02 -9.499769e-04 2.307339e-02 2.086516e-02 4.759885e-02
<VARIANCE> 52
 2.422275e+01 4.228343e+01 4.869138e+01 4.431645e+01 5.705424e+01 4.976431e+01 3.961738e+01 4.854380e+01 2.723683e+01 3.072558e+01 2.385868e+01 2.318771e+01 3.595918e+01 1.474601e+00 1.458030e+00 1.813098e+00 1.577355e+00 1.915252e+00 1.765778e+00 1.665842e+00 2.432695e+00 1.902899e+00 1.836717e+00 1.567935e+00 1.364732e+00 1.280680e+00 2.100085e-01 2.823506e-01 3.188535e-01 3.314059e-01 3.851655e-01 3.606175e-01 3.593794e-01 4.076392e-01 3.244656e-01 2.929429e-01 2.977591e-01 2.392956e-01 1.581001e-01 4.642208e-02 5.097489e-02 6.809264e-02 6.734880e-02 7.528330e-02 7.913081e-02 7.462867e-02 9.979171e-02 8.165159e-02 8.106788e-02 7.170303e-02 5.653154e-02 3.280577e-02
<GCONST> 9.780834e+01
<STATE> 4
<MEAN> 52
 -2.087592e+00 -3.390744e+00 -2.327784e+00 2.424295e+00 3.686911e+00 3.512113e+00 3.819784e+00 7.687387e-01 6.406145e-01 -5.044831e-01 -4.132514e-01 8.862747e-01 -1.905436e+00 2.404321e-01 3.930626e-02 -1.808380e-01 -1.545842e-01 -4.255072e-01 -1.571750e-01 -2.126986e-01 6.746896e-02 -9.837404e-02 4.495549e-02 2.755456e-02 -5.475076e-02 -5.007976e-02 2.948163e-02 -3.562864e-02 8.391283e-03 -1.127882e-01 -8.029233e-02 -8.594687e-02 -7.096154e-02 5.490829e-02 -1.698366e-02 8.840623e-03 2.467737e-02 -1.274313e-02 1.353189e-01 -4.114553e-02 3.815229e-04 2.436701e-02 3.664679e-02 6.083380e-02 1.805352e-02 3.422835e-02 6.015599e-03 2.053485e-02 -3.044190e-03 1.816014e-03 1.446939e-02 -7.128378e-03
<VARIANCE> 52
 3.564151e+01 3.841195e+01 3.677168e+01 4.746985e+01 3.770500e+01 3.579217e+01 3.640261e+01 4.228846e+01 2.593555e+01 2.876372e+01 2.512688e+01 2.148319e+01 8.786610e+01 1.072155e+00 1.387644e+00 1.326734e+00 1.598050e+00 1.689262e+00 1.381170e+00 1.554015e+00 1.621014e+00 1.476062e+00 1.399227e+00 1.228386e+00 1.112226e+00 1.265890e+00 1.455779e-01 2.304291e-01 2.272212e-01 2.801523e-01 2.780459e-01 2.911726e-01 3.050388e-01 3.331537e-01 2.910493e-01 2.823311e-01 2.578187e-01 2.087214e-01 1.545313e-01 3.200489e-02 4.379059e-02 5.151358e-02 5.727567e-02 6.279930e-02 5.860227e-02 6.598478e-02 6.630092e-02 6.296653e-02 6.192334e-02 5.411407e-02 4.726167e-02 2.945437e-02
<GCONST> 8.966652e+01
<TRANSP> 5
 0.000000e+00 1.000000e+00 0.000000e+00 0.000000e+00 0.000000e+00
 0.000000e+00 3.484864e-01 6.515136e-01 0.000000e+00 0.000000e+00
 0.000000e+00 0.000000e+00 2.216204e-01 7.783796e-01 0.000000e+00
 0.000000e+00 0.000000e+00 0.000000e+00 6.389526e-01 3.610474e-01
 0.000000e+00 0.000000e+00 0.000000e+00 0.000000e+00 0.000000e+00
<ENDHMM>
~h "i"
<BEGINHMM>
<NUMSTATES> 5
<STATE> 2
<MEAN> 52
 -1.788397e-01 3.666558e+00 1.049838e+01 -1.214117e+00 -7.845602e+00 -4.591790e+00 -1.193159e+00 -4.719895e+00 -3.701096e+00 6.063222e-01 1.333134e+00 -3.032097e-01 3.682784e+00 1.328938e-01 3.157365e-01 2.232736e+00 -1.579309e+00 -1.919451e+00 -1.166180e-01 -7.119280e-01 -7.017866e-01 -7.399676e-01 5.182492e-01 3.838454e-01 -3.325224e-01 1.136081e+00 -7.635903e-02 -1.733520e-02 -5.062674e-01 8.755025e-02 4.244355e-01 2.597622e-01 7.389699e-02 2.131245e-01 2.637002e-01 -2.195533e-02 -1.060385e-01 4.163834e-02 -2.707473e-01 -2.913353e-02 -2.043738e-02 -3.170402e-01 2.794966e-01 3.085862e-01 -8.616397e-03 1.362801e-01 8.545838e-02 1.091432e-01 -8.906884e-02 -6.141771e-02 6.814736e-02 -1.913448e-01
<VARIANCE> 52
 2.245005e+01 3.799331e+01 3.925211e+01 5.103221e+01 4.146722e+01 4.243253e+01 3.934105e+01 4.570395e+01 3.246109e+01 3.562421e+01 3.539433e+01 2.481409e+01 2.770221e+01 3.390846e+00 2.505180e+00 3.335164e+00 4.348974e+00 4.048730e+00 3.510068e+00 4.585448e+00 4.022502e+00 3.080939e+00 3.130834e+00 3.581380e+00 2.524008e+00 1.424366e+00 3.739888e-01 3.649978e-01 5.891182e-01 6.702749e-01 7.228771e-01 5.363055e-01 6.390086e-01 6.512175e-01 4.744004e-01 4.910937e-01 4.949642e-01 3.552495e-01 2.966540e-01 9.933539e-02 9.071681e-02 1.082301e-01 1.404978e-01 1.585044e-01 1.374462e-01 1.689355e-01 1.481597e-01 1.165614e-01 1.220067e-01 1.359343e-01 9.709427e-02 4.688459e-02
<GCONST> 1.200398e+02
<STATE> 3
<MEAN> 52
 -1.561642e-01 3.309403e+00 1.317646e+01 -3.429586e+00 -1.048396e+01 -4.257463e+00 -1.780912e+00 -4.761704e+00 -4.782823e+00 1.020249e+00 2.283924e+00 -1.302922e+00 5.549757e+00 2.133214e-01 8.049177e-02 -5.689700e-01 3.344056e-01 4.699544e-01 2.540893e-02 1.208241e-01 3.236345e-01 2.981016e-01 -6.043801e-02 -1.425682e-01 1.785595e-01 -4.052821e-01 -4.398345e-03 1.795305e-02 -6.122672e-01 4.677308e-01 6.308913e-01 8.046593e-02 1.830573e-01 1.540385e-01 2.532585e-01 -1.410320e-01 -1.923834e-01 1.235631e-01 -4.250396e-01 -2.664150e-02 -5.271550e-03 1.642415e-01 -9.370963e-02 -1.349879e-01 -7.095732e-03 -4.176480e-02 -9.096043e-02 -8.306441e-02 2.457314e-02 2.953486e-02 -3.906496e-02 9.160296e-02
<VARIANCE> 52
 1.438169e+01 3.035210e+01 3.032862e+01 5.932336e+01 3.315927e+01 4.263151e+01 3.668920e+01 4.626077e+01 3.324638e+01 3.633358e+01 4.309451e+01 2.678780e+01 1.944246e+01 8.798975e-01 1.722197e+00 2.157523e+00 2.642586e+00 2.529342e+00 2.226613e+00 2.389482e+00 2.906159e+00 1.936551e+00 1.830616e+00 1.955476e+00 1.465815e+00 1.172611e+00 2.425400e-01 2.859397e-01 3.678954e-01 5.053504e-01 5.175520e-01 4.824173e-01 5.334076e-01 5.689515e-01 4.133072e-01 4.293345e-01 4.746625e-01 3.405863e-01 1.663173e-01 3.966153e-02 6.023646e-02 7.024404e-02 9.734092e-02 1.122964e-01 1.000728e-01 1.064019e-01 1.147114e-01 8.688416e-02 8.393925e-02 8.909105e-02 6.693407e-02 3.787731e-02
<GCONST> 1.037412e+02
<STATE> 4
<MEAN> 52
 -1.868551e+00 6.070766e+00 9.567807e+00 -1.889632e+00 -4.553143e+00 -1.240171e+00 -1.271999e+00 -5.538074e+00 -1.881793e+00 9.219220e-01 -2.879370e-01 9.107727e-01 -1.778464e+00 1.140070e-03 -1.898374e-03 -5.536771e-01 4.500847e-01 4.681439e-01 2.051315e-01 1.901101e-01 1.338234e-01 1.812486e-01 -8.683029e-02 -1.361056e-01 1.301326e-01 -6.817172e-01 -2.499504e-02 -6.793722e-02 -6.318386e-02 2.960269e-02 -1.273789e-03 -1.522982e-02 2.394570e-02 2.641962e-02 -2.925164e-02 -8.133822e-03 2.434249e-02 -1.236931e-02 4.308037e-02 -3.158470e-03 -1.535350e-02 3.328989e-02 -5.663131e-02 -4.430485e-02 -2.267839e-02 -2.263899e-02 -3.441696e-03 -1.679869e-02 9.566630e-03 2.003376e-02 -7.797235e-03 7.369900e-02
<VARIANCE> 52
 2.061268e+01 3.666204e+01 4.432747e+01 8.102998e+01 4.421596e+01 4.530283e+01 4.455086e+01 4.487917e+01 3.073528e+01 3.202778e+01 3.092720e+01 2.465780e+01 6.549886e+01 6.457695e-01 9.614760e-01 1.211718e+00 1.656012e+00 1.733620e+00 1.603349e+00 1.604542e+00 1.865875e+00 1.463688e+00 1.459193e+00 1.389806e+00 1.098976e+00 8.349874e-01 9.578383e-02 1.371285e-01 2.003406e-01 2.714573e-01 2.889364e-01 2.865652e-01 2.907583e-01 3.164517e-01 2.604097e-01 2.620573e-01 2.392911e-01 1.975051e-01 1.029113e-01 2.106226e-02 3.234094e-02 4.895844e-02 6.176189e-02 7.341982e-02 6.829133e-02 6.744941e-02 7.279415e-02 6.456047e-02 6.363516e-02 5.776775e-02 4.674511e-02 2.719145e-02
<GCONST> 8.778733e+01
<TRANSP> 5
 0.000000e+00 1.000000e+00 0.000000e+00 0.000000e+00 0.000000e+00
 0.000000e+00 5.330926e-01 4.669074e-01 0.000000e+00 0.000000e+00
 0.000000e+00 0.000000e+00 6.408958e-01 3.591042e-01 0.000000e+00
 0.000000e+00 0.000000e+00 0.000000e+00 8.124269e-01 1.875731e-01
 0.000000e+00 0.000000e+00 0.000000e+00 0.000000e+00 0.000000e+00
<ENDHMM>
~h "j"
<BEGINHMM>
<NUMSTATES> 5
<STATE> 2
<MEAN> 52
 -8.629436e-01 7.733133e+00 6.216040e+00 3.197478e+00 1.338496e+00 -1.447010e+00 6.061836e-01 -1.095275e+00 -7.342249e-01 -1.404487e+00 -7.592725e-01 -1.744517e-01 -1.856170e+00 -1.827084e+00 7.574893e-01 6.200744e-01 -3.354475e-01 4.110984e-01 -3.878981e-01 3.336538e-01 -3.610794e-01 -2.266200e-02 -5.820061e-02 3.772389e-01 -9.144301e-03 8.158340e-01 4.054577e-02 -3.531193e-01 1.922213e-01 -2.626136e-01 -5.952834e-01 -4.899374e-01 -2.168617e-01 -3.063368e-02 -1.335369e-01 4.419275e-02 2.142810e-01 1.183801e-01 4.954882e-01 3.460630e-01 -1.421292e-01 -5.181261e-02 3.099339e-02 -1.422023e-01 2.355606e-03 -1.049908e-01 6.370866e-02 -6.728467e-03 2.510425e-02 -4.188721e-02 6.905450e-03 -9.668632e-02
<VARIANCE> 52
 3.958967e+01 3.246012e+01 2.629911e+01 3.470801e+01 4.668277e+01 2.991814e+01 2.875860e+01 2.717126e+01 2.426415e+01 2.165129e+01 1.833763e+01 1.644906e+01 2.490907e+01 4.297678e+00 2.272715e+00 2.336275e+00 3.109240e+00 4.481312e+00 3.316415e+00 2.420808e+00 2.620046e+00 2.095113e+00 2.323766e+00 2.207560e+00 1.496198e+00 2.592284e+00 1.083502e+00 4.428220e-01 4.249339e-01 5.571254e-01 8.746399e-01 5.068302e-01 4.869624e-01 5.313114e-01 4.132631e-01 4.589361e-01 3.669027e-01 2.569977e-01 2.929054e-01 2.072686e-01 9.550174e-02 1.165302e-01 1.225911e-01 1.970282e-01 1.462516e-01 1.170869e-01 1.309812e-01 9.913438e-02 1.021167e-01 9.826233e-02 7.102573e-02 8.394147e-02
<GCONST> 1.136513e+02
<STATE> 3
<MEAN> 52
 -4.984403e+00 7.356987e+00 1.044364e+01 6.570706e-02 -3.402880e+00 -6.903352e+00 -4.301399e-01 -3.405649e+00 -2.769026e+00 -1.257827e+00 2.317378e+00 9.318941e-01 4.302506e+00 1.404254e+00 -1.773634e+00 8.278113e-01 -8.375172e-01 -2.937202e+00 -1.901420e+00 -1.096272e+00 3.114422e-01 -3.986350e-01 3.208333e-01 6.598247e-01 4.121693e-01 1.479815e+00 8.968012e-01 -5.696017e-01 -6.358203e-01 -2.882742e-02 7.178568e-02 3.096521e-01 -2.002288e-01 4.907986e-01 2.906125e-01 1.131059e-01 -2.922255e-01 -1.519492e-01 -2.410669e-01 -3.199349e-01 2.714301e-01 -2.258592e-01 6.046052e-02 5.677979e-01 3.634038e-01 2.006193e-01 -2.648492e-02 1.037721e-01 -3.462228e-02 -1.156032e-01 -1.030444e-01 -1.699279e-01
<VARIANCE> 52
 3.262707e+01 2.921813e+01 2.622203e+01 4.534599e+01 5.258423e+01 4.185257e+01 2.659446e+01 2.430221e+01 2.449981e+01 3.550121e+01 1.586304e+01 2.215277e+01 1.274469e+01 3.806349e+00 2.822790e+00 2.782088e+00 4.267338e+00 3.702269e+00 3.030995e+00 2.948256e+00 4.194574e+00 2.780004e+00 3.513423e+00 2.249818e+00 1.708582e+00 1.137300e+00 8.260511e-01 4.825145e-01 4.388035e-01 5.098606e-01 1.192267e+00 7.342830e-01 6.890181e-01 5.381936e-01 4.065747e-01 4.974706e-01 4.044366e-01 3.898215e-01 1.676498e-01 1.731455e-01 9.805910e-02 1.077490e-01 1.605781e-01 1.513920e-01 1.375859e-01 1.268811e-01 1.666152e-01 1.078273e-01 1.405010e-01 1.028783e-01 7.395276e-02 4.506753e-02
<GCONST> 1.155871e+02
<STATE> 4
<MEAN> 52
 1.070071e+00 1.095036e-01 8.337538e+00 -2.689455e+00 -9.023285e+00 -9.082566e+00 -3.429756e+00 9.101700e-01 -1.003595e+00 -1.699089e-01 2.072700e+00 9.194446e-01 7.217868e+00 1.157624e+00 -1.587961e+00 -1.726909e+00 -6.375541e-01 2.475311e-01 3.946681e-01 -5.008178e-01 1.238361e+00 8.064106e-01 2.849830e-01 -5.945812e-01 -5.296347e-01 5.350532e-01 -3.229379e-01 4.613986e-01 -4.017228e-01 1.466977e-01 9.566200e-01 6.823894e-01 2.657692e-01 -2.625994e-01 -2.218979e-02 -4.767777e-02 -2.052105e-01 -1.805016e-01 -3.783360e-01 -1.633304e-01 1.773319e-01 2.909142e-01 4.335583e-02 -1.463881e-01 -1.002541e-01 6.636982e-02 -2.324824e-01 -1.706280e-01 -1.033485e-02 1.380496e-01 1.061673e-01 -1.758247e-02
<VARIANCE> 52
 1.023517e+01 2.342327e+01 2.293299e+01 5.972460e+01 2.075663e+01 2.563115e+01 3.872238e+01 4.468243e+01 3.166318e+01 4.491753e+01 2.333272e+01 1.555780e+01 1.467739e+01 1.138082e+00 2.077922e+00 1.748008e+00 1.823264e+00 3.564644e+00 2.571514e+00 4.073559e+00 3.073598e+00 1.950224e+00 2.795990e+00 1.999408e+00 1.854287e+00 5.754259e-01 2.435312e-01 2.176688e-01 3.644138e-01 6.100183e-01 4.743049e-01 5.089142e-01 5.172833e-01 6.235279e-01 4.420489e-01 5.801862e-01 4.288410e-01 2.920476e-01 1.113921e-01 7.838556e-02 6.578380e-02 6.209487e-02 7.272278e-02 1.381741e-01 1.090829e-01 1.707165e-01 1.144408e-01 7.805277e-02 1.061296e-01 8.637400e-02 7.791645e-02 1.612107e-02
<GCONST> 1.017143e+02
<TRANSP> 5
 0.000000e+00 1.000000e+00 0.000000e+00 0.000000e+00 0.000000e+00
 0.000000e+00 7.292488e-01 2.707511e-01 0.000000e+00 0.000000e+00
 0.000000e+00 0.000000e+00 6.030092e-01 3.969908e-01 0.000000e+00
 0.000000e+00 0.000000e+00 0.000000e+00 5.846059e-01 4.153941e-01
 0.000000e+00 0.000000e+00 0.000000e+00 0.000000e+00 0.000000e+00
<ENDHMM>
~h "k"
<BEGINHMM>
<NUMSTATES> 5
<STATE> 2
<MEAN> 52
 -2.537994e+00 1.716279e+00 -7.631451e-01 2.418486e+00 2.044345e+00 3.701574e-01 2.043692e-01 -6.763184e-01 -1.175759e-01 7.491581e-01 2.532627e-01 9.745752e-01 -6.945620e+00 -7.969611e-01 -6.041784e-01 -8.451660e-01 1.355089e-01 7.920427e-01 -4.204232e-01 6.696581e-02 2.495117e-01 1.482929e-01 1.193673e-01 -1.026145e-01 3.088394e-01 2.464186e-01 1.486771e-01 -2.760835e-01 -1.291300e-01 -3.128679e-01 2.965008e-02 -1.835924e-01 -3.685521e-02 6.236122e-02 5.425283e-02 9.631024e-02 -6.979762e-02 -9.995700e-02 7.606805e-01 1.645718e-01 7.689980e-02 1.333117e-01 -5.843391e-02 -1.407454e-01 6.046557e-02 2.516760e-03 -2.272375e-02 -2.752049e-02 -1.081946e-02 -3.320138e-03 -7.827644e-02 1.303779e-02
<VARIANCE> 52
 3.029126e+01 3.212958e+01 4.190461e+01 4.479458e+01 4.518766e+01 4.509119e+01 3.260423e+01 3.771399e+01 2.949302e+01 2.693135e+01 2.299375e+01 2.269598e+01 5.775157e+01 1.827661e+00 2.980377e+00 3.566691e+00 2.989998e+00 3.960921e+00 3.771038e+00 2.970560e+00 2.819661e+00 2.651842e+00 2.557238e+00 2.202782e+00 1.607184e+00 4.016429e+00 3.421618e-01 4.300935e-01 5.418885e-01 5.020267e-01 6.677479e-01 6.279333e-01 5.189025e-01 5.114015e-01 5.148991e-01 4.734774e-01 3.884051e-01 3.217930e-01 5.053207e-01 7.328451e-02 1.205196e-01 1.382635e-01 1.197873e-01 1.800230e-01 1.661101e-01 1.357685e-01 1.179639e-01 1.238715e-01 1.235463e-01 1.004277e-01 7.751296e-02 1.338865e-01
<GCONST> 1.180654e+02
<STATE> 3
<MEAN> 52
 -4.557522e+00 -3.237027e+00 -5.908020e+00 4.640058e-01 6.862469e+00 -2.966967e+00 -2.057594e-01 4.509343e-01 1.664340e+00 2.601894e+00 -1.118160e+00 1.682044e+00 -6.409281e-02 6.906056e-01 -4.727219e-01 -3.267964e-01 -8.801690e-01 -1.334751e-01 -4.284548e-01 1.587220e-01 2.302158e-01 1.057313e-01 2.184023e-01 -4.325386e-01 -5.246919e-01 2.228185e+00 7.359289e-01 3.021523e-01 6.084669e-01 -2.428663e-01 -8.703341e-01 3.763862e-01 4.580765e-02 -5.524816e-02 -2.811213e-01 -2.426711e-01 8.103918e-02 -3.886864e-01 7.260989e-02 -8.146076e-02 1.045002e-03 2.070122e-02 1.070369e-01 7.608533e-04 8.099054e-02 -2.465968e-02 -2.267014e-02 -2.399663e-02 -7.075498e-02 6.768911e-02 6.473818e-02 -2.872029e-01
<VARIANCE> 52
 2.646196e+01 3.769038e+01 4.922797e+01 4.477010e+01 5.817533e+01 6.627472e+01 4.719400e+01 4.099240e+01 4.210554e+01 3.525261e+01 3.120458e+01 2.328197e+01 3.826533e+01 3.558544e+00 4.356024e+00 5.027611e+00 4.547581e+00 6.095476e+00 5.438595e+00 4.217351e+00 4.326905e+00 4.123665e+00 3.553346e+00 2.964141e+00 2.694083e+00 4.184671e+00 4.358295e-01 7.387189e-01 7.191220e-01 8.424921e-01 9.472932e-01 9.819958e-01 8.799879e-01 6.722310e-01 7.296427e-01 6.954426e-01 6.505107e-01 4.759878e-01 6.141001e-01 1.253725e-01 1.586366e-01 1.733073e-01 1.669535e-01 2.443219e-01 2.093788e-01 1.708323e-01 1.488020e-01 1.651903e-01 1.480484e-01 1.195257e-01 1.066522e-01 1.427062e-01
<GCONST> 1.333066e+02
<STATE> 4
<MEAN> 52
 1.403105e+00 -2.249249e+00 -3.606064e+00 -1.952043e+00 1.247550e+00 -1.444433e+00 8.474835e-01 6.205652e-01 1.519239e-02 1.297653e+00 -1.671348e+00 -2.176057e+00 4.073248e+00 1.836487e+00 -6.472296e-01 6.772627e-01 -1.369926e+00 -1.762790e+00 4.737340e-01 1.410318e-01 2.481606e-01 -5.682274e-01 -4.868419e-01 5.516612e-02 -1.157356e+00 1.972526e+00 -1.499753e-01 -1.224153e-01 8.011745e-02 5.883799e-02 8.164922e-02 1.094159e-01 -1.506363e-01 -5.197680e-02 1.746375e-02 -1.145177e-01 1.302810e-01 1.737597e-01 -2.892412e-01 -3.210714e-01 4.886573e-02 -1.709152e-01 2.386967e-01 3.449266e-01 -1.121352e-01 -2.980631e-02 -2.934613e-02 1.269942e-01 8.758681e-02 -3.097536e-02 2.100663e-01 -2.270906e-01
<VARIANCE> 52
 2.586988e+01 4.553526e+01 4.213321e+01 3.898976e+01 4.006798e+01 4.571329e+01 3.378224e+01 4.668259e+01 2.890532e+01 3.065965e+01 2.683937e+01 2.506883e+01 4.201421e+01 2.823632e+00 4.360454e+00 3.633049e+00 4.729382e+00 4.283065e+00 3.944154e+00 3.695549e+00 4.580414e+00 3.595164e+00 3.582719e+00 3.423913e+00 2.770645e+00 2.193933e+00 4.087825e-01 4.584365e-01 4.799269e-01 5.905832e-01 6.572793e-01 5.967413e-01 4.974785e-01 5.541006e-01 4.927509e-01 5.018694e-01 4.389548e-01 3.767012e-01 4.417432e-01 9.502298e-02 1.650377e-01 1.417693e-01 1.836983e-01 1.738616e-01 1.549901e-01 1.555899e-01 1.601268e-01 1.413603e-01 1.454881e-01 1.371000e-01 1.076436e-01 9.296238e-02
<GCONST> 1.238009e+02
<TRANSP> 5
 0.000000e+00 1.000000e+00 0.000000e+00 0.000000e+00 0.000000e+00
 0.000000e+00 6.652225e-01 3.347775e-01 0.000000e+00 0.000000e+00
 0.000000e+00 0.000000e+00 4.943619e-01 5.056382e-01 0.000000e+00
 0.000000e+00 0.000000e+00 0.000000e+00 3.873102e-01 6.126898e-01
 0.000000e+00 0.000000e+00 0.000000e+00 0.000000e+00 0.000000e+00
<ENDHMM>
~h "l"
<BEGINHMM>
<NUMSTATES> 5
<STATE> 2
<MEAN> 52
 5.032463e+00 -3.027850e+00 -1.974344e+00 -4.573227e+00 -1.547329e+00 -8.745606e-01 -5.228014e+00 -2.561335e+00 4.596318e+00 2.721736e+00 -1.055222e+00 -1.635932e+00 6.238991e+00 2.305180e-01 1.478940e-01 7.785546e-02 -2.242782e-01 8.444773e-02 -1.372697e-02 -6.575557e-01 -2.808433e-01 3.189070e-01 5.077915e-01 8.867751e-02 -4.415197e-02 -2.196638e-01 -1.379706e-01 -2.847180e-02 -5.141592e-02 -2.996280e-02 5.659602e-02 7.519280e-02 2.774668e-01 2.446244e-01 -2.305824e-01 -2.013395e-01 -6.736885e-03 -5.358286e-02 6.136284e-02 -3.053924e-02 -5.307028e-02 -3.075897e-02 3.488951e-02 -4.587371e-03 6.203231e-03 1.162397e-01 6.245162e-02 -4.087425e-02 -9.953517e-02 -3.372157e-02 1.396278e-03 5.284099e-02
<VARIANCE> 52
 9.301123e+00 2.919522e+01 3.602784e+01 4.657453e+01 3.235708e+01 5.269349e+01 4.027673e+01 5.120470e+01 4.436022e+01 3.897971e+01 2.623347e+01 2.713655e+01 2.192791e+01 3.262017e-01 9.348479e-01 1.508814e+00 1.920673e+00 1.871070e+00 2.112623e+00 2.184459e+00 2.508882e+00 1.989686e+00 1.811361e+00 1.557498e+00 1.519182e+00 4.538546e-01 6.065088e-02 1.687629e-01 2.253525e-01 3.370152e-01 3.165537e-01 3.590934e-01 4.178574e-01 4.754432e-01 3.835904e-01 3.794410e-01 3.206311e-01 2.609673e-01 7.377195e-02 1.638630e-02 2.967001e-02 3.981483e-02 7.020947e-02 6.922963e-02 7.824998e-02 8.842026e-02 9.194221e-02 7.852417e-02 7.905156e-02 7.129633e-02 6.111475e-02 1.231485e-02
<GCONST> 8.866944e+01
<STATE> 3
<MEAN> 52
 5.287396e+00 -2.678904e+00 -3.111443e+00 -6.101662e+00 -6.570590e-02 1.602029e-01 -5.253835e+00 -1.465060e+00 4.004461e+00 3.476880e+00 -1.064553e+00 -3.104033e+00 6.153597e+00 -2.743427e-01 -4.947093e-01 -3.536561e-01 2.935900e-02 3.505353e-01 2.110770e-01 6.952814e-01 8.317791e-01 -1.012143e-01 -6.875945e-01 -5.232261e-01 -1.916728e-01 2.983580e-01 -1.557592e-01 -9.809100e-02 2.494714e-03 1.226680e-01 -1.287975e-03 2.293889e-02 3.105979e-01 1.972970e-01 -1.947530e-01 -3.145917e-01 -4.172560e-02 8.088828e-02 7.769696e-02 4.914367e-02 7.997970e-02 8.166281e-02 5.972300e-03 -4.800472e-02 -3.434617e-02 -1.261765e-01 -1.427296e-01 2.659025e-03 1.197875e-01 1.009922e-01 3.981262e-02 -6.118744e-02
<VARIANCE> 52
 8.336536e+00 2.630475e+01 3.837175e+01 4.349713e+01 3.045164e+01 4.702105e+01 4.053365e+01 4.372726e+01 3.691011e+01 3.350145e+01 2.578236e+01 2.555023e+01 2.149019e+01 2.768899e-01 1.210736e+00 1.297709e+00 1.673225e+00 1.471632e+00 2.157927e+00 1.888480e+00 2.257944e+00 1.804739e+00 1.522008e+00 1.700622e+00 1.460219e+00 6.056132e-01 5.792840e-02 1.649612e-01 1.932889e-01 2.955688e-01 2.937810e-01 3.352844e-01 4.155063e-01 3.989815e-01 3.531047e-01 3.212149e-01 3.304195e-01 2.500983e-01 7.309981e-02 1.181111e-02 3.286102e-02 3.683382e-02 5.831514e-02 5.764413e-02 7.350510e-02 7.823854e-02 8.528835e-02 7.047581e-02 6.233796e-02 7.000871e-02 5.697167e-02 1.559982e-02
<GCONST> 8.501443e+01
<STATE> 4
<MEAN> 52
 1.925812e+00 -2.367337e+00 -3.470648e+00 -3.123581e-01 1.222386e+00 1.524164e+00 -7.797468e-01 1.148963e+00 3.233583e+00 -5.777577e-01 -1.182338e+00 -6.896752e-01 4.482129e-02 -4.021438e-01 -2.150209e-01 9.782782e-02 1.575164e-01 -1.933567e-02 6.096181e-02 7.134802e-01 5.286419e-01 -4.822383e-01 -5.952572e-01 2.046938e-02 4.793884e-02 6.045543e-02 -1.122312e-02 1.230845e-01 1.341766e-01 -2.628395e-02 -9.501948e-02 -2.119230e-02 -4.004641e-02 -1.220370e-01 -1.078342e-01 1.276869e-01 1.545336e-01 1.049022e-02 -5.349902e-02 5.129845e-02 6.353533e-02 2.130467e-02 8.414145e-03 3.264049e-03 -9.972610e-03 -1.112073e-01 -1.050951e-01 6.137460e-02 1.078847e-01 -2.083698e-03 2.815815e-03 -5.364967e-02
<VARIANCE> 52
 2.988207e+01 4.635001e+01 3.934682e+01 8.742001e+01 4.358747e+01 6.785458e+01 5.309011e+01 5.887084e+01 4.036946e+01 4.484668e+01 2.983011e+01 3.339389e+01 1.857328e+02 4.414786e-01 1.299096e+00 1.533830e+00 1.914379e+00 2.171782e+00 2.353122e+00 2.380667e+00 2.768844e+00 2.310621e+00 2.354281e+00 1.874554e+00 1.445766e+00 7.663493e-01 7.684650e-02 1.389392e-01 1.871202e-01 2.985457e-01 3.251346e-01 3.569146e-01 3.574569e-01 4.086375e-01 3.387278e-01 3.303721e-01 3.060524e-01 2.653934e-01 9.572159e-02 1.628442e-02 3.795868e-02 4.314176e-02 6.816655e-02 7.171995e-02 8.433374e-02 9.585445e-02 1.077633e-01 8.900984e-02 9.281711e-02 7.868385e-02 5.932655e-02 2.332058e-02
<GCONST> 9.770912e+01
<TRANSP> 5
 0.000000e+00 1.000000e+00 0.000000e+00 0.000000e+00 0.000000e+00
 0.000000e+00 5.302217e-01 4.697783e-01 0.000000e+00 0.000000e+00
 0.000000e+00 0.000000e+00 4.755301e-01 5.244699e-01 0.000000e+00
 0.000000e+00 0.000000e+00 0.000000e+00 4.564524e-01 5.435476e-01
 0.000000e+00 0.000000e+00 0.000000e+00 0.000000e+00 0.000000e+00
<ENDHMM>
~h "m"
<BEGINHMM>
<NUMSTATES> 5
<STATE> 2
<MEAN> 52
 6.449819e+00 1.144311e+00 1.457558e+00 1.520013e+00 9.039313e-01 3.992320e+00 -2.819812e+00 -5.151662e+00 -4.141734e+00 -1.200702e-01 1.155679e+00 -1.706354e+00 9.210294e-01 8.404107e-02 4.598141e-01 6.433787e-01 7.302948e-01 8.839546e-02 2.366812e-01 6.151516e-04 -8.238097e-01 -8.431997e-01 -1.388545e-01 -7.538436e-02 7.250229e-02 -5.074102e-01 -5.657957e-02 -1.861509e-01 -2.525071e-01 -3.560910e-01 -9.695031e-02 -9.553723e-02 5.615837e-02 3.242593e-01 2.713022e-01 1.265719e-02 1.193093e-02 1.460605e-03 2.294579e-01 1.358433e-02 -5.096690e-02 -1.039955e-01 -1.232851e-01 -1.886739e-02 -2.033734e-02 -1.570586e-02 1.242592e-01 1.340387e-01 3.428492e-02 3.180850e-02 -7.935824e-03 5.440920e-02
<VARIANCE> 52
 1.062541e+01 2.347756e+01 1.945177e+01 2.828327e+01 2.404529e+01 3.253928e+01 3.645887e+01 4.358001e+01 2.877447e+01 2.477618e+01 2.665387e+01 1.756908e+01 1.801280e+01 3.200478e-01 8.018438e-01 1.304045e+00 1.425807e+00 1.208129e+00 1.234247e+00 1.361401e+00 1.966392e+00 1.699749e+00 1.238701e+00 1.535356e+00 9.487246e-01 4.498571e-01 5.940127e-02 1.370798e-01 2.152357e-01 2.475428e-01 2.389765e-01 2.393750e-01 2.651648e-01 3.466850e-01 3.127478e-01 2.461914e-01 2.807311e-01 1.764079e-01 6.706848e-02 1.501381e-02 2.652097e-02 4.789914e-02 5.828182e-02 5.311410e-02 5.285756e-02 5.844806e-02 7.747173e-02 7.386348e-02 5.519308e-02 6.662806e-02 4.216458e-02 1.360454e-02
<GCONST> 7.608865e+01
<STATE> 3
<MEAN> 52
 6.471159e+00 1.538559e+00 1.936091e+00 1.800164e+00 3.919000e-01 3.723475e+00 -3.107070e+00 -6.147676e+00 -5.210543e+00 -3.130022e-01 1.252394e+00 -1.634963e+00 5.773835e-01 1.664624e-01 -2.951294e-01 -8.168049e-01 -9.745669e-01 -2.235680e-01 -3.859426e-02 5.337479e-02 6.324221e-01 5.768150e-01 6.711754e-02 2.449391e-01 6.936230e-03 4.239378e-01 -1.008862e-01 -3.409906e-01 -3.812308e-01 -5.075921e-01 2.500810e-02 -9.925507e-02 -3.291878e-03 5.465057e-01 5.210921e-01 6.405258e-02 -1.158989e-02 -5.001272e-02 3.370942e-01 -5.163227e-02 4.100760e-02 1.740158e-01 1.741131e-01 6.511320e-02 9.367744e-03 -8.996570e-03 -1.052504e-01 -1.187872e-01 -2.171450e-02 -6.356083e-02 -1.071464e-03 -5.461038e-02
<VARIANCE> 52
 1.265915e+01 2.622835e+01 1.804390e+01 3.086223e+01 2.567802e+01 3.737555e+01 3.938713e+01 4.545438e+01 3.454258e+01 3.011390e+01 3.481250e+01 2.200751e+01 2.403105e+01 4.556100e-01 1.077138e+00 1.835047e+00 2.101784e+00 1.788068e+00 2.115761e+00 1.904921e+00 2.179321e+00 2.011991e+00 1.622993e+00 1.812339e+00 1.376865e+00 7.001424e-01 1.062498e-01 2.082305e-01 2.882235e-01 3.199052e-01 3.640430e-01 3.439768e-01 4.211792e-01 4.853521e-01 4.801448e-01 3.845780e-01 4.626316e-01 2.787033e-01 8.171487e-02 1.839594e-02 3.703211e-02 6.281871e-02 8.801077e-02 7.302935e-02 8.056837e-02 7.742091e-02 8.586992e-02 8.199392e-02 7.255843e-02 8.290340e-02 6.127753e-02 2.363951e-02
<GCONST> 9.106287e+01
<STATE> 4
<MEAN> 52
 6.654141e+00 5.555382e-01 -1.276128e+00 -1.535166e+00 2.046911e-01 3.565367e+00 -2.509898e+00 -3.139220e+00 -2.022583e+00 1.430042e-01 1.664102e+00 -1.434429e+00 1.871825e+00 -1.986864e-01 -8.280249e-01 -8.939105e-01 -1.182441e+00 9.759392e-02 -1.846066e-01 7.799543e-03 1.249793e+00 1.020928e+00 6.336720e-02 -3.823544e-02 -8.425206e-02 8.244246e-01 -2.140696e-01 -1.097955e-01 2.325480e-01 7.043228e-02 5.629277e-02 -7.805196e-02 1.864558e-02 6.967524e-02 -2.819712e-02 -1.601731e-02 -1.231174e-01 -1.814788e-02 9.943676e-02 9.084664e-03 1.489155e-01 1.802224e-01 2.003976e-01 -2.251110e-02 1.216655e-02 1.646731e-02 -2.188608e-01 -1.878372e-01 -9.426717e-03 -6.673384e-03 2.293237e-02 -1.261602e-01
<VARIANCE> 52
 1.522621e+01 2.969360e+01 2.906024e+01 4.014486e+01 3.277409e+01 4.219008e+01 3.072967e+01 4.322418e+01 3.047577e+01 2.432430e+01 2.580298e+01 2.118241e+01 3.368990e+01 8.129032e-01 2.037440e+00 2.861139e+00 2.901373e+00 3.400083e+00 2.849235e+00 2.824134e+00 3.626310e+00 3.442529e+00 2.390595e+00 2.757668e+00 1.829752e+00 1.181815e+00 1.396941e-01 2.379785e-01 3.684255e-01 5.039037e-01 4.388684e-01 4.340219e-01 3.812913e-01 4.481182e-01 4.299869e-01 3.479578e-01 3.870116e-01 2.806476e-01 1.756877e-01 2.888169e-02 6.978493e-02 9.477276e-02 1.120858e-01 1.139062e-01 1.061740e-01 1.100776e-01 1.303345e-01 1.311805e-01 9.487503e-02 1.070759e-01 7.469895e-02 4.038428e-02
<GCONST> 1.045031e+02
<TRANSP> 5
 0.000000e+00 1.000000e+00 0.000000e+00 0.000000e+00 0.000000e+00
 0.000000e+00 6.851027e-01 3.148973e-01 0.000000e+00 0.000000e+00
 0.000000e+00 0.000000e+00 4.024389e-01 5.975610e-01 0.000000e+00
 0.000000e+00 0.000000e+00 0.000000e+00 3.720663e-01 6.279337e-01
 0.000000e+00 0.000000e+00 0.000000e+00 0.000000e+00 0.000000e+00
<ENDHMM>
~h "n"
<BEGINHMM>
<NUMSTATES> 5
<STATE> 2
<MEAN> 52
 5.212575e+00 -1.592151e+00 2.429903e+00 1.557170e+00 -2.138918e+00 -2.379779e+00 -2.775936e+00 4.862671e-01 2.757787e-01 -5.437274e-01 -2.039967e+00 -6.617255e-01 3.036544e+00 4.966943e-01 1.509889e+00 8.172515e-01 1.312273e+00 -2.620376e-01 3.663594e-01 -5.169788e-01 -1.677770e+00 -3.712279e-02 1.846864e-01 -3.860743e-01 6.375210e-02 -1.494041e+00 -1.416579e-01 -8.166736e-02 -1.712408e-01 -2.641533e-01 5.266689e-02 1.712107e-01 1.559869e-01 4.840550e-02 -2.929462e-02 -4.854399e-02 1.009567e-01 -5.088910e-02 1.687115e-01 -9.130967e-02 -2.062413e-01 -9.437390e-02 -1.656013e-01 5.526521e-02 -9.075993e-02 8.484699e-02 2.892053e-01 -1.621615e-03 -4.471821e-02 7.010771e-02 2.597917e-02 1.981635e-01
<VARIANCE> 52
 9.034308e+00 2.986614e+01 2.196811e+01 2.233685e+01 2.917161e+01 3.136523e+01 2.997554e+01 4.149902e+01 2.819852e+01 2.824102e+01 2.184876e+01 1.791065e+01 1.864157e+01 4.358145e-01 1.168663e+00 1.791925e+00 1.266877e+00 2.194874e+00 2.111247e+00 2.380316e+00 3.376777e+00 1.924219e+00 2.177725e+00 1.873390e+00 1.227463e+00 4.626504e-01 6.935977e-02 1.917640e-01 2.015123e-01 2.264452e-01 2.837577e-01 2.838692e-01 3.131520e-01 4.885210e-01 2.887595e-01 2.877804e-01 2.502877e-01 1.961041e-01 9.839240e-02 2.164626e-02 4.366520e-02 6.354491e-02 5.743096e-02 9.354336e-02 8.688427e-02 9.916019e-02 1.264397e-01 8.490992e-02 8.815080e-02 7.669321e-02 5.304426e-02 1.985361e-02
<GCONST> 8.642878e+01
<STATE> 3
<MEAN> 52
 5.723714e+00 1.548026e+00 3.574962e+00 3.405792e+00 -1.774862e+00 -7.288754e-01 -3.158033e+00 -2.176228e+00 2.027393e-02 -1.236260e+00 -1.910502e+00 -1.029541e-01 -2.491399e-01 1.447151e-02 6.163347e-01 8.625802e-02 3.106289e-01 1.148284e-01 2.473971e-01 8.179081e-02 -3.376276e-01 -1.587998e-01 -1.566976e-02 1.806053e-02 1.321288e-01 -6.323658e-01 -1.807911e-01 -2.049271e-01 -1.048102e-01 -1.918942e-01 9.473799e-02 -3.819331e-02 1.249666e-01 2.725146e-01 -9.415603e-03 -3.201684e-03 8.346771e-02 -3.542744e-03 1.664220e-01 -3.025381e-02 -2.263318e-02 1.709260e-02 3.607003e-03 -4.416124e-03 -3.282556e-02 -1.450212e-02 9.302443e-03 1.395470e-02 3.404044e-03 2.837119e-03 6.048376e-04 1.987197e-02
<VARIANCE> 52
 8.006778e+00 2.726246e+01 1.669876e+01 1.838141e+01 2.777015e+01 2.854934e+01 2.573684e+01 3.357729e+01 2.760509e+01 2.960303e+01 2.452014e+01 1.822490e+01 1.523611e+01 2.832875e-01 5.672393e-01 6.376339e-01 7.319693e-01 9.717184e-01 1.026843e+00 1.053085e+00 1.222838e+00 1.106884e+00 1.021705e+00 1.044580e+00 7.943110e-01 2.716638e-01 7.602913e-02 1.478130e-01 1.844618e-01 1.993849e-01 2.628163e-01 2.368551e-01 2.558102e-01 3.473312e-01 2.542697e-01 2.428994e-01 2.543494e-01 1.667817e-01 7.566106e-02 1.243775e-02 2.471381e-02 3.030487e-02 3.887777e-02 4.670331e-02 4.820006e-02 4.785495e-02 5.593089e-02 5.249941e-02 4.690832e-02 4.704371e-02 3.552663e-02 1.484773e-02
<GCONST> 6.696877e+01
<STATE> 4
<MEAN> 52
 -5.958630e-01 2.041525e+00 9.824737e-01 6.372294e+00 1.369368e+00 1.954279e+00 1.054814e+00 3.860273e-01 2.120333e-01 -7.073774e-01 -1.529453e-01 1.939767e+00 -8.789365e+00 -4.554000e-01 -2.156206e-02 -1.433044e-01 -2.584547e-02 2.978382e-01 4.169997e-02 2.863434e-01 2.620280e-01 -2.831231e-02 -2.427148e-02 1.378297e-01 9.526557e-02 -2.351656e-01 -1.199737e-01 -1.196695e-01 -3.532376e-02 -1.742042e-01 3.910482e-03 -7.074656e-02 2.707871e-02 9.500699e-02 -5.697385e-03 -1.807677e-03 5.692894e-02 -1.508532e-02 2.001911e-01 3.190009e-02 1.984937e-02 1.207534e-02 -6.275849e-03 -4.057869e-02 -2.652674e-03 -2.944097e-02 -5.238282e-02 2.801589e-03 1.455975e-02 -9.982239e-03 -6.870302e-03 2.292017e-02
<VARIANCE> 52
 5.036320e+01 3.945818e+01 2.772875e+01 4.727129e+01 3.709171e+01 3.850405e+01 4.707744e+01 4.435041e+01 3.200603e+01 3.253570e+01 2.881422e+01 2.304310e+01 9.831505e+01 6.868023e-01 1.222219e+00 1.283094e+00 1.505001e+00 1.702209e+00 1.771960e+00 1.711136e+00 2.046208e+00 1.775866e+00 1.672824e+00 1.480185e+00 1.144772e+00 8.925844e-01 1.722205e-01 2.402190e-01 2.654209e-01 3.088586e-01 3.522779e-01 3.534365e-01 3.382819e-01 4.218078e-01 3.434851e-01 3.311668e-01 2.983591e-01 2.121823e-01 1.563590e-01 2.203314e-02 4.240464e-02 4.896482e-02 6.187104e-02 7.031919e-02 7.589704e-02 7.453012e-02 8.741030e-02 7.826713e-02 7.174163e-02 6.382266e-02 4.908818e-02 3.375989e-02
<GCONST> 9.374347e+01
<TRANSP> 5
 0.000000e+00 1.000000e+00 0.000000e+00 0.000000e+00 0.000000e+00
 0.000000e+00 4.292228e-01 5.707772e-01 0.000000e+00 0.000000e+00
 0.000000e+00 0.000000e+00 7.283803e-01 2.716197e-01 0.000000e+00
 0.000000e+00 0.000000e+00 0.000000e+00 6.705903e-01 3.294097e-01
 0.000000e+00 0.000000e+00 0.000000e+00 0.000000e+00 0.000000e+00
<ENDHMM>
~h "o"
<BEGINHMM>
<NUMSTATES> 5
<STATE> 2
<MEAN> 52
 5.175763e+00 -4.246626e-01 -6.107307e+00 -8.224920e+00 -7.515526e-01 5.307920e+00 -5.015444e-01 -1.381058e+00 1.383393e-01 1.680727e+00 2.294591e+00 6.893670e-02 2.996948e+00 1.214916e+00 -7.533561e-01 -7.062835e-01 -2.234455e+00 -3.040147e-01 9.750431e-01 -3.261663e-01 -2.556846e-01 -3.673020e-01 2.244169e-01 5.340567e-01 -4.602558e-01 1.678584e+00 -3.283930e-01 5.120772e-03 1.991138e-01 4.647595e-01 1.862684e-01 -1.430967e-01 -2.231880e-02 -3.003109e-02 9.995660e-03 -7.034354e-02 -7.521547e-02 -1.859948e-02 -2.833739e-01 -1.280206e-01 1.337196e-01 8.603277e-02 3.269356e-01 5.181222e-02 -1.560696e-01 2.916960e-02 1.659851e-02 6.965424e-02 -4.779393e-02 -8.996032e-02 7.049987e-02 -2.103588e-01
<VARIANCE> 52
 2.957607e+01 3.660303e+01 3.172685e+01 9.571455e+01 4.570727e+01 5.631651e+01 6.098086e+01 4.075639e+01 4.506275e+01 4.139671e+01 3.381460e+01 3.266650e+01 5.514505e+01 2.486917e+00 2.843808e+00 3.086307e+00 6.568504e+00 3.774588e+00 4.008689e+00 3.915822e+00 3.481377e+00 3.703920e+00 3.292737e+00 2.839281e+00 2.327383e+00 3.489019e+00 4.475418e-01 5.076188e-01 4.652547e-01 1.261850e+00 5.609393e-01 6.386335e-01 7.113408e-01 5.851687e-01 6.534483e-01 5.298318e-01 4.704418e-01 4.116735e-01 6.633183e-01 8.674313e-02 1.031225e-01 1.133427e-01 2.143978e-01 1.489820e-01 1.584382e-01 1.473330e-01 1.364856e-01 1.455714e-01 1.209353e-01 1.122406e-01 9.630227e-02 1.061684e-01
<GCONST> 1.268018e+02
<STATE> 3
<MEAN> 52
 6.348572e+00 -2.565681e+00 -7.199794e+00 -1.104627e+01 -8.851449e-01 5.838482e+00 -1.578755e+00 -1.702418e+00 -1.234092e+00 2.417150e+00 3.751786e+00 -1.817415e+00 6.601954e+00 -9.487555e-03 -1.606008e-01 2.462307e-01 5.092391e-01 1.701740e-01 -2.564021e-01 -4.306310e-01 2.619660e-03 2.436870e-01 1.203460e-02 -5.175859e-02 -1.319649e-01 -6.591829e-02 -1.913334e-01 2.926049e-01 2.534873e-01 7.162277e-01 1.332821e-01 -3.299537e-01 -1.409026e-02 -2.295648e-02 1.608532e-01 -1.661422e-01 -2.592061e-01 1.881534e-01 -4.546116e-01 6.300249e-02 2.789551e-02 -3.564707e-02 -1.149422e-01 -3.778966e-02 5.436558e-02 4.500395e-02 -1.189840e-02 -3.932643e-02 5.536592e-03 4.320016e-03 9.253051e-03 4.729018e-02
<VARIANCE> 52
 9.973083e+00 2.356118e+01 2.007924e+01 4.995019e+01 3.326131e+01 4.017967e+01 4.344844e+01 3.030149e+01 3.885560e+01 3.853312e+01 3.452952e+01 2.646336e+01 1.457058e+01 3.953744e-01 1.237212e+00 1.089608e+00 3.335269e+00 1.567775e+00 2.436656e+00 2.124381e+00 1.923097e+00 2.668643e+00 1.844716e+00 1.887991e+00 1.586282e+00 7.769374e-01 1.634377e-01 2.214435e-01 2.402819e-01 4.548097e-01 3.928216e-01 3.917107e-01 3.745566e-01 3.965977e-01 4.744441e-01 3.982774e-01 3.948281e-01 3.132340e-01 1.572244e-01 2.767886e-02 5.158891e-02 4.693117e-02 1.121588e-01 7.137158e-02 1.016736e-01 8.534086e-02 8.775261e-02 1.070204e-01 8.230691e-02 8.281259e-02 7.171936e-02 3.090478e-02
<GCONST> 9.501840e+01
<STATE> 4
<MEAN> 52
 5.606544e+00 6.976465e-01 -5.086878e+00 -5.922901e+00 1.437189e+00 3.713692e+00 -2.380722e+00 -2.264175e+00 -1.642570e-01 9.828728e-01 1.803734e+00 -5.118639e-01 1.018568e+00 -2.736086e-01 6.402624e-01 5.567052e-01 1.253978e+00 2.851762e-01 -1.916962e-01 1.517235e-01 -7.677560e-02 1.390895e-01 -2.348346e-01 -5.262244e-01 1.648652e-01 -1.131475e+00 -1.207145e-01 2.956373e-03 2.659142e-02 1.080440e-02 -3.517213e-02 5.761972e-04 1.016720e-01 -5.643812e-03 -6.057217e-02 -9.128051e-04 2.145383e-02 1.304857e-02 3.738708e-02 7.125640e-03 -8.870777e-02 -5.668300e-02 -1.489075e-01 -3.891363e-02 -1.873500e-03 -3.346860e-02 6.666042e-03 -2.361047e-02 3.642368e-02 8.156867e-02 -1.826050e-02 1.510359e-01
<VARIANCE> 52
 1.268030e+01 2.728771e+01 2.107609e+01 5.428628e+01 3.608647e+01 3.984097e+01 4.113271e+01 3.870147e+01 3.451302e+01 2.949102e+01 2.995909e+01 2.445893e+01 3.564382e+01 5.613948e-01 9.353707e-01 1.122571e+00 1.898877e+00 1.798025e+00 1.898556e+00 1.859421e+00 1.925200e+00 1.976452e+00 1.608482e+00 1.761857e+00 1.144472e+00 8.115895e-01 1.023522e-01 2.008545e-01 1.894625e-01 3.336630e-01 3.096114e-01 3.946651e-01 3.442859e-01 3.546109e-01 3.758637e-01 3.308857e-01 3.152119e-01 2.264560e-01 1.647446e-01 1.945925e-02 3.852500e-02 4.576796e-02 8.708482e-02 7.728197e-02 8.706253e-02 7.738711e-02 8.119528e-02 8.606299e-02 7.691123e-02 7.410499e-02 5.408038e-02 3.133766e-02
<GCONST> 9.029189e+01
<TRANSP> 5
 0.000000e+00 1.000000e+00 0.000000e+00 0.000000e+00 0.000000e+00
 0.000000e+00 5.025277e-01 4.974724e-01 0.000000e+00 0.000000e+00
 0.000000e+00 0.000000e+00 6.770245e-01 3.229755e-01 0.000000e+00
 0.000000e+00 0.000000e+00 0.000000e+00 7.368461e-01 2.631539e-01
 0.000000e+00 0.000000e+00 0.000000e+00 0.000000e+00 0.000000e+00
<ENDHMM>
~h "p"
<BEGINHMM>
<NUMSTATES> 5
<STATE> 2
<MEAN> 52
 -1.034694e+00 1.783251e+00 -1.125189e+00 2.022424e+00 1.164969e+00 1.441340e+00 4.341068e-01 -7.419235e-01 1.815106e-01 3.853089e-01 7.246979e-02 5.848274e-01 -6.784572e+00 -4.087213e-01 -2.219532e-01 -4.682101e-01 -2.011780e-01 -1.120513e-02 -1.980285e-01 1.983460e-01 4.665021e-02 1.858480e-02 1.548534e-02 2.271504e-01 8.280685e-02 4.841987e-01 4.464187e-01 -3.404285e-01 -1.896960e-01 -5.543334e-01 -1.168962e-01 1.543404e-02 -1.904247e-01 -9.904943e-03 -1.053687e-02 1.693483e-01 7.365607e-02 -2.626638e-01 9.484753e-01 1.173613e-01 -2.521876e-02 5.346369e-02 -3.590978e-02 -3.301611e-03 4.731515e-02 -4.970887e-02 1.444839e-02 1.729992e-03 2.330405e-02 -5.168154e-02 -5.218910e-02 6.572828e-04
<VARIANCE> 52
 2.629458e+01 2.184832e+01 2.985205e+01 3.051651e+01 2.496074e+01 3.200446e+01 2.540453e+01 3.089491e+01 2.392329e+01 2.192152e+01 1.813206e+01 1.752032e+01 2.605855e+01 2.149508e+00 1.697619e+00 2.113590e+00 2.512760e+00 2.120682e+00 2.559451e+00 2.148501e+00 2.443506e+00 2.098825e+00 2.064912e+00 1.862477e+00 1.410300e+00 3.512578e+00 3.402797e-01 3.456532e-01 4.356692e-01 5.168241e-01 4.333118e-01 5.270479e-01 4.427564e-01 4.965331e-01 4.295076e-01 4.355883e-01 3.646586e-01 2.933905e-01 3.365842e-01 7.623369e-02 7.552677e-02 8.844168e-02 1.161366e-01 1.026333e-01 1.106031e-01 9.687421e-02 1.030043e-01 9.181978e-02 9.556238e-02 8.440738e-02 6.501436e-02 1.171133e-01
<GCONST> 1.048424e+02
<STATE> 3
<MEAN> 52
 1.015531e+00 -2.369730e-01 -4.012218e+00 -1.615360e+00 8.029686e-01 1.802154e+00 4.293768e-01 -1.620601e+00 4.224091e-02 1.484046e+00 1.354908e+00 -8.494507e-01 -2.962192e-01 1.673041e+00 -1.824466e+00 -1.271868e+00 -2.450792e+00 -1.944401e-01 4.828637e-01 -6.984619e-01 2.791962e-01 1.461952e-01 8.399840e-01 1.950670e-01 -1.336358e+00 3.625530e+00 1.980010e-01 -2.411746e-01 2.624654e-01 -3.189370e-02 -7.154915e-02 -1.971925e-02 -2.017615e-01 2.305793e-01 7.384763e-02 -4.334731e-02 -2.473421e-01 -1.107767e-01 8.762532e-02 -3.196712e-01 2.867192e-01 2.399413e-01 4.614694e-01 3.457716e-02 -1.318563e-01 1.436857e-01 -1.810493e-02 -1.056415e-02 -1.870178e-01 -6.135548e-02 2.618569e-01 -5.972577e-01
<VARIANCE> 52
 2.754391e+01 2.652951e+01 2.812429e+01 4.668135e+01 2.467560e+01 4.602660e+01 2.748368e+01 2.340264e+01 2.245042e+01 2.350478e+01 2.070793e+01 2.283589e+01 4.168243e+01 3.171606e+00 4.107258e+00 4.805247e+00 5.334343e+00 4.063698e+00 5.521540e+00 4.153632e+00 5.117218e+00 4.500154e+00 3.644554e+00 3.484698e+00 2.911548e+00 3.235417e+00 5.261519e-01 5.338253e-01 5.263678e-01 8.879113e-01 7.016005e-01 7.456867e-01 5.150815e-01 5.500154e-01 5.100030e-01 4.988713e-01 4.884943e-01 4.288798e-01 6.775182e-01 9.842123e-02 1.327202e-01 1.411357e-01 1.879400e-01 1.460288e-01 1.940846e-01 1.531865e-01 1.723884e-01 1.639870e-01 1.381019e-01 1.311097e-01 1.089232e-01 9.610713e-02
<GCONST> 1.244646e+02
<STATE> 4
<MEAN> 52
 4.324727e+00 -4.829024e+00 -5.387022e+00 -5.395352e+00 5.508672e-01 2.757282e+00 -1.689884e+00 1.687998e-01 1.139374e+00 2.567057e+00 2.652545e-01 -3.957615e+00 5.712558e+00 8.461906e-01 -1.197898e+00 1.947344e-01 -7.842319e-01 -4.515377e-01 -4.363309e-01 -5.221313e-01 8.589432e-01 1.294859e-01 -3.375196e-02 -4.436277e-01 -4.307868e-01 1.922322e+00 -3.815426e-01 5.058088e-01 5.736813e-01 6.775989e-01 -5.212528e-02 -2.891216e-01 1.819385e-01 -4.173275e-02 -1.113557e-01 -3.282313e-01 -8.760939e-02 4.826336e-01 -8.631871e-01 -1.348444e-01 1.873629e-01 -4.498116e-02 1.164580e-01 6.810869e-02 5.858384e-02 9.818554e-02 -1.670715e-01 -1.877584e-02 1.174482e-02 9.275942e-02 6.940393e-02 -2.285286e-01
<VARIANCE> 52
 1.931693e+01 4.339014e+01 3.384434e+01 5.481273e+01 3.290652e+01 5.630207e+01 3.450496e+01 3.621810e+01 3.471862e+01 3.245914e+01 3.159290e+01 3.424970e+01 3.676681e+01 2.845209e+00 3.401034e+00 3.649332e+00 5.343524e+00 4.443850e+00 4.614677e+00 3.095573e+00 4.620352e+00 3.624687e+00 3.227298e+00 3.023010e+00 2.433074e+00 2.348042e+00 4.396615e-01 5.815237e-01 5.367435e-01 1.005638e+00 5.972626e-01 7.604276e-01 6.235249e-01 6.797068e-01 6.922902e-01 6.193586e-01 5.811554e-01 5.187103e-01 5.708033e-01 1.152060e-01 1.252316e-01 1.243494e-01 2.112032e-01 1.827143e-01 1.829993e-01 1.255559e-01 1.620694e-01 1.406635e-01 1.322602e-01 1.237748e-01 9.897509e-02 1.026474e-01
<GCONST> 1.262608e+02
<TRANSP> 5
 0.000000e+00 1.000000e+00 0.000000e+00 0.000000e+00 0.000000e+00
 0.000000e+00 6.574185e-01 3.425815e-01 0.000000e+00 0.000000e+00
 0.000000e+00 0.000000e+00 4.147139e-01 5.852861e-01 0.000000e+00
 0.000000e+00 0.000000e+00 0.000000e+00 2.460846e-01 7.539154e-01
 0.000000e+00 0.000000e+00 0.000000e+00 0.000000e+00 0.000000e+00
<ENDHMM>
~h "r"
<BEGINHMM>
<NUMSTATES> 5
<STATE> 2
<MEAN> 52
 3.880095e+00 -3.871632e+00 -1.241501e+00 1.029530e+00 -3.199547e+00 -3.429213e+00 -1.257316e+00 2.412973e+00 2.888414e+00 -1.264893e-02 -7.743950e-01 -3.142684e-01 4.395607e+00 -2.951382e-01 5.480769e-01 4.827901e-01 7.786595e-01 2.529405e-01 -2.173806e-01 -1.171370e-01 -7.078114e-02 3.052156e-02 -1.110161e-01 1.400098e-01 3.590549e-01 -9.968064e-01 -1.124965e-01 2.993059e-02 1.200948e-02 -2.030375e-01 1.372369e-01 1.343779e-01 7.954624e-02 -8.585620e-02 -1.875586e-01 -1.965838e-03 5.275651e-02 -3.997588e-02 6.632513e-02 5.913806e-02 -8.634366e-02 -4.059068e-02 -1.330237e-01 -7.472002e-02 2.693488e-02 2.705140e-03 1.126217e-02 -2.142367e-02 2.515299e-02 -1.981456e-02 -6.249528e-02 1.608714e-01
<VARIANCE> 52
 1.621712e+01 3.007622e+01 3.530057e+01 3.756308e+01 4.314164e+01 4.200074e+01 3.603670e+01 3.588304e+01 2.670930e+01 2.745373e+01 2.277512e+01 2.030944e+01 2.789470e+01 1.346668e+00 1.897516e+00 2.137515e+00 2.248887e+00 3.163966e+00 2.759468e+00 2.339788e+00 2.482754e+00 2.362880e+00 2.136699e+00 2.133792e+00 1.674788e+00 1.328060e+00 1.921293e-01 2.508133e-01 2.980492e-01 3.660351e-01 4.498790e-01 4.074591e-01 3.451771e-01 3.910896e-01 3.526929e-01 3.190400e-01 3.509232e-01 2.576943e-01 2.120087e-01 6.469331e-02 7.431873e-02 7.916805e-02 1.043048e-01 1.438295e-01 1.242109e-01 1.044324e-01 1.104845e-01 1.007617e-01 9.589174e-02 1.019788e-01 7.756854e-02 6.561394e-02
<GCONST> 1.033797e+02
<STATE> 3
<MEAN> 52
 2.448347e+00 -1.757392e+00 -9.812877e-02 1.885644e+00 -7.334366e-01 -3.064989e+00 -1.159775e+00 1.702580e+00 2.567619e+00 -2.493855e-01 -2.595285e-01 4.190815e-01 1.609869e+00 -4.737760e-01 3.624546e-01 3.436292e-01 3.220118e-01 3.051152e-01 2.701785e-01 2.557819e-01 -2.196595e-01 -3.338048e-01 -1.935135e-01 1.610347e-01 2.164457e-01 -5.881938e-01 8.136705e-02 -1.980470e-01 -6.033233e-02 -4.473230e-01 -1.995669e-01 1.048950e-01 -5.908035e-03 -1.545512e-02 -2.179010e-01 8.812842e-02 3.051503e-02 -1.457163e-01 4.450223e-01 7.654925e-02 -3.829858e-02 -1.029263e-02 -5.197336e-02 -8.091946e-02 -5.680962e-02 -6.525914e-02 2.702686e-02 4.550922e-02 4.335283e-02 -2.631001e-02 -3.308409e-02 9.050523e-02
<VARIANCE> 52
 1.925340e+01 3.158471e+01 3.823061e+01 3.757757e+01 3.720487e+01 3.954023e+01 3.608053e+01 3.922808e+01 2.920436e+01 2.751422e+01 2.317590e+01 2.169482e+01 3.001516e+01 1.308373e+00 1.907614e+00 2.036991e+00 1.959605e+00 2.660203e+00 2.315525e+00 2.168382e+00 2.663267e+00 1.965382e+00 1.958259e+00 2.009012e+00 1.575533e+00 1.257463e+00 2.651657e-01 3.267977e-01 3.308289e-01 4.198014e-01 4.999513e-01 4.702225e-01 4.344811e-01 4.948975e-01 4.122511e-01 3.838517e-01 4.082909e-01 3.127465e-01 2.177722e-01 5.219086e-02 6.553432e-02 6.965268e-02 8.629230e-02 1.140306e-01 1.016952e-01 9.419014e-02 1.084641e-01 8.165227e-02 8.607549e-02 8.911348e-02 6.976392e-02 4.372343e-02
<GCONST> 1.028773e+02
<STATE> 4
<MEAN> 52
 6.147893e-01 -1.232450e+00 -5.865101e-01 1.819179e+00 -1.817839e-01 -1.802065e+00 9.224460e-02 1.222071e+00 1.706799e+00 -4.975677e-02 -2.728041e-01 8.283957e-01 5.702057e-02 1.952868e-03 1.322389e-02 1.756964e-01 -2.038107e-01 -2.044239e-01 1.825565e-01 5.737604e-02 -8.533919e-02 -3.911787e-01 5.084366e-02 1.116420e-01 -4.732594e-02 7.149371e-02 6.016746e-02 -9.084250e-02 -2.170179e-02 -2.127837e-01 -1.098317e-01 3.874756e-03 -7.070437e-02 1.493823e-02 -5.521068e-02 5.884723e-02 -3.217393e-03 -9.262244e-02 2.567613e-01 -4.327083e-02 4.517308e-02 7.074267e-03 5.624545e-02 5.027454e-02 -2.483018e-02 -8.981170e-03 -7.249393e-03 5.276569e-02 -1.592460e-02 -8.745826e-03 2.326741e-02 -5.583668e-02
<VARIANCE> 52
 3.533339e+01 3.508562e+01 3.939912e+01 3.580741e+01 4.004326e+01 3.646864e+01 3.243971e+01 3.874089e+01 2.575107e+01 2.525775e+01 2.334855e+01 1.913655e+01 4.947852e+01 1.706626e+00 1.908846e+00 1.901276e+00 1.873912e+00 2.266156e+00 1.919852e+00 1.930581e+00 2.487706e+00 1.826820e+00 1.725409e+00 1.651435e+00 1.366754e+00 1.533122e+00 3.220252e-01 3.576249e-01 3.190394e-01 4.176989e-01 5.222131e-01 4.348263e-01 3.976515e-01 4.756485e-01 3.602878e-01 3.713682e-01 3.547952e-01 2.923016e-01 2.700500e-01 6.022497e-02 6.590803e-02 6.568435e-02 8.062760e-02 9.181657e-02 8.060297e-02 8.044238e-02 9.958657e-02 7.860326e-02 7.312970e-02 7.195085e-02 5.898048e-02 5.413277e-02
<GCONST> 1.017767e+02
<TRANSP> 5
 0.000000e+00 1.000000e+00 0.000000e+00 0.000000e+00 0.000000e+00
 0.000000e+00 3.892723e-01 6.107277e-01 0.000000e+00 0.000000e+00
 0.000000e+00 0.000000e+00 9.627179e-02 9.037282e-01 0.000000e+00
 0.000000e+00 0.000000e+00 0.000000e+00 5.433401e-01 4.566599e-01
 0.000000e+00 0.000000e+00 0.000000e+00 0.000000e+00 0.000000e+00
<ENDHMM>
~h "s"
<BEGINHMM>
<NUMSTATES> 5
<STATE> 2
<MEAN> 52
 -5.937443e+00 5.430484e+00 -1.704758e+00 2.906678e+00 2.718428e+00 -3.957662e+00 3.146921e+00 1.928351e-01 1.429568e+00 -8.880785e-01 -1.740601e-01 8.775309e-01 2.579049e+00 -3.352780e+00 1.892607e+00 -1.070027e+00 8.263282e-01 8.903645e-01 -4.251480e-01 9.232496e-01 6.230699e-02 1.399794e-01 -4.280032e-01 5.270338e-01 1.479331e-01 -2.866719e-02 -3.435031e-02 -2.947928e-01 -6.817491e-02 -2.783657e-01 -1.447973e-01 1.125645e-01 -2.022637e-01 -1.554459e-02 -1.535569e-01 4.133257e-02 3.739663e-03 -5.667188e-02 3.906406e-02 4.275286e-01 -2.405697e-01 1.577718e-01 -7.495064e-02 -1.192338e-01 2.171818e-02 -9.330580e-02 -9.738252e-03 -2.448424e-03 5.671512e-02 -8.604153e-02 6.105640e-03 -2.612387e-02
<VARIANCE> 52
 4.994123e+01 4.017682e+01 4.882851e+01 3.809024e+01 5.118398e+01 4.350507e+01 4.188893e+01 4.030796e+01 3.290273e+01 3.144440e+01 2.741075e+01 2.097592e+01 3.479649e+01 1.958181e+00 2.749207e+00 2.728446e+00 3.663663e+00 3.543824e+00 3.383204e+00 2.825265e+00 3.026616e+00 2.373396e+00 2.612014e+00 2.090298e+00 1.755051e+00 1.201405e+00 6.777999e-01 4.292849e-01 3.922936e-01 4.228576e-01 5.025342e-01 4.804919e-01 4.195561e-01 4.438662e-01 3.960182e-01 3.979686e-01 3.486454e-01 2.794814e-01 1.229967e-01 6.638829e-02 7.849141e-02 8.691670e-02 1.183665e-01 1.240057e-01 1.251058e-01 1.113600e-01 1.186543e-01 1.022089e-01 1.070717e-01 8.623271e-02 7.261623e-02 3.256816e-02
<GCONST> 1.108672e+02
<STATE> 3
<MEAN> 52
 -1.538013e+01 8.100688e+00 -4.426218e+00 3.928134e+00 3.854653e+00 -4.303621e+00 4.721455e+00 1.105447e-01 7.697073e-01 -1.585737e+00 1.264022e+00 1.696270e+00 1.032414e+00 -2.275789e-01 -4.522662e-01 5.920257e-02 -2.664238e-02 -1.376269e-01 9.635069e-03 1.645370e-01 2.008943e-03 -5.711861e-02 -3.102215e-03 3.777609e-02 1.445360e-01 -3.760477e-01 8.328424e-01 -2.863338e-01 2.644022e-01 -1.221485e-01 -2.049964e-01 -1.663424e-02 -1.613096e-01 -3.569625e-02 3.194214e-02 8.098886e-02 -1.250197e-01 -5.693879e-02 4.762520e-02 2.470846e-02 9.938763e-02 -1.944332e-02 -1.813663e-03 -3.854511e-03 -1.744644e-02 -4.119076e-02 -1.468367e-02 1.504695e-02 -6.084684e-03 -4.960733e-03 -3.275995e-02 7.709715e-02
<VARIANCE> 52
 2.262794e+01 4.074238e+01 3.828789e+01 4.288032e+01 4.286708e+01 3.863940e+01 3.947451e+01 2.978430e+01 2.958574e+01 3.044638e+01 2.230128e+01 1.954967e+01 2.614830e+01 1.961528e+00 1.207592e+00 1.351851e+00 1.221349e+00 1.468598e+00 1.605928e+00 1.617691e+00 1.732385e+00 1.619089e+00 1.528952e+00 1.368416e+00 1.078174e+00 5.392251e-01 3.544559e-01 3.207477e-01 2.695259e-01 3.202192e-01 3.443947e-01 3.668657e-01 4.126803e-01 3.900136e-01 3.444726e-01 3.634692e-01 3.044859e-01 2.539824e-01 1.282437e-01 5.576432e-02 4.827200e-02 5.270698e-02 6.453951e-02 6.891493e-02 7.756684e-02 8.813063e-02 8.256421e-02 7.794270e-02 7.163677e-02 6.509274e-02 5.451703e-02 2.194148e-02
<GCONST> 9.274148e+01
<STATE> 4
<MEAN> 52
 -8.000968e+00 3.997857e+00 -3.339076e+00 2.466148e+00 1.645978e+00 -4.781673e+00 3.557802e+00 1.630433e-01 1.822520e+00 -1.327019e+00 -4.960595e-01 1.302501e+00 1.621760e+00 3.753061e+00 -1.069607e+00 5.426180e-01 -9.961821e-01 -1.285366e+00 -1.123997e-01 -1.350013e+00 -2.408722e-01 1.327513e-01 1.999272e-01 -7.253578e-01 -6.312649e-01 1.150055e+00 1.707220e-01 -4.522210e-02 4.347337e-02 -2.621880e-01 -9.259782e-02 1.413639e-01 -2.560585e-01 -2.647777e-02 -1.077626e-01 6.235202e-02 8.884451e-02 -1.298857e-01 3.031720e-01 -5.460958e-01 7.138769e-02 -5.613779e-02 1.144913e-01 1.842016e-01 6.004100e-02 2.124404e-01 4.868119e-02 -3.966878e-02 -3.377980e-02 1.270421e-01 8.929517e-02 -1.819187e-01
<VARIANCE> 52
 5.722793e+01 3.563295e+01 4.090079e+01 3.390169e+01 4.173368e+01 4.131969e+01 3.656683e+01 2.763079e+01 2.670212e+01 2.343191e+01 2.359965e+01 1.765015e+01 2.770906e+01 2.602017e+00 4.280900e+00 3.880311e+00 3.302147e+00 3.670765e+00 3.539139e+00 3.737603e+00 3.930827e+00 2.847780e+00 3.075693e+00 2.687550e+00 1.999879e+00 2.150028e+00 9.407996e-01 4.406175e-01 3.815359e-01 4.204586e-01 5.303547e-01 4.736909e-01 5.947689e-01 4.828217e-01 4.088421e-01 4.017224e-01 4.296084e-01 3.008977e-01 2.851661e-01 9.069096e-02 1.279417e-01 1.094272e-01 1.124067e-01 1.286710e-01 1.243761e-01 1.331139e-01 1.335954e-01 1.102673e-01 1.148006e-01 1.033512e-01 7.630965e-02 7.370312e-02
<GCONST> 1.161323e+02
<TRANSP> 5
 0.000000e+00 1.000000e+00 0.000000e+00 0.000000e+00 0.000000e+00
 0.000000e+00 6.888981e-01 3.111018e-01 0.000000e+00 0.000000e+00
 0.000000e+00 0.000000e+00 8.068837e-01 1.931163e-01 0.000000e+00
 0.000000e+00 0.000000e+00 0.000000e+00 6.174501e-01 3.825499e-01
 0.000000e+00 0.000000e+00 0.000000e+00 0.000000e+00 0.000000e+00
<ENDHMM>
~h "t"
<BEGINHMM>
<NUMSTATES> 5
<STATE> 2
<MEAN> 52
 -1.279683e+00 2.383504e+00 8.940648e-02 2.601268e+00 1.419143e-01 -9.698910e-01 -1.001423e-01 -6.742275e-01 4.085210e-01 3.662255e-01 -4.076189e-01 5.633176e-01 -6.334582e+00 -9.843477e-01 -3.133932e-01 -4.786777e-01 -3.496699e-02 2.805526e-01 -1.048317e-01 5.035141e-01 2.692489e-02 -6.023192e-02 -2.138007e-01 2.824482e-01 3.300391e-01 -9.493847e-02 7.830980e-02 -2.861301e-01 -9.239893e-02 -4.300774e-01 -4.949604e-02 -3.218983e-01 -3.485687e-02 4.596285e-02 9.100707e-02 -1.346869e-02 -2.777904e-03 -7.913943e-02 9.442760e-01 2.011707e-01 3.711035e-02 7.676162e-02 -5.282139e-02 -4.419120e-02 2.183462e-02 -1.217031e-01 1.103434e-02 2.602848e-02 4.804512e-02 -6.993575e-02 -8.227705e-02 8.013070e-02
<VARIANCE> 52
 2.350666e+01 2.432955e+01 3.801899e+01 2.837042e+01 3.246761e+01 3.643419e+01 2.647031e+01 3.821405e+01 2.796554e+01 2.443145e+01 2.182780e+01 1.946291e+01 3.292054e+01 1.251540e+00 1.562229e+00 2.109034e+00 1.927697e+00 2.426466e+00 2.894585e+00 2.103560e+00 2.391989e+00 1.914313e+00 2.096121e+00 1.859161e+00 1.374000e+00 3.219452e+00 2.868911e-01 3.104515e-01 4.775011e-01 4.442211e-01 4.889865e-01 5.638426e-01 4.427620e-01 5.671012e-01 4.402377e-01 4.350781e-01 3.960005e-01 3.096824e-01 3.963600e-01 5.607664e-02 7.082367e-02 8.962580e-02 8.952501e-02 1.111255e-01 1.388371e-01 1.025249e-01 1.096690e-01 9.041205e-02 1.000983e-01 8.902072e-02 6.863138e-02 1.146991e-01
<GCONST> 1.058064e+02
<STATE> 3
<MEAN> 52
 -3.967854e+00 4.045725e-01 -1.852906e+00 1.239561e+00 1.247376e+00 -2.708463e+00 1.913660e+00 -1.004926e+00 4.024386e-01 -4.492490e-01 3.625175e-01 1.297606e+00 -2.962304e+00 5.598849e-02 -1.097230e+00 -7.583418e-01 -1.680044e+00 2.373772e-01 -1.220623e+00 -1.919771e-02 4.175042e-01 6.541504e-01 -1.065405e-01 -2.169239e-01 -3.295327e-01 3.226382e+00 7.119604e-01 -3.288908e-02 2.445425e-01 -3.884588e-01 -2.390849e-01 1.591312e-01 -4.948929e-01 1.025514e-01 4.600843e-02 1.525595e-01 -1.690291e-01 -2.990781e-01 4.931322e-01 2.787497e-02 1.528690e-01 1.243811e-01 2.449052e-01 -3.669563e-02 2.892082e-01 -2.396072e-02 -6.187913e-02 -1.402222e-01 1.699583e-02 4.266301e-02 4.300459e-02 -5.381093e-01
<VARIANCE> 52
 2.157897e+01 2.591619e+01 3.586981e+01 3.724614e+01 3.766798e+01 4.409543e+01 2.921228e+01 2.980216e+01 2.795159e+01 2.711873e+01 2.342009e+01 1.744138e+01 5.155870e+01 3.231708e+00 3.628980e+00 5.698315e+00 4.605364e+00 5.500033e+00 5.263622e+00 4.239001e+00 5.783762e+00 4.196225e+00 3.649024e+00 3.507191e+00 2.509764e+00 4.068913e+00 3.652068e-01 5.486447e-01 7.073385e-01 7.003223e-01 7.044270e-01 7.971522e-01 6.209516e-01 6.981027e-01 5.182148e-01 5.889412e-01 5.548260e-01 3.929406e-01 6.282519e-01 1.122760e-01 1.099819e-01 1.507178e-01 1.606958e-01 1.785869e-01 1.852053e-01 1.541212e-01 1.843959e-01 1.474897e-01 1.398063e-01 1.304178e-01 9.265570e-02 1.243970e-01
<GCONST> 1.261012e+02
<STATE> 4
<MEAN> 52
 -1.020768e+00 -1.213555e+00 -2.773289e+00 -2.796472e+00 1.311700e+00 -4.289654e+00 -1.903398e-01 5.499471e-01 2.696677e+00 -3.291332e-02 -1.156363e+00 -9.187611e-01 3.919392e+00 1.599432e+00 -5.962858e-01 1.298522e-01 -1.455999e+00 -5.303373e-01 1.621283e-01 -1.158637e+00 3.063853e-01 1.770491e-01 3.147702e-01 -2.470460e-01 -8.111550e-01 2.372137e+00 2.671634e-01 1.791033e-01 3.057776e-01 2.006217e-01 -1.704635e-01 5.332432e-01 -1.544082e-01 -1.354991e-01 -3.354527e-01 8.385926e-02 1.031718e-01 4.046247e-02 -6.179354e-01 -3.000188e-01 6.014493e-02 -5.472441e-02 2.120915e-01 1.153551e-01 -2.211735e-02 2.319454e-01 -5.301061e-02 -4.402557e-02 -7.002855e-02 6.294519e-02 1.527182e-01 -3.372746e-01
<VARIANCE> 52
 2.752453e+01 2.937506e+01 3.814244e+01 3.861245e+01 4.179660e+01 4.114522e+01 3.892282e+01 3.575915e+01 2.855399e+01 2.749435e+01 2.653326e+01 2.514401e+01 3.862497e+01 3.013625e+00 4.297209e+00 5.408097e+00 4.989586e+00 4.424055e+00 4.696976e+00 4.542242e+00 6.045742e+00 3.276129e+00 3.484385e+00 3.692971e+00 2.893106e+00 3.271431e+00 5.210788e-01 4.779526e-01 5.272372e-01 6.749596e-01 6.834218e-01 7.601981e-01 6.779496e-01 6.802804e-01 5.547778e-01 4.989747e-01 4.992558e-01 4.034365e-01 6.340085e-01 1.062943e-01 1.434001e-01 1.600807e-01 1.841937e-01 1.567671e-01 1.782158e-01 1.741651e-01 2.004169e-01 1.213817e-01 1.359092e-01 1.421844e-01 1.071090e-01 1.114131e-01
<GCONST> 1.269443e+02
<TRANSP> 5
 0.000000e+00 1.000000e+00 0.000000e+00 0.000000e+00 0.000000e+00
 0.000000e+00 6.147777e-01 3.852223e-01 0.000000e+00 0.000000e+00
 0.000000e+00 0.000000e+00 3.730389e-01 6.269611e-01 0.000000e+00
 0.000000e+00 0.000000e+00 0.000000e+00 3.161799e-01 6.838202e-01
 0.000000e+00 0.000000e+00 0.000000e+00 0.000000e+00 0.000000e+00
<ENDHMM>
~h "u"
<BEGINHMM>
<NUMSTATES> 5
<STATE> 2
<MEAN> 52
 5.504395e+00 4.204456e+00 -1.684097e+00 -5.212268e+00 -1.903702e+00 4.931262e-01 -5.644566e+00 -4.244510e+00 -2.410954e+00 8.699175e-01 2.069115e+00 1.324271e+00 2.440483e+00 9.389520e-01 3.248238e-01 -5.518796e-01 -1.695475e+00 -2.581143e-01 1.067269e+00 -7.541276e-01 -8.075640e-01 -8.137293e-01 4.650204e-01 9.404343e-01 1.981629e-01 5.642100e-01 -3.507818e-01 -1.055732e-01 1.417818e-01 3.748854e-01 2.493773e-01 8.573229e-02 3.099447e-01 1.021179e-01 1.040053e-01 2.312704e-02 -1.120894e-01 -9.481041e-02 -2.789961e-01 -1.428540e-01 -6.997310e-02 8.120543e-02 2.813333e-01 5.030501e-02 -2.243812e-01 9.454749e-02 1.423199e-01 1.615908e-01 -8.239704e-02 -1.720008e-01 -3.752668e-02 -5.546944e-02
<VARIANCE> 52
 1.801431e+01 3.805227e+01 3.202407e+01 6.620695e+01 3.998783e+01 5.194880e+01 5.236115e+01 4.884214e+01 4.725087e+01 4.400940e+01 3.133593e+01 2.859811e+01 2.633980e+01 1.929464e+00 2.408541e+00 2.564698e+00 4.227630e+00 4.042840e+00 3.949598e+00 3.781240e+00 3.750706e+00 3.513976e+00 3.061272e+00 2.921313e+00 2.254099e+00 1.547685e+00 3.071419e-01 3.990741e-01 3.663578e-01 8.044306e-01 5.625992e-01 6.309407e-01 8.453636e-01 6.736467e-01 6.781877e-01 5.904675e-01 5.400386e-01 4.480202e-01 2.801479e-01 7.047940e-02 9.054533e-02 8.946487e-02 1.530114e-01 1.631311e-01 1.629357e-01 1.614362e-01 1.557421e-01 1.421265e-01 1.312306e-01 1.239178e-01 9.660131e-02 5.532436e-02
<GCONST> 1.205089e+02
<STATE> 3
<MEAN> 52
 5.930120e+00 3.156390e+00 -2.883048e+00 -8.389804e+00 -7.952283e-01 2.886642e+00 -7.256629e+00 -5.692536e+00 -2.964477e+00 2.565491e+00 4.136910e+00 6.134678e-01 4.155154e+00 -1.466960e-01 -3.231954e-01 2.213931e-01 5.450125e-01 3.516830e-01 -9.896756e-02 3.543122e-02 1.575388e-01 4.911607e-01 2.620083e-01 -3.523645e-01 -4.978216e-01 -1.290586e-01 -3.042873e-01 -1.266245e-02 2.604779e-01 7.345948e-01 6.798691e-02 -3.448303e-01 3.832806e-01 3.351021e-01 2.569418e-01 -2.920150e-01 -4.488978e-01 -1.714890e-02 -3.464233e-01 4.823187e-02 4.602453e-02 -5.021602e-02 -1.315642e-01 -7.782856e-02 1.175101e-02 -4.375840e-02 -4.284334e-02 -8.941774e-02 -4.452238e-02 7.501578e-02 9.856158e-02 5.666348e-02
<VARIANCE> 52
 1.316863e+01 2.864503e+01 3.050262e+01 6.028901e+01 3.754889e+01 5.861687e+01 4.447785e+01 4.926288e+01 4.624522e+01 4.772772e+01 3.697684e+01 3.222033e+01 1.927094e+01 6.550968e-01 2.357881e+00 1.574882e+00 3.890263e+00 2.641598e+00 3.256897e+00 3.547282e+00 3.087167e+00 4.263463e+00 2.937123e+00 2.661345e+00 2.473807e+00 1.505099e+00 2.301348e-01 3.119012e-01 3.412262e-01 5.889410e-01 5.779437e-01 6.141847e-01 6.438463e-01 6.299512e-01 6.717818e-01 5.464647e-01 5.444837e-01 4.812774e-01 1.637231e-01 3.370035e-02 7.326763e-02 5.900537e-02 1.333678e-01 1.076174e-01 1.346570e-01 1.606550e-01 1.304514e-01 1.580851e-01 1.296388e-01 1.158011e-01 1.070261e-01 4.757496e-02
<GCONST> 1.131636e+02
<STATE> 4
<MEAN> 52
 4.207816e+00 4.791101e+00 -1.463677e+00 -4.763160e+00 1.387377e-02 1.109488e+00 -4.510816e+00 -4.073894e+00 -2.979280e+00 1.572976e+00 1.404439e+00 1.278940e+00 -6.854053e-01 -3.654047e-01 -1.600535e-03 2.579834e-01 8.705413e-01 1.712989e-01 -1.148947e-01 3.757578e-01 2.126820e-01 3.429072e-01 -1.255566e-01 -3.858314e-01 -9.361105e-03 -7.366235e-01 -1.180562e-01 -3.484970e-02 1.253281e-02 8.698891e-02 -4.857407e-03 -5.865743e-02 2.656466e-02 1.450033e-02 2.296416e-02 -5.101016e-02 4.449652e-03 2.070630e-02 2.907705e-02 3.734299e-02 -9.966169e-03 -4.684012e-02 -1.385040e-01 -1.979920e-02 2.604738e-02 -5.251053e-02 -3.194895e-02 -5.281526e-02 3.425598e-02 6.562749e-02 -3.953838e-03 1.030257e-01
<VARIANCE> 52
 1.767864e+01 2.686920e+01 2.718666e+01 6.080920e+01 2.918879e+01 3.844947e+01 3.689302e+01 3.676679e+01 3.828532e+01 3.985507e+01 2.863799e+01 2.493812e+01 3.769102e+01 6.795956e-01 1.076633e+00 1.135352e+00 2.216516e+00 1.548915e+00 1.876402e+00 1.781720e+00 1.946343e+00 1.858799e+00 1.650520e+00 1.769453e+00 1.288237e+00 9.310453e-01 1.310153e-01 1.856898e-01 1.981732e-01 3.607128e-01 3.213393e-01 3.443070e-01 3.549770e-01 3.595933e-01 3.949902e-01 3.287804e-01 3.204262e-01 2.582021e-01 1.436150e-01 2.794816e-02 3.805486e-02 4.609283e-02 8.964520e-02 7.137907e-02 7.995252e-02 8.589931e-02 8.477444e-02 8.585382e-02 7.533621e-02 7.789946e-02 5.794551e-02 3.237823e-02
<GCONST> 9.232083e+01
<TRANSP> 5
 0.000000e+00 1.000000e+00 0.000000e+00 0.000000e+00 0.000000e+00
 0.000000e+00 4.694850e-01 5.305150e-01 0.000000e+00 0.000000e+00
 0.000000e+00 0.000000e+00 4.717672e-01 5.282328e-01 0.000000e+00
 0.000000e+00 0.000000e+00 0.000000e+00 7.182840e-01 2.817160e-01
 0.000000e+00 0.000000e+00 0.000000e+00 0.000000e+00 0.000000e+00
<ENDHMM>
~h "v"
<BEGINHMM>
<NUMSTATES> 5
<STATE> 2
<MEAN> 52
 -6.593968e-01 1.619423e+00 -7.916339e-01 6.303278e+00 9.072798e-02 1.803884e+00 2.375222e+00 2.401621e+00 1.511378e+00 -6.583608e-01 -7.644936e-01 1.706548e-01 -1.932909e+00 -1.995657e+00 4.581704e-01 -9.737021e-01 6.008735e-01 8.270078e-02 -6.465975e-01 2.072426e-01 -7.567776e-02 2.655094e-01 -4.791481e-01 -8.274400e-02 4.444785e-01 -7.577965e-01 -4.154842e-02 -1.643143e-01 8.505057e-03 -2.877312e-01 -1.736942e-01 -1.664704e-01 -2.278701e-01 -2.196857e-01 -1.432890e-01 -4.539549e-02 2.481581e-02 -1.434887e-01 2.637838e-01 2.816561e-01 -2.241973e-02 1.591326e-01 -7.183163e-02 -2.685828e-02 1.330861e-01 1.663248e-03 -4.679799e-02 -8.456127e-02 1.098497e-01 2.733727e-02 -3.930461e-02 7.070039e-02
<VARIANCE> 52
 1.582469e+01 1.796189e+01 3.891911e+01 2.983362e+01 3.292561e+01 2.479584e+01 1.442273e+01 4.197158e+01 3.058234e+01 1.789262e+01 1.489026e+01 1.366123e+01 1.690393e+01 1.176506e+00 1.195699e+00 1.989386e+00 1.717092e+00 2.758713e+00 2.081092e+00 2.235874e+00 1.969847e+00 3.356623e+00 1.632829e+00 1.790941e+00 1.293703e+00 9.135712e-01 2.949773e-01 1.957763e-01 3.295608e-01 2.913403e-01 3.863935e-01 3.718936e-01 3.007009e-01 3.484729e-01 5.838313e-01 2.315452e-01 2.871392e-01 2.041158e-01 1.215507e-01 4.953041e-02 5.067080e-02 1.014266e-01 7.862020e-02 1.102806e-01 9.715840e-02 9.514435e-02 7.329479e-02 1.388019e-01 7.178498e-02 7.509947e-02 5.427177e-02 3.099760e-02
<GCONST> 9.284360e+01
<STATE> 3
<MEAN> 52
 -7.829952e+00 6.433628e-01 -2.805516e+00 4.453635e+00 3.564618e-01 -1.445367e+00 1.189173e+00 -6.735018e-01 8.360031e-01 -3.009463e+00 -1.026832e+00 8.420298e-01 -1.803561e+00 -3.275848e-01 -2.288816e-01 1.806030e-01 -7.340161e-02 -1.368553e-01 -1.369583e-02 1.491154e-01 -1.656274e-01 -3.000938e-01 1.160602e-01 1.817390e-01 3.668055e-02 -9.922494e-02 8.535870e-01 -1.098507e-02 4.811920e-01 -2.546574e-01 -1.667232e-01 2.206520e-01 -5.087629e-05 3.480663e-03 -1.877705e-01 3.541470e-01 1.979136e-01 -1.523425e-01 3.010401e-01 6.261975e-02 3.913138e-02 8.033416e-04 -4.500122e-02 -4.748067e-02 -2.913171e-02 -5.462267e-02 2.994275e-03 2.392426e-02 3.522820e-03 -1.839474e-03 -2.572990e-02 5.541838e-02
<VARIANCE> 52
 1.014176e+01 1.400619e+01 2.200365e+01 2.428001e+01 2.023794e+01 1.604401e+01 1.604882e+01 2.483685e+01 1.586547e+01 2.397904e+01 1.361720e+01 9.728900e+00 1.048592e+01 2.119425e+00 1.143464e+00 1.766670e+00 1.011205e+00 1.449219e+00 1.236424e+00 1.193104e+00 2.027462e+00 1.388460e+00 1.803344e+00 1.436442e+00 9.463984e-01 3.804299e-01 2.859893e-01 3.202793e-01 4.641346e-01 3.377133e-01 4.211980e-01 3.638960e-01 3.437515e-01 4.394836e-01 3.992331e-01 3.740762e-01 3.870551e-01 2.118497e-01 1.501344e-01 7.050766e-02 6.333329e-02 5.566623e-02 5.912225e-02 7.688691e-02 5.212839e-02 7.180113e-02 8.964018e-02 7.770981e-02 9.127913e-02 7.483985e-02 5.221763e-02 2.252915e-02
<GCONST> 8.465847e+01
<STATE> 4
<MEAN> 52
 -3.920249e+00 3.066487e+00 -1.080557e+00 3.563531e+00 -2.032529e+00 1.167043e+00 2.576409e+00 -2.606220e+00 1.103978e-01 8.890905e-02 4.789200e-01 2.055438e-02 7.174014e-02 1.785988e+00 -2.980485e-01 7.102182e-01 -1.256754e+00 -8.997148e-01 1.532741e-01 -3.889633e-01 -7.424518e-01 -4.603051e-01 7.346033e-01 4.217603e-01 -7.551842e-01 1.429430e+00 1.054893e-01 -1.580117e-01 2.365242e-01 -2.837940e-01 -2.210186e-01 -1.764949e-01 -1.812866e-01 9.787610e-04 3.053784e-02 5.221104e-02 -9.777564e-02 -1.137697e-01 2.877829e-01 -3.418946e-01 4.331058e-02 -8.984555e-02 1.445396e-01 1.503008e-01 -2.791694e-02 5.778300e-02 8.214454e-02 7.355925e-02 -1.212018e-01 -6.641728e-02 1.284885e-01 -1.999741e-01
<VARIANCE> 52
 6.237821e+01 6.397253e+01 5.516343e+01 5.679805e+01 3.348573e+01 4.412197e+01 3.672010e+01 4.890599e+01 1.986794e+01 2.248810e+01 2.041460e+01 1.487094e+01 2.322404e+01 5.761492e+00 4.115272e+00 6.868245e+00 4.969934e+00 4.310993e+00 4.437836e+00 3.598209e+00 4.398391e+00 2.950999e+00 2.579122e+00 3.061300e+00 1.871649e+00 2.198170e+00 8.141873e-01 4.989693e-01 6.530288e-01 8.660424e-01 5.935976e-01 5.409814e-01 6.570568e-01 5.777210e-01 3.151183e-01 4.426062e-01 4.190804e-01 3.383141e-01 3.049057e-01 1.701239e-01 1.202616e-01 1.886946e-01 1.810732e-01 1.409589e-01 1.678764e-01 1.388995e-01 1.240097e-01 1.051613e-01 1.006888e-01 1.205387e-01 7.760527e-02 6.518891e-02
<GCONST> 1.229297e+02
<TRANSP> 5
 0.000000e+00 1.000000e+00 0.000000e+00 0.000000e+00 0.000000e+00
 0.000000e+00 7.132652e-01 2.867348e-01 0.000000e+00 0.000000e+00
 0.000000e+00 0.000000e+00 6.981379e-01 3.018621e-01 0.000000e+00
 0.000000e+00 0.000000e+00 0.000000e+00 7.034777e-01 2.965223e-01
